{"learner":{"attributes":{"scikit_learn":"{\"_estimator_type\": \"classifier\"}"},"feature_names":[],"feature_types":[],"gradient_booster":{"model":{"cats":{"enc":[],"feature_segments":[],"sorted_idx":[]},"gbtree_model_param":{"num_parallel_tree":"1","num_trees":"500"},"iteration_indptr":[0,1,2,3,4,5,6,7,8,9,10,11,12,13,14,15,16,17,18,19,20,21,22,23,24,25,26,27,28,29,30,31,32,33,34,35,36,37,38,39,40,41,42,43,44,45,46,47,48,49,50,51,52,53,54,55,56,57,58,59,60,61,62,63,64,65,66,67,68,69,70,71,72,73,74,75,76,77,78,79,80,81,82,83,84,85,86,87,88,89,90,91,92,93,94,95,96,97,98,99,100,101,102,103,104,105,106,107,108,109,110,111,112,113,114,115,116,117,118,119,120,121,122,123,124,125,126,127,128,129,130,131,132,133,134,135,136,137,138,139,140,141,142,143,144,145,146,147,148,149,150,151,152,153,154,155,156,157,158,159,160,161,162,163,164,165,166,167,168,169,170,171,172,173,174,175,176,177,178,179,180,181,182,183,184,185,186,187,188,189,190,191,192,193,194,195,196,197,198,199,200,201,202,203,204,205,206,207,208,209,210,211,212,213,214,215,216,217,218,219,220,221,222,223,224,225,226,227,228,229,230,231,232,233,234,235,236,237,238,239,240,241,242,243,244,245,246,247,248,249,250,251,252,253,254,255,256,257,258,259,260,261,262,263,264,265,266,267,268,269,270,271,272,273,274,275,276,277,278,279,280,281,282,283,284,285,286,287,288,289,290,291,292,293,294,295,296,297,298,299,300,301,302,303,304,305,306,307,308,309,310,311,312,313,314,315,316,317,318,319,320,321,322,323,324,325,326,327,328,329,330,331,332,333,334,335,336,337,338,339,340,341,342,343,344,345,346,347,348,349,350,351,352,353,354,355,356,357,358,359,360,361,362,363,364,365,366,367,368,369,370,371,372,373,374,375,376,377,378,379,380,381,382,383,384,385,386,387,388,389,390,391,392,393,394,395,396,397,398,399,400,401,402,403,404,405,406,407,408,409,410,411,412,413,414,415,416,417,418,419,420,421,422,423,424,425,426,427,428,429,430,431,432,433,434,435,436,437,438,439,440,441,442,443,444,445,446,447,448,449,450,451,452,453,454,455,456,457,458,459,460,461,462,463,464,465,466,467,468,469,470,471,472,473,474,475,476,477,478,479,480,481,482,483,484,485,486,487,488,489,490,491,492,493,494,495,496,497,498,499,500],"tree_info":[0,0,0,0,0,0,0,0,0,0,0,0,0,0,0,0,0,0,0,0,0,0,0,0,0,0,0,0,0,0,0,0,0,0,0,0,0,0,0,0,0,0,0,0,0,0,0,0,0,0,0,0,0,0,0,0,0,0,0,0,0,0,0,0,0,0,0,0,0,0,0,0,0,0,0,0,0,0,0,0,0,0,0,0,0,0,0,0,0,0,0,0,0,0,0,0,0,0,0,0,0,0,0,0,0,0,0,0,0,0,0,0,0,0,0,0,0,0,0,0,0,0,0,0,0,0,0,0,0,0,0,0,0,0,0,0,0,0,0,0,0,0,0,0,0,0,0,0,0,0,0,0,0,0,0,0,0,0,0,0,0,0,0,0,0,0,0,0,0,0,0,0,0,0,0,0,0,0,0,0,0,0,0,0,0,0,0,0,0,0,0,0,0,0,0,0,0,0,0,0,0,0,0,0,0,0,0,0,0,0,0,0,0,0,0,0,0,0,0,0,0,0,0,0,0,0,0,0,0,0,0,0,0,0,0,0,0,0,0,0,0,0,0,0,0,0,0,0,0,0,0,0,0,0,0,0,0,0,0,0,0,0,0,0,0,0,0,0,0,0,0,0,0,0,0,0,0,0,0,0,0,0,0,0,0,0,0,0,0,0,0,0,0,0,0,0,0,0,0,0,0,0,0,0,0,0,0,0,0,0,0,0,0,0,0,0,0,0,0,0,0,0,0,0,0,0,0,0,0,0,0,0,0,0,0,0,0,0,0,0,0,0,0,0,0,0,0,0,0,0,0,0,0,0,0,0,0,0,0,0,0,0,0,0,0,0,0,0,0,0,0,0,0,0,0,0,0,0,0,0,0,0,0,0,0,0,0,0,0,0,0,0,0,0,0,0,0,0,0,0,0,0,0,0,0,0,0,0,0,0,0,0,0,0,0,0,0,0,0,0,0,0,0,0,0,0,0,0,0,0,0,0,0,0,0,0,0,0,0,0,0,0,0,0,0,0,0,0,0,0,0,0,0,0,0,0,0,0,0,0,0,0,0,0,0,0,0,0,0,0,0,0,0,0,0,0,0,0,0,0,0,0,0,0,0,0,0,0,0,0,0,0,0,0,0,0,0,0,0,0],"trees":[{"base_weights":[-5.7629127E-2,1.1508212E0,-1.2654973E0,1.4262983E0,9.6716695E-2,1.0428131E0,-1.8670372E0,1.5068663E0,4.9173293E-1,-6.431565E-1,1.0294429E0,1.3527066E-1,4.3268006E-2,-2.1379898E0,2.8461963E-1,2.6590852E-2,4.57583E-2,-1.406388E-2,3.2160655E-2,-5.96179E-2,3.4410894E-1,3.8858748E-3,4.130379E-2,4.124678E-2,-4.4992123E-2,-1.0752747E0,-2.5324435E0,9.636782E-1,-2.6786046E-2,3.50382E-2,-2.3100004E-2,-1.5060935E0,1.8363208E-2,-8.5876085E-4,-2.6865337E0,3.657191E-2,1.3850081E-2,-7.490866E-2,-3.0171629E-2,-8.2237765E-2,-4.2161424E-2],"categories":[],"categories_nodes":[],"categories_segments":[],"categories_sizes":[],"default_left":[0,0,0,0,0,0,0,0,0,0,0,0,0,0,0,0,0,0,0,0,0,0,0,0,0,0,0,0,0,0,0,0,0,0,0,0,0,0,0,0,0],"id":0,"left_children":[1,3,5,7,9,11,13,15,17,19,21,23,-1,25,27,-1,-1,-1,-1,-1,29,-1,-1,-1,-1,31,33,35,-1,-1,-1,37,-1,-1,39,-1,-1,-1,-1,-1,-1],"loss_changes":[6.0479E2,5.9847626E1,2.8978265E2,1.1410919E1,3.1104456E1,1.539793E1,9.686395E1,1.2542725E-1,8.702064E0,3.418763E1,5.9017696E0,3.1354607E1,0E0,5.8334106E1,1.6276691E1,0E0,0E0,0E0,0E0,0E0,1.4976822E1,0E0,0E0,0E0,0E0,3.1156666E1,4.056598E1,9.0470314E-1,0E0,0E0,0E0,1.3683357E1,0E0,0E0,2.7334595E0,0E0,0E0,0E0,0E0,0E0,0E0],"parents":[2147483647,0,0,1,1,2,2,3,3,4,4,5,5,6,6,7,7,8,8,9,9,10,10,11,11,13,13,14,14,20,20,25,25,26,26,27,27,31,31,34,34],"right_children":[2,4,6,8,10,12,14,16,18,20,22,24,-1,26,28,-1,-1,-1,-1,-1,30,-1,-1,-1,-1,32,34,36,-1,-1,-1,38,-1,-1,40,-1,-1,-1,-1,-1,-1],"split_conditions":[-3.1711367E-1,-5.2681625E-1,2.1014926E-1,-4.064358E-1,1.2036364E0,1.4830447E-2,1.5513636E0,1.962901E-1,1.5692399E0,2.704345E-2,3.1304744E-1,-4.0082686E-2,4.3268006E-2,5.931818E-1,-5.342425E-2,2.6590852E-2,4.57583E-2,-1.406388E-2,3.2160655E-2,-5.96179E-2,2E-1,3.8858748E-3,4.130379E-2,4.124678E-2,-4.4992123E-2,4.9212697E-1,9.4223505E-1,-1.427502E-1,-2.6786046E-2,3.50382E-2,-2.3100004E-2,2.703051E-2,1.8363208E-2,-8.5876085E-4,4.8878703E-2,3.657191E-2,1.3850081E-2,-7.490866E-2,-3.0171629E-2,-8.2237765E-2,-4.2161424E-2],"split_indices":[4,65,76,4,76,42,76,48,37,42,49,38,0,76,38,0,0,0,0,0,76,0,0,0,0,33,59,4,0,0,0,66,0,0,3,0,0,0,0,0,0],"split_type":[0,0,0,0,0,0,0,0,0,0,0,0,0,0,0,0,0,0,0,0,0,0,0,0,0,0,0,0,0,0,0,0,0,0,0,0,0,0,0,0,0],"sum_hessian":[4.123338E2,2.0609946E2,2.0623434E2,1.630424E2,4.305705E1,4.2447857E1,1.637865E2,1.4943994E2,1.360246E1,2.4124132E1,1.8932919E1,1.3458863E1,2.898899E1,1.4551498E2,1.8271505E1,5.878734E0,1.4356122E2,5.1302943E0,8.472165E0,9.829801E0,1.4294332E1,5.735138E0,1.319778E1,7.7802935E0,5.67857E0,4.046797E1,1.0504702E2,1.1757468E1,6.5140376E0,8.241542E0,6.05279E0,3.2370026E1,8.097945E0,6.196386E0,9.885063E1,6.714202E0,5.0432663E0,9.455581E0,2.2914444E1,9.363331E1,5.2173223E0],"tree_param":{"num_deleted":"0","num_feature":"89","num_nodes":"41","size_leaf_vector":"1"}},{"base_weights":[1.0073443E-2,1.2158613E0,-1.1355885E0,1.3318151E0,-1.8102993E-1,8.9124596E-1,-1.644648E0,1.7696032E-1,1.4180766E0,3.9575074E-2,-3.886746E-2,1.3180646E0,-4.5598045E-2,-1.9793736E0,1.1527247E-1,3.2835446E-2,-2.4894336E-2,1.4554994E0,6.274095E-3,1.8357132E-2,4.4675145E-2,-2.3033502E0,-1.0727893E0,9.3252504E-1,-4.1077476E-2,4.4982716E-2,7.42802E-1,-2.4485893E0,-7.5629905E-5,-2.279656E0,3.0325878E-1,3.6072057E-2,6.5911016E-3,3.8672965E-2,3.4367798E-3,-7.831254E-2,-4.167417E-2,-3.9339628E-2,-7.478564E-2,3.0780455E-2,-4.045358E-2],"categories":[],"categories_nodes":[],"categories_segments":[],"categories_sizes":[],"default_left":[0,0,0,0,0,0,0,0,0,0,0,0,0,0,0,0,0,0,0,0,0,0,0,0,0,0,0,0,0,0,0,0,0,0,0,0,0,0,0,0,0],"id":1,"left_children":[1,3,5,7,9,11,13,15,17,-1,-1,19,-1,21,23,-1,-1,25,-1,-1,-1,27,29,31,-1,-1,33,35,-1,37,39,-1,-1,-1,-1,-1,-1,-1,-1,-1,-1],"loss_changes":[5.726509E2,3.3075806E1,2.2082202E2,1.8189209E1,2.8956264E1,4.651613E1,1.0071011E2,1.40521E1,7.3789062E0,0E0,0E0,3.3898163E0,0E0,3.923651E1,3.532983E1,0E0,0E0,3.92276E0,0E0,0E0,0E0,3.467273E1,6.672131E1,3.20331E0,0E0,0E0,3.7857265E0,1.2820862E1,0E0,7.4282837E-1,2.4470375E1,0E0,0E0,0E0,0E0,0E0,0E0,0E0,0E0,0E0,0E0],"parents":[2147483647,0,0,1,1,2,2,3,3,4,4,5,5,6,6,7,7,8,8,11,11,13,13,14,14,17,17,21,21,22,22,23,23,26,26,27,27,29,29,30,30],"right_children":[2,4,6,8,10,12,14,16,18,-1,-1,20,-1,22,24,-1,-1,26,-1,-1,-1,28,30,32,-1,-1,34,36,-1,38,40,-1,-1,-1,-1,-1,-1,-1,-1,-1,-1],"split_conditions":[-4.5337614E-1,-3.0387762E-1,2.1014926E-1,5.7347666E-2,2.1014926E-1,4.092985E0,1.5323881E0,1.5821213E0,1.0948082E0,3.9575074E-2,-3.886746E-2,-2.3257738E-1,-4.5598045E-2,3.993629E-1,9.461821E-1,3.2835446E-2,-2.4894336E-2,-5.300994E-1,6.274095E-3,1.8357132E-2,4.4675145E-2,2.5890448E1,1.9629412E0,-3.928507E-1,-4.1077476E-2,4.4982716E-2,1.0782378E1,7.5245E1,-7.5629905E-5,7.984848E-2,2.1832628E0,3.6072057E-2,6.5911016E-3,3.8672965E-2,3.4367798E-3,-7.831254E-2,-4.167417E-2,-3.9339628E-2,-7.478564E-2,3.0780455E-2,-4.045358E-2],"split_indices":[65,4,76,67,76,68,76,83,61,0,0,4,0,34,60,0,0,65,0,0,0,70,78,57,0,0,0,74,0,80,41,0,0,0,0,0,0,0,0,0,0],"split_type":[0,0,0,0,0,0,0,0,0,0,0,0,0,0,0,0,0,0,0,0,0,0,0,0,0,0,0,0,0,0,0,0,0,0,0,0,0,0,0,0,0],"sum_hessian":[4.12531E2,2.0100403E2,2.1152698E2,1.8570694E2,1.5297079E1,4.2272125E1,1.6925485E2,1.319988E1,1.7250706E2,6.4039645E0,8.893114E0,3.6335052E1,5.9370747E0,1.421508E2,2.7104042E1,6.9123006E0,6.287579E0,1.6704938E2,5.4576917E0,8.093533E0,2.8241518E1,1.03509636E2,3.864117E1,1.776392E1,9.340121E0,1.5617966E2,1.08697195E1,9.72623E1,6.2473373E0,2.0274963E1,1.8366205E1,1.2285484E1,5.4784355E0,5.166251E0,5.703469E0,8.302247E1,1.4239828E1,5.03339E0,1.5241573E1,1.3081403E1,5.2848034E0],"tree_param":{"num_deleted":"0","num_feature":"89","num_nodes":"41","size_leaf_vector":"1"}},{"base_weights":[2.0177519E-2,1.3470848E0,-8.822608E-1,1.4108527E0,9.2237175E-4,1.3983845E-2,-1.888372E0,1.4443057E0,1.5443077E-2,-1.9341009E0,5.694925E-1,-2.3083866E0,-8.1414783E-1,4.402713E-2,2.186356E-2,-7.184398E-2,-1.3439858E0,9.162534E-1,-1.0015142E0,-2.9341841E-2,-2.4277444E0,-7.180581E-2,5.103341E-1,-1.2729084E-2,-5.286888E-2,1.3163501E0,3.4286666E-1,-6.868816E-2,8.88186E-3,-7.4919015E-2,-3.7837055E-2,3.3425182E-2,-5.419362E-3,4.301363E-2,2.375012E-2,2.8238676E-2,-6.819123E-2],"categories":[],"categories_nodes":[],"categories_segments":[],"categories_sizes":[],"default_left":[0,0,0,0,0,0,0,0,0,0,0,0,0,0,0,0,0,0,0,0,0,0,0,0,0,0,0,0,0,0,0,0,0,0,0,0,0],"id":2,"left_children":[1,3,5,7,-1,9,11,13,-1,15,17,19,21,-1,-1,-1,23,25,27,-1,29,-1,31,-1,-1,33,35,-1,-1,-1,-1,-1,-1,-1,-1,-1,-1],"loss_changes":[5.0106137E2,1.4032501E1,2.2474345E2,3.9014282E0,0E0,1.4449515E2,5.0764557E1,1.2912598E0,0E0,4.459175E0,5.757248E1,1.0585846E1,7.3795006E1,0E0,0E0,0E0,4.9422226E0,1.9061897E1,3.30232E1,0E0,2.6512146E0,0E0,8.476776E0,0E0,0E0,1.7275925E0,5.9474037E1,0E0,0E0,0E0,0E0,0E0,0E0,0E0,0E0,0E0,0E0],"parents":[2147483647,0,0,1,1,2,2,3,3,5,5,6,6,7,7,9,9,10,10,11,11,12,12,16,16,17,17,18,18,20,20,22,22,25,25,26,26],"right_children":[2,4,6,8,-1,10,12,14,-1,16,18,20,22,-1,-1,-1,24,26,28,-1,30,-1,32,-1,-1,34,36,-1,-1,-1,-1,-1,-1,-1,-1,-1,-1],"split_conditions":[-5.2681625E-1,-3.285392E-1,2.8814926E0,1.2081027E0,9.2237175E-4,4.664433E1,3.993629E-1,5.9799404E1,1.5443077E-2,1.1838812E-2,5.784106E1,-7.605399E-1,1.7540299E0,4.402713E-2,2.186356E-2,-7.184398E-2,1.3224243E0,4.092985E0,-2.3792534E0,-2.9341841E-2,3.9227733E-1,-7.180581E-2,1.9285343E1,-1.2729084E-2,-5.286888E-2,3.5779068E-1,-2.9139893E-2,-6.868816E-2,8.88186E-3,-7.4919015E-2,-3.7837055E-2,3.3425182E-2,-5.419362E-3,4.301363E-2,2.375012E-2,2.8238676E-2,-6.819123E-2],"split_indices":[65,4,75,62,0,72,34,72,0,54,72,30,78,0,0,0,78,68,40,0,54,0,0,0,0,1,38,0,0,0,0,0,0,0,0,0,0],"split_type":[0,0,0,0,0,0,0,0,0,0,0,0,0,0,0,0,0,0,0,0,0,0,0,0,0,0,0,0,0,0,0,0,0,0,0,0,0],"sum_hessian":[4.1640833E2,1.6840735E2,2.4800098E2,1.6048515E2,7.922209E0,1.3163083E2,1.1637015E2,1.5401208E2,6.473055E0,2.861626E1,1.0301457E2,8.276687E1,3.3603283E1,1.4800873E2,6.003359E0,1.4257716E1,1.4358543E1,8.478156E1,1.8233006E1,7.6405005E0,7.5126366E1,1.4993105E1,1.8610176E1,5.1935544E0,9.164989E0,4.9070854E1,3.5710712E1,8.804955E0,9.42805E0,6.97413E1,5.385068E0,9.681712E0,8.928465E0,3.8524685E1,1.0546166E1,2.9614426E1,6.096287E0],"tree_param":{"num_deleted":"0","num_feature":"89","num_nodes":"37","size_leaf_vector":"1"}},{"base_weights":[4.5268163E-2,1.1193272E0,-1.0329485E0,1.3893464E0,9.9285595E-2,1.3165488E0,-1.6486294E0,8.974907E-3,1.4210758E0,-5.8615994E-1,1.099414E0,4.3739468E-2,2.0300554E-2,-2.6290268E-1,-2.0377662E0,4.3637473E-2,1.496401E-2,2.2526677E-1,-6.73429E-2,4.1536465E-2,1.8527722E-2,-1.0819705E0,6.993477E-1,-2.2402077E0,-8.3394957E-1,-3.312253E-2,3.9052956E-2,1.3014171E-2,-1.632713E0,3.8276438E-2,-8.657765E-5,-2.3223927E0,-1.4951823E-2,-1.6140213E0,3.4626767E-2,-6.658644E-2,-8.527052E-3,-7.251899E-2,-2.2837484E-2,-7.7835326E-3,-6.721621E-2],"categories":[],"categories_nodes":[],"categories_segments":[],"categories_sizes":[],"default_left":[0,0,0,0,0,0,0,0,0,0,0,0,0,0,0,0,0,0,0,0,0,0,0,0,0,0,0,0,0,0,0,0,0,0,0,0,0,0,0,0,0],"id":3,"left_children":[1,3,5,7,9,11,13,-1,15,17,19,-1,-1,21,23,-1,-1,25,-1,-1,-1,27,29,31,33,-1,-1,-1,35,-1,-1,37,-1,39,-1,-1,-1,-1,-1,-1,-1],"loss_changes":[4.9951575E2,5.9235657E1,3.1353204E2,5.308197E0,3.2495743E1,2.8914032E0,9.145032E1,0E0,4.1945496E0,3.8547894E1,1.5921879E0,0E0,0E0,3.129525E1,3.0313171E1,0E0,0E0,2.9717785E1,0E0,0E0,0E0,1.865404E1,7.5582857E0,1.4802063E1,3.4254303E1,0E0,0E0,0E0,1.1717476E1,0E0,0E0,1.3846252E1,0E0,1.2265045E1,0E0,0E0,0E0,0E0,0E0,0E0,0E0],"parents":[2147483647,0,0,1,1,2,2,3,3,4,4,5,5,6,6,8,8,9,9,10,10,13,13,14,14,17,17,21,21,22,22,23,23,24,24,28,28,31,31,33,33],"right_children":[2,4,6,8,10,12,14,-1,16,18,20,-1,-1,22,24,-1,-1,26,-1,-1,-1,28,30,32,34,-1,-1,-1,36,-1,-1,38,-1,40,-1,-1,-1,-1,-1,-1,-1],"split_conditions":[-3.1909996E-1,-5.2681625E-1,3.6328359E0,5.8093414E-2,1.2036364E0,3.0583046E-2,9.5272267E-1,8.974907E-3,-3.6944932E-1,4.939394E-1,-3.938431E-1,4.3739468E-2,2.0300554E-2,1.3614706E0,2.9170148E0,4.3637473E-2,1.496401E-2,2.704345E-2,-6.73429E-2,4.1536465E-2,1.8527722E-2,3.832836E0,9.2315435E-1,2.542E1,3.959818E-1,-3.312253E-2,3.9052956E-2,1.3014171E-2,1.7234883E-1,3.8276438E-2,-8.657765E-5,5.260183E-1,-1.4951823E-2,9.1988224E-1,3.4626767E-2,-6.658644E-2,-8.527052E-3,-7.251899E-2,-2.2837484E-2,-7.7835326E-3,-6.721621E-2],"split_indices":[4,65,81,67,76,3,60,0,4,76,4,0,0,76,78,0,0,42,0,0,0,81,60,71,34,0,0,0,48,0,0,1,0,39,0,0,0,0,0,0,0],"split_type":[0,0,0,0,0,0,0,0,0,0,0,0,0,0,0,0,0,0,0,0,0,0,0,0,0,0,0,0,0,0,0,0,0,0,0,0,0,0,0,0,0],"sum_hessian":[4.293294E2,2.1510675E2,2.1422266E2,1.6971954E2,4.53872E1,4.421047E1,1.7001219E2,5.1840158E0,1.6453554E2,2.7116575E1,1.8270622E1,3.5032196E1,9.178275E0,3.76987E1,1.3231349E2,1.581059E2,6.4296393E0,1.8748346E1,8.36823E0,1.0170679E1,8.099943E0,2.0353394E1,1.7345308E1,1.1245788E2,1.9855618E1,8.335925E0,1.0412421E1,5.432526E0,1.4920868E1,9.154762E0,8.190545E0,1.0701766E2,5.4402103E0,1.4431732E1,5.4238844E0,9.894725E0,5.026143E0,1.0030719E2,6.7104754E0,5.061723E0,9.370009E0],"tree_param":{"num_deleted":"0","num_feature":"89","num_nodes":"41","size_leaf_vector":"1"}},{"base_weights":[2.3613552E-2,1.0871253E0,-1.119476E0,1.3586326E0,3.261691E-2,1.2266876E0,-1.6243902E0,1.401438E0,7.604714E-3,4.8140118E-1,-4.9207747E-2,1.7555796E-2,4.2719588E-2,-2.2701071E-1,-1.9888996E0,1.9356554E-2,4.3005317E-2,-3.780705E-2,8.0379635E-1,2.922329E-1,-6.466767E-2,-1.4010735E-2,-2.085925E0,4.4852123E-4,1.0775081E0,9.3853945E-1,-3.2633927E-2,-2.155382E0,-2.1142606E-2,3.8230658E-2,9.280807E-3,3.8617305E-2,2.6187715E-3,-6.82126E-2,-3.6022946E-2],"categories":[],"categories_nodes":[],"categories_segments":[],"categories_sizes":[],"default_left":[0,0,0,0,0,0,0,0,0,0,0,0,0,0,0,0,0,0,0,0,0,0,0,0,0,0,0,0,0,0,0,0,0,0,0],"id":4,"left_children":[1,3,5,7,9,11,13,15,-1,17,-1,-1,-1,19,21,-1,-1,-1,23,25,-1,-1,27,-1,29,31,-1,33,-1,-1,-1,-1,-1,-1,-1],"loss_changes":[5.0899377E2,6.1924744E1,2.4103978E2,7.635376E0,3.484616E1,3.555767E0,8.413217E1,2.8854675E0,0E0,2.157944E1,0E0,0E0,0E0,3.649715E1,1.82417E1,0E0,0E0,0E0,6.705038E0,2.6793724E1,0E0,0E0,1.005304E1,0E0,2.9822292E0,5.7690506E0,0E0,1.0158813E1,0E0,0E0,0E0,0E0,0E0,0E0,0E0],"parents":[2147483647,0,0,1,1,2,2,3,3,4,4,5,5,6,6,7,7,9,9,13,13,14,14,18,18,19,19,22,22,24,24,25,25,27,27],"right_children":[2,4,6,8,10,12,14,16,-1,18,-1,-1,-1,20,22,-1,-1,-1,24,26,-1,-1,28,-1,30,32,-1,34,-1,-1,-1,-1,-1,-1,-1],"split_conditions":[-3.1711367E-1,-5.2681625E-1,3.6328359E0,3.1514253E-2,2.0533789E1,-5.8256883E-2,9.5272267E-1,5.8093414E-2,7.604714E-3,2.2986306E-2,-4.9207747E-2,1.7555796E-2,4.2719588E-2,-5.066579E-2,8.756605E0,1.9356554E-2,4.3005317E-2,-3.780705E-2,1.7945589E0,1.692941E1,-6.466767E-2,-1.4010735E-2,2.542E1,4.4852123E-4,2.5253415E0,-3.681456E-2,-3.2633927E-2,2.9170148E0,-2.1142606E-2,3.8230658E-2,9.280807E-3,3.8617305E-2,2.6187715E-3,-6.82126E-2,-3.6022946E-2],"split_indices":[4,65,81,63,70,28,60,67,0,27,0,0,0,38,24,0,0,0,78,70,0,0,71,0,41,6,0,78,0,0,0,0,0,0,0],"split_type":[0,0,0,0,0,0,0,0,0,0,0,0,0,0,0,0,0,0,0,0,0,0,0,0,0,0,0,0,0,0,0,0,0,0,0],"sum_hessian":[4.16689E2,2.1592882E2,2.0076018E2,1.7141171E2,4.451711E1,3.5265575E1,1.654946E2,1.6467477E2,6.736933E0,3.570933E1,8.807777E0,9.347175E0,2.59184E1,3.4630928E1,1.3086368E2,7.686034E0,1.5698874E2,5.074863E0,3.0634468E1,2.7912489E1,6.718439E0,8.253232E0,1.22610435E2,8.25713E0,2.2377338E1,1.927694E1,8.63555E0,1.1613715E2,6.4732876E0,1.7184437E1,5.1929016E0,1.3228408E1,6.0485325E0,1.02002365E2,1.41347885E1],"tree_param":{"num_deleted":"0","num_feature":"89","num_nodes":"35","size_leaf_vector":"1"}},{"base_weights":[5.2335456E-2,1.0579238E0,-9.8804486E-1,1.3748473E0,4.5178303E-1,1.0289425E0,-1.5137036E0,4.8046126E-3,4.2592198E-2,1.2690938E0,-2.509386E-2,3.790207E-1,4.0404785E-2,-1.7337667E0,3.5235858E-1,1.9701812E-2,4.172018E-2,3.0072576E-1,-6.147062E-2,-2.526379E-2,3.934042E-2,-7.651099E-1,-2.1004558E0,-1.3333607E-2,4.032305E-2,-3.7860084E-2,5.553218E-1,-1.3132218E0,7.719679E-1,-1.4617818E-2,-6.694276E-2,-2.4922827E-2,3.128228E-2,-4.9163207E-2,-6.878821E-4,5.182169E-3,3.8735025E-2],"categories":[],"categories_nodes":[],"categories_segments":[],"categories_sizes":[],"default_left":[0,0,0,0,0,0,0,0,0,0,0,0,0,0,0,0,0,0,0,0,0,0,0,0,0,0,0,0,0,0,0,0,0,0,0,0,0],"id":5,"left_children":[1,3,5,7,9,11,13,-1,-1,15,17,19,-1,21,23,-1,-1,25,-1,-1,-1,27,29,-1,-1,-1,31,33,35,-1,-1,-1,-1,-1,-1,-1,-1],"loss_changes":[4.535507E2,4.1548264E1,2.2749155E2,7.4766846E0,3.0281757E1,8.531544E0,7.0333405E1,0E0,0E0,1.0095749E0,3.357538E1,1.9532015E1,0E0,5.202176E1,1.5431616E1,0E0,0E0,1.7997576E1,0E0,0E0,0E0,3.7572914E1,2.1767578E1,0E0,0E0,0E0,2.6753536E1,1.3388611E1,3.3551402E0,0E0,0E0,0E0,0E0,0E0,0E0,0E0,0E0],"parents":[2147483647,0,0,1,1,2,2,3,3,4,4,5,5,6,6,9,9,10,10,11,11,13,13,14,14,17,17,21,21,22,22,26,26,27,27,28,28],"right_children":[2,4,6,8,10,12,14,-1,-1,16,18,20,-1,22,24,-1,-1,26,-1,-1,-1,28,30,-1,-1,-1,32,34,36,-1,-1,-1,-1,-1,-1,-1,-1],"split_conditions":[-3.075996E-1,-4.0592283E-1,2.1014926E-1,5.7192836E-2,-5.006349E-1,-2.3257738E-1,1.5513636E0,4.8046126E-3,4.2592198E-2,8.6239797E-1,3.799403E0,6.29937E-2,4.0404785E-2,5.931818E-1,1.0762928E0,1.9701812E-2,4.172018E-2,2.2986306E-2,-6.147062E-2,-2.526379E-2,3.934042E-2,3.993629E-1,-8.97702E-2,-1.3333607E-2,4.032305E-2,-3.7860084E-2,4.593735E1,4.2570767E0,1.9621201E-1,-1.4617818E-2,-6.694276E-2,-2.4922827E-2,3.128228E-2,-4.9163207E-2,-6.878821E-4,5.182169E-3,3.8735025E-2],"split_indices":[4,45,76,29,4,4,76,0,0,39,75,42,0,76,2,0,0,27,0,0,0,34,28,0,0,0,72,68,45,0,0,0,0,0,0,0,0],"split_type":[0,0,0,0,0,0,0,0,0,0,0,0,0,0,0,0,0,0,0,0,0,0,0,0,0,0,0,0,0,0,0,0,0,0,0,0,0],"sum_hessian":[4.315185E2,2.1946857E2,2.1204993E2,1.4317543E2,7.629314E1,4.3601276E1,1.6844865E2,5.3450637E0,1.3783037E2,2.7577312E1,4.8715824E1,1.5144613E1,2.8456665E1,1.5079054E2,1.7658115E1,5.764908E0,2.1812405E1,4.265161E1,6.064216E0,6.5521708E0,8.5924425E0,4.2329887E1,1.08460655E2,1.0041404E1,7.616713E0,5.365869E0,3.728574E1,3.1358385E1,1.09715E1,8.556108E0,9.990455E1,9.463824E0,2.7821917E1,2.4762913E1,6.5954733E0,5.8012977E0,5.1702023E0],"tree_param":{"num_deleted":"0","num_feature":"89","num_nodes":"37","size_leaf_vector":"1"}},{"base_weights":[4.2285122E-2,8.120356E-1,-1.287676E0,1.3332599E0,1.6907015E-1,-1.9677644E0,-5.943163E-2,1.3620181E0,2.0263541E-2,-1.1021473E0,8.803982E-1,-9.9222815E-1,-2.1012328E0,-1.1076998E0,8.858872E-1,1.4022477E0,8.427355E-1,3.2683328E-2,-1.5476993E0,1.1282854E0,-3.0150576E-2,-5.9751797E-2,1.654268E-2,-6.481295E-2,-2.8682817E-2,-1.8764747E0,2.2842677E-2,9.665971E-4,1.1891572E0,2.334187E-2,4.2709325E-2,3.8665492E-2,5.552077E-3,-1.8421273E0,-1.5424374E-2,8.029224E-1,4.1779485E-2,-2.9556109E-2,-6.344655E-2,4.14979E-2,2.0639256E-2,-6.448792E-2,-1.2051631E-2,3.8514443E-2,-5.507364E-3],"categories":[],"categories_nodes":[],"categories_segments":[],"categories_sizes":[],"default_left":[0,0,0,0,0,0,0,0,0,0,0,0,0,0,0,0,0,0,0,0,0,0,0,0,0,0,0,0,0,0,0,0,0,0,0,0,0,0,0,0,0,0,0,0,0],"id":6,"left_children":[1,3,5,7,9,11,13,15,-1,17,19,21,23,25,27,29,31,-1,33,35,-1,-1,-1,-1,-1,37,-1,-1,39,-1,-1,-1,-1,41,-1,43,-1,-1,-1,-1,-1,-1,-1,-1,-1],"loss_changes":[4.2641275E2,8.80553E1,1.2721544E2,1.6287842E0,1.0888878E2,1.0389648E1,5.5996178E1,1.4824524E0,0E0,4.3937874E1,3.720253E1,2.253601E1,3.4109497E0,4.0063324E1,7.5249786E0,3.6360168E-1,3.3188334E0,0E0,9.88533E0,4.57148E0,0E0,0E0,0E0,0E0,0E0,1.7122269E0,0E0,0E0,9.6101E-1,0E0,0E0,0E0,0E0,1.1213379E1,0E0,1.6156687E1,0E0,0E0,0E0,0E0,0E0,0E0,0E0,0E0,0E0],"parents":[2147483647,0,0,1,1,2,2,3,3,4,4,5,5,6,6,7,7,9,9,10,10,11,11,12,12,13,13,14,14,15,15,16,16,18,18,19,19,25,25,28,28,33,33,35,35],"right_children":[2,4,6,8,10,12,14,16,-1,18,20,22,24,26,28,30,32,-1,34,36,-1,-1,-1,-1,-1,38,-1,-1,40,-1,-1,-1,-1,42,-1,44,-1,-1,-1,-1,-1,-1,-1,-1,-1],"split_conditions":[2.855224E0,-3.6944932E-1,4.9771273E-1,3.1514253E-2,4.812418E1,-5.103884E-1,7.0181817E-1,-5.300994E-1,2.0263541E-2,8.642482E-1,5.784106E1,1.1154404E0,4.2665252E-1,9.252884E-1,2.7932238E-2,5.9322022E-2,3.1974027E-1,3.2683328E-2,2.5890448E1,1.4115915E-2,-3.0150576E-2,-5.9751797E-2,1.654268E-2,-6.481295E-2,-2.8682817E-2,5.268296E-2,2.2842677E-2,9.665971E-4,2E-2,2.334187E-2,4.2709325E-2,3.8665492E-2,5.552077E-3,5.4547834E-1,-1.5424374E-2,-4.250452E-2,4.1779485E-2,-2.9556109E-2,-6.344655E-2,4.14979E-2,2.0639256E-2,-6.448792E-2,-1.2051631E-2,3.8514443E-2,-5.507364E-3],"split_indices":[75,4,33,63,72,30,80,65,0,60,72,2,54,33,27,67,49,0,70,6,0,0,0,0,0,67,0,0,85,0,0,0,0,31,0,44,0,0,0,0,0,0,0,0,0],"split_type":[0,0,0,0,0,0,0,0,0,0,0,0,0,0,0,0,0,0,0,0,0,0,0,0,0,0,0,0,0,0,0,0,0,0,0,0,0,0,0,0,0,0,0,0,0],"sum_hessian":[4.1455026E2,2.6287115E2,1.516791E2,1.4450117E2,1.18369995E2,9.718403E1,5.4495064E1,1.3727711E2,7.2240524E0,4.222303E1,7.6146965E1,1.2801293E1,8.438273E1,2.5809172E1,2.8685892E1,1.256499E2,1.1627215E1,6.851604E0,3.5371426E1,6.770057E1,8.446393E0,7.6333117E0,5.1679816E0,7.930886E1,5.0738683E0,1.8322603E1,7.4865675E0,7.8959E0,2.0789991E1,5.557659E0,1.2009224E2,6.265416E0,5.361799E0,2.6845018E1,8.526405E0,3.2328316E1,3.5372253E1,5.038512E0,1.3284091E1,1.3573492E1,7.2164993E0,2.1659737E1,5.1852818E0,2.1599257E1,1.0729059E1],"tree_param":{"num_deleted":"0","num_feature":"89","num_nodes":"45","size_leaf_vector":"1"}},{"base_weights":[-1.6881056E-2,1.1880761E0,-7.78046E-1,1.3532969E0,6.289057E-2,3.1248016E-2,-1.5698231E0,1.8663922E-2,1.3790371E0,3.0054756E-2,-2.8370338E-2,-1.5923495E0,4.8536152E-1,-1.8745002E0,-3.2239154E-1,4.1979093E-2,2.5472216E-2,-5.6400867E-3,-5.693916E-2,1.1438212E0,-1.7319399E-1,-6.246487E-1,-6.287911E-2,-1.6714061E0,9.023402E-1,4.0694684E-2,6.7073727E-1,9.807541E-1,-9.30873E-1,-5.6630705E-2,1.7480046E-1,-5.8834787E-2,-2.9907865E-2,3.7843756E-2,7.490743E-3,-1.5194116E-2,3.744192E-2,4.009118E-2,1.5333396E-2,-5.6980412E-2,3.0722704E-2,1.6719561E-2,-6.8123783E-3],"categories":[],"categories_nodes":[],"categories_segments":[],"categories_sizes":[],"default_left":[0,0,0,0,0,0,0,0,0,0,0,0,0,0,0,0,0,0,0,0,0,0,0,0,0,0,0,0,0,0,0,0,0,0,0,0,0,0,0,0,0,0,0],"id":7,"left_children":[1,3,5,7,9,11,13,-1,15,-1,-1,17,19,21,23,-1,-1,-1,-1,25,27,29,-1,31,33,-1,35,37,39,-1,41,-1,-1,-1,-1,-1,-1,-1,-1,-1,-1,-1,-1],"loss_changes":[3.772351E2,2.9369919E1,1.6176663E2,1.5522156E0,2.1322872E1,9.3271645E1,4.7645233E1,0E0,1.5731812E-2,0E0,0E0,1.1297066E1,4.3210907E1,2.6714539E1,4.5047295E1,0E0,0E0,0E0,0E0,3.8872528E0,4.4862762E1,1.7545256E1,0E0,2.7155304E-1,2.9086437E0,0E0,1.2624029E1,2.5326824E0,6.0560234E1,0E0,1.8818715E0,0E0,0E0,0E0,0E0,0E0,0E0,0E0,0E0,0E0,0E0,0E0,0E0],"parents":[2147483647,0,0,1,1,2,2,3,3,4,4,5,5,6,6,8,8,11,11,12,12,13,13,14,14,19,19,20,20,21,21,23,23,24,24,26,26,27,27,28,28,30,30],"right_children":[2,4,6,8,10,12,14,-1,16,-1,-1,18,20,22,24,-1,-1,-1,-1,26,28,30,-1,32,34,-1,36,38,40,-1,42,-1,-1,-1,-1,-1,-1,-1,-1,-1,-1,-1,-1],"split_conditions":[-5.2681625E-1,-3.9121467E-1,2.8814926E0,6.5656744E-2,2.537794E0,4.593735E1,4.5225972E-1,1.8663922E-2,1.1165079E0,3.0054756E-2,-2.8370338E-2,-2.0090906E-1,2.537794E0,-5.103884E-1,1.4338806E0,4.1979093E-2,2.5472216E-2,-5.6400867E-3,-5.693916E-2,3.6600032E-1,9.2864907E-1,-3.2689059E0,-6.287911E-2,-2.134594E0,4.919682E1,4.0694684E-2,3.7777093E-1,8.698579E-1,4.7640157E-1,-5.6630705E-2,5.0580878E-2,-5.8834787E-2,-2.9907865E-2,3.7843756E-2,7.490743E-3,-1.5194116E-2,3.744192E-2,4.009118E-2,1.5333396E-2,-5.6980412E-2,3.0722704E-2,1.6719561E-2,-6.8123783E-3],"split_indices":[65,4,75,29,75,72,31,0,62,0,0,47,75,30,83,0,0,0,0,35,60,40,0,40,50,0,35,60,33,0,54,0,0,0,0,0,0,0,0,0,0,0,0],"split_type":[0,0,0,0,0,0,0,0,0,0,0,0,0,0,0,0,0,0,0,0,0,0,0,0,0,0,0,0,0,0,0,0,0,0,0,0,0,0,0,0,0,0,0],"sum_hessian":[4.093397E2,1.5820386E2,2.5113583E2,1.3769353E2,2.0510332E1,1.2460666E2,1.26529175E2,5.6706243E0,1.320229E2,1.0676654E1,9.833677E0,2.6638609E1,9.7968056E1,1.01223206E2,2.5305965E1,1.25398544E2,6.624362E0,5.1082697E0,2.1530338E1,4.869506E1,4.927299E1,1.5879635E1,8.5343575E1,1.190729E1,1.3398676E1,3.215949E1,1.653557E1,1.9360489E1,2.9912502E1,5.676011E0,1.0203624E1,6.891E0,5.016291E0,7.942361E0,5.4563146E0,5.424392E0,1.1111177E1,9.846291E0,9.514198E0,2.0056341E1,9.856161E0,5.1570644E0,5.0465593E0],"tree_param":{"num_deleted":"0","num_feature":"89","num_nodes":"43","size_leaf_vector":"1"}},{"base_weights":[-1.11598475E-2,1.2052648E0,-7.83577E-1,1.2855275E0,-6.701506E-4,7.618761E-1,-1.2031722E0,4.4343555E-1,4.0836573E-2,1.1661153E0,-8.4289855E-1,-1.4522967E0,2.1198586E-1,3.120926E-2,-1.359558E-2,3.9386876E-2,1.871341E-2,9.168265E-3,-5.583333E-2,-1.7885455E0,-6.953615E-1,7.846242E-1,-5.7172485E-2,-1.8967018E0,-5.573969E-3,-1.9075507E0,6.9833004E-1,1.1091425E0,-2.7919516E-3,-5.949599E-2,-3.0982831E-2,-2.9231658E-2,-6.1825912E-2,-1.2878924E-2,3.113076E-2,3.9522193E-2,2.0778758E-2],"categories":[],"categories_nodes":[],"categories_segments":[],"categories_sizes":[],"default_left":[0,0,0,0,0,0,0,0,0,0,0,0,0,0,0,0,0,0,0,0,0,0,0,0,0,0,0,0,0,0,0,0,0,0,0,0,0],"id":8,"left_children":[1,3,5,7,-1,9,11,13,-1,15,17,19,21,-1,-1,-1,-1,-1,-1,23,25,27,-1,29,-1,31,33,35,-1,-1,-1,-1,-1,-1,-1,-1,-1],"loss_changes":[3.807812E2,1.5660324E1,1.6174023E2,8.636719E0,0E0,3.5723656E1,6.933264E1,7.90569E0,0E0,2.426857E0,1.3934441E1,4.0851685E1,3.784532E1,0E0,0E0,0E0,0E0,0E0,0E0,1.9282074E1,9.082347E1,7.158249E0,0E0,5.6510315E0,0E0,1.7798996E0,1.01885195E1,4.4652176E-1,0E0,0E0,0E0,0E0,0E0,0E0,0E0,0E0,0E0],"parents":[2147483647,0,0,1,1,2,2,3,3,5,5,6,6,7,7,9,9,10,10,11,11,12,12,19,19,20,20,21,21,23,23,25,25,26,26,27,27],"right_children":[2,4,6,8,-1,10,12,14,-1,16,18,20,22,-1,-1,-1,-1,-1,-1,24,26,28,-1,30,-1,32,34,36,-1,-1,-1,-1,-1,-1,-1,-1,-1],"split_conditions":[-5.2681625E-1,3.1514253E-2,2.1014926E-1,5.8093414E-2,-6.701506E-4,4.092985E0,1.5323881E0,2.537794E0,4.0836573E-2,3.0583046E-2,-6.825965E-2,4.0698546E-1,-2.9139893E-2,3.120926E-2,-1.359558E-2,3.9386876E-2,1.871341E-2,9.168265E-3,-5.583333E-2,2.5890448E1,1.9629412E0,9.325113E-1,-5.7172485E-2,6.1624926E-1,-5.573969E-3,7.8451926E-1,-2.2749273E-1,9.2949286E-2,-2.7919516E-3,-5.949599E-2,-3.0982831E-2,-2.9231658E-2,-6.1825912E-2,-1.2878924E-2,3.113076E-2,3.9522193E-2,2.0778758E-2],"split_indices":[65,63,76,67,0,68,76,75,0,3,45,34,38,0,0,0,0,0,0,70,78,60,0,57,0,2,64,30,0,0,0,0,0,0,0,0,0],"split_type":[0,0,0,0,0,0,0,0,0,0,0,0,0,0,0,0,0,0,0,0,0,0,0,0,0,0,0,0,0,0,0,0,0,0,0,0,0],"sum_hessian":[4.0330405E2,1.5636543E2,2.469386E2,1.4680159E2,9.563839E0,5.250353E1,1.9443507E2,1.2781666E1,1.3401993E2,4.220727E1,1.0296256E1,1.6536809E2,2.9066994E1,7.6442385E0,5.137427E0,3.1953884E1,1.0253387E1,5.1212807E0,5.174976E0,1.1346793E2,5.1900146E1,2.3412848E1,5.6541457E0,1.0606468E2,7.40325E0,2.7598705E1,2.4301441E1,1.6983551E1,6.429298E0,9.5129074E1,1.0935613E1,5.024454E0,2.2574253E1,5.4922338E0,1.8809208E1,9.720285E0,7.2632656E0],"tree_param":{"num_deleted":"0","num_feature":"89","num_nodes":"37","size_leaf_vector":"1"}},{"base_weights":[7.582254E-2,1.2057177E0,-7.102793E-1,1.2769557E0,-5.665089E-3,5.8174413E-2,-1.4562885E0,3.9490534E-4,1.3205371E0,-1.4707011E0,5.028302E-1,-1.8618108E0,-5.203792E-1,1.3438513E0,1.655181E-2,-4.407048E-3,-5.294665E-2,1.1870781E0,5.1795907E-2,-2.4935814E-2,-5.8851197E-2,-1.6913967E0,5.7539725E-1,4.0818024E-2,2.215773E-2,3.950229E-2,1.7149184E-2,1.0773315E0,-6.2909764E-1,-2.7020402E-2,-5.7167333E-2,1.0259668E0,-6.2533054E-3,3.9815515E-2,2.0841217E-2,-3.9805584E-2,3.7684187E-2,1.677464E-2,3.952043E-2],"categories":[],"categories_nodes":[],"categories_segments":[],"categories_sizes":[],"default_left":[0,0,0,0,0,0,0,0,0,0,0,0,0,0,0,0,0,0,0,0,0,0,0,0,0,0,0,0,0,0,0,0,0,0,0,0,0,0,0],"id":9,"left_children":[1,3,5,7,-1,9,11,-1,13,15,17,19,21,23,-1,-1,-1,25,27,-1,-1,29,31,-1,-1,-1,-1,33,35,-1,-1,37,-1,-1,-1,-1,-1,-1,-1],"loss_changes":[3.656026E2,1.7127777E1,1.3936516E2,8.709778E0,0E0,8.252968E1,4.557373E1,0E0,1.8548584E0,1.0198311E1,2.8858747E1,6.896332E0,5.077497E1,3.060913E-1,0E0,0E0,0E0,2.031437E0,4.112147E1,0E0,0E0,1.2237968E0,7.608777E0,0E0,0E0,0E0,0E0,1.1235733E0,4.8164547E1,0E0,0E0,8.9823055E-1,0E0,0E0,0E0,0E0,0E0,0E0,0E0],"parents":[2147483647,0,0,1,1,2,2,3,3,5,5,6,6,8,8,9,9,10,10,11,11,12,12,13,13,17,17,18,18,21,21,22,22,27,27,28,28,31,31],"right_children":[2,4,6,8,-1,10,12,-1,14,16,18,20,22,24,-1,-1,-1,26,28,-1,-1,30,32,-1,-1,-1,-1,34,36,-1,-1,38,-1,-1,-1,-1,-1,-1,-1],"split_conditions":[-5.2681625E-1,1.1771545E0,2.8814926E0,3.1532905E-1,-5.665089E-3,4.593735E1,3.993629E-1,3.9490534E-4,2.9694197E1,-1.9567797E-1,2.1014926E-1,-7.605399E-1,1.7540299E0,-5.403308E-1,1.655181E-2,-4.407048E-3,-5.294665E-2,3.337855E-2,9.362567E-1,-2.4935814E-2,-5.8851197E-2,8.605727E-1,1.2573708E0,4.0818024E-2,2.215773E-2,3.950229E-2,1.7149184E-2,9.010015E-1,4.1820335E-1,-2.7020402E-2,-5.7167333E-2,-2.960582E-1,-6.2533054E-3,3.9815515E-2,2.0841217E-2,-3.9805584E-2,3.7684187E-2,1.677464E-2,3.952043E-2],"split_indices":[65,62,75,49,0,72,34,0,52,47,76,30,78,65,0,0,0,66,60,0,0,36,25,0,0,0,0,60,34,0,0,65,0,0,0,0,0,0,0],"split_type":[0,0,0,0,0,0,0,0,0,0,0,0,0,0,0,0,0,0,0,0,0,0,0,0,0,0,0,0,0,0,0,0,0,0,0,0,0,0,0],"sum_hessian":[4.0959616E2,1.6788371E2,2.4171245E2,1.5987294E2,8.01077E0,1.1945327E2,1.2225918E2,5.44926E0,1.5442368E2,2.634341E1,9.310986E1,8.453476E1,3.772442E1,1.490264E2,5.3972816E0,5.1242604E0,2.121915E1,3.6255035E1,5.6854824E1,8.381825E0,7.615293E1,1.8017479E1,1.9706942E1,1.4363829E2,5.388109E0,2.8870415E1,7.384622E0,2.25123E1,3.4342525E1,5.049135E0,1.2968343E1,1.2398616E1,7.308326E0,1.1967546E1,1.0544753E1,2.5320318E1,9.022206E0,6.0185943E0,6.3800216E0],"tree_param":{"num_deleted":"0","num_feature":"89","num_nodes":"39","size_leaf_vector":"1"}},{"base_weights":[4.4054903E-2,1.1731895E0,-6.836601E-1,1.26257E0,-1.6270885E-2,1.1769304E0,-1.0578073E0,1.3231885E0,5.5426913E-1,8.269058E-1,3.9822217E-2,-8.759226E-2,-1.4047388E0,2.0731712E-2,4.0450104E-2,-3.593961E-3,3.0605206E-2,-0E0,3.7759807E-2,-9.4789666E-1,7.3473686E-1,-4.8863977E-1,-1.7530743E0,2.1873167E-2,-1.3483825E0,1.0934951E0,-1.4378498E-2,-1.1655134E0,7.973894E-1,-1.8633748E0,1.4346737E-2,-5.6879036E-2,-4.4708224E-3,3.795911E-2,1.4496281E-2,-5.801061E-2,-5.793316E-3,8.05284E-4,3.7154835E-2,-3.848093E-2,-5.811931E-2],"categories":[],"categories_nodes":[],"categories_segments":[],"categories_sizes":[],"default_left":[0,0,0,0,0,0,0,0,0,0,0,0,0,0,0,0,0,0,0,0,0,0,0,0,0,0,0,0,0,0,0,0,0,0,0,0,0,0,0,0,0],"id":10,"left_children":[1,3,5,7,-1,9,11,13,15,17,-1,19,21,-1,-1,-1,-1,-1,-1,23,25,27,29,-1,31,33,-1,35,37,39,-1,-1,-1,-1,-1,-1,-1,-1,-1,-1,-1],"loss_changes":[3.4019724E2,2.5639526E1,1.764583E2,5.7165375E0,0E0,9.291687E-1,7.046066E1,1.1146088E0,4.6210704E0,5.489599E0,0E0,4.0683716E1,4.826889E1,0E0,0E0,0E0,0E0,0E0,0E0,1.9920763E1,1.3385046E1,3.9327385E1,2.8490692E1,0E0,1.4674755E1,1.6308594E0,0E0,2.1322498E1,5.1898813E0,1.7683716E0,0E0,0E0,0E0,0E0,0E0,0E0,0E0,0E0,0E0,0E0,0E0],"parents":[2147483647,0,0,1,1,2,2,3,3,5,5,6,6,7,7,8,8,9,9,11,11,12,12,19,19,20,20,21,21,22,22,24,24,25,25,27,27,28,28,29,29],"right_children":[2,4,6,8,-1,10,12,14,16,18,-1,20,22,-1,-1,-1,-1,-1,-1,24,26,28,30,-1,32,34,-1,36,38,40,-1,-1,-1,-1,-1,-1,-1,-1,-1,-1,-1],"split_conditions":[-5.2681625E-1,-3.3559483E-1,3.6328359E0,-3.938431E-1,-1.6270885E-2,-2.3257738E-1,-4.6722393E-2,6.5656744E-2,3.0327601E0,8.910078E-2,3.9822217E-2,1.3614706E0,5.931818E-1,2.0731712E-2,4.0450104E-2,-3.593961E-3,3.0605206E-2,-0E0,3.7759807E-2,3.832836E0,9.461821E-1,3.407901E-2,1.3413085E-1,2.1873167E-2,2.8430393E-2,2.6036637E0,-1.4378498E-2,2.8044116E-1,8.4823444E-2,1.3078173E1,1.4346737E-2,-5.6879036E-2,-4.4708224E-3,3.795911E-2,1.4496281E-2,-5.801061E-2,-5.793316E-3,8.05284E-4,3.7154835E-2,-3.848093E-2,-5.811931E-2],"split_indices":[65,4,81,4,0,4,42,29,41,42,0,76,76,0,0,0,0,0,0,81,60,66,29,0,27,41,0,76,45,52,0,0,0,0,0,0,0,0,0,0,0],"split_type":[0,0,0,0,0,0,0,0,0,0,0,0,0,0,0,0,0,0,0,0,0,0,0,0,0,0,0,0,0,0,0,0,0,0,0,0,0,0,0,0,0],"sum_hessian":[4.1198663E2,1.6127496E2,2.5071167E2,1.5359499E2,7.679981E0,4.1571003E1,2.0914066E2,1.4055646E2,1.3038532E1,1.4651012E1,2.691999E1,5.5492695E1,1.5364796E2,6.6196423E0,1.3393681E2,5.5447097E0,7.4938226E0,5.4306617E0,9.22035E0,2.7104946E1,2.8387747E1,4.3069065E1,1.105789E2,5.0188146E0,2.2086132E1,2.205258E1,6.3351674E0,2.8329773E1,1.4739294E1,1.0556993E2,5.008966E0,1.4707141E1,7.378991E0,1.6242744E1,5.809836E0,1.5217181E1,1.3112592E1,5.834619E0,8.9046755E0,1.4148818E1,9.142111E1],"tree_param":{"num_deleted":"0","num_feature":"89","num_nodes":"41","size_leaf_vector":"1"}},{"base_weights":[5.17523E-3,9.413841E-1,-8.5179895E-1,1.2263813E0,2.8942415E-1,1.1581793E0,-1.2979656E0,3.9183382E-2,5.353496E-3,5.2182E-1,-4.1964144E-2,3.9685015E-2,8.611665E-3,-1.4772239E0,5.044204E-1,7.424165E-1,-3.130658E-2,-7.8784525E-1,-1.7595091E0,3.336593E-2,-1.3451535E-2,2.4092612E-1,9.909297E-1,-1.3333875E0,2.4357542E-1,-1.8368796E0,-4.8481887E-3,-1.4581403E-2,2.677793E-2,3.5693217E-2,1.8974273E-3,-5.1778164E-2,-4.9453187E-3,-2.6469057E-2,2.4719635E-2,-2.4576044E-2,-5.641597E-2],"categories":[],"categories_nodes":[],"categories_segments":[],"categories_sizes":[],"default_left":[0,0,0,0,0,0,0,0,0,0,0,0,0,0,0,0,0,0,0,0,0,0,0,0,0,0,0,0,0,0,0,0,0,0,0,0,0],"id":11,"left_children":[1,3,5,7,9,11,13,-1,-1,15,-1,-1,-1,17,19,21,-1,23,25,-1,-1,27,29,31,33,35,-1,-1,-1,-1,-1,-1,-1,-1,-1,-1,-1],"loss_changes":[3.1045972E2,3.3863632E1,1.8264113E2,1.03381195E1,2.3272627E1,4.791649E0,5.440924E1,0E0,0E0,1.8522163E1,0E0,0E0,0E0,2.776358E1,9.652553E0,5.341425E0,0E0,2.6211027E1,1.2643951E1,0E0,0E0,8.347346E0,5.3601494E0,1.3370838E1,1.1588638E1,2.6863708E0,0E0,0E0,0E0,0E0,0E0,0E0,0E0,0E0,0E0,0E0,0E0],"parents":[2147483647,0,0,1,1,2,2,3,3,4,4,5,5,6,6,9,9,13,13,14,14,15,15,17,17,18,18,21,21,22,22,23,23,24,24,25,25],"right_children":[2,4,6,8,10,12,14,-1,-1,16,-1,-1,-1,18,20,22,-1,24,26,-1,-1,28,30,32,34,36,-1,-1,-1,-1,-1,-1,-1,-1,-1,-1,-1],"split_conditions":[-3.075996E-1,-4.2884257E-1,3.6328359E0,-5.137119E-1,-5.4459654E-2,3.0583046E-2,1.5513636E0,3.9183382E-2,5.353496E-3,3.0477612E0,-4.1964144E-2,3.9685015E-2,8.611665E-3,5.931818E-1,-5.1640544E-2,3.1756473E-1,-3.130658E-2,2.6935263E0,5.7724243E-1,3.336593E-2,-1.3451535E-2,7.967185E-3,1.0167606E0,4.552647E0,1.2994164E-1,-1.0282337E-1,-4.8481887E-3,-1.4581403E-2,2.677793E-2,3.5693217E-2,1.8974273E-3,-5.1778164E-2,-4.9453187E-3,-2.6469057E-2,2.4719635E-2,-2.4576044E-2,-5.641597E-2],"split_indices":[4,4,81,65,47,3,76,0,0,75,0,0,0,76,38,49,0,56,34,0,0,53,62,68,48,53,0,0,0,0,0,0,0,0,0,0,0],"split_type":[0,0,0,0,0,0,0,0,0,0,0,0,0,0,0,0,0,0,0,0,0,0,0,0,0,0,0,0,0,0,0,0,0,0,0,0,0],"sum_hessian":[3.849482E2,1.8397803E2,2.009702E2,1.2729705E2,5.6680977E1,3.617628E1,1.6479391E2,1.17978874E2,9.318176E0,5.0481945E1,6.1990314E0,2.9892794E1,6.2834864E0,1.5010132E2,1.4692598E1,4.476338E1,5.7185683E0,4.4811306E1,1.0529001E2,8.932426E0,5.760172E0,1.5618231E1,2.9145147E1,2.9180992E1,1.5630315E1,1.00224976E2,5.065034E0,7.4301844E0,8.188046E0,2.3679287E1,5.4658604E0,2.1422058E1,7.758934E0,5.081282E0,1.0549033E1,5.029488E0,9.519549E1],"tree_param":{"num_deleted":"0","num_feature":"89","num_nodes":"37","size_leaf_vector":"1"}},{"base_weights":[6.391329E-2,7.331646E-1,-1.0240896E0,1.2089347E0,1.3983814E-1,3.553692E-2,-1.2999735E0,3.94876E-2,8.2108474E-1,1.1849923E0,-6.0794663E-1,-1.6390495E0,-5.1854914E-1,1.0568728E0,-1.6312951E-3,3.9638758E-2,7.1877676E-1,6.818365E-1,-1.2802886E0,-1.9797198E-2,-1.7132343E0,-1.601583E0,3.0776176E-1,1.3565054E-2,3.6338083E-2,-0E0,3.648481E-2,9.738416E-1,-8.050769E-3,-1.504255E0,-5.2395277E-3,-5.4732326E-2,-1.0796628E0,-5.428439E-2,-2.5025735E-2,-1.3193658E-2,7.8447205E-1,1.2545067E-2,3.7053447E-2,-5.3232025E-2,-7.588648E-3,3.0892522E-3,-5.0529595E-2,6.4928043E-3,3.8408693E-2],"categories":[],"categories_nodes":[],"categories_segments":[],"categories_sizes":[],"default_left":[0,0,0,0,0,0,0,0,0,0,0,0,0,0,0,0,0,0,0,0,0,0,0,0,0,0,0,0,0,0,0,0,0,0,0,0,0,0,0,0,0,0,0,0,0],"id":12,"left_children":[1,3,5,7,9,-1,11,-1,13,15,17,19,21,23,-1,-1,25,27,29,-1,31,33,35,-1,-1,-1,-1,37,-1,39,-1,-1,41,-1,-1,-1,43,-1,-1,-1,-1,-1,-1,-1,-1],"loss_changes":[3.00073E2,7.173021E1,9.717584E1,4.5908813E0,9.048831E1,0E0,3.6035492E1,0E0,7.0739403E0,1.9134979E0,5.9481407E1,5.68515E0,3.993173E1,1.7633572E0,0E0,0E0,4.8551917E0,6.9179287E0,1.0658005E1,0E0,4.046814E0,1.2929955E0,9.53873E0,0E0,0E0,0E0,0E0,1.997303E0,0E0,1.1865868E1,0E0,0E0,1.1737608E1,0E0,0E0,0E0,4.117569E0,0E0,0E0,0E0,0E0,0E0,0E0,0E0,0E0],"parents":[2147483647,0,0,1,1,2,2,3,3,4,4,6,6,8,8,9,9,10,10,11,11,12,12,13,13,16,16,17,17,18,18,20,20,21,21,22,22,27,27,29,29,32,32,36,36],"right_children":[2,4,6,8,10,-1,12,-1,14,16,18,20,22,24,-1,-1,26,28,30,-1,32,34,36,-1,-1,-1,-1,38,-1,40,-1,-1,42,-1,-1,-1,44,-1,-1,-1,-1,-1,-1,-1,-1],"split_conditions":[2.855224E0,-3.6944932E-1,-4.823689E-1,-3.801529E-1,2.1014926E-1,3.553692E-2,3.993629E-1,3.94876E-2,4.5833324E1,3.0583046E-2,-5.0289523E-2,-1.7475736E-1,1.7540299E0,4.0164284E-2,-1.6312951E-3,3.9638758E-2,3.2382376E-2,9.362567E-1,2.5890448E1,-1.9797198E-2,7.207578E1,2.3996675E0,-1.9949E-1,1.3565054E-2,3.6338083E-2,-0E0,3.648481E-2,-2.3396488E-2,-8.050769E-3,5.7200414E-1,-5.2395277E-3,-5.4732326E-2,7.418042E1,-5.428439E-2,-2.5025735E-2,-1.3193658E-2,5.409E1,1.2545067E-2,3.7053447E-2,-5.3232025E-2,-7.588648E-3,3.0892522E-3,-5.0529595E-2,6.4928043E-3,3.8408693E-2],"split_indices":[75,4,4,45,76,0,34,0,51,3,38,43,78,3,0,0,3,60,70,0,51,41,64,0,0,0,0,45,0,31,0,0,51,0,0,0,73,0,0,0,0,0,0,0,0],"split_type":[0,0,0,0,0,0,0,0,0,0,0,0,0,0,0,0,0,0,0,0,0,0,0,0,0,0,0,0,0,0,0,0,0,0,0,0,0,0,0,0,0,0,0,0,0],"sum_hessian":[4.1011362E2,2.5418042E2,1.5593318E2,1.4039551E2,1.1378491E2,1.6908894E1,1.3902429E2,1.0789049E2,3.2505028E1,4.7268436E1,6.651647E1,9.609933E1,4.2924957E1,2.5534756E1,6.9702725E0,3.4990326E1,1.2278109E1,2.2736736E1,4.377974E1,7.560035E0,8.853929E1,1.8223053E1,2.4701906E1,6.1244125E0,1.9410343E1,5.357332E0,6.9207773E0,1.7453459E1,5.283277E0,3.6030205E1,7.7495346E0,7.358882E1,1.4950475E1,1.3167521E1,5.055531E0,9.5670595E0,1.5134846E1,6.5360074E0,1.0917451E1,2.9223186E1,6.807018E0,5.282616E0,9.667858E0,7.8171434E0,7.317703E0],"tree_param":{"num_deleted":"0","num_feature":"89","num_nodes":"45","size_leaf_vector":"1"}},{"base_weights":[-2.2984905E-2,1.0390431E0,-7.1962047E-1,-2.0819012E-2,1.1158715E0,9.296897E-1,-1.1599761E0,1.2103267E0,-2.8669786E-2,1.1747453E0,-2.8379543E-2,-4.0038276E-1,-1.472627E0,3.8632087E-2,8.1176275E-1,3.4487814E-2,-3.6653206E-2,2.2321073E-2,3.8437657E-2,-9.70234E-1,4.490265E-1,-5.52691E-1,-1.7411176E0,1.0429027E0,-8.111271E-4,2.8115867E-3,-1.4284579E0,-1.9577762E-1,3.191417E-2,-9.701437E-1,2.0761697E-2,-5.425043E-2,-1.3934395E-2,1.6011475E-2,3.567346E-2,-7.651393E-4,-5.466471E-2,-1.966407E-2,9.502049E-3,-3.8389627E-2,1.7814088E-3],"categories":[],"categories_nodes":[],"categories_segments":[],"categories_sizes":[],"default_left":[0,0,0,0,0,0,0,0,0,0,0,0,0,0,0,0,0,0,0,0,0,0,0,0,0,0,0,0,0,0,0,0,0,0,0,0,0,0,0,0,0],"id":13,"left_children":[1,3,5,-1,7,9,11,13,15,17,-1,19,21,-1,23,-1,-1,-1,-1,25,27,29,31,33,-1,-1,35,37,-1,39,-1,-1,-1,-1,-1,-1,-1,-1,-1,-1,-1],"loss_changes":[2.8251056E2,2.0951553E1,1.6862335E2,0E0,1.5854996E1,2.3708942E1,4.25748E1,2.8875122E0,1.823759E1,8.595238E-1,0E0,2.696149E1,3.0633362E1,0E0,4.9290066E0,0E0,0E0,0E0,0E0,1.6414427E1,9.243414E0,1.663033E1,7.446167E0,6.46677E-1,0E0,0E0,1.2625755E1,3.0174835E0,0E0,7.6657505E0,0E0,0E0,0E0,0E0,0E0,0E0,0E0,0E0,0E0,0E0,0E0],"parents":[2147483647,0,0,1,1,2,2,4,4,5,5,6,6,7,7,8,8,9,9,11,11,12,12,14,14,19,19,20,20,21,21,22,22,23,23,26,26,27,27,29,29],"right_children":[2,4,6,-1,8,10,12,14,16,18,-1,20,22,-1,24,-1,-1,-1,-1,26,28,30,32,34,-1,-1,36,38,-1,40,-1,-1,-1,-1,-1,-1,-1,-1,-1,-1,-1],"split_conditions":[-3.6944932E-1,3.359275E-2,2.1014926E-1,-2.0819012E-2,3.1107576E0,4.092985E0,9.6904546E-1,-4.3366167E-1,6.453579E-1,4.96274E-3,-2.8379543E-2,1.3614706E0,5.0985074E-1,3.8632087E-2,1.0263283E0,3.4487814E-2,-3.6653206E-2,2.2321073E-2,3.8437657E-2,-3.1390944E-1,1.5980408E-1,4.829977E-1,8.059344E-1,-5.2257676E-2,-8.111271E-4,2.8115867E-3,3.1749263E-2,9.078685E-3,3.191417E-2,7.1141685E1,2.0761697E-2,-5.425043E-2,-1.3934395E-2,1.6011475E-2,3.567346E-2,-7.651393E-4,-5.466471E-2,-1.966407E-2,9.502049E-3,-3.8389627E-2,1.7814088E-3],"split_indices":[4,3,76,0,75,68,60,4,62,42,0,76,76,0,60,0,0,0,0,64,48,33,33,38,0,0,29,44,0,51,0,0,0,0,0,0,0,0,0,0,0],"split_type":[0,0,0,0,0,0,0,0,0,0,0,0,0,0,0,0,0,0,0,0,0,0,0,0,0,0,0,0,0,0,0,0,0,0,0,0,0,0,0,0,0],"sum_hessian":[3.798828E2,1.5022627E2,2.2965652E2,5.980933E0,1.4424533E2,4.8113537E1,1.81543E2,1.332764E2,1.0968943E1,4.2931564E1,5.1819725E0,5.3693577E1,1.2784942E2,1.0952285E2,2.3753544E1,5.4949713E0,5.4739714E0,1.028105E1,3.2650513E1,3.2120247E1,2.157333E1,2.965899E1,9.819043E1,1.8524752E1,5.2287917E0,9.842984E0,2.2277262E1,1.0782801E1,1.0790528E1,2.2435661E1,7.2233305E0,9.280815E1,5.3822775E0,5.3226805E0,1.320207E1,5.170584E0,1.7106676E1,5.640138E0,5.142663E0,1.7137663E1,5.297999E0],"tree_param":{"num_deleted":"0","num_feature":"89","num_nodes":"41","size_leaf_vector":"1"}},{"base_weights":[3.3253678E-3,8.999714E-1,-8.381553E-1,-6.620019E-2,1.1004934E0,1.0344456E0,-1.2181245E0,3.544766E-1,-5.3191867E-2,1.1779222E0,-3.0776064E-3,3.824516E-2,2.7449967E-4,-1.8213683E-1,-1.441705E0,-2.9070413E-1,8.4488344E-1,3.8746975E-2,8.6443263E-1,4.6351805E-1,-4.1239906E-2,-1.5937629E0,-5.416306E-1,-3.8524054E-2,2.1255227E-2,6.14914E-3,3.447993E-2,4.290852E-1,1.1287256E0,8.480133E-1,-1.3574796E-2,-1.6601402E0,-5.7698097E-3,-5.0390135E-2,3.8859084E-1,-2.380734E-2,3.327844E-2,3.7323028E-2,1.7811459E-2,8.24563E-3,3.6385186E-2,-5.193009E-2,-9.082506E-3,-1.5906036E-2,4.19849E-2],"categories":[],"categories_nodes":[],"categories_segments":[],"categories_sizes":[],"default_left":[0,0,0,0,0,0,0,0,0,0,0,0,0,0,0,0,0,0,0,0,0,0,0,0,0,0,0,0,0,0,0,0,0,0,0,0,0,0,0,0,0,0,0,0,0],"id":14,"left_children":[1,3,5,7,9,11,13,15,-1,17,-1,-1,-1,19,21,23,25,-1,27,29,-1,31,33,-1,-1,-1,-1,35,37,39,-1,41,-1,-1,43,-1,-1,-1,-1,-1,-1,-1,-1,-1,-1],"loss_changes":[2.866345E2,3.581848E1,1.4067883E2,2.4090015E1,1.4433624E1,8.127666E0,3.7416397E1,8.793764E0,0E0,3.7778015E0,0E0,0E0,0E0,2.3999203E1,1.7283325E1,1.3124942E1,2.6670237E0,0E0,4.12558E0,7.5733366E0,0E0,1.0114166E1,2.301038E1,0E0,0E0,0E0,0E0,1.5384767E1,6.217842E-1,2.5966854E0,0E0,9.736938E0,0E0,0E0,1.2269519E1,0E0,0E0,0E0,0E0,0E0,0E0,0E0,0E0,0E0,0E0],"parents":[2147483647,0,0,1,1,2,2,3,3,4,4,5,5,6,6,7,7,9,9,13,13,14,14,15,15,16,16,18,18,19,19,21,21,22,22,27,27,28,28,29,29,31,31,34,34],"right_children":[2,4,6,8,10,12,14,16,-1,18,-1,-1,-1,20,22,24,26,-1,28,30,-1,32,34,-1,-1,-1,-1,36,38,40,-1,42,-1,-1,44,-1,-1,-1,-1,-1,-1,-1,-1,-1,-1],"split_conditions":[-3.075996E-1,5.841877E-2,3.6328359E0,2.652E0,1.2969407E-1,3.3257645E-2,-6.0309637E-2,3.0874828E-1,-5.3191867E-2,-4.0592283E-1,-3.0776064E-3,3.824516E-2,2.7449967E-4,1.692941E1,2.9170148E0,7.967185E-3,5.7777844E-2,3.8746975E-2,5.3857046E-1,-7.880189E-2,-4.1239906E-2,7.125592E-1,3.692816E-2,-3.8524054E-2,2.1255227E-2,6.14914E-3,3.447993E-2,2.5648981E-2,-1.0764811E-1,5.8409356E-2,-1.3574796E-2,2.5890448E1,-5.7698097E-3,-5.0390135E-2,-2.3888988E0,-2.380734E-2,3.327844E-2,3.7323028E-2,1.7811459E-2,8.24563E-3,3.6385186E-2,-5.193009E-2,-9.082506E-3,-1.5906036E-2,4.19849E-2],"split_indices":[4,67,81,78,45,66,42,49,0,45,0,0,0,70,78,53,29,0,1,5,0,33,54,0,0,0,0,38,44,29,0,70,0,0,40,0,0,0,0,0,0,0,0,0,0],"split_type":[0,0,0,0,0,0,0,0,0,0,0,0,0,0,0,0,0,0,0,0,0,0,0,0,0,0,0,0,0,0,0,0,0,0,0,0,0,0,0,0,0,0,0,0,0],"sum_hessian":[3.7788675E2,1.8297049E2,1.9491626E2,3.1476934E1,1.5149356E2,3.254402E1,1.6237224E2,2.5841677E1,5.6352577E0,1.4243091E2,9.062647E0,2.6086746E1,6.4572754E0,2.9223497E1,1.3314874E2,1.1247602E1,1.4594073E1,1.0201157E2,4.0419342E1,1.9301037E1,9.922461E0,1.1315125E2,1.9997486E1,5.5473123E0,5.7002897E0,5.3502398E0,9.243834E0,1.640261E1,2.4016731E1,1.3723857E1,5.57718E0,1.0778996E2,5.361292E0,8.680061E0,1.1317425E1,5.75114E0,1.065147E1,1.8512262E1,5.5044694E0,6.1264343E0,7.5974226E0,1.02110344E2,5.679619E0,6.126117E0,5.191308E0],"tree_param":{"num_deleted":"0","num_feature":"89","num_nodes":"45","size_leaf_vector":"1"}},{"base_weights":[6.2671276E-3,8.7272996E-1,-7.6351887E-1,-2.2326764E-1,1.0411848E0,1.0887938E0,-1.1189662E0,7.2616863E-1,-1.0919313E0,1.1320347E0,1.0755176E-1,1.1601133E-2,3.798177E-2,-1.2868543E0,4.0585133E-1,9.200167E-3,2.888139E-2,1.8356356E-3,-5.5730578E-2,1.1958735E0,2.1565233E-3,-3.3058573E-2,2.590472E-2,-5.819666E-1,-1.6047151E0,-9.97378E-3,3.874198E-2,1.2511508E0,1.1774356E-2,-5.1775742E-2,-9.420394E-2,-1.6764123E0,-4.36161E-3,1.822222E-2,3.8251474E-2,-1.890742E-2,2.2509523E-2,-2.2082563E-2,-5.1561408E-2],"categories":[],"categories_nodes":[],"categories_segments":[],"categories_sizes":[],"default_left":[0,0,0,0,0,0,0,0,0,0,0,0,0,0,0,0,0,0,0,0,0,0,0,0,0,0,0,0,0,0,0,0,0,0,0,0,0,0,0],"id":15,"left_children":[1,3,5,7,9,11,13,15,17,19,21,-1,-1,23,25,-1,-1,-1,-1,27,-1,-1,-1,29,31,-1,-1,33,-1,-1,35,37,-1,-1,-1,-1,-1,-1,-1],"loss_changes":[2.5440457E2,3.345331E1,1.3416095E2,2.1165134E1,1.2972321E1,3.4483757E0,4.4115784E1,8.009639E-1,1.20643425E1,9.385056E0,1.4662366E1,0E0,0E0,3.3214752E1,1.2004004E1,0E0,0E0,0E0,0E0,5.2779846E0,0E0,0E0,0E0,2.7183477E1,1.0565399E1,0E0,0E0,9.515686E-1,0E0,0E0,1.6625942E1,2.4658813E0,0E0,0E0,0E0,0E0,0E0,0E0,0E0],"parents":[2147483647,0,0,1,1,2,2,3,3,4,4,5,5,6,6,7,7,8,8,9,9,10,10,13,13,14,14,19,19,23,23,24,24,27,27,30,30,31,31],"right_children":[2,4,6,8,10,12,14,16,18,20,22,-1,-1,24,26,-1,-1,-1,-1,28,-1,-1,-1,30,32,-1,-1,34,-1,-1,36,38,-1,-1,-1,-1,-1,-1,-1],"split_conditions":[-3.1326425E-1,3.7628654E-2,3.6328359E0,4.05E0,3.1514253E-2,-5.8256883E-2,1.5513636E0,2.7691687E1,8.2558775E-1,3.0257576E0,1.1788361E0,1.1601133E-2,3.798177E-2,5.931818E-1,1.0762928E0,9.200167E-3,2.888139E-2,1.8356356E-3,-5.5730578E-2,7.5815153E0,2.1565233E-3,-3.3058573E-2,2.590472E-2,2.8339094E-1,7.5700897E-1,-9.97378E-3,3.874198E-2,1.7007469E-1,1.1774356E-2,-5.1775742E-2,1.9712029E-2,9.605836E0,-4.36161E-3,1.822222E-2,3.8251474E-2,-1.890742E-2,2.2509523E-2,-2.2082563E-2,-5.1561408E-2],"split_indices":[4,3,81,69,63,28,76,0,36,75,59,0,0,76,2,0,0,0,0,68,0,0,0,31,33,0,0,48,0,0,57,52,0,0,0,0,0,0,0],"split_type":[0,0,0,0,0,0,0,0,0,0,0,0,0,0,0,0,0,0,0,0,0,0,0,0,0,0,0,0,0,0,0,0,0,0,0,0,0,0,0],"sum_hessian":[3.794059E2,1.7849268E2,2.0091325E2,2.3656996E1,1.5483568E2,3.1969387E1,1.6894386E2,1.1326368E1,1.2330628E1,1.4081378E2,1.40218935E1,7.199636E0,2.476975E1,1.5238712E2,1.655675E1,5.0643272E0,6.2620406E0,5.2357802E0,7.094848E0,1.3260631E2,8.207475E0,5.166103E0,8.85579E0,4.833809E1,1.0404903E2,9.308005E0,7.248744E0,1.2343181E2,9.174499E0,1.3629982E1,3.4708107E1,9.8969345E1,5.079679E0,5.5136075E0,1.17918205E2,2.1459341E1,1.3248764E1,5.1544576E0,9.381489E1],"tree_param":{"num_deleted":"0","num_feature":"89","num_nodes":"39","size_leaf_vector":"1"}},{"base_weights":[2.5705392E-2,-7.144407E-1,8.1997496E-1,1.1047878E0,-1.1828034E0,-1.0144062E0,9.9806464E-1,3.7335474E-2,1.4745132E-2,-1.1869386E-1,-1.5559162E0,-5.093584E-2,1.1594111E-2,1.1103067E0,3.5639505E-3,-8.566949E-1,8.076431E-1,-1.6579578E0,-1.0420489E-2,-2.5481754E-3,1.1644194E0,-3.7674505E-2,2.7593454E-2,7.4465657E-3,-4.4959057E-2,3.4294724E-2,1.5007495E-3,-5.1768675E-2,-1.9604724E-2,1.210722E0,5.6212133E-1,1.9724512E-2,3.7121944E-2,-3.850799E-3,3.3090025E-2],"categories":[],"categories_nodes":[],"categories_segments":[],"categories_sizes":[],"default_left":[0,0,0,0,0,0,0,0,0,0,0,0,0,0,0,0,0,0,0,0,0,0,0,0,0,0,0,0,0,0,0,0,0,0,0],"id":16,"left_children":[1,3,5,7,9,11,13,-1,-1,15,17,-1,-1,19,21,23,25,27,-1,-1,29,-1,-1,-1,-1,-1,-1,-1,-1,31,33,-1,-1,-1,-1],"loss_changes":[2.2053682E2,1.6672583E2,6.013945E1,2.6612701E0,6.1152756E1,1.6549738E1,1.8362274E1,0E0,0E0,2.8977688E1,1.3349518E1,0E0,0E0,9.82132E0,2.1754211E1,1.721502E1,4.6018333E0,5.790222E0,0E0,0E0,3.11232E0,0E0,0E0,0E0,0E0,0E0,0E0,0E0,0E0,9.328766E-1,4.789291E0,0E0,0E0,0E0,0E0],"parents":[2147483647,0,0,1,1,2,2,3,3,4,4,5,5,6,6,9,9,10,10,13,13,14,14,15,15,16,16,17,17,20,20,29,29,30,30],"right_children":[2,4,6,8,10,12,14,-1,-1,16,18,-1,-1,20,22,24,26,28,-1,-1,30,-1,-1,-1,-1,-1,-1,-1,-1,32,34,-1,-1,-1,-1],"split_conditions":[4.416345E-1,3.6328359E0,1.4338806E0,2.9442787E-2,9.542304E-1,1.23569764E-1,3.7154526E-2,3.7335474E-2,1.4745132E-2,1.4180303E0,2.9213235E0,-5.093584E-2,1.1594111E-2,3.0461618E-1,4.8232517E-1,1.5386269E1,9.2864907E-1,2.442877E0,-1.0420489E-2,-2.5481754E-3,7.5815153E0,-3.7674505E-2,2.7593454E-2,7.4465657E-3,-4.4959057E-2,3.4294724E-2,1.5007495E-3,-5.1768675E-2,-1.9604724E-2,3.7231546E-2,1.3916154E-1,1.9724512E-2,3.7121944E-2,-3.850799E-3,3.3090025E-2],"split_indices":[35,81,83,3,60,29,63,0,0,76,78,0,0,49,6,70,60,57,0,0,68,0,0,0,0,0,0,0,0,3,29,0,0,0,0],"split_type":[0,0,0,0,0,0,0,0,0,0,0,0,0,0,0,0,0,0,0,0,0,0,0,0,0,0,0,0,0,0,0,0,0,0,0],"sum_hessian":[3.7312756E2,1.931313E2,1.7999626E2,3.9219887E1,1.539114E2,1.5463163E1,1.645331E2,3.0971209E1,8.24868E0,4.0368233E1,1.1354318E2,1.02982645E1,5.164899E0,1.4765172E2,1.688138E1,2.2570072E1,1.779816E1,1.0428373E2,9.259448E0,6.2904224E0,1.413613E2,6.9072585E0,9.974121E0,8.462276E0,1.4107795E1,1.1891211E1,5.906949E0,9.6936226E1,7.347505E0,1.301775E2,1.118379E1,7.3404036E0,1.22837105E2,5.1663194E0,6.0174713E0],"tree_param":{"num_deleted":"0","num_feature":"89","num_nodes":"35","size_leaf_vector":"1"}},{"base_weights":[-3.745753E-2,1.0746528E0,-6.823603E-1,1.1843976E0,-1.2905564E-2,1.0252994E0,-9.8157954E-1,8.01477E-3,1.2249864E0,3.6345467E-2,8.839313E-3,-1.1802745E0,2.474238E-1,3.773629E-2,1.375181E-2,-1.5124958E0,-5.1796466E-1,7.323357E-1,-4.659604E-2,-1.5505104E0,-1.7188538E-2,-5.2602887E-2,5.044007E-1,1.0026126E0,-0E0,-3.2412555E-2,-4.9546797E-2,3.0436033E-2,-7.920137E-3,1.6144635E-2,3.4985032E-2],"categories":[],"categories_nodes":[],"categories_segments":[],"categories_sizes":[],"default_left":[0,0,0,0,0,0,0,0,0,0,0,0,0,0,0,0,0,0,0,0,0,0,0,0,0,0,0,0,0,0,0],"id":17,"left_children":[1,3,5,7,-1,9,11,-1,13,-1,-1,15,17,-1,-1,19,21,23,-1,25,-1,-1,27,29,-1,-1,-1,-1,-1,-1,-1],"loss_changes":[2.5848273E2,2.242752E1,1.1759165E2,4.1250916E0,0E0,4.180969E0,4.793428E1,0E0,2.2263641E0,0E0,0E0,3.594844E1,2.5377312E1,0E0,0E0,2.8697205E0,7.3883446E1,4.5383587E0,0E0,2.9850159E0,0E0,0E0,1.3005096E1,4.6369362E-1,0E0,0E0,0E0,0E0,0E0,0E0,0E0],"parents":[2147483647,0,0,1,1,2,2,3,3,5,5,6,6,8,8,11,11,12,12,15,15,16,16,17,17,19,19,22,22,23,23],"right_children":[2,4,6,8,-1,10,12,-1,14,-1,-1,16,18,-1,-1,20,22,24,-1,26,-1,-1,28,30,-1,-1,-1,-1,-1,-1,-1],"split_conditions":[-5.403308E-1,2.4592265E-1,3.6328359E0,6.2084533E-2,-1.2905564E-2,3.0583046E-2,1.5323881E0,8.01477E-3,-3.6944932E-1,3.6345467E-2,8.839313E-3,3.993629E-1,-2.9139893E-2,3.773629E-2,1.375181E-2,1.6979569E0,1.9629412E0,-6.2064167E-2,-4.659604E-2,3.8707693E0,-1.7188538E-2,-5.2602887E-2,1.9285343E1,1.4245994E1,-0E0,-3.2412555E-2,-4.9546797E-2,3.0436033E-2,-7.920137E-3,1.6144635E-2,3.4985032E-2],"split_indices":[65,44,81,29,0,3,76,0,4,0,0,34,38,0,0,58,78,42,0,81,0,0,0,52,0,0,0,0,0,0,0],"split_type":[0,0,0,0,0,0,0,0,0,0,0,0,0,0,0,0,0,0,0,0,0,0,0,0,0,0,0,0,0,0,0],"sum_hessian":[3.584361E2,1.3126065E2,2.2717545E2,1.22599144E2,8.661513E0,3.345951E1,1.9371594E2,5.620961E0,1.1697818E2,2.6030382E1,7.42913E0,1.6686038E2,2.6855564E1,1.1142624E2,5.551941E0,1.10165565E2,5.669481E1,2.166891E1,5.186655E0,1.05154236E2,5.011334E0,2.5392406E1,3.1302402E1,1.5609147E1,6.0597615E0,2.084818E1,8.430605E1,1.869853E1,1.2603872E1,5.3417144E0,1.0267433E1],"tree_param":{"num_deleted":"0","num_feature":"89","num_nodes":"31","size_leaf_vector":"1"}},{"base_weights":[9.775912E-3,8.1989783E-1,-6.442271E-1,1.0400465E0,3.1583134E-2,-1.1104378E0,3.1683898E-1,1.1515672E0,5.134309E-1,-1.1134704E0,1.0499167E0,-3.1596258E-1,-1.322955E0,-9.966148E-1,7.417237E-1,3.6369972E-2,8.1478375E-1,3.5645112E-2,-1.1779523E-2,3.7061553E-3,-4.879149E-2,3.631348E-2,1.5770383E-2,2.8056923E-1,-1.2611152E0,-1.5448067E0,-4.5430157E-1,-4.9512427E-2,1.2444185E-2,6.6048354E-2,1.0771965E0,3.5845794E-2,-1.7317522E-3,3.1951904E-2,-1.2737109E-1,-4.6377346E-2,-2.1320174E-2,-5.452164E-3,-4.8852757E-2,-4.760722E-2,4.3674794E-1,-3.384189E-2,7.98598E-1,3.5932075E-2,1.7096959E-2,-3.7558556E-2,2.0628527E-2,-1.5193585E-2,3.910331E-2,1.1780221E-2,3.3094652E-2],"categories":[],"categories_nodes":[],"categories_segments":[],"categories_sizes":[],"default_left":[0,0,0,0,0,0,0,0,0,0,0,0,0,0,0,0,0,0,0,0,0,0,0,0,0,0,0,0,0,0,0,0,0,0,0,0,0,0,0,0,0,0,0,0,0,0,0,0,0,0,0],"id":18,"left_children":[1,3,5,7,9,11,13,15,17,19,21,23,25,27,29,-1,31,-1,-1,-1,-1,-1,-1,33,35,37,39,-1,-1,41,43,-1,-1,-1,45,-1,-1,-1,-1,-1,47,-1,49,-1,-1,-1,-1,-1,-1,-1,-1],"loss_changes":[1.9819785E2,2.8867554E1,9.3138115E1,6.9079285E0,4.502773E1,2.2990631E1,3.8825768E1,9.9420166E-1,1.569108E1,1.186484E1,9.12941E-1,1.786109E1,2.0245956E1,1.655213E1,1.1653919E1,0E0,6.688569E0,0E0,0E0,0E0,0E0,0E0,0E0,6.528552E0,5.873585E-1,9.428146E0,2.4860714E1,0E0,0E0,1.704489E1,1.2648697E0,0E0,0E0,0E0,1.35274315E1,0E0,0E0,0E0,0E0,0E0,1.2244701E1,0E0,9.130316E-1,0E0,0E0,0E0,0E0,0E0,0E0,0E0,0E0],"parents":[2147483647,0,0,1,1,2,2,3,3,4,4,5,5,6,6,7,7,8,8,9,9,10,10,11,11,12,12,13,13,14,14,16,16,23,23,24,24,25,25,26,26,29,29,30,30,34,34,40,40,42,42],"right_children":[2,4,6,8,10,12,14,16,18,20,22,24,26,28,30,-1,32,-1,-1,-1,-1,-1,-1,34,36,38,40,-1,-1,42,44,-1,-1,-1,46,-1,-1,-1,-1,-1,48,-1,50,-1,-1,-1,-1,-1,-1,-1,-1],"split_conditions":[2.537794E0,5.931818E-1,4.4336584E-1,-1.7963192E-1,4.5616787E-2,9.542304E-1,1.4338806E0,5.0985074E-1,2.1833368E-2,9.7028977E-1,5.164284E1,2.9415152E0,2.9170148E0,6.985459E-1,2.164394E0,3.6369972E-2,-5.0059956E-1,3.5645112E-2,-1.1779523E-2,3.7061553E-3,-4.879149E-2,3.631348E-2,1.5770383E-2,8.698579E-1,-1.4084232E-1,8.937226E-1,3.692816E-2,-4.9512427E-2,1.2444185E-2,8.5065484E-1,2.0429277E1,3.5845794E-2,-1.7317522E-3,3.1951904E-2,3.1569384E-2,-4.6377346E-2,-2.1320174E-2,-5.452164E-3,-4.8852757E-2,-4.760722E-2,-2.5246587E0,-3.384189E-2,3.6790785E-1,3.5932075E-2,1.7096959E-2,-3.7558556E-2,2.0628527E-2,-1.5193585E-2,3.910331E-2,1.1780221E-2,3.3094652E-2],"split_indices":[75,76,35,64,3,60,83,76,27,55,51,75,78,1,78,0,64,0,0,0,0,0,0,60,47,62,54,0,0,33,23,0,0,0,57,0,0,0,0,0,40,0,48,0,0,0,0,0,0,0,0],"split_type":[0,0,0,0,0,0,0,0,0,0,0,0,0,0,0,0,0,0,0,0,0,0,0,0,0,0,0,0,0,0,0,0,0,0,0,0,0,0,0,0,0,0,0,0,0,0,0,0,0,0,0],"sum_hessian":[3.7205362E2,1.6614586E2,2.0590776E2,1.2952725E2,3.66186E1,1.3861475E2,6.7293015E1,1.05755005E2,2.3772251E1,1.7146637E1,1.9471962E1,2.9877586E1,1.0873715E2,1.6061338E1,5.1231678E1,8.7136505E1,1.86185E1,1.351039E1,1.026186E1,5.191148E0,1.1955488E1,1.375895E1,5.713012E0,1.8683113E1,1.1194475E1,8.590399E1,2.2833166E1,1.0909401E1,5.151938E0,1.7493336E1,3.3738342E1,1.2791512E1,5.826989E0,5.9244103E0,1.2758702E1,6.065867E0,5.128608E0,5.2177963E0,8.0686195E1,9.75938E0,1.3073785E1,6.3940797E0,1.1099256E1,2.6001879E1,7.736465E0,5.1873546E0,7.571347E0,6.404364E0,6.6694207E0,5.879944E0,5.219312E0],"tree_param":{"num_deleted":"0","num_feature":"89","num_nodes":"51","size_leaf_vector":"1"}},{"base_weights":[3.599087E-2,1.0309E0,-5.692471E-1,1.1106175E0,-2.2520382E-2,1.078653E0,-8.748423E-1,2.6009253E-1,1.202648E0,6.3488317E-1,3.711546E-2,-1.091246E0,3.254845E-1,2.4020601E-2,-1.7823948E-2,3.714241E-2,1.3377605E-2,3.2346826E-2,3.6815477E-3,-5.196033E-1,-1.385036E0,7.45969E-1,-2.9780062E-2,-5.140428E-2,-2.2714049E-1,-2.4086219E-1,-1.5526261E0,3.0750198E-5,3.2081693E-2,-1.9838076E-2,3.2126553E-2,1.839878E-2,-4.5351103E-2,-2.2629624E-2,-4.7687754E-2],"categories":[],"categories_nodes":[],"categories_segments":[],"categories_sizes":[],"default_left":[0,0,0,0,0,0,0,0,0,0,0,0,0,0,0,0,0,0,0,0,0,0,0,0,0,0,0,0,0,0,0,0,0,0,0],"id":19,"left_children":[1,3,5,7,-1,9,11,13,15,17,-1,19,21,-1,-1,-1,-1,-1,-1,23,25,27,-1,-1,29,31,33,-1,-1,-1,-1,-1,-1,-1,-1],"loss_changes":[2.2150697E2,2.0633362E1,1.16067505E2,1.0002701E1,0E0,1.5715485E0,5.0689606E1,7.160916E0,2.503006E0,2.4131088E0,0E0,2.6670776E1,1.7484354E1,0E0,0E0,0E0,0E0,0E0,0E0,1.9482006E1,2.0110168E1,5.5694904E0,0E0,0E0,2.7365854E1,1.7329084E1,1.3326111E0,0E0,0E0,0E0,0E0,0E0,0E0,0E0,0E0],"parents":[2147483647,0,0,1,1,2,2,3,3,5,5,6,6,7,7,8,8,9,9,11,11,12,12,19,19,20,20,21,21,24,24,25,25,26,26],"right_children":[2,4,6,8,-1,10,12,14,16,18,-1,20,22,-1,-1,-1,-1,-1,-1,24,26,28,-1,-1,30,32,34,-1,-1,-1,-1,-1,-1,-1,-1],"split_conditions":[-5.2681625E-1,1.0948082E0,3.6328359E0,6.107332E-2,-2.2520382E-2,2.6886827E1,1.5323881E0,2.2620895E0,2.852069E1,-2.590936E-2,3.711546E-2,5.931818E-1,-3.3241075E-2,2.4020601E-2,-1.7823948E-2,3.714241E-2,1.3377605E-2,3.2346826E-2,3.6815477E-3,8.596917E-1,-8.97702E-2,1.2154648E-1,-2.9780062E-2,-5.140428E-2,4.0698546E-1,1.821103E1,-1.9891469E-1,3.0750198E-5,3.2081693E-2,-1.9838076E-2,3.2126553E-2,1.839878E-2,-4.5351103E-2,-2.2629624E-2,-4.7687754E-2],"split_indices":[65,61,81,67,0,0,76,82,52,38,0,76,42,0,0,0,0,0,0,36,28,48,0,0,34,70,44,0,0,0,0,0,0,0,0],"split_type":[0,0,0,0,0,0,0,0,0,0,0,0,0,0,0,0,0,0,0,0,0,0,0,0,0,0,0,0,0,0,0,0,0,0,0],"sum_hessian":[3.6580472E2,1.3815808E2,2.2764665E2,1.3265512E2,5.502967E0,3.5165E1,1.9248164E2,1.343203E1,1.1922308E2,1.0739001E1,2.4425999E1,1.6322792E2,2.9253733E1,8.336212E0,5.095817E0,1.13156494E2,6.0665913E0,5.059163E0,5.6798377E0,5.64667E1,1.06761215E2,2.2565418E1,6.688315E0,1.0087494E1,4.6379208E1,1.4027357E1,9.273386E1,7.228404E0,1.5337013E1,3.5180557E1,1.1198651E1,8.651354E0,5.3760037E0,5.171081E0,8.7562775E1],"tree_param":{"num_deleted":"0","num_feature":"89","num_nodes":"35","size_leaf_vector":"1"}},{"base_weights":[1.9367319E-2,1.0327306E0,-5.685088E-1,1.1619697E0,-3.6339256E-1,1.014403E0,-8.655459E-1,1.3877208E-2,1.1868815E0,2.1973735E-2,-3.8605057E-2,3.485875E-2,1.14061935E-2,-1.0857555E0,3.176659E-1,3.6740117E-2,2.050967E-2,-1.2991623E0,-4.3702957E-1,8.1019837E-1,-2.3550898E-2,-8.389518E-1,-4.6440873E-2,-1.4813265E0,8.397746E-1,3.54489E-2,3.2328758E-1,-1.1988768E-2,-4.8951738E-2,-4.966752E-2,-2.1908833E-2,3.2999024E-2,5.645009E-3,-2.0801555E-3,2.0392546E-2],"categories":[],"categories_nodes":[],"categories_segments":[],"categories_sizes":[],"default_left":[0,0,0,0,0,0,0,0,0,0,0,0,0,0,0,0,0,0,0,0,0,0,0,0,0,0,0,0,0,0,0,0,0,0,0],"id":20,"left_children":[1,3,5,7,9,11,13,-1,15,-1,-1,-1,-1,17,19,-1,-1,21,23,25,-1,27,-1,29,31,-1,33,-1,-1,-1,-1,-1,-1,-1,-1],"loss_changes":[2.2032307E2,2.5006454E1,1.1086939E2,1.4570618E0,1.334666E1,2.9014473E0,5.190474E1,0E0,1.2451935E0,0E0,0E0,0E0,0E0,2.2362457E1,1.7858553E1,0E0,0E0,1.2773453E1,5.8552525E1,3.5315685E0,0E0,1.5228233E1,0E0,1.6960907E0,3.0399914E0,0E0,1.6781113E0,0E0,0E0,0E0,0E0,0E0,0E0,0E0,0E0],"parents":[2147483647,0,0,1,1,2,2,3,3,4,4,5,5,6,6,8,8,13,13,14,14,17,17,18,18,19,19,21,21,23,23,24,24,26,26],"right_children":[2,4,6,8,10,12,14,-1,16,-1,-1,-1,-1,18,20,-1,-1,22,24,26,-1,28,-1,30,32,-1,34,-1,-1,-1,-1,-1,-1,-1,-1],"split_conditions":[-5.2681625E-1,-3.3928922E-1,3.6328359E0,6.1015524E-2,8.720292E-1,5.7777844E-2,1.5323881E0,1.3877208E-2,1.1165079E0,2.1973735E-2,-3.8605057E-2,3.485875E-2,1.14061935E-2,4.3195647E-1,-4.6722393E-2,3.6740117E-2,2.050967E-2,5.931818E-1,1.9629412E0,-3.4676988E-2,-2.3550898E-2,3.0443222E1,-4.6440873E-2,1.4520321E0,1.9285343E1,3.54489E-2,3.786695E1,-1.1988768E-2,-4.8951738E-2,-4.966752E-2,-2.1908833E-2,3.2999024E-2,5.645009E-3,-2.0801555E-3,2.0392546E-2],"split_indices":[65,4,81,29,36,29,76,0,62,0,0,0,0,34,42,0,0,76,78,30,0,24,0,61,0,0,24,0,0,0,0,0,0,0,0],"split_type":[0,0,0,0,0,0,0,0,0,0,0,0,0,0,0,0,0,0,0,0,0,0,0,0,0,0,0,0,0,0,0,0,0,0,0],"sum_hessian":[3.6777243E2,1.3480794E2,2.3296448E2,1.2360515E2,1.1202784E1,3.6374252E1,1.9659023E2,5.0623727E0,1.1854278E2,5.168202E0,6.034582E0,2.8705608E1,7.6686444E0,1.6588414E2,3.0706089E1,1.08744415E2,9.798361E0,1.239518E2,4.1932346E1,2.147152E1,9.2345705E0,4.5178867E1,7.877293E1,2.3021347E1,1.8911E1,1.1254243E1,1.0217277E1,3.0118502E1,1.5060366E1,1.760013E1,5.4212184E0,1.2913123E1,5.997876E0,5.1118236E0,5.1054525E0],"tree_param":{"num_deleted":"0","num_feature":"89","num_nodes":"35","size_leaf_vector":"1"}},{"base_weights":[4.9953735E-3,8.3611953E-1,-7.240656E-1,1.1021543E0,1.0236245E-1,9.3453103E-1,-1.0093848E0,-0E0,1.1613926E0,-4.355751E-1,8.780931E-1,3.5849616E-2,4.6724477E-3,-6.7071486E-1,-1.4829425E0,3.645556E-2,1.2238187E-2,3.006574E-1,-1.4098248E0,6.6704834E-3,3.785709E-2,-1.0184212E0,1.1118389E-2,-4.610603E-2,-2.1308985E-2,2.8652271E-2,-1.1495589E-2,-2.5595581E-2,-5.0145704E-2,-1.225022E0,5.8235917E-3,-4.9044516E-2,4.2813963E-1,-9.049213E-3,-4.3687116E-2,2.44098E-2,-2.687753E-2],"categories":[],"categories_nodes":[],"categories_segments":[],"categories_sizes":[],"default_left":[0,0,0,0,0,0,0,0,0,0,0,0,0,0,0,0,0,0,0,0,0,0,0,0,0,0,0,0,0,0,0,0,0,0,0,0,0],"id":21,"left_children":[1,3,5,7,9,11,13,-1,15,17,19,-1,-1,21,23,-1,-1,25,27,-1,-1,29,31,-1,-1,-1,-1,-1,-1,33,-1,-1,35,-1,-1,-1,-1],"loss_changes":[2.1780713E2,3.2565453E1,9.153329E1,7.9431458E0,1.9585312E1,5.47241E0,2.506836E1,0E0,4.074341E0,2.0405674E1,4.4052973E0,0E0,0E0,2.3222351E1,1.4906769E0,0E0,0E0,7.8273387E0,9.254646E-2,0E0,0E0,1.6540474E1,2.3788805E1,0E0,0E0,0E0,0E0,0E0,0E0,1.1225433E1,0E0,0E0,1.4921225E1,0E0,0E0,0E0,0E0],"parents":[2147483647,0,0,1,1,2,2,3,3,4,4,5,5,6,6,8,8,9,9,10,10,13,13,14,14,17,17,18,18,21,21,22,22,29,29,32,32],"right_children":[2,4,6,8,10,12,14,-1,16,18,20,-1,-1,22,24,-1,-1,26,28,-1,-1,30,32,-1,-1,-1,-1,-1,-1,34,-1,-1,36,-1,-1,-1,-1],"split_conditions":[-3.1326425E-1,-5.300994E-1,3.6328359E0,5.8093414E-2,1.2036364E0,3.0197056E-2,2.9415152E0,-0E0,3.1514253E-2,1.0606061E-1,3.751855E-1,3.5849616E-2,4.6724477E-3,2.6935263E0,3.617023E1,3.645556E-2,1.2238187E-2,2.8814926E0,-6.369068E-2,6.6704834E-3,3.785709E-2,2.542E1,-3.591614E-2,-4.610603E-2,-2.1308985E-2,2.8652271E-2,-1.1495589E-2,-2.5595581E-2,-5.0145704E-2,1.1891384E0,5.8235917E-3,-4.9044516E-2,5.3865643E1,-9.049213E-3,-4.3687116E-2,2.44098E-2,-2.687753E-2],"split_indices":[4,65,81,67,76,3,75,0,63,87,34,0,0,56,52,0,0,75,38,0,0,71,45,0,0,0,0,0,0,37,0,0,0,0,0,0,0],"split_type":[0,0,0,0,0,0,0,0,0,0,0,0,0,0,0,0,0,0,0,0,0,0,0,0,0,0,0,0,0,0,0,0,0,0,0,0,0],"sum_hessian":[3.5743555E2,1.67022E2,1.9041354E2,1.221106E2,4.4911407E1,2.756262E1,1.6285092E2,6.349612E0,1.1576099E2,2.6703327E1,1.820808E1,2.015811E1,7.4045124E0,9.6479836E1,6.6371086E1,1.0735111E2,8.409879E0,1.5544916E1,1.1158412E1,7.4018316E0,1.080625E1,6.3665913E1,3.2813927E1,6.0995483E1,5.375603E0,7.8154054E0,7.7295103E0,5.052961E0,6.105451E0,5.4459003E1,9.206911E0,5.9944577E0,2.6819468E1,1.1453873E1,4.300513E1,2.1128557E1,5.690911E0],"tree_param":{"num_deleted":"0","num_feature":"89","num_nodes":"37","size_leaf_vector":"1"}},{"base_weights":[-2.0140655E-2,1.0054611E0,-5.837434E-1,1.1904697E0,8.461102E-2,1.0561883E0,-9.014463E-1,1.5473223E-2,3.6621604E-2,-6.4492756E-1,3.2433555E-2,1.60204E-2,3.6463924E-2,-1.3478129E-1,-1.1549748E0,6.981321E-3,-4.839369E-2,4.6571782E-1,-8.639048E-1,-1.3259494E0,-2.0615958E-1,7.85637E-1,-1.4764403E-2,1.638165E-2,-1.4421006E0,-1.4207357E0,1.095975E-3,-9.130259E-1,3.3692773E-2,3.270122E-2,1.0486915E-3,-4.8800074E-2,-2.5852077E-2,-4.4729494E-2,-1.2619955E-4,-4.4844892E-2,6.7158616E-3],"categories":[],"categories_nodes":[],"categories_segments":[],"categories_sizes":[],"default_left":[0,0,0,0,0,0,0,0,0,0,0,0,0,0,0,0,0,0,0,0,0,0,0,0,0,0,0,0,0,0,0,0,0,0,0,0,0],"id":22,"left_children":[1,3,5,7,9,11,13,-1,-1,15,-1,-1,-1,17,19,-1,-1,21,23,25,27,29,-1,-1,31,33,-1,35,-1,-1,-1,-1,-1,-1,-1,-1,-1],"loss_changes":[1.9805966E2,2.0468956E1,1.1619212E2,1.2580566E0,1.6365047E1,2.1958923E0,3.584996E1,0E0,0E0,1.1539701E1,0E0,0E0,0E0,2.120855E1,2.219963E1,0E0,0E0,8.562174E0,1.8686712E1,1.5417236E1,2.2210468E1,4.508959E0,0E0,0E0,4.374695E-2,1.0822983E1,0E0,1.0604784E1,0E0,0E0,0E0,0E0,0E0,0E0,0E0,0E0,0E0],"parents":[2147483647,0,0,1,1,2,2,3,3,4,4,5,5,6,6,9,9,13,13,14,14,17,17,18,18,19,19,20,20,21,21,24,24,25,25,27,27],"right_children":[2,4,6,8,10,12,14,-1,-1,16,-1,-1,-1,18,20,-1,-1,22,24,26,28,30,-1,-1,32,34,-1,36,-1,-1,-1,-1,-1,-1,-1,-1,-1],"split_conditions":[-3.870389E-1,-5.300994E-1,3.6328359E0,6.451943E-2,1.2036364E0,4.96274E-3,9.5272267E-1,1.5473223E-2,3.6621604E-2,-4.6735793E-1,3.2433555E-2,1.60204E-2,3.6463924E-2,1.692941E1,2.9170148E0,6.981321E-3,-4.839369E-2,-5.342425E-2,8.642482E-1,8.22327E-1,4.829977E-1,-7.566579E-2,-1.4764403E-2,1.638165E-2,2.1951212E1,2.5890448E1,1.095975E-3,8.387348E-2,3.3692773E-2,3.270122E-2,1.0486915E-3,-4.8800074E-2,-2.5852077E-2,-4.4729494E-2,-1.2619955E-4,-4.4844892E-2,6.7158616E-3],"split_indices":[4,65,81,29,76,42,60,0,0,65,0,0,0,70,78,0,0,38,60,33,33,5,0,0,52,70,0,54,0,0,0,0,0,0,0,0,0],"split_type":[0,0,0,0,0,0,0,0,0,0,0,0,0,0,0,0,0,0,0,0,0,0,0,0,0,0,0,0,0,0,0,0,0,0,0,0,0],"sum_hessian":[3.4070236E2,1.2048728E2,2.2021507E2,9.999569E1,2.0491589E1,3.5310204E1,1.8490488E2,5.2074137E0,9.478828E1,1.1976274E1,8.515314E0,9.417185E0,2.5893019E1,4.64294E1,1.3847548E2,6.626198E0,5.350076E0,2.558333E1,2.0846071E1,1.1690631E2,2.156916E1,1.939107E1,6.192261E0,6.0283275E0,1.4817743E1,1.0933094E2,7.5753775E0,1.4334665E1,7.2344947E0,1.3380106E1,6.010963E0,9.743846E0,5.073898E0,1.0404791E2,5.2830205E0,9.332078E0,5.0025873E0],"tree_param":{"num_deleted":"0","num_feature":"89","num_nodes":"37","size_leaf_vector":"1"}},{"base_weights":[1.1820475E-2,1.0323557E0,-5.398526E-1,1.7616495E-3,1.1034212E0,5.387994E-2,-1.1357474E0,1.1463424E0,6.53185E-3,7.743694E-1,-5.107876E-1,-1.2445749E0,1.9829864E-2,3.5255585E-2,1.812798E-2,-3.8894914E-2,1.0708599E0,5.438116E-1,-9.5710695E-1,-4.294218E-1,-1.3857564E0,-3.117946E-2,3.0037075E-2,1.9123867E-2,3.5215523E-2,3.1028977E-2,-1.43306E-2,-1.2615796E0,-2.381957E-1,1.8781511E-2,-4.408413E-2,-8.6830044E-1,-4.5141682E-2,-4.5916308E-2,1.0477627E-3,-1.4825153E-2,-1.01292724E-4,-4.3892168E-2,8.0676135E-3],"categories":[],"categories_nodes":[],"categories_segments":[],"categories_sizes":[],"default_left":[0,0,0,0,0,0,0,0,0,0,0,0,0,0,0,0,0,0,0,0,0,0,0,0,0,0,0,0,0,0,0,0,0,0,0,0,0,0,0],"id":23,"left_children":[1,3,5,-1,7,9,11,13,-1,15,17,19,-1,-1,-1,21,23,25,27,29,31,-1,-1,-1,-1,-1,-1,33,35,-1,-1,37,-1,-1,-1,-1,-1,-1,-1],"loss_changes":[1.9898093E2,8.40181E0,8.129888E1,0E0,4.0029755E0,4.7506275E1,2.3284363E1,8.2832336E-1,0E0,1.2520718E1,3.1348238E1,1.1702103E1,0E0,0E0,0E0,1.6223541E1,7.550659E-1,1.0580816E1,9.702995E0,2.028174E1,4.1116486E0,0E0,0E0,0E0,0E0,0E0,0E0,1.1450867E1,8.5808223E-1,0E0,0E0,1.3834075E1,0E0,0E0,0E0,0E0,0E0,0E0,0E0],"parents":[2147483647,0,0,1,1,2,2,4,4,5,5,6,6,7,7,9,9,10,10,11,11,15,15,16,16,17,17,18,18,19,19,20,20,27,27,28,28,31,31],"right_children":[2,4,6,-1,8,10,12,14,-1,16,18,20,-1,-1,-1,22,24,26,28,30,32,-1,-1,-1,-1,-1,-1,34,36,-1,-1,38,-1,-1,-1,-1,-1,-1,-1],"split_conditions":[-3.9121467E-1,5.6312483E-2,2.8814926E0,1.7616495E-3,2.5307134E-2,2.233582E0,8.5065484E-1,3.1107576E0,6.53185E-3,3.5151515E0,-5.0289523E-2,-5.103884E-1,1.9829864E-2,3.5255585E-2,1.812798E-2,1.9060762E-1,4.96274E-3,2.4482903E1,2.314E1,1.4139279E0,9.138206E-1,-3.117946E-2,3.0037075E-2,1.9123867E-2,3.5215523E-2,3.1028977E-2,-1.43306E-2,7.202349E-1,2.236982E-3,1.8781511E-2,-4.408413E-2,9.1281486E-1,-4.5141682E-2,-4.5916308E-2,1.0477627E-3,-1.4825153E-2,-1.01292724E-4,-4.3892168E-2,8.0676135E-3],"split_indices":[4,67,75,0,63,82,33,75,0,68,38,30,0,0,0,57,42,24,71,37,39,0,0,0,0,0,0,30,43,0,0,36,0,0,0,0,0,0,0],"split_type":[0,0,0,0,0,0,0,0,0,0,0,0,0,0,0,0,0,0,0,0,0,0,0,0,0,0,0,0,0,0,0,0,0,0,0,0,0,0,0],"sum_hessian":[3.513512E2,1.2304369E2,2.283075E2,8.589993E0,1.144537E2,1.1473279E2,1.135747E2,1.087752E2,5.6785026E0,5.032551E1,6.440728E1,1.0743068E2,6.1440263E0,1.0199564E2,6.779556E0,1.3587353E1,3.6738155E1,1.9020834E1,4.5386448E1,1.6560974E1,9.0869705E1,6.9752913E0,6.612062E0,8.6208935E0,2.8117262E1,1.2908155E1,6.112679E0,3.1255287E1,1.4131161E1,8.369386E0,8.191588E0,1.8694658E1,7.217504E1,2.5799677E1,5.4556093E0,6.0288186E0,8.102342E0,1.2144452E1,6.5502057E0],"tree_param":{"num_deleted":"0","num_feature":"89","num_nodes":"39","size_leaf_vector":"1"}},{"base_weights":[5.323918E-2,1.031583E0,-5.273899E-1,1.1105511E0,1.7901722E-3,9.842131E-1,-8.015361E-1,1.1451851E0,1.1899879E-2,1.03590125E-2,3.582503E-2,-1.0173111E0,3.1377336E-1,1.6354641E-2,3.5246618E-2,-4.5283023E-2,-7.0935386E-1,7.214337E-1,-4.178589E-2,2.5946747E-3,-1.0620403E0,2.4877772E-1,3.3778913E-2,2.8341608E-2,-1.8895699E-2,-3.7464656E-2,1.3589307E-2,2.5260637E-2,-1.711469E-2],"categories":[],"categories_nodes":[],"categories_segments":[],"categories_sizes":[],"default_left":[0,0,0,0,0,0,0,0,0,0,0,0,0,0,0,0,0,0,0,0,0,0,0,0,0,0,0,0,0],"id":24,"left_children":[1,3,5,7,-1,9,11,13,-1,-1,-1,15,17,-1,-1,-1,19,21,-1,23,25,27,-1,-1,-1,-1,-1,-1,-1],"loss_changes":[1.9737277E2,9.749634E0,9.11048E1,2.3472443E0,0E0,3.9755173E0,4.4942093E1,1.2075958E0,0E0,0E0,0E0,2.226326E1,2.2296227E1,0E0,0E0,0E0,2.4619396E1,4.4554987E0,0E0,2.043321E1,1.9144722E1,6.8992877E0,0E0,0E0,0E0,0E0,0E0,0E0,0E0],"parents":[2147483647,0,0,1,1,2,2,3,3,5,5,6,6,7,7,11,11,12,12,16,16,17,17,19,19,20,20,21,21],"right_children":[2,4,6,8,-1,10,12,14,-1,-1,-1,16,18,-1,-1,-1,20,22,-1,24,26,28,-1,-1,-1,-1,-1,-1,-1],"split_conditions":[-5.2681625E-1,3.1514253E-2,3.6328359E0,2.758361E1,1.7901722E-3,2.6886827E1,1.5323881E0,6.1015524E-2,1.1899879E-2,1.03590125E-2,3.582503E-2,2.8173257E-2,-3.3241075E-2,1.6354641E-2,3.5246618E-2,-4.5283023E-2,5.0985074E-1,1.0743026E0,-4.178589E-2,1.9674664E1,8.5065484E-1,-7.648637E-2,3.3778913E-2,2.8341608E-2,-1.8895699E-2,-3.7464656E-2,1.3589307E-2,2.5260637E-2,-1.711469E-2],"split_indices":[65,63,81,52,0,0,76,29,0,0,0,3,42,0,0,0,76,2,0,24,33,42,0,0,0,0,0,0,0],"split_type":[0,0,0,0,0,0,0,0,0,0,0,0,0,0,0,0,0,0,0,0,0,0,0,0,0,0,0,0,0],"sum_hessian":[3.4540723E2,1.284195E2,2.1698772E2,1.1854235E2,9.877147E0,3.2858086E1,1.8412964E2,1.1234761E2,6.19474E0,8.898868E0,2.3959217E1,1.5443011E2,2.9699516E1,6.370684E0,1.0597693E2,5.781469E1,9.661543E1,2.4486383E1,5.213134E0,3.224114E1,6.43743E1,1.21511135E1,1.2335269E1,1.2815304E1,1.9425833E1,5.752405E1,6.8502455E0,7.1024284E0,5.0486856E0],"tree_param":{"num_deleted":"0","num_feature":"89","num_nodes":"29","size_leaf_vector":"1"}},{"base_weights":[4.3322287E-2,9.5644253E-1,-4.5272624E-1,3.5385445E-2,3.45201E-1,9.854859E-1,-7.5202936E-1,8.8648474E-1,-5.06904E-1,9.268063E-3,3.515641E-2,8.917346E-2,-1.0061449E0,3.347489E-2,3.920378E-3,-3.6873676E-2,8.630689E-3,4.225141E-1,-4.1614536E-2,-1.0843366E0,2.7214093E-2,7.46592E-1,-1.3355572E-2,-4.392771E-1,-1.313204E0,-0E0,3.1159393E-2,-3.0843982E-2,2.4908544E-2,7.252047E-3,-4.3191317E-2],"categories":[],"categories_nodes":[],"categories_segments":[],"categories_sizes":[],"default_left":[0,0,0,0,0,0,0,0,0,0,0,0,0,0,0,0,0,0,0,0,0,0,0,0,0,0,0,0,0,0,0],"id":25,"left_children":[1,3,5,-1,7,9,11,13,15,-1,-1,17,19,-1,-1,-1,-1,21,-1,23,-1,25,-1,27,29,-1,-1,-1,-1,-1,-1],"loss_changes":[1.5844136E2,1.6232063E1,9.825156E1,0E0,1.6381617E1,4.459152E0,4.0405983E1,3.4579754E0,8.453935E0,0E0,0E0,2.238102E1,2.2647385E1,0E0,0E0,0E0,0E0,1.0798428E1,0E0,1.984488E1,0E0,5.903161E0,0E0,2.9396729E1,2.0603271E1,0E0,0E0,0E0,0E0,0E0,0E0],"parents":[2147483647,0,0,1,1,2,2,4,4,5,5,6,6,7,7,8,8,11,11,12,12,17,17,19,19,21,21,23,23,24,24],"right_children":[2,4,6,-1,8,10,12,14,16,-1,-1,18,20,-1,-1,-1,-1,22,-1,24,-1,26,-1,28,30,-1,-1,-1,-1,-1,-1],"split_conditions":[-3.9121467E-1,-4.0592283E-1,3.6328359E0,3.5385445E-2,-3.327555E-1,4.96274E-3,-5.713115E-2,4.863912E1,3.5882734E-3,9.268063E-3,3.515641E-2,3.1373134E-1,1.5879512E-1,3.347489E-2,3.920378E-3,-3.6873676E-2,8.630689E-3,7.7272725E-1,-4.1614536E-2,5.0985074E-1,2.7214093E-2,-1.2266186E-1,-1.3355572E-2,3.993629E-1,-2.6629267E-3,-0E0,3.1159393E-2,-3.0843982E-2,2.4908544E-2,7.252047E-3,-4.3191317E-2],"split_indices":[4,45,81,0,44,42,42,72,26,0,0,79,29,0,0,0,0,87,0,76,0,54,0,34,26,0,0,0,0,0,0],"split_type":[0,0,0,0,0,0,0,0,0,0,0,0,0,0,0,0,0,0,0,0,0,0,0,0,0,0,0,0,0,0,0],"sum_hessian":[3.477301E2,1.2215047E2,2.2557964E2,8.868984E1,3.3460625E1,3.840571E1,1.8717393E2,2.050941E1,1.2951212E1,8.98544E0,2.9420267E1,4.3483932E1,1.4369E2,1.5267823E1,5.241588E0,6.564044E0,6.387168E0,3.6111767E1,7.372165E0,1.3851472E2,5.175276E0,2.647749E1,9.634277E0,3.7153732E1,1.0136099E2,7.8080697E0,1.866942E1,2.5564972E1,1.1588761E1,7.498079E0,9.3862915E1],"tree_param":{"num_deleted":"0","num_feature":"89","num_nodes":"31","size_leaf_vector":"1"}},{"base_weights":[1.862242E-2,5.80044E-1,-1.0038068E0,1.0462867E0,1.3078187E-1,2.9781982E-2,-1.1607437E0,1.1684455E0,5.181526E-1,-8.935608E-1,4.568272E-1,-1.3979666E0,-6.4298373E-1,1.7608475E-2,3.5944715E-2,6.1717547E-2,3.3503823E-2,-4.4781923E-2,-2.3613353E-1,9.8350036E-1,8.444362E-2,-4.3527365E-2,-1.6542487E-2,1.536296E-2,-1.3271807E0,3.2169998E-2,-2.411791E-2,2.0182366E-3,-1.3710786E-2,3.5367236E-2,7.0009E-3,-3.3376947E-1,8.579193E-1,-2.1086536E-2,2.217401E-2,-4.601076E-2,-1.9759132E-2,2.1922326E-2,-2.856849E-2,6.6843233E-3,3.2762773E-2],"categories":[],"categories_nodes":[],"categories_segments":[],"categories_sizes":[],"default_left":[0,0,0,0,0,0,0,0,0,0,0,0,0,0,0,0,0,0,0,0,0,0,0,0,0,0,0,0,0,0,0,0,0,0,0,0,0,0,0,0,0],"id":26,"left_children":[1,3,5,7,9,-1,11,13,15,17,19,21,23,-1,-1,25,-1,-1,27,29,31,-1,-1,33,35,-1,-1,-1,-1,-1,-1,37,39,-1,-1,-1,-1,-1,-1,-1,-1],"loss_changes":[1.8937228E2,4.4373512E1,3.7801033E1,5.954979E0,3.7021248E1,0E0,1.2272446E1,5.653305E-1,5.6998305E0,1.0017443E1,1.6283047E1,2.3029022E0,1.645796E1,0E0,0E0,1.2591586E1,0E0,0E0,1.009975E0,4.653042E0,1.66447E1,0E0,0E0,1.0589017E1,1.2333565E0,0E0,0E0,0E0,0E0,0E0,0E0,2.267877E1,2.310319E0,0E0,0E0,0E0,0E0,0E0,0E0,0E0,0E0],"parents":[2147483647,0,0,1,1,2,2,3,3,4,4,6,6,7,7,8,8,9,9,10,10,11,11,12,12,15,15,18,18,19,19,20,20,23,23,24,24,31,31,32,32],"right_children":[2,4,6,8,10,-1,12,14,16,18,20,22,24,-1,-1,26,-1,-1,28,30,32,-1,-1,34,36,-1,-1,-1,-1,-1,-1,38,40,-1,-1,-1,-1,-1,-1,-1,-1],"split_conditions":[2.8814926E0,-5.2681625E-1,-4.3346718E-1,9.9096364E-1,4.593735E1,2.9781982E-2,4.84711E-1,4.8772585E-1,7.5096446E-1,1.1838812E-2,2.1014926E-1,1.2811131E0,1.692941E1,1.7608475E-2,3.5944715E-2,5.279483E1,3.3503823E-2,-4.4781923E-2,4.1999706E1,4.2844492E-1,4.5974433E-1,-4.3527365E-2,-1.6542487E-2,-2.4649781E-1,2.7922113E0,3.2169998E-2,-2.411791E-2,2.0182366E-3,-1.3710786E-2,3.5367236E-2,7.0009E-3,9.362567E-1,-1.1701468E-1,-2.1086536E-2,2.217401E-2,-4.601076E-2,-1.9759132E-2,2.1922326E-2,-2.856849E-2,6.6843233E-3,3.2762773E-2],"split_indices":[75,65,44,62,72,0,33,35,32,54,76,2,70,0,0,50,0,0,72,33,33,0,0,65,25,0,0,0,0,0,0,60,58,0,0,0,0,0,0,0,0],"split_type":[0,0,0,0,0,0,0,0,0,0,0,0,0,0,0,0,0,0,0,0,0,0,0,0,0,0,0,0,0,0,0,0,0,0,0,0,0,0,0,0,0],"sum_hessian":[3.279684E2,2.1205714E2,1.1591127E2,1.0330062E2,1.0875653E2,8.01261E0,1.0789866E2,8.275697E1,2.054365E1,2.5764477E1,8.299205E1,7.269755E1,3.5201115E1,5.195472E0,7.75615E1,1.237696E1,8.16669E0,1.273516E1,1.3029317E1,3.358382E1,4.9408234E1,6.763541E1,5.06214E0,1.836315E1,1.6837963E1,5.653472E0,6.723488E0,5.591635E0,7.4376817E0,2.608412E1,7.4997E0,3.2353893E1,1.7054338E1,9.16188E0,9.201271E0,1.1761276E1,5.0766873E0,1.1763976E1,2.0589918E1,5.2349586E0,1.181938E1],"tree_param":{"num_deleted":"0","num_feature":"89","num_nodes":"41","size_leaf_vector":"1"}},{"base_weights":[-9.6632475E-3,9.7227156E-1,-5.4077786E-1,3.5167567E-2,2.3122393E-1,8.81386E-1,-7.792049E-1,6.878662E-1,-2.784287E-2,4.966634E-3,3.4667715E-2,-9.430443E-1,2.1494834E-1,-6.059066E-3,3.100738E-2,-1.2097367E0,-3.7787527E-1,7.676189E-1,-2.2325477E-2,-3.872442E-1,-1.3099382E0,-1.3573617E0,5.4559755E-1,3.3954944E-2,1.2294575E-2,-3.728319E-2,1.2288484E-2,-4.1664492E-2,-7.7344856E-4,-1.633739E-2,-4.5828126E-2,3.670741E-2,4.5737624E-3],"categories":[],"categories_nodes":[],"categories_segments":[],"categories_sizes":[],"default_left":[0,0,0,0,0,0,0,0,0,0,0,0,0,0,0,0,0,0,0,0,0,0,0,0,0,0,0,0,0,0,0,0,0],"id":27,"left_children":[1,3,5,-1,7,9,11,13,-1,-1,-1,15,17,-1,-1,19,21,23,-1,25,27,29,31,-1,-1,-1,-1,-1,-1,-1,-1,-1,-1],"loss_changes":[1.7110454E2,1.6650734E1,7.2911224E1,0E0,1.4282925E1,5.7605553E0,3.0088402E1,6.1858644E0,0E0,0E0,0E0,2.3109833E1,1.4686927E1,0E0,0E0,8.089493E0,4.789295E1,1.6559772E0,0E0,9.509144E0,9.373611E0,2.502201E0,6.99144E0,0E0,0E0,0E0,0E0,0E0,0E0,0E0,0E0,0E0,0E0],"parents":[2147483647,0,0,1,1,2,2,4,4,5,5,6,6,7,7,11,11,12,12,15,15,16,16,17,17,19,19,20,20,21,21,22,22],"right_children":[2,4,6,-1,8,10,12,14,-1,-1,-1,16,18,-1,-1,20,22,24,-1,26,28,30,32,-1,-1,-1,-1,-1,-1,-1,-1,-1,-1],"split_conditions":[-5.2681625E-1,-4.3366167E-1,3.6328359E0,3.5167567E-2,5.298997E1,-5.6588095E-2,1.5323881E0,5.8093414E-2,-2.784287E-2,4.966634E-3,3.4667715E-2,3.993629E-1,9.461821E-1,-6.059066E-3,3.100738E-2,1.8296877E0,1.9629412E0,8.698579E-1,-2.2325477E-2,2.9170148E0,2.5890448E1,3.1E0,3.5151515E0,3.3954944E-2,1.2294575E-2,-3.728319E-2,1.2288484E-2,-4.1664492E-2,-7.7344856E-4,-1.633739E-2,-4.5828126E-2,3.670741E-2,4.5737624E-3],"split_indices":[65,4,81,0,50,28,76,67,0,0,0,34,60,0,0,41,78,60,0,78,70,69,68,0,0,0,0,0,0,0,0,0,0],"split_type":[0,0,0,0,0,0,0,0,0,0,0,0,0,0,0,0,0,0,0,0,0,0,0,0,0,0,0,0,0,0,0,0,0],"sum_hessian":[3.2616275E2,1.1413286E2,2.120299E2,8.931365E1,2.4819206E1,2.9995768E1,1.8203413E2,1.8159369E1,6.659838E0,8.852946E0,2.114282E1,1.564094E2,2.5624743E1,5.1164956E0,1.3042872E1,1.05369934E2,5.103946E1,1.6449907E1,9.174834E0,1.2079483E1,9.329045E1,2.45931E1,2.6446362E1,6.94135E0,9.508557E0,5.6159577E0,6.4635253E0,8.7741615E1,5.548833E0,5.0879855E0,1.9505114E1,8.838071E0,1.760829E1],"tree_param":{"num_deleted":"0","num_feature":"89","num_nodes":"33","size_leaf_vector":"1"}},{"base_weights":[1.0242589E-2,7.412069E-1,-6.096192E-1,1.0927225E0,2.7068272E-1,9.131582E-1,-9.2791855E-1,8.479261E-3,3.4689263E-2,4.3160793E-1,-3.279344E-2,5.019933E-3,3.4998424E-2,-1.0720822E0,1.5193202E-1,-2.759715E-2,5.7942826E-1,-1.1793529E0,-1.6813384E-1,2.6913257E-2,-2.3485204E-2,9.0830326E-2,8.860867E-1,-1.2614563E0,-8.0142054E-4,-4.0223088E-2,1.7219678E-2,1.866807E-2,-1.8625924E-2,3.0927045E-2,6.223543E-3,-4.0725652E-2,-9.551111E-3],"categories":[],"categories_nodes":[],"categories_segments":[],"categories_sizes":[],"default_left":[0,0,0,0,0,0,0,0,0,0,0,0,0,0,0,0,0,0,0,0,0,0,0,0,0,0,0,0,0,0,0,0,0],"id":28,"left_children":[1,3,5,7,9,11,13,-1,-1,15,-1,-1,-1,17,19,-1,21,23,25,-1,-1,27,29,31,-1,-1,-1,-1,-1,-1,-1,-1,-1],"loss_changes":[1.4647469E2,2.411229E1,8.5598885E1,3.8813553E0,1.46509E1,5.470825E0,2.2854507E1,0E0,0E0,1.2254007E1,0E0,0E0,0E0,1.210585E1,1.3177033E1,0E0,7.870657E0,1.0664352E1,1.3789441E1,0E0,0E0,8.690139E0,2.882267E0,9.066681E0,0E0,0E0,0E0,0E0,0E0,0E0,0E0,0E0,0E0],"parents":[2147483647,0,0,1,1,2,2,3,3,4,4,5,5,6,6,9,9,13,13,14,14,16,16,17,17,18,18,21,21,22,22,23,23],"right_children":[2,4,6,8,10,12,14,-1,-1,16,-1,-1,-1,18,20,-1,22,24,26,-1,-1,28,30,32,-1,-1,-1,-1,-1,-1,-1,-1,-1],"split_conditions":[-3.1326425E-1,-4.0592283E-1,3.6328359E0,6.1015524E-2,3.799403E0,1.4115915E-2,1.235095E0,8.479261E-3,3.4689263E-2,2.2986306E-2,-3.279344E-2,5.019933E-3,3.4998424E-2,2.9213235E0,2.8814926E0,-2.759715E-2,5.0450447E1,2.542E1,9.113532E-2,2.6913257E-2,-2.3485204E-2,-4.2884257E-1,1.0555909E0,1.5513636E0,-8.0142054E-4,-4.0223088E-2,1.7219678E-2,1.866807E-2,-1.8625924E-2,3.0927045E-2,6.223543E-3,-4.0725652E-2,-9.551111E-3],"split_indices":[4,45,81,29,75,6,2,0,0,27,0,0,0,78,75,0,74,71,45,0,0,4,55,76,0,0,0,0,0,0,0,0,0],"split_type":[0,0,0,0,0,0,0,0,0,0,0,0,0,0,0,0,0,0,0,0,0,0,0,0,0,0,0,0,0,0,0,0,0],"sum_hessian":[3.212483E2,1.4739735E2,1.7385092E2,8.3489655E1,6.39077E1,2.967925E1,1.4417168E2,6.5872073E0,7.690244E1,5.78396E1,6.068101E0,8.04894E0,2.1630312E1,1.27279274E2,1.6892399E1,5.120798E0,5.2718803E1,1.13406166E2,1.3873109E1,9.481365E0,7.411034E0,2.0954443E1,3.1764359E1,1.0569618E2,7.709983E0,5.1165233E0,8.756586E0,1.21488085E1,8.805635E0,2.5628933E1,6.1354256E0,9.5429924E1,1.026626E1],"tree_param":{"num_deleted":"0","num_feature":"89","num_nodes":"33","size_leaf_vector":"1"}},{"base_weights":[7.096617E-2,9.809112E-1,-4.6571746E-1,-1.8211931E-3,1.0386004E0,1.0104434E0,-7.104804E-1,1.109031E0,7.42472E-3,1.6048934E-2,3.4282643E-2,-9.035748E-1,3.1524643E-1,1.9628182E-2,1.144751E0,-3.4203547E-1,-1.1748543E0,7.4119353E-1,-2.810636E-2,3.5572905E-2,2.0918084E-2,-7.8183544E-1,4.152834E-1,-1.3012098E0,1.2282802E-2,2.9817035E-2,1.3951818E-3,-3.1556252E-2,1.6483516E-2,-6.2525673E-3,2.8447764E-2,-4.2967894E-3,-4.222809E-2],"categories":[],"categories_nodes":[],"categories_segments":[],"categories_sizes":[],"default_left":[0,0,0,0,0,0,0,0,0,0,0,0,0,0,0,0,0,0,0,0,0,0,0,0,0,0,0,0,0,0,0,0,0],"id":29,"left_children":[1,3,5,-1,7,9,11,13,-1,-1,-1,15,17,-1,19,21,23,25,-1,-1,-1,27,29,31,-1,-1,-1,-1,-1,-1,-1,-1,-1],"loss_changes":[1.5951837E2,7.442993E0,7.490738E1,0E0,5.995987E0,1.0812359E0,3.53704E1,7.795105E-1,0E0,0E0,0E0,2.2170204E1,1.5969246E1,0E0,7.4624634E-1,1.7055086E1,2.06501E1,3.7146301E0,0E0,0E0,0E0,1.21817665E1,6.581951E0,1.1095764E1,0E0,0E0,0E0,0E0,0E0,0E0,0E0,0E0,0E0],"parents":[2147483647,0,0,1,1,2,2,4,4,5,5,6,6,7,7,11,11,12,12,14,14,15,15,16,16,17,17,21,21,22,22,23,23],"right_children":[2,4,6,-1,8,10,12,14,-1,-1,-1,16,18,-1,20,22,24,26,-1,-1,-1,28,30,32,-1,-1,-1,-1,-1,-1,-1,-1,-1],"split_conditions":[-5.2681625E-1,3.1532905E-1,3.6328359E0,-1.8211931E-3,3.1514253E-2,-5.6588095E-2,1.5323881E0,6.3485473E-1,7.42472E-3,1.6048934E-2,3.4282643E-2,5.0985074E-1,-2.9139893E-2,1.9628182E-2,9.9096364E-1,2.6935263E0,8.5065484E-1,9.362567E-1,-2.810636E-2,3.5572905E-2,2.0918084E-2,1.0554013E0,9.113532E-2,9.4223505E-1,1.2282802E-2,2.9817035E-2,1.3951818E-3,-3.1556252E-2,1.6483516E-2,-6.2525673E-3,2.8447764E-2,-4.2967894E-3,-4.222809E-2],"split_indices":[65,49,81,0,63,28,76,33,0,0,0,76,38,0,62,56,33,60,0,0,0,60,45,59,0,0,0,0,0,0,0,0,0],"split_type":[0,0,0,0,0,0,0,0,0,0,0,0,0,0,0,0,0,0,0,0,0,0,0,0,0,0,0,0,0,0,0,0,0],"sum_hessian":[3.2460498E2,1.2018699E2,2.0441798E2,6.2134476E0,1.1397354E2,2.8570852E1,1.7584712E2,1.0417119E2,9.802359E0,7.482056E0,2.1088795E1,1.4817043E2,2.7676702E1,9.197124E0,9.497406E1,4.912101E1,9.9049416E1,2.101556E1,6.661144E0,8.5284256E1,9.689806E0,3.1137886E1,1.7983124E1,9.19571E1,7.092314E0,1.4988501E1,6.027059E0,2.6123882E1,5.014004E0,8.480425E0,9.502698E0,8.014407E0,8.3942696E1],"tree_param":{"num_deleted":"0","num_feature":"89","num_nodes":"33","size_leaf_vector":"1"}},{"base_weights":[1.4402395E-3,9.262549E-1,-5.056026E-1,1.0483887E0,-1.35033345E-2,-1.6006152E-1,-1.2751132E0,-2.2850014E-4,1.10388E0,5.949781E-1,-5.2952033E-1,-3.4087836E-3,-4.1277904E-2,3.4125425E-2,1.1673854E-2,4.136921E-3,8.9267004E-1,7.65225E-2,-9.525821E-1,-3.7676472E-2,2.643338E-2,3.1436253E-3,1.0972716E0,-4.0756524E-1,3.278119E-2,-1.30581E0,2.8749382E-2,3.689879E-2,1.4740461E-2,1.3283984E-2,-3.2392215E-2,-1.4921603E-2,-4.2180996E-2,-4.223784E-2,2.5724148E-2],"categories":[],"categories_nodes":[],"categories_segments":[],"categories_sizes":[],"default_left":[0,0,0,0,0,0,0,0,0,0,0,0,0,0,0,0,0,0,0,0,0,0,0,0,0,0,0,0,0,0,0,0,0,0,0],"id":30,"left_children":[1,3,5,7,-1,9,11,-1,13,15,17,-1,-1,-1,-1,19,21,23,25,-1,-1,-1,27,29,-1,31,33,-1,-1,-1,-1,-1,-1,-1,-1],"loss_changes":[1.4799635E2,1.9325432E1,5.382159E1,6.156967E0,0E0,3.9871258E1,7.0598907E0,0E0,1.760788E0,8.169693E0,2.4734634E1,0E0,0E0,0E0,0E0,1.9696098E1,4.781748E0,2.0303991E1,1.9789959E1,0E0,0E0,0E0,1.1932888E0,1.6495531E1,0E0,2.49115E0,2.0068909E1,0E0,0E0,0E0,0E0,0E0,0E0,0E0,0E0],"parents":[2147483647,0,0,1,1,2,2,3,3,5,5,6,6,8,8,9,9,10,10,15,15,16,16,17,17,18,18,22,22,23,23,25,25,26,26],"right_children":[2,4,6,8,-1,10,12,-1,14,16,18,-1,-1,-1,-1,20,22,24,26,-1,-1,-1,28,30,-1,32,34,-1,-1,-1,-1,-1,-1,-1,-1],"split_conditions":[-5.2681625E-1,-3.3559483E-1,2.9415152E0,5.779305E-1,-1.35033345E-2,-4.98959E-2,-2.3438859E-1,-2.2850014E-4,2.949146E1,5.6301765E1,2.233582E0,-3.4087836E-3,-4.1277904E-2,3.4125425E-2,1.1673854E-2,4.0435237E-1,2.8708306E-1,4.5465663E-1,3.826358E-2,-3.7676472E-2,2.643338E-2,3.1436253E-3,1.0196786E0,2.537794E0,3.278119E-2,1.4848486E-1,1.9629412E0,3.689879E-2,1.4740461E-2,1.3283984E-2,-3.2392215E-2,-1.4921603E-2,-4.2180996E-2,-4.223784E-2,2.5724148E-2],"split_indices":[65,4,75,33,0,38,44,0,52,72,82,0,0,0,0,35,33,33,3,0,0,0,62,75,0,79,78,0,0,0,0,0,0,0,0],"split_type":[0,0,0,0,0,0,0,0,0,0,0,0,0,0,0,0,0,0,0,0,0,0,0,0,0,0,0,0,0,0,0,0,0,0,0],"sum_hessian":[3.1352225E2,1.1080013E2,2.0272212E2,1.0205507E2,8.745059E0,1.4082431E2,6.1897804E1,5.048183E0,9.700689E1,4.597896E1,9.484535E1,5.1927195E0,5.6705082E1,9.1948654E1,5.058233E0,1.5856915E1,3.0122044E1,3.92302E1,5.5615154E1,6.2832265E0,9.5736885E0,6.622178E0,2.3499866E1,2.6910938E1,1.2319263E1,4.072687E1,1.4888283E1,1.8297953E1,5.201913E0,1.1965692E1,1.4945248E1,5.2599044E0,3.5466965E1,5.146573E0,9.74171E0],"tree_param":{"num_deleted":"0","num_feature":"89","num_nodes":"35","size_leaf_vector":"1"}},{"base_weights":[2.3212746E-2,9.341396E-1,-4.8092565E-1,1.0534116E0,-1.2393645E-2,6.218215E-1,-7.368072E-1,7.629606E-3,1.0965347E0,8.729257E-1,-1.00035E-2,3.0576083E-1,-9.3275356E-1,3.418345E-2,1.0632019E-2,2.835774E-1,3.4442756E-2,8.6846304E-1,-2.9853282E-2,-1.0163784E0,1.504245E-2,-1.4686686E-2,2.9727401E-2,3.651489E-2,4.139116E-3,-1.1611446E0,-2.8398117E-1,-3.855055E-2,-8.481582E-5,-2.7060354E-2,3.4630768E-2],"categories":[],"categories_nodes":[],"categories_segments":[],"categories_sizes":[],"default_left":[0,0,0,0,0,0,0,0,0,0,0,0,0,0,0,0,0,0,0,0,0,0,0,0,0,0,0,0,0,0,0],"id":31,"left_children":[1,3,5,7,-1,9,11,-1,13,15,-1,17,19,-1,-1,21,-1,23,-1,25,-1,-1,-1,-1,-1,27,29,-1,-1,-1,-1],"loss_changes":[1.4605202E2,1.8710518E1,5.8209564E1,3.1858063E0,0E0,9.701884E0,3.438595E1,0E0,2.590004E0,4.5986404E0,0E0,2.0639944E1,1.742186E1,0E0,0E0,6.76375E0,0E0,4.6530094E0,0E0,1.3652237E1,0E0,0E0,0E0,0E0,0E0,1.5767014E1,2.1841036E1,0E0,0E0,0E0,0E0],"parents":[2147483647,0,0,1,1,2,2,3,3,5,5,6,6,8,8,9,9,11,11,12,12,15,15,17,17,19,19,25,25,26,26],"right_children":[2,4,6,8,-1,10,12,-1,14,16,-1,18,20,-1,-1,22,-1,24,-1,26,-1,-1,-1,-1,-1,28,30,-1,-1,-1,-1],"split_conditions":[-5.2681625E-1,-3.3928922E-1,2.1014926E-1,5.779305E-1,-1.2393645E-2,4.092985E0,-1.6421737E-1,7.629606E-3,2.949146E1,2.6886827E1,-1.00035E-2,2.9415152E0,6.8759185E-1,3.418345E-2,1.0632019E-2,-2.3257738E-1,3.4442756E-2,2.0429277E1,-2.9853282E-2,2.9170148E0,1.504245E-2,-1.4686686E-2,2.9727401E-2,3.651489E-2,4.139116E-3,1.5513636E0,3.959818E-1,-3.855055E-2,-8.481582E-5,-2.7060354E-2,3.4630768E-2],"split_indices":[65,4,76,33,0,68,43,0,52,0,0,75,1,0,0,4,0,0,0,78,0,0,0,0,0,76,34,0,0,0,0],"split_type":[0,0,0,0,0,0,0,0,0,0,0,0,0,0,0,0,0,0,0,0,0,0,0,0,0,0,0,0,0,0,0],"sum_hessian":[3.159576E2,1.1233147E2,2.0362613E2,1.03464195E2,8.867276E0,3.8007607E1,1.6561852E2,5.769478E0,9.769472E1,3.0247568E1,7.7600393E0,2.603323E1,1.395853E2,9.172086E1,5.973851E0,1.0389474E1,1.9858093E1,1.8458237E1,7.5749927E0,1.322358E2,7.3494964E0,5.043419E0,5.346055E0,1.195054E1,6.5076966E0,1.09808945E2,2.2426851E1,9.9023384E1,1.0785558E1,1.599603E1,6.430821E0],"tree_param":{"num_deleted":"0","num_feature":"89","num_nodes":"31","size_leaf_vector":"1"}},{"base_weights":[2.0421872E-2,9.479939E-1,-4.7495183E-1,1.0690187E0,-1.1792941E-2,6.1591774E-1,-7.207924E-1,9.81098E-3,1.1049013E0,8.8019544E-1,-9.653703E-3,-5.9014663E-2,-9.5775926E-1,3.421734E-2,1.3728171E-2,3.2861214E-2,2.6553802E-3,-6.799607E-1,6.015359E-1,-2.82063E-1,-1.1980015E0,-1.070924E0,8.624011E-3,9.166911E-1,-1.1132192E-2,-4.1194357E-2,2.2728537E-1,-3.0886144E-3,-1.3293593E0,-7.9721175E-3,-4.1725066E-2,1.3231882E-2,3.4503955E-2,-1.4066924E-2,3.6697052E-2,-1.8200492E-2,-4.1098803E-2],"categories":[],"categories_nodes":[],"categories_segments":[],"categories_sizes":[],"default_left":[0,0,0,0,0,0,0,0,0,0,0,0,0,0,0,0,0,0,0,0,0,0,0,0,0,0,0,0,0,0,0,0,0,0,0,0,0],"id":32,"left_children":[1,3,5,7,-1,9,11,-1,13,15,-1,17,19,-1,-1,-1,-1,21,23,25,27,29,-1,31,-1,-1,33,-1,35,-1,-1,-1,-1,-1,-1,-1,-1],"loss_changes":[1.4185832E2,1.7936462E1,5.4395905E1,2.129776E0,0E0,9.621452E0,2.566716E1,0E0,1.4851074E0,4.8223724E0,0E0,1.8709354E1,1.916983E1,0E0,0E0,0E0,0E0,9.287982E0,7.1573176E0,1.8864208E1,1.2508682E1,3.8558235E0,0E0,1.2243242E0,0E0,0E0,1.6882942E1,0E0,1.295639E0,0E0,0E0,0E0,0E0,0E0,0E0,0E0,0E0],"parents":[2147483647,0,0,1,1,2,2,3,3,5,5,6,6,8,8,9,9,11,11,12,12,17,17,18,18,19,19,20,20,21,21,23,23,26,26,28,28],"right_children":[2,4,6,8,-1,10,12,-1,14,16,-1,18,20,-1,-1,-1,-1,22,24,26,28,30,-1,32,-1,-1,34,-1,36,-1,-1,-1,-1,-1,-1,-1,-1],"split_conditions":[-5.2681625E-1,-3.36828E-1,2.1014926E-1,5.78344E-2,-1.1792941E-2,1.6561693E1,-5.713115E-2,9.81098E-3,2.9411827E1,3.0583046E-2,-9.653703E-3,1.3614706E0,5.931818E-1,3.421734E-2,1.3728171E-2,3.2861214E-2,2.6553802E-3,6.879409E1,-5.066579E-2,3.0885784E-2,-1.203732E-1,-4.420814E-1,8.624011E-3,2.5784185E0,-1.1132192E-2,-4.1194357E-2,8.4823444E-2,-3.0886144E-3,-8.498584E-2,-7.9721175E-3,-4.1725066E-2,1.3231882E-2,3.4503955E-2,-1.4066924E-2,3.6697052E-2,-1.8200492E-2,-4.1098803E-2],"split_indices":[65,4,76,67,0,70,42,0,52,3,0,76,76,0,0,0,0,74,38,66,43,65,0,56,0,0,45,0,5,0,0,0,0,0,0,0,0],"split_type":[0,0,0,0,0,0,0,0,0,0,0,0,0,0,0,0,0,0,0,0,0,0,0,0,0,0,0,0,0,0,0,0,0,0,0,0,0],"sum_hessian":[3.0664395E2,1.0650493E2,2.0013902E2,9.7943596E1,8.561332E0,3.645683E1,1.6368219E2,5.1131845E0,9.2830414E1,2.8572197E1,7.884631E0,4.359774E1,1.2008445E2,8.71125E1,5.7179065E0,2.2065031E1,6.507165E0,2.2535448E1,2.1062292E1,3.217647E1,8.7907974E1,1.604687E1,6.4885798E0,1.6028782E1,5.0335097E0,9.763145E0,2.2413326E1,9.688234E0,7.821974E1,5.1721945E0,1.0874675E1,6.3693004E0,9.659482E0,1.3444336E1,8.96899E0,5.139781E0,7.307996E1],"tree_param":{"num_deleted":"0","num_feature":"89","num_nodes":"37","size_leaf_vector":"1"}},{"base_weights":[-6.04277E-3,8.871546E-1,-4.728204E-1,1.1089876E0,1.1188385E-1,9.100566E-1,-7.422586E-1,1.630087E-2,3.4199074E-2,6.917703E-1,-5.78495E-1,3.2913513E-2,8.755308E-3,-9.449442E-1,2.4500987E-1,3.364937E-2,3.4713885E-5,-3.8081944E-2,4.7512287E-3,-3.758448E-1,-1.2211965E0,8.2875913E-1,-6.402152E-1,-4.1311E-2,3.1818166E-2,-1.3255807E0,-3.6681984E-3,3.2842252E-2,8.369542E-3,-4.4764146E-2,1.20925335E-2,2.8563503E-2,-1.7428493E-2,-4.109463E-2,-1.5208446E-2],"categories":[],"categories_nodes":[],"categories_segments":[],"categories_sizes":[],"default_left":[0,0,0,0,0,0,0,0,0,0,0,0,0,0,0,0,0,0,0,0,0,0,0,0,0,0,0,0,0,0,0,0,0,0,0],"id":33,"left_children":[1,3,5,7,9,11,13,-1,-1,15,17,-1,-1,19,21,-1,-1,-1,-1,23,25,27,29,-1,31,33,-1,-1,-1,-1,-1,-1,-1,-1,-1],"loss_changes":[1.2694996E2,1.7720993E1,7.522068E1,6.319809E-1,1.0201926E1,3.3595142E0,3.3937614E1,0E0,0E0,3.990848E0,6.23296E0,0E0,0E0,2.135225E1,1.5711543E1,0E0,0E0,0E0,0E0,1.9455978E1,1.04207E1,2.2164707E0,1.1514673E1,0E0,2.0029743E1,2.2043304E0,0E0,0E0,0E0,0E0,0E0,0E0,0E0,0E0,0E0],"parents":[2147483647,0,0,1,1,2,2,3,3,4,4,5,5,6,6,9,9,10,10,13,13,14,14,19,19,20,20,21,21,22,22,24,24,25,25],"right_children":[2,4,6,8,10,12,14,-1,-1,16,18,-1,-1,20,22,-1,-1,-1,-1,24,26,28,30,-1,32,34,-1,-1,-1,-1,-1,-1,-1,-1,-1],"split_conditions":[-5.2681625E-1,-4.3366167E-1,3.6328359E0,2.1195588E0,5.931818E-1,3.337855E-2,1.5323881E0,1.630087E-2,3.4199074E-2,9.244023E-1,9.8054194E-1,3.2913513E-2,8.755308E-3,4.939394E-1,9.362567E-1,3.364937E-2,3.4713885E-5,-3.8081944E-2,4.7512287E-3,2.7401755E-2,2.666059E-1,2.5112798E0,5.2300686E-1,-4.1311E-2,1.9674664E1,-1.6618469E0,-3.6681984E-3,3.2842252E-2,8.369542E-3,-4.4764146E-2,1.20925335E-2,2.8563503E-2,-1.7428493E-2,-4.109463E-2,-1.5208446E-2],"split_indices":[65,4,81,82,76,66,76,0,0,39,39,0,0,76,60,0,0,0,0,66,48,41,46,0,24,40,0,0,0,0,0,0,0,0,0],"split_type":[0,0,0,0,0,0,0,0,0,0,0,0,0,0,0,0,0,0,0,0,0,0,0,0,0,0,0,0,0,0,0,0,0,0,0],"sum_hessian":[3.0258472E2,1.03472046E2,1.9911267E2,8.001689E1,2.3455162E1,3.202049E1,1.6709218E2,5.285545E0,7.4731346E1,1.2825317E1,1.0629845E1,2.3863415E1,8.157074E0,1.3875087E2,2.8341307E1,7.430956E0,5.3943615E0,5.183092E0,5.446752E0,4.623205E1,9.2518814E1,1.7185392E1,1.1155913E1,1.2760554E1,3.34715E1,8.422155E1,8.297264E0,1.0791351E1,6.394041E0,5.9571476E0,5.1987658E0,1.3222461E1,2.0249039E1,7.914875E1,5.0728025E0],"tree_param":{"num_deleted":"0","num_feature":"89","num_nodes":"35","size_leaf_vector":"1"}},{"base_weights":[6.3990526E-2,9.622549E-1,-4.2603078E-1,2.682813E-1,1.0462127E0,9.098598E-1,-6.930729E-1,2.3630135E-2,-6.879204E-3,3.320479E-2,9.083085E-3,4.757759E-1,3.3976268E-2,-8.5123223E-1,1.645104E-1,-5.433818E-3,3.0307353E-2,-1.0078226E0,-2.4295384E-1,-4.2156333E-1,7.6029426E-1,-1.0828358E0,1.3975313E-2,-6.405637E-1,2.7794907E-2,-3.8636655E-2,2.083252E-2,1.9064846E-3,3.5851084E-2,-3.5307273E-2,-4.795577E-3,7.888019E-3,-3.0077029E-2],"categories":[],"categories_nodes":[],"categories_segments":[],"categories_sizes":[],"default_left":[0,0,0,0,0,0,0,0,0,0,0,0,0,0,0,0,0,0,0,0,0,0,0,0,0,0,0,0,0,0,0,0,0],"id":34,"left_children":[1,3,5,7,9,11,13,-1,-1,-1,-1,15,-1,17,19,-1,-1,21,23,25,27,29,-1,31,-1,-1,-1,-1,-1,-1,-1,-1,-1],"loss_changes":[1.3497813E2,5.8947296E0,7.136899E1,3.6364493E0,3.8539963E0,2.5302963E0,2.271563E1,0E0,0E0,0E0,0E0,4.9025316E0,0E0,1.2999466E1,9.634511E0,0E0,0E0,1.2856033E1,1.4600057E1,1.4446936E1,3.9240065E0,8.895546E0,0E0,7.9192314E0,0E0,0E0,0E0,0E0,0E0,0E0,0E0,0E0,0E0],"parents":[2147483647,0,0,1,1,2,2,3,3,4,4,5,5,6,6,11,11,13,13,14,14,17,17,18,18,19,19,20,20,21,21,23,23],"right_children":[2,4,6,8,10,12,14,-1,-1,-1,-1,16,-1,18,20,-1,-1,22,24,26,28,30,-1,32,-1,-1,-1,-1,-1,-1,-1,-1,-1],"split_conditions":[-5.2681625E-1,6.1246313E-2,3.6328359E0,2.3731343E-1,2.707525E-2,2.6886827E1,1.5323881E0,2.3630135E-2,-6.879204E-3,3.320479E-2,9.083085E-3,-5.511911E-2,3.3976268E-2,7.444672E1,3.1936297E-1,-5.433818E-3,3.0307353E-2,1.3413085E-1,7.088128E1,1.0318625E0,-1.7339937E-1,2.637E1,1.3975313E-2,-7.330242E-1,2.7794907E-2,-3.8636655E-2,2.083252E-2,1.9064846E-3,3.5851084E-2,-3.5307273E-2,-4.795577E-3,7.888019E-3,-3.0077029E-2],"split_indices":[65,67,81,76,63,0,76,0,0,0,0,28,0,74,30,0,0,29,51,55,47,71,0,30,0,0,0,0,0,0,0,0,0],"split_type":[0,0,0,0,0,0,0,0,0,0,0,0,0,0,0,0,0,0,0,0,0,0,0,0,0,0,0,0,0,0,0,0,0],"sum_hessian":[3.0459775E2,1.0724533E2,1.9735242E2,1.2155726E1,9.508961E1,3.2414707E1,1.649377E2,5.760658E0,6.395068E0,8.734498E1,7.744628E0,1.2206238E1,2.0208467E1,1.3936028E2,2.5577425E1,5.6885653E0,6.5176725E0,1.10176155E2,2.9184122E1,1.2956585E1,1.2620841E1,1.051565E2,5.0196533E0,2.218056E1,7.003563E0,7.257906E0,5.6986785E0,5.3779683E0,7.2428727E0,9.5082E1,1.0074501E1,6.3441396E0,1.583642E1],"tree_param":{"num_deleted":"0","num_feature":"89","num_nodes":"33","size_leaf_vector":"1"}},{"base_weights":[2.2443186E-2,9.2352676E-1,-4.5851165E-1,1.0319046E0,-4.448656E-3,5.1537797E-2,-7.4171996E-1,4.014359E-1,3.3339575E-2,3.114324E-1,-8.522401E-1,-5.784225E-2,-1.125939E0,-3.3416233E-3,2.8900048E-2,8.051136E-1,-2.115595E-1,6.619998E-3,-4.1315887E-2,-4.0469654E-2,3.6725658E-1,-1.2676995E0,5.0908467E-3,2.4746385E-1,3.35417E-2,-3.9746594E-2,3.8727647E-1,7.8169054E-1,-1.7663078E-1,-1.4724846E-2,-3.9514966E-2,-1.6821694E-2,2.9595206E-2,-2.0335905E-2,2.741037E-2,3.653627E-2,6.0190107E-3,2.5759498E-2,-2.804713E-2],"categories":[],"categories_nodes":[],"categories_segments":[],"categories_sizes":[],"default_left":[0,0,0,0,0,0,0,0,0,0,0,0,0,0,0,0,0,0,0,0,0,0,0,0,0,0,0,0,0,0,0,0,0,0,0,0,0,0,0],"id":35,"left_children":[1,3,5,7,-1,9,11,13,-1,15,17,19,21,-1,-1,23,25,-1,-1,-1,27,29,-1,31,-1,-1,33,35,37,-1,-1,-1,-1,-1,-1,-1,-1,-1,-1],"loss_changes":[1.3293689E2,1.2644455E1,2.8980644E1,4.2682495E0,0E0,1.7163523E1,3.363701E1,3.816881E0,0E0,1.4913326E1,9.600481E0,2.66366E1,1.5434349E1,0E0,0E0,4.745682E0,1.94807E1,0E0,0E0,0E0,8.408728E0,2.029457E0,0E0,7.778327E0,0E0,0E0,1.1365295E1,4.9262714E0,1.3734395E1,0E0,0E0,0E0,0E0,0E0,0E0,0E0,0E0,0E0,0E0],"parents":[2147483647,0,0,1,1,2,2,3,3,5,5,6,6,7,7,9,9,10,10,11,11,12,12,15,15,16,16,20,20,21,21,23,23,26,26,27,27,28,28],"right_children":[2,4,6,8,-1,10,12,14,-1,16,18,20,22,-1,-1,24,26,-1,-1,-1,28,30,-1,32,-1,-1,34,36,38,-1,-1,-1,-1,-1,-1,-1,-1,-1,-1],"split_conditions":[-5.2681625E-1,3.1514253E-2,4.7E-1,6.1246313E-2,-4.448656E-3,1.6561693E1,9.6904546E-1,-7.646793E-2,3.3339575E-2,5.7774242E1,1.8096008E1,1.05E0,2.5890448E1,-3.3416233E-3,2.8900048E-2,2.6886827E1,3.526168E-1,6.619998E-3,-4.1315887E-2,-4.0469654E-2,1.9417463E1,4.3480946E1,5.0908467E-3,-5.6588095E-2,3.35417E-2,-3.9746594E-2,-1.7041793E-1,-3.461794E-1,1.1871029E0,-1.4724846E-2,-3.9514966E-2,-1.6821694E-2,2.9595206E-2,-2.0335905E-2,2.741037E-2,3.653627E-2,6.0190107E-3,2.5759498E-2,-2.804713E-2],"split_indices":[65,63,77,67,0,70,60,47,0,72,24,77,70,0,0,0,33,0,0,0,52,50,0,28,0,0,64,65,37,0,0,0,0,0,0,0,0,0,0],"split_type":[0,0,0,0,0,0,0,0,0,0,0,0,0,0,0,0,0,0,0,0,0,0,0,0,0,0,0,0,0,0,0,0,0,0,0,0,0,0,0],"sum_hessian":[3.0465967E2,1.05774895E2,1.9888477E2,9.618008E1,9.594819E0,7.1171684E1,1.2771308E2,1.1577895E1,8.460218E1,5.5871166E1,1.5300517E1,4.644885E1,8.126424E1,6.379433E0,5.1984615E0,2.856183E1,2.7309336E1,5.15463E0,1.0145887E1,1.1024918E1,3.542393E1,7.333871E1,7.925531E0,1.1025401E1,1.753643E1,9.185903E0,1.8123432E1,1.9960762E1,1.5463167E1,5.165058E0,6.8173645E1,5.316963E0,5.7084374E0,5.836325E0,1.2287107E1,1.0677421E1,9.283342E0,6.425751E0,9.0374155E0],"tree_param":{"num_deleted":"0","num_feature":"89","num_nodes":"39","size_leaf_vector":"1"}},{"base_weights":[3.3111475E-2,8.677872E-1,-3.6999533E-1,9.5764786E-1,-1.11141745E-2,8.4391755E-1,-6.110028E-1,-1.912737E-3,1.0484501E0,4.056577E-1,3.3488873E-2,2.3617933E-2,-8.99094E-1,3.2366157E-2,1.4634599E-2,2.8459009E-2,-1.4725031E-2,-7.296317E-1,5.9341866E-1,-9.923137E-1,1.82678E-2,1.9347975E-2,-1.1862215E0,1.4463915E-1,4.018993E-2,-4.8919857E-1,-1.2202016E0,-1.9847196E-2,-4.0017426E-2,-1.7705848E-2,2.0849934E-2,-4.021939E-2,8.049395E-4,-3.9278597E-2,-2.6649751E-3],"categories":[],"categories_nodes":[],"categories_segments":[],"categories_sizes":[],"default_left":[0,0,0,0,0,0,0,0,0,0,0,0,0,0,0,0,0,0,0,0,0,0,0,0,0,0,0,0,0,0,0,0,0,0,0],"id":36,"left_children":[1,3,5,7,-1,9,11,-1,13,15,-1,17,19,-1,-1,-1,-1,21,23,25,-1,-1,27,29,-1,31,33,-1,-1,-1,-1,-1,-1,-1,-1],"loss_changes":[9.827539E1,1.1000153E1,5.8079704E1,8.42527E0,0E0,3.3291817E0,3.0253681E1,0E0,7.1448517E-1,7.4935427E0,0E0,2.2886131E1,1.660305E1,0E0,0E0,0E0,0E0,1.5201923E1,9.848394E0,1.154232E1,0E0,0E0,2.8245735E-1,8.592534E0,0E0,1.5667419E1,7.1105194E0,0E0,0E0,0E0,0E0,0E0,0E0,0E0,0E0],"parents":[2147483647,0,0,1,1,2,2,3,3,5,5,6,6,8,8,9,9,11,11,12,12,17,17,18,18,19,19,22,22,23,23,25,25,26,26],"right_children":[2,4,6,8,-1,10,12,-1,14,16,-1,18,20,-1,-1,-1,-1,22,24,26,-1,-1,28,30,-1,32,34,-1,-1,-1,-1,-1,-1,-1,-1],"split_conditions":[-5.2681625E-1,1.0948082E0,3.6328359E0,5.7347666E-2,-1.11141745E-2,2.6886827E1,-7.566579E-2,-1.912737E-3,2.707525E-2,1.2199197E0,3.3488873E-2,1.1909091E0,1.1114233E0,3.2366157E-2,1.4634599E-2,2.8459009E-2,-1.4725031E-2,3.832836E0,2.7932238E-2,5.0985074E-1,1.82678E-2,1.9347975E-2,-1.0101818E-1,2.5231233E0,4.018993E-2,3.0409493E-2,8.923023E-1,-1.9847196E-2,-4.0017426E-2,-1.7705848E-2,2.0849934E-2,-4.021939E-2,8.049395E-4,-3.9278597E-2,-2.6649751E-3],"split_indices":[65,61,81,67,0,23,5,0,63,25,0,76,55,0,0,0,0,81,27,76,0,0,38,25,0,66,30,0,0,0,0,0,0,0,0],"split_type":[0,0,0,0,0,0,0,0,0,0,0,0,0,0,0,0,0,0,0,0,0,0,0,0,0,0,0,0,0,0,0,0,0,0,0],"sum_hessian":[2.899812E2,9.414312E1,1.9583807E2,8.8059975E1,6.0831456E0,3.1957443E1,1.6388063E2,7.1237435E0,8.0936226E1,1.3343711E1,1.8613731E1,5.134543E1,1.125352E2,7.572438E1,5.2118483E0,8.343631E0,5.00008E0,2.1916649E1,2.9428778E1,1.0636824E2,6.1669617E0,5.307349E0,1.66093E1,1.9206276E1,1.0222503E1,3.4277733E1,7.209051E1,5.0009456E0,1.1608355E1,8.115906E0,1.1090369E1,1.2405115E1,2.1872616E1,6.660067E1,5.4898376E0],"tree_param":{"num_deleted":"0","num_feature":"89","num_nodes":"35","size_leaf_vector":"1"}},{"base_weights":[4.1657805E-2,8.657013E-1,-3.9702132E-1,9.51462E-1,-1.3887629E-2,8.4512526E-1,-6.082918E-1,-2.4721294E-4,1.0620476E0,4.2568436E-1,3.2859217E-2,-7.9939455E-1,1.7520927E-2,3.2704405E-2,1.6507322E-2,-4.124322E-3,2.9889116E-2,-9.004424E-1,1.5701565E-1,-1.1400446E0,9.286821E-1,-1.0733274E0,-1.654886E-1,2.4787739E-2,-1.7691854E-2,-1.5105125E-2,-4.0572166E-2,5.931246E-3,1.1433374E0,-3.53161E-2,