tree
version=v4
num_class=1
num_tree_per_iteration=1
label_index=0
max_feature_idx=99
objective=binary sigmoid:1
feature_names=Column_0 Column_1 Column_2 Column_3 Column_4 Column_5 Column_6 Column_7 Column_8 Column_9 Column_10 Column_11 Column_12 Column_13 Column_14 Column_15 Column_16 Column_17 Column_18 Column_19 Column_20 Column_21 Column_22 Column_23 Column_24 Column_25 Column_26 Column_27 Column_28 Column_29 Column_30 Column_31 Column_32 Column_33 Column_34 Column_35 Column_36 Column_37 Column_38 Column_39 Column_40 Column_41 Column_42 Column_43 Column_44 Column_45 Column_46 Column_47 Column_48 Column_49 Column_50 Column_51 Column_52 Column_53 Column_54 Column_55 Column_56 Column_57 Column_58 Column_59 Column_60 Column_61 Column_62 Column_63 Column_64 Column_65 Column_66 Column_67 Column_68 Column_69 Column_70 Column_71 Column_72 Column_73 Column_74 Column_75 Column_76 Column_77 Column_78 Column_79 Column_80 Column_81 Column_82 Column_83 Column_84 Column_85 Column_86 Column_87 Column_88 Column_89 Column_90 Column_91 Column_92 Column_93 Column_94 Column_95 Column_96 Column_97 Column_98 Column_99
feature_infos=[0.4542008137867552:1.4984043377224401] [0.12386832628849136:1.1644372722359764] [-0.69638272349066388:1.1504755510272435] [0.65491990936976685:1.2591630408729604] [0:1] [-0.37935367614760757:0.30880455748058172] [-0.3536957872533657:0.33054945054945062] [-0.28019778630901737:0.28343891177621749] [0.230625:0.95374999999999999] [0.6416070162750821:2.129214264756059] [0:0.62910508423225442] [-2.5641354108387415:2.1326895957828] [-0.63191667492744996:0.53318180801423753] [-0.60014462039334249:1.0818536132225245] [0:13] [-0.39330600328294474:0.68679296459595074] [-0.27749930943386769:0.11844883087453646] [0.011885626260501086:0.10561151205553634] [-0.37593995381847167:0.3858267901603013] [0.16802854594404845:2.3190181526883387] [-0.76098517497744989:2.3014743999776566] [-6.4748912290986107:3.5034338260585289] [1:9] [0.13778834014806474:1.7298536092349568] [0:1.4403779057306294] [0:1.5137070937782131] [0:1.7298536092349568] [-0.27749930943386769:0.11844883087453646] [3.3528844938903557:87.315651507188448] [0:1] [3.0951519012451172:90.752201690673857] [-0.9921798927148906:0.92193521483751995] [1.9959090909090909:3.7994029850746269] [0.869982267189369:1.2370381129644716] [-4.5799947367451468:-1.4398990873022313] [-0.98561524791596855:1.5526759349357775] [-0.50380182330804757:0.89623899232087467] [0:1.1644372722359764] [0:90.752201690673857] [-0.48158620496423665:0.58931085381372394] [1.6634148549483294:42.235044627214123] [0:2.6724242424242424] [0.087199759035823193:0.92086517285811798] [-0.60622684155461326:0.93615584560692622] [0.79196205732197922:1.415015916021499] [-0.82885558175978147:0] [-0.27749930943386769:0.11844883087453646] [-0.014946740966631554:0.011325121667722201] [-12.502114810009781:11.578745049333669] [-0.62636860904216185:0.95932239875740422] [0:1.4984043377224401] [1.5628879047384403:8.0967153623324393] [-0.56819576219901624:1.0818536132225245] [0.0092466164060876072:0.094543284063063698] [0.77977681545421318:1.267559165504996] [0.0087578252174694404:0.10814860749775569] [0:0.99991855120157613] [-0.85471783537695245:4.6184165579321892] [0:2.8025968497232867] [0.013610460728805408:0.1371011237765179] [0:1] [-30.119537353515625:63.899687423706084] [0:1.1644372722359764] [-0.47048609218099419:-0.017961097735517503] [0.019807259594852758:0.29554929640273314] [19.42327574238146:89.031526788433681] [1.5635787057263015:4.2865898799590072] [-0.32186917432116458:0.29122942409019359] [0.19261238623673474:0.79998943467433203] [-14.210832214355468:8.2905008850097772] [0.12386832628849109:1.1644372722359773] [30.92955029194631:67.640734130802457] [0.052977908545708927:0.58767186138720684] [0:0.12741119629545811] [0:0.9992790370945438] [0:1] [0.13780967365188562:1.5151522402627307] [0.14457145879226577:1.5137070937782131] [-0.56819576219901624:1.0818536132225245] [0.2373134328358209:1.5513636363636363] [-1.1113692848916199:0.30474937839169669] [0.79015024316895677:2.3044491673381668] [0:69.874411764705883] [-0.82885558175978147:0] [0:90.752201690673857] [0:0.46951246857643125] [0:0.99925359436889405] [0.21974444042181968:11.023636028228003] [-0.42636059570794155:0] [-29.846237182617188:16.058666229248047] [-0.98094708276797815:0.98127881315348353] [-0.56819576219901624:1.0818536132225245] [-0.44383421259767869:0] [-11.129914066033464:12.168267752148353] [0:90.752201690673857] [-1.1424347569045747:1.0904666646503391] [-0.82885558175978147:0] [0.65669343057170992:1.359322657754396] [0:0.00035063113604488078] [0:33.271748991671465]
tree_sizes=1059 1168 1172 1170 1172 1070 1073 880 1183 1190 1078 1186 1085 976 983 1290 1081 1181 1194 984 1076 1198 1087 1192 1197 1079 1091 1190 1196 1193 1196 1394 1190 1080 1192 1185 1193 1187 1287 1081 1081 1189 1396 1395 1398 1288 1275 1388 1274 1177 1185 1172 1076 1081 1180 1088 1082 1289 1595 1409 1185 1189 1184 1188 1192 1293 1174 1300 1290 1189 1289 1183 1508 1403 1402 1090 1292 1379 1290 1298 1293 1395 1392 1194 1696 1289 1190 1289 1394 1297 1185 1190 1404 1076 1400 1292 1290 1185 1199 1191 1181 1487 1292 1396 1492 1502 986 1399 1299 1398 1099 1194 1089 1196 1381 1200 1400 1189 1401 1510 1513 1296 1409 1394 1610 1722 1196 1296 1306 982 1089 1407 1718 1415 1300 1388 1506 1202 1601 1482 1190 1520 1092 1402 1386 1503 1522 1512 1410 1519 1518 1520 1623 1506 1405 1899 1596 1512 1700 1378 1409 1492 1402 1196 1496 1495 1171 1302 1202 1305 1508 1604 1406 1623 1501 1203 1389 1512 1506 1207 1402 1622 1308 1497 1312 996 1496 1408 1300 1307 1609 1197 1598 1618 1307 1206 1704 1623 1608 1312 1726 1527 1588 1296 1690 1618 1415 1504 1424 990 1730 1504 1308 1279 1184 1627 1743 1911 1701 1287 991 1592 1297 1532 1789 1425 1614 1100 1623 1635 1401 1805 1321 1422 1836 1500 1220 1423 1740 1503 1315 1426 1522 1305 1698 1604 1821 1408 1411 1840 1419 1213 1405 1484 1295 1185 1290 1507 1279 1711 1535 1510 1426 1268 1366 1258 1378 1704 1517 1381 1500 1472 1800 1441 1614 1412 1262 1582 1367 1518 1573 1542 1369 1682 1558 1407 2118 1504 1420 1394 1631 1593 1510 1490 1505 1597 1397 1499 1607 1352 1329 1264 1392 1407 1366 1678 1626 1577 1364 1497 1305 1700 1379 1583 1405 1388 1296 1287 1535 1558 1497 1260 1375 1593 1491 1383 1392 1814 1589 1279 1515 1248 1615 1251 1388 1461 1477 1199 1272 1370 1282 1461 1299 1374 1371 1661 1289 1379 1601 1348 1360 1494 1483 1440 1290 1577 1512 1272 1253 1589 1379 1412 1433 1443 1467 1370 1164 1500 1551 1497 1400 1574 1545 1392 1446 1667 1294 1454 1371 1185 1374 1448 1379 1245 1360 1371 1377 1401 1170 1386 1377 1377 1494 1347 1572 1564 1467 1335 1696 1497 1673 1591 1671 1386 1597 1463 1491 1332 1356 1365 1464 1240 1674 1551 1463 1282 1242 1575 1267 1579 1293 1472 1381 1170 1281 1248 1672 1375 1445 1434 1486 1484 1573 1268 1381 1354 1359 1181 1464 1255 1295 1385 1483 1591 1580 1158 979 1568 1464 1459 1552 1268 1470 1287 1258 1470 1464 1184 1380 1484 1260 1359 1457 1427 1265 1274 1540 1282 1436 1356 1362 1360 1431 1460 1567 1441 1288 1270 1584 1277 1477 1704 1440 1363 1458 1278 1633 1340 1618 1348 1259 1472 1371 1315 1469 1229 1249 1452 1165 1563

Tree=0
num_leaves=9
num_cat=0
split_feature=19 3 79 75 91 74 72 2
split_gain=925.895 754.023 113.476 163.367 89.6288 91.6244 49.488 9.10662
threshold=0.48638290490404351 0.96426324433407407 1.4469293239683936 0.027399442312857018 -0.075323744608302087 7.4414743666215716e-06 0.12987274697279186 -0.26737159620994938
decision_type=2 2 2 2 2 2 2 2
left_child=1 2 3 -1 5 -3 -2 -8
right_child=6 4 -4 -5 -6 -7 7 -9
leaf_value=-1.8504578264792175 -1.8350239335717973 -1.6865186510068102 -1.6274068180356303 -1.6665129342615079 -1.8545565990050816 -1.8494553945414147 -1.6104541908170891 -1.646258188849931
leaf_weight=6.3561541140079525 0.83949205279350181 5.7635715901851636 30.807242631912231 10.927505999803541 35.13873878121376 5.1568797528743744 96.633297473192215 60.224737763404846
leaf_count=53 7 13 29 21 293 43 52 99
internal_value=-1.66861 -1.74427 -1.66246 -1.73225 -1.83117 -1.75967 -1.62422 -1.62299
internal_weight=251.848 94.1501 48.0909 17.2837 46.0592 10.9205 157.698 156.858
internal_count=610 452 103 74 349 56 158 151
is_linear=0
shrinkage=1


Tree=1
num_leaves=10
num_cat=0
split_feature=19 3 44 25 79 25 17 67 17
split_gain=639.834 607.702 91.6589 93.7383 76.0502 147.452 33.8505 12.2162 5.87193
threshold=0.48638290490404351 0.96426324433407407 0.91326547916200085 0.35423790080661638 1.4469293239683936 0.30944017978682964 0.026829792120398495 -0.17113237020270863 0.045395843250400199
decision_type=2 2 2 2 2 2 2 2 2
left_child=1 4 3 -3 5 -1 -2 -8 -9
right_child=6 2 -4 -5 -6 -7 7 8 -10
leaf_value=-0.02999254397764441 -0.01357846129552685 -0.028490421851502933 -0.033683509734317239 0.1382496653128103 0.1643558633163 0.1405021971636807 -0.0053710088875096569 0.14837330916571043 0.17682053321682123
leaf_weight=6.5821761265397098 0.76257495582103629 5.051551587879656 35.034591197967529 5.5874157249927521 35.251683473587036 11.815858140587805 0.27429059147834678 65.563981488347054 114.10877613723278
leaf_count=54 6 43 298 8 29 20 2 95 55
internal_value=0.132554 0.0703022 -0.0101872 0.0631754 0.137813 0.0809488 0.166178 0.167027 0.167335
internal_weight=280.033 99.3233 45.6736 10.639 53.6497 18.398 180.71 179.947 179.673
internal_count=610 452 349 51 103 74 158 152 150
is_linear=0
shrinkage=0.03


Tree=2
num_leaves=10
num_cat=0
split_feature=59 3 3 78 23 18 45 31 59
split_gain=470.452 338.81 171.697 80.9647 27.3739 29.8731 26.2748 16.1471 11.3259
threshold=0.034168031773422113 0.95485340012015618 1.0903483199492821 0.38962705330454855 0.43897004552459934 -0.031877818188436928 -0.06387821361059158 -0.016832947557953028 0.039425635375366773
decision_type=2 2 2 2 2 2 2 2 2
left_child=1 6 3 -3 5 -2 7 -1 -7
right_child=4 2 -4 -5 -6 8 -8 -9 -10
leaf_value=0.11044101607026842 0.13304004153516683 -0.033685772835000918 0.10989675226494627 0.10629903015813427 0.14887270193447458 0.03492489678383684 0.1425693258946569 0.037856784566273283 0.094706115678121039
leaf_weight=6.8057654798030836 25.405433222651482 37.35443103313446 10.645360961556433 3.1359031796455374 172.62148045003414 7.2845205962657911 27.061309665441513 6.9935677498579025 7.7181826680898666
leaf_count=13 32 322 24 5 107 35 20 35 17
internal_value=0.117929 0.0602368 0.00819844 -0.0204712 0.142431 0.11191 0.123538 0.0789014 0.0698633
internal_weight=305.026 91.9963 51.1357 40.4903 213.03 40.4081 40.8606 13.7993 15.0027
internal_count=610 419 351 327 191 84 68 48 52
is_linear=0
shrinkage=0.03


Tree=3
num_leaves=10
num_cat=0
split_feature=22 90 56 23 42 42 51 25 49
split_gain=378.613 210.795 267.209 146.036 49.67 75.9976 50.306 45.494 17.608
threshold=7.5000000000000009 -0.097290592492085104 0.43668716070741481 0.73561529332712527 0.26867621880952808 0.23411349729136857 5.1029509408718488 0.28457943481606351 -0.25647068771034653
decision_type=2 2 2 2 2 2 2 2 2
left_child=1 2 -1 -2 5 7 -7 8 -3
right_child=3 4 -4 -5 -6 6 -8 -9 -10
leaf_value=-0.033031151289059389 -0.033877961859324617 0.10674713073748839 0.11579823805286647 0.12022046922590546 0.13514176851562351 -0.029690920455521016 0.099656229056573439 0.12912644308985305 0.025560181903468458
leaf_weight=18.192508675158024 22.488721251487735 3.081952571868892 24.593141824007034 6.240553379058837 195.00445502251387 6.4001635015010816 3.3008256927132607 39.224162265658379 8.5573439076542872
leaf_count=152 178 1 32 2 104 55 3 36 47
internal_value=0.106633 0.116618 0.0531382 0.00241219 0.126985 0.0989031 0.0192399 0.113375 0.0540397
internal_weight=327.084 298.355 42.7857 28.7293 255.569 60.5644 9.70099 50.8635 11.6393
internal_count=610 430 184 180 246 142 58 84 48
is_linear=0
shrinkage=0.03


Tree=4
num_leaves=10
num_cat=0
split_feature=22 88 23 90 75 25 18 49 47
split_gain=312.207 224.06 132.738 68.1743 202.601 62.4537 18.998 24.4765 41.0237
threshold=7.5000000000000009 -0.29459381991765782 0.73561529332712527 -0.097290592492085104 0.027399442312857018 1.2495753215677479 0.024574494653077841 0.14407887929853316 -0.0028525805726712281
decision_type=2 2 2 2 2 2 2 2 2
left_child=1 5 -2 4 -3 -1 -5 8 -8
right_child=2 3 -4 6 -6 -7 7 -9 -10
leaf_value=-0.032590336844410941 -0.033667389293875721 -0.032061082237606044 0.1104890441229468 0.12077031905839107 0.11713274671056725 0.097814995472205693 0.10957659632205735 0.11817177438545 0.015674760752483061
leaf_weight=13.041915461421015 21.964675270020965 11.56174150854349 6.6675848960876456 235.73787123709917 24.204507857561111 3.3220596313476554 6.7095711231231716 13.413594543933867 10.24316192418337
leaf_count=106 178 96 2 143 18 1 2 8 56
internal_value=0.0974882 0.106 0.00239683 0.111842 0.0692627 -0.00183532 0.117273 0.0870457 0.0570399
internal_weight=346.867 318.234 28.6323 301.87 35.7662 16.364 266.104 30.3663 16.9527
internal_count=610 430 180 323 114 107 209 66 58
is_linear=0
shrinkage=0.03


Tree=5
num_leaves=9
num_cat=0
split_feature=69 22 19 59 36 1 6 37
split_gain=276.87 196.517 111.707 80.9095 132.179 139.067 5.77938 32.3614
threshold=1.6022875785827639 7.5000000000000009 0.98923816796001118 0.034168031773422113 -0.025707153110293684 0.3606369866180788 -0.05687800224898331 0.31633853741654766
decision_type=2 2 2 2 2 2 2 2
left_child=1 3 -3 4 6 -6 -1 -8
right_child=-2 2 -4 -5 5 -7 7 -9
leaf_value=0.11572155851082046 -0.032736857734274906 -0.033103519210566722 0.102371727291136 0.11023137455826626 -0.03263021865644207 0.097469423544401315 0.027381916779355642 0.10643057250843881
leaf_weight=27.846896961331367 15.349258892238138 16.151471905410293 7.0534076690673819 246.63116083294153 17.307363577187065 11.453726723790167 8.0920072197914141 14.519921846687792
leaf_count=11 129 131 2 125 150 12 38 12
internal_value=0.0899812 0.0954643 0.01048 0.101456 0.0730672 0.0206136 0.101925 0.0806267
internal_weight=364.405 349.056 23.2049 325.851 79.2199 28.7611 50.4588 22.6119
internal_count=610 481 133 348 223 162 61 50
is_linear=0
shrinkage=0.03


Tree=6
num_leaves=9
num_cat=0
split_feature=92 19 24 84 25 78 9 31
split_gain=234.593 111.966 197.092 71.9899 59.0962 53.2532 16.8165 26.6265
threshold=-0.29038132670563022 0.48638290490404351 0.89378957318422081 12.75315570831299 1.2495753215677479 0.31047432343200759 1.0978735074730586 -0.12539812248868842
decision_type=2 2 2 2 2 2 2 2
left_child=4 2 3 -2 -1 -4 7 -5
right_child=1 -3 5 6 -6 -7 -8 -9
leaf_value=-0.033111370203420025 -0.027769367043573995 0.10050544580088989 -0.032793448459403109 0.095894857289598789 0.085643140501634574 0.074449995501894795 0.10487346269573299 0.035766764839191507
leaf_weight=18.490407884120945 4.3595358952879897 253.70328098535538 20.184983447194103 15.503984183073044 3.6810185909271231 4.1969814226031295 45.110168233513832 14.574361324310303
leaf_count=157 37 132 179 9 1 6 27 62
internal_value=0.0837158 0.089573 0.0621536 0.0847891 -0.0104205 -0.0120091 0.0916336 0.0689448
internal_weight=379.805 357.633 103.93 79.548 22.1714 24.382 75.1885 30.0783
internal_count=610 452 320 135 158 185 98 71
is_linear=0
shrinkage=0.03


Tree=7
num_leaves=7
num_cat=0
split_feature=69 22 19 42 36 47
split_gain=219.178 150.332 95.6245 55.6753 120.36 124.642
threshold=1.6022875785827639 7.5000000000000009 0.98923816796001118 0.26867621880952808 -0.031875621687069554 -0.0029089971908574665
decision_type=2 2 2 2 2 2
left_child=1 3 -3 4 -1 -6
right_child=-2 2 -4 -5 5 -7
leaf_value=0.090334208183706202 -0.032542376118481431 -0.033033456559069585 0.089328690227213223 0.09485186343288389 0.086678665722280182 -0.032889523194223204
leaf_weight=58.423583298921585 14.884343579411505 15.858734652400019 7.7254858016967765 265.96919017285109 12.271449051797392 18.263606674969196
leaf_count=58 129 131 2 121 9 160
internal_value=0.0783803 0.0828243 0.00892987 0.0876871 0.0654163 0.0162924
internal_weight=393.396 378.512 23.5842 354.928 88.9586 30.5351
internal_count=610 481 133 348 227 169
is_linear=0
shrinkage=0.03


Tree=8
num_leaves=10
num_cat=0
split_feature=88 22 23 25 90 56 71 25 59
split_gain=179.266 135.111 89.0753 52.0768 36.2188 118.292 9.29618 39.3367 79.9593
threshold=-0.29459381991765782 7.5000000000000009 0.73561529332712527 1.2495753215677479 -0.097290592492085104 0.43668716070741481 50.631040473053083 0.36585036238079116 0.023438828984938129
decision_type=2 2 2 2 2 2 2 2 2
left_child=3 4 -3 -1 5 -2 -6 8 -8
right_child=1 2 -4 -5 6 -7 7 -9 -10
leaf_value=-0.032927058629664961 -0.031742179725657967 -0.032923164463257472 0.084277332771203028 0.076519687303489764 0.090307442553686765 0.082853361457043098 0.081829789015417626 0.087210144070298645 -0.031596200829298593
leaf_weight=17.487828165292743 10.295555450022219 15.620229788124563 7.9984271526336661 3.9683113098144522 243.65629925578833 30.253489457070827 12.747750177979471 54.544994920492172 8.667260140180586
leaf_count=153 89 131 2 1 100 25 11 27 71
internal_value=0.0737849 0.0784933 0.0084559 -0.0100452 0.0830418 0.0536212 0.086586 0.0735917 0.0364277
internal_weight=405.24 383.784 23.6187 21.4561 360.165 40.549 319.616 75.96 21.415
internal_count=610 456 133 154 323 114 209 109 82
is_linear=0
shrinkage=0.03


Tree=9
num_leaves=10
num_cat=0
split_feature=22 35 90 98 42 58 63 13 25
split_gain=157.089 90.8573 79.5679 191.253 15.5159 41.5325 36.4414 10.0752 36.6152
threshold=7.5000000000000009 0.48441255434074237 -0.097290592492085104 0.00015660093510554856 0.26867621880952808 1.3814046824433659 -0.023118066845396582 -0.055524559624587126 0.38419008319207265
decision_type=2 2 2 2 2 2 2 2 2
left_child=2 -2 3 -1 5 7 -7 -4 -9
right_child=1 -3 4 -5 -6 6 -8 8 -10
leaf_value=-0.033211890025127484 -0.033000818060957213 0.079863024927601403 0.086004173688611033 0.085417445824189586 0.08404254405161489 -0.031295807437982409 0.071665319990494497 0.011457654649512254 0.082541098585705491
leaf_weight=19.763827666640282 20.030082948505882 8.238733768463133 37.755824245512486 29.265248648822308 261.4087236225605 6.8326350003480911 4.1227765083312971 11.010245047509672 16.882847398519516
leaf_count=173 178 2 18 11 104 54 1 61 8
internal_value=0.0698294 0.00139477 0.0748035 0.0378295 0.0800304 0.0653938 0.00995338 0.0743124 0.0559538
internal_weight=415.311 28.2688 387.042 49.0291 338.013 76.6043 10.9554 65.6489 27.8931
internal_count=610 180 430 184 246 142 55 87 69
is_linear=0
shrinkage=0.03


Tree=10
num_leaves=9
num_cat=0
split_feature=92 23 82 25 32 91 10 67
split_gain=151.141 59.2536 195.92 46.8804 42.4755 66.5281 6.08075 14.7244
threshold=-0.29038132670563022 0.43897004552459934 48.447618525021959 1.2495753215677479 2.9890728177295345 -0.083789287315933367 0.049939818224454507 -0.091524320057859307
decision_type=2 2 2 2 2 2 2 2
left_child=3 2 -2 -1 6 -6 -4 -8
right_child=1 -3 4 -5 5 -7 7 -9
leaf_value=-0.032746672105685097 -0.033374619265772662 0.079514184639825916 0.079766719056833954 0.069416170114307202 0.079706782750002023 -0.031711366521365782 0.079936246125211247 0.031915474319995148
leaf_weight=17.329982541501526 19.195011556148529 254.67508694529533 84.006032139062881 4.1933598518371573 8.278785392642023 9.1674113571643812 12.588292598724367 14.41996371001005
leaf_count=157 167 96 58 1 3 80 3 45
internal_value=0.0663715 0.0705078 0.054523 -0.010511 0.0678365 0.0224523 0.0746778 0.0564595
internal_weight=423.854 402.331 147.655 21.5233 128.46 17.4462 111.014 27.0083
internal_count=610 452 356 158 189 83 106 48
is_linear=0
shrinkage=0.03


Tree=11
num_leaves=10
num_cat=0
split_feature=22 36 90 57 42 10 72 13 3
split_gain=130.008 80.6337 62.0112 148.924 12.3487 37.3492 52.9874 1.86598 14.6079
threshold=7.5000000000000009 0.28211135147060523 -0.097290592492085104 0.30370451323011421 0.26867621880952808 0.049939818224454507 0.078672489074151822 -0.05134614627327088 1.0951255171255994
decision_type=2 2 2 2 2 2 2 2 2
left_child=2 -2 3 -1 5 7 -7 -4 -9
right_child=1 -3 4 -5 -6 6 -8 8 -10
leaf_value=-0.033130811986536002 -0.032874961433997436 0.072368103350004973 0.078173052072815177 0.073084284165400457 0.075588453879277193 0.066261142992717958 -0.0322230382364284 0.032639880042200184 0.080696527759285916
leaf_weight=17.811748944222927 19.460623852908615 8.6376190185546857 35.01384299993515 31.905075281858444 273.66477066278458 9.1809368580579775 8.6031929329037649 14.414517872035505 12.519909381866453
leaf_count=160 178 2 15 24 104 5 68 51 3
internal_value=0.0632826 0.000749667 0.0676212 0.0350691 0.0720804 0.0592155 0.0192799 0.0701441 0.0571745
internal_weight=431.212 28.0982 403.114 49.7168 353.397 79.7324 17.7841 61.9483 26.9344
internal_count=610 180 430 184 246 142 73 69 54
is_linear=0
shrinkage=0.03


Tree=12
num_leaves=9
num_cat=0
split_feature=88 55 82 25 25 6 88 66
split_gain=123.324 45.3578 173.952 42.2228 17.2872 57.0302 70.6444 0.720826
threshold=-0.29459381991765782 0.027931106365554407 48.447618525021959 1.2495753215677479 0.39748167541544577 -0.044907987540385268 -0.28476269233766782 2.2833019361843148
decision_type=2 2 2 2 2 2 2 2
left_child=3 2 -2 -1 5 7 -7 -4
right_child=1 -3 4 -5 -6 6 -8 -9
leaf_value=-0.032578303042041803 -0.033291124399451505 0.072018753384688078 0.074814696514466705 0.063739570356537337 0.075717115635709195 0.071635109190941751 -0.032876619066731887 0.055585597977519829
leaf_weight=16.412269636988643 18.899610236287117 260.02322778105736 31.139215633273125 4.3636755943298331 57.817965090274811 8.8196321204304695 13.314805507659912 26.462329134345055
leaf_count=153 169 96 14 1 22 6 114 35
internal_value=0.0605451 0.064098 0.0505409 -0.0102124 0.0622381 0.0516102 0.00993359 0.0671313
internal_weight=437.253 416.477 156.454 20.7759 137.554 79.736 22.1344 57.6015
internal_count=610 456 360 154 191 169 120 49
is_linear=0
shrinkage=0.03


Tree=13
num_leaves=8
num_cat=0
split_feature=92 22 23 18 19 3 44
split_gain=116.28 75.9855 64.3599 40.459 20.333 96.4365 60.2473
threshold=-0.29038132670563022 7.5000000000000009 0.73561529332712527 -0.19996795771478265 0.48638290490404351 0.96517975331594308 0.91371385099862967
decision_type=2 2 2 2 2 2 2
left_child=3 4 -3 -1 5 -2 -7
right_child=1 2 -4 -5 -6 6 -8
leaf_value=0.061447863834982831 0.0683037031450449 -0.032395402404124779 0.066443361106331644 -0.032406256404487528 0.068967261061342267 0.056167315968768387 -0.032326767088698964
leaf_weight=4.4269185066223171 80.065375499427319 13.736745662987234 8.9241356849670392 16.437411397695541 291.51994280517101 10.439662218093874 16.532963976264
leaf_count=1 48 124 2 157 105 19 154
internal_value=0.0580941 0.0615134 0.00756481 -0.0104558 0.0645466 0.0519522 0.0026008
internal_weight=442.083 421.219 22.6609 20.8643 398.558 107.038 26.9726
internal_count=610 452 126 158 326 221 173
is_linear=0
shrinkage=0.03


Tree=14
num_leaves=8
num_cat=0
split_feature=88 22 35 25 49 19 48
split_gain=103.312 75.9107 62.4011 38.4142 18.4043 65.1327 69.9255
threshold=-0.29459381991765782 7.5000000000000009 0.48441255434074237 1.2495753215677479 -0.01419624830142424 0.48748787861854892 0.62014610917683333
decision_type=2 2 2 2 2 2 2
left_child=3 4 -3 -1 -2 6 -6
right_child=1 2 -4 -5 5 -7 -8
leaf_value=-0.032249060615217005 0.066635812493430799 -0.032361323913955631 0.063965351214941221 0.059348663772154531 -0.032307909901955797 0.063672116523266473 0.055528017029202612
leaf_weight=15.677842415869238 280.47276291996241 14.265385724604132 9.0288219451904279 4.480515480041503 15.080482520163061 91.242400273680687 15.597580224275587
leaf_count=153 115 131 2 1 142 45 21
internal_value=0.0558793 0.0590175 0.00594747 -0.00990547 0.0620599 0.0510523 0.0125987
internal_weight=445.846 425.687 23.2942 20.1584 402.393 121.92 30.6781
internal_count=610 456 133 154 323 208 163
is_linear=0
shrinkage=0.03


Tree=15
num_leaves=11
num_cat=0
split_feature=92 22 23 25 90 75 58 1 7 26
split_gain=98.1389 62.7246 57.464 36.8941 18.4198 78.588 4.33518 15.1186 44.3295 0.576985
threshold=-0.29038132670563022 7.5000000000000009 0.73561529332712527 1.2495753215677479 -0.097290592492085104 0.027399442312857018 1.6394085623204024 0.50958189424734324 -0.12758835519135672 0.22084446891282009
decision_type=2 2 2 2 2 2 2 2 2 2
left_child=3 4 -3 -1 5 -2 9 8 -8 -6
right_child=1 2 -4 -5 6 -7 7 -9 -10 -11
leaf_value=-0.032070408452865767 -0.031812910635428703 -0.031999519264623431 0.061716176393615471 0.057419071436653236 0.050620800677412127 0.060775374948001608 0.063697572192882149 0.062319465570594562 -0.032544447302388514 0.064515278108835741
leaf_weight=15.694552309811117 10.056958012282847 13.104381971061231 9.1122331619262678 4.5250487327575675 26.918548189103603 33.957947835326195 9.0396337509155256 27.997717037796974 6.6686982437968245 291.62234782427549
leaf_count=157 93 124 2 1 34 22 2 8 51 116
internal_value=0.0538636 0.0569074 0.00731179 -0.0101396 0.0595876 0.0393165 0.0619273 0.0491443 0.0231577 0.0635126
internal_weight=448.698 428.478 22.2166 20.2196 406.262 44.0149 362.247 43.706 15.7083 318.541
internal_count=610 452 126 158 326 115 211 61 53 150
is_linear=0
shrinkage=0.03


Tree=16
num_leaves=9
num_cat=0
split_feature=22 35 19 16 91 79 25 27
split_gain=84.6326 61.7128 35.033 74.4572 74.6244 11.3103 16.7364 24.9809
threshold=7.5000000000000009 0.48441255434074237 0.48638290490404351 -0.038483550562155626 -0.075323744608302087 1.4469293239683936 0.40520008556379233 0.065522715510059074
decision_type=2 2 2 2 2 2 2 2
left_child=2 -2 3 5 -5 6 7 -1
right_child=1 -3 -4 4 -6 -7 -8 -9
leaf_value=-0.030830897308298692 -0.03223152946357865 0.059665858577736292 0.060792937702263787 0.051265353007154298 -0.03271545109204544 0.063161702129243102 0.061536661844660639 0.052879589877175025
leaf_weight=6.1513797491788882 17.593184202909473 9.1759305000305158 305.88321471959352 16.172715738415718 20.372536860406399 61.307416915893555 9.1891738623380643 4.8220236450433731
leaf_count=49 178 2 122 27 202 23 3 4
internal_value=0.052032 0.000175334 0.0552916 0.0406165 0.00474502 0.0564185 0.0337573 0.00704752
internal_weight=450.668 26.7691 423.898 118.015 36.5453 81.47 20.1626 10.9734
internal_count=610 180 430 308 229 79 56 53
is_linear=0
shrinkage=0.03


Tree=17
num_leaves=10
num_cat=0
split_feature=88 25 2 41 19 50 72 72 37
split_gain=83.4464 33.7511 31.9717 64.6119 147.196 6.7395 11.6057 20.4601 0.327223
threshold=-0.29459381991765782 1.2495753215677479 -0.24904297714365201 1.3784328358208957 0.69468552371236791 0.94841859367252923 0.20655195617709285 0.1906179449244203 0.29574059995507401
decision_type=2 2 2 2 2 2 2 2 2
left_child=1 -1 -2 5 -5 6 7 -4 -7
right_child=2 -3 3 4 -6 8 -8 -9 -10
leaf_value=-0.031944420689286636 0.061018542911705519 0.053844856222708203 -0.030323373558404934 -0.034848525267850552 0.055211165173238048 0.047598471568208976 0.057530995297717935 0.048916300448099345 0.061248420185448453
leaf_weight=14.833567820489408 229.50802718102932 4.5914173126220694 4.8528378531336802 26.49918807297945 39.407747507095337 27.409551188349724 9.2265396118164045 4.901410385966301 90.551568508148193
leaf_count=153 67 1 40 241 20 36 2 3 47
internal_value=0.0503584 -0.00987639 0.0530881 0.0438454 0.0189764 0.0555682 0.0350107 0.0100609 0.0585287
internal_weight=451.782 19.425 432.357 202.849 65.9069 136.942 18.9808 9.75425 117.961
internal_count=610 154 456 389 261 128 45 43 83
is_linear=0
shrinkage=0.03


Tree=18
num_leaves=10
num_cat=0
split_feature=92 22 35 18 90 57 71 25 59
split_gain=79.6533 49.8832 49.3957 32.4633 14.5166 79.6005 5.05496 19.7321 45.8618
threshold=-0.29038132670563022 7.5000000000000009 0.48441255434074237 -0.19996795771478265 -0.097290592492085104 0.30370451323011421 50.631040473053083 0.36585036238079116 0.023438828984938129
decision_type=2 2 2 2 2 2 2 2 2
left_child=3 4 -3 -1 5 -2 -6 8 -8
right_child=1 2 -4 -5 6 -7 7 -9 -10
leaf_value=0.052328373847176278 -0.032734736569190979 -0.031571846451427722 0.055972050888876114 -0.031725946754063837 0.058320369229711774 0.058312910857278633 0.052144887830233598 0.056157503007092081 -0.031921250246695412
leaf_weight=4.6113972663879421 10.777769967913626 12.363542288541796 9.2511477470397931 14.799674317240713 280.56859861314297 33.305426031351089 15.186613678932192 62.973230600357056 8.2591494396328908
leaf_count=1 101 124 2 157 102 14 12 26 71
internal_value=0.0488293 0.0514936 0.00658271 -0.0100252 0.0538261 0.0357541 0.0558857 0.0473703 0.0223141
internal_weight=452.097 432.685 21.6147 19.4111 411.071 44.0832 366.988 86.419 23.4458
internal_count=610 452 126 158 326 115 211 109 83
is_linear=0
shrinkage=0.03


Tree=19
num_leaves=8
num_cat=0
split_feature=88 22 23 20 23 31 13
split_gain=72.4255 51.179 48.4288 31.04 14.5322 31.7401 91.4101
threshold=-0.29459381991765782 7.5000000000000009 0.73561529332712527 -0.49803627782189835 0.43897004552459934 -0.018685074274954857 -0.18374533797979317
decision_type=2 2 2 2 2 2 2
left_child=3 4 -3 -1 5 -2 -7
right_child=1 2 -4 -5 -6 6 -8
leaf_value=0.050917417430528786 0.053234987141941803 -0.031574768339484922 0.054390593660516483 -0.031644094698511302 0.056843475981368463 0.053157086021068035 -0.033396929246923071
leaf_weight=4.6244997978210476 100.84894970804453 12.862649016082289 9.2633795738220197 14.169865719974039 264.09681260585785 29.509766399860382 16.272699296474457
leaf_count=1 79 131 2 153 77 15 152
internal_value=0.0474226 0.0499233 0.00508178 -0.00963161 0.0523134 0.0438042 0.0222723
internal_weight=451.649 432.854 22.126 18.7944 410.728 146.631 45.7825
internal_count=610 456 133 154 323 246 167
is_linear=0
shrinkage=0.03


Tree=20
num_leaves=9
num_cat=0
split_feature=22 23 90 98 23 84 10 21
split_gain=63.6402 51.0709 30.8896 98.6742 7.53276 22.0786 11.143 27.6292
threshold=7.5000000000000009 0.73561529332712527 -0.097290592492085104 0.00015660093510554856 0.43897004552459934 7.7956547737121591 0.049939818224454507 -0.96193389386156214
decision_type=2 2 2 2 2 2 2 2
left_child=2 -2 3 -1 5 -4 -7 -8
right_child=1 -3 4 -5 -6 6 7 -9
leaf_value=-0.03251160115073598 -0.031686664201522455 0.052928159071591666 -0.026254215731204171 0.055100192631629949 0.055435974535910038 0.052166598043242904 0.05173830575719543 -0.0033704694037142748
leaf_weight=16.624004125595093 16.148308999836448 9.261377811431883 3.1830510944128028 33.236116379499435 244.19290056824684 95.256727576255798 19.438257575035095 13.304352529346941
leaf_count=173 178 2 27 11 69 73 8 69
internal_value=0.0461125 0 0.048862 0.0257654 0.0518453 0.0447699 0.0467492 0.0298207
internal_weight=450.645 25.4097 425.235 49.8601 375.375 131.182 127.999 32.7426
internal_count=610 180 430 184 246 177 150 77
is_linear=0
shrinkage=0.03


Tree=21
num_leaves=10
num_cat=0
split_feature=92 22 23 18 23 24 25 7 49
split_gain=66.1667 39.6535 42.6895 28.7702 13.4752 36.6714 35.9819 9.48628 25.5816
threshold=-0.29038132670563022 7.5000000000000009 0.73561529332712527 -0.19996795771478265 0.44330549531948021 0.97689034036886435 0.40520008556379233 1.0000000180025095e-35 -0.025793416937251675
decision_type=2 2 2 2 2 2 2 2 2
left_child=3 4 -3 -1 5 7 -7 8 -2
right_child=1 2 -4 -5 -6 6 -8 -9 -10
leaf_value=0.048229166811311869 0.04852109686406797 -0.031027051145988731 0.051571842110345538 -0.031392447075294927 0.053808493145186771 -0.032408978644101097 0.041844325821561119 0.053390405955812875 -0.0017085232393193052
leaf_weight=4.6316881179809597 30.345928177237511 11.504229456186296 9.2462983131408674 13.942640408873556 258.01323300600052 10.784391000866892 10.705136053264139 87.373283430933952 12.619180046021937
leaf_count=1 20 124 2 157 75 108 12 46 65
internal_value=0.0448877 0.0472771 0.00631944 -0.00993518 0.0493231 0.0413788 0.00466321 0.0473278 0.0339967
internal_weight=449.166 430.592 20.7505 18.5743 409.841 151.828 21.4895 130.338 42.9651
internal_count=610 452 126 158 326 251 120 131 85
is_linear=0
shrinkage=0.03


Tree=22
num_leaves=9
num_cat=0
split_feature=92 20 2 90 94 36 77 1
split_gain=61.9431 27.6397 24.4625 42.4285 45.4149 19.8609 57.7221 30.1775
threshold=-0.29038132670563022 -0.49803627782189835 -0.24904297714365201 -0.097290592492085104 4.7697255611419687 -0.016816975781868689 0.42849704699049224 0.71647860906364891
decision_type=2 2 2 2 2 2 2 2
left_child=1 -1 -2 4 -4 -5 7 -7
right_child=2 -3 3 5 -6 6 -8 -9
leaf_value=0.047084639157302696 0.053011898536448672 -0.031229330172084437 0.04812007797454481 0.051203241090989754 -0.03291325806424452 -0.033870568050552226 0.046481450904011623 0.047021044679482489
leaf_weight=4.6263232231140163 227.82818096131086 13.605325505137442 9.5345126464962977 107.62733681499958 14.213695637881754 15.038100659847261 50.037559576332569 4.6258578300476065
leaf_count=1 67 157 5 62 152 134 31 1
internal_value=0.0437529 -0.00978601 0.0460532 0.0379305 0.000128869 0.042947 0.029612 -0.0133414
internal_weight=447.137 18.2316 428.905 201.077 23.7482 177.329 69.7015 19.664
internal_count=610 158 452 385 157 228 166 135
is_linear=0
shrinkage=0.03


Tree=23
num_leaves=10
num_cat=0
split_feature=92 22 0 18 23 24 75 7 36
split_gain=58.1135 35.8185 39.3996 26.5687 12.477 32.4651 33.3568 8.48733 17.2722
threshold=-0.29038132670563022 7.5000000000000009 0.73136147574863941 -0.19996795771478265 0.44330549531948021 0.97689034036886435 0.027399442312857018 1.0000000180025095e-35 -0.07318813153789426
decision_type=2 2 2 2 2 2 2 2 2
left_child=3 4 -3 -1 5 7 -7 8 -2
right_child=1 2 -4 -5 -6 6 -8 -9 -10
leaf_value=0.046009458599247974 0.048235003312628387 0.049072800474344203 -0.030889674551624825 -0.031068802929890657 0.051202611282356786 -0.032213065848342916 0.039965244501122786 0.050530183715768846 0.0091929569462491419
leaf_weight=4.6159167289733913 24.38943625241518 9.1788153648376483 11.182262830436228 13.275507487356661 255.42275865375996 10.4171449393034 10.629192329943178 87.058449305593967 18.358853973448277
leaf_count=1 12 2 124 157 75 108 12 46 73
internal_value=0.0427039 0.0449235 0.00562691 -0.00964129 0.0468668 0.039217 0.00426294 0.0447854 0.0321298
internal_weight=444.528 426.637 20.3611 17.8914 406.276 150.853 21.0463 129.807 42.7483
internal_count=610 452 126 158 326 251 120 131 85
is_linear=0
shrinkage=0.03


Tree=24
num_leaves=10
num_cat=0
split_feature=92 20 2 93 15 58 16 59 31
split_gain=54.5797 25.5527 22.5128 41.2619 53.1901 22.6942 37.0073 6.12193 4.13389
threshold=-0.29038132670563022 -0.49803627782189835 -0.24904297714365201 -1.0000000180025095e-35 0.11377201837020971 1.4796500771604941 -0.10103974902439893 0.021742475421349858 -0.014019995818507503
decision_type=2 2 2 2 2 2 2 2 2
left_child=1 -1 -2 4 -4 7 -7 -5 -9
right_child=2 -3 3 5 -6 6 -8 8 -10
leaf_value=0.044997352171868635 0.050571977320256256 -0.030910703168962189 -0.036553559293067375 0.016091820176120399 0.041439272265192902 0.048436218921270272 -0.032817591236008692 0.05063540519739726 0.036090060050381331
leaf_weight=4.6008591651916531 225.00492150336504 12.953095644712446 14.499953851103784 7.7371836826205245 14.980713590979574 9.388902425765993 8.8231666907668096 104.14122194796801 39.516947910189629
leaf_count=1 67 157 132 30 13 4 88 47 71
internal_value=0.0417092 -0.00950073 0.0438533 0.0360301 0.00303965 0.0416954 0.00925598 0.0454917 0.0469322
internal_weight=441.647 17.554 424.093 199.088 29.4807 169.607 18.2121 151.395 143.658
internal_count=610 158 452 385 145 240 92 148 118
is_linear=0
shrinkage=0.03


Tree=25
num_leaves=9
num_cat=0
split_feature=92 25 55 82 32 0 3 37
split_gain=51.3058 24.5877 22.0125 90.1255 19.7751 34.917 4.02191 24.1849
threshold=-0.29038132670563022 1.2495753215677479 0.027931106365554407 48.447618525021959 2.9890728177295345 0.84437878833837443 0.95240915399168713 0.39090903410244965
decision_type=2 2 2 2 2 2 2 2
left_child=1 -1 3 -2 6 -6 -5 -8
right_child=2 -3 -4 4 5 -7 7 -9
leaf_value=-0.030754877859061471 -0.033019521066706192 0.044042772437601956 0.048308490870119174 0.049513411402887501 0.047424772163082905 -0.033143707096817229 -0.00010139082420102122 0.049918909025936979
leaf_weight=12.637994498014452 15.718143463134764 4.5815196037292472 263.16345488280058 84.788361959159374 9.3853813409805316 8.0900629460811597 12.269909374415873 27.896477892994881
leaf_count=157 167 1 93 34 4 81 64 9
internal_value=0.0407611 -0.00936409 0.0428342 0.0334595 0.0409959 0.010189 0.0451655 0.0349347
internal_weight=438.531 17.2195 421.312 158.148 142.43 17.4754 124.955 40.1664
internal_count=610 158 452 359 192 85 107 73
is_linear=0
shrinkage=0.03


Tree=26
num_leaves=9
num_cat=0
split_feature=22 23 90 98 23 84 31 47
split_gain=46.1873 40.1283 22.4344 76.2559 6.60449 17.4145 9.72499 25.4958
threshold=7.5000000000000009 0.73561529332712527 -0.097290592492085104 0.00015660093510554856 0.43897004552459934 7.7956547737121591 -0.037647224852486526 -0.0042030765917509157
decision_type=2 2 2 2 2 2 2 2
left_child=2 -2 3 -1 5 -4 -7 -8
right_child=1 -3 4 -5 -6 6 7 -9
leaf_value=-0.032214516430936299 -0.031166686215756648 0.045909067042871565 -0.025697693435445243 0.047509593944812259 0.048165176182597039 0.045721024914296603 0.044216794052272294 -0.0058135348085995931
leaf_weight=15.071604922413824 14.499358240514995 9.0006904602050763 3.03749956190586 32.415016047656536 235.31678195297718 87.542061984539032 23.855769693851471 14.036026261746882
leaf_count=173 178 2 27 11 69 53 12 85
internal_value=0.0398926 -0.000854744 0.0422246 0.0220018 0.0447886 0.0382564 0.0400198 0.0259343
internal_weight=434.775 23.5 411.275 47.4866 363.788 128.471 125.434 37.8918
internal_count=610 180 430 184 246 177 150 97
is_linear=0
shrinkage=0.03


Tree=27
num_leaves=10
num_cat=0
split_feature=92 22 0 18 23 24 25 6 25
split_gain=46.4946 29.5341 33.8082 22.8643 11.1572 27.1163 28.7611 8.65048 46.2696
threshold=-0.29038132670563022 7.5000000000000009 0.73136147574863941 -0.19996795771478265 0.44330549531948021 0.97689034036886435 0.40520008556379233 -0.049708426637172225 0.35423790080661638
decision_type=2 2 2 2 2 2 2 2 2
left_child=3 4 -3 -1 5 7 -7 -2 -9
right_child=1 2 -4 -5 -6 6 -8 8 -10
leaf_value=0.042189306792542354 0.047083313371546899 0.045007442852816874 -0.030546662055136585 -0.030574013476182518 0.046984271721385702 -0.032056576920813061 0.036131761392917412 -0.034004535772226181 0.042216798545929538
leaf_weight=4.5279841423034695 79.215435467660427 8.9267120361328143 10.505911298096178 12.153817467391489 247.1375018954277 9.8222902342677134 10.456349641084669 7.8478970602154723 40.163121074438095
leaf_count=1 33 2 124 157 75 108 12 57 41
internal_value=0.0390698 0.041047 0.00451771 -0.00938497 0.0428222 0.0355592 0.0030083 0.0406602 0.0292568
internal_weight=430.757 414.075 19.4326 16.6818 394.643 147.505 20.2786 127.226 48.011
internal_count=610 452 126 158 326 251 120 131 98
is_linear=0
shrinkage=0.03


Tree=28
num_leaves=10
num_cat=0
split_feature=92 22 0 18 49 19 36 15 91
split_gain=43.9269 27.7847 32.4277 22.0312 10.9329 33.2802 35.2915 0.750124 0.651188
threshold=-0.29038132670563022 7.5000000000000009 0.73136147574863941 -0.19996795771478265 -0.01419624830142424 0.48748787861854892 -0.042869415877017807 0.10569611983675174 0.089301291096214555
decision_type=2 2 2 2 2 2 2 2 2
left_child=3 4 -3 -1 8 6 -6 -7 -2
right_child=1 2 -4 -5 5 7 -8 -9 -10
leaf_value=0.041384615851665654 0.046915265785998576 0.044157427162510622 -0.030377364946705725 -0.030422036689239484 0.032970550711756676 0.035391203187784805 -0.031388239582886175 0.046500833105793775 0.038714785876057686
leaf_weight=4.4974479675292995 218.86398427933455 8.8460545539855975 10.256868459284304 11.857572618871925 16.872898355126384 35.756720587611198 12.428180608898399 53.916514232754707 53.065422646701336
leaf_count=1 78 2 124 157 28 28 138 16 38
internal_value=0.0383015 0.0402238 0.00446813 -0.00925633 0.0419476 0.0335515 0.0054385 0.0425432 0.0454737
internal_weight=426.362 410.007 19.1029 16.355 390.904 118.974 29.3011 89.6732 271.929
internal_count=610 452 126 158 326 210 166 44 116
is_linear=0
shrinkage=0.03


Tree=29
num_leaves=10
num_cat=0
split_feature=92 22 23 18 23 31 13 49 25
split_gain=41.5171 26.1438 31.1213 21.2365 10.7992 18.4187 60.3797 1.24704 1.28263
threshold=-0.29038132670563022 7.5000000000000009 0.73561529332712527 -0.19996795771478265 0.44330549531948021 -0.018685074274954857 -0.14765140989629669 -0.01419624830142424 0.36585036238079116
decision_type=2 2 2 2 2 2 2 2 2
left_child=3 4 -3 -1 5 7 -7 -2 -9
right_child=1 2 -4 -5 -6 6 -8 8 -10
leaf_value=0.040620181967904949 0.045934772110696173 -0.030210273678395627 0.043354589281343121 -0.030271861988869424 0.045235564797134434 0.039370174395117939 -0.032764096402344012 0.022810978761705424 0.039027044028172739
leaf_weight=4.463945388793948 54.806117825210094 10.013404287397863 8.7593927383422834 11.568240582942961 241.85171641409397 33.98636182397604 13.971002347767351 13.131392620503901 29.402739904820919
leaf_count=1 23 124 2 157 75 24 149 28 27
internal_value=0.0375588 0.0394281 0.00442004 -0.00913081 0.0411021 0.0339392 0.0180546 0.0414715 0.0347286
internal_weight=421.954 405.922 18.7728 16.0322 387.149 145.298 47.9574 97.3403 42.5341
internal_count=610 452 126 158 326 251 173 78 55
is_linear=0
shrinkage=0.03


Tree=30
num_leaves=10
num_cat=0
split_feature=88 22 23 31 23 24 85 7 7
split_gain=39.6112 27.3926 30.8069 20.6394 10.0672 22.4008 24.9402 6.48657 18.4958
threshold=-0.29459381991765782 7.5000000000000009 0.73561529332712527 -0.48293753681998491 0.43897004552459934 0.97689034036886435 0.31549471272711177 1.0000000180025095e-35 -0.048995601040067012
decision_type=2 2 2 2 2 2 2 2 2
left_child=3 4 -3 -1 5 7 -7 8 -2
right_child=1 2 -4 -5 -6 6 -8 -9 -10
leaf_value=0.03989284497853212 0.039054981391736736 -0.030220173871610738 0.042594969260505045 -0.030415557436927716 0.044360316214462833 -0.032437418301572069 0.032730694473187681 0.043443676110972024 -0.0051499240365043249
leaf_weight=4.4277501106262198 29.673053421080112 10.383111581206323 8.6673574447631818 11.271546445786951 243.48239925503731 8.7341383099555987 10.554320164024828 78.662669695913792 11.341084398329256
leaf_count=1 24 131 2 153 77 98 19 44 61
internal_value=0.0368654 0.0386927 0.00323091 -0.00920503 0.0404383 0.0332772 0.00292928 0.0380787 0.0269286
internal_weight=417.197 401.498 19.0505 15.6993 382.448 138.965 19.2885 119.677 41.0141
internal_count=610 456 133 154 323 246 117 129 85
is_linear=0
shrinkage=0.03


Tree=31
num_leaves=12
num_cat=0
split_feature=88 22 23 36 49 19 30 29 32 32 15
split_gain=37.5116 25.8345 29.6012 19.9076 10.2673 28.06 32.6978 1.33451 3.18469 2.21018 1.19158
threshold=-0.29459381991765782 7.5000000000000009 0.73561529332712527 -0.40715278198043647 -0.01419624830142424 0.48748787861854892 23.887056350708011 0.18333333333333338 2.7537946630483949 2.9890728177295345 0.10569611983675174
decision_type=2 2 2 2 2 2 2 2 2 2 2
left_child=3 4 -3 -1 7 6 -6 8 -2 -10 -7
right_child=1 2 -4 -5 5 10 -8 -9 9 -11 -12
leaf_value=0.039199758870289786 0.043742459349942857 -0.030059230457199524 0.041875026325469647 -0.030261558415169483 0.031198392397396763 0.03242786763557063 -0.032129413195982157 0.044867582501830053 0.034865955536822507 0.015157174078168795 0.043987943408161111
leaf_weight=4.3891186714172354 30.978814721107483 10.134655930101873 8.5705351829528791 10.998261149972675 16.767667762935165 35.116362780332565 11.497148271650074 204.51107969880104 14.554128598421814 12.698369935154913 52.162009239196777
leaf_count=1 10 131 2 153 35 29 128 62 15 28 16
internal_value=0.0361926 0.0379735 0.00320054 -0.00908223 0.039672 0.0314515 0.00511866 0.0431427 0.0363789 0.0266503 0.0397908
internal_weight=412.378 396.991 18.7052 15.3874 378.286 115.543 28.2648 262.742 58.2313 27.2525 87.2784
internal_count=610 456 133 154 323 208 163 115 53 43 45
is_linear=0
shrinkage=0.03


Tree=32
num_leaves=10
num_cat=0
split_feature=88 22 23 18 2 90 94 68 6
split_gain=35.5692 24.4035 28.4558 19.2078 10.1614 22.827 29.263 8.05836 5.67589
threshold=-0.29459381991765782 7.5000000000000009 0.73561529332712527 -0.19996795771478265 -0.24904297714365201 -0.097290592492085104 4.7697255611419687 0.31779698580024257 -0.01388141526517561
decision_type=2 2 2 2 2 2 2 2 2
left_child=3 4 -3 -1 -2 6 -6 -7 -9
right_child=1 2 -4 -5 5 7 -8 8 -10
leaf_value=0.03853834420111444 0.043950729915431981 -0.029900134980358258 0.041191581880267031 -0.030109185112067973 0.038464196361127911 -0.02437998941849245 -0.033574446426909876 0.042220895592088387 0.028808026147204634
leaf_weight=4.3482918739318839 196.79898555576801 9.8919162452220935 8.4694728851318342 10.731398873031138 8.834561765193941 1.2224633395671833 9.4811526127159578 98.826049603521824 58.762899745255709
leaf_count=1 56 131 2 153 5 6 102 49 105
internal_value=0.0355618 0.0372994 0.00317089 -0.00896215 0.0389543 0.0331706 0.00121039 0.0368072 0.0374515
internal_weight=407.367 392.288 18.3614 15.0797 373.926 177.127 18.3157 158.811 157.589
internal_count=610 456 133 154 323 267 107 160 154
is_linear=0
shrinkage=0.03


Tree=33
num_leaves=9
num_cat=0
split_feature=88 18 2 41 25 37 13 81
split_gain=33.7235 18.5382 18.5131 35.5465 72.4981 3.77309 13.2843 25.8835
threshold=-0.29459381991765782 -0.19996795771478265 -0.24904297714365201 1.3784328358208957 0.50534206772721435 0.29574059995507401 -0.070734310206553505 1.6764813143449853
decision_type=2 2 2 2 2 2 2 2
left_child=1 -1 -2 5 -5 6 -4 -8
right_child=2 -3 3 4 -6 -7 7 -9
leaf_value=0.037906261773765389 0.043050746859803646 -0.02995832171262584 0.041617123210753677 -0.035256143664306294 0.034022028335847734 0.042328783524600268 -0.03426124935834364 0.038475581001014877
leaf_weight=4.3054962158203116 203.17571507394314 10.470852706581352 26.826419744640589 20.125355578958988 37.190614257007837 84.386845383793116 6.8985865674912921 8.9517359435558301
leaf_count=1 67 153 14 229 32 51 58 5
internal_value=0.0349404 -0.00884463 0.036636 0.029357 0.00945751 0.0381659 0.029085 0.00648554
internal_weight=402.332 14.7763 387.555 184.38 57.316 127.064 42.6767 15.8503
internal_count=610 154 456 389 261 128 77 63
is_linear=0
shrinkage=0.03


Tree=34
num_leaves=10
num_cat=0
split_feature=92 22 23 18 23 24 75 6 79
split_gain=32.0995 20.0101 25.6448 17.8253 10.2661 21.6353 23.7625 7.68327 21.5294
threshold=-0.29038132670563022 7.5000000000000009 0.73561529332712527 -0.19996795771478265 0.44330549531948021 0.97689034036886435 0.027399442312857018 -0.049708426637172225 0.51778493894165545
decision_type=2 2 2 2 2 2 2 2 2
left_child=3 4 -3 -1 5 7 -7 -2 -9
right_child=1 2 -4 -5 -6 6 -8 8 -10
leaf_value=0.03730138299671585 0.041401056627322463 -0.029484203093455053 0.039885353053636795 -0.029613055225835874 0.041684182791386706 -0.032214037292348487 0.031554897622794953 0.040969227564642177 -0.00041601084440063749
leaf_weight=4.2609434127807608 73.907283410429955 8.954448554664852 8.2497892379760724 10.280127823352812 226.36725033819675 9.189496975392105 9.8654583692550641 27.08548990637064 18.672378730028868
leaf_count=1 33 124 2 157 75 108 12 15 83
internal_value=0.0343777 0.0360414 0.00397886 -0.0086737 0.0375291 0.0304774 0.000579088 0.0351692 0.0243693
internal_weight=396.833 382.292 17.2042 14.5411 365.087 138.72 19.055 119.665 45.7579
internal_count=610 452 126 158 326 251 120 131 98
is_linear=0
shrinkage=0.03


Tree=35
num_leaves=10
num_cat=0
split_feature=88 22 23 25 49 19 48 15 32
split_gain=30.6819 21.1654 25.494 17.3329 9.72316 25.1962 33.4308 1.51287 0.880565
threshold=-0.29459381991765782 7.5000000000000009 0.73561529332712527 1.2495753215677479 -0.01419624830142424 0.48748787861854892 0.62014610917683333 0.10569611983675174 2.9890728177295345
decision_type=2 2 2 2 2 2 2 2 2
left_child=3 4 -3 -1 8 6 -6 -7 -2
right_child=1 2 -4 -5 5 7 -8 -9 -10
leaf_value=-0.029720837694567796 0.041851146151365128 -0.029524679664017121 0.039296996081055385 0.03672177679918108 -0.031897840855557538 0.029496874339841116 0.032419437181273339 0.041426216115456709 0.033405762352634233
leaf_weight=10.007978424429892 204.12857220321894 9.3002117462456244 8.1387577056884748 4.214831829071044 12.159831870347263 33.821600034832954 15.249914549291132 49.651612848043442 44.726484730839729
leaf_count=153 75 131 2 1 142 29 21 16 40
internal_value=0.0338257 0.0354566 0.00282094 -0.00871511 0.0370182 0.0289184 0.00366222 0.0370346 0.040485
internal_weight=391.4 377.177 17.439 14.2228 359.738 110.883 27.4097 83.4732 248.855
internal_count=610 456 133 154 323 208 163 45 115
is_linear=0
shrinkage=0.03


Tree=36
num_leaves=10
num_cat=0
split_feature=92 22 23 20 23 24 75 7 89
split_gain=29.0824 17.941 23.7594 16.6471 10.0747 19.9533 22.3446 6.98801 19.7313
threshold=-0.29038132670563022 7.5000000000000009 0.73561529332712527 -0.49803627782189835 0.44330549531948021 0.97689034036886435 0.027399442312857018 1.0000000180025095e-35 -1.7905368804931638
decision_type=2 2 2 2 2 2 2 2 2
left_child=3 4 -3 -1 5 7 -7 8 -2
right_child=1 2 -4 -5 -6 6 -8 -9 -10
leaf_value=0.036165677390492375 0.036167284327471523 -0.029168881395183442 0.038735091520365715 -0.029349270353716889 0.040487530885544493 -0.032108466780326791 0.030388247531700066 0.03923722457036892 -0.0088302380026372591
leaf_weight=4.167346477508544 27.12221797555685 8.531523749232294 8.0253393650054914 9.7999447397887689 219.63614089787006 8.9030657224357146 9.7226182222366315 77.905737429857254 12.119240775704382
leaf_count=1 18 124 2 157 75 108 12 46 67
internal_value=0.0332943 0.0348899 0.00390579 -0.00849118 0.0363099 0.0292834 0.00024811 0.0338332 0.0223217
internal_weight=385.933 371.966 16.5569 13.9673 355.409 135.773 18.6257 117.147 39.2415
internal_count=610 452 126 158 326 251 120 131 85
is_linear=0
shrinkage=0.03


Tree=37
num_leaves=10
num_cat=0
split_feature=88 22 23 18 2 10 32 31 9
split_gain=27.972 19.0288 23.6471 16.225 10.0218 24.1614 31.6024 4.42708 10.0786
threshold=-0.29459381991765782 7.5000000000000009 0.73561529332712527 -0.19996795771478265 -0.24904297714365201 0.049939818224454507 2.7537946630483949 -0.012151095668965257 1.007937542925571
decision_type=2 2 2 2 2 2 2 2 2
left_child=3 4 -3 -1 -2 7 -7 -6 -9
right_child=1 2 -4 -5 5 6 -8 8 -10
leaf_value=0.035631465850316485 0.04097881787449064 -0.029218752181472171 0.038197713176248253 -0.029488593728450224 0.039701808138340303 0.025757564768960069 -0.034937340220874857 -0.002361710230940812 0.033543199239311372
leaf_weight=4.1186604499816886 182.39390091598034 8.8608210198581236 7.9099104404449454 9.5667858496308309 93.150728486478329 24.100917141884565 10.155067853629587 8.6268123351037485 31.472993467003107
leaf_count=1 56 131 2 153 53 34 100 51 29
internal_value=0.0327844 0.0343561 0.00276957 -0.00859451 0.0358493 0.0300361 0.00719906 0.0357873 0.0258763
internal_weight=380.357 366.671 16.7707 13.6854 349.9 167.507 34.256 133.251 40.0998
internal_count=610 456 133 154 323 267 134 133 80
is_linear=0
shrinkage=0.03


Tree=38
num_leaves=11
num_cat=0
split_feature=69 28 22 19 19 24 25 6 91 2
split_gain=26.05 26.1398 15.2214 21.5042 8.56917 22.8635 16.31 7.41151 21.3001 0.35729
threshold=1.1528115034103397 12.263822532835462 7.5000000000000009 0.98923816796001118 0.49741274751147063 0.99459085184592488 0.40520008556379233 -0.049708426637172225 -0.057705981129787691 -0.3259767078467366
decision_type=2 2 2 2 2 2 2 2 2 2
left_child=2 -2 4 -4 5 7 -7 -1 -9 -6
right_child=1 -3 3 -5 9 6 -8 8 -10 -11
leaf_value=0.038835608790005541 0.036080237854082875 -0.031880813343891888 -0.02861253382338869 0.037683108241485297 0.041063509183566563 -0.030855973042141351 0.034681506018575121 0.039839616412043748 -0.010375757748856681 0.035089115516576515
leaf_weight=62.484269052743912 8.0766053944826144 10.598448742181061 7.8150886632502061 7.7928199768066406 138.6251213401556 8.9383207112550718 4.2200367897748938 17.308942478150133 12.288848318159578 96.636527970433235
leaf_count=34 3 147 122 2 39 124 2 11 71 55
internal_value=0.0322889 -0.00199653 0.0340958 0.00458328 0.0354225 0.0275919 -0.00866046 0.0328419 0.0192347 0.0387811
internal_weight=374.785 18.6751 356.11 15.6079 340.502 105.24 13.1584 92.0821 29.5978 235.262
internal_count=610 150 460 124 336 242 126 116 82 94
is_linear=0
shrinkage=0.03


Tree=39
num_leaves=9
num_cat=0
split_feature=88 2 41 19 18 19 31 51
split_gain=25.6491 16.6705 31.2192 69.8746 15.217 3.43494 1.0762 7.80703
threshold=-0.29459381991765782 -0.24904297714365201 1.3784328358208957 0.69468552371236791 -0.19996795771478265 0.29805297073640413 -0.014019995818507503 3.004044797786857
decision_type=2 2 2 2 2 2 2 2
left_child=4 -2 5 -4 -1 -3 -7 -8
right_child=1 2 3 -5 -6 6 7 -9
leaf_value=0.034623317793382763 0.039750809936176384 0.016485316067988507 -0.035895399236844948 0.033581183764300651 -0.029269435371562132 0.039419029338617434 0.0094437764135553107 0.040365014308187924
leaf_weight=4.0183639526367179 184.65056943148375 11.480843659490345 20.205030124634504 32.794067449867725 9.1636044383048993 73.639944739639759 12.857846211642025 20.225783795118332
leaf_count=1 67 29 241 20 153 35 54 10
internal_value=0.0318276 0.03335 0.0262382 0.00686459 -0.00851296 0.0347691 0.0365369 0.0290653
internal_weight=369.036 355.854 171.204 52.9991 13.182 118.204 106.724 33.0836
internal_count=610 456 389 261 154 128 99 64
is_linear=0
shrinkage=0.03


Tree=40
num_leaves=9
num_cat=0
split_feature=23 74 15 66 3 83 71 1
split_gain=24.716 37.4235 16.3578 26.4391 12.0308 42.9867 0.527075 3.02245
threshold=0.44330549531948021 1.3081789323969959e-05 0.02791844845890196 1.7904380067241028 0.95485340012015618 -0.24447092813272964 48.381248588921103 0.70410114109414834
decision_type=2 2 2 2 2 2 2 2
left_child=1 2 4 -4 -1 -6 -2 -8
right_child=6 -3 3 -5 5 -7 7 -9
leaf_value=0.036374255760580509 0.03968135866837643 -0.031689357823020618 0.035601013675011291 -0.035176138004807136 0.035916935026763984 -0.031590457032289243 0.025335582106435852 0.040290597537705523
leaf_weight=78.562223561108112 150.47470273822546 10.197867091745136 8.0330252349376696 9.0121977590024454 26.070721063762903 11.428943052887915 36.051967114210129 33.443956136703491
leaf_count=58 53 152 4 96 38 158 42 9
internal_value=0.0313813 0.0213799 0.025674 -0.0015298 0.0296739 0.0149783 0.0377572 0.0330445
internal_weight=363.276 143.305 133.107 17.0452 116.062 37.4997 219.971 69.4959
internal_count=610 506 354 100 254 196 104 51
is_linear=0
shrinkage=0.03


Tree=41
num_leaves=10
num_cat=0
split_feature=23 82 24 78 6 6 36 71 80
split_gain=23.8542 61.9694 16.1904 21.8403 3.93359 13.6779 21.7869 0.590391 0.525363
threshold=0.44330549531948021 48.447618525021959 0.97689034036886435 0.27637432802584722 -0.049708426637172225 0.053251892775236238 -0.089854843386556582 48.381248588921103 -0.10398216620746988
decision_type=2 2 2 2 2 2 2 2 2
left_child=1 -1 4 -4 -3 6 -6 -2 -9
right_child=7 2 3 -5 5 -7 -8 8 -10
leaf_value=-0.032873074827414084 0.039218752170948883 0.037241806865639639 -0.031378368034716685 0.033125487030738393 0.03255574865044731 0.037127590199779736 -0.03383908197263525 0.037562803564784412 0.027654577173358921
leaf_weight=16.071850534528494 147.73541700839996 67.520059570670128 8.4764747992157954 8.4169901721179468 8.517282769083975 24.873674493283033 7.3456364385783663 29.982858225703239 38.608240202069283
leaf_count=231 53 45 119 6 5 20 80 12 39
internal_value=0.0309432 0.0210464 0.0282002 0.000647503 0.0324271 0.0236737 0.00144895 0.0372636 0.0325063
internal_weight=357.548 141.222 125.15 16.8935 108.257 40.7366 15.8629 216.327 68.5911
internal_count=610 506 275 125 150 105 85 104 51
is_linear=0
shrinkage=0.03


Tree=42
num_leaves=12
num_cat=0
split_feature=23 82 32 91 16 6 91 2 42 42 72
split_gain=22.9328 59.4435 20.3673 15.4381 5.05658 18.7077 15.2745 0.985292 1.66078 0.406235 0.0575528
threshold=0.44330549531948021 48.447618525021959 3.0632089552238813 -0.10216259410591093 -0.021444960712342202 0.057766820375964485 -0.19201608427116482 -0.3259767078467366 0.48180780629909215 0.34096310671815311 0.12987274697279186
decision_type=2 2 2 2 2 2 2 2 2 2 2
left_child=1 -1 4 -4 10 6 -6 -2 9 -9 -3
right_child=7 2 3 -5 5 -7 -8 8 -10 -11 -12
leaf_value=-0.032703326633706113 0.039333827185021049 0.029338726249376237 0.032845563734818915 -0.033770351603455318 0.033407650467698065 0.036928512955509897 -0.032997039596791899 0.031257791807643202 0.038347344238247635 0.021198988290303176 0.038495918657766824
leaf_weight=15.681705009192227 128.77742081880569 26.645489860326052 3.9973688274621964 7.431435648351906 3.8824267387390154 20.40054888650775 7.6785390712320805 24.301600128412247 36.906512148678303 22.711248062551022 53.296048551797867
leaf_count=231 39 41 2 100 1 13 91 23 13 29 27
internal_value=0.030532 0.0207491 0.0277781 -0.00946118 0.0316581 0.0202368 -0.00957376 0.0367848 0.0324206 0.0270037 0.035881
internal_weight=351.71 139.014 123.332 11.4288 111.903 31.9615 11.561 212.697 83.9194 47.0128 79.9415
internal_count=610 506 275 102 173 105 92 104 65 52 68
is_linear=0
shrinkage=0.03


Tree=43
num_leaves=12
num_cat=0
split_feature=92 2 10 32 18 24 88 60 25 76 67
split_gain=22.0829 14.948 22.6365 26.2829 13.5996 13.4588 23.1668 7.38888 2.1943 3.42707 0.965133
threshold=-0.29038132670563022 -0.24904297714365201 0.049939818224454507 2.7537946630483949 -0.19996795771478265 0.99459085184592488 -0.25508240041203872 0.92954545454545456 0.30944017978682964 0.44964968807999728 -0.035805841380531396
decision_type=2 2 2 2 2 2 2 2 2 2 2
left_child=4 -2 5 7 -1 8 -7 10 9 -3 -4
right_child=1 2 3 -5 -6 6 -8 -9 -10 -11 -12
leaf_value=0.033029903064767774 0.037904021873386769 0.011153868500327756 0.012313951206234963 -0.034356956874952375 -0.028733917740718977 0.029264866286175105 -0.038005900332002372 0.037371643004940849 0.036997431281601899 0.03538388495857156 -0.0032595314654873205
leaf_weight=3.8368098735809317 171.85705692321062 12.401820607483389 5.341925073415041 10.633299943059681 8.5719334073364717 12.271456006914379 6.0574974529445162 10.922242641448973 85.670817010104656 11.298756942152975 7.0431269817054289
leaf_count=1 67 53 10 127 157 17 73 3 63 4 35
internal_value=0.0301374 0.0316 0.0246873 0.00271164 -0.00837362 0.0304383 0.00606142 0.0204643 0.0344044 0.0237913 0.00365164
internal_weight=345.907 333.498 161.641 33.9406 12.4087 127.7 18.329 23.3073 109.371 23.7006 12.3851
internal_count=610 452 385 175 158 210 90 48 120 57 45
is_linear=0
shrinkage=0.03


Tree=44
num_leaves=12
num_cat=0
split_feature=88 22 0 0 2 10 10 93 93 11 48
split_gain=21.152 16.0305 19.4096 13.2396 8.90859 20.3801 21.397 9.62079 5.4757 9.99937 0.464653
threshold=-0.29459381991765782 7.5000000000000009 0.73136147574863941 0.75634856100047942 -0.24904297714365201 0.049939818224454507 0.14824370881102636 8.3472842339106617 1.0000000180025095e-35 0.12127141451224582 0.19264624104181435
decision_type=2 2 2 2 2 2 2 2 2 2 2
left_child=3 4 -3 -1 -2 8 -7 -8 9 -6 -10
right_child=1 2 -4 -5 5 6 7 -9 10 -11 -12
leaf_value=0.032606651101690698 0.037802441174679055 0.034932709810536117 -0.028906694690824623 -0.028818863226362682 -0.0073571088988608341 -0.036268354605790434 -0.0057535370428238759 0.032637057558016914 0.030644384071098114 0.031945223770682533 0.039400334987979832
leaf_weight=3.7837986946105948 160.59615160524845 7.0527853965759268 8.159001197665928 8.3339533209800702 8.4416564181447047 7.4406016469001797 8.5986395515501517 15.262150235474108 44.95286513492465 15.170444816350935 52.500073008239269
leaf_count=1 56 2 131 153 46 73 51 10 58 11 18
internal_value=0.0297337 0.0311716 0.00083576 -0.00838637 0.0326292 0.026946 0.00505848 0.0190067 0.0324927 0.0180442 0.0357442
internal_weight=340.292 328.174 15.2118 12.1178 312.963 152.366 31.3014 23.8608 121.065 23.6121 97.4529
internal_count=610 456 133 154 323 267 134 61 133 57 76
is_linear=0
shrinkage=0.03


Tree=45
num_leaves=11
num_cat=0
split_feature=23 86 9 39 49 13 71 1 80 37
split_gain=21.5684 32.3848 14.4254 14.9828 9.67136 32.5462 0.789428 3.46013 1.13971 0.175788
threshold=0.44330549531948021 0.97260055768714315 0.83319654771652185 -0.14286751353517083 -0.01419624830142424 0.021437948622781814 48.381248588921103 0.70410114109414834 -0.10398216620746988 0.30178083386780014
decision_type=2 2 2 2 2 2 2 2 2 2
left_child=1 2 -1 -4 9 -6 -2 8 -8 -5
right_child=6 -3 3 4 5 -7 7 -9 -10 -11
leaf_value=-0.028009637536739684 0.037658902430522397 -0.031438146445609327 -0.032274897787522239 0.029294272018799129 -0.032455498412535221 0.028859335992903752 0.031229626462151258 0.038476513091008982 0.01694192029955387 0.038309235063188528
leaf_weight=3.8288414515554896 136.95707446336746 9.4415137544274312 3.0463732071220866 36.597873602062464 9.0289914570748788 34.729014754295349 11.316251650452612 30.849620580673218 22.582567974925041 36.22999593988061
leaf_count=40 53 152 25 55 136 79 7 9 35 19
internal_value=0.02935 0.0196648 0.0238181 0.0257201 0.0275226 0.0156982 0.0355883 0.0306567 0.0225557 0.0342778
internal_weight=334.608 132.903 123.461 119.632 116.586 43.758 201.706 64.7484 33.8988 72.8279
internal_count=610 506 354 314 289 215 104 51 42 74
is_linear=0
shrinkage=0.03


Tree=46
num_leaves=11
num_cat=0
split_feature=23 82 32 0 3 43 77 1 80 30
split_gain=21.0091 53.0137 18.3348 14.1395 4.63243 26.4476 2.12337 0.829164 1.77403 1.69405
threshold=0.44330549531948021 48.447618525021959 3.0632089552238813 0.75634856100047942 0.95240915399168713 0.042138521552981943 0.39958818341812458 0.58191668190186385 -0.35010041795564145 16.096432685852054
decision_type=2 2 2 2 2 2 2 2 2 2
left_child=1 -1 4 -4 -3 -6 -7 8 -2 -10
right_child=7 2 3 -5 5 6 -8 -9 9 -11
leaf_value=-0.032455345710098678 0.037547216178887365 0.035056989277785479 0.031902039494508358 -0.033705311511754578 -0.030892499341843214 0.01767202677872428 0.037514623982315247 0.037724472260983882 0.032643450091876761 0.018947107458008899
leaf_weight=14.829510364681481 32.438427448272705 66.415666442364454 3.6911363601684553 7.0598166473209858 6.5389017574489108 10.89831271022558 21.618826910853386 117.65962915122509 22.017971053719521 25.982007764279842
leaf_count=231 10 41 1 101 76 47 9 40 12 42
internal_value=0.0289567 0.0193374 0.026192 -0.010127 0.0299826 0.0206188 0.0316794 0.0351762 0.0309944 0.0258289
internal_weight=329.15 131.052 116.223 10.751 105.472 39.056 32.5171 198.098 80.4384 48
internal_count=610 506 275 102 173 132 56 104 64 54
is_linear=0
shrinkage=0.03


Tree=47
num_leaves=12
num_cat=0
split_feature=23 82 39 96 14 3 3 13 71 1 64
split_gain=20.2793 50.9081 15.3663 12.5971 5.99561 16.511 4.05447 15.0385 0.959993 3.56316 3.56103
threshold=0.44330549531948021 48.447618525021959 -0.064413705033806765 -0.26777239531552338 3.5000000000000004 1.117893863456338 0.95600958954446036 0.024808452846165844 48.381248588921103 0.70410114109414834 0.1009522279526502
decision_type=2 2 2 2 2 2 2 2 2 2 2
left_child=1 -1 3 -3 5 -4 -6 -8 -2 10 -10
right_child=8 2 4 -5 6 -7 7 -9 9 -11 -12
leaf_value=-0.032289574154907429 0.036945944848199484 0.029666393743754946 -0.033971424190289361 -0.034160616684805918 0.035584463646323325 0.034450686234379607 -0.026630091409787539 0.030256622171039992 0.0094727324700422076 0.037728669280695286 0.030282133193752787
leaf_weight=14.469059526920317 131.66035689413548 3.6289272904396057 4.3087010011076909 6.0215213783085328 68.813382055610418 6.904611349105835 4.3185633905231979 20.435840360820293 15.009847514331339 29.648035287857056 18.192951746284962
leaf_count=231 53 2 54 70 47 2 69 31 29 9 13
internal_value=0.0286075 0.0190774 0.0258218 -0.0093457 0.0291469 0.0072851 0.0316304 0.0195672 0.0347777 0.0296812 0.0215146
internal_weight=323.412 128.901 114.432 9.65045 104.781 11.2133 93.5678 24.7544 194.511 62.8508 33.2028
internal_count=610 506 275 72 203 56 147 100 104 51 42
is_linear=0
shrinkage=0.03


Tree=48
num_leaves=11
num_cat=0
split_feature=69 30 23 82 15 0 24 96 30 2
split_gain=19.6628 19.5236 13.0803 39.1006 8.62 17.6014 5.21377 18.7595 1.02588 0.363196
threshold=1.1528115034103397 13.999997615814211 0.44330549531948021 48.447618525021959 0.023866484394375598 1.0655633753573646 0.87426259482689395 -0.24776292199802252 32.280250549316413 -0.3259767078467366
decision_type=2 2 2 2 2 2 2 2 2 2
left_child=2 -2 3 -1 6 -6 8 -8 -5 -4
right_child=1 -3 9 4 5 -7 7 -9 -10 -11
leaf_value=-0.031743802954497663 0.031578467372381951 -0.03133250141089379 0.037245302734192458 0.03706015527230036 -0.035401312808896419 0.031865594719122037 0.034981099597211247 -0.029453436987092345 0.02598369926492889 0.030975618702675511
leaf_weight=10.332441642880438 6.9130524545908001 9.1032276526093465 113.98291377723217 49.611228439956903 5.1316092088818532 7.1493814066052437 10.799854490905998 5.2554066404700306 27.413037206977606 71.997022897005081
leaf_count=160 3 147 39 30 49 6 7 83 33 53
internal_value=0.028267 -0.00374214 0.029983 0.021641 0.0271537 0.00298305 0.0302453 0.0132234 0.03354 0.0350129
internal_weight=317.689 16.0163 301.673 115.693 105.361 12.281 93.0795 16.0553 77.0243 185.98
internal_count=610 150 460 368 208 55 153 90 63 92
is_linear=0
shrinkage=0.03


Tree=49
num_leaves=10
num_cat=0
split_feature=22 0 55 82 32 96 10 67 71
split_gain=18.8827 18.7905 11.3378 39.977 13.7142 20.7448 3.94811 6.12484 1.28223
threshold=7.5000000000000009 0.73136147574863941 0.027931106365554407 48.447618525021959 2.9890728177295345 -0.26777239531552338 0.049939818224454507 -0.091524320057859307 48.607632739059405
decision_type=2 2 2 2 2 2 2 2 2
left_child=2 -2 3 -1 6 -6 -5 -8 -4
right_child=1 -3 8 4 5 -7 7 -9 -10
leaf_value=-0.032150684195702495 0.033051956379828551 -0.029224047922701106 0.036770454032786046 0.035245409998605107 0.034584602019692906 -0.033325727867392359 0.035108809577478799 0.0033657903421521842 0.028596660450497895
leaf_weight=10.299727462232111 6.4364659786224356 9.5289659742265922 125.47720523178577 70.686496660113335 6.9447247982025093 7.2546402420848644 9.8436021804809588 11.990773890167473 53.50079982727766
leaf_count=142 2 178 45 51 2 102 3 46 39
internal_value=0.0279384 -0.00347231 0.0296487 0.0219491 0.0274482 0 0.0316191 0.0187187 0.0345162
internal_weight=311.963 15.9654 295.998 117.02 106.72 14.1994 92.5209 21.8344 178.978
internal_count=610 180 430 346 204 104 100 49 84
is_linear=0
shrinkage=0.03


Tree=50
num_leaves=10
num_cat=0
split_feature=69 28 23 82 32 91 6 69 71
split_gain=18.3892 18.3442 12.3469 36.1008 11.3076 19.2346 3.60752 19.0107 0.147654
threshold=1.1528115034103397 12.263822532835462 0.44330549531948021 48.447618525021959 2.9890728177295345 -0.10216259410591093 -0.049708426637172225 0.49677948951721196 48.381248588921103
decision_type=2 2 2 2 2 2 2 2 2
left_child=2 -2 3 -1 6 -6 -5 -8 -4
right_child=1 -3 8 4 5 -7 7 -9 -10
leaf_value=-0.031375776434167953 0.03080039230261539 -0.031146658777576837 0.036037926121681246 0.035047730909716364 0.033660064114531464 -0.033046499617581916 -0.012023637462241575 0.036440125905899137 0.029804504127641233
leaf_weight=9.8550969064235669 6.6925943642854682 8.7508280649781209 123.53646294772625 57.433225765824311 6.8887809589505196 6.6723444927483779 10.192667592316875 20.912287168204784 55.36119470000267
leaf_count=160 3 147 52 34 3 97 63 11 40
internal_value=0.0276195 -0.00387819 0.0293098 0.0210728 0.0264197 0.000617586 0.0302872 0.0205859 0.034302
internal_weight=306.295 15.4434 290.852 111.954 102.099 13.5611 88.5382 31.105 178.898
internal_count=610 150 460 368 208 100 108 74 92
is_linear=0
shrinkage=0.03


Tree=51
num_leaves=10
num_cat=0
split_feature=22 0 23 82 32 0 10 9 71
split_gain=17.7421 17.7731 11.3565 36.6924 12.2939 19.3459 3.63711 6.17418 1.06541
threshold=7.5000000000000009 0.73136147574863941 0.44330549531948021 48.447618525021959 2.9890728177295345 0.82761134609886944 0.049939818224454507 1.3313596305293507 48.607632739059405
decision_type=2 2 2 2 2 2 2 2 2
left_child=2 -2 3 -1 6 -6 -5 -8 -4
right_child=1 -3 8 4 5 -7 7 -9 -10
leaf_value=-0.031758044215755468 0.032424153889070315 -0.029087788574492183 0.03616733076695542 0.034048425640418441 0.033843115706213608 -0.032872789837665804 0.0024701814082641539 0.034620225015428913 0.028237963596070313
leaf_weight=9.8358578868210298 6.2126324176788321 9.2012979760766012 120.16879603266716 68.563856184482574 6.7058763504028303 6.9448525235056877 11.729743909090759 9.5661776065826398 51.703058704733849
leaf_count=142 2 178 45 52 2 102 46 3 38
internal_value=0.0273114 -0.00364749 0.0290019 0.0212012 0.026518 0 0.0305062 0.0179516 0.0339765
internal_weight=300.632 15.4139 285.218 113.346 103.511 13.6507 89.8598 21.2959 171.872
internal_count=610 180 430 347 205 104 101 49 83
is_linear=0
shrinkage=0.03


Tree=52
num_leaves=9
num_cat=0
split_feature=2 41 19 10 9 37 1 19
split_gain=17.7469 27.2772 59.2219 7.84276 19.4167 1.43134 4.12578 3.44812
threshold=-0.24904297714365201 1.3784328358208957 0.69468552371236791 0.049939818224454507 1.1292047595551236 0.29574059995507401 0.33076324256429229 0.19385726154994751
decision_type=2 2 2 2 2 2 2 2
left_child=-1 3 -3 5 -5 6 7 -2
right_child=1 2 -4 4 -6 -7 -8 -9
leaf_value=0.03461819376945581 0.029896044620788327 -0.035054485330177326 0.028587184571087675 -0.035213568037043307 0.031366351854615615 0.035754555687888302 0.033391376805405597 -0.0028132074819133207
leaf_weight=144.07048065960407 3.398536682128908 21.691178116947412 30.317244865000248 5.1202196702361098 10.102866996079682 55.826818250119686 16.880783673375845 7.6813007965683937
leaf_count=75 1 357 22 52 8 36 10 49
internal_value=0.0270075 0.0195472 0.00182696 0.028714 0.00799735 0.0323038 0.0243137 0.00861572
internal_weight=295.089 151.019 52.0084 99.0105 15.2231 83.7874 27.9606 11.0798
internal_count=610 535 379 156 60 96 60 50
is_linear=0
shrinkage=0.03


Tree=53
num_leaves=9
num_cat=0
split_feature=2 41 26 70 26 16 83 70
split_gain=17.1843 26.1172 51.4935 14.8397 4.60247 11.0023 19.0173 0.366394
threshold=-0.24904297714365201 1.3784328358208957 0.63808837659618167 0.68831874836739482 0.37725053767596778 -0.038573285724221022 -0.24447092813272964 0.33076324256429218
decision_type=2 2 2 2 2 2 2 2
left_child=-1 4 3 -3 5 7 -7 -2
right_child=1 2 -4 -5 -6 6 -8 -9
leaf_value=0.034295350538386414 0.022603174544678455 -0.037449519502394883 0.03032959714210666 0.027133896905518921 0.034860904147624862 0.029920942098949653 -0.034856170495297108 0.035375452484976783
leaf_weight=141.11805307865143 15.673175450414421 21.602510273456577 26.470136506482959 2.9383029937744132 51.140584833920002 7.4698098525404912 6.8629729505628347 16.223082825541496
leaf_count=75 35 358 20 1 25 7 81 8
internal_value=0.026722 0.019318 0.00179898 -0.0288398 0.0283539 0.0205063 -0.00115103 0.0300685
internal_weight=289.499 148.381 51.0109 24.5408 97.3696 46.229 14.3328 31.8963
internal_count=610 535 379 359 156 131 88 43
is_linear=0
shrinkage=0.03


Tree=54
num_leaves=10
num_cat=0
split_feature=2 41 19 10 9 37 1 19 76
split_gain=16.6119 24.9762 54.9159 7.53161 18.4047 1.41109 3.91943 3.30115 0.0772506
threshold=-0.24904297714365201 1.3784328358208957 0.69468552371236791 0.049939818224454507 1.1292047595551236 0.29574059995507401 0.33076324256429229 0.19385726154994751 0.41218247675046521
decision_type=2 2 2 2 2 2 2 2 2
left_child=8 3 -3 5 -5 6 7 -2 -1
right_child=1 2 -4 4 -6 -7 -8 -9 -10
leaf_value=0.027632074580610209 0.029312107056921312 -0.034735108121601625 0.0278131720019331 -0.03497232922672272 0.030607844427536213 0.035065074831138909 0.032651158676054011 -0.0029639107810604274 0.035379044534302517
leaf_weight=29.089974299073219 3.306035518646242 20.617155201733112 29.386172845959663 4.9968989063054314 9.7828707657754403 53.781248101964593 16.27288855984807 7.5835165902972221 109.11738403141499
leaf_count=29 1 357 22 52 8 36 10 49 46
internal_value=0.0264501 0.0191052 0.00178933 0.0280075 0.00743451 0.0315908 0.0236044 0.00822388 0.0339802
internal_weight=283.934 145.727 50.0033 95.7235 14.7798 80.9437 27.1624 10.8896 138.207
internal_count=610 535 379 156 60 96 60 50 75
is_linear=0
shrinkage=0.03


Tree=55
num_leaves=9
num_cat=0
split_feature=2 93 15 69 1 42 36 55
split_gain=16.1092 24.1285 26.8312 13.7775 9.26811 4.86483 3.94855 19.5988
threshold=-0.24904297714365201 -1.0000000180025095e-35 0.11377201837020971 1.3746132373809818 0.8600052460153208 0.11839725254064074 -0.02395478549570226 0.022989005506588198
decision_type=2 2 2 2 2 2 2 2
left_child=-1 2 -2 5 -5 -3 -7 -8
right_child=1 3 -4 4 -6 6 7 -9
leaf_value=0.033679265780571427 -0.039164821589332884 -0.019289713636075335 0.025111306073622202 -0.03068684272484852 0.027064120168733889 0.031749262690414351 -0.027690493373645719 0.028183226176443074
leaf_weight=135.34032195061445 11.726139482110741 1.2885306626558293 9.8400678932666761 5.9906618166714889 2.9260654449462891 75.055541256442666 5.9989797417074433 30.333356883376837
leaf_count=75 181 18 14 106 1 71 111 33
internal_value=0.0261796 0.0188844 -0.00989128 0.0240516 -0.010615 0.0268906 0.0276184 0.0183827
internal_weight=278.5 143.159 21.5662 121.593 8.91673 112.676 111.388 36.3323
internal_count=610 535 195 340 107 233 215 144
is_linear=0
shrinkage=0.03


Tree=56
num_leaves=9
num_cat=0
split_feature=2 86 41 19 26 16 83 19
split_gain=15.7146 23.4499 18.1701 44.603 2.97563 7.0832 16.9175 0.113107
threshold=-0.24904297714365201 0.97182943535464605 1.3784328358208957 0.69468552371236791 0.37725053767596778 -0.038573285724221022 -0.2398338210223793 0.61318413001693195
decision_type=2 2 2 2 2 2 2 2
left_child=7 2 4 -4 5 -2 -7 -1
right_child=1 -3 3 -5 -6 6 -8 -9
leaf_value=0.028374579811582618 0.029721255182637223 -0.029686060936034379 -0.034983199617622425 0.027294250752200534 0.03486987171400073 0.031442473515353467 -0.035027672904981814 0.035316293522571533
leaf_weight=41.805132243782282 30.048478737473488 7.6289507821202269 14.975356020033358 28.386836491525173 47.779953174293041 6.8180472962558252 5.1563681997358799 90.712542369961739
leaf_count=38 37 150 244 21 21 5 57 37
internal_value=0.0258848 0.0186255 0.0216163 0.00541503 0.0292604 0.0221504 0.00209454 0.0333778
internal_weight=273.312 140.794 133.165 43.3622 89.8028 42.0229 11.9744 132.518
internal_count=610 535 385 265 120 99 62 75
is_linear=0
shrinkage=0.03


Tree=57
num_leaves=11
num_cat=0
split_feature=2 86 93 15 58 7 24 25 37 76
split_gain=15.2396 22.5975 22.1565 24.7368 5.69888 13.6756 1.97532 9.85322 0.696917 0.319395
threshold=-0.24904297714365201 0.97182943535464605 -1.0000000180025095e-35 0.11377201837020971 1.4796500771604941 -0.13496368288974944 0.99561518504704594 1.0850722976058085 0.25213319028155751 0.41218247675046521
decision_type=2 2 2 2 2 2 2 2 2 2
left_child=9 2 3 -2 6 -6 8 -8 -4 -1
right_child=1 -3 4 -5 5 -7 7 -9 -10 -11
leaf_value=0.026274518599697077 -0.040035620796257172 -0.029519411196908683 0.022008961385469594 0.024959283832243068 0.03157454580402401 -0.031785306191965457 -0.008013801488972622 0.034149250826755954 0.032935565740724114 0.034638596157682479
leaf_weight=27.715719204396009 9.6282229218632001 7.450209278613328 17.952498957514763 9.4680759496986848 6.161271845921874 4.3560602366924268 7.5516924411058453 11.643303155899046 63.991502089425921 102.02784425020218
leaf_count=29 140 150 37 12 4 75 65 4 48 46
internal_value=0.0256271 0.0184125 0.0213698 -0.00802296 0.02645 0.00459046 0.0286265 0.0178375 0.0308721 0.0330894
internal_weight=267.946 138.203 130.753 19.0963 111.656 10.5173 101.139 19.195 81.944 129.744
internal_count=610 535 385 152 233 79 154 69 85 75
is_linear=0
shrinkage=0.03


Tree=58
num_leaves=14
num_cat=0
split_feature=23 24 20 32 91 58 7 12 6 3 1 20 20
split_gain=14.9124 23.4104 11.2927 11.2347 9.11113 5.05764 8.17368 8.34203 2.15111 7.4605 1.52736 2.61666 3.49832
threshold=0.44330549531948021 0.99459085184592488 -0.44768142216556284 2.9419293239683939 -0.11314577497059818 1.3814046824433659 -0.091517629726662678 0.37883728616986406 -0.01388141526517561 1.0903483199492821 0.58191668190186385 -0.43272477241466661 0.040787681928615933
decision_type=2 2 2 2 2 2 2 2 2 2 2 2 2
left_child=1 3 -3 5 -5 8 -7 -8 -1 -10 11 -2 -13
right_child=10 2 -4 4 -6 6 7 -9 9 -11 -12 12 -14
leaf_value=0.032153175891491755 0.033620561613266341 0.027111075088126484 -0.031091385866577517 0.02641150590754204 -0.03172823022074156 0.031820129589332113 -0.031680985394180412 0.02552916557045546 -0.0061574768673256257 0.031145331071859499 0.034462408883773638 0.010887481889256352 0.030705276153577502
leaf_weight=50.385771980509162 28.817059949040413 3.0402802340686312 11.590514214709399 2.959493488073349 5.3343575876206142 5.9866809844970703 5.2912776209413988 2.6529810428619385 6.9057301003485945 12.40743565559387 91.383489541709423 21.296937040984631 14.879058070480822
leaf_count=40 13 2 252 2 89 2 64 1 44 10 40 40 11
internal_value=0.0253498 0.0163829 -0.0178443 0.0219963 -0.0100498 0.025291 0.00778657 -0.0115221 0.0285876 0.0180129 0.0312979 0.0263481 0.0197259
internal_weight=262.931 106.555 14.6308 91.9237 8.29385 83.6299 13.9309 7.94426 69.6989 19.3132 156.377 64.9931 36.176
internal_count=610 506 254 252 91 161 67 65 94 54 104 64 51
is_linear=0
shrinkage=0.03


Tree=59
num_leaves=12
num_cat=0
split_feature=2 46 93 15 98 58 12 73 36 76 26
split_gain=14.6918 21.6308 13.9466 24.4067 10.6766 8.13441 14.4342 4.81037 6.11503 0.387371 0.00915304
threshold=-0.24904297714365201 0.0015044800395857929 -1.0000000180025095e-35 0.11377201837020971 0.00018052838154630817 1.4796500771604941 -0.14794514819700816 0.035911666078292534 -0.13703403305872655 0.41218247675046521 0.37725053767596778
decision_type=2 2 2 2 2 2 2 2 2 2 2
left_child=9 2 3 -2 -3 7 -7 10 -9 -1 -4
right_child=1 4 5 -5 -6 6 -8 8 -10 -11 -12
leaf_value=0.025619319898574234 -0.038912020669449508 -0.035599698732421546 0.025992354891231733 0.030050611627607599 0.024304796231773031 0.031520166280388888 -0.03100423158581779 0.030738221724805115 -0.008558056250372835 0.034197907293439259 0.033628898804648887
leaf_weight=26.816149953752756 8.0271807499229926 8.7256837990134937 30.793713331222534 8.4502417258918268 2.8322137612849465 5.8735737800598145 5.4275290165096504 5.5663776397705078 6.8988054376095516 97.510094352066517 51.028972717002034
leaf_count=29 126 138 70 7 5 2 92 2 61 46 32
internal_value=0.0250928 0.017904 0.021642 -0.00367791 -0.019915 0.0256188 0.00116864 0.0284749 0.00974664 0.0325907 0.0311397
internal_weight=257.951 133.624 122.066 16.4774 11.5579 105.589 11.3011 94.2879 12.4652 124.326 81.8227
internal_count=610 535 392 133 143 259 94 165 63 75 102
is_linear=0
shrinkage=0.03


Tree=60
num_leaves=10
num_cat=0
split_feature=2 86 38 43 90 98 99 3 19
split_gain=14.299 20.4009 13.1137 14.94 6.66482 13.1542 4.27638 18.0101 0.33371
threshold=-0.24904297714365201 0.97182943535464605 30.096731185913089 0.34398349827103136 -0.097290592492085104 0.00018052838154630817 26.212553725164124 0.96903160728205229 0.61318413001693195
decision_type=2 2 2 2 2 2 2 2 2
left_child=8 2 4 -4 5 -2 7 -6 -1
right_child=1 -3 3 -5 6 -7 -8 -9 -10
leaf_value=0.02694957107191057 -0.033348505886486336 -0.0291101409594232 -0.034884879399126892 0.024292365318395608 0.029293962238170299 0.029817141665793582 0.033800559743418342 -0.0090911490052805379 0.034464850410651796
leaf_weight=39.008077669888735 4.5565808210521919 7.006413932889699 7.0414703376591188 6.3533537313342094 44.57135796546936 5.365577969700098 42.605670914053917 13.834152130410073 82.677358135581017
leaf_count=38 94 150 105 11 42 3 24 106 37
internal_value=0.0248353 0.0176865 0.0205589 -0.0068702 0.0239294 0.000137305 0.0262128 0.0201514 0.0323195
internal_weight=253.02 131.335 124.328 13.3948 110.933 9.92216 101.011 58.4055 121.685
internal_count=610 535 385 116 269 97 172 148 75
is_linear=0
shrinkage=0.03


Tree=61
num_leaves=10
num_cat=0
split_feature=2 46 90 37 1 10 46 51 76
split_gain=13.961 20.2632 11.3563 10.448 7.80519 6.78645 24.0857 4.75102 0.524544
threshold=-0.24904297714365201 0.0015044800395857929 -0.097290592492085104 0.8600052460153208 0.8600052460153208 0.010481857124605271 -0.031867244529900571 2.8740499936739696 0.41218247675046521
decision_type=2 2 2 2 2 2 2 2 2
left_child=8 2 4 -3 -2 -4 -7 -8 -1
right_child=1 3 5 -5 -6 6 7 -9 -10
leaf_value=0.024810035397448766 -0.029715922603510785 -0.035220228560462127 0.030716852957351708 0.025395826513153575 0.025241609296029303 -0.035977944548679176 0.0097688645347266054 0.030792101978241188 0.033760181291333499
leaf_weight=26.022747151553631 5.7100334912538511 8.519218508154152 58.898031674325466 2.6290581226348868 2.6013813018798828 6.2820504866540423 17.539854226633906 26.95468382909894 93.073622345924377
leaf_count=29 145 142 48 1 1 79 96 23 46
internal_value=0.0245699 0.0174526 0.021131 -0.0197646 -0.0113291 0.0236981 0.0150629 0.0229675 0.0320524
internal_weight=248.231 129.134 117.986 11.1483 8.31141 109.675 50.7766 44.4945 119.096
internal_count=610 535 392 143 146 246 198 119 75
is_linear=0
shrinkage=0.03


Tree=62
num_leaves=10
num_cat=0
split_feature=22 0 23 82 39 0 6 5 71
split_gain=13.7391 12.958 8.9136 26.7418 10.4836 8.81243 3.55126 13.6911 1.62545
threshold=7.5000000000000009 0.73136147574863941 0.44330549531948021 48.447618525021959 -0.064413705033806765 0.82761134609886944 -0.049708426637172225 -0.084053244422002599 48.607632739059405
decision_type=2 2 2 2 2 2 2 2 2
left_child=2 -2 3 -1 5 -5 -6 -8 -4
right_child=1 -3 8 4 6 -7 7 -9 -10
leaf_value=-0.030646540370637278 0.029032031248009505 -0.028473954249491406 0.033637496670006407 0.025987866731153088 0.032204101899105941 -0.034335589218857439 -0.013762007932738879 0.02898945268444008 0.024327610252380168
leaf_weight=8.1876436248421651 4.8953340053558332 7.7713698130100965 94.351505756378174 2.7351481914520255 45.917927822098136 4.2918179910629988 8.401207495480767 24.294375821948059 42.729961913079023
leaf_count=142 2 178 45 1 35 51 85 33 38
internal_value=0.0243044 -0.00553184 0.0259708 0.0184085 0.0234326 -0.0101694 0.0265638 0.0178329 0.0309544
internal_weight=243.576 12.6667 230.91 93.8281 85.6405 7.02697 78.6135 32.6956 137.081
internal_count=610 180 430 347 205 52 153 118 83
is_linear=0
shrinkage=0.03


Tree=63
num_leaves=10
num_cat=0
split_feature=23 82 24 0 43 42 1 41 31
split_gain=13.1857 30.0448 12.2403 8.57729 3.17075 2.68734 1.80658 3.05478 1.71344
threshold=0.44330549531948021 48.447618525021959 0.99459085184592488 0.82761134609886944 -0.21268577563473398 0.13732165617052464 0.58191668190186385 1.8575915875169609 -0.038220070658174225
decision_type=2 2 2 2 2 2 2 2 2
left_child=1 -1 4 -4 -3 -6 7 -2 -7
right_child=6 2 3 -5 5 8 -8 -9 -10
leaf_value=-0.030581830832503636 0.029497713539276691 -0.0006049911874003404 0.026204065441034555 -0.030042599069046078 0.0029813417843751184 0.031360362367804595 0.033456935356460799 0.013420304814892146 0.018906320587005383
leaf_weight=10.494603009894488 40.059854619204998 3.9075542241334906 2.7737596035003644 6.0359899178147316 4.7573245968669644 47.307790910825126 81.710046768188477 19.14104800671339 22.643837580457337
leaf_count=231 26 12 1 116 31 40 40 38 75
internal_value=0.0240579 0.0152864 0.0211099 -0.0111615 0.0248587 0.0262206 0.0299814 0.0246586 0.0276945
internal_weight=238.832 97.9209 87.4263 8.80975 78.6165 74.709 140.911 59.2009 69.9516
internal_count=610 506 275 117 158 146 104 64 115
is_linear=0
shrinkage=0.03


Tree=64
num_leaves=10
num_cat=0
split_feature=17 86 82 33 73 5 36 89 65
split_gain=13.1335 23.7761 16.1322 28.9938 4.91662 5.85714 8.63515 2.77812 0.594024
threshold=0.045395843250400199 0.97260055768714315 48.190149253731349 0.95220579418316176 0.035911666078292534 -0.24706628991920848 -0.12671943826524082 -6.9690113067626944 50.066445880232187
decision_type=2 2 2 2 2 2 2 2 2
left_child=1 2 3 -1 7 -6 -7 -4 -9
right_child=-2 -3 4 -5 5 6 -8 8 -10
leaf_value=0.025833615454407436 0.032038804620323581 -0.032144805275377983 0.0076106930106163949 -0.03766046762312919 0.027902423235383951 0.025384600184987453 -0.035300593591370617 0.024200144480068089 0.032904916537000249
leaf_weight=14.111897975206377 100.82232989370823 7.3128596283495417 6.7900139428675166 10.317312378436325 5.2951176837086678 2.6270434856414795 4.1226897183805686 35.108973287045956 48.027511795982718
leaf_count=33 56 156 20 161 4 1 45 85 49
internal_value=0.0237819 0.0173422 0.0204586 -0.00129065 0.0256602 0.00666057 -0.0110666 0.0280708 0.0295958
internal_weight=234.536 133.713 126.401 24.4292 101.971 12.0449 6.74973 89.9265 83.1365
internal_count=610 554 398 194 204 50 46 154 134
is_linear=0
shrinkage=0.03


Tree=65
num_leaves=11
num_cat=0
split_feature=2 93 15 90 19 58 16 25 51 76
split_gain=13.348 18.6205 20.743 9.93614 13.24 6.69077 12.4488 2.59197 10.9486 0.636308
threshold=-0.24904297714365201 -1.0000000180025095e-35 0.11377201837020971 -0.097290592492085104 0.86492314932401626 1.4796500771604941 -0.10103974902439893 0.33479717216570665 2.9292302803208612 0.41218247675046521
decision_type=2 2 2 2 2 2 2 2 2 2
left_child=9 2 -2 4 -3 7 -7 8 -5 -1
right_child=1 3 -4 5 -6 6 -8 -9 -10 -11
leaf_value=0.023650039478490828 -0.038805059819809092 -0.031610920807360124 0.02223316036039669 -0.012735087404586013 0.028930517816958642 0.029345186579212493 -0.032610081249070902 0.030998161178045977 0.030045158890431325 0.033025355686667514
leaf_weight=24.387172557413578 9.8723374009132403 6.3011069651693088 8.3423527069389802 6.9467342663556364 4.8554799556732178 5.3481392934918404 4.3996538519859296 57.971987573429942 16.733205392956734 84.897612474858761
leaf_count=29 181 147 14 58 2 3 62 51 17 46
internal_value=0.023533 0.016377 -0.0109912 0.0213259 -0.00480338 0.0245652 0.000670294 0.027339 0.0173661 0.0311938
internal_weight=230.056 120.771 18.2147 102.556 11.1566 91.3997 9.74779 81.6519 23.6799 109.285
internal_count=610 535 195 340 149 191 65 126 75 75
is_linear=0
shrinkage=0.03


Tree=66
num_leaves=10
num_cat=0
split_feature=2 41 26 1 26 16 62 7 1
split_gain=12.984 17.8912 35.9123 10.5672 4.27737 9.08185 14.1397 0.938178 0.713073
threshold=-0.24904297714365201 1.3784328358208957 0.63808837659618167 0.68831874836739526 0.37725053767596778 -0.038573285724221022 0.35122095397463526 -0.050867896587014703 0.33076324256429229
decision_type=2 2 2 2 2 2 2 2 2
left_child=7 4 3 -3 5 8 -7 -1 -2
right_child=1 2 -4 -5 -6 6 -8 -9 -10
leaf_value=0.021723603941047671 0.01790459622867966 -0.036857782558043214 0.026397367223424024 0.023490041468299805 0.031553226966131456 -0.035065442701914529 0.024963657148646297 0.03267183857934567 0.03229303762892697
leaf_weight=19.265298169106245 13.046613916754724 17.081063143908981 21.177266454324126 2.2890694141387931 39.913580872118473 5.9302789978682977 6.1933107785880566 87.659831952303648 12.979135069996117
leaf_count=25 35 358 20 1 25 74 14 50 8
internal_value=0.0233015 0.0161833 0 -0.0287758 0.0244924 0.0164112 -0.0046056 0.0309466 0.0261206
internal_weight=225.535 118.61 40.5474 19.3701 78.0629 38.1493 12.1236 106.925 26.0257
internal_count=610 535 379 359 156 131 88 75 43
is_linear=0
shrinkage=0.03


Tree=67
num_leaves=11
num_cat=0
split_feature=2 46 93 15 37 26 16 62 1 7
split_gain=12.576 17.5066 11.2832 20.295 9.05575 4.77815 9.68538 11.1107 1.24678 0.981992
threshold=-0.24904297714365201 0.0015044800395857929 -1.0000000180025095e-35 0.11377201837020971 0.8600052460153208 0.37725053767596778 -0.038573285724221022 0.35122095397463526 0.33076324256429229 -0.050867896587014703
decision_type=2 2 2 2 2 2 2 2 2 2
left_child=9 2 3 -2 -3 6 8 -8 -4 -1
right_child=1 4 5 -5 -6 -7 7 -9 -10 -11
leaf_value=0.021374641516524184 -0.038431777298117517 -0.034981762959059359 0.016021594759310719 0.028291888887757039 0.023874931146302205 0.029464277171605466 -0.034328143801555439 0.017775893909200025 0.032347564596134859 0.032466116634303016
leaf_weight=19.012612991034985 7.0644161812961084 7.7674425579607469 13.396427769213913 7.3453642576932907 2.3570718765258789 52.989778589457273 5.7493521030992287 7.1081948261708021 12.644406493753193 85.606240659952164
leaf_count=25 126 142 48 7 1 58 95 50 8 50
internal_value=0.0230875 0.0160178 0.0196406 -0.00459602 -0.0200953 0.0234823 0.0147238 -0.00610226 0.0249629 0.0307003
internal_weight=221.041 116.422 106.298 14.4098 10.1245 91.8882 38.8984 12.8575 26.0408 104.619
internal_count=610 535 392 133 143 259 201 145 56 75
is_linear=0
shrinkage=0.03


Tree=68
num_leaves=11
num_cat=0
split_feature=17 69 22 7 36 55 12 80 80 9
split_gain=12.3775 17.1042 9.2055 6.99564 12.9138 17.4574 5.9675 1.67468 1.68507 0.840645
threshold=0.045395843250400199 1.3746132373809818 7.5000000000000009 0.0083684356092756044 -0.016816975781868689 0.028888473308352019 -0.20231334747283217 -0.0020244092542619917 -0.22717355450499102 1.0853928651757174
decision_type=2 2 2 2 2 2 2 2 2 2
left_child=1 2 3 4 9 -6 -4 8 -5 -1
right_child=-2 -3 6 7 5 -7 -8 -9 -10 -11
leaf_value=0.015945785148090842 0.031250305617875784 -0.029777707340132544 0.02307696631632733 0.026517488827973491 -0.03457511326921154 0.023912979532567807 -0.027166227170157094 0.0306427909070657 0.0049996567148344337 0.029006024188776063
leaf_weight=15.761068895459177 92.282553717494011 5.9293914753943673 2.2167356014251709 6.4553345590829831 9.336223207414152 7.2880696952342978 5.4718102030456057 49.065704053267837 7.6298565063625574 15.374872626736758
leaf_count=36 56 136 1 4 151 5 124 42 40 15
internal_value=0.0228511 0.0164036 0.0189672 0.021178 0.0120191 -0.00886184 -0.0113462 0.0277626 0.0161644 0.0231902
internal_weight=216.812 124.529 118.6 110.911 47.7602 16.6243 7.68855 63.1509 14.0852 31.1359
internal_count=610 554 418 293 207 156 125 86 44 51
is_linear=0
shrinkage=0.03


Tree=69
num_leaves=10
num_cat=0
split_feature=17 69 32 18 82 33 19 76 40
split_gain=12.0991 16.4925 10.1179 12.9137 10.0453 23.2632 3.98807 2.62921 0.724196
threshold=0.045395843250400199 1.3746132373809818 3.0367593848937138 -0.15052666642839094 48.190149253731349 0.95220579418316176 0.29805297073640413 0.13840412042396308 16.380441726054418
decision_type=2 2 2 2 2 2 2 2 2
left_child=1 2 4 -4 5 -1 7 -6 -8
right_child=-2 -3 3 -5 6 -7 8 -9 -10
leaf_value=0.026851156190175567 0.031035966636674264 -0.02959256659919831 0.024783295216092894 -0.03657772214958762 0.024866223835508121 -0.036434354850822859 0.032359237774276961 -0.0069111932943051683 0.023429032945798355
leaf_weight=12.341313352808358 90.171149335801601 5.7957725170999757 4.7662521004676819 5.6669277250766736 2.6621491201221925 7.5903018740937105 36.274801740422845 5.4597298000007868 41.860676961019635
leaf_count=19 56 136 4 99 3 126 30 42 95
internal_value=0.0226255 0.0162049 0.0187387 -0.00856755 0.0215044 0.00201836 0.025898 0.00475992 0.0279694
internal_weight=212.589 122.418 116.622 10.4332 106.189 19.9316 86.2574 8.12188 78.1355
internal_count=610 554 418 103 315 145 170 45 125
is_linear=0
shrinkage=0.03


Tree=70
num_leaves=11
num_cat=0
split_feature=2 41 19 19 68 36 12 23 7 7
split_gain=12.0355 16.1931 33.2663 4.25434 2.08531 6.43168 1.41598 7.4938 6.33754 1.03701
threshold=-0.24904297714365201 1.3784328358208957 0.69468552371236791 0.29805297073640413 0.40517711886570462 -0.12671943826524082 -0.020093720164479838 0.44330549531948021 -0.14035165843201383 -0.050867896587014703
decision_type=2 2 2 2 2 2 2 2 2 2
left_child=9 3 -3 4 -2 -6 -5 8 -8 -1
right_child=1 2 -4 6 5 -7 7 -9 -10 -11
leaf_value=0.020520589009313358 0.020179088109673029 -0.033322847375100148 0.022432993604173859 0.029637666283837301 0.024046513523283145 -0.03141139578926172 0.024588929701746965 0.029363381661265807 -0.027586884088614882 0.031949247623687928
leaf_weight=17.996866196393967 2.9075684640556556 15.432337359525262 22.261961169540882 43.209707694128156 2.387542724609375 3.2476856354624033 2.4843451976776114 14.404610797762869 4.2727419827133453 79.907085880637169
leaf_count=25 5 357 22 38 1 39 1 8 64 50
internal_value=0.0223887 0.0153211 -0.000587602 0.0234827 0.00281721 -0.00737987 0.0260943 0.017713 -0.00732004 0.0301075
internal_weight=208.512 110.609 37.6943 72.9142 8.5428 5.63523 64.3714 21.1617 6.75709 97.904
internal_count=610 535 379 156 45 40 111 73 65 75
is_linear=0
shrinkage=0.03


Tree=71
num_leaves=10
num_cat=0
split_feature=17 86 82 33 73 89 87 89 30
split_gain=11.6706 20.0888 13.6302 24.153 4.43833 4.95664 7.4222 1.98973 0.491383
threshold=0.045395843250400199 0.97260055768714315 48.190149253731349 0.95220579418316176 0.035911666078292534 -5.8230972290039054 0.43713168167734778 -6.2055912017822257 23.164497375488285
decision_type=2 2 2 2 2 2 2 2 2
left_child=1 2 3 -1 7 -6 -7 -4 -9
right_child=-2 -3 4 -5 5 6 -8 8 -10
leaf_value=0.024195119115932511 0.030644584478407386 -0.032004334902160009 0.010381704110276998 -0.036959390025487628 0.02580122904561756 0.023822256438451386 -0.034594644177772048 0.031903936296003348 0.02314851884853179
leaf_weight=12.393407994881274 86.22539047151804 6.5189029145985833 8.4799621794372779 9.2617415040731412 4.686935905367136 2.3477354049682599 3.8122268533334136 36.723797472193837 33.859212405979633
leaf_count=33 56 156 24 161 6 1 43 37 93
internal_value=0.0221862 0.0157792 0.0188574 -0.00230467 0.0239567 0.00506489 -0.0116937 0.0264154 0.0281279
internal_weight=204.309 118.084 111.565 21.6551 89.9099 10.8469 6.15996 79.063 70.583
internal_count=610 554 398 194 204 50 44 154 130
is_linear=0
shrinkage=0.03


Tree=72
num_leaves=13
num_cat=0
split_feature=29 86 24 56 49 15 81 70 27 18 15 37
split_gain=11.1821 13.9564 8.94141 12.5915 5.40477 10.5959 14.227 3.39751 3.43448 6.13379 0.313321 0.879856
threshold=0.12179487179487181 0.97260055768714315 0.95338589853800093 0.953491953017371 -0.011306223249587742 0.052040425415505999 1.1666650904714764 0.2245540455573066 -0.0027267281521960386 -0.06359218107280129 0.0084015143594115289 0.3606369866180788
decision_type=2 2 2 2 2 2 2 2 2 2 2 2
left_child=1 2 7 -4 10 6 -6 -1 -9 -10 11 -2
right_child=4 -3 3 -5 5 -7 -8 8 9 -11 -12 -13
leaf_value=-0.001442412228680637 0.016879735167622315 -0.031071046039945018 -0.034651422566152078 0.020406424028537026 0.023881932829833051 0.026707382278141893 -0.042293881224453315 0.029580049648587518 0.028294031840337817 -0.010442740987288212 0.032550876705238568 0.030147809472656582
leaf_weight=4.8241163827478877 15.181602001190184 5.3273939918726674 6.0830144798383099 6.9141049310564995 4.8301287181675452 20.660457283258438 4.8984224507585168 31.065782366320491 6.5360644999891493 6.2728371936827907 69.897946245968342 17.904265452176332
leaf_count=29 29 141 135 11 5 23 75 47 7 50 43 15
internal_value=0.0219565 0.0116261 0.0157976 -0.00578247 0.0270004 0.014918 -0.00999505 0.0216179 0.0241959 0.00972397 0.0303591 0.0248215
internal_weight=200.396 67.0233 61.6959 12.9971 133.373 30.389 9.72855 48.6988 43.8747 12.8089 102.984 33.0859
internal_count=610 420 279 146 190 103 80 133 104 57 87 44
is_linear=0
shrinkage=0.03


Tree=73
num_leaves=12
num_cat=0
split_feature=2 93 15 69 58 16 12 17 19 12 7
split_gain=11.3745 15.5609 16.828 8.72174 6.39934 10.402 5.58833 2.5595 2.04513 1.19956 1.15357
threshold=-0.24904297714365201 -1.0000000180025095e-35 0.11377201837020971 1.3746132373809818 1.4796500771604941 -0.10103974902439893 0.17231169003988184 0.020800652502156857 0.17006390334375962 -0.0041515862648466495 -0.050867896587014703
decision_type=2 2 2 2 2 2 2 2 2 2 2
left_child=10 2 -2 4 7 -6 -5 8 -3 -9 -1
right_child=1 3 -4 6 5 -7 -8 9 -10 -11 -12
leaf_value=0.019524088559783003 -0.038494173110827992 0.024396307833520845 0.020097290872425951 -0.028829833184626157 0.027471623363345108 -0.030499827684786381 0.022049578694635544 0.030111551068174053 -0.0045775240786034635 0.018413223983385327 0.031458298988001288
leaf_weight=17.041890133172274 8.6182456491515023 2.5158951599150887 7.2172750383615485 4.5655162967741481 4.6255010142922401 4.5118024591356498 2.0406045913696289 46.472151225432746 4.8519834848120809 19.493372330442078 74.609185077250004
leaf_count=25 181 2 14 106 3 82 1 42 41 63 50
internal_value=0.0217323 0.0146982 -0.0120045 0.0195591 0.0222261 -0.00104243 -0.0118863 0.0251407 0.00669074 0.027026 0.0295063
internal_weight=196.563 104.912 15.8355 89.0768 82.4707 9.1373 6.60612 73.3334 7.36788 65.9655 91.6511
internal_count=610 535 195 340 233 85 107 148 43 105 75
is_linear=0
shrinkage=0.03


Tree=74
num_leaves=12
num_cat=0
split_feature=2 93 15 69 58 7 12 70 76 12 7
split_gain=11.0856 14.9378 16.2642 8.35866 6.11873 10.0702 5.42804 2.88544 2.39159 1.2991 1.19445
threshold=-0.24904297714365201 -1.0000000180025095e-35 0.11377201837020971 1.3746132373809818 1.4796500771604941 -0.14035165843201383 0.17231169003988184 0.21292003442230162 0.13840412042396308 -0.0041515862648466495 -0.050867896587014703
decision_type=2 2 2 2 2 2 2 2 2 2 2
left_child=10 2 -2 4 7 -6 -5 8 -3 -9 -1
right_child=1 3 -4 6 5 -7 -8 9 -10 -11 -12
leaf_value=0.019193614806604239 -0.038271690439831051 0.024157263064978333 0.019769162880590604 -0.028629203070987791 0.027221961426807002 -0.030276024324255597 0.021849924457502105 0.029931163824791076 -0.0076741823610524326 0.017967256845204609 0.031273791012530153
leaf_weight=16.835626725107431 8.4171539433300477 2.4750816915184251 7.1348129846155635 4.4680696753785005 4.5407160148024559 4.4196569230407459 2.0071182250976562 45.916757766157382 4.4289586078375578 19.35952615831048 72.830690257251263
leaf_count=25 181 2 14 106 6 79 1 43 40 63 50
internal_value=0.0215079 0.0145119 -0.0118773 0.0193111 0.0219393 -0.00102973 -0.011751 0.0248067 0.00497032 0.0267528 0.0292754
internal_weight=192.834 103.168 15.552 87.6159 81.1407 8.96037 6.47519 72.1803 6.90404 65.2763 89.6663
internal_count=610 535 195 340 233 85 107 148 42 106 75
is_linear=0
shrinkage=0.03


Tree=75
num_leaves=9
num_cat=0
split_feature=17 86 39 13 12 14 95 6
split_gain=11.0695 17.9976 8.01963 11.5929 5.41984 7.75014 8.06887 4.99641
threshold=0.045395843250400199 0.97260055768714315 0.044176521405754794 0.47428559532228204 -0.092104353795760915 3.5000000000000004 0.038510967321971852 -0.049708426637172225
decision_type=2 2 2 2 2 2 2 2
left_child=1 2 4 -4 -1 6 -6 -7
right_child=-2 -3 3 -5 5 7 -8 -9
leaf_value=0.030290620227438222 0.029923247814160274 -0.031732913748727873 -0.034904477169322427 0.026115408154138053 -0.042295112544113535 0.025906757873806644 0.020361921391886785 0.0072793142034065358
leaf_weight=33.560082712210715 78.868405021727085 6.0771579407155505 5.2051411308348161 4.1197880133986473 3.2773978533223262 31.469174742698666 2.3773655090481043 24.230546356178824
leaf_count=37 56 156 80 3 41 48 4 185
internal_value=0.0212845 0.0148682 0.0178892 -0.00773679 0.0204926 0.0146852 -0.0164008 0.0181276
internal_weight=189.185 110.317 104.239 9.32493 94.9146 61.3545 5.65476 55.6997
internal_count=610 554 398 83 315 278 45 233
is_linear=0
shrinkage=0.03


Tree=76
num_leaves=11
num_cat=0
split_feature=17 86 82 6 73 5 34 28 25 70
split_gain=10.8959 17.3258 12.3518 14.5437 4.27691 4.75876 5.78537 2.25726 4.4379 0.00493269
threshold=0.045395843250400199 0.97260055768714315 48.190149253731349 -0.03183447878129269 0.035911666078292534 -0.24706628991920848 -3.3893585213836612 24.853072534958709 0.39748167541544577 0.59872715168773849
decision_type=2 2 2 2 2 2 2 2 2 2
left_child=1 2 3 -1 7 -6 -7 -4 -9 -2
right_child=9 -3 4 -5 5 6 -8 8 -10 -11
leaf_value=0.016189987616261978 0.023653904612300013 -0.031548079758769894 0.030845157998091788 -0.033616721551708008 0.025280247118598043 0.018370846588855606 -0.033950673652952915 0.0062336726638538174 0.028105946727045989 0.031663733018331558
leaf_weight=12.577758092433216 22.240008637309074 5.9373555229976764 37.191601231694221 7.6205588700249782 4.1703572049736977 2.3754072040319443 3.5026374198496324 16.26867866050452 19.040286146104336 54.812200173735619
leaf_count=37 21 156 43 157 4 4 42 96 15 35
internal_value=0.0210397 0.0146415 0.0176178 -0.00315927 0.0227145 0.0036068 -0.0127738 0.0252369 0.0185601 0.0297229
internal_weight=185.737 108.685 102.747 20.1983 82.549 10.0484 5.87804 72.5006 35.309 77.0522
internal_count=610 554 398 194 204 50 46 154 111 56
is_linear=0
shrinkage=0.03


Tree=77
num_leaves=12
num_cat=0
split_feature=17 86 82 33 73 5 87 96 37 31 70
split_gain=10.6811 16.7022 11.8914 21.2837 4.09223 4.59173 5.76658 2.01109 2.73033 0.42954 0.0368396
threshold=0.045395843250400199 0.97260055768714315 48.190149253731349 0.95220579418316176 0.035911666078292534 -0.24706628991920848 0.50705179082879492 -0.14173659565915689 0.15842136566318146 -0.014019995818507503 0.59872715168773849
decision_type=2 2 2 2 2 2 2 2 2 2 2
left_child=1 2 3 -1 7 -6 -7 9 -9 -4 -2
right_child=10 -3 4 -5 5 6 -8 8 -10 -11 -12
leaf_value=0.023116829455436076 0.023369547917096525 -0.031362449247522399 0.030033757558566385 -0.036399174337080016 0.025028188744860163 0.019241642903446602 -0.03341878205056651 0.025886503796585008 0 0.019777502036651247 0.031517494924484746
