tree
version=v4
num_class=1
num_tree_per_iteration=1
label_index=0
max_feature_idx=109
objective=binary sigmoid:1
feature_names=Column_0 Column_1 Column_2 Column_3 Column_4 Column_5 Column_6 Column_7 Column_8 Column_9 Column_10 Column_11 Column_12 Column_13 Column_14 Column_15 Column_16 Column_17 Column_18 Column_19 Column_20 Column_21 Column_22 Column_23 Column_24 Column_25 Column_26 Column_27 Column_28 Column_29 Column_30 Column_31 Column_32 Column_33 Column_34 Column_35 Column_36 Column_37 Column_38 Column_39 Column_40 Column_41 Column_42 Column_43 Column_44 Column_45 Column_46 Column_47 Column_48 Column_49 Column_50 Column_51 Column_52 Column_53 Column_54 Column_55 Column_56 Column_57 Column_58 Column_59 Column_60 Column_61 Column_62 Column_63 Column_64 Column_65 Column_66 Column_67 Column_68 Column_69 Column_70 Column_71 Column_72 Column_73 Column_74 Column_75 Column_76 Column_77 Column_78 Column_79 Column_80 Column_81 Column_82 Column_83 Column_84 Column_85 Column_86 Column_87 Column_88 Column_89 Column_90 Column_91 Column_92 Column_93 Column_94 Column_95 Column_96 Column_97 Column_98 Column_99 Column_100 Column_101 Column_102 Column_103 Column_104 Column_105 Column_106 Column_107 Column_108 Column_109
feature_infos=[3.0951519012451172:90.752201690673857] [0.12386832628849136:1.1644372722359764] [0.6416070162750821:2.129214264756059] [0.011885626260501086:0.10561151205553634] [-0.82885558175978147:-0.063659248499362386] [-0.60014462039334249:1.0818536132225245] [-0.62636860904216185:0.95932239875740422] none none none none none none none none none none none none none none none none [3.0951519012451172:90.752201690673857] [3.3528844938903557:87.315651507188448] [0.21974444042181968:11.023636028228003] [-0.014946740966631554:0.011325121667722201] [0.0087578252174694404:0.10814860749775569] [-0.47048609218099419:-0.017961097735517503] [0.019807259594852758:0.29554929640273314] [-2.5641354108387415:2.1326895957828] [0.13780967365188562:1.5151522402627307] [0.12386832628849109:1.1644372722359773] [0.16802854594404845:2.3190181526883387] [0.14457145879226577:1.5137070937782131] [0.13778834014806474:1.7298536092349568] [0.65669343057170992:1.359322657754396] [0.79015024316895677:2.3044491673381668] [-0.27749930943386769:0.11844883087453646] [0.79196205732197922:1.415015916021499] [-4.5799947367451468:-1.4398990873022313] [1.5635787057263015:4.2865898799590072] [-0.3536957872533657:0.33054945054945062] [-0.61111111412244556:1.1208509423268103] [-0.69638272349066388:1.1504755510272435] [-0.76098517497744989:2.3014743999776566] [0.19261238623673474:0.79998943467433203] [-0.37935367614760757:0.30880455748058172] [0.052977908545708927:0.58767186138720684] [0.087199759035823193:0.92086517285811798] [30.92955029194631:67.640734130802457] [19.42327574238146:89.031526788433681] [1.6634148549483294:42.235044627214123] [-0.32186917432116458:0.29122942409019359] [-0.60622684155461326:0.93615584560692622] [0.869982267189369:1.2370381129644716] [1.5628879047384403:8.0967153623324393] [-12.502114810009781:11.578745049333669] [-6.4748912290986107:3.5034338260585289] [0.77977681545421318:1.267559165504996] [0.65491990936976685:1.2591630408729604] [0.4542008137867552:1.4984043377224401] [0.3812998621622371:1.5355423538595447] [-1.1113692848916199:0.30474937839169669] [-0.76748696876610722:-0.015230416105738344] [-0.87807963248468524:-0.058710226543685178] [0.013610460728805408:0.1371011237765179] [0.016228131054851876:0.32234941780365128] [3.4670588235294115:7.5815151515151511] [3.2799999999999998:7.0499999999999998] [10.294477611940298:21.224776119402986] [9.5099999999999998:25.420000000000002] [33.366060606060607:69.874411764705883] [36.939999999999998:74.129999999999995] [33.911060606060609:75.245000000000005] [1.9959090909090909:3.7994029850746269] [0.2373134328358209:1.5513636363636363] [0.20999999999999999:1.71] [1.5617910447761194:3.0395522388059701] [0.23588235294117646:0.49940298507462688] [0.11:2.2195522388059703] [3.7676470588235293:5.533823529411765] [1.7125757575757576:3.3818181818181818] [1.2775757575757574:2.6724242424242424] [-0.38285948605795517:0.30671358960476458] [-1.2400000000000002:2.0500000000000003] none [0:1] [0:0.066801619433198373] [0.0092466164060876072:0.094543284063063698] [0:0.62910508423225442] [0:1] [0:1] [0:0.2088874139568577] [0.230625:0.95374999999999999] [0.31374999999999997:0.82874999999999999] [0:6] [0:4] [0:13] [1:9] [0:1] [0.64194974589142417:0.64760775824993511] [0:1] [0:0.03430287626032702] [13:14] [0:0.12741119629545811] [0:1] [0:2.8025968497232867] [0.025000000000000001:0.095064921243082162] [0:13]
tree_sizes=1257 1184 1380 1382 1182 1279 1486 1283 1180 1279 1285 1282 1386 1176 1396 1386 1179 1281 1389 1494 1488 1181 1494 1264 1389 1496 1386 1293 1182 1200 1492 1398 1487 1290 1295 1477 1291 1176 1387 1392 1279 1081 1179 1596 1087 1289 1392 1191 1192 1289 1489 1082 1390 1188 1496 1280 1292 1290 1188 1699 1186 1489 1189 1191 1291 1195 1271 1501 1088 1175 1287 1180 1396 1386 1498 1508 1397 1509 1184 1192 1177 1396 1276 1166 1286 1487 1289 1292 1191 1166 1295 1615 1698 1297 1176 1291 1299 1300 1506 1492 1510 1501 1396 1296 1185 1197 1194 1512 1200 1504 1574 1500 1177 1596 1195 1201 1391 1612 1498 1483 1280 1200 1272 1707 1284 1294 1513 1381 1182 1204 1304 1180 1293 1209 1280 1176 1505 1302 1200 1196 1311 1402 1184 1199 1384 1287 1475 1291 1522 1508 1510 1180 1932 1716 1212 1300 1375 1724 1496 1696 1303 1374 1382 1413 1505 1615 1175 1415 1604 1498 1494 1307 1398 1420 1723 1582 1377 1271 1103 1386 1397 1511 1879 1299 1293 1099 1679 1511 1516 1298 1294 1730 1611 1098 1532 1184 1802 1606 1209 1482 1612 1604 1097 1721 1303 1318 1394 1530 1729 1719 1642 1709 1411 1508 1495 1277 1400 1535 1603 1533 1626 1626 1423 1435 1715 1185 1626 1407 1397 1581 1500 1634 1826 1702 1313 1414 1496 1413 1071 1570 1500 1544 1637 1527 1389 1405 1291 1658 1542 1610 1596 1699 1510 1708 1767 1590 1628 1478 1494 1492 1606 1395 1481 1722 1560 1780 1539 1495 1426 1687 1645 1513 1428 1390 1663 1492 1471 1480 1679 1697 1677 1575 1551 1808 1491 1413 1376 1618 1602 1309 1906 1614 1472 1398 1396 1202 1461 1566 1771 1592 1675 1601 1514 1399 1677 1699 1599 1271 1603 1597 1601 1648 1166 1690 1364 1625 1377 1743 1588 1502 1173 1782 1693 1681 1595 1282 1691 1666 1187 1302 1756 1717 1385 1676 1167 1559 1185 1599 1483 1407 1552 1787 1474 1380 1358 1695 1481 1663 1523 1718 1290 1720 1369 1705 1705 1489 1556 1268 1344 1556 1687 1704 1403 1791 1600 1551 1552 1712 1699 1782 1662 1526 1105 1407 1174 1299 1556 1438 1565 1660 1588 1508 1372 1747 1363 1479 1461 1298 1365 1418 1321 1477 1240 1588 1661 1280 1554 1705 1655 1552 1461 1566 1708 1637 1666 1366 1378 1547 1565 1170 1608 1590 1590 1442 1453 1175 1572 1541 1382 1345 1473 1681 1065 1489 1639 1483 1546 1702 1372 1640 1427 1462 1571 1569 1462 1730 1586 1543 1602 1540 1162 1608 1671 1365 1648 1443 1546 1486 1446 1633 1484 1270 1666 1654 1470 1639 1446 1595 1472 1331 1557 1470 1575 1445 1591 1408 1680 1387 1159 1461 1548 1064 1249 1266 1427 1670 1297 1566 1358 1442 1398 1160 1524 1450 1495 1286 1560 1675 1478 1449 1381 1334 1432 1456 1250 1441 1273 1530 1549 1159

Tree=0
num_leaves=11
num_cat=0
split_feature=27 76 68 90 60 60 63 57 44 44
split_gain=786.643 267.826 130.706 95.7083 39.0057 77.2386 36.9954 28.9409 16.7308 1.02089
threshold=0.027931106365554407 1.4469293239683936 3.4917548620533698 0.015762552171755682 0.91912626284218268 0.95240915399168713 -0.15674642932322741 0.1246926562994919 -0.24904297714365201 -0.17660970844499843
decision_type=2 2 2 2 2 2 2 2 2 2
left_child=1 2 3 -1 -3 -6 -4 -5 -2 -10
right_child=8 4 6 7 5 -7 -8 -9 9 -11
leaf_value=-1.6631376917409884 -1.6178648943128886 -1.6406179185493093 -1.7615829410777599 -1.850193181328577 -1.6834664143957414 -1.8475797437304327 -1.8547329550485692 -1.7462657086641982 -1.7714441806747192 -1.6773355420949019
leaf_weight=5.90466284751892 31.089425683021545 7.7670654952526119 3.2803681790828696 5.9963718056678754 5.6436442732810956 3.7177505195140839 42.454312384128571 2.6807309985160828 1.5802203714847589 15.809258490800856
leaf_count=13 47 13 17 50 16 31 354 12 8 49
internal_value=-1.73126 -1.79142 -1.82175 -1.74653 -1.69031 -1.74523 -1.84686 -1.81402 -1.63776 -1.68258
internal_weight=125.924 77.4449 60.3164 14.5818 17.1285 9.36139 45.7347 8.6771 48.4789 17.3895
internal_count=610 506 446 75 60 47 371 62 104 57
is_linear=0
shrinkage=1


Tree=1
num_leaves=10
num_cat=0
split_feature=35 80 72 5 90 44 57 64 4
split_gain=608.208 137.493 115.211 83.8425 77.9859 34.2497 30.2249 28.9652 18.1416
threshold=0.43897004552459934 0.14857769973661109 65.519423337856196 -0.05696880675912968 0.015762552171755682 -0.25717188791188278 0.1660826564331985 -0.028531463715978405 -0.39534173004085088
decision_type=2 2 2 2 2 2 2 2 2
left_child=1 3 5 -1 -4 -3 -6 -5 -2
right_child=8 2 4 7 6 -7 -8 -9 -10
leaf_value=0.13218425096034686 0.17026256192016928 0.054447053758129457 0.13939195598931775 -0.028938065272501163 -0.029439310266136692 -0.033716965816273842 0.077480637316291623 0.077634219857460843 0.11133211907702069
leaf_weight=13.549552530050279 40.503555119037628 3.4984611868858329 6.595147341489791 5.4543233960866928 6.1226689219474775 37.248212799429893 2.5738528966903687 2.5685149878263456 15.618748858571051
leaf_count=35 57 18 13 46 52 318 10 10 51
internal_value=0.0817945 0.0266849 0.00142421 0.0892012 0.0691102 -0.0249525 0.00662278 0.00967137 0.156151
internal_weight=133.733 77.6107 56.0383 21.5724 15.2917 40.7467 8.69652 8.02284 56.1223
internal_count=610 502 411 91 75 336 62 56 108
is_linear=0
shrinkage=0.03


Tree=2
num_leaves=12
num_cat=0
split_feature=33 60 79 3 99 79 38 102 68 60 2
split_gain=481.135 220.679 77.586 42.8304 42.747 27.1987 23.6261 17.1962 7.77347 6.5883 4.82521
threshold=0.48638290490404351 0.95485340012015618 0.3081156716417911 0.045395843250400199 3.5000000000000004 0.29492647058823535 0.060152313023449228 0.79797979797979812 3.4677085162423178 0.93640302618428539 1.0978735074730586
decision_type=2 2 2 2 2 2 2 2 2 2 2
left_child=1 2 10 4 -2 -6 8 -7 -3 -4 -1
right_child=3 6 9 -5 5 7 -8 -9 -10 -11 -12
leaf_value=0.079893813635057348 0.12733234821472347 0.0079747373062351769 -0.02638818738702765 0.1491197215556945 0.09165393449780021 -0.028122483657009804 0.036884165951665451 0.051466548533343516 -0.033623807786017368 0.028991981334227156 0.14452249137266771
leaf_weight=7.2775790840387407 16.182252630591396 4.0276666060090056 3.464047744870185 43.005807250738144 6.5010044574737531 4.2330444529652596 4.606135554611682 3.6011964231729507 36.08710864931345 2.4015487655997276 9.4293056726455671
leaf_count=27 35 27 29 55 20 33 28 15 312 15 14
internal_value=0.0753889 0.0169164 0.0913105 0.127921 0.0941697 0.0506766 -0.0217436 0.00980746 -0.0292818 -0.00235675 0.122641
internal_weight=140.817 67.2934 22.5725 73.5233 30.5175 14.3352 44.7209 7.83424 40.1148 5.8656 16.7069
internal_count=610 452 85 158 103 68 367 48 339 44 41
is_linear=0
shrinkage=0.03


Tree=3
num_leaves=12
num_cat=0
split_feature=35 76 73 94 61 89 2 36 3 44 44
split_gain=393.351 162.881 104.835 65.6056 34.2289 29.0875 18.6763 41.4012 8.86845 0.995522 1.28326
threshold=0.43897004552459934 1.4469293239683936 69.015000000000015 0.26750000000000007 0.85761369831245149 0.05721406605471125 1.0978735074730586 0.84122314482017713 0.04415370956325048 -0.29669277957832207 0.073419218196925665
decision_type=2 2 2 2 2 2 2 2 2 2 2
left_child=1 2 4 -4 -1 -5 7 -3 9 -2 -11
right_child=8 6 3 5 -6 -7 -8 -9 -10 10 -12
leaf_value=0.054316784151864701 0.11892860459479851 0.11062591308146502 0.1221700739319535 -0.02970784305103236 -0.033596164883334743 0.073321195761692048 0.12848652312365341 -0.00088953986578120135 0.1325424786217701 0.045562845160081286 0.087087567900703877
leaf_weight=3.4937787577509871 5.1394132524728802 5.5140334367752093 7.353604435920718 6.3955994769930822 39.81627706438303 2.6987915635108948 9.2597846537828428 5.4213033467531204 49.180859744548798 6.1678660064935666 6.7383243143558502
leaf_count=17 6 11 11 54 351 10 12 36 58 26 18
internal_value=0.0700148 0.0244712 -0.000808613 0.0614428 -0.0253708 0.00480391 0.0959255 0.0596472 0.122984 0.0911839 0.0721621
internal_weight=147.18 79.9532 59.7581 16.448 43.3101 9.09439 20.1951 10.9353 67.2265 18.0456 12.9062
internal_count=610 502 443 75 368 64 59 47 108 50 44
is_linear=0
shrinkage=0.03


Tree=4
num_leaves=10
num_cat=0
split_feature=33 60 76 99 4 45 72 40 102
split_gain=334.688 184.523 49.2335 45.7236 29.8132 92.612 13.0586 24.4816 11.6879
threshold=0.48638290490404351 0.96426324433407407 1.4469293239683936 4.5000000000000009 -0.39534173004085088 -0.024896196242027737 65.519423337856196 -2.2281258803052926 1.0000000180025095e-35
decision_type=2 2 2 2 2 2 2 2 2
left_child=1 2 3 -1 -2 -6 -3 -8 -7
right_child=4 6 -4 -5 5 8 7 -9 -10
leaf_value=0.080041025938663676 0.11932404322500531 -0.033218560695869585 0.10754793005161684 -0.029533915070120279 -0.030186391839202284 0.11911788034423126 -0.029062072234181776 0.065916113630941506 0.060423139250493696
leaf_weight=5.664510540664196 55.371864624321461 32.282543450593948 15.795084580779076 6.2084093019366264 5.5748934596776989 14.556987315416338 5.3968652561306953 2.9542659446597082 8.8558515533804876
leaf_count=21 63 293 29 53 41 21 45 11 33
internal_value=0.0655705 0.0157711 0.0741879 0.0246674 0.105198 0.0750362 -0.0247601 0.00767219 0.100424
internal_weight=152.661 68.3017 27.668 11.8729 84.3596 28.9877 40.6337 8.35113 23.4128
internal_count=610 452 103 74 158 95 349 56 54
is_linear=0
shrinkage=0.03


Tree=5
num_leaves=11
num_cat=0
split_feature=33 60 70 76 4 90 39 1 4 48
split_gain=284.945 168.192 43.3128 35.9791 23.6551 71.3949 15.3687 22.5521 6.62606 1.36995
threshold=0.48638290490404351 0.96426324433407407 13.875905698778835 1.4469293239683936 -0.39534173004085088 0.034381800501385638 0.91326547916200085 0.26625025207665065 -0.22961009737929042 0.13086853600699991
decision_type=2 2 2 2 2 2 2 2 2 2
left_child=1 2 9 -4 -2 -6 7 -3 -7 -1
right_child=4 6 3 -5 5 8 -8 -9 -10 -11
leaf_value=0.0689103952576266 0.10893371718761441 -0.027580947057861564 -0.029297373112806595 0.075563422534445479 0.095353269490730364 -0.029499049457213985 -0.033198364208365097 0.067029133641384492 0.022049353267115424 0.11377058734982227
leaf_weight=9.7411582171917015 58.871402114629745 4.4521085992455474 5.9400898367166501 4.1593374460935593 22.801168926060203 4.666877560317519 32.495538510382175 2.9084203019738197 2.7478546947240794 8.9852883890271169
leaf_count=31 63 40 51 8 47 33 298 11 15 13
internal_value=0.0615695 0.0152457 0.06926 0.0165352 0.096684 0.069996 -0.0244858 0.0129901 -0.00968893 0.0952635
internal_weight=157.769 68.6819 28.8259 10.0994 89.0873 30.2159 39.8561 7.36053 7.41473 18.7264
internal_count=610 452 103 59 158 95 349 51 48 44
is_linear=0
shrinkage=0.03


Tree=6
num_leaves=13
num_cat=0
split_feature=49 60 41 3 99 76 47 75 59 69 56 50
split_gain=240.024 104.6 57.0017 27.3031 44.8909 25.7896 16.9131 13.2404 10.1087 9.22743 5.5237 5.00025
threshold=0.26867621880952808 0.95485340012015618 1.8243766127516874 0.045395843250400199 7.5000000000000009 1.3579411764705884 -0.12511153378865761 2.8683582089552244 0.93486019762355255 3.4200000000000004 3.004044797786857 53.678317054536741
decision_type=2 2 2 2 2 2 2 2 2 2 2 2
left_child=1 5 -3 4 7 6 -1 -2 -9 -4 -10 -6
right_child=3 2 9 -5 11 -7 -8 8 10 -11 -12 -13
leaf_value=-0.026477001968077361 0.095413196778809037 0.059940842693438509 0.015357720774353972 0.10175670756490451 -0.027503862084201889 0.089697688291061478 0.057068858960443856 0.078818259144867148 0.00066996561106188524 -0.033199232972048215 0.047052447685282425 0.018906313169571084
leaf_weight=3.5137840509414682 19.873665437102318 6.935625582933425 3.2525353878736487 57.487117111682892 3.532723866403102 13.647294923663139 3.291561558842659 5.6039834320545188 4.8125596046447736 33.701006419956684 3.7565858513116837 2.878984123468399
leaf_count=30 34 25 20 55 26 25 12 13 30 313 13 14
internal_value=0.0580947 0.0127202 -0.0134792 0.0874416 0.0650653 0.0670888 0.015682 0.0784334 0.0497075 -0.0285543 0.0241091 -0.00652078
internal_weight=162.287 64.3418 43.8892 97.9456 40.4585 20.4526 6.80535 34.0468 14.1731 36.9535 8.56915 6.41171
internal_count=610 425 358 185 130 67 42 90 56 333 43 40
is_linear=0
shrinkage=0.03


Tree=7
num_leaves=11
num_cat=0
split_feature=33 60 77 51 4 103 61 39 68 34
split_gain=216.642 142.711 32.2448 41.7862 17.3335 51.7333 19.7074 14.8533 20.3875 1.81078
threshold=0.48638290490404351 0.96426324433407407 1.4000000000000001 47.272449296664689 -0.39534173004085088 0.023953421452680205 1.2444108732971986 0.91326547916200085 3.5530235187697881 0.42849704699049224
decision_type=2 2 2 2 2 2 2 2 2 2
left_child=1 2 3 -1 -2 9 -7 8 -3 -6
right_child=4 7 -4 -5 5 6 -8 -9 -10 -11
leaf_value=-0.029610062260475793 0.093835242823392687 0.062202712890221279 0.085883637670959356 0.072850686225351832 0.054390639373721392 -0.03089486386567249 0.049651344329900704 -0.032930066730636323 -0.027141474742591171 0.094720997832730136
leaf_weight=6.4432957172393817 64.494318202137947 3.0712240412831298 18.345315515995026 6.0148462876677513 7.305925257503989 5.8049460276961309 3.5670876950025558 31.142814569175243 4.3279694616794586 15.752608865499495
leaf_count=56 63 10 29 18 22 41 10 298 41 22
internal_value=0.0550548 0.0142049 0.0613797 0.0213729 0.083807 0.0615638 0.00130391 -0.0240209 0.0125765 0.0848592
internal_weight=166.27 69.3455 30.8035 12.4581 96.9249 32.4306 9.37203 38.542 7.39919 23.0585
internal_count=610 452 103 74 158 95 51 349 51 44
is_linear=0
shrinkage=0.03


Tree=8
num_leaves=10
num_cat=0
split_feature=35 60 34 62 51 51 51 44 65
split_gain=188.1 95.5135 68.143 45.883 25.823 14.6652 21.8629 1.90831 7.71133
threshold=0.43897004552459934 0.95485340012015618 0.39958818341812458 1.0156171063720258 50.066445880232187 71.457255771338183 73.809467422328296 -0.25717188791188278 -0.35088000751930765
decision_type=2 2 2 2 2 2 2 2 2
left_child=1 3 5 4 -1 -3 -7 -2 -9
right_child=7 2 -4 -5 -6 6 -8 8 -10
leaf_value=-0.030051913454471755 0.089844181796648395 -0.032978014539408539 0.057184437765905836 0.080386920712587448 0.064489569688634271 0.064872524899464143 -0.027494667774185317 0.046142596646465389 0.084870721183677625
leaf_weight=6.5788855999708158 56.065708816051483 32.266047492623329 10.923113562166689 23.655812039971352 2.9559387564659119 2.960694193840026 4.5625848993659019 14.246750816702844 15.501165628433226
leaf_count=55 47 311 37 38 8 10 43 38 23
internal_value=0.0523566 0.0200008 -0.00596052 0.0587694 0.00231202 -0.0243458 0.0118498 0.0833626 0.0685247
internal_weight=169.717 83.9031 50.7124 33.1906 9.53482 39.7893 7.52328 85.8136 29.7479
internal_count=610 502 401 101 63 364 53 108 61
is_linear=0
shrinkage=0.03


Tree=9
num_leaves=11
num_cat=0
split_feature=33 60 70 76 4 94 65 39 1 98
split_gain=169.2 122.523 28.9755 27.0743 14.5796 49.6919 23.4095 14.357 19.1484 4.25291
threshold=0.48638290490404351 0.96426324433407407 13.875905698778835 1.4469293239683936 -0.39534173004085088 0.28031250000000008 -0.19821829386430864 0.91326547916200085 0.26625025207665065 8.5000000000000018
decision_type=2 2 2 2 2 2 2 2 2 2
left_child=1 2 9 -4 -2 -6 -7 8 -3 -1
right_child=4 7 3 -5 5 6 -8 -9 -10 -11
leaf_value=0.049043990410715332 0.08296711739173758 -0.027086081408393366 -0.029082227926144014 0.059238466505453086 0.077134001458046525 -0.031644985332688939 0.055407380421240257 -0.032642583606744956 0.059262944123221542 0.089318205354168692
leaf_weight=9.7400043010711688 68.829050377011299 4.2176807746291152 5.7644960060715658 4.837473064661026 24.221587464213371 6.9244898185133916 3.281095489859581 29.708069480955601 3.1790775880217552 12.050120964646338
leaf_count=28 63 40 51 8 38 49 8 298 11 16
internal_value=0.0499373 0.0134101 0.0552353 0.0125907 0.0741288 0.0545309 -0.00094293 -0.0235155 0.0123069 0.0743895
internal_weight=172.753 69.4969 32.3921 10.602 103.256 34.4272 10.2056 37.1048 7.39676 21.7901
internal_count=610 452 103 59 158 95 57 349 51 44
is_linear=0
shrinkage=0.03


Tree=10
num_leaves=11
num_cat=0
split_feature=33 60 70 60 51 51 4 103 45 98
split_gain=151.169 113.926 25.5423 25.6888 14.0216 19.4634 12.9629 41.6149 17.9798 3.53298
threshold=0.48638290490404351 0.96426324433407407 13.875905698778835 0.87158760011545877 71.457255771338183 73.809467422328296 -0.39534173004085088 0.023953421452680205 0.36795451767087289 8.5000000000000018
decision_type=2 2 2 2 2 2 2 2 2 2
left_child=1 2 9 -4 -3 -6 -2 -8 -9 -1
right_child=6 4 3 -5 5 -7 7 8 -10 -11
leaf_value=0.046701441257613087 0.078426509602263009 -0.032530894535985309 0.056678940675216324 -0.029254107952288548 0.059867907305908463 -0.026987542388941081 0.071463634088355529 -0.031268992581208584 0.044236211015746797 0.083718568518166156
leaf_weight=9.968262657523157 70.658014684915543 28.914916485548019 4.9787312522530538 5.6149559244513512 3.1349114105105391 4.3385692685842514 25.381772607564926 6.0327142775058729 3.757378101348877 12.52958809584379
leaf_count=28 63 296 10 49 10 43 44 42 9 16
internal_value=0.0477702 0.0130616 0.0526015 0.0122785 -0.0232608 0.0118574 0.0701935 0.0518602 -0.000598467 0.0701303
internal_weight=175.31 69.4799 33.0915 10.5937 36.3884 7.47348 105.83 35.1719 9.79009 22.4979
internal_count=610 452 103 59 349 53 158 95 51 44
is_linear=0
shrinkage=0.03


Tree=11
num_leaves=11
num_cat=0
split_feature=33 60 70 77 51 77 48 94 27 48
split_gain=135.834 106.148 22.6862 24.3153 13.6959 18.3105 12.3683 24.9209 21.1878 2.20976
threshold=0.48638290490404351 0.96426324433407407 13.875905698778835 1.4000000000000001 71.457255771338183 0.40000000000000008 0.1906179449244203 0.26031250000000006 0.029142208777186169 0.13086853600699991
decision_type=2 2 2 2 2 2 2 2 2 2
left_child=1 2 9 -4 -3 -6 7 -2 -9 -1
right_child=6 4 3 -5 5 -7 -8 8 -10 -11
leaf_value=0.047715042042233015 0.07125255487932626 -0.032384641507880625 -0.028743778398251287 0.054843879293863675 0.057166741596540976 -0.026799257984297331 0.072452523072830455 -0.030448066413438599 0.046179017172512833 0.080121662565054971
leaf_weight=11.823303736746313 12.232458069920542 28.189611047506332 5.5650576800107938 5.0238685309886932 3.2349954694509497 4.2567975148558617 84.855826869606972 5.4084464684128744 5.6004510745406151 11.317745879292486
leaf_count=31 16 296 51 8 10 43 91 39 12 13
internal_value=0.0457982 0.0127306 0.0502002 0.0119655 -0.0230109 0.0115668 0.0666928 0.0434185 0.00888321 0.066351
internal_weight=177.509 69.4114 33.73 10.5889 35.6814 7.49179 108.097 23.2414 11.0089 23.141
internal_count=610 452 103 59 349 53 158 67 51 44
is_linear=0
shrinkage=0.03


Tree=12
num_leaves=12
num_cat=0
split_feature=4 74 49 1 90 2 27 51 75 99 44
split_gain=123.625 74.1437 26.1532 25.187 22.4298 29.1168 11.6521 9.66752 5.03675 1.74161 4.48403
threshold=-0.23267893591572383 61.568585481682504 0.26867621880952808 0.41008422983810094 0.026926260618375174 1.3313596305293507 0.030646526594427553 70.395130069918039 3.0632089552238813 5.5000000000000009 -0.35625052520031947
decision_type=2 2 2 2 2 2 2 2 2 2 2
left_child=2 6 3 -1 -3 7 -2 -6 9 -4 -11
right_child=1 4 8 -5 5 -7 -8 -9 -10 10 -12
leaf_value=-0.029040805248905562 -0.032511532482230307 0.061641274557544506 0.074304017663176347 0.051365634534267485 -0.031197792596093059 0.068901057683667624 0.030760408269412485 0.02917376225974878 0.044011605952859703 0.07156477901415069 0.039317976320233428
leaf_weight=5.1548961251974088 25.712343700230125 17.110806316137317 64.773735299706459 7.3226268067955971 8.2535156160593015 4.2448720112442961 2.0704137384891501 2.2956929951906195 15.793056741356848 11.686131715774538 14.945799171924589
leaf_count=46 266 41 61 18 75 4 5 11 35 8 40
internal_value=0.0440007 0.00847284 0.061478 0.0182343 0.0391495 0.0106898 -0.0267873 -0.0164116 0.0662686 0.0695638 0.0556543
internal_weight=179.364 59.6876 119.676 12.4775 31.9049 14.7941 27.7828 10.5492 107.199 91.4057 26.6319
internal_count=610 402 208 64 131 90 271 86 144 109 48
is_linear=0
shrinkage=0.03


Tree=13
num_leaves=10
num_cat=0
split_feature=35 76 68 31 64 2 60 4 0
split_gain=112.633 65.2714 65.3837 32.761 26.743 9.43863 24.8313 3.84597 6.44176
threshold=0.43897004552459934 1.4469293239683936 3.4917548620533698 0.28357342786260653 -0.33039206510253999 1.0978735074730586 0.92588271214004358 -0.49088167148593659 21.025650978088382
decision_type=2 2 2 2 2 2 2 2 2
left_child=1 2 3 -1 -4 6 -3 -2 -9
right_child=7 5 4 -5 -6 -7 -8 8 -10
leaf_value=-0.027412181698416905 0.071560069983769209 0.066475994017049289 0.041693003905202468 0.061459260469441501 -0.032917470598628172 0.07263612527347639 -0.0093240244276632557 0.063797961994928737 0.034252824374567885
leaf_weight=4.1476330235600498 55.438938841223717 7.6291061937809008 4.0294973999261847 15.360990330576895 34.160346262156963 13.272325329482554 6.5749585554003716 24.414055086672306 15.972293958067892
leaf_count=37 38 8 16 38 352 12 39 30 40
internal_value=0.0423456 0.0169007 -0.00136747 0.0420031 -0.0241056 0.0540689 0.0328859 0.0645233 0.0532957
internal_weight=181 85.1749 57.6985 19.5086 38.1898 27.4764 14.2041 95.8253 40.3863
internal_count=610 502 443 75 368 59 47 108 70
is_linear=0
shrinkage=0.03


Tree=14
num_leaves=12
num_cat=0
split_feature=4 103 56 28 49 1 4 61 61 2 40
split_gain=103.077 56.1689 33.6702 33.6139 22.0823 22.2282 4.36942 18.0194 26.7541 3.40411 2.01301
threshold=-0.23267893591572383 0.023953421452680205 2.5044591227316264 -0.037383733355164532 0.26867621880952808 0.41008422983810094 -0.49088167148593659 0.96934943197879819 0.82460400994303995 1.1026380388748305 -2.1743634779882099
decision_type=2 2 2 2 2 2 2 2 2 2 2
left_child=4 2 3 -2 5 -1 -6 8 -8 -4 -9
right_child=1 -3 9 -5 6 -7 7 10 -10 -11 -12
leaf_value=-0.028754183658797994 -0.031376831034328159 -0.032008266632054888 0.034233734033516899 0.044552329225689476 0.068419320751299001 0.046827292199576855 0.049128095993822021 0.047807865970212693 -0.031365240013255746 0.068267107900860033 0.071531075377632175
leaf_weight=4.9800656288862211 11.555549353361132 19.83104894310236 9.0961586982011813 8.0143051669001562 56.218155264854431 7.6255179792642593 9.0578544586896879 18.977650627493855 4.9981264919042578 10.73547291010618 21.076689742505554
leaf_count=46 116 216 29 26 39 18 16 36 34 15 19
internal_value=0.0408573 0.00809637 0.0286482 0.000226299 0.0564254 0.0168282 0.0607309 0.0515919 0.0201243 0.0551938 0.0618024
internal_weight=182.167 59.2325 39.4015 19.5699 122.934 12.6056 110.328 54.1103 14.056 19.8316 40.0543
internal_count=610 402 186 142 208 64 144 105 50 44 55
is_linear=0
shrinkage=0.03


Tree=15
num_leaves=12
num_cat=0
split_feature=99 4 72 35 90 2 40 57 4 34 76
split_gain=104.503 66.76 58.6327 27.5892 16.0298 17.4994 11.2666 6.30484 3.73947 13.3017 5.74335
threshold=7.5000000000000009 -0.23267893591572383 56.573763003166 0.73561529332712527 0.049939818224454507 1.2954444680009389 -1.5576240941308725 0.056664862957603583 -0.39534173004085088 0.34228904362789209 1.1053844414292178
decision_type=2 2 2 2 2 2 2 2 2 2 2
left_child=1 8 6 -2 7 -6 -3 -4 -1 -10 -11
right_child=3 2 4 -5 5 -7 -8 -9 9 10 -12
leaf_value=0.065496835408285284 -0.033732620445282663 -0.031870613647737689 0.031840981703701796 0.052833438017615468 -0.028474166338374626 0.052446685511780014 0.031669831817815457 0.071460882613043869 0.00041941664891424264 0.032719455592864627 0.065420288647782404
leaf_weight=76.131062686443329 19.477371655404571 16.415504895150665 9.3371325731277519 3.0059348344802848 4.7629924342036238 3.1265438497066498 2.0657757446169844 12.045432448387144 4.684926100075244 11.447418391704558 20.604292273521423
leaf_count=59 178 178 35 2 45 4 7 15 31 32 24
internal_value=0.0394695 0.0479245 0.0176144 -0.0202743 0.0434958 0.0055489 -0.0233532 0.0564896 0.0604549 0.0484679 0.0551751
internal_weight=183.104 160.621 47.7534 22.4833 29.2721 7.88954 18.4813 21.3826 112.868 36.7366 32.0517
internal_count=610 430 284 180 99 49 185 50 146 87 56
is_linear=0
shrinkage=0.03


Tree=16
num_leaves=10
num_cat=0
split_feature=99 4 72 31 36 33 40 75 35
split_gain=97.1109 61.1364 54.9189 26.5458 16.9385 20.5155 11.7633 3.83934 14.0517
threshold=7.5000000000000009 -0.23267893591572383 56.573763003166 0.74910473689237944 0.94501696972639648 0.5176388122115968 -1.4764207968096197 3.0367593848937138 0.51031175765334691
decision_type=2 2 2 2 2 2 2 2 2
left_child=1 7 6 -2 -4 -6 -3 -1 -9
right_child=3 2 4 -5 5 -7 -8 8 -10
leaf_value=0.061286810942711038 -0.033527971504190575 -0.03172465984347847 0.05555863430625594 0.051342997711594653 -0.028319220528731492 0.058815082761351466 0.034520309742265699 0.0063608895238544856 0.059192243133031029
leaf_weight=94.038208924233913 19.021370902657512 16.188959918916229 21.236838810145859 3.0290603637695304 5.4814652204513532 2.8900038003921509 1.9226142689585675 7.4309835806489017 12.469626694917677
leaf_count=101 178 180 41 2 56 2 5 36 9
internal_value=0.0382026 0.0462366 0.0171648 -0.0200175 0.0418412 0.00450739 -0.0230972 0.0581311 0.0408565
internal_weight=183.709 161.659 47.7199 22.0504 29.6083 8.37147 18.1116 113.939 19.9006
internal_count=610 430 284 180 99 58 185 146 45
is_linear=0
shrinkage=0.03


Tree=17
num_leaves=11
num_cat=0
split_feature=99 33 60 27 68 54 76 36 48 48
split_gain=90.3656 47.607 74.1883 25.5571 10.9017 13.9841 6.22648 4.38707 1.94124 3.13275
threshold=7.5000000000000009 0.48638290490404351 0.96517975331594308 0.046740633074918769 3.4917548620533698 0.12900893032038921 1.4469293239683936 0.87256056419235473 0.1906179449244203 0.14746532700319939
decision_type=2 2 2 2 2 2 2 2 2 2
left_child=1 2 6 -2 5 -4 7 -1 9 -3
right_child=3 8 4 -5 -6 -7 -8 -9 -10 -11
leaf_value=0.052149176984703061 -0.033328154196131582 0.05565712380365366 -0.026430372038103229 0.049950017719189672 -0.031025008826871828 0.047989493926139666 0.060781544587680446 0.010700019770243225 0.059304884801027087 0.027375936893789716
leaf_weight=3.2243486270308512 18.574109829962257 10.142954893410208 3.5977822542190578 3.0477172136306754 16.594602786004543 3.5318444222211838 21.006041541695595 7.1615828946232796 85.327898353338242 11.90643013268709
leaf_count=5 178 16 33 2 200 9 21 40 75 31
internal_value=0.0370054 0.0446529 0.0213534 -0.0197679 -0.0181972 0.0114347 0.0509752 0.0272815 0.0562773 0.042366
internal_weight=184.115 162.493 55.1162 21.6218 23.7242 7.12963 31.392 10.3859 107.377 22.0494
internal_count=610 430 308 180 242 42 66 45 122 47
is_linear=0
shrinkage=0.03


Tree=18
num_leaves=12
num_cat=0
split_feature=99 35 76 68 63 27 94 57 40 25 23
split_gain=84.3121 42.9231 36.9477 45.7279 26.0787 24.6189 14.7317 17.422 4.92372 1.9675 0.0531511
threshold=7.5000000000000009 0.43897004552459934 1.4469293239683936 3.4917548620533698 -0.16559814004746531 0.046740633074918769 0.26750000000000007 0.34652845263158483 -3.758505215055695 0.36265273653578706 23.164497375488285
decision_type=2 2 2 2 2 2 2 2 2 2 2
left_child=1 2 3 6 -5 -2 -1 -8 -3 -10 -4
right_child=5 8 10 4 -6 -7 7 -9 9 -11 -12
leaf_value=0.062525993618283954 -0.033132918073639772 -0.013994829797696794 0.062326358795338592 0.047417493642904492 -0.032046809519285027 0.048645295620364376 -0.028027983713856619 0.052950840592837202 -0.0050740831842053654 0.057297082615484773 0.041570849842245558
leaf_weight=10.973977714776995 18.135576061904434 0.45975516736507316 10.763735905289652 3.5221954137086895 21.147838927805424 3.0621658563613883 4.4887101352214804 3.2422949001193047 0.21197029948234458 92.599380135536194 15.638686098158358
leaf_count=11 178 2 8 7 237 2 40 6 1 83 35
internal_value=0.035909 0.0432092 0.0247963 0.00730465 -0.0191794 -0.0195251 0.0415875 0.00776493 0.0565432 0.0570701 0.0521076
internal_weight=184.246 163.049 69.7774 43.375 24.67 21.1977 18.705 7.73101 93.2711 92.8114 26.4024
internal_count=610 430 344 301 244 180 57 46 86 84 43
is_linear=0
shrinkage=0.03


Tree=19
num_leaves=13
num_cat=0
split_feature=99 4 72 27 36 27 40 4 61 44 34 99
split_gain=78.8681 49.4596 46.5407 23.7273 13.3242 17.8959 11.1712 4.35926 25.5312 4.01993 1.13309 0.444595
threshold=7.5000000000000009 -0.23267893591572383 56.573763003166 0.046740633074918769 0.94501696972639648 0.026846346881972346 -1.44295705787183 -0.39534173004085088 0.96934943197879819 -0.17660970844499843 0.42849704699049224 3.5000000000000004
decision_type=2 2 2 2 2 2 2 2 2 2 2 2
left_child=1 7 6 -2 11 -6 -3 -1 9 -9 -10 -4
right_child=3 2 4 -5 5 -7 -8 8 10 -11 -12 -13
leaf_value=0.057403534551229776 -0.032942022244961448 -0.031528397349249532 0.058094579438883034 0.047420696326451975 -0.027935313758379248 0.053382590830492384 0.033451351549786207 0.011587822066900622 0.038557589391196599 -0.029246311581724124 0.060415963910239096 0.035658875619102748
leaf_weight=77.491619527339935 17.705745086073879 15.364671312272549 11.332511283457285 3.0726598501205435 5.2273066714405996 2.9970200061798096 1.9044931679964072 3.2742530778050423 14.144221924245359 3.4981475770473471 17.358854293823242 10.675972871482371
leaf_count=59 178 181 12 2 56 2 4 17 31 25 14 29
internal_value=0.0349051 0.0418958 0.0155957 -0.0192887 0.0376275 0.00394712 -0.0227593 0.0524357 0.0410961 -0.0101674 0.0521825 0.0493646
internal_weight=184.047 163.269 47.502 20.7784 30.2328 8.22433 17.2692 115.767 38.2755 6.7724 31.5031 22.0085
internal_count=610 430 284 180 99 58 185 146 87 42 45 41
is_linear=0
shrinkage=0.03


Tree=20
num_leaves=13
num_cat=0
split_feature=99 4 72 27 90 55 67 4 49 76 52 52
split_gain=73.9125 45.8512 43.8932 22.879 12.1566 13.681 10.9845 4.25366 10.9571 3.65914 2.45005 1.28673
threshold=7.5000000000000009 -0.23267893591572383 56.573763003166 0.046740633074918769 0.049939818224454507 1.0622300060145091 0.062160210670970988 -0.39534173004085088 0.23995666443918959 1.1664450474898238 15.930501989346469 25.373414499347913
decision_type=2 2 2 2 2 2 2 2 2 2 2 2
left_child=1 7 6 -2 10 -6 -3 -1 -9 -10 -4 -12
right_child=3 2 4 -5 5 -7 -8 8 9 -11 11 -13
leaf_value=0.055677290538812423 -0.032755239350843568 -0.031327132136898861 0.061391631563914695 0.046269022161657472 -0.028525666726487306 0.042500596584487307 0.033504665126835274 -0.0021300366668425934 0.030927415682905253 0.055948447034714889 0.016909503196969818 0.04219773047077361
leaf_weight=77.527506664395332 17.284580186009411 15.042881503701212 9.2602229118347221 3.0794445276260367 4.4479247927665702 3.4159325733780861 1.8717262521386135 4.7202770486474028 15.796558775007723 17.958045661449432 5.6524816080927831 7.5961114838719368
leaf_count=59 178 181 9 2 43 6 4 28 41 18 25 16
internal_value=0.0339719 0.0406793 0.0152635 -0.0190584 0.0364455 0.00330263 -0.0225158 0.0507952 0.0397205 0.0455522 0.0472639 0.0335631
internal_weight=183.654 163.29 47.2873 20.364 30.3727 7.86386 16.9146 116.002 38.4749 33.7546 22.5088 13.2486
internal_count=610 430 284 180 99 49 185 146 87 59 50 41
is_linear=0
shrinkage=0.03


Tree=21
num_leaves=10
num_cat=0
split_feature=99 33 60 35 51 76 51 35 50
split_gain=69.3359 35.4508 59.6118 22.0709 13.2934 4.99585 10.668 2.29266 0.0708159
threshold=7.5000000000000009 0.48638290490404351 0.96517975331594308 0.73561529332712527 71.457255771338183 1.4469293239683936 50.066445880232187 0.43897004552459934 47.995632415801047
decision_type=2 2 2 2 2 2 2 2 2
left_child=1 2 5 -2 -4 6 -1 -3 -9
right_child=3 7 4 -5 -6 -7 -8 8 -10
leaf_value=-0.0050000582666770805 -0.032572351389049167 0.033036434004475146 -0.03113202595479269 0.045183864508056948 0.018367494000617178 0.05354789886849716 0.05123985347732813 0.055097075117998169 0.043184597513836222
leaf_weight=5.5042534023523313 16.872034795582298 15.079630888998507 16.547336503863338 3.0827571153640738 5.9225529059767714 21.552556559443474 5.1496434584259987 62.557960018515587 30.903232410550117
leaf_count=36 178 37 205 2 37 21 9 45 40
internal_value=0.0330845 0.0395263 0.0192378 -0.0188339 -0.0177306 0.0448776 0.0239907 0.0494501 0.0516888
internal_weight=183.172 163.217 54.6763 19.9548 22.4699 32.2065 10.6539 108.541 93.4612
internal_count=610 430 308 180 242 66 45 122 85
is_linear=0
shrinkage=0.03


Tree=22
num_leaves=13
num_cat=0
split_feature=99 4 74 31 36 35 67 4 61 66 34 99
split_gain=65.0811 40.0754 40.3312 21.3002 11.0946 16.1471 10.2837 4.35746 23.1105 4.21454 1.27067 0.530698
threshold=7.5000000000000009 -0.23267893591572383 61.568585481682504 0.74910473689237944 0.94501696972639648 0.43184732950069221 0.062160210670970988 -0.39534173004085088 0.96934943197879819 0.035786168934935039 0.42849704699049224 3.5000000000000004
decision_type=2 2 2 2 2 2 2 2 2 2 2 2
left_child=1 7 6 -2 11 -6 -3 -1 9 -9 -10 -4
right_child=3 2 4 -5 5 -7 -8 8 10 -11 -12 -13
leaf_value=0.052706170769559017 -0.032393150345738635 -0.031194512729453443 0.053312123889301732 0.044159523394707287 -0.027661096248063493 0.049722433593604537 0.031322569522170475 0.011195486872960634 0.03470668919538264 -0.030452530274209678 0.055421685216129724 0.032321081357353149
leaf_weight=77.239110052585602 16.468051962554458 14.529281526803972 11.551932349801069 3.0828253030776969 5.039252504706381 3.0530755519866943 1.9179788380861271 3.2981630340218535 14.385643444955351 3.5744030624628067 17.592378258705139 10.85391156375408
leaf_count=59 178 181 12 2 56 2 4 20 31 22 14 29
internal_value=0.0322307 0.0384226 0.0145321 -0.0186148 0.0345981 0.00346187 -0.0223548 0.0478514 0.037044 -0.0112012 0.0475288 0.0450871
internal_weight=182.586 163.035 46.9454 19.5509 30.4982 8.09233 16.4473 116.09 38.8506 6.87257 31.978 22.4058
internal_count=610 430 284 180 99 58 185 146 87 42 45 41
is_linear=0
shrinkage=0.03


Tree=23
num_leaves=11
num_cat=0
split_feature=99 33 60 31 39 76 47 44 78 33
split_gain=61.2404 30.984 53.5932 20.5645 14.4313 4.52621 4.63292 1.43957 3.10446 18.9324
threshold=7.5000000000000009 0.48638290490404351 0.96517975331594308 0.74910473689237944 0.91371385099862967 1.4469293239683936 -0.12511153378865761 -0.29345352597269042 2.8340377657168703 0.6822868948957167
decision_type=2 2 2 2 2 2 2 2 2 2
left_child=1 2 5 -2 -4 6 -1 -3 9 -9
right_child=3 7 4 -5 -6 -7 -8 8 -10 -11
leaf_value=0 -0.032217437684995798 0.051267908812213568 0.022190332604952887 0.04319089611346473 -0.030974924829391421 0.050574855828366162 0.037876718713444536 -0.0037009726135780385 0.05384459303661937 0.046001071644422131
leaf_weight=4.6655951142311078 16.07256639003754 62.255942150950432 5.356216304004195 3.0798683166503897 16.494393013417721 21.675546571612358 6.090370386838913 9.1990965083241445 12.935292758047579 23.878679394721985
leaf_count=29 178 46 29 2 213 21 16 39 12 25
internal_value=0.0314544 0.0374235 0.0183534 -0.0184008 -0.0174105 0.0423389 0.0225964 0.0467016 0.0395005 0.0323877
internal_weight=181.704 162.551 54.2821 19.1524 21.8506 32.4315 10.756 108.269 46.0131 33.0778
internal_count=610 430 308 180 242 66 45 122 76 64
is_linear=0
shrinkage=0.03


Tree=24
num_leaves=12
num_cat=0
split_feature=99 35 60 72 27 77 85 54 58 25 58
split_gain=57.6768 29.5209 28.7859 38.841 19.8616 7.4561 8.42211 6.71532 4.89776 1.59137 1.52795
threshold=7.5000000000000009 0.43897004552459934 0.96517975331594308 65.519423337856196 0.046740633074918769 1.4000000000000001 -0.25999999999999973 0.09771977405064565 -0.055848147595191071 0.36265273653578706 -6.4188524055351417
decision_type=2 2 2 2 2 2 2 2 2 2 2
left_child=1 2 5 -4 -2 6 -1 -5 -8 -3 -11
right_child=4 9 3 7 -6 -7 8 -9 -10 10 -12
leaf_value=0.039847395109360091 -0.032045023900266333 -0.005347758256247049 -0.031013386185101504 0.0082458258692024878 0.042273415810339367 0.047703675028590756 -0.027675395065485581 0.049698063348579388 0.019156037947382413 -0.0049749896347115368 0.047962934087184758
leaf_weight=5.7875213325023633 15.685504645109178 0.21645362675189872 16.524754419922829 6.6158616617321995 3.0740954875946036 25.44842965900898 3.5130700469017011 8.5659802481532079 2.6344683840870875 0.21028132736682792 92.445542350411415
leaf_count=12 178 1 217 36 2 26 29 13 11 1 84
internal_value=0.0307146 0.0364745 0.0210812 0 -0.0181917 0.0385549 0.0166359 0.0334455 -0.00731426 0.0475475 0.0477589
internal_weight=180.722 161.962 69.0901 31.7066 18.7596 37.3835 11.9351 15.1818 6.14754 92.8723 92.6558
internal_count=610 430 344 266 180 78 52 49 40 86 85
is_linear=0
shrinkage=0.03


Tree=25
num_leaves=13
num_cat=0
split_feature=99 4 74 31 40 57 26 61 4 61 44 34
split_gain=54.3293 33.6937 34.6091 19.1893 9.85077 6.51626 11.5231 5.36138 4.38845 20.5452 4.39066 1.32908
threshold=7.5000000000000009 -0.23267893591572383 61.568585481682504 0.74910473689237944 -1.44295705787183 0.056664862957603583 -0.00086532313934291002 1.1442403157997534 -0.39534173004085088 0.96934943197879819 -0.20312119884185245 0.42849704699049224
decision_type=2 2 2 2 2 2 2 2 2 2 2 2
left_child=1 8 4 -2 -3 6 -4 -8 -1 10 -10 -11
right_child=3 2 5 -5 -6 -7 7 -9 9 11 -12 -13
leaf_value=0.049034341880148248 -0.031875726476413728 -0.031055763134822129 0.039068322831800055 0.04140297725082006 0.030027861655081194 0.044304507366242134 -0.028825083780652832 0.019782978393400697 0.012709051171529966 0.031454411179393633 -0.030021992982820527 0.051192933112933256
leaf_weight=76.088150054216385 15.306786522269251 13.665905281901356 7.2531239613890666 3.0657073259353629 1.9610624313354499 16.445154190063477 4.6181724369525909 2.2736086547374725 3.0107767432928085 14.485477231442927 3.8516234904527655 17.635577395558357
leaf_count=59 178 181 14 2 4 30 46 9 13 31 29 14
internal_value=0.0299928 0.0355539 0.0134402 -0.0179873 -0.0218649 0.031692 0.0148732 -0.0119343 0.0442174 0.0337493 -0.0116608 0.0436006
internal_weight=179.661 161.289 46.217 18.3725 15.627 30.5901 14.1449 6.89178 115.072 38.9835 6.8624 32.1211
internal_count=610 430 284 180 185 99 69 55 146 87 42 45
is_linear=0
shrinkage=0.03


Tree=26
num_leaves=12
num_cat=0
split_feature=99 4 72 4 40 64 4 45 0 60 65
split_gain=51.2646 31.7548 32.73 18.5458 9.56466 5.76647 4.32678 20.6187 4.23463 4.3551 0.318278
threshold=7.5000000000000009 -0.23267893591572383 56.573763003166 -0.5010437710879444 -1.44295705787183 -0.13273524551230034 -0.39534173004085088 -0.078725271321450283 34.351463317871101 0.92861734847754451 -0.25063641300612194
decision_type=2 2 2 2 2 2 2 2 2 2 2
left_child=1 6 4 -2 -3 -4 -1 -8 -7 -10 -9
right_child=3 2 5 -5 -6 8 7 10 9 -11 -12
leaf_value=0.047917075760489411 0.040575886496883318 -0.030906919450112827 -0.00038017809556123948 -0.031709371584557638 0.029267047151059707 0.045945117933593599 -0.012804401319029726 0.033046892408387714 0.04265914828979607 0.0033948952049481008 0.049456625521421632
leaf_weight=75.557650342583656 3.0548950433731106 13.329666234552857 4.3898182362318066 14.936325047165154 1.9774224311113364 15.631980910897257 6.8017264679074279 15.971856437623499 3.2126815319061262 7.3935622535645962 16.186158888041973
leaf_count=59 2 181 34 178 4 24 38 32 3 38 17
internal_value=0.0293247 0.0347032 0.0131579 -0.0177872 -0.0216314 0.0307738 0.0431308 0.0328065 0.0359188 0.0181975 0.0426394
internal_weight=178.444 160.453 45.9351 17.9912 15.3071 30.628 114.517 38.9597 26.2382 10.6062 32.158
internal_count=610 430 284 180 185 99 146 87 65 41 49
is_linear=0
shrinkage=0.03


Tree=27
num_leaves=11
num_cat=0
split_feature=99 4 103 27 64 90 55 24 40 44
split_gain=48.3972 29.9692 28.4625 17.9294 15.8008 12.5932 11.5085 4.51792 10.8444 0.295709
threshold=7.5000000000000009 -0.23267893591572383 0.023953421452680205 0.046740633074918769 -0.13644077343855457 0.049939818224454507 1.0622300060145091 32.210823950220338 -2.2193947679389496 -0.24904297714365201
decision_type=2 2 2 2 2 2 2 2 2 2
left_child=1 7 4 -2 -3 -6 -7 9 -9 -1
right_child=3 2 -4 -5 5 6 -8 8 -10 -11
leaf_value=0.04820033185950677 -0.031545792277438083 -0.026066344156685767 -0.029833468133844736 0.039788806478257235 0.042960410274551608 -0.029613735371852488 0.035179763339521573 0.0013422566317264309 0.044937665891968015 0.037114386380715278
leaf_weight=63.89061226695776 14.574027203023435 3.9428340345621065 9.9536384344100934 3.041840434074401 23.825226206332452 4.457452278584241 3.5018775090575218 9.1699626594781893 11.30939634144306 29.536729738116264
leaf_count=50 178 50 142 2 45 40 7 32 12 52
internal_value=0.0286811 0.0338852 0.0128882 -0.0175912 0.0253604 0.0324318 -2.68505e-05 0.0420942 0.0265281 0.0451575
internal_weight=177.204 159.588 45.681 17.6159 35.7274 31.7846 7.95933 113.907 20.4794 93.4273
internal_count=610 430 284 180 142 92 47 146 44 102
is_linear=0
shrinkage=0.03


Tree=28
num_leaves=10
num_cat=0
split_feature=4 103 90 98 33 44 95 76 2
split_gain=44.3808 40.4621 25.7213 35.99 15.1122 9.27582 8.86638 13.5896 6.82032
threshold=-0.39534173004085088 0.023953421452680205 0.010481857124605271 8.5000000000000018 0.86492314932401626 -0.22740332921346559 0.65937500000000016 1.4469293239683936 1.3385573792200252
decision_type=2 2 2 2 2 2 2 2 2
left_child=-1 2 -2 8 5 -3 7 -5 -4
right_child=1 4 3 6 -6 -7 -8 -9 -10
leaf_value=0.044662363252332811 0.044080263981459471 0.023353328449034545 -0.032971634581895337 -0.027054997670599414 0.035299281457445916 -0.032564297527338193 0.053714902768023258 0.036020848220925064 0.01640010081450019
leaf_weight=78.869707502424717 34.496483128517866 2.2601821832358899 13.60061665996909 3.9531044028699416 3.3141107708215705 20.530186526477337 9.3760351762175542 7.2554760277271271 2.3171747066080561
leaf_count=72 48 8 137 43 3 267 9 15 8
internal_value=0.0280375 0.0141861 0.0258532 0.00783167 -0.0172183 -0.0261442 0.03339 0.0131353 -0.0250626
internal_weight=175.973 97.1034 70.9989 36.5024 26.1045 22.7904 20.5846 11.2086 15.9178
internal_count=610 538 260 212 278 275 67 58 145
is_linear=0
shrinkage=0.03


Tree=29
num_leaves=10
num_cat=0
split_feature=4 103 90 89 77 45 26 49 45
split_gain=42.0205 38.3294 23.9959 23.4896 22.2801 13.1514 9.07784 5.32159 0.0866702
threshold=-0.39534173004085088 0.023953421452680205 0.010481857124605271 0.065680957985488023 1.5650000000000002 0.92434385746329628 -0.0026225530769067771 0.36305912410129199 0.040787681928615933
decision_type=2 2 2 2 2 2 2 2 2
left_child=-1 2 8 4 7 6 -3 -4 -2
right_child=1 5 3 -5 -6 -7 -8 -9 -10
leaf_value=0.043708177075952245 0.033773230081535752 0.022816052810788114 -0.03234283568375125 0.049687997431145714 0.027520631862615066 0.029107694794325789 -0.032664568369483608 0.0098740648333166363 0.048991297996290345
leaf_weight=78.205600015819073 16.807349238544703 2.2634765878319802 15.020397800952198 8.0873235650360566 10.405315630137922 3.7799438983201972 19.559708815068007 2.6260282769799224 17.670123867690563
leaf_count=72 31 8 165 11 27 11 259 9 17
internal_value=0.0274653 0.0139187 0.0252477 0.0077027 -0.00559209 -0.0169898 -0.0260312 -0.0257069 0.0428183
internal_weight=174.425 96.2197 70.6165 36.1391 28.0517 25.6031 21.8232 17.6464 34.4775
internal_count=610 538 260 212 201 278 267 174 48
is_linear=0
shrinkage=0.03


Tree=30
num_leaves=13
num_cat=0
split_feature=99 35 76 82 61 27 94 89 40 25 58 55
split_gain=42.2347 22.6254 19.514 20.1667 21.7623 16.26 13.4203 15.5591 3.91139 1.42025 1.17663 1.02892
threshold=7.5000000000000009 0.43897004552459934 1.4469293239683936 1.8938838893766465 0.8139767944928864 0.046740633074918769 0.26750000000000007 0.065680957985488023 -3.758505215055695 0.36265273653578706 -6.4188524055351417 1.0268418251164715
decision_type=2 2 2 2 2 2 2 2 2 2 2 2
left_child=1 2 3 6 -5 -2 -1 -8 -3 -10 -11 -4
right_child=5 8 11 4 -6 -7 7 -9 9 10 -12 -13
leaf_value=0.044525564796675542 -0.031289849389817104 -0.01695019726299072 0.024921606494390791 0.043888410692999931 -0.031642068738449478 0.037445657539467901 -0.02937928590212165 0.042159137578293475 -0.0056845477710490196 -0.0042081316703879356 0.042616375494648008 0.044069987764465815
leaf_weight=11.764202900230886 13.745923023670914 0.44919262826442619 10.570046681910755 3.3502187877893475 16.002925913780928 2.9851458072662345 6.1594848036766034 3.4246750995516777 0.22159919142722984 0.19607116281986137 88.162924647331238 15.863821893930433
leaf_count=15 178 2 29 4 214 2 62 6 1 1 82 14
internal_value=0.026913 0.0317643 0.0181254 0.00473483 -0.0169057 -0.0174367 0.0243657 -0.00196521 0.0417002 0.042217 0.042433 0.0377101
internal_weight=172.896 156.165 67.1354 40.7015 19.3531 16.7311 21.3484 9.58416 89.0298 88.5806 88.359 26.4339
internal_count=610 430 344 301 218 180 83 68 86 84 83 43
is_linear=0
shrinkage=0.03


Tree=31
num_leaves=12
num_cat=0
split_feature=4 103 90 98 45 62 95 77 2 45 4
split_gain=38.3566 34.9166 21.4647 32.0222 12.3228 10.5908 7.48438 12.0196 7.05579 0.0954163 0.0672336
threshold=-0.39534173004085088 0.023953421452680205 0.010481857124605271 8.5000000000000018 0.92434385746329628 0.82010497615962585 0.65937500000000016 1.4000000000000001 1.358161379259347 0.040787681928615933 -0.51603910310417744
decision_type=2 2 2 2 2 2 2 2 2 2 2
left_child=10 2 9 8 5 -3 7 -5 -4 -2 -1
right_child=1 4 3 6 -6 -7 -8 -9 -10 -11 -12
leaf_value=0.045621312430829862 0.032054904943596377 0.031090973384407194 -0.032702508262569492 -0.026528086085215136 0.027905553107800594 -0.032593904921875909 0.049910358517490608 0.033588757107664936 0.019256872989926611 0.046665891235959163 0.035153160456000594
leaf_weight=46.693638920783997 16.740476336330175 1.8153464049100936 13.080737225711344 3.7477063275873679 3.7532052658498278 19.158067565411329 9.3740258291363698 7.2464613616466522 2.0588717572391024 17.563682608306408 29.962164670228958
leaf_count=33 31 3 139 43 11 264 9 15 6 17 39
internal_value=0.0263923 0.0133385 0.0241231 0.00732011 -0.0167475 -0.0257811 0.0312994 0.0123427 -0.0246952 0.0407306 0.0420737
internal_weight=171.194 94.5386 69.812 35.5078 24.7266 20.9734 20.3682 10.9942 15.1396 34.3042 76.6558
internal_count=610 538 260 212 278 267 67 58 145 48 72
is_linear=0
shrinkage=0.03


Tree=32
num_leaves=13
num_cat=0
split_feature=99 4 72 31 40 90 2 24 40 52 76 55
split_gain=38.4112 23.9157 24.7485 15.1965 7.96519 7.75215 10.7961 4.05508 9.52104 2.30135 0.936039 0.178363
threshold=7.5000000000000009 -0.23267893591572383 56.573763003166 0.74910473689237944 -1.44295705787183 0.049939818224454507 1.3313596305293507 32.210823950220338 -2.2193947679389496 15.930501989346469 0.85731343283582107 0.99166307748788596
decision_type=2 2 2 2 2 2 2 2 2 2 2 2
left_child=1 7 4 -2 -3 9 -7 10 -9 -4 -1 -11
right_child=3 2 5 -5 -6 6 -8 8 -10 11 -12 -13
leaf_value=0.030320060679598769 -0.031054061410012278 -0.030334290121101323 0.047021049411868653 0.03603359387588774 0.025042866597858881 -0.028699485849217974 0.036094298599582929 -3.9617182868025915e-05 0.040675959893180937 0.02973455386707716 0.043424867865984235 0.015246610912472728
leaf_weight=19.621830739080906 13.141434028744699 11.721136093139647 9.3933625817298942 2.9364973306655875 2.0073840618133536 4.2900106869637957 3.1137259006500244 8.8337065726518649 10.97420836240053 5.6492510810494405 69.99846800416708 7.7586606219410896
leaf_count=36 178 181 9 2 4 46 3 32 12 10 66 31
internal_value=0.0259081 0.0305327 0.0113957 -0.0172329 -0.0208828 0.0263618 -4.0284e-05 0.0380159 0.0232447 0.0347023 0.040955 0.0231992
internal_weight=169.44 153.362 43.9335 16.0779 13.7285 30.205 7.40374 109.428 19.8079 22.8013 89.6203 13.4079
internal_count=610 430 284 180 185 99 49 146 44 50 102 41
is_linear=0
shrinkage=0.03


Tree=33
num_leaves=11
num_cat=0
split_feature=99 4 103 27 64 0 6 4 45 34
split_gain=36.4137 22.5744 21.4966 14.7162 12.7922 6.76017 16.2857 4.27434 17.4401 3.5996
threshold=7.5000000000000009 -0.23267893591572383 0.023953421452680205 0.046740633074918769 -0.13644077343855457 36.423034667968757 -0.01419624830142424 -0.39534173004085088 -0.078725271321450283 0.4076856459417022
decision_type=2 2 2 2 2 2 2 2 2 2
left_child=1 7 4 -2 -3 -6 -7 -1 -9 -10
right_child=3 2 -4 -5 5 6 -8 8 9 -11
leaf_value=0.042018958420442939 -0.030898780691843011 -0.025611987090003323 -0.02897276636002474 0.035445005368530479 0.038657148589236502 0.036225827007865044 -0.029554966839878249 -0.014323897268196741 0.019335967546961891 0.044310837996095385
leaf_weight=70.526453942060471 12.821120731532572 3.7190096639096692 8.5742897912859899 2.9126671552658072 19.343017030507333 7.0323591902852032 4.8731687776744375 6.7745084837079039 10.821956634521486 20.44957660138607
leaf_count=59 178 50 142 2 35 12 45 38 30 19
internal_value=0.0254093 0.0299037 0.0112152 -0.0170536 0.0216845 0.0280261 0.00886423 0.0372004 0.027344 0.0366279
internal_weight=167.848 152.114 43.5418 15.7338 34.9676 31.2485 11.9055 108.572 38.046 31.2715
internal_count=610 430 284 180 142 92 57 146 87 49
is_linear=0
shrinkage=0.03


Tree=34
num_leaves=11
num_cat=0
split_feature=4 103 90 89 76 33 6 43 4 56
split_gain=33.9113 30.9325 18.6754 19.4433 18.8572 12.3191 8.53582 4.65475 0.372822 0.240939
threshold=-0.39534173004085088 0.023953421452680205 0.010481857124605271 0.065680957985488023 1.5418758480325645 0.86492314932401626 -0.1814349257564741 -0.1977484134145456 -0.49088167148593659 2.499126344646744
decision_type=2 2 2 2 2 2 2 2 2 2
left_child=8 2 9 4 7 6 -3 -4 -1 -2
right_child=1 5 3 -5 -6 -7 -8 -9 -10 -11
leaf_value=0.04304270886418099 0.028262553791156334 0.023234980365226712 0.0067999883929860481 0.044801608514458031 0.024586826486674776 0.031126095348892189 -0.032045366890554774 -0.032316622276368015 0.031665190738170278 0.042954755663960502
leaf_weight=50.61832383275032 13.385441344231365 2.0969842821359697 2.845000788569453 8.0423509515821916 10.184183351695539 3.2224449068307868 18.236960869282484 13.536723736673592 23.440092854201794 20.438828140497208
leaf_count=39 29 5 15 11 27 3 270 159 33 19
internal_value=0.0249304 0.0125054 0.0226541 0.00672495 -0.00590034 -0.0165769 -0.0253819 -0.0253503 0.0399515 0.0382052
internal_weight=166.047 91.9889 68.4325 34.6083 26.5659 23.5564 20.3339 16.3817 74.0584 33.8243
internal_count=610 538 260 212 201 278 275 174 72 48
is_linear=0
shrinkage=0.03


Tree=35
num_leaves=13
num_cat=0
split_feature=99 4 72 27 40 36 27 75 1 44 3 4
split_gain=33.4356 20.7355 21.5402 13.8058 7.31071 6.97765 11.042 4.26228 10.9665 1.78631 0.7771 0.595975
threshold=7.5000000000000009 -0.23267893591572383 56.573763003166 0.046740633074918769 -1.44295705787183 0.94501696972639648 0.026846346881972346 3.0367593848937138 0.53836300804655679 -0.24904297714365201 0.023673437905457891 -0.25148216251645644
decision_type=2 2 2 2 2 2 2 2 2 2 2 2
left_child=1 7 4 -2 -3 10 -7 9 -9 -1 -4 -11
right_child=3 2 5 -5 -6 6 -8 8 -10 11 -12 -13
leaf_value=0.043441702302294209 -0.030712061198387312 -0.030003074693142655 0.022025927025368097 0.034209681294331974 0.023429425758420434 -0.027238335635732747 0.037914001637933493 -0.0060496487701494645 0.038613566819865559 0.024939259404514347 0.039875213431573471 0.038668523287254966
leaf_weight=52.028912425041199 12.305769350379704 10.934927683323616 10.572556219995027 2.85540747642517 2.0050601065158871 4.642992138862609 3.0008785724639893 7.763772755861285 11.163854286074637 22.308486506342888 11.558868475258349 13.066649332642553
leaf_count=40 178 181 27 2 4 56 2 36 9 42 14 19
internal_value=0.0244952 0.0288147 0.0107283 -0.0169391 -0.0204217 0.0245868 0 0.0358848 0.0207587 0.0388545 0.0327988 0.0310166
internal_weight=164.208 149.047 42.7153 15.1612 12.94 29.7753 7.64387 106.332 18.9276 87.404 22.1314 35.3751
internal_count=610 430 284 180 185 99 58 146 45 101 41 61
is_linear=0
shrinkage=0.03


Tree=36
num_leaves=11
num_cat=0
split_feature=99 44 83 90 31 84 103 63 31 65
split_gain=31.7722 18.3336 19.8325 16.664 13.3781 12.8458 9.929 14.8016 4.73385 1.06819
threshold=7.5000000000000009 -0.24904297714365201 1.4567910447761196 0.049939818224454507 0.74910473689237944 0.2082778046442452 0.023953421452680205 0.10891431852900225 0.48310908644186795 -0.25063641300612194
decision_type=2 2 2 2 2 2 2 2 2 2
left_child=1 -1 -3 6 -2 8 9 -8 -5 -4
right_child=4 2 3 5 -6 -7 7 -9 -10 -11
leaf_value=0.040082616254543228 -0.030560251750743662 -0.029739153836759808 0.022826941718136529 -0.031259789710558157 0.033690228350417246 0.023729870668792143 -0.034304781532004384 0.030925645036194167 0.013795557306403266 0.040323831656853
leaf_weight=65.86160746961832 12.005401488393543 6.1978819705545893 9.7373634390532882 8.7468170188367367 2.8282791376113883 9.2079268209636194 4.264066878706215 6.7158129476010799 1.9484529122710235 34.899390377104289
leaf_count=62 178 86 32 111 2 23 45 16 5 50
internal_value=0.0240643 0.0282737 0.0183504 0.0226733 -0.0167663 -0.000754675 0.0309756 0.00459385 -0.0223174 0.0371565
internal_weight=162.413 147.579 81.7177 75.5198 14.8337 19.9032 55.6166 10.9799 10.6953 44.6368
internal_count=610 430 368 282 180 139 143 61 116 82
is_linear=0
shrinkage=0.03


Tree=37
num_leaves=10
num_cat=0
split_feature=4 99 83 74 90 53 98 3 4
split_gain=30.3851 23.9574 19.8857 21.8417 10.7245 11.7309 9.47486 1.0647 0.547422
threshold=-0.39534173004085088 7.5000000000000009 1.4567910447761196 50.062313432835829 0.049939818224454507 -0.013275788556496325 1.5000000000000002 0.026425743284302534 -0.51603910310417744
decision_type=2 2 2 2 2 2 2 2 2
left_child=8 2 -2 6 7 -6 -4 -5 -1
right_child=1 -3 3 4 5 -7 -8 -9 -10
leaf_value=0.0420150466690997 -0.030031861298938912 -0.029529900159180725 0.021794048837980348 0.024660753410947447 0.023600324168538838 -0.029630958889444198 -0.032002532092807921 0.039877788001978255 0.030943180664699036
leaf_weight=42.930607318878174 6.3745267540216437 10.204493239521979 3.48541761189699 14.311511583626269 10.069539085030554 4.6154232323169699 7.9594243839383125 32.387494429945946 28.27979189902544
leaf_count=33 88 167 9 42 33 51 96 52 39
internal_value=0.0236193 0.0117198 0.0173737 0.0219142 0.0289636 0.0058562 -0.0149434 0.035892 0.038149
internal_weight=160.618 89.4078 79.2033 72.8288 61.384 14.685 11.4448 46.699 71.2104
internal_count=610 538 371 283 178 84 105 94 72
is_linear=0
shrinkage=0.03


Tree=38
num_leaves=12
num_cat=0
split_feature=4 103 90 98 43 1 66 95 76 4 56
split_gain=29.2228 25.9286 15.9625 25.9267 9.73357 7.4744 7.38022 6.02684 5.92914 0.633755 0.403508
threshold=-0.39534173004085088 0.023953421452680205 0.010481857124605271 8.5000000000000018 -0.11836232995487699 0.8600052460153208 0.01413962654555192 0.65937500000000016 1.5418758480325645 -0.49088167148593659 2.499126344646744
decision_type=2 2 2 2 2 2 2 2 2 2 2
left_child=9 2 10 6 -3 -6 -4 8 -5 -1 -2
right_child=1 4 3 7 5 -7 -8 -9 -10 -11 -12
leaf_value=0.040807090021321824 0.025550130363064243 0.019953557346030448 0.024742335033345979 -0.010534388442985893 -0.032071166258849475 0.026258077195386378 -0.03238210641076552 0.044279336051612113 0.030930112932929979 0.029098263313292017 0.040064528532269009
leaf_weight=47.606612302362919 13.184373807162045 4.4537530131638077 1.5848866626620282 5.4659846387803572 16.162059668451551 1.4220544099807728 12.321533448994158 9.1153560578823072 5.0488838776946068 22.659603372216225 19.8230851739645
leaf_count=39 29 18 3 49 259 1 142 9 9 33 19
internal_value=0.0231788 0.011466 0.0207588 0.00577519 -0.0161468 -0.0260335 -0.0244474 0.0274781 0.010072 0.0375346 0.035277
internal_weight=158.848 88.582 66.5441 33.5366 22.0379 17.5841 13.9064 19.6302 10.5149 70.2662 33.0075
internal_count=610 538 260 212 278 260 145 67 58 72 48
is_linear=0
shrinkage=0.03


Tree=39
num_leaves=12
num_cat=0
split_feature=99 4 72 27 60 36 27 4 45 34 3
split_gain=28.0322 18.2865 18.2771 12.1395 7.11478 6.05162 9.85469 3.86827 14.962 3.13661 0.782685
threshold=7.5000000000000009 -0.23267893591572383 56.573763003166 0.046740633074918769 0.94516999902169829 0.94501696972639648 0.026846346881972346 -0.39534173004085088 -0.078725271321450283 0.4076856459417022 0.023673437905457891
decision_type=2 2 2 2 2 2 2 2 2 2 2
left_child=1 7 4 -2 -3 10 -7 -1 -9 -10 -4
right_child=3 2 5 -5 -6 6 -8 8 9 -11 -12
leaf_value=0.038381664839545464 -0.03028257450102402 0.023930884190801041 0.019685592461093027 0.032000298428376373 -0.02993130467479101 -0.027027196424781411 0.035320495970383205 -0.014675703708258207 0.01681796451781184 0.040362161282000743 0.03679014528982829
leaf_weight=65.013093322515488 11.277685884386299 1.8876301273703564 10.434460878372198 2.7269333600997916 10.261213634163139 4.4736091792583457 2.9089425802230835 6.5892290845513335 10.443256281316282 19.545143269002438 11.319664701819418
leaf_count=59 178 6 27 2 179 56 2 38 30 19 14
internal_value=0.0228082 0.0267836 0.00954243 -0.0166307 -0.0201508 0.0222807 -0.000819622 0.0335997 0.0242251 0.0330672 0.0299434
internal_weight=156.881 142.876 41.2855 14.0046 12.1488 29.1367 7.38255 101.591 36.5776 29.9884 21.7541
internal_count=610 430 284 180 185 99 58 146 87 49 41
is_linear=0
shrinkage=0.03


Tree=40
num_leaves=11
num_cat=0
split_feature=44 99 75 33 64 48 33 55 64 76
split_gain=26.9374 22.8033 17.9713 13.2117 10.396 18.4037 7.75549 7.04113 2.94592 1.24155
threshold=-0.24904297714365201 7.5000000000000009 2.9419293239683939 0.86492314932401626 -0.16973151913454002 0.21912302673844383 0.29805297073640413 1.0594123983562949 -0.079537313817831481 1.0312053369516059
decision_type=2 2 2 2 2 2 2 2 2 2
left_child=9 2 4 -4 5 -2 7 -6 -8 -1
right_child=1 -3 3 -5 6 -7 8 -9 -10 -11
leaf_value=0.026358357630247735 -0.031548858266477693 -0.02961900276254047 -0.031101956051866858 0.033965956986038458 -0.027661949877961722 0.026979675671066121 0.040531007509187443 0.026833566523935634 0.019786226544841346 0.040203042945463167
leaf_weight=18.526398852467537 7.1396823115646866 9.8337406441569311 9.8306046798825246 2.8444323539733878 3.2275819890201083 10.894130066037176 28.958215363323681 3.3082939982414246 12.697286572307354 47.662385694682598
leaf_count=32 86 167 142 2 34 14 37 6 47 43
internal_value=0.0224337 0.0113765 0.0168303 -0.0148645 0.023072 0.00321019 0.0302272 0 0.0348901 0.0368225
internal_weight=154.923 88.734 78.9002 12.675 66.2252 18.0338 48.1914 6.53588 41.6555 66.1888
internal_count=610 535 368 144 224 100 124 40 84 75
is_linear=0
shrinkage=0.03


Tree=41
num_leaves=9
num_cat=0
split_feature=4 74 34 76 41 48 95 4
split_gain=25.9294 20.4378 14.1413 15.3479 11.3153 9.81146 7.40457 0.907414
threshold=-0.39534173004085088 50.062313432835829 0.36834233511652487 1.5418758480325645 1.8283397533419843 0.26587902250495826 0.36375000000000007 -0.51603910310417744
decision_type=2 2 2 2 2 2 2 2
left_child=7 5 3 4 -3 -2 -6 -1
right_child=1 2 -4 -5 6 -7 -8 -9
leaf_value=0.04010569697053129 -0.031598278994466864 0.023851515351249495 0.03322439392110535 0.028297638363758894 0.0076431527042999789 0.021994238953332051 -0.031471216599424319 0.028375722580431851
leaf_weight=40.14974045753479 12.095587555319069 6.2566827610135105 29.447164367884398 15.752278745174406 5.616785645484927 3.1683960109949103 13.347890507429836 27.138099744915962
leaf_count=33 184 23 52 33 35 4 207 39
internal_value=0.0220585 0.0108627 0.0176944 0.00593611 -0.00846217 -0.0196211 -0.0199338 0.0359036
internal_weight=152.973 85.6848 70.4208 40.9736 25.2214 15.264 18.9647 67.2878
internal_count=610 538 350 298 265 188 242 72
is_linear=0
shrinkage=0.03


Tree=42
num_leaves=10
num_cat=0
split_feature=4 74 83 94 98 48 52 52 4
split_gain=24.941 19.4806 21.8905 10.8921 20.0281 9.51743 7.11478 3.46933 0.992729
threshold=-0.39534173004085088 50.062313432835829 1.4567910447761196 0.26750000000000007 8.5000000000000018 0.26587902250495826 13.105065697189959 17.918909120573385 -0.49088167148593659
decision_type=2 2 2 2 2 2 2 2 2
left_child=8 5 -3 -4 6 -2 -5 -6 -1
right_child=1 2 3 4 7 -7 -8 -9 -10
leaf_value=0.038952745585044045 -0.031429004887126397 -0.029882543164915346 0.03622321118227808 0.011399919730178964 0.038442305781094484 0.021596697155891301 -0.031385070317818835 0.01052094623861111 0.026558108242662828
leaf_weight=44.47871245443821 11.805682357400654 7.0025755278766146 29.179424375295639 4.6470644548535338 12.667544998228552 3.1486249417066565 8.844838719815014 7.5490295402705661 21.83269477635622
leaf_count=39 184 115 41 23 17 4 106 48 33
internal_value=0.0216807 0.010658 0.0173198 0.0230082 0.0107683 -0.0194225 -0.0166717 0.0291449 0.0353716
internal_weight=151.156 84.8448 69.8905 62.8879 33.7085 14.9543 13.4919 20.2166 66.3114
internal_count=610 538 350 235 194 188 129 65 72
is_linear=0
shrinkage=0.03


Tree=43
num_leaves=14
num_cat=0
split_feature=99 4 72 27 60 90 55 75 62 57 44 4 0
split_gain=24.2683 15.8255 15.8062 10.7093 6.36362 5.29382 7.60788 4.28893 7.03943 3.14222 2.06045 0.346588 1.36026
threshold=7.5000000000000009 -0.23267893591572383 56.573763003166 0.046740633074918769 0.94629939493293191 0.049939818224454507 1.0622300060145091 3.0632089552238813 0.61665342214783381 0.056664862957603583 -0.24904297714365201 -0.25148216251645644 11.458348751068117
decision_type=2 2 2 2 2 2 2 2 2 2 2 2 2
left_child=1 7 4 -2 -3 9 -7 10 -9 -4 -1 12 -12
right_child=3 2 5 -5 -6 6 -8 8 -10 -11 11 -13 -14
leaf_value=0.039481954526797376 -0.029990228096529334 0.021543063205185863 0.011698473320907614 0.029968572214246078 -0.029664713704857352 -0.028220900398075052 0.027895496639232898 0.035350070721605391 -0.0030317926274970302 0.037094584137201417 0.031422421841627475 0.033546042799522391 0.01382767682278927
leaf_weight=46.098519131541252 10.464262597262858 1.9130675420165051 9.0135366432368809 2.577759623527526 9.4954842254519445 3.6715793795883647 3.0584657415747643 7.1738767623901358 8.498718183487652 12.570592463016508 8.6316373944282514 12.267274539917709 13.765706047415732
leaf_count=40 178 7 35 2 178 43 6 6 35 15 10 20 35
internal_value=0.0213269 0.0250798 0.00875006 -0.0166355 -0.0197919 0.0206356 -0.00202111 0.0316165 0.0154235 0.0276096 0.0344951 0.0268583 0.0217899
internal_weight=149.2 136.158 39.7227 13.042 11.4086 28.3142 6.73005 96.4357 15.6726 21.5841 80.7631 34.6646 22.3973
internal_count=610 430 284 180 185 99 49 146 41 50 105 65 45
is_linear=0
shrinkage=0.03


Tree=44
num_leaves=9
num_cat=0
split_feature=3 75 45 72 55 66 60 60
split_gain=20.9659 16.0902 11.9416 11.0406 13.5928 8.87152 14.8113 11.9101
threshold=0.045395843250400199 3.0367593848937138 -0.44768142216556284 46.089328358208967 0.95220579418316176 0.034168031773422113 0.95240915399168713 1.0903483199492821
decision_type=2 2 2 2 2 2 2 2
left_child=1 3 -3 4 -1 6 -5 -8
right_child=-2 2 -4 5 -6 -7 7 -9
leaf_value=0.029611571303099334 0.035574824904735985 0.027318159532770378 -0.032726412222092757 0.029838344268061378 -0.031977671197808713 0.033643213576121295 -0.022097264607787413 0.027525560219546316
leaf_weight=4.2210661806166154 54.910632863640785 3.1581274121999732 10.199247363954781 18.242473941296339 7.4790260270237923 30.508407790213823 13.386573329567911 5.2486623562872401
leaf_count=8 56 5 140 31 109 48 191 22
internal_value=0.0209893 0.0120056 -0.017407 0.0171661 -0.00893974 0.0218071 0.0113063 -0.00727804
internal_weight=147.354 92.4436 13.3574 79.0862 11.7001 67.3861 36.8777 18.6352
internal_count=610 554 145 409 117 292 244 213
is_linear=0
shrinkage=0.03


Tree=45
num_leaves=11
num_cat=0
split_feature=44 99 75 33 90 75 64 57 31 76
split_gain=22.8265 19.1328 15.0372 11.5776 9.97209 10.2274 7.38735 5.57483 1.89679 1.39602
threshold=-0.24904297714365201 7.5000000000000009 2.9419293239683939 0.86492314932401626 0.049939818224454507 2.7537946630483949 -0.16973151913454002 0.30858056103411496 0.28357342786260653 1.0312053369516059
decision_type=2 2 2 2 2 2 2 2 2 2
left_child=9 2 4 -4 6 -6 7 -2 -8 -1
right_child=1 -3 3 -5 5 -7 8 -9 -10 -11
leaf_value=0.023832093410045448 -0.016793516421525236 -0.029149945232304183 -0.030655603191888058 0.031685432466972134 0.017374565210446283 -0.029365926297259433 0.017010273470479207 0.025597398852633953 0.037569841088903232 0.03799466245470861
leaf_weight=17.500632725656033 4.9550586864352208 8.8869602642953378 9.0872233286499959 2.7087298631668082 10.826172344386579 5.5411400794982901 8.29264087975025 4.2390482649207115 29.487415116280317 43.900763861835003
leaf_count=32 39 167 142 2 38 72 28 6 41 43
internal_value=0.0206517 0.0102446 0.0152651 -0.0147482 0.0210434 0.000598133 0.0279437 0.00305075 0.0336894 0.0344527
internal_weight=145.426 84.0244 75.1374 11.796 63.3415 16.3673 46.9742 9.19411 37.7801 61.4014
internal_count=610 535 368 144 224 110 114 45 69 75
is_linear=0
shrinkage=0.03


Tree=46
num_leaves=12
num_cat=0
split_feature=4 103 107 38 76 4 106 76 56 51 4
split_gain=22.1487 19.4499 12.6329 9.73529 8.16631 9.37728 7.71643 11.1927 2.47743 4.63113 1.17572
threshold=-0.39534173004085088 0.023953421452680205 1.4796500771604941 -0.10103974902439893 1.1053844414292178 -0.25886592010823922 0.49000000000000005 1.4469293239683936 2.499126344646744 39.460715384900482 -0.51603910310417744
decision_type=2 2 2 2 2 2 2 2 2 2 2
left_child=10 2 6 -4 -3 -6 8 -8 9 -2 -1
right_child=1 4 3 -5 5 -7 7 -9 -10 -11 -12
leaf_value=0.038204603951459574 0.035319219035361366 -0.031393354438163185 0.026707095938613323 -0.030980417028679961 0.032575646926246912 -0.025401975961495214 -0.028149480593650314 0.023803175465964822 0.037210064627340639 0.0025505884119844989 0.025872728033502518
leaf_weight=36.67791211605072 6.8656171560287467 11.250621911138298 3.0216185413300991 6.7960329353809339 4.5055197216570377 3.6174903996288759 5.0587853379547587 8.6982667371630651 23.010521989315748 8.4225867390632612 25.630762793123722
leaf_count=33 7 202 6 87 6 70 66 20 27 47 39
internal_value=0.0203133 0.0097501 0.0179321 -0.0121208 -0.015831 0.00647292 0.0237782 0.00388275 0.0305678 0.0187154 0.0336681
internal_weight=143.556 81.2471 61.8734 9.81765 19.3736 8.12301 52.0558 13.7571 38.2987 15.2882 62.3087
internal_count=610 538 260 93 278 76 167 86 81 54 72
is_linear=0
shrinkage=0.03


Tree=47
num_leaves=10
num_cat=0
split_feature=4 74 34 42 42 49 65 33 4
split_gain=21.2812 16.4284 11.3837 12.9205 10.0574 6.74358 4.69612 2.34438 1.24609
threshold=-0.39534173004085088 50.062313432835829 0.36834233511652487 -0.020473522171340349 0.10046193718231468 0.44203951438640487 -0.25063641300612194 0.29805297073640413 -0.51603910310417744
decision_type=2 2 2 2 2 2 2 2 2
left_child=8 5 3 6 -5 -2 -3 -8 -1
right_child=1 2 -4 4 -6 -7 7 -9 -10
leaf_value=0.037843141912672663 -0.030712114881093919 -0.008431233385493779 0.030092860619676632 -0.030784323188756711 0.021070474770718949 0.013837745039682933 0.0046055740186021444 0.029944861602365695 0.025350359558884889
leaf_weight=35.938141107559204 10.309696726500986 4.2244671247899559 27.823479190468788 10.796787019819019 3.8301012031733981 3.4194608554244033 5.0424667298793819 14.781525265425442 25.398299545049667
leaf_count=33 181 29 52 184 22 7 25 38 39
internal_value=0.0200066 0.00959231 0.0157833 0.00491419 -0.0165346 -0.0192264 0.0182189 0.0241743 0.0332079
internal_weight=141.564 80.228 66.4988 38.6753 14.6269 13.7292 24.0485 19.824 61.3364
internal_count=610 538 350 298 206 188 92 63 72
is_linear=0
shrinkage=0.03


Tree=48
num_leaves=10
num_cat=0
split_feature=99 4 45 103 90 2 4 4 87
split_gain=20.7026 14.0044 15.0132 11.1309 10.1588 11.2717 9.23187 8.44409 1.33336
threshold=7.5000000000000009 -0.39534173004085088 -0.12910626126319188 0.023953421452680205 0.049939818224454507 1.1112223942720811 -0.5010437710879444 -0.26300431401027341 1.0000000180025095e-35
decision_type=2 2 2 2 2 2 2 2 2
left_child=1 -1 -3 4 8 -6 -2 -5 -4
right_child=6 2 3 7 5 -7 -8 -9 -10
leaf_value=0.034384847099389305 0.027791966257317186 -0.03117251253930339 0.034162718535551313 0.017956617227248981 -0.030520419036132715 0.024098471033199446 -0.029668138845141169 -0.028243698849195864 0.018010574737432946
leaf_weight=56.385248690843582 2.3849637508392325 5.152021460235118 31.162768416106701 5.6504629552364349 5.2597676776349527 6.4382985644042492 9.62468648329377 6.6771395392715913 11.063930887728928
leaf_count=59 2 48 46 15 65 17 178 139 41
internal_value=0.0196741 0.0232258 0.0140193 0.0179895 0.0238007 -0.000692949 -0.0167675 -0.00708387 0.0305146
internal_weight=139.799 127.79 71.4044 66.2524 53.9248 11.6981 12.0097 12.3276 42.2267
internal_count=610 430 371 323 169 82 180 154 87
is_linear=0
shrinkage=0.03


Tree=49
num_leaves=11
num_cat=0
split_feature=44 99 83 90 84 64 3 4 74 76
split_gain=20.0485 16.6989 13.18 10.2618 8.53404 7.12749 7.43778 4.96171 2.94939 1.70143
threshold=-0.24904297714365201 7.5000000000000009 1.4567910447761196 0.049939818224454507 0.2082778046442452 -0.16973151913454002 0.055647882946731474 -0.37623043458542355 61.568585481682504 1.0312053369516059
decision_type=2 2 2 2 2 2 2 2 2 2
left_child=9 2 -2 5 7 6 -4 -5 -7 -1
right_child=1 -3 3 4 -6 8 -8 -9 -10 -11
leaf_value=0.021632796319480202 -0.028523285782301205 -0.028781060678685109 -0.020270688776222311 0.021470822275212825 0.018750123232313939 0.013544087107123858 0.028817681845434467 -0.030366656565833327 0.034702345500516867 0.036577273377589037
leaf_weight=16.683214291930199 5.079431600868701 8.2026742696762067 5.4928169101476652 1.2304334640502927 8.1461671665310842 10.237093254923819 3.8511667549610138 7.6539345011115092 30.296349875628948 40.974562581628561
leaf_count=32 86 167 48 1 23 52 4 115 39 43
internal_value=0.0193637 0.00941938 0.014148 0.0178039 -0.00207482 0.0245578 0.000501307 -0.0214381 0.0298856 0.0327468
internal_weight=137.848 80.1901 71.9874 66.908 17.0305 49.8774 9.34398 8.88437 40.5334 57.6578
internal_count=610 535 368 282 139 143 52 116 91 75
is_linear=0
shrinkage=0.03


Tree=50
num_leaves=13
num_cat=0
split_feature=35 76 68 107 94 94 2 42 57 4 101 29
split_gain=19.4137 14.038 18.3769 11.296 7.20325 8.66419 3.95438 5.85855 5.89279 3.35405 4.5612 8.22484
threshold=0.44330549531948021 1.4469293239683936 3.4917548620533698 2.2709983532818447 0.26750000000000007 0.83062500000000006 1.0978735074730586 -0.07156851556160225 -0.36253404235484005 -0.49088167148593659 0.64371419419821541 0.099759977916909964
decision_type=2 2 2 2 2 2 2 2 2 2 2 2
left_child=1 2 4 -4 -1 -6 7 -3 -9 -2 -11 -12
right_child=9 6 3 -5 5 -7 -8 8 -10 10 11 -13
leaf_value=0.033992891344661491 0.03631622689358608 0.029125333921278366 -0.03213707179925035 0.017636250228391461 -0.027819657196961625 0.028956520569860904 0.036885561615956269 0.017863119031036788 -0.031214171714624372 0.031551119117681922 -0.014560908012537116 0.027118267673075167
leaf_weight=9.886395141482355 38.2520532310009 7.1588950380682945 17.86278431117535 4.4625090137124053 4.5397512055933467 3.2853057458996773 11.305042833089827 3.3662275373935699 3.4563100636005419 17.266643568873405 6.9170286096632472 8.2732994779944402
leaf_count=11 38 9 331 39 56 8 12 9 31 21 33 12
internal_value=0.019051 0.00703495 -0.0039921 -0.0217299 0.0181725 -0.00306247 0.0240962 0.0117829 -0.00742797 0.029857 0.0212969 0.00822693
internal_weight=136.032 65.3232 40.0367 22.3253 17.7115 7.82506 25.2865 13.9814 6.82254 70.709 32.457 15.1903
internal_count=610 506 445 370 75 64 61 49 40 104 66 45
is_linear=0
shrinkage=0.03


Tree=51
num_leaves=9
num_cat=0
split_feature=44 99 83 73 34 32 76 94
split_gain=18.7239 15.5987 12.2408 9.09841 21.2916 3.22432 1.69248 0.523614
threshold=-0.24904297714365201 7.5000000000000009 1.4567910447761196 56.615000000000002 0.45508912634224846 0.21292003442230162 1.0312053369516059 0.26750000000000007
decision_type=2 2 2 2 2 2 2 2
left_child=6 2 -2 4 -4 -5 -1 -7
right_child=1 -3 3 5 -6 7 -8 -9
leaf_value=0.020880257157883803 -0.028189222842367235 -0.028559898963843991 -0.030893020276353149 0.0061246359917250404 0.022383154062522552 0.035371984849915369 0.035853200126216275 0.021411570614490182
leaf_weight=16.29594724625349 4.8696255814284077 7.8623426500707856 9.3690968696028012 6.7404092699289313 18.325476486235857 18.444171719253067 39.455343883484602 12.603357926011084
leaf_count=32 86 167 159 25 35 19 43 44
internal_value=0.0188027 0.00909076 0.0136818 0.0172179 0.00380673 0.0266179 0.0319746 0.0306435
internal_weight=133.966 78.2145 70.3521 65.4825 27.6946 37.7879 55.7513 31.0475
internal_count=610 535 368 282 194 88 75 63
is_linear=0
shrinkage=0.03


Tree=52
num_leaves=12
num_cat=0
split_feature=4 45 94 98 60 60 52 68 76 45 4
split_gain=18.193 14.2681 10.1152 15.9266 8.82868 6.94508 6.28577 2.31983 6.39388 6.78324 1.55994
threshold=-0.39534173004085088 -0.12910626126319188 0.26750000000000007 8.5000000000000018 0.96607565905075343 1.0951255171255994 13.105065697189959 3.4917548620533698 1.279024064171123 0.92434385746329628 -0.51603910310417744
decision_type=2 2 2 2 2 2 2 2 2 2 2
left_child=10 -2 7 6 -5 -6 -4 -3 9 -9 -1
right_child=1 2 3 4 5 -7 -8 8 -10 -11 -12
leaf_value=0.036376886425950106 -0.03094564139805198 0.034782421208482128 0.0084241757764457782 0.03298294669310433 -0.026374321848856696 0.023951580132374937 -0.031098994246812058 -0.029404449150960139 0.028576610341872966 0.023781584803508744 0.023013426403499303
leaf_weight=32.596999704837799 6.4453445039689532 13.227396324276922 4.4480892177671185 13.121010232716801 4.856093328446148 3.2612188868224621 11.464798126369713 3.8778102416545179 12.169664736837147 2.8711218126118183 23.837100818753242
leaf_count=33 81 14 36 20 105 8 201 48 19 6 39
internal_value=0.0185002 0.00865305 0.0127666 0.00187721 0.018588 -0.0054169 -0.0200289 0.0248247 0.0163152 -0.00624188 0.0312835
internal_weight=132.177 75.7425 69.2972 37.1512 21.2383 8.11731 15.9129 32.146 18.9186 6.74893 56.4341
internal_count=610 538 457 370 133 113 237 87 73 54 72
is_linear=0
shrinkage=0.03


Tree=53
num_leaves=10
num_cat=0
split_feature=99 4 83 90 2 4 103 61 38
split_gain=17.522 12.355 12.1914 10.4222 13.6063 7.90591 7.6945 6.20963 1.33531
threshold=7.5000000000000009 -0.39534173004085088 1.4567910447761196 0.049939818224454507 1.1112223942720811 -0.5010437710879444 0.023953421452680205 1.2444108732971986 -0.012996257681044428
decision_type=2 2 2 2 2 2 2 2 2
left_child=1 -1 -3 6 -5 -2 8 -8 -4
right_child=5 2 3 4 -6 -7 7 -9 -10
leaf_value=0.032593060767761632 0.025816949611877166 -0.028468678632698328 0.032554320172629686 -0.031446836166893838 0.020843263557740199 -0.029248518919439397 -0.028990901169756562 0.022320633101905303 0.017207246299117504
leaf_weight=51.739092588424683 2.1846910715103141 4.9831508342176667 27.591544203460209 7.5377019774168721 8.4074123054742795 8.7616808973252756 3.5843455176800481 2.9486268386244774 12.452524144202476
leaf_count=59 2 88 43 111 30 178 48 10 41
internal_value=0.0182436 0.0215951 0.0127692 0.0164996 -0.00409573 -0.0167662 0.0235511 -0.00554475 0.0283904
internal_weight=130.191 119.244 67.5053 62.5222 15.9451 10.9464 46.577 6.53297 40.0441
internal_count=610 430 371 283 141 180 142 58 84
is_linear=0
shrinkage=0.03


Tree=54
num_leaves=13
num_cat=0
split_feature=35 76 72 61 31 4 101 29 60 38 24 67
split_gain=17.1701 12.4547 15.9667 12.7482 6.47216 3.33011 4.21843 7.57121 3.31385 4.3828 6.09648 1.7105
threshold=0.44330549531948021 1.4469293239683936 65.519423337856196 0.8139767944928864 0.28924740909240676 -0.49088167148593659 0.64371419419821541 0.099759977916909964 0.91912626284218268 -0.078323900773992636 56.597517127082469 0.03311785820159048
decision_type=2 2 2 2 2 2 2 2 2 2 2 2
left_child=1 2 3 -1 11 -2 -7 -8 -3 -10 -11 -4
right_child=5 8 4 -5 -6 6 7 -9 9 10 -12 -13
leaf_value=0.025219079613725954 0.035183289669515658 0.033758326700228158 -0.024740588043977649 -0.031869399301637596 0.027551577140596705 0.030010191426385981 -0.014973955018607604 0.025724512950017136 0.026925900549925885 -0.031613328035940143 0.019812747065762439 0.00604048809395334
leaf_weight=3.5028242394328144 35.297035485506058 11.885183401405813 2.4859585650265243 17.400043569505215 12.326319877058266 16.405341409146789 6.6646194122731668 7.9003096967935562 5.9067979902029037 3.1909370422363263 3.111993320286274 2.2249235510826111
leaf_count=7 38 13 30 363 35 21 33 12 7 35 6 10
internal_value=0.0179661 0.00640104 -0.00427438 -0.0214511 0.0166543 0.0284919 0.0199099 0.0071434 0.0228307 0.0102161 -0.00657539 -0.0111654
internal_weight=128.302 62.035 37.9401 20.9029 17.0372 66.2673 30.9703 14.5649 24.0949 12.2097 6.30293 4.71088
internal_count=610 506 445 370 75 104 66 45 61 48 41 40
is_linear=0
shrinkage=0.03


Tree=55
num_leaves=11
num_cat=0
split_feature=35 76 68 61 94 94 2 37 1 40
split_gain=16.469 11.9246 15.2916 12.369 6.33241 7.82687 3.66911 5.28743 2.91697 6.30381
threshold=0.44330549531948021 1.4469293239683936 3.4917548620533698 0.8139767944928864 0.26750000000000007 0.83062500000000006 1.0978735074730586 1.1992477294408326 0.58191668190186385 -2.2193947679389496
decision_type=2 2 2 2 2 2 2 2 2 2
left_child=1 2 4 -4 -1 -6 7 -3 9 -2
right_child=8 6 3 -5 5 -7 -8 -9 -10 -11
leaf_value=0.031551984080860268 0.0027628346459655836 0.026918127743541274 0.024675142139768815 -0.031740157875388905 -0.027598751190176997 0.027105194637088242 0.035193494136265921 -0.0086190647044768823 0.03438919720582672 0.030915072829630658
leaf_weight=9.3679345846176165 12.44814256578684 6.9460317380726355 3.4948043599724796 16.957527754828334 4.3840730618685475 3.1736606750637293 10.545365590602158 6.2883800268173218 35.293020620942116 17.461154602468014
leaf_count=11 39 10 7 363 56 8 12 39 40 25
internal_value=0.017729 0.00632251 -0.00420558 -0.0212595 0.0162707 -0.00379374 0.0224939 0.0104025 0.0281255 0.0197637
internal_weight=126.36 61.1578 37.378 20.4523 16.9257 7.55773 23.7798 13.2344 65.2023 29.9093
internal_count=610 506 445 370 75 64 61 49 104 64
is_linear=0
shrinkage=0.03


Tree=56
num_leaves=11
num_cat=0
split_feature=99 4 45 90 2 103 4 63 56 45
split_gain=15.9396 11.3851 12.3521 8.42424 13.8404 7.60045 7.24754 5.46575 1.15278 0.157154
threshold=7.5000000000000009 -0.39534173004085088 -0.12910626126319188 0.049939818224454507 1.1112223942720811 0.023953421452680205 -0.5010437710879444 0.13004291701374796 2.499126344646744 -0.44768142216556284
decision_type=2 2 2 2 2 2 2 2 2 2
left_child=1 9 -3 5 -5 8 -2 -7 -4 -1
right_child=6 2 3 4 -6 7 -8 -9 -10 -11
leaf_value=0.035997258380903265 0.0248017970249402 -0.030297260481805706 0.018649799636840988 -0.030848069898120157 0.023387853652326884 -0.027849657569673236 -0.029002227916174083 0.020018123325549152 0.032500523000526527 0.025864780055520925
leaf_weight=24.628079473972321 2.0740312337875357 4.7154262308031312 16.627082359045744 7.3149159420281631 7.6168666426092386 3.6729331444948903 8.2952499836683256 2.9718124903738499 22.208549439907074 24.358952656388283
leaf_count=26 2 48 55 130 28 67 178 11 32 33
internal_value=0.0174953 0.0207507 0.0121624 0.0159648 -0.00326198 0.0222761 -0.0167417 -0.0062306 0.0272628 0.0316371
internal_weight=124.484 114.115 65.1276 60.4122 14.9318 45.4804 10.3693 6.64475 38.8356 48.987
internal_count=610 430 371 323 158 165 180 78 87 59
is_linear=0
shrinkage=0.03


Tree=57
num_leaves=11
num_cat=0
split_feature=44 90 98 95 59 103 63 38 76 56
split_gain=15.7118 9.43193 15.9269 6.56027 8.27463 5.39823 9.81828 5.13412 1.9897 1.36948
threshold=-0.24904297714365201 0.010481857124605271 8.5000000000000018 0.65937500000000016 1.0343314392432301 0.023953421452680205 0.10891431852900225 -0.16363948675203674 0.97410447761194041 2.499126344646744
decision_type=2 2 2 2 2 2 2 2 2 2
left_child=8 5 7 4 -4 9 -7 -3 -1 -2
right_child=1 2 3 -5 -6 6 -8 -9 -10 -11
leaf_value=0.017696868801041508 0.014222739623307213 0.018853386460153707 -0.028462822877584407 0.028808964237181989 0.019005437449013642 -0.035167071364681682 0.02235613882261963 -0.031241002205617031 0.034027434602067939 0.03156934269396329
leaf_weight=13.962193973362444 10.120329022407534 1.3581052087247361 5.065619248896839 11.016088910400866 6.243278818204999 3.4733826573938114 5.6188966184854507 13.537943752482532 36.357992500066757 15.905304722487925
leaf_count=30 28 4 95 34 26 45 17 267 45 19
internal_value=0.0172406 0.00804449 -0.00242101 0.0133414 -0.00259836 0.0189797 -0.00062848 -0.0255863 0.0299878 0.0257108
internal_weight=122.659 72.3389 37.221 22.325 11.3089 35.1179 9.09228 14.896 50.3202 26.0256
internal_count=610 535 426 155 121 109 62 271 75 47
is_linear=0
shrinkage=0.03


Tree=58
num_leaves=10
num_cat=0
split_feature=44 99 83 90 75 73 27 76 1
split_gain=15.1086 12.2224 9.70149 7.78951 8.43359 4.91991 9.09279 2.00798 0.68849
threshold=-0.24904297714365201 7.5000000000000009 1.4567910447761196 0.049939818224454507 2.7537946630483949 52.710000000000008 0.028483996687563306 0.97410447761194041 0.3606369866180788
decision_type=2 2 2 2 2 2 2 2 2
left_child=7 2 -2 5 -5 6 -4 -1 -7
right_child=1 -3 3 4 -6 8 -8 -9 -10
leaf_value=0.017311346501098702 -0.027246262201150222 -0.027788736435008784 -0.026991089450078221 0.014088027957664846 -0.028939921357990069 0.021201678386057733 0.020673513375276752 0.033699483435510325 0.035261942370233328
leaf_weight=13.868641234934328 4.2821987569332114 6.7549198996275654 4.1385057065635911 9.2743853349238616 5.8083027787506571 17.079286303371195 11.063893139362333 35.631209846585989 13.01720869168639
leaf_count=30 86 167 68 38 101 43 17 45 15
internal_value=0.0169903 0.00792045 0.0120628 0.0152979 -0.00306453 0.0214108 0.00664773 0.0296011 0.0283178
internal_weight=120.919 71.4187 64.6638 60.3816 15.0827 45.2989 15.2024 49.4999 30.0965
internal_count=610 535 368 282 139 143 85 75 58
is_linear=0
shrinkage=0.03


Tree=59
num_leaves=15
num_cat=0
split_feature=23 40 3 1 37 6 75 1 46 44 41 4 41 49
split_gain=14.6765 10.4539 10.7844 8.98985 12.014 6.36386 4.92866 5.59019 4.53793 2.61978 2.49695 1.65409 3.38869 0.957634
threshold=23.164497375488285 -2.2281258803052926 0.023673437905457891 0.58191668190186385 1.4000837095950691 -0.049038300361801394 2.8683582089552244 0.36842603579377142 0.19352800678160728 0.28257393595999464 1.8243766127516874 -0.48305966948311085 1.9855127471992715 0.27143848125317266
decision_type=2 2 2 2 2 2 2 2 2 2 2 2 2 2
left_child=6 3 -3 4 5 -2 -1 9 -6 -8 -7 -9 -13 -4
right_child=1 2 13 -5 8 10 7 11 -10 -11 -12 12 -14 -15
leaf_value=0.032260651415099262 0.028627271599027431 -0.027561225283117864 0.012706147941791309 0.026051106640739133 0.016699905606209813 0.010721845006505701 -0.025310943416594872 0.032055936248157793 -0.036297707022892436 0.014811070783940271 -0.028694546931239177 0.02894280642681148 -0.0012149782899222854 0.031666126842195365
leaf_weight=42.32491672411561 5.6971458178013563 2.9353055041283396 5.9303952138870981 5.0157682150602332 0.96209424734115501 1.4933951608836702 3.3756047692149904 7.4067963361740139 13.311940977349876 1.3086724299937484 2.9082265179604292 4.921087831258772 7.144604254513979 14.495688512921332
leaf_count=68 14 54 38 7 1 7 64 8 231 6 43 5 35 29
internal_value=0.0167234 0.00469933 0.0193045 -0.00706504 -0.0147565 0.00957854 0.0260085 0.014088 -0.0316697 -0.0129404 -0.0152567 0.0210509 0.0121293 0.0271513
internal_weight=119.232 52.75 23.3614 29.3886 24.3728 10.0988 66.4817 24.1568 14.274 4.68428 4.40162 19.4725 12.0657 20.4261
internal_count=610 424 121 303 296 64 186 118 232 70 50 48 40 67
is_linear=0
shrinkage=0.03


Tree=60
num_leaves=10
num_cat=0
split_feature=44 75 34 72 48 35 76 38 57
split_gain=14.2502 9.11168 8.79676 8.69116 15.2997 4.65839 1.99228 1.31514 5.36037
threshold=-0.24904297714365201 2.9419293239683939 0.59589194131498535 56.573763003166 0.1906179449244203 0.22084446891282009 0.97410447761194041 -0.012996257681044428 0.056664862957603583
decision_type=2 2 2 2 2 2 2 2 2
left_child=6 3 -3 4 -2 -5 -1 -7 -9
right_child=1 2 -4 5 -6 7 -8 8 -10
leaf_value=0.016718392505526987 -0.03103812933741449 -0.02958435807503634 0.027304407802604919 -0.002665784818644313 0.017095311471119257 0.030974691755542939 0.033147404337153324 -0.011637988891791406 0.029448185960601374
leaf_weight=13.59815541654825 8.8436880148947257 8.8206284828484041 2.3408952951431266 5.6596674900501958 13.978176757693289 19.633310554549102 34.237783335149288 3.7716236039996129 6.5527209565043449
leaf_count=30 184 200 2 32 34 33 45 37 13
internal_value=0.0165029 0.00759837 -0.0161424 0.0123785 -0.00195086 0.0214445 0.0289766 0.0260353 0.0144716
internal_weight=117.437 69.6007 11.1615 58.4392 22.8219 35.6173 47.8359 29.9577 10.3243
internal_count=610 535 202 333 218 115 75 83 50
is_linear=0
shrinkage=0.03


Tree=61
num_leaves=13
num_cat=0
split_feature=0 40 48 6 48 2 24 37 75 32 44 70
split_gain=13.8883 9.90736 8.56514 8.5599 12.5955 7.06086 5.66983 7.856 4.62655 5.24414 2.48065 1.05156
threshold=23.164497375488285 -2.2281258803052926 0.1512365062773284 -0.43404188260527604 0.14746532700319939 1.1026380388748305 30.390051311916778 1.1797913757978564 2.8683582089552244 0.36842603579377098 0.28257393595999464 13.079836479367868
decision_type=2 2 2 2 2 2 2 2 2 2 2 2
left_child=8 3 5 -2 6 -3 -5 -8 -1 10 -10 -11
right_child=1 2 -4 4 -6 -7 7 -9 9 11 -12 -13
leaf_value=0.031614144142644698 0.027289963036628829 -0.029682712591862923 0.030508524096374202 0.025177976700455278 -0.038527701055603589 0.024364408730086318 0.026345695065883877 -0.028719756498694057 -0.025031439148310231 0.02834454993732197 0.014352441969940784 0.011635964810361924
leaf_weight=40.893523147329688 4.3743417114019421 4.2568881865590837 15.765056716278194 5.5933927092701223 10.018311636522411 2.7229159828275442 2.5353164579719287 5.989708635956049 3.2589527312666204 8.8203832451254147 1.2820445150136945 10.268300730735062
leaf_count=68 6 75 36 24 144 10 5 124 64 21 6 27
internal_value=0.0162593 0.0043958 0.0187891 -0.0072325 -0.0144452 -0.00781123 0.00386323 -0.0109818 0.0254268 0.0137483 -0.0127874 0.0205325
internal_weight=115.779 51.2559 22.7449 28.5111 24.1367 6.9798 14.1184 8.52503 64.5232 23.6297 4.541 19.0887
internal_count=610 424 121 303 297 85 153 129 186 118 70 48
is_linear=0
shrinkage=0.03


Tree=62
num_leaves=10
num_cat=0
split_feature=4 99 75 43 43 74 0 36 36
split_gain=13.7832 14.9102 12.2305 7.2588 12.1203 7.04673 2.10718 4.88923 1.85332
threshold=-0.49088167148593659 7.5000000000000009 3.0947071460877438 -0.047305348461161682 0.009436667041484938 61.568585481682504 28.455548286437992 0.83680752617034238 1.0328034701959459
decision_type=2 2 2 2 2 2 2 2 2
left_child=-1 2 3 6 -5 -6 -2 -8 -4
right_child=1 -3 8 4 5 -7 7 -9 -10
leaf_value=0.033180450066523516 0.031415928458683615 -0.02847568781568531 -0.0013210784096676785 -0.031297345721779918 -0.0052486157536056795 0.025457187105180148 0.029798233647533291 -0.0040070483045785655 -0.037208518228942167
leaf_weight=30.159055434167385 24.213202493265271 7.4348473846912375 2.2006766851991406 5.3440403137356034 9.8396077491343039 17.639603279531002 7.2918493840843421 6.5415491443127394 3.3837367985397577
leaf_count=39 41 177 21 111 95 45 10 38 33
internal_value=0.01604 0.00952416 0.0135782 0.0170451 0.00629943 0.0145587 0.0258399 0.0144177 -0.0258703
internal_weight=114.048 83.8891 76.4543 70.8699 32.8233 27.4792 38.0466 13.8334 5.58441
internal_count=610 571 394 340 251 140 89 48 54
is_linear=0
shrinkage=0.03


Tree=63
num_leaves=10
num_cat=0
split_feature=32 99 75 45 5 73 57 2 56
split_gain=13.3453 11.0292 7.98173 14.4193 8.17442 10.6587 6.61891 3.22418 0.132663
threshold=0.58191668190186396 7.5000000000000009 3.0367593848937138 -0.44768142216556284 -0.075323744608302087 47.995000000000012 0.19264624104181435 0.64391401606611776 2.7071537856525958
decision_type=2 2 2 2 2 2 2 2 2
left_child=1 2 4 -4 8 -6 -7 -3 -1
right_child=-2 7 3 -5 5 6 -8 -9 -10
leaf_value=0.021336328859655713 0.032526536860357391 0.016596146402275136 0.028440211944595881 -0.035987244442171884 -0.032305358511627719 -0.0015696247376706433 0.026678679235504169 -0.028390927692100047 0.032810745535933016
leaf_weight=14.584926439449193 30.364950582385063 0.9557592272758465 4.3534603863954544 6.5624893065541965 4.4501490239053956 13.667734604328873 14.705826001241801 7.3574540838599205 15.446308840066193
leaf_count=32 40 1 5 98 70 132 34 178 20
internal_value=0.0157827 0.00923573 0.0130019 -0.00981035 0.0171022 0.00632452 0.013379 -0.0216701 0.0282019
internal_weight=112.449 82.0841 73.7709 10.9159 62.8549 32.8237 28.3736 8.31321 30.0312
internal_count=610 570 391 103 288 236 166 179 52
is_linear=0
shrinkage=0.03


Tree=64
num_leaves=11
num_cat=0
split_feature=1 99 75 45 42 34 54 72 2 98
split_gain=12.9613 10.5628 7.60377 13.9325 6.68767 12.2902 6.43644 3.93856 3.15468 1.01336
threshold=0.58191668190186385 7.5000000000000009 3.0367593848937138 -0.44768142216556284 -0.049708426637172225 0.39958818341812458 0.12900893032038921 50.457120081411134 0.64391401606611776 9.5000000000000018
decision_type=2 2 2 2 2 2 2 2 2 2
left_child=1 2 4 -4 9 6 -6 -7 -3 -1
right_child=-2 8 3 -5 5 7 -8 -9 -10 -11
leaf_value=0.018601504840985224 0.032246544176155724 0.016436285001664729 0.028065118818813496 -0.035719284298683485 -0.03065574402866254 0.0052926374278872285 0.0079641208705776463 0.033236132715235671 -0.028241640656611951 0.033833946172074802
leaf_weight=14.382062226533892 29.72808076441288 0.94597780704498102 4.2935706079006195 6.4229840748012048 7.6335055902600271 8.4449937380850333 6.2788298688828945 11.076564490795134 7.182390408590436 14.401420820504425
leaf_count=36 40 1 5 98 140 32 50 13 178 17
internal_value=0.0155567 0.00908105 0.0127724 -0.00969389 0.0167816 0.00719263 -0.0136596 0.022141 -0.0214824 0.0272037
internal_weight=110.79 81.0623 72.9339 10.7166 62.2174 33.4339 13.9123 19.5216 8.12837 28.7835
internal_count=610 570 391 103 288 235 190 45 179 53
is_linear=0
shrinkage=0.03


Tree=65
num_leaves=10
num_cat=0
split_feature=44 99 64 66 90 58 87 31 77
split_gain=12.6517 9.6139 8.21675 12.2307 6.36967 5.95221 2.95954 2.61744 1.80256
threshold=-0.24904297714365201 7.5000000000000009 -0.16973151913454002 0.049815976218702776 0.049939818224454507 -0.96193389386156214 1.0000000180025095e-35 0.28357342786260653 0.9900000000000001
decision_type=2 2 2 2 2 2 2 2 2
left_child=8 2 3 -2 6 -6 7 -4 -1
right_child=1 -3 4 -5 5 -7 -8 -9 -10
leaf_value=0.016212621118516155 -0.031092787997635016 -0.026946088641727671 0.0090240749433270952 0.018060447117008195 0.019021593255572657 -0.026960383198703392 0.0028286332849622336 0.031936004668087575 0.032142834477280564
leaf_weight=13.725279182195662 8.2975516840815562 5.8683209884911767 7.3642612714320448 7.9464035034179679 3.7568622510880232 4.4160849004983884 6.1994829010218373 21.449901940301061 30.037919223308563
leaf_count=32 145 167 39 13 9 85 38 39 43
internal_value=0.0153556 0.0067525 0.0105205 -0.00722055 0.0172737 -0.00572734 0.022736 0.0266799 0.0276875
internal_weight=109.062 65.2989 59.4305 16.244 43.1866 8.17295 35.0136 28.8142 43.7632
internal_count=610 535 368 158 210 94 116 78 75
is_linear=0
shrinkage=0.03


Tree=66
num_leaves=11
num_cat=0
split_feature=4 99 75 60 33 51 72 47 24 58
split_gain=12.8304 12.8215 10.7955 6.17417 10.3846 5.41877 5.22668 2.02102 1.44928 3.07846
threshold=-0.49088167148593659 7.5000000000000009 3.0947071460877438 0.96607565905075343 0.48748787861854892 71.457255771338183 50.457120081411134 -0.13307005225875432 24.44363799788913 -0.60360535565573026
decision_type=2 2 2 2 2 2 2 2 2 2
left_child=-1 2 3 8 5 -5 -6 -4 -2 -10
right_child=1 -3 7 4 6 -7 -8 -9 9 -11
leaf_value=0.032403158289103749 0.030509307785924877 -0.027950708445783776 -0.03679968575578451 -0.028932642675403325 0.00095911201895864057 0.010528835700125328 0.032285353304197122 0 0.027938700361134595 0.0029534589227131441
leaf_weight=27.761578597128391 18.624047935009003 6.7955866642296305 3.324040936306119 7.8340371847152728 8.6762675531208533 4.0630118735134602 10.499376129359005 1.9852855745702971 8.6856612451374549 9.2352046109735948
leaf_count=39 25 177 33 184 35 37 13 21 13 33
internal_value=0.0151293 0.00875003 0.0125423 0.0158823 0.00565146 -0.0154519 0.0190102 -0.0252945 0.0241191 0.0160581
internal_weight=107.484 79.7225 72.9269 67.6176 31.0727 11.897 19.1756 5.30933 36.5449 17.9209
internal_count=610 571 394 340 269 221 48 54 71 46
is_linear=0
shrinkage=0.03


Tree=67
num_leaves=13
num_cat=0
split_feature=32 89 24 37 33 91 55 3 54 42 60 38
split_gain=12.0819 8.32625 7.93548 14.1524 6.60583 5.07215 4.53695 5.85209 3.8936 2.3828 1.92278 5.0719
threshold=0.58191668190186396 0.0098535584985017313 24.44363799788913 1.4000837095950691 0.30414258762592739 0.52943100065402227 1.1065555197371968 0.049404811712962515 -0.099673570699601241 -0.034055413253935844 0.95485340012015618 0.02444579072679845
decision_type=2 2 2 2 2 2 2 2 2 2 2 2
left_child=1 -1 5 4 -4 10 7 -5 -7 -6 -3 -12
right_child=-2 2 3 6 9 8 -8 -9 -10 -11 11 -13
leaf_value=-0.032740227797884477 0.031545607217849804 0.032169266697651112 -0.023453822881482844 -0.031230111747696847 0.03042932649404723 0.018756421868952572 0.01541181492429039 0.020218627542956596 -0.026621365716737507 0.0074288815855658935 -0.0088369233677733135 0.027214719024262327
leaf_weight=3.1857189591974011 27.988695427775383 17.26217210479081 2.3511075805872705 13.157191973179581 12.299018012359742 2.1603787243366241 2.2270334567874661 1.5400789976119984 2.6859335061162701 7.5838461183011505 4.7306988313794127 8.6930808015167695
leaf_count=57 40 29 50 226 29 3 8 2 43 52 44 27
internal_value=0.0149162 0.00857746 0.0107887 0.00129022 0.0167794 0.0208524 -0.0186919 -0.0247033 -0.00613159 0.0225759 0.0252678 0.0145699
internal_weight=105.865 77.8763 74.6905 39.1583 22.234 35.5323 16.9243 14.6973 4.84631 19.8829 30.686 13.4238
internal_count=610 570 513 367 131 146 236 228 46 81 100 71
is_linear=0
shrinkage=0.03


Tree=68
num_leaves=9
num_cat=0
split_feature=4 99 83 54 47 94 47 44
split_gain=12.2499 12.0573 5.91853 5.51006 4.06003 4.22722 3.31582 2.65475
threshold=-0.49088167148593659 7.5000000000000009 1.4567910447761196 -0.22623584778220274 -0.050132822558383104 0.83062500000000006 -0.079067644367005599 -0.29345352597269042
decision_type=2 2 2 2 2 2 2 2
left_child=-1 2 7 -4 6 -6 -5 -2
right_child=1 -3 3 4 5 -7 -8 -9
leaf_value=0.032001882613489477 0.015997557200695109 -0.027728862565808733 -0.013940300991398844 0.014926234280510367 -0.015475613213239594 0.022417137604361728 0.033079784903492067 -0.026885740621616659
leaf_weight=26.5351871997118 0.91902220249176014 6.5523014068603507 4.7916649170219889 38.725832043215625 5.9801873955875617 3.2615952007472515 13.519410390406852 3.9809069130569688
leaf_count=39 1 177 25 198 47 9 26 88
internal_value=0.014711 0.00843882 0.0121478 0.0145667 0.0170238 -0.000926588 0.0202132 -0.0169859
internal_weight=104.266 77.7309 71.1786 66.2787 61.487 9.24178 52.2452 4.89993
internal_count=610 571 394 305 280 56 224 89
is_linear=0
shrinkage=0.03


Tree=69
num_leaves=10
num_cat=0
split_feature=4 99 75 5 72 34 5 56 23
split_gain=12.0013 11.58 9.99971 7.6795 9.20431 12.0927 4.56593 2.05738 0.77641
threshold=-0.49088167148593659 7.5000000000000009 3.0947071460877438 -0.075323744608302087 56.573763003166 0.701155781340696 0.021437948622781814 2.0522637692920789 28.455548286437992
decision_type=2 2 2 2 2 2 2 2 2
left_child=-1 2 3 8 5 -5 -6 -4 -2
right_child=1 -3 7 4 6 -7 -8 -9 -10
leaf_value=0.031792860616987856 0.029569124785988908 -0.027579829288810021 0.00051976271238713247 -0.03246094340195408 -0.0071412248134696396 0.024343039207620966 0.024426981687140813 -0.035940333272820549 0.015525208636725012
leaf_weight=25.924174383282661 21.057699436321858 6.3978182766586533 1.7638164218515147 9.046033035963772 4.754991119727495 4.1501701325178137 16.086831480264664 3.400598656386137 10.431001219898461
leaf_count=39 36 177 14 194 32 5 42 40 31
internal_value=0.0144548 0.0082533 0.0118776 0.0151555 0.00492462 -0.0139286 0.0170902 -0.0249371 0.0256303
internal_weight=103.013 77.089 70.6911 65.5267 34.038 13.1962 20.8418 5.16442 31.4887
internal_count=610 571 394 340 273 199 74 54 67
is_linear=0
shrinkage=0.03


Tree=70
num_leaves=11
num_cat=0
split_feature=1 99 37 50 60 34 39 69 31 102
split_gain=11.3718 8.52021 6.78168 8.78931 6.22505 10.4355 4.67944 3.65408 2.62926 1.78371
threshold=0.58191668190186385 7.5000000000000009 1.6806684056191517 36.089300426305051 0.95485340012015618 0.39958818341812458 0.91326547916200085 3.7150000000000003 0.74910473689237944 0.55000000000000016
decision_type=2 2 2 2 2 2 2 2 2 2
left_child=1 2 4 -4 9 6 -6 -7 -3 -1
right_child=-2 8 3 -5 5 7 -8 -9 -10 -11
leaf_value=0.011898196738992926 0.030920862127333727 -0.027520047592882395 0.021493540389448316 -0.039173157396273105 0.0078369641398678414 0.030288516130046357 -0.028926721633843432 0.0035584540034229476 0.014820614090679071 0.029558628019151
leaf_weight=10.489846710115673 26.305210530757904 6.348711170256137 2.7712164670228949 4.1733381170779467 4.1216215398162621 9.7293914966285246 7.7532839868217707 9.0839313585311157 0.84624040126800526 19.811035864055157
leaf_count=30 40 178 4 51 32 15 190 36 1 33
internal_value=0.014248 0.00804133 0.0114175 -0.0149284 0.0146582 0.0047587 -0.0163159 0.0183644 -0.0209732 0.0241161
