tree
version=v4
num_class=1
num_tree_per_iteration=1
label_index=0
max_feature_idx=211
objective=binary sigmoid:1
feature_names=Column_0 Column_1 Column_2 Column_3 Column_4 Column_5 Column_6 Column_7 Column_8 Column_9 Column_10 Column_11 Column_12 Column_13 Column_14 Column_15 Column_16 Column_17 Column_18 Column_19 Column_20 Column_21 Column_22 Column_23 Column_24 Column_25 Column_26 Column_27 Column_28 Column_29 Column_30 Column_31 Column_32 Column_33 Column_34 Column_35 Column_36 Column_37 Column_38 Column_39 Column_40 Column_41 Column_42 Column_43 Column_44 Column_45 Column_46 Column_47 Column_48 Column_49 Column_50 Column_51 Column_52 Column_53 Column_54 Column_55 Column_56 Column_57 Column_58 Column_59 Column_60 Column_61 Column_62 Column_63 Column_64 Column_65 Column_66 Column_67 Column_68 Column_69 Column_70 Column_71 Column_72 Column_73 Column_74 Column_75 Column_76 Column_77 Column_78 Column_79 Column_80 Column_81 Column_82 Column_83 Column_84 Column_85 Column_86 Column_87 Column_88 Column_89 Column_90 Column_91 Column_92 Column_93 Column_94 Column_95 Column_96 Column_97 Column_98 Column_99 Column_100 Column_101 Column_102 Column_103 Column_104 Column_105 Column_106 Column_107 Column_108 Column_109 Column_110 Column_111 Column_112 Column_113 Column_114 Column_115 Column_116 Column_117 Column_118 Column_119 Column_120 Column_121 Column_122 Column_123 Column_124 Column_125 Column_126 Column_127 Column_128 Column_129 Column_130 Column_131 Column_132 Column_133 Column_134 Column_135 Column_136 Column_137 Column_138 Column_139 Column_140 Column_141 Column_142 Column_143 Column_144 Column_145 Column_146 Column_147 Column_148 Column_149 Column_150 Column_151 Column_152 Column_153 Column_154 Column_155 Column_156 Column_157 Column_158 Column_159 Column_160 Column_161 Column_162 Column_163 Column_164 Column_165 Column_166 Column_167 Column_168 Column_169 Column_170 Column_171 Column_172 Column_173 Column_174 Column_175 Column_176 Column_177 Column_178 Column_179 Column_180 Column_181 Column_182 Column_183 Column_184 Column_185 Column_186 Column_187 Column_188 Column_189 Column_190 Column_191 Column_192 Column_193 Column_194 Column_195 Column_196 Column_197 Column_198 Column_199 Column_200 Column_201 Column_202 Column_203 Column_204 Column_205 Column_206 Column_207 Column_208 Column_209 Column_210 Column_211
feature_infos=[3.0951519012451172:90.752201690673857] [0.12386832628849136:1.1644372722359764] [0.6416070162750821:2.129214264756059] [0.011885626260501086:0.10561151205553634] [-0.82885558175978147:-0.063659248499362386] [-0.60014462039334249:1.0818536132225245] [-0.62636860904216185:0.95932239875740422] none none none none none none none none none none none none none none none none [3.0951519012451172:90.752201690673857] [3.3528844938903557:87.315651507188448] [0.21974444042181968:11.023636028228003] [-0.014946740966631554:0.011325121667722201] [0.0087578252174694404:0.10814860749775569] [-0.47048609218099419:-0.017961097735517503] [0.019807259594852758:0.29554929640273314] [-2.5641354108387415:2.1326895957828] [0.13780967365188562:1.5151522402627307] [0.12386832628849109:1.1644372722359773] [0.16802854594404845:2.3190181526883387] [0.14457145879226577:1.5137070937782131] [0.13778834014806474:1.7298536092349568] [0.65669343057170992:1.359322657754396] [0.79015024316895677:2.3044491673381668] [-0.27749930943386769:0.11844883087453646] [0.79196205732197922:1.415015916021499] [-4.5799947367451468:-1.4398990873022313] [1.5635787057263015:4.2865898799590072] [-0.3536957872533657:0.33054945054945062] [-0.61111111412244556:1.1208509423268103] [-0.69638272349066388:1.1504755510272435] [-0.76098517497744989:2.3014743999776566] [0.19261238623673474:0.79998943467433203] [-0.37935367614760757:0.30880455748058172] [0.052977908545708927:0.58767186138720684] [0.087199759035823193:0.92086517285811798] [30.92955029194631:67.640734130802457] [19.42327574238146:89.031526788433681] [1.6634148549483294:42.235044627214123] [-0.32186917432116458:0.29122942409019359] [-0.60622684155461326:0.93615584560692622] [0.869982267189369:1.2370381129644716] [1.5628879047384403:8.0967153623324393] [-12.502114810009781:11.578745049333669] [-6.4748912290986107:3.5034338260585289] [0.77977681545421318:1.267559165504996] [0.65491990936976685:1.2591630408729604] [0.4542008137867552:1.4984043377224401] [0.3812998621622371:1.5355423538595447] [-1.1113692848916199:0.30474937839169669] [-0.76748696876610722:-0.015230416105738344] [-0.87807963248468524:-0.058710226543685178] [0.013610460728805408:0.1371011237765179] [0.016228131054851876:0.32234941780365128] [3.4670588235294115:7.5815151515151511] [3.2799999999999998:7.0499999999999998] [10.294477611940298:21.224776119402986] [9.5099999999999998:25.420000000000002] [33.366060606060607:69.874411764705883] [36.939999999999998:74.129999999999995] [33.911060606060609:75.245000000000005] [1.9959090909090909:3.7994029850746269] [0.2373134328358209:1.5513636363636363] [0.20999999999999999:1.71] [1.5617910447761194:3.0395522388059701] [0.23588235294117646:0.49940298507462688] [0.11:2.2195522388059703] [3.7676470588235293:5.533823529411765] [1.7125757575757576:3.3818181818181818] [1.2775757575757574:2.6724242424242424] [-0.38285948605795517:0.30671358960476458] [-1.2400000000000002:2.0500000000000003] none [0:1] [0:0.066801619433198373] [0.0092466164060876072:0.094543284063063698] [0:0.62910508423225442] [0:1] [0:1] [0:0.2088874139568577] [0.230625:0.95374999999999999] [0.31374999999999997:0.82874999999999999] [0:6] [0:4] [0:13] [1:9] [0:1] [0.64194974589142417:0.64760775824993511] [0:1] [0:0.03430287626032702] [13:14] [0:0.12741119629545811] [0:1] [0:2.8025968497232867] [0.025000000000000001:0.095064921243082162] [0:13] [-0.82885558175978147:0] [-0.82885558175978147:0] [-0.82885558175978147:0] [-0.5139883174359311:0.54243812228525556] [-0.69190179110201511:0.66714863762891297] [0:1.1644372722359764] [0:1.1644372722359764] [0:1.1644372722359764] [-0.63191667492744996:0.53318180801423753] [-0.69966326556860947:0.83277453792660094] [0:1.7298536092349568] [0:1.7298536092349568] [0:1.7298536092349568] [-0.9921798927148906:0.92193521483751995] [-1.4395918152606888:1.3448185399121888] [0:1.5137070937782131] [0:1.5137070937782131] [0:1.5137070937782131] [-0.50380182330804757:0.89623899232087467] [-1.1498823350452196:1.1286720244554451] none none none none none none none none none none [0:90.752201690673857] [0:90.752201690673857] [0:90.752201690673857] [-29.846237182617188:16.058666229248047] [-41.638496398925781:33.520469665527344] [-0.56819576219901624:1.0818536132225245] [-0.56819576219901624:1.0818536132225245] [-0.56819576219901624:1.0818536132225245] [-0.98561524791596855:1.5526759349357775] [-1.1424347569045747:1.0904666646503391] [0:7.5815151515151511] [0:7.5815151515151511] [0:7.5815151515151511] [-1.2550972410673902:1.1769563279857396] [-3.6512121212121214:2.6856327985739741] [0:2.6724242424242424] [0:2.6724242424242424] [0:2.6724242424242424] [-0.54346901854364571:0.37918894830659555] [-1.0903030303030303:0.71374777183600702] [0:0.49940298507462688] [0:0.49940298507462688] [0:0.49507462686567166] [-0.19690298507462689:0.12561510628674805] [-0.23283582089552241:0.21999999999999992] [0:69.874411764705883] [0:68.106119402985072] [0:57.774242424242424] [-11.129914066033464:12.168267752148353] [-15.273057040998218:21.750232660228271] [-0.27749930943386769:0.11844883087453646] [-0.27749930943386769:0.11844883087453646] [-0.27749930943386769:0.11844883087453646] [-0.28019778630901737:0.28343891177621749] [-0.22277829271783667:0.25333985968486994] [0:1.4984043377224401] [0:1.4984043377224401] [0:1.4403779057306294] [-0.48158620496423665:0.58931085381372394] [-0.54153800675354424:0.81342760878923481] none none none none none none none none none none none none none none none none none [-0.22672869045077421:0.23577610352442346] [-0.22712941154013516:0.280307034417343] [-0.98094708276797815:0.98127881315348353] [-14.210832214355468:8.2905008850097772] [-0.37593995381847167:0.3858267901603013] [-0.39330600328294474:0.68679296459595074] none none [-30.119537353515625:63.899687423706084] [0:1] [-15.273057040998218:21.750232660228271] [-3.6512121212121214:2.6856327985739741] [-8.7807575757575762:10.930298507462687] [-0.23283582089552241:0.21999999999999992] [-1.1639393939393941:0.84799465240641725]
tree_sizes=958 1074 1276 1176 1175 1085 1075 1186 975 1295 1176 1071 1074 1187 1082 1189 985 1190 1188 1088 984 1302 1190 1090 1087 1294 1187 987 1083 1178 1183 1288 1287 1190 1083 1183 1494 1079 1180 1081 1493 981 1202 1188 1188 985 1187 1087 1286 1194 1187 1188 1088 1295 1188 1188 1388 1286 1189 1086 1382 1287 1398 1394 1194 1188 1399 1292 1385 1086 1185 1181 1501 1500 1190 1395 1296 1180 1187 1397 1278 1297 1397 1180 1293 1179 1300 1509 1285 1187 1496 1376 1403 1403 1298 1393 1393 1400 1278 1395 1195 1400 1083 1285 1394 1294 1299 1615 1503 1301 1403 1504 1405 1084 1404 1399 1379 1408 1410 1195 1296 1296 1601 1304 1202 1201 1087 1202 1297 1306 1302 1404 1296 1199 1305 1415 1083 1505 1721 1315 1313 1614 1182 1383 1618 1306 1603 1281 1417 1308 1294 1412 1518 1522 1400 1696 1098 1317 1297 1389 1314 1206 1510 1200 1824 1203 1612 1713 1422 1590 1533 1637 1534 1364 1410 1205 1306 1083 1305 1273 1615 1296 1632 1475 1316 1511 1186 1601 1086 1417 1209 1787 1410 1305 1429 1504 1641 1530 1183 1721 1619 1078 1634 1207 1387 1293 1415 1641 1522 1312 1626 1501 1748 1622 1182 1313 1533 1427 1526 1420 1499 1535 1302 1190 1529 1499 1592 1766 1412 1422 1643 1539 1298 1642 1647 1422 1371 1190 1378 1432 1519 1406 1442 1393 1297 1615 1609 1745 1382 1625 1682 1629 1308 1717 1555 1401 1329 1837 1418 1485 1327 1281 1402 1336 1424 1629 1112 1614 1571 1432 1396 1307 1508 1609 1404 1594 1481 1445 1385 1360 1511 1316 1322 1554 1428 1207 1336 1408 1385 1607 1446 1504 1444 1313 1176 1590 1397 1431 1370 1416 1644 1533 1248 1310 1374 1295 1542 1293 1268 1204 1230 1344 1614 1408 1369 1540 1305 1300 1424 1703 1370 1277 1450 1484 1593 1426 1479 1317 1090 1425 1390 1805 1473 1611 1536 1197 1389 1426 1453 1600 1423 1438 1187 1715 1493 1484 1816 1686 1490 1593 1108 1283 1489 1422 1542 1507 1914 1380 1280 1811 1603 1598 1821 1495 1659 1404 1279 1194 1722 1405 1617 1309 1627 1680 1506 1405 1512 1789 1535 1493 1503 1376 1366 1339 1619 1397 1577 1502 1497 1515 1494 1679 1374 1486 1454 1534 1292 1380 1868 1579 1464 1410 1670 1664 1482 1184 1413 1285 1476 1484 1361 1304 1264 1470 1180 1583 1751 1499 1277 1384 1607 1496 1657 1498 1168 1465 1506 1477 1564 1376 1336 1467 1505 1320 1654 1543 1543 1701 1357 1205 1354 1286 1676 1567 1396 1471 1361 1178 1478 1298 1076 1573 1287 1596 1286 1406 1362 1457 1477 1552 1421 1094 1547 1557 1281 1704 1281 1356 1440 1486 1400 1471 1464 1161 1262 1474 1453 1549 1512 1196 1546 1364 1487 1169 1546 1482 1368 1448 1553 1250 1087 1169 1532 1455 1199 1323 1458 1423 1352 1330

Tree=0
num_leaves=8
num_cat=0
split_feature=33 60 172 76 126 48 1
split_gain=925.895 754.023 132.809 113.476 204.793 49.488 9.48193
threshold=0.48638290490404351 0.96426324433407407 0.044586665567016494 1.4469293239683936 0.35423790080661638 0.12987274697279186 0.33076324256429229
decision_type=2 2 2 2 2 2 2
left_child=1 3 -3 4 -1 -2 -7
right_child=5 2 -4 -5 -6 6 -8
leaf_value=-1.8510515897668713 -1.8350239335717973 -1.8546398043585743 -1.7256816364149519 -1.6274068180356303 -1.6499724195035783 -1.7261856373820343 -1.6212534736858106
leaf_weight=7.3155736029148128 0.83949205279350181 38.256852120161057 7.8023380041122428 30.807242631912231 9.968086510896681 3.5413866937160483 153.31664854288101
leaf_count=61 7 319 30 29 13 12 139
internal_value=-1.66861 -1.74427 -1.83117 -1.66246 -1.73225 -1.62422 -1.62299
internal_weight=251.848 94.1501 46.0592 48.0909 17.2837 157.698 156.858
internal_count=610 452 349 103 74 158 151
is_linear=0
shrinkage=1


Tree=1
num_leaves=9
num_cat=0
split_feature=33 177 6 163 122 35 206 111
split_gain=638.71 531.922 149.973 134.916 90.5264 21.7272 24.7367 4.25344
threshold=0.48638290490404351 0.89378957318422081 -0.01419624830142424 0.020600739617420916 0.54294711616808222 0.43897004552459934 0.26666666666666672 -0.079818514058560899
decision_type=2 2 2 2 2 2 2 2
left_child=1 2 7 -4 -3 6 -2 -1
right_child=5 4 3 -5 -6 -7 -8 -9
leaf_value=0.11521867552459075 0.073080542184398301 -0.033701433141032244 -0.03106601402548333 0.12205503212296874 0.12176475334991833 0.17155506701512932 0.15120617569555897 0.16805577707713776
leaf_weight=13.968522451817988 9.5106471329927444 34.387774363160133 9.290035620331766 9.7871699631214124 2.7383799105882636 157.2295775860548 14.038515463471413 29.144898138940334
leaf_count=37 35 291 79 22 3 107 16 20
internal_value=0.132515 0.0703095 0.123288 0.0495068 -0.0192628 0.166098 0.124038 0.154005
internal_weight=280.096 99.3168 62.1906 19.0772 37.1262 180.779 23.5492 43.1134
internal_count=610 452 158 101 294 158 51 57
is_linear=0
shrinkage=0.03


Tree=2
num_leaves=11
num_cat=0
split_feature=33 60 39 125 79 107 48 44 65 65
split_gain=467.645 514.263 88.9492 87.4367 58.0364 103.354 31.7425 10.6001 9.25546 65.4427
threshold=0.48638290490404351 0.96426324433407407 0.91326547916200085 0.35423790080661638 0.3081156716417911 2.2709983532818447 0.12987274697279186 -0.26737159620994938 -0.35088000751930765 -0.6332830587504511
decision_type=2 2 2 2 2 2 2 2 2 2
left_child=1 4 3 -3 -1 -6 -2 -8 9 -9
right_child=6 2 -4 -5 5 -7 7 8 -10 -11
leaf_value=0.13869523373874748 -0.015150031798925762 -0.028417586560399381 -0.033640512553832345 0.13148176400730366 -0.029460295146256484 0.13889159245220492 0.15458880005633524 0.14547381288911682 0.14070422384717002 0.047247930681082372
leaf_weight=46.716931901872158 0.89834554493427177 5.0116689503192884 34.748829282820225 5.8406751155853271 5.974933020770548 5.5314427688717842 123.92004685103893 14.415068194270134 49.277489259839058 12.614033818244934
leaf_count=50 7 43 298 8 50 3 52 6 45 48
internal_value=0.117974 0.0652783 -0.0101719 0.0612189 0.123596 0.0558658 0.144705 0.145509 0.128915 0.103062
internal_weight=304.949 103.824 45.6012 10.8523 58.2233 11.5064 201.125 200.227 76.3066 27.0291
internal_count=610 452 349 51 103 53 158 151 99 54
is_linear=0
shrinkage=0.03


Tree=3
num_leaves=10
num_cat=0
split_feature=99 199 110 124 49 49 48 120 33
split_gain=374.826 207.65 258.701 145.248 49.5363 78.4344 49.0573 37.5631 15.6795
threshold=7.5000000000000009 -0.097290592492085104 -0.26300431401027341 0.47503067067034205 0.26867621880952808 0.23411349729136857 0.1829840945232441 0.27883385724614546 0.18631282249709993
decision_type=2 2 2 2 2 2 2 2 2
left_child=1 2 -1 -2 5 7 -7 8 -3
right_child=3 4 -4 -5 -6 6 -8 -9 -10
leaf_value=0.11420051340312708 -0.033802030934236935 0.1067592017522324 -0.032824044774455489 0.11989279172410183 0.13496256532933712 -0.029738151452327326 0.097178942985347752 0.12776742842594643 0.028187288159870826
leaf_weight=24.842658847570419 22.327935516834263 3.0816419124603263 17.807926923036575 6.2543749809265128 195.19088876247406 6.4414835348725301 3.3724515438079834 39.575646385550499 8.1505552530288679
leaf_count=32 178 1 152 2 104 55 3 40 43
internal_value=0.106644 0.116551 0.0533989 0.002644 0.12682 0.0987888 0.0185515 0.113572 0.0569548
internal_weight=327.046 298.463 42.6506 28.5823 255.813 60.6218 9.81394 50.8078 11.2322
internal_count=610 430 184 180 246 142 58 84 44
is_linear=0
shrinkage=0.03


Tree=4
num_leaves=10
num_cat=0
split_feature=66 177 72 3 206 3 159 159 61
split_gain=292.869 289.526 161.864 76.4604 64.6889 20.5693 20.2271 14.0749 5.31878
threshold=0.034168031773422113 0.89378957318422081 56.573763003166 0.035738944796036468 0.75000000000000011 0.045395843250400199 0.19779800862000144 -0.13149253731343277 0.73136147574863941
decision_type=2 2 2 2 2 2 2 2 2
left_child=1 2 4 -3 -1 6 7 -2 -8
right_child=5 3 -4 -5 -6 -7 8 -9 -10
leaf_value=-0.031957284994381024 0.075046203619891602 -0.033304989573105598 0.11499774778595725 0.10365266867520528 0.10482493810740361 0.12343827485438336 0.097173884081234355 0.1154649244672411 0.045692597721063447
leaf_weight=11.597907476127146 18.936045043170452 30.695295937359333 49.922554932534695 3.162817955017089 3.1318953037261954 152.89861090481281 3.3400788307189968 60.452561840415001 12.668792046606539
leaf_count=97 45 273 47 1 1 56 1 47 42
internal_value=0.0975037 0.0528827 0.0896618 -0.0178186 0.00175023 0.114912 0.100076 0.106915 0.0616916
internal_weight=346.807 98.5105 64.6524 33.8581 14.7298 248.296 95.3975 79.3886 16.0089
internal_count=610 419 145 274 98 191 135 92 43
is_linear=0
shrinkage=0.03


Tree=5
num_leaves=9
num_cat=0
split_feature=200 99 27 66 177 3 128 128
split_gain=277.619 205.527 112.816 76.7774 154.459 62.5928 27.0956 59.7116
threshold=1.6022875785827639 7.5000000000000009 0.046740633074918769 0.034168031773422113 0.91248960543329061 0.035738944796036468 -0.023248173297940346 0.012225337972461019
decision_type=2 2 2 2 2 2 2 2
left_child=1 3 -3 4 6 -6 -1 -8
right_child=-2 2 -4 -5 5 -7 7 -9
leaf_value=0.10931932966798365 -0.03280027360636209 -0.033442669358369058 0.10213632183286901 0.11027902785719426 -0.031909913257124299 0.096939253193038949 -0.028110336430980362 0.091018370601335899
leaf_weight=44.040363803505898 15.358469471335409 16.547116093337539 7.0650086402893058 246.56317323446274 14.456883467733862 3.3466992378234854 4.7290709689259556 12.095977187156675
leaf_count=32 129 131 2 125 132 1 41 17
internal_value=0.0900437 0.095539 0.00950377 0.101728 0.0738411 -0.00366218 0.0962527 0.0576676
internal_weight=364.203 348.844 23.6121 325.232 78.669 17.8036 60.8654 16.825
internal_count=610 481 133 348 223 133 90 58
is_linear=0
shrinkage=0.03


Tree=6
num_leaves=9
num_cat=0
split_feature=99 4 151 31 128 33 4 49
split_gain=232.462 126.811 242.457 112.745 66.2436 76.1655 2.63562 6.54897
threshold=7.5000000000000009 -0.23267893591572383 3.6708208955223887 0.74910473689237944 -0.030336388760263119 0.60876307683453479 -0.39534173004085088 0.27143848125317266
decision_type=2 2 2 2 2 2 2 2
left_child=1 6 4 -2 -3 -6 -1 -8
right_child=3 2 -4 -5 5 -7 7 -9
leaf_value=0.10510628944467978 -0.033534848040614379 0.1017939048479358 -0.032999271019940032 0.095303771739302365 -0.030990089469022548 0.092983056186548618 0.062502275952026703 0.09542460090725742
leaf_weight=184.84421201050282 21.370813176035885 50.001948036253452 19.85302846878767 7.4104743003845206 8.4909650310874003 7.5643520057201377 15.677829675376413 64.416716888546944
leaf_count=59 178 34 175 2 72 3 38 49
internal_value=0.0837592 0.0904647 0.0575624 0.00162344 0.084911 0.0292703 0.100866 0.0898675
internal_weight=379.63 350.849 85.9103 28.7813 66.0573 16.0553 264.939 80.0945
internal_count=610 430 284 180 109 75 146 87
is_linear=0
shrinkage=0.03


Tree=7
num_leaves=10
num_cat=0
split_feature=200 49 128 26 64 31 90 94 35
split_gain=217.31 110.282 147.442 131.551 16.7127 13.0377 3.69854 8.08355 0.48097
threshold=1.6022875785827639 0.26867621880952808 -0.031875621687069554 -0.0029089971908574665 -0.150251441562993 0.28357342786260653 0.010481857124605271 0.83062500000000006 0.44944071962344045
decision_type=2 2 2 2 2 2 2 2 2
left_child=1 2 4 -4 -1 -3 -6 -8 -7
right_child=-2 5 3 -5 6 8 7 -9 -10
leaf_value=0.032932265160422268 -0.032490668902466428 -0.013823200011815981 0.081419406583163115 -0.03320809575082731 0.099631041830724937 0.081350613147908243 0.046509453484524614 0.090236372207534818 0.09571055283128431
leaf_weight=7.2659943103790274 14.752604447305201 0.73981688171625037 12.916189819574354 24.567752026021481 30.700594529509544 58.078956723213196 12.250677324831488 11.957244507968424 219.83803252875805
leaf_count=29 129 6 16 221 12 69 36 9 83
internal_value=0.0784531 0.0828616 0.0547303 0.00730153 0.0827086 0.09268 0.088535 0.0709498 0.0930228
internal_weight=393.068 378.315 99.6585 37.4839 62.1745 278.657 54.9085 24.2079 277.917
internal_count=610 481 323 237 86 158 57 45 152
is_linear=0
shrinkage=0.03


Tree=8
num_leaves=8
num_cat=0
split_feature=99 27 4 151 128 27 4
split_gain=185.546 98.0884 91.9375 200.736 48.3513 64.0733 1.80218
threshold=7.5000000000000009 0.046740633074918769 -0.23267893591572383 3.6708208955223887 -0.030336388760263119 0.030646526594427553 -0.39534173004085088
decision_type=2 2 2 2 2 2 2
left_child=2 -2 6 4 -4 -6 -1
right_child=1 -3 3 -5 5 -7 -8
leaf_value=0.091450942895392573 -0.033477828006254623 0.084043371684242724 0.08859376940051715 -0.032784917081150937 -0.03057401816692875 0.082274893703415786 0.078722958545084348
leaf_weight=200.05597686767578 20.9868657886982 8.0111796855926496 54.285746797919273 19.16898500174284 8.1272754892706889 8.1576325595378858 86.16297248005867
leaf_count=59 178 2 34 175 72 3 87
internal_value=0.0738598 0.00060862 0.0794851 0.051886 0.0750637 0.0272715 0.0879172
internal_weight=404.957 28.998 375.959 89.7396 70.5707 16.2849 286.219
internal_count=610 180 430 284 109 75 146
is_linear=0
shrinkage=0.03


Tree=9
num_leaves=11
num_cat=0
split_feature=200 49 123 26 1 145 123 3 90 94
split_gain=134.511 79.1041 93.259 106.842 46.663 29.2371 34.9412 18.7194 1.64626 11.5272
threshold=1.3746132373809818 0.26867621880952808 -0.020406187439286332 -0.0029089971908574665 0.8600052460153208 -0.026031369104199616 -0.022710406495968238 0.026425743284302534 0.010481857124605271 0.83062500000000006
decision_type=2 2 2 2 2 2 2 2 2 2
left_child=1 2 5 -4 -2 6 -1 -3 -7 -10
right_child=4 7 3 -5 -6 8 -8 -9 9 -11
leaf_value=-0.029845396243321207 -0.03230782142264628 -0.018971430790135687 0.071349801702443844 -0.032732482715592592 0.071743931825117652 0.086741456067803022 0.076445499466134895 0.082223640148469834 0.03912997988740799 0.085314068375407059
leaf_weight=5.3704571053385735 15.013754740357401 1.2646844685077656 13.928431019186972 20.913188979029655 4.1202921867370597 33.255446717143059 4.0003235638141614 291.70574481040239 13.320211566984655 12.2060574516654
leaf_count=43 137 10 17 197 1 13 2 145 41 4
internal_value=0.0698842 0.0736306 0.0500449 0.00962198 -0.00730204 0.0702289 0.0182362 0.0817136 0.0780235 0.0637109
internal_weight=415.099 395.965 102.994 34.8416 19.134 68.1525 9.37078 292.97 58.7817 25.5263
internal_count=610 472 317 214 138 103 45 155 58 45
is_linear=0
shrinkage=0.03


Tree=10
num_leaves=10
num_cat=0
split_feature=99 31 199 4 4 90 48 44 57
split_gain=152.784 86.9069 70.871 131.799 13.1133 33.1446 53.6417 2.3068 1.51273
threshold=7.5000000000000009 0.74910473689237944 -0.097290592492085104 -0.25886592010823922 -0.23267893591572383 0.049939818224454507 0.078672489074151822 0.037847001112830576 -1.2192543221581913
decision_type=2 2 2 2 2 2 2 2 2
left_child=2 -2 3 -1 -4 7 -7 8 -6
right_child=1 -3 4 -5 5 6 -8 -9 -10
leaf_value=0.069955337941788875 -0.033404662816541364 0.07567233149284168 0.07978095834052884 -0.032316238000182122 0.070978747632322842 0.070348988078166266 -0.031323696716462554 0.079921900473353819 0.042123038521879166
leaf_weight=33.261229515075684 20.524969920516018 8.4645891189575178 267.59786192327738 16.185593850910664 8.9105251505970973 8.9467213302850741 7.9358993694186202 39.439373515546322 12.630179226398466
leaf_count=31 178 2 103 153 6 5 68 25 39
internal_value=0.0663831 0 0.071251 0.036442 0.0761051 0.0625823 0.0233096 0.0728552 0.0568119
internal_weight=423.897 28.9896 394.907 49.4468 345.461 77.8627 16.8826 60.9801 21.5407
internal_count=610 180 430 184 246 143 73 70 45
is_linear=0
shrinkage=0.03


Tree=11
num_leaves=9
num_cat=0
split_feature=99 31 199 110 4 90 55 29
split_gain=137.05 81.7197 62.8558 127.404 11.5885 29.2039 51.796 2.27863
threshold=7.5000000000000009 0.74910473689237944 -0.097290592492085104 -0.26300431401027341 -0.23267893591572383 0.049939818224454507 1.0622300060145091 0.047807054542430873
decision_type=2 2 2 2 2 2 2 2
left_child=2 -2 3 -1 -4 7 -7 -6
right_child=1 -3 4 -5 5 6 -8 -9
leaf_value=0.067722631114941242 -0.033206857966158319 0.072254456519073307 0.075728797552142374 -0.032630976002516632 0.075821629958535863 -0.031528922872901238 0.068375909475615115 0.053809849743224683
leaf_weight=33.653261125087738 20.041088812053207 8.643486022949217 273.41897983849049 16.17833349853754 40.49969395250082 7.8507923185825375 9.0500889271497709 21.948957569897175
leaf_count=32 178 2 103 152 28 67 6 42
internal_value=0.0632947 0 0.067798 0.0350818 0.0722987 0.0596467 0.0226317 0.0691024
internal_weight=431.285 28.6846 402.6 49.8316 352.769 79.3495 16.9009 62.4487
internal_count=610 180 430 184 246 143 73 70
is_linear=0
shrinkage=0.03


Tree=12
num_leaves=9
num_cat=0
split_feature=99 27 199 4 33 42 143 125
split_gain=123.595 77.0284 56.2105 113.61 10.8789 43.5168 38.8678 1.12165
threshold=7.5000000000000009 0.046740633074918769 -0.097290592492085104 -0.25886592010823922 0.49741274751147063 -0.020473522171340349 1.4547195434570315 0.30944017978682964
decision_type=2 2 2 2 2 2 2 2
left_child=2 -2 3 -1 5 7 -7 -4
right_child=1 -3 4 -5 -6 6 -8 -9
leaf_value=0.063536211906147805 -0.033014094821918159 0.069200510352125141 0.055145956082495035 -0.03205765246013248 0.072740059774099391 -0.030652629153590578 0.051642381874993724 0.073087333059734166
leaf_weight=34.613697811961174 19.566378943622116 8.7958865165710431 26.876072332262993 15.530647717416285 258.53204640746117 8.1963260844349879 10.909085132181643 54.48225124925375
leaf_count=31 178 2 41 153 87 75 19 24
internal_value=0.0605277 0 0.064716 0.0338224 0.0689169 0.058429 0.0164196 0.0679385
internal_weight=437.502 28.3623 409.14 50.1443 358.996 100.464 19.1054 81.3583
internal_count=610 180 430 184 246 159 94 65
is_linear=0
shrinkage=0.03


Tree=13
num_leaves=10
num_cat=0
split_feature=4 156 128 27 4 61 199 90 120
split_gain=87.1877 178.978 34.4972 51.6355 15.437 68.0905 37.064 1.42755 4.34185
threshold=-0.23267893591572383 1.3784328358208957 -0.031875621687069554 0.030646526594427553 -0.39534173004085088 0.96934943197879819 -0.6652528267752148 1.8021365533329346e-13 0.44944071962344045
decision_type=2 2 2 2 2 2 2 2 2
left_child=4 2 -2 -4 -1 6 -6 -7 -9
right_child=1 -3 3 -5 5 7 -8 8 -10
leaf_value=0.070352954708057261 0.066565902792378617 -0.032755039049396847 -0.030814390490936715 0.065474819691020134 0.057143075965169959 0.070436604857153681 -0.036418802417825691 0.039510647138192093 0.066303553103711527
leaf_weight=232.88199698925018 62.275196008384228 26.49216552823782 9.0604185834527033 9.0786335468292219 4.7891859561204901 50.236808523535728 10.143133632838724 18.893772378563881 18.6461376324296
leaf_count=72 44 271 84 3 4 18 65 39 10
internal_value=0.0580549 0.033903 0.0560327 0.0181248 0.0656163 0.0542726 -0.0045196 0.0642463 0.0542717
internal_weight=442.497 106.906 80.4142 18.1391 335.591 102.709 14.9323 87.7767 37.5399
internal_count=610 402 131 87 208 136 69 67 49
is_linear=0
shrinkage=0.03


Tree=14
num_leaves=9
num_cat=0
split_feature=99 31 199 4 4 64 125 5
split_gain=105.736 69.4216 46.353 98.5322 9.12531 48.5651 9.0143 24.1905
threshold=7.5000000000000009 0.74910473689237944 -0.097290592492085104 -0.25886592010823922 -0.23267893591572383 -0.13644077343855457 0.3199206261270352 -0.055524559624587126
decision_type=2 2 2 2 2 2 2 2
left_child=2 -2 3 -1 -4 -6 7 -7
right_child=1 -3 4 -5 5 6 -8 -9
leaf_value=0.058172149516729894 -0.032870547983233189 0.063835979762786529 0.066320331819140099 -0.031758273905863346 -0.028595439322441962 0.06547576886011329 0.066386113645640399 0.006219294638469622
leaf_weight=35.653917744755745 18.988375231623653 9.0339975357055646 285.2541733533144 14.84531895816326 5.5810330063104621 13.890439450740816 51.927360348403454 11.225262492895125
leaf_count=31 178 2 103 153 55 7 27 54
internal_value=0.0558325 -0.000465116 0.0596025 0.0315736 0.0633459 0.0523707 0.0585656 0.0403587
internal_weight=446.4 28.0224 418.378 50.4992 367.878 82.6241 77.0431 25.1157
internal_count=610 180 430 184 246 143 88 61
is_linear=0
shrinkage=0.03


Tree=15
num_leaves=10
num_cat=0
split_feature=99 31 199 110 49 90 55 5 43
split_gain=96.7287 65.8337 42.288 98.9688 8.95854 26.8984 44.508 2.25126 12.0351
threshold=7.5000000000000009 0.74910473689237944 -0.097290592492085104 -0.26300431401027341 0.26867621880952808 0.049939818224454507 1.0622300060145091 -0.05134614627327088 0.034964245904434928
decision_type=2 2 2 2 2 2 2 2 2
left_child=2 -2 3 -1 5 7 -7 -4 -9
right_child=1 -3 4 -5 -6 6 -8 8 -10
leaf_value=0.05740088331069141 -0.032685670543919174 0.061598443055296111 0.066263342524865709 -0.032397478503640477 0.063825194752153425 -0.033105269037376678 0.057226585744831138 0.016164957236903612 0.060540451443399604
leaf_weight=35.570912294089794 18.535409979522232 9.1162896156311017 37.127900175750256 15.014465048909186 287.60344566404819 8.162780627608301 9.6629421636462194 9.0649254024028796 19.525741443037987
leaf_count=32 178 2 15 152 104 67 6 39 15
internal_value=0.0538048 -0.000432096 0.0573606 0.0305779 0.0609109 0.0502067 0.0161411 0.0590213 0.047594
internal_weight=449.385 27.6517 421.733 50.5854 371.148 83.5443 17.8257 65.7186 28.5907
internal_count=610 180 430 184 246 142 73 69 54
is_linear=0
shrinkage=0.03


Tree=16
num_leaves=8
num_cat=0
split_feature=99 31 199 110 33 60 116
split_gain=88.8203 62.5265 38.8293 92.4602 9.00822 33.4553 48.1801
threshold=7.5000000000000009 0.74910473689237944 -0.097290592492085104 -0.26300431401027341 0.49741274751147063 0.95485340012015618 0.35122095397463526
decision_type=2 2 2 2 2 2 2
left_child=2 -2 3 -1 5 -4 -7
right_child=1 -3 4 -5 -6 6 -8
leaf_value=0.055125844268780262 -0.03250505824992285 0.059558276024994083 0.059284444834554084 -0.032214130431770897 0.062070109406573946 -0.032715718446871302 0.048784284381133136
leaf_weight=35.962773405015469 18.091517075896267 9.1789503097534162 78.733270190656185 14.658005617558954 268.78547282516956 9.4639605209231394 16.61130528897047
leaf_count=32 178 2 47 152 87 74 38
internal_value=0.0519602 -0.000400777 0.0553263 0.029643 0.0587099 0.049559 0.0189774
internal_weight=451.485 27.2705 424.215 50.6208 373.594 104.809 26.0753
internal_count=610 180 430 184 246 159 112
is_linear=0
shrinkage=0.03


Tree=17
num_leaves=10
num_cat=0
split_feature=99 27 4 151 123 33 4 76 4
split_gain=81.7959 59.4674 36.6231 107.923 14.7586 50.4939 3.96929 8.60263 26.9761
threshold=7.5000000000000009 0.046740633074918769 -0.23267893591572383 3.6708208955223887 -0.037647224852486526 0.56103698065249985 -0.39534173004085088 1.1053844414292178 -0.27766542032691321
decision_type=2 2 2 2 2 2 2 2 2
left_child=2 -2 6 4 -4 -6 -1 8 -8
right_child=1 -3 3 -5 5 -7 7 -9 -10
leaf_value=0.061270456122641578 -0.032328473974926553 0.05769070915148368 0.058667875160525719 -0.032084153874346093 -0.030520238411490791 0.060241332777675835 -0.00023351230856573588 0.058389046429641697 0.054194380998531355
leaf_weight=228.78392350673676 17.656663522124294 9.2234506607055646 58.754967004060745 16.399427033960819 7.8997845947742489 13.996375530958174 11.745933160185812 63.086683616042137 25.241864055395126
leaf_count=59 178 2 33 175 72 4 37 29 21
internal_value=0.0502634 -0.000370994 0.0534595 0.0364733 0.0506726 0.0274622 0.0583375 0.0510628 0.03728
internal_weight=452.789 26.8801 425.909 97.0506 80.6511 21.8962 328.858 100.074 36.9878
internal_count=610 180 430 284 109 76 146 87 58
is_linear=0
shrinkage=0.03


Tree=18
num_leaves=10
num_cat=0
split_feature=99 31 4 151 123 33 4 77 4
split_gain=75.6384 56.629 33.7787 101.323 13.3433 47.5752 3.91136 8.03825 25.1755
threshold=7.5000000000000009 0.74910473689237944 -0.23267893591572383 3.6708208955223887 -0.037647224852486526 0.56103698065249985 -0.39534173004085088 1.0900000000000001 -0.27766542032691321
decision_type=2 2 2 2 2 2 2 2 2
left_child=2 -2 6 4 -4 -6 -1 8 -8
right_child=1 -3 3 -5 5 -7 7 -9 -10
leaf_value=0.059333309387446631 -0.032155692561390559 0.055974903850438622 0.056578065545086986 -0.031916570582788552 -0.030311922313175779 0.058260028782010906 -0.00022707122653851312 0.056409587645681082 0.052294034243991899
leaf_weight=229.19102795422077 17.230803914368156 9.2511777877807599 59.128312885761261 16.002225451171398 7.724971383810046 14.070979639887808 11.745165809988974 63.371829345822334 25.408042192459106
leaf_count=59 178 2 33 175 72 4 37 29 21
internal_value=0.0487327 -0.000342604 0.0517795 0.0354333 0.0490149 0.0267839 0.0564541 0.0493403 0.0360412
internal_weight=453.125 26.482 426.643 96.9265 80.9243 21.796 329.716 100.525 37.1532
internal_count=610 180 430 284 109 76 146 87 58
is_linear=0
shrinkage=0.03


Tree=19
num_leaves=9
num_cat=0
split_feature=99 31 35 177 45 123 55 58
split_gain=70.1321 53.9877 29.2837 87.179 37.1869 15.9305 63.5225 1.0288
threshold=7.5000000000000009 0.74910473689237944 0.43897004552459934 0.99459085184592488 -0.44768142216556284 -0.038220070658174225 1.0386003106182711 -6.4188524055351417
decision_type=2 2 2 2 2 2 2 2
left_child=2 -2 3 5 -5 -1 -7 -4
right_child=1 -3 7 4 -6 6 -8 -9
leaf_value=0.055418584909940692 -0.031986498121767022 0.054393207282050986 -0.0013776209538408444 0.054342179968672459 -0.033781713618711004 -0.033510354751741779 0.052112271293221456 0.056435431443744223
leaf_weight=93.917857684195042 16.813881933689121 9.2634387016296369 0.12878070771694083 4.5836858749389675 18.176196955144405 9.5956905186176282 30.073714256286621 270.21491400897503
leaf_count=60 178 2 1 1 176 84 23 85
internal_value=0.0473218 -0.00031548 0.0502341 0.0392768 -0.0143677 0.0484776 0.0310124 0.0563919
internal_weight=452.768 26.0773 426.691 156.347 22.7599 133.587 39.6694 270.344
internal_count=610 180 430 344 177 167 107 86
is_linear=0
shrinkage=0.03


Tree=20
num_leaves=8
num_cat=0
split_feature=99 4 199 110 33 60 116
split_gain=65.1597 51.5235 30.2846 75.1649 7.70538 26.2675 41.6742
threshold=7.5000000000000009 -0.5010437710879444 -0.097290592492085104 -0.26300431401027341 0.49741274751147063 0.95485340012015618 0.35122095397463526
decision_type=2 2 2 2 2 2 2
left_child=2 -2 3 -1 5 -4 -7
right_child=1 -3 4 -5 -6 6 -8
leaf_value=0.048186983411901224 0.052930560575468667 -0.03182068550867069 0.051950185477928429 -0.032037946229798331 0.054834967944364217 -0.032841169375502174 0.043491334010526024
leaf_weight=36.593558467924595 9.2614641189575213 16.405831880867481 79.911656208336353 13.743641331791876 269.95170463621616 9.1501231640577334 16.803977079689503
leaf_count=32 2 178 47 152 87 74 38
internal_value=0.046008 -0.00028951 0.0487977 0.0260272 0.0517624 0.0434597 0.016249
internal_weight=451.822 25.6673 426.155 50.3372 375.817 105.866 25.9541
internal_count=610 180 430 184 246 159 112
is_linear=0
shrinkage=0.03


Tree=21
num_leaves=11
num_cat=0
split_feature=99 31 199 201 122 33 42 55 125 173
split_gain=60.6191 49.2188 28.3363 52.4796 9.81314 7.48569 24.7954 29.3148 5.87283 3.84628
threshold=7.5000000000000009 0.74910473689237944 -0.097290592492085104 -0.030861582034025944 0.71669493064118639 0.49741274751147063 -0.020473522171340349 0.96524035900007632 0.28457943481606351 -0.063746809926712264
decision_type=2 2 2 2 2 2 2 2 2 2
left_child=2 -2 3 4 9 6 8 -8 -4 -1
right_child=1 -3 5 -5 -6 -7 7 -9 -10 -11
leaf_value=0.038103000861072975 -0.031658058789363203 0.051574057985198159 0.030838951276871654 -0.030583753005177006 0.053280861160739913 0.053338217871433287 0.040388823955792783 -0.031109711492340326 0.053471574362166485 0.0068156868487128782
leaf_weight=5.5607834905385962 16.006578363478187 9.2464089393615705 19.033468462526798 10.937798485159872 24.084291011095047 269.23915653675795 11.194002099335195 7.9739574044942847 67.681453384459019 9.5395783036947233
leaf_count=6 178 2 36 131 11 87 19 75 29 36
internal_value=0.0447688 -0.000264593 0.0474445 0.0253554 0.0414171 0.0503127 0.0421643 0.0104286 0.0489463 0.0201747
internal_weight=450.497 25.253 425.244 50.1225 39.1847 375.122 105.883 19.168 86.7149 15.1004
internal_count=610 180 430 184 53 246 159 94 65 42
is_linear=0
shrinkage=0.03


Tree=22
num_leaves=10
num_cat=0
split_feature=35 165 177 125 54 55 42 4 4
split_gain=47.709 117.353 35.8609 44.5667 8.47742 6.86838 3.64678 0.656211 0.933674
threshold=0.43897004552459934 48.447618525021959 0.97689034036886435 0.40520008556379233 -0.2722801462871583 0.95683893751943982 -0.045892178062014947 -0.39534173004085088 -0.27304848101396428
decision_type=2 2 2 2 2 2 2 2 2
left_child=1 -1 4 -4 -3 -6 -7 -2 -9
right_child=7 2 3 -5 5 6 -8 8 -10
leaf_value=-0.03368192357877204 0.053089660470544517 -0.02236872203431749 -0.033237717252032506 0.049307487742276709 -0.016399771985307926 0.05265528255001474 0.038615832954944952 0.036239692736565542 0.049797124564678066
leaf_weight=21.440060280263424 212.91492350399494 0.99821513146161933 11.978149093687536 9.7695200592279416 1.0009140148758877 76.862724214792252 46.64543853700161 27.807163834571838 39.257206313312054
leaf_count=231 57 5 119 5 8 39 95 30 21
internal_value=0.0436191 0.0306436 0.0401936 0.00424896 0.0463154 0.0470638 0.0477298 0.0512896 0.0448349
internal_weight=448.674 168.695 147.255 21.7477 125.507 124.509 123.508 279.979 67.0644
internal_count=610 502 271 124 147 142 134 108 51
is_linear=0
shrinkage=0.03


Tree=23
num_leaves=9
num_cat=0
split_feature=99 31 159 110 35 123 5 94
split_gain=55.1679 45.5913 24.6187 64.6082 7.15478 18.9983 60.4397 0.0870186
threshold=7.5000000000000009 0.74910473689237944 -0.13149253731343277 -0.26300431401027341 0.43897004552459934 -0.037647224852486526 -0.16273825646472709 0.32000000000000012
decision_type=2 2 2 2 2 2 2 2
left_child=2 -2 3 -1 5 7 -7 -4
right_child=1 -3 4 -5 -6 6 -8 -9
leaf_value=0.044349202951287546 -0.031562825496432259 0.049072964418959995 0.05293902740914512 -0.031766229825325475 0.051237732608156755 0.045070057299021776 -0.033426489181173989 0.04186632806065952
leaf_weight=36.590980112552643 15.600486107170584 9.1789026260375959 52.112202346324921 12.832572251558302 241.14805196225643 30.364736184477806 11.4099810346961 37.33606743067503
leaf_count=32 178 2 19 150 69 19 105 36
internal_value=0.0425223 -0.000832034 0.0450723 0.0242887 0.0477504 0.0409799 0.0232798 0.0488644
internal_weight=446.574 24.7794 421.795 49.4236 372.371 131.223 41.7747 89.4483
internal_count=610 180 430 182 248 179 124 55
is_linear=0
shrinkage=0.03


Tree=24
num_leaves=9
num_cat=0
split_feature=4 167 74 27 120 38 114 27
split_gain=43.0879 88.4284 39.1513 42.4644 16.4001 33.8644 37.4667 3.05536
threshold=-0.39534173004085088 48.447618525021959 50.062313432835829 0.03494183349764219 0.37725053767596778 -0.029538901042796658 0.082468968060979517 0.025948427865236899
decision_type=2 2 2 2 2 2 2 2
left_child=-1 2 3 -2 5 7 -7 -4
right_child=1 -3 4 -5 -6 6 -8 -9
leaf_value=0.050454062257499287 -0.034233771652951175 -0.036240305993453618 0.033777135210199025 0.045670948022175986 0.050720478376647643 -0.034506428331554359 0.038173537917050027 0.051887846278226304
leaf_weight=234.69782040268183 13.119486369192602 15.321672841906546 29.591385260224342 9.390101030468939 90.404339626431465 12.20422760397196 11.355555497109888 27.61444528400898
leaf_count=72 134 147 65 3 43 114 25 7
internal_value=0.0415285 0.0312988 0.0368158 -0.000248303 0.0416805 0.0310284 0.00053032 0.0433123
internal_weight=443.699 209.001 193.68 22.5096 171.17 80.7656 23.5598 57.2058
internal_count=610 538 391 137 254 211 139 72
is_linear=0
shrinkage=0.03


Tree=25
num_leaves=11
num_cat=0
split_feature=99 4 4 151 123 33 4 63 179 4
split_gain=49.7847 42.1417 23.4035 73.7596 9.19622 35.0173 4.2087 16.5046 18.3115 17.3762
threshold=7.5000000000000009 -0.5010437710879444 -0.23267893591572383 3.6708208955223887 -0.037647224852486526 0.56103698065249985 -0.39534173004085088 -0.014050031584390702 0.053731757185315761 -0.27304848101396428
decision_type=2 2 2 2 2 2 2 2 2 2
left_child=2 -2 6 4 -4 -6 -1 8 9 -8
right_child=1 -3 3 -5 5 -7 7 -9 -10 -11
leaf_value=0.049739997441440482 0.046899959203668858 -0.031375242169423626 0.046646237596937271 -0.031546788069605099 -0.029746905844416152 0.048102695545641221 -0.039695318525542915 0.046807242584400846 0.044441032066730168 0.026605466554156725
leaf_weight=222.42031565308571 9.0694155693054217 15.062014538794754 58.966961830854416 14.401221122592686 7.0943556055426624 13.965564623475073 6.390943706035614 77.236663065850735 10.044541135430334 5.8723210170865077
leaf_count=59 2 178 33 175 72 4 32 37 6 12
internal_value=0.0405867 -0.00114177 0.0430092 0.0292102 0.0404352 0.0215822 0.046944 0.0402342 0.0163158 -0.00810845
internal_weight=440.524 24.1314 416.393 94.4281 80.0269 21.0599 321.965 99.5445 22.3078 12.2633
internal_count=610 180 430 284 109 76 146 87 50 44
is_linear=0
shrinkage=0.03


Tree=26
num_leaves=10
num_cat=0
split_feature=99 31 4 177 73 26 4 63 4
split_gain=46.8017 40.4185 22.1116 59.8741 30.8027 21.3778 4.19312 15.6199 12.9159
threshold=7.5000000000000009 0.74910473689237944 -0.23267893591572383 0.97689034036886435 56.615000000000002 -0.002504969442767522 -0.39534173004085088 -0.014050031584390702 -0.25027803808521371
decision_type=2 2 2 2 2 2 2 2 2
left_child=2 -2 6 4 5 -4 -1 8 -8
right_child=1 -3 3 -5 -6 -7 7 -9 -10
leaf_value=0.04869948420167803 -0.03121946859543524 0.045939772673482655 0.042571872236734934 -0.03106555869681582 0.045834467345339226 -0.031803879959286144 -0.0052286035333188891 0.045667945331002997 0.038973228697340025
leaf_weight=220.408930554986 14.693612951785328 9.0030989646911603 4.5408883094787589 12.308295108377932 68.425854437053204 8.3326010927557927 11.918371021747591 76.819770261645317 10.29791086912155
leaf_count=59 178 2 1 153 47 83 38 37 12
internal_value=0.0397247 -0.00110971 0.0420717 0.028589 0.0379246 -0.00417537 0.0459116 0.0392522 0.0159272
internal_weight=436.749 23.6967 413.053 93.6076 81.2993 12.8735 319.445 99.0361 22.2163
internal_count=610 180 430 284 131 84 146 87 50
is_linear=0
shrinkage=0.03


Tree=27
num_leaves=8
num_cat=0
split_feature=99 27 199 110 33 60 116
split_gain=44.0294 38.7886 21.0246 55.8477 6.33251 19.1692 34.5529
threshold=7.5000000000000009 0.046740633074918769 -0.097290592492085104 -0.26300431401027341 0.49741274751147063 0.95485340012015618 0.35122095397463526
decision_type=2 2 2 2 2 2 2
left_child=2 -2 3 -1 5 -4 -7
right_child=1 -3 4 -5 -6 6 -8
leaf_value=0.040375307899431043 -0.031066188176952402 0.04503635262425873 0.043535563423230707 -0.031657663549491302 0.046514653069888431 -0.032942001345734447 0.037681039612986349
leaf_weight=35.979433499276638 14.333506137132646 8.9293546676635724 78.034971743822098 12.244130339473484 258.12916198372841 8.7643955461680907 16.37306172400713
leaf_count=32 178 2 47 152 87 74 38
internal_value=0.0389008 -0.00107867 0.0411763 0.0217534 0.0436932 0.0362266 0.0126247
internal_weight=432.788 23.2629 409.525 48.2236 361.302 103.172 25.1375
internal_count=610 180 430 184 246 159 112
is_linear=0
shrinkage=0.03


Tree=28
num_leaves=9
num_cat=0
split_feature=99 31 35 177 45 73 143 90
split_gain=41.4276 37.2449 20.1882 59.7046 28.1241 10.8365 50.4062 0.242612
threshold=7.5000000000000009 0.74910473689237944 0.43897004552459934 0.99459085184592488 -0.44768142216556284 56.615000000000002 -4.1387767791748038 0.026221772030271265
decision_type=2 2 2 2 2 2 2 2
left_child=2 -2 3 5 -5 6 -1 -7
right_child=1 -3 -4 4 -6 7 -8 -9
leaf_value=0.043461258053665727 -0.03091524580695032 0.044184701414765826 0.045584080761664786 0.043885737147634669 -0.033822297621110345 0.048036389568338556 -0.033765935207919005 0.037649359453415743
leaf_weight=28.523490659892559 13.981587432324888 8.848906993865965 255.5841997936368 4.5778288841247585 16.241839781403542 54.938338931649923 9.373748626559971 36.667451739311218
leaf_count=15 178 2 86 1 176 19 89 44
internal_value=0.038102 -0.00104859 0.0403086 0.0310774 -0.0153701 0.0386281 0.0239053 0.0443626
internal_weight=428.737 22.8305 405.907 150.323 20.8197 129.503 37.8972 91.6058
internal_count=610 180 430 344 177 167 104 63
is_linear=0
shrinkage=0.03


Tree=29
num_leaves=10
num_cat=0
split_feature=99 31 4 177 40 90 2 74 31
split_gain=39.0804 35.781 20.3016 85.6557 22.7364 13.728 40.5689 1.65843 7.22007
threshold=7.5000000000000009 0.74910473689237944 -0.39534173004085088 0.99459085184592488 -1.857724923028252 0.049939818224454507 1.1112223942720811 61.568585481682504 0.45235729797756202
decision_type=2 2 2 2 2 2 2 2 2
left_child=2 -2 -1 5 -5 7 -7 8 -4
right_child=1 -3 3 4 -6 6 -8 -9 -10
leaf_value=0.04603581619264472 -0.030766491196260081 0.043380362567690574 0.016299198545710051 -0.036813638665303287 0.030097650322624687 -0.035853130420945817 0.039353686453274424 0.046987205100382942 0.044815013575247448
leaf_weight=213.4719817340374 13.637745622545483 8.7624340057373029 14.050942860543726 18.066419068723921 5.1323539465665808 7.7152116894721976 24.70227574557066 91.682218357920647 26.944908782839775
leaf_count=59 178 2 51 180 10 63 20 38 9
internal_value=0.037373 -0.0010194 0.0395182 0.0319092 -0.0212546 0.0394806 0.0208278 0.0438258 0.0357338
internal_weight=424.166 22.4002 401.766 188.294 23.1988 165.096 32.4175 132.678 40.9959
internal_count=610 180 430 371 190 181 83 98 60
is_linear=0
shrinkage=0.03


Tree=30
num_leaves=10
num_cat=0
split_feature=99 27 35 75 61 175 147 38 112
split_gain=36.9119 34.3913 18.9603 29.0621 44.6871 15.6555 16.8327 11.2799 40.713
threshold=7.5000000000000009 0.046740633074918769 0.43897004552459934 2.9419293239683939 0.8139767944928864 0.97101859178381722 0.24932468408646161 -0.021189289640730639 -0.24240159954438503
decision_type=2 2 2 2 2 2 2 2 2
left_child=2 -2 3 5 -5 6 -1 -7 -9
right_child=1 -3 -4 4 -6 7 -8 8 -10
leaf_value=-0.030763709783994939 -0.030619781475343562 0.042619368671060212 0.043948471652624034 0.047316265152323053 -0.034649284005143541 0.043907296561779004 0.039743576424631132 0.043427141950264495 -0.033936331325402885
leaf_weight=5.9617135263979417 13.301865488290789 8.6705665588378888 249.8170273900032 9.091623783111574 13.710297353565691 87.359842035919428 4.4197788238525391 19.114125370979313 7.8978115692734709
leaf_count=53 178 2 86 2 145 47 1 16 80
internal_value=0.0366853 -0.000991038 0.0387734 0.0297547 -0.00122693 0.035406 0 0.0385812 0.0202963
internal_weight=419.345 21.9724 397.372 147.555 22.8019 124.753 10.3815 114.372 27.0119
internal_count=610 180 430 344 147 197 54 143 96
is_linear=0
shrinkage=0.03


Tree=31
num_leaves=11
num_cat=0
split_feature=99 4 4 177 73 90 5 90 125 31
split_gain=34.9039 33.0705 19.2275 78.838 18.2499 12.874 17.5758 19.1879 1.57042 2.65809
threshold=7.5000000000000009 -0.5010437710879444 -0.39534173004085088 0.99459085184592488 73.64500000000001 0.049939818224454507 -0.11063958630007902 0.62263142197698274 0.30685250458792074 0.44964968807999728
decision_type=2 2 2 2 2 2 2 2 2 2
left_child=2 -2 -1 5 -5 8 -7 -8 9 -4
right_child=1 -3 3 4 -6 6 7 -9 -10 -11
leaf_value=0.044497996754494909 0.041898163902517722 -0.030474979233457752 0.019362646756581659 -0.036806954255934853 0.02140058453053869 0.036602382085989399 -0.036124944562191542 0.035197978307343704 0.044390037020222865 0.041780947057086647
leaf_weight=208.13363800942898 8.5738935470581072 12.973828513175247 13.127620592713358 16.605528060346845 5.8651225268840781 19.666791044175628 7.5365371182560903 4.6443536430597305 103.99423371255398 13.143371790647505
leaf_count=59 2 178 40 173 17 15 64 4 54 4
internal_value=0.0360351 -0.000963449 0.0380701 0.0306052 -0.0212217 0.0378935 0.0196891 -0.00809597 0.0421374 0.0318093
internal_weight=414.265 21.5477 392.717 184.584 22.4707 162.113 31.8477 12.1809 130.265 26.271
internal_count=610 180 430 371 190 181 83 68 98 44
is_linear=0
shrinkage=0.03


Tree=32
num_leaves=11
num_cat=0
split_feature=99 27 4 177 40 156 116 118 115 1
split_gain=33.0233 31.814 18.6757 74.9159 21.0142 7.815 35.1943 1.63209 1.49016 3.12734
threshold=7.5000000000000009 0.046740633074918769 -0.39534173004085088 0.99459085184592488 -1.857724923028252 1.3784328358208957 0.31660978195476169 0.17231169003988184 0.29574059995507401 0.33076324256429229
decision_type=2 2 2 2 2 2 2 2 2 2
left_child=2 -2 -1 5 -5 8 -7 -8 9 -4
right_child=1 -3 3 4 -6 6 7 -9 -10 -11
leaf_value=0.043778188910429269 -0.030331952006163784 0.041213554207831127 0.021792996705553399 -0.036452825131347684 0.028828113358522409 -0.037188117376035834 0.026231812826857867 0.044272054294201758 0.044489156614510313 0.041573002876105811
leaf_weight=205.26888263225555 12.653513263911011 8.472963333129881 18.037542715668678 17.099887151271108 5.0035381540656081 6.1503191776573649 17.284439586102962 17.109311103820801 79.607285149395466 22.459057997912169
leaf_count=59 178 2 40 180 10 46 44 4 34 13
internal_value=0.0354102 -0.00093658 0.0373942 0.0300082 -0.0209372 0.0371224 0.024443 0.0362881 0.0411407 0.0335726
internal_weight=409.147 21.1265 388.02 182.751 22.1034 160.648 40.5441 34.3938 120.104 40.4966
internal_count=610 180 430 371 190 181 94 48 87 53
is_linear=0
shrinkage=0.03


Tree=33
num_leaves=10
num_cat=0
split_feature=99 27 27 177 61 73 44 125 50
split_gain=31.2668 30.6174 16.4426 48.4808 23.6737 8.12868 54.1926 0.949504 0.610767
threshold=7.5000000000000009 0.046740633074918769 0.027931106365554407 0.99459085184592488 0.8139767944928864 56.615000000000002 -0.24386695056873234 0.35423790080661638 48.607632739059405
decision_type=2 2 2 2 2 2 2 2 2
left_child=2 -2 3 5 -5 6 -1 -7 -4
right_child=1 -3 8 4 -6 7 -8 -9 -10
leaf_value=0.04250783345625371 -0.030190573837444279 0.040562667718852585 0.043700321210487281 0.03960071325057303 -0.033340464864111248 0.031514450859215185 -0.034607433403861826 0.043506181803329817 0.036480849948009854
leaf_weight=30.665839642286301 12.340795673429968 8.3682851791381818 168.19509199261665 4.4119720458984402 14.782121930271385 25.916732456535101 10.183795873075722 61.598877765238285 67.452465370297432
leaf_count=11 178 2 45 1 177 36 95 26 39
internal_value=0.0348126 -0.000910386 0.0367482 0.0284186 -0.0152948 0.0350458 0.0228438 0.040385 0.0418094
internal_weight=403.916 20.7091 383.207 147.559 19.1941 128.365 40.8496 87.5156 235.648
internal_count=610 180 430 346 178 168 106 62 84
is_linear=0
shrinkage=0.03


Tree=34
num_leaves=9
num_cat=0
split_feature=4 157 127 46 108 118 105 55
split_gain=29.7917 53.5109 58.9315 18.7591 13.3674 26.7964 8.99879 25.8387
threshold=-0.39534173004085088 1.5509859791949345 0.79789523338799195 0.31779698580024257 0.061991251929012357 -0.14794514819700816 0.035911666078292534 1.0622300060145091
decision_type=2 2 2 2 2 2 2 2
left_child=-1 3 -3 -2 6 -6 -5 -8
right_child=1 2 -4 4 5 -7 7 -9
leaf_value=0.042159681168856739 -0.031090934960083 -0.035267910426931427 0.041067307063246634 0.040967929815016915 0.041131477657893538 -0.033910870162499905 -0.033003047087850824 0.039066561498320718
leaf_weight=208.75712896883488 3.2155237197875968 23.36544306948781 13.532324150204657 115.3520538546145 8.4508900642395002 6.8365476652979842 5.5869644880294826 13.319140207022427
leaf_count=72 23 300 9 76 2 68 50 10
internal_value=0.0342535 0.02536 -0.00684776 0.0331529 0.0347516 0.00736672 0.0377701 0.0170304
internal_weight=398.416 189.659 36.8978 152.761 149.546 15.2874 134.258 18.9061
internal_count=610 538 309 229 206 70 136 60
is_linear=0
shrinkage=0.03


Tree=35
num_leaves=10
num_cat=0
split_feature=4 177 40 107 118 105 55 73 33
split_gain=28.6899 79.4718 18.3747 12.6706 35.1561 10.5436 24.414 0.714267 6.59186
threshold=-0.39534173004085088 0.99459085184592488 -1.857724923028252 1.4796500771604941 -0.10124384995112058 0.035911666078292534 1.0622300060145091 56.615000000000002 0.60876307683453479
decision_type=2 2 2 2 2 2 2 2 2
left_child=-1 3 -3 5 -5 7 -7 8 -2
right_child=1 2 -4 4 -6 6 -8 -9 -10
leaf_value=0.041534086556334747 0.0135139709454969 -0.035257740451062294 0.023819310035461203 0.039645875501170255 -0.035177352780953845 -0.03263962835903636 0.036012006642673615 0.042184774681236076 0.041551745573950513
leaf_weight=205.60717345774174 13.014268402010201 20.885740727186207 5.2225743532180777 13.463772546499969 8.2991225793957693 5.9191079549491432 13.523248862475155 81.832520041614771 25.031464353203773
leaf_count=72 51 261 16 11 82 60 11 38 8
internal_value=0.0337116 0.0249287 -0.0228869 0.0327905 0.0106889 0.0361208 0.0143904 0.039472 0.0326295
internal_weight=392.799 187.192 26.1083 161.084 21.7629 139.321 19.4424 119.878 38.0457
internal_count=610 538 277 261 93 168 71 97 59
is_linear=0
shrinkage=0.03


Tree=36
num_leaves=13
num_cat=0
split_feature=35 165 75 64 38 47 147 44 142 142 2 2
split_gain=27.3827 67.1914 23.1866 18.8715 5.89978 20.7609 4.99032 1.07506 2.12851 1.34509 0.562155 0.988045
threshold=0.43897004552459934 48.447618525021959 3.0632089552238813 -0.39869592371804324 -0.021444960712342202 -0.11216122575570271 0.2202779387017553 -0.24904297714365201 5.5059087276458749 14.592376232147219 1.0978735074730586 0.89946409300884567
decision_type=2 2 2 2 2 2 2 2 2 2 2 2
left_child=1 -1 4 -4 10 -6 -7 -2 -9 -10 11 -3
right_child=7 2 3 -5 5 6 -8 8 9 -11 -12 -13
leaf_value=-0.032601319466934627 0.041622506400223691 0.039597317165749164 0.037547900760342437 -0.033555809841387188 -0.02978475345979513 0.015756335872855735 0.042450680534795712 0.039691355435131845 0.035408379045958817 0.019729485216190112 0.042725116824044021 0.024846404308216708
leaf_weight=16.634799048304558 164.50328122079372 16.768118165433407 4.2795338630676261 8.2595949657261354 4.9869495742022982 13.171015705913307 17.034026622772217 42.049225077033043 12.530795827507971 20.776502266526222 45.931757040321827 20.262583024799824
leaf_count=231 49 10 1 99 56 41 7 18 6 35 22 35
internal_value=0.0331907 0.022694 0.0299489 -0.00808603 0.0340445 0.022395 0.0317846 0.0395047 0.0343576 0.0265758 0.0386248 0.0324703
internal_weight=387.188 147.328 130.694 12.5391 118.154 35.192 30.205 239.86 75.3565 33.3073 82.9625 37.0307
internal_count=610 502 271 100 171 104 48 108 59 41 67 45
is_linear=0
shrinkage=0.03


Tree=37
num_leaves=9
num_cat=0
split_feature=4 177 40 90 98 31 42 41
split_gain=27.1011 73.7293 17.4361 13.2377 40.0927 22.8257 4.20548 6.71705
threshold=-0.39534173004085088 0.99459085184592488 -1.857724923028252 0.010481857124605271 8.5000000000000018 0.13840412042396308 -0.05687800224898331 2.0300403032517713
decision_type=2 2 2 2 2 2 2 2
left_child=-1 3 -3 -2 5 -5 -6 -8
right_child=1 2 -4 4 6 -7 7 -9
leaf_value=0.040415698243876266 0.039510693023073348 -0.035134901364646177 0.022979907174236768 0.036966817079772389 0.041080201539673164 -0.03603053712156809 0.036920010502021053 0.00070807053429846711
leaf_weight=199.21099607646465 88.12861118093133 20.119202449917797 5.1371683552861205 4.3354685008525875 33.425301924347878 13.333736453205345 9.3479148335754889 8.6975866705179197
leaf_count=72 50 261 16 2 14 137 10 48
internal_value=0.0326808 0.0240482 -0.022775 0.031683 0.0212417 -0.0169379 0.0344784 0.0205777
internal_weight=381.736 182.525 25.2564 157.269 69.14 17.6692 51.4708 18.0455
internal_count=610 538 277 261 211 139 72 58
is_linear=0
shrinkage=0.03


Tree=38
num_leaves=10
num_cat=0
split_feature=4 177 40 108 118 105 55 72 33
split_gain=26.1393 70.3872 16.8832 11.6248 31.8794 9.73735 22.0961 0.817829 6.29818
threshold=-0.39534173004085088 0.99459085184592488 -1.857724923028252 0.061991251929012357 -0.10124384995112058 0.035911666078292534 1.0622300060145091 56.573763003166 0.60876307683453479
decision_type=2 2 2 2 2 2 2 2 2
left_child=-1 3 -3 5 -5 7 -7 8 -2
right_child=1 2 -4 4 -6 6 -8 -9 -10
leaf_value=0.039872734221352645 0.012099038791031507 -0.034935164452896676 0.022451350850490888 0.037645505428797355 -0.034794286862093925 -0.032157998398939645 0.034164492391934385 0.040423981290332117 0.039743044434807008
leaf_weight=195.92934754490852 12.736455421894787 19.640168223530058 5.1241078004240981 13.010720465332271 7.9839008413255206 5.717722654342654 13.017541531473396 78.804582957178354 23.979520410299301
leaf_count=72 52 261 16 11 82 60 11 37 8
internal_value=0.032207 0.0236728 -0.022534 0.0311596 0.009632 0.0344078 0.013168 0.0376842 0.0308082
internal_weight=375.944 180.015 24.7643 155.25 20.9946 134.256 18.7353 115.521 36.716
internal_count=610 538 277 261 93 168 71 97 60
is_linear=0
shrinkage=0.03


Tree=39
num_leaves=9
num_cat=0
split_feature=4 177 40 90 98 31 42 41
split_gain=25.2661 67.1944 16.3501 12.2667 37.3452 21.3994 4.03602 6.25385
threshold=-0.39534173004085088 0.99459085184592488 -1.857724923028252 0.010481857124605271 8.5000000000000018 0.13840412042396308 -0.05687800224898331 2.0300403032517713
decision_type=2 2 2 2 2 2 2 2
left_child=-1 3 -3 -2 5 -5 -6 -8
right_child=1 2 -4 4 6 -7 7 -9
leaf_value=0.0393534662192443 0.038286031428293635 -0.034738188210062651 0.021935484733499447 0.035760691427698429 0.039932497250910012 -0.035667552804530336 0.035630485428264823 0.00045182405002646705
leaf_weight=192.6224754601717 85.781810969114304 19.171744279563431 5.1109930463135234 4.2400702685117748 32.516135185956955 12.946328707039354 9.1714200936257857 8.5911659002304059
leaf_count=72 50 261 16 2 14 137 10 48
internal_value=0.0317461 0.0233011 -0.0222951 0.0306432 0.0204642 -0.0168831 0.0333692 0.0197066
internal_weight=370.152 177.53 24.2827 153.247 67.4651 17.1864 50.2787 17.7626
internal_count=610 538 277 261 211 139 72 58
is_linear=0
shrinkage=0.03


Tree=40
num_leaves=13
num_cat=0
split_feature=35 177 45 175 178 175 72 4 4 142 142 125
split_gain=24.5316 40.5756 19.3718 18.3912 17.2096 16.566 3.14927 13.5528 1.45691 4.59027 2.23898 0.306484
threshold=0.43897004552459934 0.99459085184592488 -0.44768142216556284 0.95304501964078769 -0.035421564133813137 0.9534292841537263 56.573763003166 -0.38344192750525619 -0.49088167148593659 5.5059087276458749 17.48198223114014 0.36585036238079116
decision_type=2 2 2 2 2 2 2 2 2 2 2 2
left_child=1 3 -3 -1 5 -5 7 -6 -2 -10 -11 -8
right_child=8 2 -4 4 6 -7 11 -9 9 10 -12 -13
leaf_value=-0.028368801085063244 0.040287999608874234 0.034586253578213301 -0.032331578162197463 0.036649630461320318 0.039292679070931064 -0.03240578536784193 0.030166163070794987 -0.0049392328108809102 0.03831582356331803 0.03306229457247345 0.015040156745992298 0.040119844544580091
leaf_weight=4.248322542756795 133.74059729278088 4.1203004196286228 16.022680401802063 4.208852291107176 15.124625205993651 6.8136875480413437 28.137330129742622 9.6544983573257941 58.46446431428194 11.923431642353533 20.825782619416714 51.006972014904022
leaf_count=46 38 2 251 1 4 73 43 65 24 7 39 17
internal_value=0.0313075 0.021106 -0.0175131 0.0277487 0.0300754 -0.00493292 0.0338287 0.0224195 0.0374917 0.0329666 0.0224758 0.0370391
internal_weight=364.292 139.337 20.143 119.194 114.946 11.0225 103.923 24.7791 224.954 91.2137 32.7492 79.1443
internal_count=610 502 253 249 203 74 129 69 108 70 46 60
is_linear=0
shrinkage=0.03


Tree=41
num_leaves=8
num_cat=0
split_feature=4 177 40 90 171 60 60
split_gain=23.9187 62.1261 15.5084 11.4714 25.7185 13.3641 21.4639
threshold=-0.39534173004085088 0.99459085184592488 -1.857724923028252 0.010481857124605271 -0.025304516707908842 0.96517975331594308 1.0951255171255994
decision_type=2 2 2 2 2 2 2
left_child=-1 3 -3 -2 -5 -6 -7
right_child=1 2 -4 4 5 6 -8
leaf_value=0.038421752857742845 0.037192193829171452 -0.034584272523637029 0.021204223296353544 -0.033154343934043699 0.034732703872455792 -0.031267106373936183 0.033252628421142787
leaf_weight=185.9833567738533 83.282059397548437 18.373920533806089 5.022530034184455 6.5155364982783786 42.785975851118565 7.7945536002516773 8.8148927576839906
leaf_count=72 50 261 16 63 41 97 10
internal_value=0.0308771 0.0225551 -0.0221069 0.0296795 0.0197281 0.0260317 0.002748
internal_weight=358.573 172.589 23.3965 149.193 65.911 59.3954 16.6094
internal_count=610 538 277 261 211 148 107
is_linear=0
shrinkage=0.03


Tree=42
num_leaves=10
num_cat=0
split_feature=4 167 171 118 90 171 60 158 173
split_gain=23.1918 47.7317 21.0321 15.5409 10.5936 32.7179 12.1565 0.138915 0.104149
threshold=-0.39534173004085088 48.447618525021959 0.0021736454256557837 -0.33352756812017992 0.010481857124605271 -0.025304516707908842 0.96517975331594308 1.0000000180025095e-35 -0.12597921466838033
decision_type=2 2 2 2 2 2 2 2 2
left_child=8 2 4 -4 7 -6 -7 -2 -1
right_child=1 -3 3 -5 5 6 -8 -9 -10
leaf_value=0.026344229911411436 0.030937258797029708 -0.034763496165014347 0.033119676846620427 -0.033551048733335136 -0.032915378138881443 0.036566186374134772 0.0049045893724110196 0.040098378554366522 0.038574676737138117
leaf_weight=11.580563738942145 32.512346904724836 11.429489716887472 3.8477962017059317 8.056287679821251 8.2536945305764657 40.940213587135077 15.528985705226658 49.496075507253408 171.06492391973734
leaf_count=11 40 147 1 94 92 30 115 19 61
internal_value=0.0304601 0.0222096 0.0265253 -0.0108718 0.0296326 0.0199333 0.0281483 0.036919 0.0379632
internal_weight=352.71 170.065 158.635 11.9041 146.731 64.7229 56.4692 82.0084 182.645
internal_count=610 538 391 95 296 237 145 59 72
is_linear=0
shrinkage=0.03


Tree=43
num_leaves=10
num_cat=0
split_feature=4 177 40 94 171 98 173 173 173
split_gain=22.5621 57.3478 14.545 10.5668 24.4479 12.4376 16.3349 1.11588 0.12781
threshold=-0.39534173004085088 0.99459085184592488 -1.857724923028252 0.28750000000000009 -0.025304516707908842 8.5000000000000018 -0.040029583036404755 0.0083684356092756044 -0.12597921466838033
decision_type=2 2 2 2 2 2 2 2 2
left_child=8 3 -3 -2 -5 6 -6 -7 -1
right_child=1 2 -4 4 5 7 -8 -9 -10
leaf_value=0.025894322547971138 0.036071987229887158 -0.034231572212788886 0.020428125999849351 -0.03296060341471594 0.0269555989395374 0.022825867097303595 -0.032049746652634249 0.037963303259389222 0.0381428685911048
leaf_weight=11.447720035910605 81.176633980125189 17.643458068370823 4.91837553679943 6.3723304681479922 8.8928988575935328 14.367939073592423 6.3605384826660165 27.945605657994747 167.87115299701691
leaf_count=11 57 261 16 62 14 38 73 17 61
internal_value=0.030049 0.0218607 -0.0218274 0.0287765 0.0190551 0.0253287 0.00170829 0.0335382 0.0375255
internal_weight=346.997 167.678 22.5618 145.116 63.9393 57.567 15.2534 42.3135 179.319
internal_count=610 538 277 261 204 142 87 55 72
is_linear=0
shrinkage=0.03


Tree=44
num_leaves=10
num_cat=0
split_feature=35 167 74 45 42 125 5 44 45
split_gain=22.2794 31.8882 17.6054 14.7495 10.4053 39.8545 4.6497 1.2353 3.9429
threshold=0.43897004552459934 48.447618525021959 50.062313432835829 -0.44353404486151493 -0.049708426637172225 0.35423790080661638 0.024808452846165844 -0.24904297714365201 -0.024896196242027737
decision_type=2 2 2 2 2 2 2 2 2
left_child=1 2 3 -1 -4 -6 -7 -2 -9
right_child=7 -3 4 -5 5 6 -8 8 -10
leaf_value=0.033137400304451115 0.038012660772880562 -0.03275013192192032 0.035775109263467476 -0.031520369214373789 -0.032889524046520707 0.012817414056214954 0.037367625196129392 0.01839540760049338 0.035790048843617722
leaf_weight=3.84995412826538 142.38355823978782 8.8134569860994798 61.162901256233454 8.2636613920330984 10.549015160650013 11.699562709778546 27.141572553664446 21.947946451604366 45.437301382422447
leaf_count=1 49 135 48 124 129 50 15 33 26
internal_value=0.0296546 0.0196688 0.0236937 -0.00978213 0.0274435 0.0165611 0.0305553 0.0357763 0.0305202
internal_weight=341.249 131.48 122.667 12.1136 110.553 49.3902 38.8411 209.769 67.3852
internal_count=610 502 367 125 242 194 65 108 59
is_linear=0
shrinkage=0.03


Tree=45
num_leaves=8
num_cat=0
split_feature=4 177 45 40 46 48 54
split_gain=21.6459 53.6276 14.2796 13.8012 11.4671 6.45872 5.90779
threshold=-0.39534173004085088 0.99459085184592488 -0.12910626126319188 -1.857724923028252 0.31779698580024257 0.070266597521344606 -0.2722801462871583
decision_type=2 2 2 2 2 2 2
left_child=-1 2 -2 -3 -4 -6 -7
right_child=1 3 4 -5 5 6 -8
leaf_value=0.036739385989211996 -0.031644364849033539 -0.034128464835988706 -0.026959064352478568 0.019698813533920608 -0.020802349972050042 -0.022209614608705585 0.031903195900403532
leaf_weight=172.76859958469868 2.7167331911623469 17.019250351935629 2.4098960645496836 4.8222228139638892 1.4620276689529408 1.1165122389793385 133.27523746713996
leaf_count=72 20 261 24 16 15 10 192
internal_value=0.0292668 0.0211435 0.0279197 -0.0217709 0.0293304 0.0305405 0.0312708
internal_weight=335.59 162.822 140.98 21.8415 138.264 135.854 134.392
internal_count=610 538 261 277 241 217 202
is_linear=0
shrinkage=0.03


Tree=46
num_leaves=10
num_cat=0
split_feature=35 165 178 125 60 60 4 142 29
split_gain=21.4633 49.2708 18.9808 7.74166 19.0525 26.0795 1.81361 4.47903 5.33288
threshold=0.43897004552459934 48.447618525021959 -0.14286751353517083 0.38419008319207265 0.94345900980989561 1.0903483199492821 -0.49088167148593659 5.5059087276458749 0.099759977916909964
decision_type=2 2 2 2 2 2 2 2 2
left_child=1 -1 -3 4 -4 -6 -2 -8 -9
right_child=6 2 3 -5 5 -7 7 8 -10
leaf_value=-0.031873038448086748 0.038033367364947772 -0.033015003738357668 0.031735330768491665 0.03668767649247031 -0.031678378204169147 0.035335722541356987 0.035686039728634933 0.0070653003766354659 0.032691295650672254
leaf_weight=14.313915800303219 119.01362121105194 3.934625592082738 38.853047955781221 51.227496225386858 11.671581476926805 7.890435002744197 52.987816795706749 16.374848730862144 14.004420474171637
leaf_count=231 38 31 41 28 167 4 24 37 9
internal_value=0.0288463 0.0189274 0.0255782 0.0279873 0.0198179 -0.0040981 0.0349758 0.0301763 0.0196395
internal_weight=330.272 127.891 113.577 109.643 58.4151 19.562 202.381 83.3671 30.3793
internal_count=610 502 271 240 212 171 108 70 46
is_linear=0
shrinkage=0.03


Tree=47
num_leaves=9
num_cat=0
split_feature=4 177 45 40 120 38 113 27
split_gain=20.8358 49.5399 13.5142 13.3594 8.38581 15.8591 22.1176 2.45089
threshold=-0.39534173004085088 0.99459085184592488 -0.12910626126319188 -1.857724923028252 0.37725053767596778 -0.029538901042796658 0.015668778226540146 0.025948427865236899
decision_type=2 2 2 2 2 2 2 2
left_child=-1 2 -2 -3 5 7 -7 -4
right_child=1 3 4 -5 -6 6 -8 -9
leaf_value=0.035994278731808049 -0.031294262150374431 -0.033970316903000765 0.020499754246487319 0.019403646932220076 0.035576531111026592 -0.035673376896573815 0.028170883614973986 0.037023809762429638
leaf_weight=166.17265861481428 2.6643034480512133 16.37457920238376 23.748549818992615 4.7705945856869212 71.926417719572783 8.8755983039736766 8.6536146476864797 21.25202339887619
leaf_count=72 20 261 74 16 45 96 18 8
internal_value=0.028502 0.02044 0.0270318 -0.0214606 0.0284322 0.0197364 -0.00417422 0.0290039
internal_weight=324.438 158.266 137.121 21.1452 134.456 62.5298 17.5292 45.0006
internal_count=610 538 261 277 241 196 114 82
is_linear=0
shrinkage=0.03


Tree=48
num_leaves=11
num_cat=0
split_feature=35 165 75 64 42 125 42 4 142 49
split_gain=20.3397 46.2171 16.6912 13.5473 5.25057 27.5896 2.77916 1.93261 4.37118 8.02277
threshold=0.43897004552459934 48.447618525021959 3.0632089552238813 -0.39869592371804324 -0.049708426637172225 0.35423790080661638 0.053251892775236238 -0.49088167148593659 5.5059087276458749 0.456704071896403
decision_type=2 2 2 2 2 2 2 2 2 2
left_child=1 -1 4 -4 -3 -6 -7 -2 -9 -10
right_child=7 2 3 -5 5 6 -8 8 9 -11
leaf_value=-0.031687119507863459 0.037397915577011664 0.034856457440917532 0.031357931621140651 -0.033458646129193075 -0.032436398191956171 0.017421831420129093 0.037207354097234843 0.034880707845472522 0.00019145817753715938 0.031645285126044392
leaf_weight=13.812676537781952 114.13030889630318 56.908092141151428 3.6158788204193115 6.8815962821245176 6.7394623160362235 14.153973985463379 21.811758399009705 51.099850133061409 12.573652505874636 17.100317105650902
leaf_count=231 38 43 1 99 73 45 10 24 37 9
internal_value=0.028147 0.0183462 0.0248783 -0.010086 0.0286563 0.019717 0.030184 0.0342377 0.029333 0.018856
internal_weight=318.828 123.923 110.111 10.4975 99.6133 42.7052 35.9657 194.904 80.7738 29.674
internal_count=610 502 271 100 171 128 55 108 70 46
is_linear=0
shrinkage=0.03


Tree=49
num_leaves=10
num_cat=0
split_feature=99 35 35 177 45 140 42 110 44
split_gain=20.1545 18.8573 12.2924 25.2182 14.2828 6.86471 4.59174 15.0836 0.174118
threshold=7.5000000000000009 0.73561529332712527 0.44330549531948021 0.99459085184592488 -0.44768142216556284 12.75315570831299 -0.049708426637172225 -0.19311258045915872 -0.3259767078467366
decision_type=2 2 2 2 2 2 2 2 2
left_child=2 -2 3 5 -5 -1 -7 -8 -4
right_child=1 -3 8 4 -6 6 7 -9 -10
leaf_value=-0.0015085065164555959 -0.029496702234843505 0.032780923016094962 0.036812769540021953 0.030984927675521797 -0.031976846251966728 0.034241025080166555 0.030950131594858758 -0.010316691661112877 0.030804039375312516
leaf_weight=6.9127594493329516 9.8193952441215533 6.3422136306762686 108.81198221445084 3.5624728202819815 10.594680346548556 59.370349511504173 27.223079558461905 10.403675027191637 70.094754748046398
leaf_count=38 178 2 38 1 177 35 35 61 45
internal_value=0.0278183 -0.00439655 0.0295904 0.0216573 -0.0149364 0.0267665 0.028807 0.0194906 0.0346596
internal_weight=313.135 16.1616 296.974 118.067 14.1572 103.91 96.9971 37.6268 178.907
internal_count=610 180 430 347 178 169 131 96 83
is_linear=0
shrinkage=0.03


Tree=50
num_leaves=10
num_cat=0
split_feature=4 167 74 3 46 3 57 125 173
split_gain=19.566 37.3789 17.3455 18.9453 8.87499 5.60346 13.943 2.03203 0.434473
threshold=-0.39534173004085088 48.447618525021959 50.062313432835829 0.045395843250400199 0.31779698580024257 0.020800652502156857 0.34652845263158483 0.38419008319207265 -0.12597921466838033
decision_type=2 2 2 2 2 2 2 2 2
left_child=8 2 3 -2 -4 6 -6 -7 -1
right_child=1 -3 4 -5 5 7 -8 -9 -10
leaf_value=0.022426953622595853 -0.032977227830055772 -0.034049968640687142 -0.025932649445999434 0.029848777858359654 -0.029611865572250335 0.024939485902525333 0.027665958654925618 0.035339478739526205 0.035680904177576085
leaf_weight=10.119446180760859 8.937607213854788 10.010220311582087 1.9799373596906651 6.6403810977935782 4.519432287663224 50.142670536413789 11.609970454126595 57.51177054271102 146.23364868760109
leaf_count=11 134 147 21 3 60 126 17 30 61
internal_value=0.0274781 0.0195195 0.0235471 -0.00583054 0.027227 0.0283023 0.0106499 0.0307972 0.0349901
internal_weight=307.705 151.352 141.342 15.578 125.764 123.784 16.1294 107.654 156.353
internal_count=610 538 391 137 254 233 77 156 72
is_linear=0
shrinkage=0.03


Tree=51
num_leaves=10
num_cat=0
split_feature=35 165 75 64 42 54 46 44 45
split_gain=19.0651 42.3166 17.8322 13.4133 5.33992 25.1996 2.7394 1.41413 2.56728
threshold=0.44330549531948021 48.447618525021959 3.0632089552238813 -0.39869592371804324 -0.049708426637172225 0.042138521552981943 0.52140343139809453 -0.3259767078467366 -0.024896196242027737
decision_type=2 2 2 2 2 2 2 2 2
left_child=1 -1 4 -4 -3 -6 -7 -2 -9
right_child=7 2 3 -5 5 6 -8 8 -10
leaf_value=-0.03145605477615699 0.03629491604037325 0.033895817542805975 0.030211591151447222 -0.035072383442405902 -0.032632251485125364 0.013146476827801403 0.034145486684300667 0.020117899345237514 0.033638185515510115
leaf_weight=13.115660661831496 107.30802223086357 57.490265123546124 3.4472310543060303 6.9298759829252941 6.3469497971236697 10.152874145656822 24.74434719607234 29.071275625377893 43.779950723052025
leaf_count=231 39 45 1 101 70 37 21 39 26
internal_value=0.0271338 0.0176967 0.0238643 -0.0123724 0.0277888 0.0186044 0.0286561 0.0333867 0.028629
internal_weight=302.386 122.227 109.112 10.3771 98.7344 41.2442 34.8972 180.159 72.8512
internal_count=610 506 275 102 173 128 58 104 65
is_linear=0
shrinkage=0.03


Tree=52
num_leaves=9
num_cat=0
split_feature=4 177 40 45 46 125 42 4
split_gain=18.9545 42.1749 12.2417 12.0703 9.87355 6.05008 11.309 0.148423
threshold=-0.39534173004085088 0.99459085184592488 -1.857724923028252 -0.12910626126319188 0.31779698580024257 0.38419008319207265 -0.059038751435404928 -0.49088167148593659
decision_type=2 2 2 2 2 2 2 2
left_child=7 3 -3 -2 -5 6 -6 -1
right_child=1 2 -4 4 5 -7 -8 -9
leaf_value=0.036215878558878957 -0.030741055642873386 -0.033874242847750466 0.018687813846217712 -0.026660806140267286 0.032466354560948534 0.034625763684778585 0.0062536592781325352 0.029366014609662497
leaf_weight=104.83228082209826 2.5484522283077231 15.020649371668698 4.5098624452948561 2.2625026516616336 31.582908671349287 62.018197447061539 28.848139328882098 45.346208311617374
leaf_count=39 20 261 16 24 28 39 150 33
internal_value=0.0268168 0.0188833 -0.0212718 0.0251871 0.0265892 0.0278054 0.0203075 0.0343753
internal_weight=296.969 146.791 19.5305 127.26 124.712 122.449 60.431 150.178
internal_count=610 538 277 261 241 217 178 72
is_linear=0
shrinkage=0.03


Tree=53
num_leaves=11
num_cat=0
split_feature=99 27 44 171 115 152 1 90 123 115
split_gain=18.4245 16.9871 10.9926 23.3542 13.0011 12.2489 17.7029 6.4589 11.7847 1.04953
threshold=7.5000000000000009 0.046740633074918769 -0.24904297714365201 0.0015044800395857929 0.8600052460153208 4.6167989597467214 0.80216672879394813 0.049939818224454507 -0.13580427003977052 0.29574059995507401
decision_type=2 2 2 2 2 2 2 2 2 2
left_child=2 -2 -1 5 -5 7 -7 9 -9 -4
right_child=1 -3 3 4 -6 6 -8 8 -10 -11
leaf_value=0.034486560124953762 -0.029363635302514152 0.031495636127467114 0.024437009287382908 -0.034820126867285514 0.028683929403207117 -0.034366180801067861 0.031953839138886102 0.031263705777590196 -0.011550951834755477 0.034852662837326992
leaf_weight=135.91079283505678 9.3358436897397024 5.8688027858734122 27.096261404454708 8.8133340217173082 3.2033281326293936 6.4580099992454034 6.0363881587982178 12.31071873009205 9.3813914693891984 67.419747937470675
leaf_count=62 178 2 45 100 1 100 2 6 70 44
internal_value=0.0264834 -0.00519361 0.0282477 0.0220001 -0.016758 0.0257432 -0.0021093 0.0287559 0.012922 0.0321852
internal_weight=291.835 15.2046 276.63 140.719 12.0167 128.703 12.4944 116.208 21.6921 94.516
internal_count=610 180 430 368 101 267 102 165 76 89
is_linear=0
shrinkage=0.03


Tree=54
num_leaves=10
num_cat=0
split_feature=4 167 171 115 107 118 49 105 4
split_gain=18.2325 32.8865 16.1991 11.3975 9.59889 22.3794 8.09597 5.5076 0.273627
threshold=-0.39534173004085088 48.447618525021959 0.0021736454256557837 0.8600052460153208 1.4796500771604941 -0.099392926220244662 0.11839725254064074 0.035911666078292534 -0.49088167148593659
decision_type=2 2 2 2 2 2 2 2 2
left_child=8 2 4 -4 6 -6 -2 -8 -1
right_child=1 -3 3 -5 5 -7 7 -9 -10
leaf_value=0.03571695761385589 -0.022865977375878456 -0.033527654678704499 -0.03308938454493706 0.028378190161697899 0.031839775165127551 -0.033046201593286778 0.032613217532037324 0.011135640246624478 0.028578920088733105
leaf_weight=100.26661809533834 1.936326241120695 9.3434965163469297 7.0266856867820007 3.1522526741027832 10.198879655450584 7.3461392074823371 89.177611583843827 14.243036579340695 43.733664214611053
leaf_count=39 26 147 94 1 9 103 93 65 33
internal_value=0.0261918 0.0183148 0.0221999 -0.0129498 0.0252162 0.00419313 0.0286167 0.029819 0.0337818
internal_weight=286.425 142.424 133.081 10.1789 122.902 17.545 105.357 103.421 144
internal_count=610 538 391 95 296 112 184 158 72
is_linear=0
shrinkage=0.03


Tree=55
num_leaves=10
num_cat=0
split_feature=35 165 75 61 42 120 47 1 156
split_gain=17.8363 37.8001 16.2927 12.2753 5.18694 21.2178 4.24926 1.52485 3.35559
threshold=0.44330549531948021 48.447618525021959 3.0632089552238813 0.75634856100047942 -0.049708426637172225 0.34476130193099286 -0.084053244422002599 0.58191668190186385 1.8575915875169609
decision_type=2 2 2 2 2 2 2 2 2
left_child=1 -1 4 -4 -3 -6 -7 8 -2
right_child=7 2 3 -5 5 6 -8 -9 -10
leaf_value=-0.031217489757792167 0.031998027077696195 0.032631111054039055 0.02885144217177471 -0.035248586007781781 -0.031553581525212974 0.0087484122081479977 0.033533518457242693 0.035311255786102475 0.016055805423179515
leaf_weight=12.36006862670183 47.386799082159996 53.709020264446735 3.2310206890106183 6.5312515925616026 5.8579441290348759 10.092301759868858 23.060627833008766 97.352959245443344 21.631118949502707
leaf_count=231 26 45 1 101 68 42 18 40 38
internal_value=0.0258877 0.0165073 0.0225382 -0.0130451 0.026416 0.0171824 0.0265534 0.0322076 0.027345
internal_weight=281.213 114.842 102.482 9.76227 92.7199 39.0109 33.1529 166.371 69.0179
internal_count=610 506 275 102 173 128 60 104 64
is_linear=0
shrinkage=0.03


Tree=56
num_leaves=12
num_cat=0
split_feature=35 167 60 68 127 58 98 52 118 44 45
split_gain=17.266 24.8082 13.075 32.3085 3.64574 12.1848 3.01381 3.86008 6.66211 1.64948 2.62834
threshold=0.44330549531948021 48.447618525021959 0.96426324433407407 3.5530235187697881 0.38617119133057992 0.66327824244575095 8.5000000000000018 13.757069992055955 -0.092104353795760915 -0.3259767078467366 -0.024896196242027737
decision_type=2 2 2 2 2 2 2 2 2 2 2
left_child=1 2 6 4 5 -4 7 -1 -9 -2 -11
right_child=9 -3 3 -5 -6 -7 -8 8 -10 10 -12
leaf_value=0.029672122169404659 0.035049309031759471 -0.033806807268626261 -0.02739410095506209 -0.031375490678123008 0.034433147873738808 0.032775086401836961 0.033462006334161624 0.027346221325209873 -0.01249318960120497 0.01811529636750402 0.032058008626610748
leaf_weight=12.99330127798021 96.02227109670639 7.3496275115758172 3.9558688830584305 12.855303620919583 14.934521846473215 6.8588857688009739 40.749313466250896 6.0185423009097576 7.1812843568623048 26.917353022843599 40.203536957502365
leaf_count=12 39 137 52 223 6 5 24 7 40 39 26
internal_value=0.0255979 0.0162906 0.0200918 0.00587742 0.0250657 0.0100564 0.0280377 0.0185683 0.00610714 0.0318819 0.0268586
internal_weight=276.04 112.897 105.547 38.6046 25.7493 10.8148 66.9424 26.1931 13.1998 163.143 67.1209
internal_count=610 506 369 286 63 57 83 59 47 104 65
is_linear=0
shrinkage=0.03


Tree=57
num_leaves=11
num_cat=0
split_feature=4 177 40 90 98 33 2 57 4 110
split_gain=17.3802 36.4662 10.7617 8.90854 25.5392 13.9699 3.90113 6.06162 0.416936 0.271037
threshold=-0.39534173004085088 0.99459085184592488 -1.857724923028252 0.010481857124605271 8.5000000000000018 0.16805317501963932 1.0683780499786095 1.4897166295233837 -0.49088167148593659 -0.23601087016969816
decision_type=2 2 2 2 2 2 2 2 2 2
left_child=8 3 -3 9 5 -5 7 -6 -1 -2
right_child=1 2 -4 4 6 -7 -8 -9 -10 -11
leaf_value=0.03505131934512952 0.03522875637060735 -0.033604429470216003 0.017421860638790202 0.028497551619166527 -0.0070465474048693362 -0.034881403853534436 0.033386377435704398 0.03039151386405638 0.027549743855354636 0.026056715849793306
leaf_weight=93.772482171654701 32.081470608711243 13.837747601792218 4.178776789456605 3.3348308093845835 6.993946220725773 11.055385656654833 25.513437356799841 6.7679632715880871 41.533260725438595 31.799401357769966
leaf_count=39 12 261 16 2 47 137 19 6 33 38
internal_value=0.0253259 0.0174691 -0.0213178 0.023569 0.0140484 -0.0191015 0.0264414 0.0119734 0.0329897 0.0311812
internal_weight=270.869 135.563 18.0165 117.546 53.6656 14.3902 39.2753 13.7619 135.306 63.8809
internal_count=610 538 277 261 211 139 72 53 72 50
is_linear=0
shrinkage=0.03


Tree=58
num_leaves=10
num_cat=0
split_feature=4 167 171 115 108 36 49 105 4
split_gain=16.8874 29.2443 14.631 10.3616 8.71929 16.626 7.20267 5.20529 0.482836
threshold=-0.39534173004085088 48.447618525021959 0.0021736454256557837 0.8600052460153208 0.061991251929012357 0.8637053523597783 0.11839725254064074 0.035911666078292534 -0.49088167148593659
decision_type=2 2 2 2 2 2 2 2 2
left_child=8 2 4 -4 6 -6 -2 -8 -1
right_child=1 -3 3 -5 5 -7 7 -9 -10
leaf_value=0.034830757408616318 -0.022152620234490574 -0.033214665513171523 -0.032908092851104083 0.02721897918117255 0.026275063688874677 -0.031907818036063573 0.031388914533236036 0.0099964412524058636 0.027171567496943601
leaf_weight=91.574857734143734 1.8249674793332804 8.7001671325415355 6.6266153752803785 2.9531958103179932 10.225200187414886 6.2842071373015633 83.146371107548475 13.504678683355449 40.871969051659107
leaf_count=39 26 147 94 1 19 93 93 65 33
internal_value=0.0250675 0.0172616 0.0210474 -0.0132682 0.024022 0.0033993 0.0273802 0.0285635 0.032711
internal_weight=265.712 133.265 124.565 9.57981 114.985 16.5094 98.476 96.651 132.447
internal_count=610 538 391 95 296 112 184 158 72
is_linear=0
shrinkage=0.03


Tree=59
num_leaves=9
num_cat=0
split_feature=4 167 74 3 46 125 55 4
split_gain=16.5501 28.0996 14.0847 14.6764 7.21755 4.98046 8.97883 0.549102
threshold=-0.39534173004085088 48.447618525021959 50.062313432835829 0.045395843250400199 0.31779698580024257 0.38419008319207265 1.0622300060145091 -0.49088167148593659
decision_type=2 2 2 2 2 2 2 2
left_child=7 2 3 -2 -4 6 -6 -1
right_child=1 -3 4 -5 5 -7 -8 -9
leaf_value=0.034617625010666356 -0.032324953365742384 -0.032979842272384381 -0.024811878061539235 0.026728540306244147 0.0091029985832233751 0.032691899643996519 0.033600059697322118 0.026797520365087538
leaf_weight=89.413340508937836 7.9203010946512205 8.5092619489878398 1.8254725914448489 5.5915744602680206 36.512321492657065 48.923920508474112 21.917853266000748 40.223033718764782
leaf_count=39 134 147 21 3 185 30 18 33
internal_value=0.0247799 0.0170025 0.0207319 -0.00752247 0.0242923 0.0253763 0.0187534 0.0324379
internal_weight=260.837 131.201 122.691 13.5119 109.18 107.354 58.4302 129.636
internal_count=610 538 391 137 254 233 203 72
is_linear=0
shrinkage=0.03


Tree=60
num_leaves=12
num_cat=0
split_feature=4 177 40 94 98 60 2 29 165 2 4
split_gain=16.2582 33.0972 9.82888 8.12789 16.5431 11.2138 5.63703 2.51284 0.635457 0.920684 0.615704
threshold=-0.39534173004085088 0.99459085184592488 -1.857724923028252 0.28750000000000009 8.5000000000000018 0.93099176741424949 1.0683780499786095 0.03839087769372173 56.573763003166 0.89102465772986905 -0.49088167148593659
decision_type=2 2 2 2 2 2 2 2 2 2 2
left_child=10 3 -3 8 5 -5 7 -6 9 -2 -1
right_child=1 2 -4 4 6 -7 -8 -9 -10 -11 -12
leaf_value=0.034411499442010336 0.031171609755025635 -0.033162225259753375 0.016540838305205967 0.014050047471354141 0.021975274124427849 -0.032517849963780071 0.032691222390550168 -0.0058170912096690511 0.034713731235875678 0.017309342280891645 0.026427334650923
leaf_weight=87.288572117686272 13.897550947964193 13.135153738781812 4.0168072022497645 7.9881149306893375 3.8216925375163537 8.7415178772062045 24.248170681297779 6.4205435998737812 30.408722661435604 16.653221923857927 39.58656819164753
leaf_count=39 11 261 16 20 7 117 18 42 15 31 33
internal_value=0.0244858 0.0167357 -0.021087 0.0226804 0.0133607 -0.0105749 0.0250261 0.00531852 0.0301206 0.0244985 0.03217
internal_weight=256.207 129.331 17.152 112.18 51.22 16.7296 34.4904 10.2422 60.9595 30.5508 126.875
internal_count=610 538 277 261 204 137 67 49 57 42 72
is_linear=0
shrinkage=0.03


Tree=61
num_leaves=11
num_cat=0
split_feature=4 177 40 90 98 31 2 56 4 110
split_gain=15.8429 31.7388 9.54086 8.10365 23.1235 12.6837 3.58239 5.4187 0.682607 0.414842
threshold=-0.39534173004085088 0.99459085184592488 -1.857724923028252 0.010481857124605271 8.5000000000000018 0.13840412042396308 1.0683780499786095 1.8088544505942521 -0.49088167148593659 -0.23601087016969816
decision_type=2 2 2 2 2 2 2 2 2 2
left_child=8 3 -3 9 5 -5 7 -6 -1 -2
right_child=1 2 -4 4 6 -7 -8 -9 -10 -11
leaf_value=0.034211990762097209 0.0342343100099834 -0.032978831923697695 0.016198126668530533 0.027361757982358476 0.028880546441116591 -0.034468061336522852 0.03215939435307863 -0.0070454309649780993 0.026060768832621997 0.024595804516527098
leaf_weight=85.201059855520725 29.61845064163208 12.822246761992576 4.0001520551741114 3.1413137912750235 6.5274740122258645 10.541288623586295 23.870925936847925 6.7560964599251747 38.962650515139103 29.979398015886545
leaf_count=39 12 261 16 2 8 137 19 45 33 38
internal_value=0.0242293 0.0165247 -0.0208641 0.0223831 0.0130813 -0.0191718 0.0252286 0.0111844 0.0319068 0.0299213
internal_weight=251.421 127.257 16.8224 110.435 50.8371 13.6826 37.1545 13.2836 124.164 59.5978
internal_count=610 538 277 261 211 139 72 53 72 50
is_linear=0
shrinkage=0.03


Tree=62
num_leaves=12
num_cat=0
split_feature=200 35 165 178 175 1 38 200 4 45 48
split_gain=16.95 10.3718 27.6573 12.3471 10.7956 8.12155 3.34538 21.0157 1.48712 2.67211 0.358458
threshold=1.3746132373809818 0.44330549531948021 48.447618525021959 -0.064413705033806765 0.96050099194105576 0.8600052460153208 -0.021444960712342202 0.49677948951721196 -0.49088167148593659 -0.024896196242027737 0.12987274697279186
decision_type=2 2 2 2 2 2 2 2 2 2 2
left_child=1 2 -1 4 -4 -2 10 -8 -3 -10 -5
right_child=5 8 3 6 -6 -7 7 -9 9 -11 -12
leaf_value=-0.03058599893418891 -0.029456348709590418 0.034117102980710072 0.026111252212780722 0.022725085567991368 -0.036901800426740496 0.025142801619170305 -0.032006475322460717 0.032813967780488083 0.015872880703123943 0.030994667031084944 0.032757143012519668
leaf_weight=8.7811970021575672 7.0886688362807018 83.031198427081108 3.2511281296610814 19.517944592982523 4.8375826552510262 2.5836477279663086 5.4210928492248156 14.358262896537779 21.822762832045555 35.234448119997978 40.66676458530128
leaf_count=166 137 38 3 39 48 1 77 12 35 21 33
internal_value=0.0239872 0.0255851 0.0176424 0.0227751 -0.0111584 -0.0136015 0.0263401 0.0142184 0.0308901 0.0256357 0.0299774
internal_weight=246.595 236.922 96.834 88.0528 8.08871 9.67232 79.9641 19.7794 140.088 57.0572 60.1847
internal_count=610 472 378 212 51 138 161 89 94 56 72
is_linear=0
shrinkage=0.03


Tree=63
num_leaves=12
num_cat=0
split_feature=200 4 177 73 1 107 118 105 107 73 4
split_gain=16.2828 9.97541 23.118 9.23564 7.88173 7.20049 17.5867 3.72916 6.56908 0.776212 0.621932
threshold=1.3746132373809818 -0.39534173004085088 0.99459085184592488 73.64500000000001 0.8600052460153208 1.4796500771604941 -0.099392926220244662 0.02644987535612536 1.1024857954545457 56.615000000000002 -0.49088167148593659
decision_type=2 2 2 2 2 2 2 2 2 2 2
left_child=1 10 5 -4 -2 7 -7 9 -9 -3 -1
right_child=4 2 3 -5 -6 6 -8 8 -10 -11 -12
leaf_value=0.033836462399323614 -0.029278075069437449 0.02199636438074791 -0.0327263244190426 0.018838763329528864 0.024902783885965816 0.029404306479722427 -0.033063394783871297 -0.0088682267702662448 0.028051435212971477 0.032661151215327255 0.025714303384088075
leaf_weight=81.127411223948002 6.9264213982969505 21.303660929203033 9.3953628391027433 3.6231428124010554 2.5405838489532471 8.7910925559699518 5.9185168482363215 6.894454723224043 8.8847165592014772 48.745688229799271 37.618401288986206
leaf_count=39 137 38 187 13 1 8 68 48 10 29 32
internal_value=0.0237497 0.0253303 0.018608 -0.0178413 -0.0134613 0.0234865 0.00357429 0.0267841 0.0121741 0.0298152 0.0315247
internal_weight=241.769 232.302 113.557 13.0185 9.46701 100.538 14.7096 85.8285 15.7792 70.0493 118.746
internal_count=610 472 401 200 138 201 76 125 58 67 71
is_linear=0
shrinkage=0.03


Tree=64
num_leaves=10
num_cat=0
split_feature=200 99 4 29 4 45 103 119 90
split_gain=15.6352 11.0177 11.39 7.6498 6.93994 22.9962 7.53635 12.6864 5.73609
threshold=1.3746132373809818 7.5000000000000009 -0.5010437710879444 0.21564460471164718 -0.39534173004085088 -0.12910626126319188 0.023953421452680205 -0.41072497866598096 0.049939818224454507
decision_type=2 2 2 2 2 2 2 2 2
left_child=1 4 -3 -2 -1 -6 8 -8 -7
right_child=3 2 -4 -5 5 6 7 -9 -10
leaf_value=0.032025370363634412 -0.029100927500189406 0.028365144652071895 -0.028390036300071378 0.024666377192152637 -0.035221685949902416 0.030256155867017097 0.028842216867452336 -0.029961184381939378 0.0092335242493564659
leaf_weight=110.07824178785086 6.7680125031620246 4.6286087036132812 6.3085890505462867 2.4982118606567383 5.373430671170353 74.617018930613995 5.8780154809355736 5.3478442654013616 15.651349272578953
leaf_count=59 137 2 125 1 45 76 4 99 62
internal_value=0.0235065 0.0250688 -0.00375589 -0.0133221 0.0265463 0.0206302 0.0239313 0.000424369 0.0267851
internal_weight=237.149 227.883 10.9372 9.26622 216.946 106.868 101.494 11.2259 90.2684
internal_count=610 472 127 138 345 286 241 103 138
is_linear=0
shrinkage=0.03


Tree=65
num_leaves=10
num_cat=0
split_feature=200 99 4 1 4 45 165 5 120
split_gain=15.0095 10.5589 11.0291 7.42547 6.91639 22.1116 6.85562 18.0327 3.7107
threshold=1.3746132373809818 7.5000000000000009 -0.5010437710879444 0.8600052460153208 -0.39534173004085088 -0.12910626126319188 48.447618525021959 -0.055524559624587126 0.37725053767596778
decision_type=2 2 2 2 2 2 2 2 2
left_child=1 4 -3 -2 -1 -6 7 -7 -8
right_child=3 2 -4 -5 5 6 8 -9 -10
leaf_value=0.031800990547493413 -0.028924841992767264 0.028134227708131346 -0.028218744270878469 0.024433435551465415 -0.034839681891006224 0.028115744448801321 0.018450438254514204 -0.033244850527722872 0.03268312543140954
leaf_weight=107.5742390230298 6.6133661977946741 4.5362083911895752 6.1647243946790677 2.4565339088439941 5.2817326970398417 10.49720308929682 34.977312402799726 5.8928899504244319 48.572060819715261
leaf_count=59 137 2 125 1 45 10 108 94 29
internal_value=0.0232602 0.0248047 -0.00371104 -0.0131839 0.0262633 0.0203275 0.0235891 0.00523858 0.0270489
internal_weight=232.566 223.496 10.7009 9.0699 212.795 105.221 99.9395 16.3901 83.5494
internal_count=610 472 127 138 345 286 241 104 137
is_linear=0
shrinkage=0.03


Tree=66
num_leaves=12
num_cat=0
split_feature=35 165 178 37 38 112 1 63 161 6 50
split_gain=14.4472 27.6349 14.1995 10.6777 4.38565 15.7126 1.97593 2.84382 5.33798 1.33532 5.36392
threshold=0.44330549531948021 48.447618525021959 -0.064413705033806765 1.2581845526980455 -0.021444960712342202 -0.24356675690266985 0.58191668190186385 -0.35010041795564145 0.26723880597014932 -0.049038300361801394 55.815652370221848
decision_type=2 2 2 2 2 2 2 2 2 2 2
left_child=1 -1 3 -3 9 -6 7 -2 -9 -4 -11
right_child=6 2 4 -5 5 -7 -8 8 -10 10 -12
leaf_value=-0.030424675156259379 0.03295350747499573 0.025366391609001147 0.031151893534304451 -0.036651493354919566 0.025996796504712701 -0.031226994352367515 0.033191110822842602 0.027070589571257127 0.0029736961971545267 -0.0064765925730941414 0.029172582888622081
leaf_weight=10.315243309363721 21.322259187698364 3.0056912377476674 41.568563645705581 5.8644520249217749 14.611219722777607 4.9958036281168452 75.969772599637508 20.442795120179653 14.408754441887138 5.0227693188935509 10.505337435752152
leaf_count=231 10 2 40 70 25 83 40 15 39 39 16
internal_value=0.0230216 0.0138725 0.0195365 -0.0148916 0.0236969 0.010463 0.029484 0.0239251 0.0175527 0.0279315 0.0177657
internal_weight=228.033 95.8891 85.5738 8.87014 76.7037 19.607 132.144 56.1738 34.8515 57.0967 15.5281
internal_count=610 506 275 72 203 108 104 64 54 95 55
is_linear=0
shrinkage=0.03


Tree=67
num_leaves=11
num_cat=0
split_feature=35 150 150 152 61 42 54 4 161 29
split_gain=14.018 16.3844 14.8748 8.75108 13.7469 4.18143 17.9974 2.41134 4.10386 7.63808
threshold=0.44330549531948021 3.4677085162423178 5.1298814749780517 3.8665694255992764 0.8139767944928864 -0.049708426637172225 0.042138521552981943 -0.49088167148593659 0.26723880597014932 0.099759977916909964
decision_type=2 2 2 2 2 2 2 2 2 2
left_child=1 -1 3 5 -5 -3 -7 -2 -9 -10
right_child=7 2 -4 4 -6 6 -8 8 9 -11
leaf_value=-0.035187427163621596 0.033283294711798854 0.029828762638259142 -0.028257527673053603 0.029399936341133831 -0.029041899089442592 -0.031437549585812199 0.025677482575411987 0.029992563088927011 -0.0070757619242284306 0.027023220738218084
leaf_weight=4.86176773905754 73.599199175834656 43.681910701096058 5.2775904890149823 5.5820486098527891 7.0431130863726139 5.3544679861515787 22.401306364685297 33.633826419711113 9.7466274201869982 12.45776668936014
leaf_count=63 38 43 122 3 178 61 36 21 34 11
internal_value=0.0227898 0.0136992 0.0167528 0.0199129 -0.0027211 0.0239368 0.0138448 0.029227 0.0233362 0.0122663
internal_weight=223.64 94.2022 89.3404 84.0628 12.6252 71.4377 27.7558 129.437 55.8382 22.2044
internal_count=610 506 443 321 181 140 97 104 66 45
is_linear=0
shrinkage=0.03


Tree=68
num_leaves=12
num_cat=0
split_feature=35 167 60 169 115 58 32 151 24 118 140
split_gain=13.634 18.493 10.2148 22.4348 6.20788 6.82214 2.06902 3.40294 1.54369 1.9577 4.05367
threshold=0.44330549531948021 48.447618525021959 0.95485340012015618 14.783333333333337 0.39090903410244965 3.4035985509444191 0.58191668190186396 4.7642098331870075 24.44363799788913 -0.092104353795760915 56.330980300903327
decision_type=2 2 2 2 2 2 2 2 2 2 2
left_child=1 2 8 -4 5 -5 7 -2 -1 -10 -11
right_child=6 -3 3 4 -6 -7 -8 -9 9 10 -12
leaf_value=0.031578378988811988 0.028531480497268807 -0.03391314210278052 -0.030943599791455244 -0.026144496345960482 0.028430954636813301 0.0262090837945857 0.032832832328378525 0.011205228676992321 0.029345568839866044 -0.0037518958285317557 0.02493593291742309
leaf_weight=25.398016499355435 36.795227020978928 5.929662460461258 10.258244313299654 4.1667680982500341 18.378656677901745 2.9448077119886875 72.396497644484043 17.532128524035215 9.4574287198483962 8.0831742491573078 7.8918677121400824
leaf_count=18 26 137 201 79 18 2 40 38 9 32 10
internal_value=0.0225618 0.0135177 0.0171505 0.00456863 0.019602 -0.00353726 0.028983 0.0232979 0.0256824 0.0187091 0.0108776
internal_weight=219.232 92.5086 86.579 35.7485 25.4902 7.11158 126.724 54.3274 50.8305 25.4325 15.975
internal_count=610 506 369 300 99 81 104 64 69 51 42
is_linear=0
shrinkage=0.03


Tree=69
num_leaves=9
num_cat=0
split_feature=200 99 4 55 1 4 45 152
split_gain=13.6693 9.76546 9.96523 7.50973 6.64797 5.91203 20.8928 4.97179
threshold=1.3746132373809818 7.5000000000000009 -0.5010437710879444 0.93196444828599045 0.8600052460153208 -0.39534173004085088 -0.12910626126319188 3.8665694255992764
decision_type=2 2 2 2 2 2 2 2
left_child=1 3 -3 -1 -2 -5 -7 -8
right_child=4 2 -4 5 -6 6 7 -9
leaf_value=-0.027818302734625305 -0.028638474088521052 0.027202181873280558 -0.027944443157762733 0.031320191865180404 0.023338601714600199 -0.034644754295000871 0.025907571986010992 0.0026693625860582026
leaf_weight=1.5417090412229288 6.2303123548626882 4.1673617362976074 5.8568827901035529 98.207315526902676 2.2624657154083252 5.0079690571874371 81.982617927715182 9.8013563174754363
leaf_count=20 137 2 125 58 1 44 120 103
internal_value=0.0223323 0.0238769 -0.00435842 0.0253469 -0.0134759 0.0259223 0.0201506 0.0235139
internal_weight=215.058 206.565 10.0242 196.541 8.49278 194.999 96.7919 91.784
internal_count=610 472 127 345 138 325 267 223
is_linear=0
shrinkage=0.03


Tree=70
num_leaves=10
num_cat=0
split_feature=4 177 40 125 38 73 156 44 4
split_gain=13.4252 24.8064 7.69033 7.36866 8.79874 20.6907 3.17163 8.45968 1.07889
threshold=-0.39534173004085088 0.99459085184592488 -1.857724923028252 0.38419008319207265 -0.029765868327145898 73.64500000000001 1.3002804161013117 -0.28094059802945992 -0.49088167148593659
decision_type=2 2 2 2 2 2 2 2 2
left_child=8 3 -3 4 6 -6 -2 -8 -1
right_child=1 2 -4 -5 5 -7 7 -9 -10
leaf_value=0.032749273434549579 0.025919201579216594 -0.032309604532709015 0.014802678787532487 0.028844558882304798 -0.03690459282355462 0.026038400839482272 0.027194515073453319 -0.027339348915348297 0.023306751971457394
leaf_weight=68.59215996414423 24.16735796444118 11.150860232301055 3.4333525002002707 45.464479276910424 8.4212399255484343 8.3775173500180244 4.919167146086691 3.5024700202047825 33.042863607406616
leaf_count=39 39 261 16 45 112 12 3 50 33
internal_value=0.022075 0.0145148 -0.020788 0.0201344 0.0116433 -0.00564711 0.0205482 0.00370151 0.0299656
internal_weight=211.071 109.436 14.5842 94.8522 49.3878 16.7988 32.589 8.42164 101.635
internal_count=610 538 277 261 216 124 92 53 72
is_linear=0
shrinkage=0.03


Tree=71
num_leaves=10
num_cat=0
split_feature=44 156 34 90 2 115 56 76 38
split_gain=13.0805 18.1331 34.2817 5.31913 12.9234 1.89067 4.11937 1.27727 0.725137
threshold=-0.24904297714365201 1.3784328358208957 0.52704196955137783 0.049939818224454507 1.1292047595551236 0.29574059995507401 2.9292302803208612 1.0312053369516059 -0.054167420296458844
decision_type=2 2 2 2 2 2 2 2 2
left_child=7 3 -3 5 -5 6 8 -1 -2
right_child=1 2 -4 4 -6 -7 -8 -9 -10
leaf_value=0.021920461719371571 0.0093717022936504364 -0.033448814074921167 0.022344600342421493 -0.033158244407554521 0.027046590055436547 0.031062481915364142 0.02736568627150943 0.032537387208595468 -0.0069887812576215919
leaf_weight=26.098780263215303 3.3553485907614222 16.637342592701316 21.613261941820383 4.2154860682785493 7.3252928406000137 39.530290581285954 13.064261086285113 70.564286483451724 4.5299196448177135
leaf_count=32 15 353 26 52 8 36 15 43 30
internal_value=0.0218585 0.0145284 -0.00208058 0.0232983 0.00392595 0.0268221 0.0176335 0.0299554 0
internal_weight=206.934 110.271 38.2506 72.0206 11.5408 60.4798 20.9495 96.6631 7.88527
internal_count=610 535 379 156 60 96 60 75 45
is_linear=0
shrinkage=0.03


Tree=72
num_leaves=13
num_cat=0
split_feature=4 167 72 43 6 3 173 42 64 202 111 4
split_gain=12.7953 19.2925 9.01442 17.6825 8.41306 3.45926 5.384 5.80229 1.60353 2.86358 1.40763 1.21735
threshold=-0.39534173004085088 48.447618525021959 50.457120081411134 -0.099306110007362433 0.61193420153310807 0.020800652502156857 -0.16599924246218969 -0.073266267458847165 -0.13644077343855457 0.11889822288553131 -0.079818514058560899 -0.49088167148593659
decision_type=2 2 2 2 2 2 2 2 2 2 2 2
left_child=11 2 3 10 -5 6 -4 -8 9 -7 -2 -1
right_child=1 -3 5 4 -6 8 7 -9 -10 -11 -12 -13
leaf_value=0.032468156893560349 0.01117083181702315 -0.031333317542977975 0.027347667298272489 -0.034316850337336675 0.022654488495261648 -0.0012071856787975305 0.021477593321640939 -0.031034786312729459 0.029063212093030512 0.027735306243167064 0.030559630349682176 0.022620811285000719
leaf_weight=65.356124460697174 8.8110363483428973 6.8693315414711824 5.0889886319637299 10.013933621346949 2.1435909271240225 5.644139474257825 2.167065504938364 3.8255388643592578 46.934525972232223 5.1256959214806557 9.0093696415424365 31.93000865727663
leaf_count=39 35 147 3 194 1 39 2 50 57 4 6 33
internal_value=0.0216425 0.0141415 0.0176168 0.00360686 -0.0230854 0.0235404 0.00701737 -0.0112603 0.0264888 0.0134987 0.0222354 0.0295297
internal_weight=202.919 105.633 98.7639 29.9779 12.1575 68.786 11.0816 5.9926 57.7044 10.7698 17.8204 97.2861
internal_count=610 538 391 236 195 155 55 52 100 43 41 72
is_linear=0
shrinkage=0.03


Tree=73
num_leaves=13
num_cat=0
split_feature=35 167 60 169 115 89 4 177 29 24 60 52
split_gain=12.5546 16.6088 8.92463 19.4124 5.57223 5.80573 2.60405 3.49379 3.02021 1.61841 3.81276 4.90672
threshold=0.44330549531948021 48.447618525021959 0.95485340012015618 14.783333333333337 0.39090903410244965 0.065680957985488023 -0.49088167148593659 0.95109746462233413 0.067358480188278738 24.44363799788913 0.86692214254927535 24.976827256128555
decision_type=2 2 2 2 2 2 2 2 2 2 2 2
left_child=1 2 9 -4 5 -5 -2 -8 -9 -1 -11 -12
right_child=6 -3 3 4 -6 -7 7 8 -10 10 11 -13
leaf_value=0.03053907008428608 0.032438951293370655 -0.034246188091048735 -0.030471932707373882 -0.025656513516642141 0.027118138142546565 0.023935168152095638 0.027633754581527881 0.023428231839888479 -0.00030196748898033939 0.02999480300172562 -0.012789676464698054 0.021409098109212352
leaf_weight=23.094397561624646 63.595883592963219 5.4216073220595709 9.4473462384194118 3.8657146375626352 16.865066975355148 2.7614538948982954 32.389866843819618 7.4841534234583404 10.575292337685822 10.356030479073526 6.1592979189008457 6.9755144491791725
leaf_count=18 38 137 201 77 18 4 25 7 34 6 37 8
internal_value=0.0214329 0.0124149 0.0160191 0.00378055 0.0183593 -0.00417012 0.0279576 0.0217294 0.0100881 0.0243484 0.0171413 0.00538978
internal_weight=198.992 84.9464 79.5248 32.9396 23.4922 6.62717 114.045 50.4493 18.0594 46.5852 23.4908 13.1348
internal_count=610 506 369 300 99 81 104 66 41 69 51 45
is_linear=0
shrinkage=0.03


Tree=74
num_leaves=10
num_cat=0
split_feature=4 177 125 140 58 111 140 26 4
split_gain=12.223 22.1386 6.75118 9.67215 7.6552 6.56376 6.16078 13.2727 1.28604
threshold=-0.39534173004085088 0.99459085184592488 0.38419008319207265 28.137919425964359 -0.41697420102559662 -0.12856236187433936 19.645403861999515 -0.0026655601390682669 -0.49088167148593659
decision_type=2 2 2 2 2 2 2 2 2
left_child=8 2 3 6 -5 -3 7 -2 -1
right_child=1 5 -4 4 -6 -7 -8 -9 -10
leaf_value=0.032189498683157035 0.025967091054885191 -0.032077002398577178 0.027936608260824957 0.011055713502956348 -0.033588509577936874 0.012029091068262306 0.027529846447308239 -0.034760248151558516 0.022078038745387881
leaf_weight=62.08333931863308 6.7374563626944983 10.167696352116762 42.251796698197722 6.0871004499495029 5.860584785230456 3.4494494767859569 22.91131528839469 4.569636261090638 30.978141754865646
leaf_count=39 7 240 45 21 84 37 43 61 33
