tree
version=v4
num_class=1
num_tree_per_iteration=1
label_index=0
max_feature_idx=119
objective=binary sigmoid:1
feature_names=Column_0 Column_1 Column_2 Column_3 Column_4 Column_5 Column_6 Column_7 Column_8 Column_9 Column_10 Column_11 Column_12 Column_13 Column_14 Column_15 Column_16 Column_17 Column_18 Column_19 Column_20 Column_21 Column_22 Column_23 Column_24 Column_25 Column_26 Column_27 Column_28 Column_29 Column_30 Column_31 Column_32 Column_33 Column_34 Column_35 Column_36 Column_37 Column_38 Column_39 Column_40 Column_41 Column_42 Column_43 Column_44 Column_45 Column_46 Column_47 Column_48 Column_49 Column_50 Column_51 Column_52 Column_53 Column_54 Column_55 Column_56 Column_57 Column_58 Column_59 Column_60 Column_61 Column_62 Column_63 Column_64 Column_65 Column_66 Column_67 Column_68 Column_69 Column_70 Column_71 Column_72 Column_73 Column_74 Column_75 Column_76 Column_77 Column_78 Column_79 Column_80 Column_81 Column_82 Column_83 Column_84 Column_85 Column_86 Column_87 Column_88 Column_89 Column_90 Column_91 Column_92 Column_93 Column_94 Column_95 Column_96 Column_97 Column_98 Column_99 Column_100 Column_101 Column_102 Column_103 Column_104 Column_105 Column_106 Column_107 Column_108 Column_109 Column_110 Column_111 Column_112 Column_113 Column_114 Column_115 Column_116 Column_117 Column_118 Column_119
feature_infos=[0.12386832628849136:1.1644372722359764] [-0.69638272349066388:1.1504755510272435] [0.65491990936976685:1.2591630408729604] [0.4542008137867552:1.4984043377224401] [0:1] [-2.5641354108387415:2.1326895957828] [-0.28019778630901737:0.28343891177621749] [-0.37935367614760757:0.30880455748058172] [-0.3536957872533657:0.33054945054945062] [-0.60014462039334249:1.0818536132225245] [-0.6927956114053373:1.2346767015627553] [0:0.62910508423225442] [0.6416070162750821:2.129214264756059] [-0.76098517497744989:2.3014743999776566] [-2.5222186542703966:8.3913392503378734] [-0.27749930943386769:0.11844883087453646] [-0.27749930943386769:0.11844883087453646] [0:13] [-0.018379087204010981:0.91168640603710305] [0.011885626260501086:0.10561151205553634] [-0.27749930943386769:0.11844883087453646] [-0.32704899001625259:1] [0:1] [0.13778834014806474:1.7298536092349568] [0.230625:0.95374999999999999] [1.9959090909090909:3.7994029850746269] [-0.29204730004060087:0.47062920826561411] [-0.63191667492744996:0.53318180801423753] [-0.39330600328294474:0.68679296459595074] [0.869982267189369:1.2370381129644716] [-30.119537353515625:63.899687423706084] [0:1.7298536092349568] [0:1.5137070937782131] [-0.014946740966631554:0.011325121667722201] [1:9] [-12.502114810009781:11.578745049333669] [-0.37593995381847167:0.3858267901603013] [-0.56819576219901624:1.0818536132225245] [0:1.4403779057306294] [-0.98561524791596855:1.5526759349357775] [-6.4748912290986107:3.5034338260585289] [-0.62636860904216185:0.95932239875740422] [0:1.1644372722359764] [0.087199759035823193:0.92086517285811798] [0.019807259594852758:0.29554929640273314] [-0.48158620496423665:0.58931085381372394] [-0.85471783537695245:4.6184165579321892] [-0.9921798927148906:0.92193521483751995] [-0.50380182330804757:0.89623899232087467] [-0.56819576219901624:1.0818536132225245] [3.0951519012451172:90.752201690673857] [0.16802854594404845:2.3190181526883387] [0:2.8025968497232867] [-4.5799947367451468:-1.4398990873022313] [-2.7309516182970492:3.1736742885388738] [-0.82885558175978147:0] [0:2.6724242424242424] [3.3528844938903557:87.315651507188448] [1.5635787057263015:4.2865898799590072] [1.6634148549483294:42.235044627214123] [0:90.752201690673857] [0.13780967365188562:1.5151522402627307] [-0.47048609218099419:-0.017961097735517503] [0.21974444042181968:11.023636028228003] [0.0092466164060876072:0.094543284063063698] [19.42327574238146:89.031526788433681] [0.79196205732197922:1.415015916021499] [0.14457145879226577:1.5137070937782131] [0.0087578252174694404:0.10814860749775569] [0:90.752201690673857] [-0.32186917432116458:0.29122942409019359] [30.92955029194631:67.640734130802457] [0.79015024316895677:2.3044491673381668] [-0.60622684155461326:0.93615584560692622] [-1.1113692848916199:0.30474937839169669] [0.12386832628849109:1.1644372722359773] [0:69.874411764705883] [0:1] [-0.44383421259767869:0] [-0.82885558175978147:0] [0:0.9992790370945438] [0:1.4984043377224401] [1.5628879047384403:8.0967153623324393] [0:0.99925359436889405] [-14.210832214355468:8.2905008850097772] [0.013610460728805408:0.1371011237765179] [0:0.99991855120157613] [0:7.5815151515151511] [-1.1424347569045747:1.0904666646503391] [-0.27749930943386769:0.11844883087453646] [0.77977681545421318:1.267559165504996] [-0.22672869045077421:0.23577610352442346] [0.052977908545708927:0.58767186138720684] [-0.44383421259767869:0] [0:1.1644372722359764] [0.65669343057170992:1.359322657754396] [-41.638496398925781:33.520469665527344] [-53:111] [0.2373134328358209:1.5513636363636363] [0:0.49940298507462688] [-11.129914066033464:12.168267752148353] [0:90.752201690673857] [-0.61111111412244556:1.1208509423268103] [-0.035447386466060382:0.022949864725394398] [0:1.7298536092349568] [0:1.4984043377224401] [0:39.635294117647057] [33.366060606060607:69.874411764705883] [9.5099999999999998:25.420000000000002] [-0.56819576219901624:1.0818536132225245] [0.3812998621622371:1.5355423538595447] [0:0.00035063113604488078] [0:1] [-0.42636059570794155:0] [0.016228131054851876:0.32234941780365128] [0.025000000000000001:0.095064921243082162] [0.19261238623673474:0.79998943467433203] [0:0.1096884193943768] [0:0.12741119629545811] [36.939999999999998:74.129999999999995]
tree_sizes=1048 1063 973 1288 1279 875 1183 772 982 1491 1187 1180 1288 1182 1292 881 976 1478 1289 986 1289 1400 1284 1191 1190 1086 1187 1295 1191 1192 1601 1181 1196 1086 1191 1191 1294 1194 1189 1179 1080 1193 1180 1184 1395 1187 1295 1187 1187 875 1187 1196 1076 1290 1293 1287 1288 1290 1192 1493 1391 1498 1290 1285 1293 1280 1299 1502 1395 1188 1285 1399 1187 1295 1287 1394 1181 1085 1394 1198 1293 1082 1185 1190 1281 1189 1288 1290 1260 1288 1291 1185 1191 1405 1082 1296 1283 1188 1297 1083 1402 1301 1410 1404 1297 1398 1192 1277 1395 1292 1409 1382 1508 1509 1088 1305 1378 1488 1299 1616 1280 1405 1296 1194 1622 1293 1200 1293 1499 1173 1413 1617 1500 1190 1485 1298 1403 1619 1307 1486 1598 1717 1507 1188 1291 1402 1291 1399 1420 1399 1300 1681 1692 1199 1305 1733 1416 1295 1202 1406 1302 1304 1509 1627 1625 1209 1620 1387 1514 1406 1202 1628 1205 1311 1498 1719 1423 1409 1408 1498 1594 1418 1093 1513 1197 1518 988 1511 1750 1313 1624 1093 1093 982 1409 1594 1176 1845 1311 1750 1842 1409 1513 1407 1737 1286 1299 987 1385 1399 1521 1425 1203 1614 1515 1310 1585 1737 1492 1469 1646 1609 1711 1635 1198 1505 1588 1416 1732 1523 1313 1287 1193 1731 1627 1294 1821 1604 1282 1205 1187 1628 1512 1500 1630 1294 1542 1405 1310 1299 1507 1579 1261 1393 1175 1400 1640 1419 1092 1692 1295 1503 1614 1467 1476 1689 1426 1627 1314 1610 1398 1650 1675 1612 1481 1205 1307 1392 1531 1187 1284 1418 1310 1290 1635 1510 1289 1280 1402 1301 1384 1577 1359 1219 1406 1377 1693 1469 1517 1398 1406 1670 1573 1276 1501 1563 1625 1561 1738 1569 1478 1400 1667 1574 1719 1387 1400 1304 1503 1408 1475 1579 1293 1263 1338 1597 1566 1382 1258 1329 1288 1379 1492 1584 1587 1574 1354 1571 1496 1611 1499 1554 1363 1708 1297 1333 1582 1408 1398 1284 1392 1212 1518 1571 1400 1292 1485 1657 1298 1456 1772 1478 1446 1580 1380 1594 1508 1449 1549 1388 1418 1490 1275 1512 1275 1500 1281 1555 1486 1366 1627 1381 1267 1592 1396 1364 1480 1464 1695 1634 1465 1378 1351 1396 1398 1661 1488 1515 1563 1306 1558 1501 1453 1368 1487 1372 1383 1576 1573 1407 1425 1575 1245 1390 1355 1551 1696 1590 1380 1291 1468 1697 1404 1349 1557 1466 1357 1380 1777 1457 1368 1465 1385 1486 1220 1310 1293 1379 1353 1483 1449 1455 1530 1462 1695 1259 1481 1366 1382 1440 1389 1379 1441 1382 1399 1178 1273 1677 1481 1401 1273 1445 1339 1285 1439 1408 1193 1173 1452 1432 1354 1362 1410 1340 1340 1260 1272 1259 1416 1247 1385 1546 1351 1661 1369 1342 1444 1335 1279 1447 1535 1371 1581 1490 1260 1436 1433 1382 1476 1368

Tree=0
num_leaves=9
num_cat=0
split_feature=85 38 107 0 0 23 43 43
split_gain=908.447 525.675 346.538 95.1916 76.3931 59.9155 41.8615 54.2937
threshold=0.034168031773422113 0.89378957318422081 56.573763003166 0.41008422983810094 0.41183283433368317 0.43897004552459934 0.28653334320465568 0.23316770571317594
decision_type=2 2 2 2 2 2 2 2
left_child=1 2 4 -3 -1 6 7 -2
right_child=5 3 -4 -5 -6 -7 -8 -9
leaf_value=-1.8524891685844187 -1.7002884563419793 -1.854470036544565 -1.638953150339735 -1.6915212657196019 -1.6968369328132016 -1.6178884663160167 -1.6538673994823181 -1.8458427721789652
leaf_weight=11.15325155854225 6.3632087707519513 32.380407750606537 35.068193942308426 2.581967204809188 2.7018946409225455 134.76316836476326 23.957269459962845 2.8782584667205811
leaf_count=93 18 270 47 4 5 107 42 24
internal_value=-1.66861 -1.75045 -1.68795 -1.83909 -1.81604 -1.62841 -1.67587 -1.74394
internal_weight=251.848 83.8857 48.9233 34.9624 13.8551 167.962 33.1987 9.24147
internal_count=610 419 145 274 98 191 84 42
is_linear=0
shrinkage=1


Tree=1
num_leaves=9
num_cat=0
split_feature=0 56 48 67 104 22 68 42
split_gain=594.649 610.669 141.004 192.399 82.3647 30.1531 46.5037 3.57645
threshold=0.39062604268995021 1.3784328358208957 -0.018523024685023978 0.42849704699049224 0.81650247006441734 0.12179487179487181 0.027931106365554407 0.30178083386780014
decision_type=2 2 2 2 2 2 2 2
left_child=1 2 7 -4 -3 6 -2 -1
right_child=5 4 3 -5 -6 -7 -8 -9
leaf_value=0.12347538356451275 0.06593635549329635 -0.033759750390889527 -0.031473633692191777 0.15796504755662361 0.10852628470590224 0.17355976805392759 0.15226632208227928 0.17465455430395954
leaf_weight=16.666884258389473 10.273562811315058 35.655150860548019 10.08073264360428 7.7717545032501212 3.0843040347099295 142.4606292322278 25.757597804069519 28.215557426214218
leaf_count=37 43 301 84 4 6 90 29 16
internal_value=0.132597 0.0734791 0.130602 0.0548405 -0.01991 0.165593 0.130177 0.15882
internal_weight=279.966 101.474 62.7349 17.8525 38.7395 178.492 36.0312 44.8824
internal_count=610 448 141 88 307 162 72 53
is_linear=0
shrinkage=0.03


Tree=2
num_leaves=8
num_cat=0
split_feature=10 51 38 15 109 111 1
split_gain=485.422 259.543 379.45 101.97 142.14 82.1399 1.34336
threshold=0.31820280982731036 0.48638290490404351 0.89617615416478158 -0.038483550562155626 -0.075323744608302087 0.00015660093510554856 -0.24904297714365201
decision_type=2 2 2 2 2 2 2
left_child=1 2 3 -1 -5 -4 -3
right_child=-2 6 5 4 -6 -7 -8
leaf_value=0.14665683143851588 -0.03296945714086541 0.15400287437989968 -0.033163745017812718 0.1330367925261017 -0.030926953291547977 0.11581620483183069 0.13152492100371171
leaf_weight=44.677333131432533 17.629856914281845 127.1963472366333 23.155717127025131 9.0230187475681323 8.4284451082348806 2.8687058240175238 71.845386549830437
leaf_count=40 146 54 198 8 70 2 92
internal_value=0.118042 0.127404 0.0828651 0.122618 0.0563011 -0.0129526 0.146602
internal_weight=304.825 287.195 88.1532 62.1288 17.4515 26.0244 199.042
internal_count=610 464 318 118 78 200 146
is_linear=0
shrinkage=0.03


Tree=3
num_leaves=11
num_cat=0
split_feature=10 43 38 47 33 104 72 19 45 45
split_gain=402.627 209.384 237.041 74.2435 139.83 74.167 16.2178 21.1772 0.0919692 1.03378
threshold=0.31820280982731036 0.26867621880952808 0.97689034036886435 -0.038220070658174225 -0.0028525805726712281 0.54294711616808222 0.8606427336020307 0.026425743284302534 1.0000000180025095e-35 0.27248592444992142
decision_type=2 2 2 2 2 2 2 2 2 2
left_child=1 2 3 -1 -5 -4 -3 -8 -9 -10
right_child=-2 6 5 4 -6 -7 7 8 9 -11
leaf_value=0.12399300287508289 -0.032770558330669802 -0.010836269311893998 -0.032832999575141332 0.12490390213046505 -0.031448763546655635 0.10718103098330192 -0.012856533176175159 0.13420566836320452 0.087462611572684382 0.12479373907865129
leaf_weight=43.941402234137058 17.217066586017609 0.54798023402690788 19.54806670546532 9.4592099189758319 9.4595670029520971 3.0839191377162924 0.71761678159236808 186.35366044938564 17.039217464625835 19.707830503582954
leaf_count=48 146 4 170 5 78 2 6 101 36 14
internal_value=0.106631 0.114467 0.0729886 0.102566 0.0489215 -0.00989913 0.129864 0.130269 0.130798 0.110339
internal_weight=327.076 309.858 85.4922 62.8602 18.9188 22.632 224.366 223.818 223.101 36.747
internal_count=610 464 303 131 83 172 161 157 151 50
is_linear=0
shrinkage=0.03


Tree=4
num_leaves=11
num_cat=0
split_feature=84 85 38 107 19 47 53 19 21 19
split_gain=317.96 190.375 219.145 117.426 73.286 52.3201 13.5082 18.8123 7.42372 12.0041
threshold=1.6022875785827639 0.034168031773422113 0.90306151399724166 56.573763003166 0.035738944796036468 0.19732269719579945 -3.7998935868237056 0.028178433460479251 0.012440946872657078 0.049404811712962515
decision_type=2 2 2 2 2 2 2 2 2 2
left_child=1 2 3 5 -4 -1 -3 -8 -9 -10
right_child=-2 6 4 -5 -6 -7 7 8 9 -11
leaf_value=-0.030807309240511581 -0.032905096259943568 -0.011298988486905564 -0.032683112552012047 0.11355951369728809 0.1049946982878581 0.093054168280741256 -0.013322586238230792 0.12192605111837346 0.0718693220159482 0.11605079386436933
leaf_weight=8.6808865591883642 15.595150128006933 0.5216636061668386 21.301085688173774 50.357099130749702 3.1274466514587393 3.4974146932363501 0.74815727770328422 202.82508315891027 19.459098860621452 20.694685325026512
leaf_count=75 129 3 193 46 1 3 6 100 45 9
internal_value=0.0974962 0.103726 0.0643086 0.0936855 -0.0115032 0.00889805 0.117428 0.117761 0.11823 0.0969793
internal_weight=346.808 331.213 86.9639 62.5354 24.4285 12.1783 244.249 243.727 242.979 40.1538
internal_count=610 481 318 124 194 78 163 160 154 54
is_linear=0
shrinkage=0.03


Tree=5
num_leaves=7
num_cat=0
split_feature=34 51 15 89 23 42
split_gain=276.888 127.225 207.342 138.345 120.136 14.0775
threshold=7.5000000000000009 0.48638290490404351 -0.038483550562155626 0.037562650145751324 0.73561529332712527 0.23911061416983406
decision_type=2 2 2 2 2 2
left_child=1 2 5 -4 -2 -1
right_child=4 -3 3 -5 -6 -7
leaf_value=0.058709776613423796 -0.033915419026857629 0.10987728849592063 -0.033124588421361928 0.086279336979313503 0.10001791619685264 0.10753891604047577
leaf_weight=10.879594027996061 21.977404415607456 236.12316928058863 23.39399129897356 12.609128192067145 7.1703376770019522 52.119071438908577
leaf_count=37 178 122 206 23 2 42
internal_value=0.0899993 0.0976911 0.0677884 0.00981392 0.00115736 0.100202
internal_weight=364.273 335.125 99.0018 36.0031 29.1477 62.9987
internal_count=610 430 308 229 180 79
is_linear=0
shrinkage=0.03


Tree=6
num_leaves=10
num_cat=0
split_feature=10 43 38 104 2 6 53 19 22
split_gain=267.182 111.051 159.407 60.0657 42.051 107.723 10.7421 18.7368 1.32672
threshold=0.31820280982731036 0.26867621880952808 0.97689034036886435 0.54294711616808222 0.95485340012015618 0.025510879064805064 -3.7998935868237056 0.026425743284302534 0.12179487179487181
decision_type=2 2 2 2 2 2 2 2 2
left_child=1 2 4 -4 -1 -6 -3 -8 -9
right_child=-2 6 3 -5 5 -7 7 8 -10
leaf_value=0.10089866370452137 -0.032521667283966799 -0.011751348118216681 -0.032538938610125315 0.087382441527268581 -0.031462145633642059 0.08756781296516214 -0.015728609262516905 0.086749913562205419 0.10290344182397888
leaf_weight=42.410074628889561 16.507693953812122 0.53598101437091727 18.621985845267776 3.6536086797714225 9.2613601386547106 21.038593277335167 0.96845468133687873 56.040588691830635 210.75792176276445
leaf_count=27 146 3 170 2 77 27 8 67 83
internal_value=0.0837002 0.0890642 0.0599591 -0.00983154 0.0812243 0.0512469 0.0990961 0.099372 0.0998582
internal_weight=379.796 363.289 94.9856 22.2756 72.71 30.3 268.303 267.767 266.799
internal_count=610 464 303 172 131 104 161 158 150
is_linear=0
shrinkage=0.03


Tree=7
num_leaves=6
num_cat=0
split_feature=10 51 2 66 23
split_gain=236.49 88.6544 244.996 76.5826 1.73581
threshold=0.31820280982731036 0.48638290490404351 0.96426324433407407 0.91371385099862967 0.43897004552459934
decision_type=2 2 2 2 2
left_child=1 2 -1 -4 -3
right_child=-2 4 3 -5 -6
leaf_value=0.090886947714407307 -0.032333383010306666 0.075488687589267439 0.059386752731471718 -0.033227112157517107 0.094476686520396952
leaf_weight=70.632690899074078 16.11743202060461 32.655202344059944 10.573279298841952 25.281807295978069 238.1028393805027
leaf_count=63 146 45 29 226 101
internal_value=0.078365 0.0831754 0.0588393 -0.00496455 0.0924839
internal_weight=393.363 377.246 106.488 35.8551 270.758
internal_count=610 464 318 255 146
is_linear=0
shrinkage=0.03


Tree=8
num_leaves=8
num_cat=0
split_feature=84 78 51 76 9 15 89
split_gain=208.434 108.213 57.5712 148.647 45.5259 43.6335 87.5101
threshold=1.6022875785827639 -0.29038132670563022 0.48638290490404351 48.447618525021959 0.41232711111308823 -0.038483550562155626 0.037562650145751324
decision_type=2 2 2 2 2 2 2
left_child=1 4 3 -3 -1 -5 -7
right_child=-2 2 -4 5 -6 6 -8
leaf_value=-0.032888323288090902 -0.033096010742200227 -0.031710496617148129 0.088661165293209776 0.08626686746193811 0.074753679377238272 -0.031213492882431589 0.084872822687100585
leaf_weight=10.932794056832789 15.247894451022146 13.064997330307959 271.79392320662737 68.233671970665455 4.0246472358703604 9.5678412094712275 12.445373408496378
leaf_count=88 129 122 121 54 1 85 10
internal_value=0.0737526 0.078011 0.0811582 0.0607299 -0.000867227 0.0743462 0.0351228
internal_weight=405.311 390.063 375.106 103.312 14.9574 90.2469 22.0132
internal_count=610 481 392 271 89 149 95
is_linear=0
shrinkage=0.03


Tree=9
num_leaves=13
num_cat=0
split_feature=78 0 95 32 76 68 1 52 0 0 32 16
split_gain=177.567 63.7219 176.291 49.4841 28.1717 56.4891 7.8573 13.2354 26.2823 80.2106 1.75516 1.44294
threshold=-0.29038132670563022 0.3606369866180788 0.94262183981409275 1.2495753215677479 48.447618525021959 0.028888473308352019 -0.26737159620994938 1.0000000180025095e-35 0.5987271516877386 0.39117599459011421 0.38419008319207265 -0.024970581562888707
decision_type=2 2 2 2 2 2 2 2 2 2 2 2
left_child=3 2 4 -1 5 -2 -3 -8 9 -9 11 -6
right_child=1 6 -4 -5 10 -7 7 8 -10 -11 -12 -13
leaf_value=-0.033482682834375152 -0.030293247290759842 0.086187033009010025 -0.032364939270471849 0.071435165400627068 0.046554246128557839 0.079775175790447669 0.081799035595334094 0.075418836282389518 0.082680044841328668 -0.035643561334187113 0.086650163733890728 0.075305364304148192
leaf_weight=18.276578642427925 6.8856950998306266 197.74482024461031 17.476671285927296 4.1300449371337882 11.93171798437834 8.2436976432800275 56.507165625691414 13.43391063809395 16.728134542703629 9.01631151139736 41.763446167111397 13.424228712916372
leaf_count=157 61 59 166 1 29 2 32 14 5 52 18 14
internal_value=0.0697563 0.0744295 0.0525909 -0.0117901 0.0708508 0.0307224 0.0816376 0.0714105 0.0546895 0.0310689 0.0792683 0.0641695
internal_weight=415.562 393.156 99.7255 22.4066 82.2488 15.1294 293.43 95.6855 39.1784 22.4502 67.1194 25.3559
internal_count=610 452 290 158 124 63 162 103 71 66 61 43
is_linear=0
shrinkage=0.03


Tree=10
num_leaves=10
num_cat=0
split_feature=34 113 23 31 0 48 23 8 8
split_gain=162.341 111.584 85.958 42.6658 24.7654 79.9336 75.2709 1.21199 2.03066
threshold=7.5000000000000009 -0.29459381991765782 0.73561529332712527 1.3583973153252549 0.3606369866180788 -0.0079066660040192898 0.45343375275833847 -0.049708426637172225 0.064039519869189557
decision_type=2 2 2 2 2 2 2 2 2
left_child=1 3 -2 -1 5 7 -7 -3 -9
right_child=2 4 -4 -5 -6 6 -8 8 -10
leaf_value=-0.032651822272554261 -0.034012084884973544 0.08194646594798885 0.073675723125764384 0.068443163913517055 0.079404375447714406 -0.031961070449802037 0.075896080249127501 0.043894721690728764 0.072745460395792924
leaf_weight=12.375334665179254 21.016076579689983 42.84563022851944 8.5701322555541974 4.2235050201416007 286.49673464149237 14.186312466859819 8.4528512954711896 12.312927484512331 13.656800374388693
leaf_count=106 178 15 2 1 124 135 2 32 15
internal_value=0.0663086 0.0713789 -0.00133152 -0.00433073 0.0747145 0.0592901 0.00969 0.0751923 0.0613126
internal_weight=424.136 394.55 29.5862 16.5988 377.951 91.4545 22.6392 68.8154 25.9697
internal_count=610 430 180 107 323 199 137 62 47
is_linear=0
shrinkage=0.03


Tree=11
num_leaves=10
num_cat=0
split_feature=78 51 2 66 31 98 31 1 1
split_gain=144.233 55.5111 146.719 59.7917 44.6667 5.40207 15.9795 0.383087 3.14768
threshold=-0.29038132670563022 0.48638290490404351 0.96426324433407407 0.91326547916200085 1.3583973153252549 1.4469293239683936 0.35478704425312052 -0.26737159620994938 -0.1148376782455121
decision_type=2 2 2 2 2 2 2 2 2
left_child=4 2 5 -4 -1 6 -2 -3 -9
right_child=1 7 3 -5 -6 -7 -8 8 -10
leaf_value=-0.03309651920254892 0.017785911157810381 0.077456355850562791 0.048575869580688408 -0.032696069915622794 0.065733067894150635 0.076381043704365936 0.07163709370481347 0.048246357128864423 0.071025017636153653
leaf_weight=17.472340658307079 9.0659457072615641 189.13284794986248 11.603235125541685 22.032449886202812 4.3056321144103995 58.117804534733295 13.560695186257361 17.046861842274666 89.099065870046616
leaf_count=157 39 48 31 212 1 29 9 24 60
internal_value=0.0632372 0.0672303 0.048559 -0.00398022 -0.0113976 0.0702628 0.0518532 0.0742645 0.0678792
internal_weight=431.437 409.659 114.38 33.6357 21.778 80.7444 22.6266 295.279 106.146
internal_count=610 452 320 243 158 77 48 132 84
is_linear=0
shrinkage=0.03


Tree=12
num_leaves=11
num_cat=0
split_feature=113 21 10 31 43 38 1 62 5 47
split_gain=123.557 52.9427 58.3115 41.989 26.8449 64.8743 40.1184 16.8096 16.3134 22.9408
threshold=-0.29459381991765782 0.046713362777182625 0.20826340872178886 1.3583973153252549 0.28653334320465568 0.97689034036886435 -0.22740332921346559 -0.052756861835878202 -0.031737451869102581 -0.17747905268351702
decision_type=2 2 2 2 2 2 2 2 2 2
left_child=3 4 7 -1 5 8 -7 -3 -2 -10
right_child=1 2 -4 -5 -6 6 -8 -9 9 -11
leaf_value=-0.032713940740403069 0.071313874729245191 0.014529315049498294 -0.032633396272063901 0.063267810447909301 0.072389124795344997 0.067158577592943636 -0.031273364732756159 0.065813057473390543 0.07048754086796144 0.0067980357117236739
leaf_weight=16.382557876408104 60.394577458500862 9.2644917592406291 9.5193452760577184 4.3770337104797354 282.43499536812305 4.2628159523010281 11.756253294646738 19.0575937256217 8.7295908927917498 11.42211542278528
leaf_count=153 44 33 77 1 104 1 118 19 2 58
internal_value=0.060488 0.06404 0.0289872 -0.0103614 0.0674464 0.0523655 -0.00249648 0.0502075 0.0632101 0.0365579
internal_weight=437.601 416.842 37.8414 20.7596 379 96.5654 16.0191 28.3221 80.5463 20.1517
internal_count=610 456 129 154 327 223 119 52 104 60
is_linear=0
shrinkage=0.03


Tree=13
num_leaves=10
num_cat=0
split_feature=34 39 75 38 2 119 57 19 1
split_gain=129.451 73.5998 39.1406 125.506 27.537 59.9598 3.10197 7.65349 3.7325
threshold=7.5000000000000009 0.48441255434074237 0.36063698661807936 0.97689034036886435 0.96517975331594308 69.015000000000015 29.093348329029389 0.045395843250400199 -0.019152689814440457
decision_type=2 2 2 2 2 2 2 2 2
left_child=2 -2 3 4 -1 -6 -4 8 -8
right_child=1 -3 6 -5 5 -7 7 -9 -10
leaf_value=0.069150248224382996 -0.033961330042040688 0.064577261177735601 0.06985332800552678 -0.031854817794024437 -0.030967065117533211 0.065022870320807571 0.01842882237325285 0.066252934726858212 0.049053645844821095
leaf_weight=65.100597284734249 20.436187580227855 9.0044107437133771 257.92682825773954 15.419389605522154 8.679423466324808 14.276789434254168 8.2830564901232737 32.476393461227417 11.096105642616747
leaf_count=33 178 2 96 159 78 13 23 11 17
internal_value=0.0580072 -0.00259338 0.0623274 0.0453542 0.0591136 0.0288275 0.0678232 0.0565379 0.0376578
internal_weight=442.699 29.4406 413.259 103.476 88.0568 22.9562 309.782 51.8556 19.3792
internal_count=610 180 430 283 124 91 147 51 40
is_linear=0
shrinkage=0.03


Tree=14
num_leaves=11
num_cat=0
split_feature=34 39 43 38 3 48 33 25 19 19
split_gain=118.127 69.8037 38.3451 71.9169 39.3892 22.6771 59.9843 2.02721 5.40549 1.82579
threshold=7.5000000000000009 0.48441255434074237 0.26867621880952808 0.97689034036886435 0.8139767944928864 -0.031875621687069554 -0.0028525805726712281 2.8683582089552244 0.044503187859848699 0.031738290859548067
decision_type=2 2 2 2 2 2 2 2 2 2
left_child=2 -2 3 5 -5 -1 -7 -4 9 -9
right_child=1 -3 7 4 -6 6 -8 8 -10 -11
leaf_value=0.064319125365396454 -0.033749690289800509 0.062272320694186312 0.067748660802923952 0.062014778590762945 -0.031564970719293081 0.064331633573708746 -0.03197638631233872 0.055304529150351535 0.065474709125422151 0.034652367379572196
leaf_weight=62.934030331671238 19.960869848728183 9.0931558609008771 231.04527315497398 4.4116821289062527 15.097908824682234 13.863511815667154 8.7289696112275106 15.408642604947088 46.535989880561829 19.514237694442272
leaf_count=49 178 2 74 1 159 5 74 17 15 36
internal_value=0.0557857 -0.00252541 0.0598467 0.0432376 -0.00826568 0.0549806 0.0272162 0.0652639 0.0574437 0.0451339
internal_weight=446.594 29.054 417.54 105.036 19.5096 85.5265 22.5925 312.504 81.4589 34.9229
internal_count=610 180 430 288 160 128 79 142 68 53
is_linear=0
shrinkage=0.03


Tree=15
num_leaves=7
num_cat=0
split_feature=34 23 51 2 89 47
split_gain=108.237 66.3045 35.5454 112.68 59.4506 0.639759
threshold=7.5000000000000009 0.73561529332712527 0.48638290490404351 0.96517975331594308 0.044586665567016494 -0.036949695895663194
decision_type=2 2 2 2 2 2
left_child=2 -2 3 5 -5 -1
right_child=1 -3 -4 4 -6 -7
leaf_value=0.065344159172086289 -0.033543412661807069 0.060173445414113576 0.063163673718298161 -0.032570694892247405 0.050262848931694686 0.049823814770408766
leaf_weight=56.226173780858517 19.494317740201954 9.1617908477783185 304.24370433390141 21.900063440203667 10.82229248434305 27.690033607184887
leaf_count=22 178 2 122 222 20 44
internal_value=0.0537746 -0.00246086 0.0576073 0.0426747 -0.00440802 0.0609053
internal_weight=449.538 28.6561 420.882 116.639 32.7224 83.9162
internal_count=610 180 430 308 242 66
is_linear=0
shrinkage=0.03


Tree=16
num_leaves=8
num_cat=0
split_feature=78 34 3 85 51 2 66
split_gain=101.336 69.6852 56.1555 35.7998 15.533 59.4778 53.71
threshold=-0.29038132670563022 7.5000000000000009 0.73136147574863941 0.054972780452405952 0.49741274751147063 0.96517975331594308 0.94516535195339368
decision_type=2 2 2 2 2 2 2
left_child=3 4 -3 -1 5 -2 -7
right_child=1 2 -4 -5 -6 6 -8
leaf_value=-0.03287018165661032 0.06003889591154786 0.058254437136522917 -0.033025003434503854 0.054597393522871948 0.061999430141003453 0.04545976767445066 -0.031596143721371768
leaf_weight=16.323695428669456 88.119056701660156 9.2118139266967791 13.934660658240317 4.5795102119445792 288.54665543138981 17.213643856346611 13.752509556710718
leaf_count=157 53 2 124 1 97 34 142
internal_value=0.0519218 0.0550488 0.00408616 -0.0119529 0.0579182 0.0475702 0.0112264
internal_weight=451.682 430.778 23.1465 20.9032 407.632 119.085 30.9662
internal_count=610 452 126 158 326 229 176
is_linear=0
shrinkage=0.03


Tree=17
num_leaves=13
num_cat=0
split_feature=34 3 43 113 44 23 11 29 25 23 22 22
split_gain=91.7598 60.0718 30.443 60.0613 36.0124 27.0803 7.03614 9.16557 2.15866 7.98497 3.36653 0.12001
threshold=7.5000000000000009 0.73136147574863941 0.26867621880952808 -0.2880950297233158 0.057694127093101844 0.4877887802817914 0.049939818224454507 1.0622300060145091 2.8683582089552244 0.47616740414852449 0.18333333333333338 0.12179487179487181
decision_type=2 2 2 2 2 2 2 2 2 2 2 2
left_child=2 -2 3 -1 6 -6 11 -8 -4 10 -10 -5
right_child=1 -3 8 4 5 -7 7 -9 9 -11 -12 -13
leaf_value=-0.030673477175341624 0.056493321623841165 -0.033147867451558496 0.060779489475253488 0.048652768288906405 -0.030756898044941947 0.052225996171223928 0.010779771292655322 0.052885393168627642 0.022458995588579393 0.057904439659446437 0.04796199863086259 0.064001636268044129
leaf_weight=9.4170977771282178 9.2446384429931658 18.592405259609222 235.56812952458858 27.165569506585598 8.581297814846037 4.6125359535217276 9.6244955658912676 9.8825801461935026 15.127981022000315 57.517598927021027 10.526453234255312 37.019867330789566
leaf_count=96 2 178 74 40 93 1 38 8 38 21 9 12
internal_value=0.0502377 -0.00234743 0.053686 0.0389421 0.0459835 0 0.0531656 0.0337961 0.0584567 0.0511985 0.0344427 0.0583975
internal_weight=452.881 27.837 425.044 106.303 96.8863 13.1938 83.6925 19.5071 318.74 83.172 25.6544 64.1854
internal_count=610 180 430 288 192 94 98 46 142 68 47 52
is_linear=0
shrinkage=0.03


Tree=18
num_leaves=11
num_cat=0
split_feature=34 3 83 85 1 87 31 11 47 47
split_gain=84.8605 57.276 29.6948 68.7615 11.5698 28.4874 58.5457 13.8867 27.4555 1.45477
threshold=7.5000000000000009 0.73136147574863941 0.97260055768714315 0.050146174809291295 -0.24904297714365201 4.6167989597467214 0.65853439367600741 0.049939818224454507 -0.13580427003977052 -0.012151095668965257
decision_type=2 2 2 2 2 2 2 2 2 2
left_child=2 -2 4 -4 -1 7 -7 9 -9 -6
right_child=1 -3 3 -5 5 6 -8 8 -10 -11
leaf_value=0.059809921466391053 0.054871530665901343 -0.032955996389397849 -0.033145364138928657 0.056900831996287128 0.060361686933159943 -0.034969875092179963 0.054823394218907397 0.054278499770790738 -0.0014589912337594768 0.047686476516771083
leaf_weight=200.91817945241928 9.261594772338869 18.152111925184727 11.643711552023889 18.529319763183594 94.911112166941166 10.446147195994856 14.352637752890585 19.440145038068295 12.768368259072302 43.062224961817265
leaf_count=53 2 178 106 4 37 90 5 9 66 60
internal_value=0.0486882 -0.00229141 0.0519729 0.0221074 0.0541801 0.048088 0.0169936 0.0524758 0.0327137 0.0567989
internal_weight=453.486 27.4137 426.072 30.173 395.899 194.981 24.7988 170.182 32.2085 137.973
internal_count=610 180 430 110 320 267 95 172 75 97
is_linear=0
shrinkage=0.03


Tree=19
num_leaves=8
num_cat=0
split_feature=34 23 84 24 43 48 33
split_gain=78.7014 54.6671 27.2158 51.5896 16.2455 40.9258 61.3717
threshold=7.5000000000000009 0.73561529332712527 0.74246916770935067 0.25281250000000005 0.26867621880952808 -0.031875621687069554 -0.0029089971908574665
decision_type=2 2 2 2 2 2 2
left_child=2 -2 4 -4 5 -1 -7
right_child=1 -3 3 -5 -6 6 -8
leaf_value=0.054071634156911831 -0.032768444299231744 0.053373241466355734 0.047800917698149654 -0.032864539045294398 0.056014241128464815 0.051946208825922754 -0.032217156948292545
leaf_weight=60.269287541508675 17.720576025545601 9.2639369964599592 20.980281665921215 9.6808738335967046 306.16763662546873 14.705287180840971 14.511128701269625
leaf_count=49 178 2 22 84 114 9 152
internal_value=0.0472636 -0.00223783 0.0504019 0.0220035 0.052534 0.0401062 0.0103621
internal_weight=453.299 26.9845 426.314 30.6612 395.653 89.4857 29.2164
internal_count=610 180 430 106 324 210 161
is_linear=0
shrinkage=0.03


Tree=20
num_leaves=11
num_cat=0
split_feature=78 34 39 13 51 38 13 60 16 14
split_gain=80.207 50.6478 46.1546 30.5532 12.8608 39.9576 29.695 17.8106 19.3475 1.59458
threshold=-0.29038132670563022 7.5000000000000009 0.48441255434074237 -0.49803627782189835 0.49741274751147063 0.99459085184592488 -0.44768142216556284 19.645403861999515 -0.045527579636144323 0.2993571233652344
decision_type=2 2 2 2 2 2 2 2 2 2
left_child=3 4 -3 -1 5 7 -7 8 -2 -9
right_child=1 2 -4 -5 -6 6 -8 9 -10 -11
leaf_value=0.048538514999627878 0.046793471896750732 -0.03218610030315372 0.05198491994335723 -0.032603751360846291 0.054705025794789489 0.052671507054919312 -0.031735430832910923 0.042378212462341372 -0.03031808432894088 0.05646631658091076
leaf_weight=4.6322064399719265 4.7838243693113327 12.688100300729277 9.2528457641601545 15.322713814675806 290.25882145762444 4.6073784828186026 10.32134687155485 33.450949527323246 4.9422002360224706 62.268551826477051
leaf_count=1 2 124 2 157 97 1 110 47 41 28
internal_value=0.0459331 0.0486441 0.00389813 -0.0122073 0.0510124 0.0417062 -0.00382571 0.0481561 0.00815671 0.052063
internal_weight=452.529 432.574 21.9409 19.9549 410.633 120.374 14.9287 105.446 9.72602 95.7195
internal_count=610 452 126 158 326 229 111 118 43 75
is_linear=0
shrinkage=0.03


Tree=21
num_leaves=12
num_cat=0
split_feature=113 21 10 13 62 48 8 50 72 108 1
split_gain=72.146 29.3765 41.1953 29.1859 14.3812 34.5638 63.3577 8.70439 0.508509 0.831326 0.116381
threshold=-0.29459381991765782 0.046713362777182625 0.20826340872178886 -0.49803627782189835 -0.065493907458072917 -0.031875621687069554 0.053251892775236238 28.343436241149906 1.1910785924378622 15.860000000000001 -0.24904297714365201
decision_type=2 2 2 2 2 2 2 2 2 2 2
left_child=3 4 7 -1 10 8 -7 -3 -6 -10 -2
right_child=1 2 -4 -5 5 6 -8 -9 9 -11 -12
leaf_value=0.047374857009431115 0.055324496343352077 0.011077816211459634 -0.033081387429842381 -0.032473591556272025 0.055145346475281881 -0.034392704460754694 0.046216327644147168 0.048690792306682731 0.030246605235566822 0.049125735472716425 0.047713606703022861
leaf_weight=4.6282167434692409 208.12410117685795 8.7832171842455882 8.7865173071622831 14.508431017398832 47.191697508096695 13.76078027486801 20.742698930203915 20.13387206941843 13.257017940282822 14.726028978824615 76.420170813798904
leaf_count=1 49 32 77 153 17 142 21 20 37 7 54
internal_value=0.0447148 0.0472387 0.0210226 -0.0116195 0.0496789 0.0394344 0.0139199 0.0381187 0.0507691 0.0416374 0.0534652
internal_weight=451.063 431.926 37.7036 19.1366 394.222 109.678 34.5035 28.9171 75.1747 27.983 284.544
internal_count=610 456 129 154 327 224 163 52 61 44 103
is_linear=0
shrinkage=0.03


Tree=22
num_leaves=11
num_cat=0
split_feature=113 34 23 31 1 11 11 59 87 31
split_gain=67.5459 51.3569 44.1278 28.0565 11.444 31.7455 38.6963 13.2517 11.4902 20.8857
threshold=-0.29459381991765782 7.5000000000000009 0.73561529332712527 1.3583973153252549 -0.24904297714365201 0.049939818224454507 0.14824370881102636 25.987370942905013 3.8665694255992764 0.74983704434180998
decision_type=2 2 2 2 2 2 2 2 2 2
left_child=3 4 -3 -1 -2 8 -7 -8 -6 -10
right_child=1 2 -4 -5 5 6 7 -9 9 -11
leaf_value=-0.032287462701146519 0.053544834311945948 -0.032310455054278708 0.049386000085345237 0.046282305081938181 0.052336030167806608 -0.034939854542151996 0.0040187431429666914 0.047022527628579724 -0.00176791904341487 0.051608266259024135
leaf_weight=14.165261544287207 217.72649121284485 13.29397761821747 9.190971374511717 4.6190810203552237 126.22637268155813 8.8512802571058256 9.8250477612018603 20.00692331045866 11.595696553587914 13.805208683013916
leaf_count=153 56 131 2 1 74 73 45 16 56 3
internal_value=0.0435636 0.045992 0.00163707 -0.0114527 0.0484188 0.0422895 0.0173146 0.0335464 0.0484863 0.027984
internal_weight=449.306 430.522 22.4849 18.7843 408.037 190.311 38.6833 29.832 151.627 25.4009
internal_count=610 456 133 154 323 267 134 61 133 59
is_linear=0
shrinkage=0.03


Tree=23
num_leaves=10
num_cat=0
split_feature=78 34 23 32 23 38 91 6 48
split_gain=66.3053 42.6704 40.76 27.2062 11.7925 30.6472 33.9372 9.90768 27.4876
threshold=-0.29038132670563022 7.5000000000000009 0.73561529332712527 1.2495753215677479 0.44330549531948021 0.97689034036886435 -0.044035017507350734 1.0000000180025095e-35 -0.031875621687069554
decision_type=2 2 2 2 2 2 2 2 2
left_child=3 4 -3 -1 5 7 -7 8 -2
right_child=1 2 -4 -5 -6 6 -8 -9 -10
leaf_value=-0.032096114937927155 0.04712615602007874 -0.031840791258307403 0.048270561113488361 0.045254388174508685 0.051317364552345299 0.041257061136949456 -0.031976625066417921 0.051087812433284648 -0.0041660297321478648
leaf_weight=14.313152261078359 29.701438680291176 12.085330359637739 9.145042419433592 4.6051945686340323 255.75918947160244 10.569451525807382 10.213407784700392 87.368316501379013 13.186118073761461
leaf_count=157 17 124 2 1 75 10 110 46 68
internal_value=0.042495 0.0449232 0.00315153 -0.0117898 0.0470827 0.039602 0.00531402 0.0449678 0.031552
internal_weight=446.947 428.028 21.2304 18.9183 406.798 151.039 20.7829 130.256 42.8876
internal_count=610 452 126 158 326 251 120 131 85
is_linear=0
shrinkage=0.03


Tree=24
num_leaves=10
num_cat=0
split_feature=113 34 23 31 23 12 38 103 15
split_gain=59.7407 44.8506 40.433 25.992 11.0617 26.3652 22.9061 37.5851 4.4191
threshold=-0.29459381991765782 7.5000000000000009 0.73561529332712527 1.3583973153252549 0.43897004552459934 0.83319654771652185 0.97689034036886435 0.0043952686966034224 -0.049851830921283626
decision_type=2 2 2 2 2 2 2 2 2
left_child=3 4 -3 -1 5 -2 8 -8 -7
right_child=1 2 -4 -5 -6 6 7 -9 -10
leaf_value=-0.031944010658753873 -0.03023647882940645 -0.031922927992272976 0.047226200704466974 0.044285366282691627 0.050042745780182599 0.050686664524023414 -0.032271506929375658 0.048450340544279123 0.036021028513052687
leaf_weight=13.526556059718134 4.1292701661586753 12.684293977916242 9.0897922515869123 4.586932659149169 258.84646743535995 76.146157279610634 9.1916906163096446 9.5982214584946615 46.245986275374889
leaf_count=153 30 131 2 1 77 31 101 6 78
internal_value=0.0415039 0.0437721 0.00160972 -0.0111762 0.0460267 0.038559 0.0407908 0.0091757 0.0455064
internal_weight=444.045 425.932 21.7741 18.1135 404.158 145.311 141.182 18.7899 122.392
internal_count=610 456 133 154 323 246 216 107 109
is_linear=0
shrinkage=0.03


Tree=25
num_leaves=9
num_cat=0
split_feature=78 34 39 31 51 2 109 14
split_gain=58.7414 37.3225 37.3715 25.224 10.9747 39.6835 45.9137 0.306562
threshold=-0.29038132670563022 7.5000000000000009 0.48441255434074237 1.3583973153252549 0.49741274751147063 0.96517975331594308 -0.062200068865724094 0.36099001661370872
decision_type=2 2 2 2 2 2 2 2
left_child=3 4 -3 -1 5 7 -7 -2
right_child=1 2 -4 -5 -6 6 -8 -9
leaf_value=-0.031756187365870409 0.039351420091109715 -0.031459709066127946 0.046246257953649818 0.043370148282999489 0.048294503620811155 0.039685294523492114 -0.031933672281720692 0.050384553576158633
leaf_weight=13.650246702134611 36.568830363452435 11.526074986904861 9.0260715484619123 4.5646491050720206 283.15219762921333 16.236288085579876 14.127112112939356 51.968586951494217
leaf_count=157 32 124 2 1 97 24 152 21
internal_value=0.0405659 0.0428388 0.00309025 -0.0114961 0.0448505 0.0362896 0.00631191 0.0463514
internal_weight=440.82 422.605 20.5521 18.2149 402.053 118.901 30.3634 88.5374
internal_count=610 452 126 158 326 229 176 53
is_linear=0
shrinkage=0.03


Tree=26
num_leaves=10
num_cat=0
split_feature=78 34 23 13 23 38 77 2 98
split_gain=55.3653 34.9979 35.8222 24.2965 11.0218 26.0573 31.8374 7.5754 34.2018
threshold=-0.29038132670563022 7.5000000000000009 0.73561529332712527 -0.49803627782189835 0.44330549531948021 0.97689034036886435 0.027399442312857018 0.95485340012015618 0.51778493894165545
decision_type=2 2 2 2 2 2 2 2 2
left_child=3 4 -3 -1 5 7 -7 -2 -9
right_child=1 2 -4 -5 -6 6 -8 8 -10
leaf_value=0.042504188085335619 0.047083449187501042 -0.031274841967176996 0.045324855013760948 -0.031583372751579589 0.047970404660774103 -0.032632801027079945 0.039228958140925245 0.048061502825477359 -0.0075451039762275242
leaf_weight=4.5386786460876491 85.509490385651588 11.25637097284198 8.954673767089842 13.323600366711615 249.98761177062988 9.7472039833664912 10.465176939964293 29.004912428557873 14.405065290629862
leaf_count=1 37 124 2 157 75 108 12 15 79
internal_value=0.0396902 0.041893 0.00305869 -0.0113438 0.0438395 0.0366216 0.00452828 0.0415566 0.0297872
internal_weight=437.193 419.331 20.211 17.8623 399.119 149.132 20.2124 128.919 43.41
internal_count=610 452 126 158 326 251 120 131 94
is_linear=0
shrinkage=0.03


Tree=27
num_leaves=11
num_cat=0
split_feature=78 34 3 67 1 11 25 38 47 119
split_gain=52.2609 32.8776 34.358 23.4125 10.8921 27.542 43.6102 6.65067 14.2891 0.968221
threshold=-0.29038132670563022 7.5000000000000009 0.73136147574863941 0.82375914084370006 -0.24904297714365201 0.049939818224454507 2.7537946630483949 0.95372633420828712 -0.062451955248606132 56.615000000000002
decision_type=2 2 2 2 2 2 2 2 2 2
left_child=3 4 -3 -1 -2 7 -7 9 -9 -6
right_child=1 2 -4 -5 5 6 -8 8 -10 -11
leaf_value=-0.031413297301095565 0.047929684777135551 0.044456791958125505 -0.031092951432651356 0.041683411262171954 0.037937005502862026 0.033932182356498343 -0.034644554127071056 0.042505364946253274 -0.00085053810437326325 0.049203856420732793
leaf_weight=13.004109755158426 209.86079062521458 8.8763399124145526 10.992396175861357 4.5093369483947745 35.985085420310497 26.729399856179953 10.982478074729441 19.141816675662998 10.099353045225142 82.999967478215694
leaf_count=157 58 2 124 1 40 34 100 13 52 29
internal_value=0.0388712 0.0410097 0.00302804 -0.0111955 0.0428963 0.0369733 0.0135047 0.0427936 0.0278989 0.046166
internal_weight=433.181 415.668 19.8687 17.5134 395.799 185.938 37.7119 148.226 29.2412 118.985
internal_count=610 452 126 158 326 268 134 134 65 69
is_linear=0
shrinkage=0.03


Tree=28
num_leaves=10
num_cat=0
split_feature=78 34 23 13 23 38 91 8 32
split_gain=49.3607 30.9023 32.9723 22.569 10.956 23.6966 27.9218 7.81082 47.0842
threshold=-0.29038132670563022 7.5000000000000009 0.73561529332712527 -0.49803627782189835 0.44330549531948021 0.97689034036886435 -0.044035017507350734 -0.049708426637172225 0.35423790080661638
decision_type=2 2 2 2 2 2 2 2 2
left_child=3 4 -3 -1 5 7 -7 -2 -9
right_child=1 2 -4 -5 -6 6 -8 8 -10
leaf_value=0.040904169586179109 0.045688519323520103 -0.03091386052787605 0.043637451208469673 -0.031245802847769899 0.046136271390805776 0.03628802073842971 -0.031575097759599102 -0.035073141517474211 0.041678407286701399
leaf_weight=4.4769210815429714 79.005064770579338 10.734095774590971 8.7917623519897443 12.691689826548098 245.08930291235447 10.427730873227121 9.4363696426153165 7.8587736114859572 40.549516536295414
leaf_count=1 33 124 2 157 75 10 110 57 41
internal_value=0.038085 0.0401622 0.00299824 -0.0110509 0.0419917 0.0348096 0.00393788 0.0395311 0.0286999
internal_weight=429.061 411.893 19.5259 17.1686 392.367 147.277 19.8641 127.413 48.4083
internal_count=610 452 126 158 326 251 120 131 98
is_linear=0
shrinkage=0.03


Tree=29
num_leaves=10
num_cat=0
split_feature=78 31 1 100 28 52 15 31 82
split_gain=46.7007 21.7636 20.8612 37.1044 46.8801 19.7054 31.9684 5.41984 11.0677
threshold=-0.29038132670563022 1.3583973153252549 -0.24904297714365201 -1.0000000180025095e-35 0.11377201837020971 1.4796500771604941 -0.10103974902439893 0.37725053767596778 2.499126344646744
decision_type=2 2 2 2 2 2 2 2 2
left_child=1 -1 -2 4 -4 7 -7 8 -5
right_child=2 -3 3 5 -6 6 -8 -9 -10
leaf_value=-0.031080735769446397 0.045991821660148077 0.040163185111936062 -0.037309251282026411 0.0099629745376243247 0.036716282967523758 0.043444140404822265 -0.033650726641314105 0.045858187829724784 0.040379400920701108
leaf_weight=12.38625153899193 214.69105895608664 4.4417109489440909 14.130164649337532 16.139196950942278 14.676634594798086 9.0432255491614359 8.3463885560631734 90.95947839692235 39.643062349408865
leaf_count=157 67 1 132 71 13 4 88 36 41
internal_value=0.0373561 -0.0109097 0.0393778 0.0318034 0.000271503 0.0372843 0.00646052 0.0408483 0.0319624
internal_weight=424.457 16.828 407.629 192.938 28.8068 164.131 17.3896 146.742 55.7823
internal_count=610 158 452 385 145 240 92 148 112
is_linear=0
shrinkage=0.03


Tree=30
num_leaves=14
num_cat=0
split_feature=78 39 21 10 23 87 3 11 35 11 35 2 10
split_gain=44.1937 20.994 20.3275 33.1947 10.6133 19.7404 36.4741 9.95869 12.7781 5.00014 4.8248 14.3764 1.36949
threshold=-0.29038132670563022 0.74175220602157677 0.046713362777182625 0.20826340872178886 0.44330549531948021 3.8665694255992764 0.82460400994303995 0.056813870649469626 -1.0111470695134852 1.8021365533329346e-13 -3.6549414304848908 0.84885659464459706 0.0010495533268707388
decision_type=2 2 2 2 2 2 2 2 2 2 2 2 2
left_child=1 -1 4 9 5 7 -7 12 -9 -4 -11 -12 -2
right_child=2 -3 3 -5 -6 6 -8 8 -10 10 11 -13 -14
leaf_value=-0.030917950944570324 0.034013507672916415 0.039457491764056031 0.045242739767765688 -0.033302732254315515 0.044571228428365271 0.045536301287912903 -0.032793142817903617 0.0416645074920843 -0.004669439733297853 0.039203494143092446 0.038138808813899756 -0.030599558561515441 0.046651752864084003
leaf_weight=12.087702065706255 31.669376291334629 4.4039692878723136 13.172578811645508 8.3599444888532144 243.75154386460781 9.2183441668748873 10.225888807326553 9.0945961996912974 10.816562585532663 4.5132959708571443 4.3216800689697248 4.6331453658640385 53.604638196527958
leaf_count=157 44 1 3 80 79 3 117 6 52 2 1 42 23
internal_value=0.0366473 -0.0107719 0.0386152 0.016006 0.0407061 0.0328282 0.00460636 0.0379244 0.0173309 0.0322328 0.0170534 0.0027716 0.0424415
internal_weight=419.873 16.4917 403.382 35.0006 368.381 124.629 19.4442 105.185 19.9112 26.6407 13.4681 8.95483 85.274
internal_count=610 158 452 128 324 245 120 125 58 48 45 43 67
is_linear=0
shrinkage=0.03


Tree=31
num_leaves=10
num_cat=0
split_feature=113 13 1 56 51 81 82 51 0
split_gain=41.046 20.2721 20.1113 42.0456 93.0811 4.19947 6.1181 13.5489 1.15725
threshold=-0.29459381991765782 -0.49803627782189835 -0.24904297714365201 1.3784328358208957 0.69468552371236791 0.94841859367252923 4.0855600856776171 0.94878304192085083 0.22455404555730674
decision_type=2 2 2 2 2 2 2 2 2
left_child=1 -1 -2 5 -5 6 7 -4 -7
right_child=2 -3 3 4 -6 8 -8 -9 -10
leaf_value=0.038784411065689813 0.044454570595903506 -0.030971362654631063 -0.030110128958395776 -0.036250556882896946 0.038830869199576824 0.031302135822511123 0.039584591456955774 0.037815809791399854 0.04446585033821561
leaf_weight=4.3639435768127433 209.38060834631324 11.559440176934002 4.2656064815819281 23.480852514505386 36.853287860751152 20.941243708133698 8.9929270371794683 4.2990608215332031 90.8440205976367
leaf_count=1 67 153 40 241 20 30 4 1 53
internal_value=0.0359896 -0.0105148 0.0378744 0.0303999 0.00944713 0.0400032 0.0235702 0.0040608 0.0423258
internal_weight=414.981 15.9234 399.058 189.677 60.3341 129.343 17.5576 8.56467 111.785
internal_count=610 154 456 389 261 128 45 41 83
is_linear=0
shrinkage=0.03


Tree=32
num_leaves=10
num_cat=0
split_feature=78 47 1 100 0 115 2 31 8
split_gain=39.8835 19.5755 19.0311 32.7104 41.811 17.5114 29.2397 5.23009 10.5049
threshold=-0.29038132670563022 -0.48293753681998491 -0.24904297714365201 -1.0000000180025095e-35 0.55990770118732225 0.061991251929012357 0.9347844025321197 0.37725053767596778 -0.060328129850772898
decision_type=2 2 2 2 2 2 2 2 2
left_child=1 -1 -2 4 -4 7 -7 8 -5
right_child=2 -3 3 5 -6 6 -8 -9 -10
leaf_value=0.038141516873266973 0.043695722447674709 -0.0306189156590417 -0.035901129997056261 0.043012162532875133 0.035308847487758928 0.041412859218138379 -0.033470575408724411 0.043473173076669293 0.015779497032016865
leaf_weight=4.3218655586242667 206.63497716188431 11.534869451075791 13.794521596282722 26.958566725254059 13.888377994298933 8.7625254057347792 8.0353266634047014 88.182660229504108 27.695110261440277
leaf_count=1 67 157 137 11 8 4 88 36 101
internal_value=0.0353687 -0.0105489 0.0372465 0.0299221 -8.53671e-05 0.0351126 0.00555553 0.0385049 0.0297977
internal_weight=409.809 15.8567 393.952 187.317 27.6829 159.634 16.7979 142.836 54.6537
internal_count=610 158 452 385 145 240 92 148 112
is_linear=0
shrinkage=0.03


Tree=33
num_leaves=9
num_cat=0
split_feature=34 23 23 76 45 52 15 27
split_gain=36.9794 31.5099 17.0229 65.2199 19.6927 19.9575 5.04589 15.1887
threshold=7.5000000000000009 0.73561529332712527 0.44330549531948021 48.447618525021959 -0.064413705033806765 2.2709983532818447 -0.020411106657144639 -0.099392926220244662
decision_type=2 2 2 2 2 2 2 2
left_child=2 -2 3 -1 5 -5 -6 -8
right_child=1 -3 -4 4 6 -7 7 -9
leaf_value=-0.033733169725784586 -0.030999623499958599 0.03996720677360386 0.042056369351334853 -0.036084809911750858 0.041678053851509619 0.039868257116748886 0.041538496577848735 -0.0019441926436358466
leaf_weight=12.98699690774083 13.343602888286116 8.2652893066406232 235.60144726932049 6.2969380840659124 94.293838702142239 4.426450252532959 18.166836023330688 11.265550427138807
leaf_count=142 178 2 83 51 64 1 10 79
internal_value=0.0347629 -0.00315533 0.0369124 0.0284444 0.0346772 -0.00375024 0.0380351 0.0252795
internal_weight=404.647 21.6089 383.038 147.437 134.45 10.7234 123.726 29.4324
internal_count=610 180 430 347 205 52 153 89
is_linear=0
shrinkage=0.03


Tree=34
num_leaves=10
num_cat=0
split_feature=78 34 23 3 23 38 14 6 41
split_gain=36.7801 24.2248 26.6947 18.3305 9.65025 19.1485 23.2901 8.84916 18.8761
threshold=-0.29038132670563022 7.5000000000000009 0.73561529332712527 0.75634856100047942 0.44330549531948021 0.97689034036886435 0.89544355957586641 1.0000000180025095e-35 -0.025793416937251675
decision_type=2 2 2 2 2 2 2 2 2
left_child=3 4 -3 -1 5 7 -7 8 -2
right_child=1 2 -4 -5 -6 6 -8 -9 -10
leaf_value=0.036867635821431467 0.035687656075057105 -0.030317329848320276 0.039375082896652272 -0.030433932642423348 0.04171072836004712 -0.032401885781530256 0.031551696351431235 0.041031565432496815 -0.0082634220232675661
leaf_weight=4.226757049560546 27.819003477692604 9.7537693120539206 8.1546077728271467 11.123925574123858 226.88771124184132 8.4602700211107749 10.173242773860691 80.663369510322809 12.047230664640663
leaf_count=1 20 124 2 157 75 103 17 46 65
internal_value=0.0341834 0.0360045 0.00166264 -0.0105978 0.0376673 0.030803 0.00219035 0.0351474 0.0224554
internal_weight=399.31 383.959 17.9084 15.3507 366.051 139.163 18.6335 120.53 39.8662
internal_count=610 452 126 158 326 251 120 131 85
is_linear=0
shrinkage=0.03


Tree=35
num_leaves=10
num_cat=0
split_feature=78 34 3 3 1 100 28 47 23
split_gain=34.9505 22.9378 25.7024 17.7084 9.65586 19.5079 36.9584 8.1387 21.8292
threshold=-0.29038132670563022 7.5000000000000009 0.73136147574863941 0.75634856100047942 -0.24904297714365201 -1.0000000180025095e-35 0.11377201837020971 -0.014019995818507503 0.44330549531948021
decision_type=2 2 2 2 2 2 2 2 2
left_child=3 4 -3 -1 -2 6 -6 -7 -9
right_child=1 2 -4 -5 5 7 -8 8 -10
leaf_value=0.036305684892898184 0.041998601986784505 0.038809684321333304 -0.030147348509509873 -0.030278427973090695 -0.038372203839471854 0.039556894071092245 0.036426702234222494 -0.0083538161627907965 0.037836712987614596
leaf_weight=4.1796059608459464 189.0685259103775 8.0414857864379901 9.5236215479671937 10.854830000549553 9.317222014069559 110.41619870066643 13.023633569478987 13.310086306184528 26.190184101462364
leaf_count=1 58 2 124 157 85 67 7 97 12
internal_value=0.0336261 0.0354068 0.0016503 -0.010471 0.0370304 0.0313491 0.00479589 0.0352282 0.0223762
internal_weight=393.925 378.891 17.5651 15.0344 361.326 172.257 22.3409 149.916 39.5003
internal_count=610 452 126 158 326 268 92 176 109
is_linear=0
shrinkage=0.03


Tree=36
num_leaves=11
num_cat=0
split_feature=113 34 48 3 1 11 25 100 35 35
split_gain=33.0048 24.6501 25.7077 17.2095 9.56832 21.9902 33.0433 4.76081 7.54916 0.424633
threshold=-0.29459381991765782 7.5000000000000009 0.28211135147060523 0.75634856100047942 -0.24904297714365201 0.049939818224454507 2.7537946630483949 1.0000000180025095e-35 -2.11345041030141 0.19264624104181435
decision_type=2 2 2 2 2 2 2 2 2 2
left_child=3 4 -3 -1 -2 7 -7 8 -6 -9
right_child=1 2 -4 -5 5 6 -8 9 -10 -11
leaf_value=0.035766025241312789 0.041542189523005618 -0.030253815051612714 0.038269069461324211 -0.030439033538651666 0.039059709572249871 0.027680621738042078 -0.034387133024740786 0.034181050165670489 0.0066256168997235057 0.042987442257669116
leaf_weight=4.131211280822753 185.75847631692886 9.9975304417312163 7.9263024330139151 10.450743615627287 12.490839473903181 24.596286490559578 10.067606583237646 50.716181233525276 13.85069542005658 58.380943208932877
leaf_count=1 56 131 2 153 5 34 100 58 52 18
internal_value=0.0330995 0.0348276 0.000310933 -0.0103983 0.036552 0.0308741 0.00911112 0.0363144 0.0229813 0.0392685
internal_weight=388.367 373.785 17.9238 14.582 355.861 170.103 34.6639 135.439 26.3415 109.097
internal_count=610 456 133 154 323 267 134 133 57 76
is_linear=0
shrinkage=0.03


Tree=37
num_leaves=10
num_cat=0
split_feature=78 1 100 28 3 52 15 31 52
split_gain=31.7095 17.1168 27.4876 36.7301 16.5527 14.6185 25.6964 4.94371 10.1655
threshold=-0.29038132670563022 -0.24904297714365201 -1.0000000180025095e-35 0.11377201837020971 0.75634856100047942 1.4796500771604941 -0.10103974902439893 0.37725053767596778 0.44900000000000012
decision_type=2 2 2 2 2 2 2 2 2
left_child=4 -2 3 -3 -1 7 -7 8 -4
right_child=1 2 5 -5 -6 6 -8 -9 -10
leaf_value=0.035247140447632698 0.040667195454902348 -0.036916024589167026 -0.0015166608983853765 0.032018744530801092 -0.029987631780919222 0.038513780751196665 -0.033551409960182056 0.040189711636439439 0.032713981607026932
leaf_weight=4.0817370414733878 191.5157649628818 12.465216275304558 9.1749241277575475 13.385949850082396 10.350433785468338 8.3512586727738363 7.4964071400463572 82.78752975165844 43.257894866168499
leaf_count=1 67 132 50 13 157 4 88 36 62
internal_value=0.0325875 0.034297 0.0271946 -0.00124621 -0.0102549 0.0320574 0.00427869 0.0352357 0.0267517
internal_weight=382.867 368.435 176.919 25.8512 14.4322 151.068 15.8477 135.22 52.4328
internal_count=610 452 385 145 158 240 92 148 112
is_linear=0
shrinkage=0.03


Tree=38
num_leaves=10
num_cat=0
split_feature=78 34 23 31 23 12 38 103 6
split_gain=30.1821 20.1267 23.1582 16.002 9.69144 18.1074 15.2405 22.3376 4.71304
threshold=-0.29038132670563022 7.5000000000000009 0.73561529332712527 1.3583973153252549 0.44330549531948021 0.83319654771652185 0.97689034036886435 0.0043952686966034224 1.0000000180025095e-35
decision_type=2 2 2 2 2 2 2 2 2
left_child=3 4 -3 -1 5 -2 8 -8 -7
right_child=1 2 -4 -5 -6 6 7 -9 -10
leaf_value=-0.02983639193133204 -0.029853384332745769 -0.02976448532264437 0.037217483575349736 0.03474764570919394 0.039479237198926355 0.023855242779698076 -0.032147791228065221 0.03348343006046324 0.038806707176434932
leaf_weight=10.09967429563403 3.8447281606495372 8.9855700246989745 7.6818871498107901 4.0313372611999503 213.25498352944851 36.125477723777294 7.6534502245485809 9.1220260150730592 76.492761746048927
leaf_count=157 29 124 2 1 75 67 101 10 44
internal_value=0.032092 0.0337667 0.00129632 -0.0101346 0.0353117 0.0283747 0.0303435 0.00324778 0.0342892
internal_weight=377.292 363.161 16.6675 14.131 346.493 133.238 129.394 16.7755 112.618
internal_count=610 452 126 158 326 251 222 111 111
is_linear=0
shrinkage=0.03


Tree=39
num_leaves=10
num_cat=0
split_feature=84 50 34 23 23 60 25 3 11
split_gain=29.1633 27.111 18.6582 22.011 9.45934 26.2247 17.2229 29.6101 4.57765
threshold=1.1528115034103397 13.999997615814211 7.5000000000000009 0.73561529332712527 0.44330549531948021 12.75315570831299 2.9419293239683939 0.8139767944928864 0.049939818224454507
decision_type=2 2 2 2 2 2 2 2 2
left_child=2 -2 4 -4 5 -1 8 -8 -7
right_child=1 -3 3 -5 -6 6 7 -9 -10
leaf_value=-0.032004571003475327 0.035490291726078267 -0.032863651420579128 -0.029466251080215628 0.036742647302464133 0.039198174965431203 0.039253193295757167 0.04018571526898445 -0.035403490754823214 0.022571296669709567
leaf_weight=5.4286954104900351 8.0686601996421832 11.302937913686035 8.5621052943170088 7.5624585151672354 209.47627535462379 78.914125058799982 8.304117679595949 8.3462148010730726 25.72975742071867
leaf_count=49 3 147 122 2 75 56 2 96 58
internal_value=0.0316106 -0.00390102 0.0335771 0.00174299 0.0350854 0.0280096 0.0309599 0.00226647 0.0354323
internal_weight=371.695 19.3716 352.324 16.1246 336.199 126.723 121.294 16.6503 104.644
internal_count=610 150 460 124 336 261 212 98 114
is_linear=0
shrinkage=0.03


Tree=40
num_leaves=9
num_cat=0
split_feature=84 50 23 76 25 3 15 84
split_gain=27.811 26.1196 15.6414 52.7236 21.9038 17.3778 3.12813 13.5153
threshold=1.1528115034103397 13.999997615814211 0.44330549531948021 48.447618525021959 3.0632089552238813 0.75634856100047942 -0.021444960712342202 0.49677948951721196
decision_type=2 2 2 2 2 2 2 2
left_child=2 -2 3 -1 6 -6 -5 -8
right_child=1 -3 -4 4 5 -7 7 -9
leaf_value=-0.032989958964661163 0.034969816919901191 -0.032665137627855188 0.0381922808714074 0.037948003269789199 0.035467734488902163 -0.03517025958924825 -0.0034656864960399677 0.039567589508100416
leaf_weight=12.133379578590391 7.9596243649721172 11.040527805685995 215.10471487045288 81.762520253658295 4.1031260490417463 7.1488074623048306 10.051277775317432 16.585468918085098
leaf_count=160 3 147 92 54 1 81 62 10
internal_value=0.0311616 -0.00384942 0.0330934 0.0245233 0.0306055 -0.00837414 0.0347186 0.0236828
internal_weight=365.889 19.0002 346.889 131.785 119.651 11.2519 108.399 26.6367
internal_count=610 150 460 368 208 82 126 72
is_linear=0
shrinkage=0.03


Tree=41
num_leaves=10
num_cat=0
split_feature=78 34 23 13 23 76 47 16 32
split_gain=26.7142 17.8539 20.9791 14.4892 9.19674 46.0425 6.62818 20.785 0.115923
threshold=-0.29038132670563022 7.5000000000000009 0.73561529332712527 -0.49803627782189835 0.44330549531948021 48.447618525021959 -0.018685074274954857 -0.050651677513168111 0.39748167541544577
decision_type=2 2 2 2 2 2 2 2 2
left_child=3 4 -3 -1 5 -2 8 -8 -7
right_child=1 2 -4 -5 -6 6 7 -9 -10
leaf_value=0.033231178575010539 -0.03329270421174102 -0.029438358964210036 0.035824291892152894 -0.029523642200911342 0.037988986603521895 0.030876726444905678 0.036215753964368012 -0.010759950773427491 0.040000159951331687
leaf_weight=3.8613154888153067 9.6851647570729238 8.4898538775742036 7.3151135444641104 9.4806224443018419 202.57267910242081 31.687956593930721 23.538197029381983 12.248732719570404 51.201421350240707
leaf_count=1 105 124 2 157 75 33 13 82 18
internal_value=0.0307269 0.0323311 0.000923378 -0.0101018 0.0338147 0.0269612 0.0321407 0.0202005 0.0369577
internal_weight=360.081 346.739 15.805 13.3419 330.934 128.361 118.676 35.7869 82.8894
internal_count=610 452 126 158 326 251 146 95 51
is_linear=0
shrinkage=0.03


Tree=42
num_leaves=10
num_cat=0
split_feature=84 50 34 23 23 25 109 8 84
split_gain=25.981 24.4635 16.78 20.0257 8.86183 17.7789 28.4455 8.6378 33.256
threshold=1.1528115034103397 13.999997615814211 7.5000000000000009 0.73561529332712527 0.44330549531948021 2.9419293239683939 -0.10216259410591093 -0.01388141526517561 0.49677948951721196
decision_type=2 2 2 2 2 2 2 2 2
left_child=2 -2 4 -4 5 7 -7 -1 -9
right_child=1 -3 3 -5 -6 6 -8 8 -10
leaf_value=0.036112190605198671 0.033918314784133909 -0.032537390426308294 -0.029182669986695831 0.035401969564034047 0.037769776133897606 0.036696190828188723 -0.035892613119988918 -0.031969399529262928 0.039204269244105153
leaf_weight=80.339107189327478 7.724406614899638 10.62282522022724 8.1346113346517068 7.1940693855285636 198.77418667078018 8.3058735653758067 9.1622000485658628 8.1761767566204089 15.776206798851488
leaf_count=51 3 147 122 2 75 6 105 93 6
internal_value=0.0303148 -0.00409667 0.0322101 0.00125631 0.0336725 0.026706 -0.00109691 0.0313575 0.0144813
internal_weight=354.21 18.3472 335.862 15.3287 320.534 121.76 17.4681 104.291 23.9524
internal_count=610 150 460 124 336 261 111 150 99
is_linear=0
shrinkage=0.03


Tree=43
num_leaves=10
num_cat=0
split_feature=84 57 23 76 25 81 8 84 1
split_gain=24.8465 23.5847 14.2705 47.1614 19.5236 15.6984 4.09732 15.2084 0.30855
threshold=1.1528115034103397 12.263822532835462 0.44330549531948021 48.447618525021959 3.0632089552238813 0.85011011792978464 -0.049708426637172225 0.49677948951721196 -0.3259767078467366
decision_type=2 2 2 2 2 2 2 2 2
left_child=2 -2 3 -1 6 -6 -5 -8 -4
right_child=1 -3 8 4 5 -7 7 -9 -10
leaf_value=-0.03257828053952927 0.033449811949262297 -0.032342328294453271 0.038971700646808036 0.038247288293024914 0.033901380632912204 -0.034519065197321001 0.00071957902252719141 0.038779563445245371 0.032806546912424919
leaf_weight=11.404125258326529 7.6133088618516949 10.376052021980284 126.52149544656277 64.676693875342607 3.939633369445799 6.783154983073473 15.621529914438723 23.720133557915688 77.466863170266151
leaf_count=160 3 147 39 35 1 81 77 14 53
internal_value=0.0299332 -0.00404513 0.0318004 0.0234396 0.0292666 -0.00837743 0.0332185 0.0241338 0.0368165
internal_weight=348.123 17.9894 330.134 126.145 114.741 10.7228 104.018 39.3417 203.988
internal_count=610 150 460 368 208 82 126 91 92
is_linear=0
shrinkage=0.03


Tree=44
num_leaves=12
num_cat=0
split_feature=113 34 3 3 41 11 6 67 36 22 25
split_gain=23.8323 18.1465 19.8126 13.3007 8.91965 16.5159 22.2464 5.91115 15.1369 2.75897 6.18734
threshold=-0.29459381991765782 7.5000000000000009 0.73136147574863941 0.75634856100047942 -0.01419624830142424 0.049939818224454507 0.0086897162265693797 0.39958818341812458 0.036486930333970921 0.12179487179487181 2.8683582089552244
decision_type=2 2 2 2 2 2 2 2 2 2 2
left_child=3 4 -3 -1 9 7 -7 8 -6 10 -2
right_child=1 2 -4 -5 5 6 -8 -9 -10 -11 -12
leaf_value=0.03191592899650695 0.036801902523457469 0.034591346348374928 -0.029399159882932444 -0.029575665756733333 -0.029429690499802499 -0.036042851221062044 0.0243440463624395 0.035407228510428816 0.029938377936875909 0.038061068887224637 0.011230205412807151
leaf_weight=3.6930153369903556 22.719190306961536 6.9488604068756095 8.62798013538122 8.8270682729780656 4.3845921866595772 7.9706897474825409 13.14486565068364 60.12051273137331 13.089776091277598 176.95090036839247 15.811946421861647
leaf_count=1 10 2 131 153 46 90 20 29 23 67 38
internal_value=0.0295472 0.0310915 -0.00030722 -0.0101967 0.0326537 0.0245559 0.000814541 0.0308858 0.0140929 0.0362188 0.0269335
internal_weight=342.289 329.769 15.5768 12.5201 314.192 98.7104 21.1156 77.5949 17.4744 215.482 38.5311
internal_count=610 456 133 154 323 208 110 98 69 115 48
is_linear=0
shrinkage=0.03


Tree=45
num_leaves=10
num_cat=0
split_feature=84 57 34 23 23 60 25 109 11
split_gain=23.1002 22.0595 15.1317 18.2517 8.40183 21.5564 13.2309 23.6128 4.58059
threshold=1.1528115034103397 12.263822532835462 7.5000000000000009 0.73561529332712527 0.44330549531948021 12.75315570831299 2.9419293239683939 -0.10216259410591093 0.049939818224454507
decision_type=2 2 2 2 2 2 2 2 2
left_child=2 -2 4 -4 5 -1 8 -8 -7
right_child=1 -3 3 -5 -6 6 7 -9 -10
leaf_value=-0.030908743996867327 0.032533668149645714 -0.032089854435797066 -0.028887160148386375 0.034211360551684673 0.036529717969190807 0.036358367000705605 0.035602803794191278 -0.034409659250861965 0.019404254280109827
leaf_weight=4.9753936827182761 7.3822810649871853 9.9730102084577066 7.7182488590478879 6.8281946182250977 188.14912138879299 72.123929791152477 8.0679249055683595 7.3012037165462962 23.99229147657752
leaf_count=49 3 147 122 2 75 56 6 92 58
internal_value=0.0291701 -0.00416316 0.0309994 0.000834129 0.0324227 0.0255075 0.0283044 0.00208942 0.0324006
internal_weight=336.512 17.3553 319.156 14.5464 304.61 116.461 111.485 15.3691 96.1162
internal_count=610 150 460 124 336 261 212 98 114
is_linear=0
shrinkage=0.03


Tree=46
num_leaves=11
num_cat=0
split_feature=21 11 83 2 41 51 114 107 25 14
split_gain=22.3022 24.5115 14.0374 30.5289 6.63892 13.9919 21.8698 1.43283 0.591487 2.00096
threshold=0.09138721345256122 0.010481857124605271 0.97260055768714315 0.78233739871361696 -0.01419624830142424 0.48748787861854892 0.032440672042651907 48.447618525021959 2.8683582089552244 0.55406073387008348
decision_type=2 2 2 2 2 2 2 2 2 2
left_child=2 -2 4 -4 8 6 -6 -7 -1 -10
right_child=1 -3 3 -5 5 7 -8 -9 9 -11
leaf_value=0.037029946465032854 0.034825927754910391 -0.034822699625226411 0.035524717849138326 -0.033453997377296138 0.027289982408629926 0.023805999107109822 -0.030827778444019772 0.03555296039418223 0.019363327722290328 0.035789136406597435
leaf_weight=158.12747775390744 7.0188076496124294 9.4989835843443853 12.783027648925783 8.9414268322288972 13.410346306860449 28.294688533991575 8.7767640687525255 43.908865608274937 17.848297417163849 22.146688684821129
leaf_count=72 2 125 4 132 35 36 134 21 32 17
internal_value=0.0287997 -0.00475748 0.0305826 0.00677938 0.0323111 0.0250433 0.0038324 0.0313787 0.0356155 0.0291832
internal_weight=330.755 16.5178 314.238 21.7245 292.513 94.3907 22.1871 72.2036 198.122 39.995
internal_count=610 127 483 136 347 226 169 57 121 49
is_linear=0
shrinkage=0.03


Tree=47
num_leaves=10
num_cat=0
split_feature=84 50 34 23 23 60 38 32 6
split_gain=21.6271 20.722 14.1414 17.1427 8.22526 20.3162 8.75476 20.8547 3.19401
threshold=1.1528115034103397 13.999997615814211 7.5000000000000009 0.73561529332712527 0.44330549531948021 12.75315570831299 0.95109746462233413 0.40520008556379233 1.0000000180025095e-35
decision_type=2 2 2 2 2 2 2 2 2
left_child=2 -2 4 -4 5 -1 8 -8 -7
right_child=1 -3 3 -5 -6 6 7 -9 -10
leaf_value=-0.030699201334704995 0.031713862473032456 -0.031867066318440426 -0.028689582262528945 0.033454165912676033 0.035775620061899452 0.021928125816911635 -0.029302354639984027 0.032354408403501116 0.035833677959192185
leaf_weight=4.8344587795436373 7.1472396254539516 9.6265159361064416 7.4469834268093091 6.5771567821502686 181.25040422379971 31.065658342093229 7.2217361852526691 11.383297920227049 58.642396721988916
leaf_count=49 3 147 122 2 75 53 121 7 31
internal_value=0.0284338 -0.0043466 0.0302346 0.000542263 0.0316322 0.0247134 0.0274723 0.00799479 0.0313461
internal_weight=325.196 16.7738 308.422 14.0241 294.398 113.148 108.313 18.605 89.7081
internal_count=610 150 460 124 336 261 212 128 84
is_linear=0
shrinkage=0.03


Tree=48
num_leaves=10
num_cat=0
split_feature=21 11 23 83 38 74 60 2 71
split_gain=20.9196 23.1362 13.3634 29.3095 18.641 13.1486 3.65271 2.56269 0.739181
threshold=0.09138721345256122 0.010481857124605271 0.44330549531948021 0.97260055768714315 0.99459085184592488 -0.21850410246888899 15.736342906951906 0.95055175168995165 48.607632739059405
decision_type=2 2 2 2 2 2 2 2 2
left_child=2 -2 3 4 6 -6 -1 -8 -4
right_child=1 -3 8 -5 5 -7 7 -9 -10
leaf_value=0.01133874066436435 0.034048506653953849 -0.034739342212802345 0.037061713823877247 -0.030942516046846405 0.031654657878384979 -0.03075725967877542 0.035813549260140125 0.02243081787541203 0.029940582243658885
leaf_weight=10.634017203003166 6.7727360725402823 9.1374519355595094 125.86186774075031 8.0254715345799905 3.6573147773742622 7.8059718348085916 59.754949320107698 27.828442987054586 59.999841026961803
leaf_count=36 2 125 47 129 1 135 30 62 43
internal_value=0.0280871 -0.00499807 0.0298416 0.0215214 0.0256322 -0.00966213 0.0298376 0.0318965 0.0349515
internal_weight=319.478 15.9102 303.568 117.706 109.681 11.4633 98.2174 87.5834 185.862
internal_count=610 127 483 393 264 136 128 92 90
is_linear=0
shrinkage=0.03


Tree=49
num_leaves=7
num_cat=0
split_feature=1 56 67 42 15 0
split_gain=20.3061 33.1643 64.8786 3.91376 11.8043 11.8922
threshold=-0.24904297714365201 1.3784328358208957 0.52704196955137783 0.29574059995507401 -0.046084154672602261 0.58191668190186385
decision_type=2 2 2 2 2 2
left_child=-1 3 -3 4 -2 -6
right_child=1 2 -4 -5 5 -7
leaf_value=0.035558140217375231 0.030253842095712066 -0.035674412553779358 0.028484003976161094 0.034474269641908237 -0.034089337010942938 0.029963696801521181
leaf_weight=154.52288820594549 26.894246127456427 23.605723472312093 32.487166576087475 67.674638193100691 5.4158469773828966 3.4090547561645508
leaf_count=75 37 353 26 58 60 1
internal_value=0.0277356 0.0199635 0.00127956 0.0299617 0.0206243 -0.00850903
internal_weight=314.01 159.487 56.0929 103.394 35.7191 8.8249
internal_count=610 535 379 156 98 61
is_linear=0
shrinkage=0.03


Tree=50
num_leaves=10
num_cat=0
split_feature=1 84 100 28 52 15 31 82 6
split_gain=19.7125 28.9986 25.5954 28.4345 10.1883 18.3296 4.35268 13.1861 0.181109
threshold=-0.24904297714365201 1.6022875785827639 -1.0000000180025095e-35 0.11377201837020971 1.4796500771604941 -0.10103974902439893 0.34476130193099286 2.9292302803208612 -0.056636394995028885
decision_type=2 2 2 2 2 2 2 2 2
left_child=8 2 3 -2 6 -6 7 -4 -1
right_child=1 -3 4 -5 5 -7 -8 -9 -10
leaf_value=0.027545494067309263 -0.038085699130292715 -0.032118897730872488 -0.0095455979374625601 0.0268844235815477 0.033761208616371281 -0.032782174048679287 0.03466329948977679 0.032060365275289056 0.03636305504881953
leaf_weight=23.557612966746092 11.417283067479731 8.2853620424866659 9.0766925029456633 10.84913360327482 6.8932342007756233 6.0487952921539527 82.3063088003546 22.040842141956091 127.90688161551952
leaf_count=22 154 129 66 12 3 84 62 25 53
internal_value=0.0274091 0.0196938 0.0227974 -0.00650568 0.0279949 0.00232465 0.0308518 0.0199115 0.035201
internal_weight=308.382 156.918 148.632 22.2664 126.366 12.942 113.424 31.1175 151.464
internal_count=610 535 406 166 240 87 153 91 75
is_linear=0
shrinkage=0.03


Tree=51
num_leaves=10
num_cat=0
split_feature=21 11 1 20 87 33 42 32 20
split_gain=19.3547 21.2439 13.6201 28.2316 15.0533 20.0851 14.8558 5.26942 10.6215
threshold=0.09138721345256122 0.010481857124605271 -0.24904297714365201 0.0015044800395857929 4.6167989597467214 0.0043610292299844653 0.8600052460153208 0.38419008319207265 -0.0080069098673792652
decision_type=2 2 2 2 2 2 2 2 2
left_child=2 -2 -1 4 7 -6 -5 8 -4
right_child=1 -3 3 6 5 -7 -8 -9 -10
leaf_value=0.035467834021249346 0.032958553316371417 -0.034469287799485791 -0.0060344065109615161 -0.03844131729832713 -0.035714366850415964 0.032203958299050324 0.028943787110825875 0.035391149752625077 0.027860744603313246
leaf_weight=144.13706193864346 6.4027903079986563 8.7324111685156804 9.773772578686474 9.2293479982763511 7.2006078325211984 6.4979191720485687 3.24619436264038 65.955615220591426 41.645950570702553
leaf_count=63 2 125 89 111 120 3 1 36 60
internal_value=0.027089 -0.00548391 0.0288262 0.0219373 0.0260563 -0.00329399 -0.0198381 0.0295059 0.0213686
internal_weight=302.822 15.1352 287.686 143.549 131.074 13.6985 12.4755 117.375 51.4197
internal_count=610 127 483 420 308 123 112 185 149
is_linear=0
shrinkage=0.03


Tree=52
num_leaves=9
num_cat=0
split_feature=113 1 56 51 3 51 27 82
split_gain=18.7402 14.1316 25.252 50.886 10.6672 2.83277 1.25685 4.94107
threshold=-0.29459381991765782 -0.24904297714365201 1.3784328358208957 0.69468552371236791 0.75634856100047942 0.29805297073640413 -0.020093720164479838 3.004044797786857
decision_type=2 2 2 2 2 2 2 2
left_child=4 -2 5 -4 -1 -3 -7 -8
right_child=1 2 3 -5 -6 6 7 -9
leaf_value=0.028960756488765765 0.034975074373273352 0.01211529515830119 -0.03614518289674544 0.027908530325083919 -0.029157131573297124 0.03455362271253469 0.0066035487555723095 0.033469868780311864
leaf_weight=3.2489752769470197 144.48345301672816 9.7846326567232591 17.57348620519042 26.960988000035286 7.7100909687578678 59.854379553347826 10.783707341179253 16.87958037853241
leaf_count=1 67 29 241 20 153 33 54 12
internal_value=0.0267804 0.0282575 0.0211966 0.00232808 -0.0106955 0.0296905 0.0314624 0.0236973
internal_weight=297.279 286.32 141.837 44.5345 10.9591 97.3023 87.5177 27.6633
internal_count=610 456 389 261 154 128 99 66
is_linear=0
shrinkage=0.03


Tree=53
num_leaves=11
num_cat=0
split_feature=21 11 19 25 3 76 29 85 6 15
split_gain=18.3422 20.065 12.9188 24.1324 15.5608 14.8962 32.2138 2.46058 2.23845 1.19227
threshold=0.09138721345256122 0.010481857124605271 0.045395843250400199 3.0367593848937138 0.76157650888908324 48.190149253731349 0.95220579418316176 0.021742475421349858 -0.20161878748916681 -0.012996257681044428
decision_type=2 2 2 2 2 2 2 2 2 2
left_child=2 -2 3 5 -5 6 -1 8 -7 -9
right_child=1 -3 -4 4 -6 7 -8 9 -10 -11
leaf_value=0.030156892967646547 0.032286569979140277 -0.034283473266399536 0.035310453984199811 0.029730468351283092 -0.039500004697015437 0.029620589818155973 -0.036291524134673903 0.034563994218413989 0.00094533893403360241 0.024777239492594721
leaf_weight=15.911152988672258 6.1615681648254386 8.4524754062294942 128.52855056524277 3.3726158142089835 8.2170295063406211 3.3552777767181396 9.7296682465821487 67.093915896490216 6.2843187060207111 34.736042873933911
leaf_count=17 2 125 52 1 111 1 132 41 44 84
internal_value=0.0264795 -0.00575387 0.028204 0.0218467 -0.0183542 0.0253748 0.00441397 0.0300875 0.0130543 0.0315281
internal_weight=291.843 14.614 277.229 148.7 11.5896 137.11 25.6408 111.47 9.6396 101.83
internal_count=610 127 483 431 112 319 149 170 45 125
is_linear=0
shrinkage=0.03


Tree=54
num_leaves=11
num_cat=0
split_feature=21 24 19 25 3 76 23 23 6 15
split_gain=17.578 19.393 12.7256 23.0931 15.0543 14.2003 18.1107 3.39626 2.61458 1.14582
threshold=0.09138721345256122 0.27750000000000008 0.045395843250400199 3.0367593848937138 0.76157650888908324 48.190149253731349 0.45343375275833847 0.22084446891282009 -0.20161878748916681 -0.012996257681044428
decision_type=2 2 2 2 2 2 2 2 2 2
left_child=2 -2 3 5 -5 6 -1 8 -7 -9
right_child=1 -3 -4 4 -6 7 -8 9 -10 -11
leaf_value=-0.030765974675065231 0.031974670685310944 -0.034062614749378703 0.035027067492703803 0.029400309830555655 -0.039181575957138219 0.029293109022494521 0.021391428647884989 0.034383687962928566 -0.00020145477827187468 0.024632847759192496
leaf_weight=7.9089872557669905 6.0465185642242423 8.2614383548498136 125.73177340626717 3.3201987743377677 8.0460146442055684 3.3029763698577881 17.272471845149994 65.637270838022232 6.7163627147674543 34.214486747980118
leaf_count=127 2 125 52 1 111 1 22 37 51 81
internal_value=0.0261861 -0.00569369 0.0278878 0.0215408 -0.018148 0.025012 0.00434585 0.0296395 0.0110254 0.0313497
internal_weight=286.458 14.308 272.151 146.419 11.3662 135.053 25.1815 109.871 10.0193 99.8518
internal_count=610 127 483 431 112 319 149 170 52 118
is_linear=0
shrinkage=0.03


Tree=55
num_leaves=11
num_cat=0
split_feature=1 56 51 51 6 11 15 106 48 6
split_gain=17.8034 26.9701 55.675 4.18887 3.06951 9.16771 1.79653 9.27701 9.72057 0.361079
threshold=-0.24904297714365201 1.3784328358208957 0.69468552371236791 0.29805297073640413 -0.16599924246218969 0.62263142197698274 -0.012996257681044428 28.350610773404522 -0.088883594720397655 -0.056636394995028885
decision_type=2 2 2 2 2 2 2 2 2 2
left_child=9 3 -3 4 -2 -6 -5 8 -8 -1
right_child=1 2 -4 6 5 -7 7 -9 -10 -11
leaf_value=0.025603699773692642 0.028219199124416266 -0.035042116678049011 0.027392160638558639 0.033132140618144339 -0.03146164992187736 0.02898024292514044 0.02774165869759521 0.033284247532261647 -0.031943567945167284 0.034983356881376153
leaf_weight=21.45383533090353 3.3715877085924149 21.557154083624482 28.881021216511726 59.811012871563435 3.8060027174651605 3.2521660327911377 3.4869501590728769 16.15315599553287 4.4184539653360861 115.03913040086627
leaf_count=22 2 357 22 51 42 1 2 14 44 53
internal_value=0.0258898 0.018297 0.000487096 0.0276865 0.00834547 -0.00309946 0.0299297 0.020844 -0.00512153 0.0337278
internal_weight=281.23 144.738 50.4382 94.2993 10.4298 7.05817 83.8696 24.0586 7.9054 136.493
internal_count=610 535 379 156 45 43 111 60 46 75
is_linear=0
shrinkage=0.03


Tree=56
num_leaves=11
num_cat=0
split_feature=84 34 3 60 23 38 3 6 48 71
split_gain=20.8362 11.3118 13.3296 9.95412 7.1657 15.4703 11.0605 6.25705 15.4491 0.423325
threshold=1.3746132373809818 7.5000000000000009 0.73136147574863941 7.1061851978302011 0.44330549531948021 0.99459085184592488 0.8139767944928864 1.0000000180025095e-35 -0.02395478549570226 47.995632415801047
decision_type=2 2 2 2 2 2 2 2 2 2
left_child=1 4 -3 -2 5 7 -7 8 -1 -6
right_child=3 2 -4 -5 9 6 -8 -9 -10 -11
leaf_value=0.027876438458754468 0.026798336138763194 0.030558990066102007 -0.027976660978821729 -0.031312276462579898 0.034949712745198779 0.028800858575025415 -0.03105264922151451 0.032029548326078926 -0.014746459643026314 0.027910785982769398
leaf_weight=23.604077711701386 2.8792676925659162 5.5060331821441633 6.5748652033507824 7.7245380058884621 103.58007928729057 3.2226808071136457 7.2641378995031118 57.100910488516092 10.257011510431772 48.076291292905807
leaf_count=23 1 2 125 137 43 1 133 44 68 33
internal_value=0.0256306 0.0272873 -0.000772243 -0.0143252 0.0286362 0.0219213 -0.011492 0.0258892 0.0148266 0.0329354
internal_weight=275.79 265.186 12.0809 10.6038 253.105 101.449 10.4868 90.962 33.8611 151.656
internal_count=610 472 127 138 345 269 134 135 91 76
is_linear=0
shrinkage=0.03


Tree=57
num_leaves=11
num_cat=0
split_feature=84 10 21 0 1 87 32 32 53 6
split_gain=19.9944 11.6726 22.2895 9.65141 6.10033 14.7607 15.82 5.52843 10.6714 0.14068
threshold=1.3746132373809818 0.20826340872178886 0.018746152999617616 0.8600052460153208 -0.24904297714365201 4.6167989597467214 0.59589194131498535 0.38419008319207265 -2.4249102011969019 -0.056636394995028885
decision_type=2 2 2 2 2 2 2 2 2 2
left_child=1 4 -3 -2 9 7 -7 8 -6 -1
right_child=3 2 -4 -5 5 6 -8 -9 -10 -11
leaf_value=0.025854608929084505 -0.031113048363324996 0.028892413006293756 -0.033511053293642068 0.0265306610836414 -0.0087675901349049765 -0.036375074933193655 0.025582193587286414 0.033222838903311479 0.025849147126413969 0.034891276337607406
leaf_weight=20.369460731744766 7.5498293656855804 12.017434811219575 7.5197778195142737 2.8318755626678467 9.6762394458055478 6.6088377963751537 6.238489955663681 59.252914126962423 34.245434962213039 104.30964710563421
leaf_count=17 137 25 104 1 84 111 4 35 47 45
internal_value=0.0253544 0.0269912 0.00426535 -0.0141762 0.0287981 0.0233088 -0.00639803 0.0270626 0.0181307 0.0336562
internal_weight=270.62 260.238 19.5372 10.3817 240.701 116.022 12.8473 103.175 43.9217 124.679
internal_count=610 472 129 138 343 281 115 166 131 62
is_linear=0
shrinkage=0.03


Tree=58
num_leaves=10
num_cat=0
split_feature=19 78 76 68 25 74 11 71 61
split_gain=15.7691 19.1278 14.3119 20.7402 10.8639 17.4268 3.74435 7.72726 0.21385
threshold=0.045395843250400199 -0.29038132670563022 48.190149253731349 0.028888473308352019 3.0632089552238813 -0.24974750710202753 0.049939818224454507 49.149175475083716 0.28357342786260653
decision_type=2 2 2 2 2 2 2 2 2
left_child=1 -1 3 -3 6 -6 8 -8 -4
right_child=-2 2 4 -5 5 -7 7 -9 -10
leaf_value=-0.027968095007482919 0.033459593471249195 -0.032805924179560131 0.023334051165365608 0.020880952082266296 0.029212271158738937 -0.040101129920886852 0.027569851627704398 -0.0076259240087072641 0.032932236591014824
leaf_weight=6.7381106037646523 115.9908594340086 9.4993449263274687 17.668704709038138 15.897535689175127 6.1052830219268799 5.0331507418304664 15.939658937975766 7.6845087297260752 65.001725938171148
leaf_count=156 56 148 34 22 5 63 17 52 57
internal_value=0.0250791 0.0183811 0.0207677 0.000204415 0.0251503 -0.00258474 0.0280815 0.0161547 0.0312201
internal_weight=265.559 149.568 142.83 25.3969 117.433 11.1384 106.295 23.6242 82.6704
internal_count=610 554 398 170 228 68 160 69 91
is_linear=0
shrinkage=0.03


Tree=59
num_leaves=13
num_cat=0
split_feature=84 10 24 0 22 25 0 9 108 41 71 9
split_gain=18.8372 11.1764 21.4116 9.11248 6.84399 15.2995 10.4616 3.2877 14.6004 1.72125 2.96547 5.1717
threshold=1.3746132373809818 0.20826340872178886 0.28750000000000009 0.8600052460153208 0.18333333333333338 3.0367593848937138 0.69488817083079846 -0.075323744608302087 15.860000000000001 -0.011306223249587742 55.815652370221848 -0.092771332426489647
decision_type=2 2 2 2 2 2 2 2 2 2 2 2
left_child=1 4 -3 -2 5 7 -7 -1 -9 -6 11 -11
right_child=3 2 -4 -5 9 6 -8 8 -10 10 -12 -13
leaf_value=0.03193787513263617 -0.030907920712988528 0.028589836888722173 -0.033288273843845737 0.025939161780118538 0.033958169918096498 -0.040074049334437228 0.025069573162388965 -0.015507381624450142 0.027761315123457794 0.029822803888687771 0.030533884291009099 -0.0074004663055473631
leaf_weight=33.142305590212345 7.2886532396078092 11.565949112176897 7.3893637564033261 2.7264378070831299 122.38022176548839 5.1749999579042187 2.5705063343048096 8.4388714265078288 28.043519351631403 5.1951870918273944 20.29172994568944 6.4648241326212883
leaf_count=25 137 19 110 1 64 64 1 87 35 2 14 51
internal_value=0.0247954 0.026416 0.00385817 -0.01421 0.0282241 0.020319 -0.0177172 0.0247838 0.0175259 0.0320114 0.0236599 0.00999325
internal_weight=260.673 250.657 18.9553 10.0151 231.702 77.3702 7.74551 69.6247 36.4824 154.332 31.9517 11.66
internal_count=610 472 129 138 343 212 65 147 122 131 67 53
is_linear=0
shrinkage=0.03


Tree=60
num_leaves=12
num_cat=0
split_feature=84 1 100 28 60 52 6 0 6 56 6
split_gain=18.0801 10.4825 20.1794 21.9955 8.83828 8.56281 14.5055 3.09495 2.51547 2.37482 0.490057
threshold=1.3746132373809818 -0.24904297714365201 -1.0000000180025095e-35 0.11377201837020971 7.1061851978302011 1.4796500771604941 -0.14035165843201383 0.21292003442230181 -0.16599924246218969 1.3784328358208957 -0.056636394995028885
decision_type=2 2 2 2 2 2 2 2 2 2 2
left_child=1 10 3 -3 -2 7 -7 8 -4 -9 -1
right_child=4 2 5 -5 -6 6 -8 9 -10 -11 -12
leaf_value=0.023931839592487607 0.025686463346889673 -0.037969081923942591 0.026296773803553622 0.023703249244276099 -0.030710091274523971 0.030324121226606156 -0.032648950358888033 0.032160585149312977 -0.0038493835866254011 0.017306655499797419 0.033815409633184863
leaf_weight=19.600884670391679 2.6811859607696515 9.7976432666182536 3.1578372586518526 9.0672897025942785 7.1244650278240442 5.818544639274478 5.3651080057024938 67.60090584680438 5.3499029800295812 17.156446404755116 103.06173208728433
leaf_count=22 1 152 3 12 137 6 79 55 39 51 53
internal_value=0.0245303 0.0261316 0.0195954 -0.00847469 -0.0140618 0.0247259 0 0.0276706 0.00861346 0.0294257 0.0324666
internal_weight=255.782 245.976 123.314 18.8649 9.80565 104.449 11.1837 93.2651 8.50774 84.7574 122.663
internal_count=610 472 397 164 138 233 85 148 42 106 75
is_linear=0
shrinkage=0.03


Tree=61
num_leaves=13
num_cat=0
split_feature=84 10 21 0 22 25 0 9 6 41 36 13
split_gain=17.35 10.5494 19.954 8.57322 6.92863 14.5905 10.0447 3.25217 14.7686 1.67353 3.29476 7.83579
threshold=1.3746132373809818 0.20826340872178886 0.018746152999617616 0.8600052460153208 0.18333333333333338 3.0367593848937138 0.69488817083079846 -0.075323744608302087 0.0086897162265693797 -0.011306223249587742 -0.071321770709286733 0.040787681928615933
decision_type=2 2 2 2 2 2 2 2 2 2 2 2
left_child=1 4 -3 -2 5 7 -7 -1 -9 -6 -11 -12
right_child=3 2 -4 -5 9 6 -8 8 -10 10 11 -13
leaf_value=0.031270285760110934 -0.030513499683597275 0.027786027453537671 -0.032903281001628218 0.025437908168500119 0.03349623770231968 -0.039984278767290514 0.024603823969595196 -0.017608282935089044 0.026972947660458879 0.03234367674090239 -0.01346769089433552 0.028388498372682924
leaf_weight=31.956317577511072 6.9641257096081954 11.190541500225665 7.1193409431725732 2.6366093158721924 117.14738979190588 5.0561902169138184 2.4870116710662842 7.8815868683159342 27.583237357437611 16.335761174559597 5.9791628364473572 8.6942663379013521
leaf_count=25 137 25 104 1 64 64 1 72 50 8 52 7
internal_value=0.0242638 0.0258456 0.00355123 -0.0139147 0.0276377 0.0195984 -0.0179509 0.0240443 0.0167719 0.0315267 0.0231782 0.0113704
internal_weight=251.032 241.431 18.3099 9.60074 223.121 74.9643 7.5432 67.4211 35.4648 148.157 31.0092 14.6734
internal_count=610 472 129 138 343 212 65 147 122 131 67 59
is_linear=0
shrinkage=0.03


Tree=62
num_leaves=11
num_cat=0
split_feature=84 23 76 25 111 0 8 84 1 13
split_gain=16.654 10.3288 28.8795 9.78076 16.8482 8.31697 3.61252 19.3066 1.43994 2.23136
threshold=1.3746132373809818 0.44330549531948021 48.447618525021959 2.9890728177295345 0.00015660093510554856 0.8600052460153208 -0.049708426637172225 0.49677948951721196 -0.3259767078467366 -0.024896196242027737
decision_type=2 2 2 2 2 2 2 2 2 2
left_child=1 2 -1 6 -5 -2 -4 -8 -3 -10
right_child=5 8 3 4 -6 -7 7 -9 9 -11
leaf_value=-0.031103739573053242 -0.030318098345494024 0.033996185683399842 0.032401662656358111 -0.033839169468854825 0.031527617946923277 0.025193321413004868 -0.016684757960421119 0.033640910514461012 0.017150238993473534 0.031154193919333596
leaf_weight=8.9761966839432699 6.8075550999492389 84.140183568000793 46.092292182147496 6.2236936260014755 5.9692191891372204 2.5927143096923828 9.3687238506972879 19.95910545065999 24.212663751095533 31.969067718833685
leaf_count=166 137 39 34 100 3 1 63 12 36 19
internal_value=0.024005 0.025568 0.0176242 0.0229451 -0.00164641 -0.0137687 0.0269295 0.0174455 0.0308513 0.0255768
internal_weight=246.311 236.911 96.5892 87.613 12.1929 9.40027 75.4201 29.3278 140.322 56.1817
internal_count=610 472 378 212 103 138 109 75 94 55
is_linear=0
shrinkage=0.03


Tree=63
num_leaves=11
num_cat=0
split_feature=84 1 87 111 52 5 0 31 52 6
split_gain=16.0071 10.1355 16.871 19.3607 10.5226 15.3417 8.06919 4.83208 7.16613 0.55882
threshold=1.3746132373809818 -0.24904297714365201 4.6167989597467214 0.00016979615013943056 1.4796500771604941 0.890789528884113 0.8600052460153208 0.37725053767596778 0.44900000000000012 -0.056636394995028885
decision_type=2 2 2 2 2 2 2 2 2 2
left_child=1 9 4 -4 7 -6 -2 8 -3 -1
right_child=6 2 3 -5 5 -7 -8 -9 -10 -11
leaf_value=0.022979761211606473 -0.030123840501539188 -0.0088014370586190858 -0.038630216224587496 0.029383869111357923 -0.03345941050253437 0.030323741396396504 0.024952530177406042 0.032027600123112746 0.023273898621276948 0.033182373392849629
leaf_weight=18.526219012215734 6.6546742971986514 7.1603922583162776 8.3544231895357353 5.3435459155589333 6.2172778304666263 5.3990654945373535 2.5495069026947021 55.307332450523973 29.602624978870153 96.32131315767765
leaf_count=22 137 51 158 5 83 2 1 36 62 53
internal_value=0.023773 0.0253201 0.0187643 -0.0116999 0.0228908 -0.00352259 -0.0136237 0.0262576 0.0168795 0.031775
internal_weight=241.436 232.232 117.385 13.698 103.687 11.6163 9.20418 92.0703 36.763 114.848
internal_count=610 472 397 163 234 85 138 149 113 75
is_linear=0
shrinkage=0.03


Tree=64
num_leaves=11
num_cat=0
split_feature=84 10 24 23 23 38 3 47 47 71
split_gain=15.3719 9.92909 18.6839 7.82958 5.76339 12.6491 8.99247 5.26939 15.3117 0.608478
threshold=1.3746132373809818 0.20826340872178886 0.28750000000000009 0.71669493064118639 0.44330549531948021 0.99459085184592488 0.8139767944928864 -0.038220070658174225 0.076048347434290564 48.668053369582573
decision_type=2 2 2 2 2 2 2 2 2 2
left_child=1 4 -3 -2 5 7 -7 -1 -9 -6
right_child=3 2 -4 -5 9 6 -8 8 -10 -11
leaf_value=0.029836004625452033 -0.029930682212697263 0.027349416029480197 -0.032491180115098571 0.024715382914743397 0.033042971842971731 0.026431097934081618 -0.030487964629218149 -0.029280981938186759 0.025115563776198301 0.025446020669197069
leaf_weight=47.547953454777598 6.5054053459316474 10.497784221544864 6.9306913353502742 2.5069904327392578 89.719435170292854 2.8141901493072492 6.4074234049767256 5.3412031773477819 16.802705895155668 41.742064066231251
leaf_count=40 137 19 110 1 48 1 133 65 20 36
internal_value=0.0235265 0.0250562 0.00291832 -0.0134798 0.0268535 0.0198327 -0.0119378 0.0241884 0.011167 0.0308637
internal_weight=236.816 227.803 17.4285 9.0124 210.375 78.9135 9.22161 69.6919 22.1439 131.461
internal_count=610 472 129 138 343 259 134 125 85 84
is_linear=0
shrinkage=0.03


Tree=65
num_leaves=11
num_cat=0
split_feature=1 20 100 14 42 52 27 19 47 6
split_gain=14.7618 21.2219 11.5515 16.9586 10.6584 8.08911 13.1337 4.43218 1.23798 0.629501
threshold=-0.24904297714365201 0.0015044800395857929 -1.0000000180025095e-35 1.2595710982467005 0.8600052460153208 1.4796500771604941 -0.14794514819700816 0.018623373531532077 -0.014019995818507503 -0.056636394995028885
decision_type=2 2 2 2 2 2 2 2 2 2
left_child=9 2 3 -2 -3 7 -7 -4 -9 -1
right_child=1 4 5 -5 -6 6 -8 8 -10 -11
leaf_value=0.02229922788161439 -0.036069708984103555 -0.036897445907568438 0 0.023532329027831131 0.024895421794659079 0.029810923054212197 -0.031916850800595142 0.031282410111149961 0.020120037433807698 0.032777821344035563
leaf_weight=17.89576712436974 6.9566479399800292 8.7387440595775825 5.3535222988575688 8.3289886657148582 2.5392634868621817 5.195429801940918 5.2080608978867513 57.484756622463458 22.42096886783839 92.064658138900995
leaf_count=22 111 142 44 22 1 2 92 54 67 53
internal_value=0.0232903 0.0158504 0.0198699 -0.00395816 -0.0218458 0.0237099 -0.00091641 0.0267254 0.0284748 0.0313158
internal_weight=232.187 122.226 110.948 15.2856 11.278 95.6627 10.4035 85.2592 79.9057 109.96
internal_count=610 535 392 133 143 259 94 165 121 75
is_linear=0
shrinkage=0.03


Tree=66
num_leaves=11
num_cat=0
split_feature=84 1 100 14 0 115 27 31 8 23
split_gain=14.456 9.60329 17.7354 19.2621 7.37423 7.23119 12.2492 3.58605 5.51119 0.623023
threshold=1.3746132373809818 -0.24904297714365201 -1.0000000180025095e-35 1.2595710982467005 0.8600052460153208 0.061991251929012357 -0.14794514819700816 0.37725053767596778 -0.060328129850772898 0.5075254631882482
decision_type=2 2 2 2 2 2 2 2 2 2
left_child=1 9 3 -3 -2 7 -7 8 -4 -1
right_child=4 2 5 -5 -6 6 -8 -9 -10 -11
leaf_value=0.025112680318744102 -0.029609466555727219 -0.03916151529469282 0.029496624264999174 0.021000536992466092 0.024187659129962381 0.028741497276353362 -0.031714663632578459 0.031348205831737488 0.0052526928115069942 0.033507736978743631
leaf_weight=34.917735246941447 6.2862614728510362 8.5997274313122052 16.502418566495177 8.5921119302511197 2.4126691818237305 5.1738202571868896 4.8937666900455934 49.749779667705297 18.017489392310384 72.668276906013489
leaf_count=38 137 135 14 29 1 3 82 36 98 37
internal_value=0.0230421 0.0245578 0.0180317 -0.00942732 -0.0134239 0.0231137 -0.00058495 0.0259538 0.0174312 0.0310671
internal_weight=227.814 219.115 111.529 17.1918 8.69893 94.3373 10.0676 84.2697 34.5199 107.586
internal_count=610 472 397 164 138 233 85 148 112 75
is_linear=0
shrinkage=0.03


Tree=67
num_leaves=13
num_cat=0
split_feature=84 10 21 0 22 25 0 9 6 41 36 13
split_gain=13.8818 9.36205 16.9333 7.15765 6.72111 13.5094 8.91211 3.10424 13.4245 1.68768 3.05308 6.86525
threshold=1.3746132373809818 0.20826340872178886 0.018746152999617616 0.8600052460153208 0.18333333333333338 3.0367593848937138 0.69488817083079846 -0.075323744608302087 0.0086897162265693797 -0.011306223249587742 -0.071321770709286733 0.040787681928615933
decision_type=2 2 2 2 2 2 2 2 2 2 2 2
left_child=1 4 -3 -2 5 7 -7 -1 -9 -6 -11 -12
right_child=3 2 -4 -5 9 6 -8 8 -10 10 11 -13
leaf_value=0.029795521696963978 -0.029419051685693455 0.026166846583250851 -0.032028544731537906 0.023961471890025843 0.032294256044617539 -0.040304789908422255 0.023017420830192328 -0.018595861955726344 0.02541483225165881 0.030814969129935532 -0.014042974013162542 0.026695768655248558
leaf_weight=28.768832823261619 6.1457410212606174 9.986567687243225 6.6144503988325587 2.3724300861358643 102.54503292776644 4.7478479649871579 2.2063717842102051 7.3397307656705371 24.852476291358471 14.638159185647966 5.5366702396422607 7.7577052190899849
leaf_count=25 137 25 104 1 64 64 1 72 50 8 52 7
internal_value=0.0228008 0.0242992 0.00230692 -0.0132812 0.0261036 0.0178635 -0.0194693 0.0224162 0.0150322 0.0302013 0.0215636 0.00972406
internal_weight=223.512 214.994 16.601 8.51817 198.393 67.9153 6.95422 60.961 32.1922 130.478 27.9325 13.2944
internal_count=610 472 129 138 343 212 65 147 122 131 67 59
is_linear=0
shrinkage=0.03


Tree=68
num_leaves=12
num_cat=0
split_feature=1 20 87 0 115 27 42 118 112 85 82
split_gain=13.894 19.6648 13.3836 15.7071 9.91155 13.3237 9.80232 5.41438 12.7205 0.722388 0.37428
threshold=-0.24904297714365201 0.0015044800395857929 4.6167989597467214 0.80216672879394813 0.061991251929012357 -0.14794514819700816 0.8600052460153208 0.035911666078292534 0.92954545454545456 0.046371332949020343 2.499126344646744
decision_type=2 2 2 2 2 2 2 2 2 2 2
left_child=9 2 4 -4 7 -6 -3 10 -9 -1 -2
right_child=1 6 3 -5 5 -7 -8 8 -10 -11 -12
leaf_value=0.024479091329746423 0.023578643209206249 -0.036482893810724754 -0.036139468554603454 0.028657582479969433 0.029067855747700006 -0.032812322126033425 0.024083870775592854 -0.031127407003763673 0.028492617547881613 0.03319155998754645 0.03248403279506612
leaf_weight=33.646665513515472 26.978578854352236 8.3728962205350381 7.1828091461211425 4.745006799697876 4.8975403308868408 5.6672095004469139 2.3941884040832511 4.1281282119452936 7.6655540056526661 69.305956840515137 44.275701846927404
leaf_count=38 55 142 156 2 2 84 1 54 8 37 31
internal_value=0.0225632 0.0151916 0.0191691 -0.00990766 0.0229713 -0.00383387 -0.021858 0.026422 0.00658755 0.0306359 0.0295268
internal_weight=219.26 116.308 105.541 11.9278 93.6127 10.5647 10.7671 83.048 11.7937 102.953 71.2543
internal_count=610 535 392 158 234 86 143 148 62 75 86
is_linear=0
shrinkage=0.03


Tree=69
num_leaves=10
num_cat=0
split_feature=19 76 29 18 32 96 18 32 18
split_gain=13.4921 14.5772 24.7376 5.94467 8.21431 3.64457 3.51552 10.2811 0.41193
threshold=0.045395843250400199 48.190149253731349 0.95220579418316176 0.12585368718973908 0.30245621543003437 -3.0611429214477535 0.0037342959600773738 0.39748167541544577 0.06821847410893471
decision_type=2 2 2 2 2 2 2 2 2
left_child=1 2 -1 5 -5 -3 7 -7 -8
right_child=-2 3 -4 4 -6 6 8 -9 -10
leaf_value=0.022511300600434998 0.031162579414789598 0.0020506979054335855 -0.036363630234562981 -0.030356449669241042 0.017362345739754353 -0.01311980233086763 0.031322018506928249 0.027893724385011278 0.02005478218671386
leaf_weight=12.688713354989888 91.193453207612038 7.1467749401926985 11.096619101241229 3.9368690941482773 8.4652393031865341 7.6073056552559164 44.717408189550042 14.723324343562124 13.261230770498512
leaf_count=39 56 35 191 69 24 86 48 10 52
internal_value=0.0223551 0.0156372 -0.00519365 0.020631 0.000856055 0.02336 0.0251708 0.0138297 0.0291795
internal_weight=214.837 123.643 23.7853 99.8582 12.4021 87.456 80.3093 22.3306 57.9786
internal_count=610 554 230 324 93 231 196 96 100
is_linear=0
shrinkage=0.03


Tree=70
num_leaves=11
num_cat=0
split_feature=1 83 119 92 25 31 38 19 6 42
split_gain=13.4465 16.2055 10.717 18.011 6.33753 10.6267 1.78362 7.63203 0.887846 0.567977
threshold=-0.24904297714365201 0.97182943535464605 47.995000000000012 0.1906179449244203 2.9419293239683939 0.71669493064118639 0.99561518504704594 0.04415370956325048 -0.056636394995028885 0.30178083386780014
decision_type=2 2 2 2 2 2 2 2 2 2
left_child=8 2 3 -2 6 -6 9 -8 -1 -4
right_child=1 -3 4 -5 5 -7 7 -9 -10 -11
leaf_value=0.020410081654777649 -0.033457866421771197 -0.028651952759242441 0.020494804465295158 0.018314384161879024 -0.031123659575708833 0.02815581495639178 -0.010253025767544319 0.030967718945276293 0.031865857710536238 0.031141897069259083
leaf_weight=16.330951254814863 8.2985205696895736 6.3480550507083526 17.946628913283348 16.29539505019784 4.3414120608940703 4.5440464019775391 6.0660410653799763 8.8191344738006574 82.35483505949378 39.568774770945311
leaf_count=22 146 150 29 25 76 2 74 4 53 29
internal_value=0.0221042 0.0147339 0.0176069 0.000103378 0.0228007 -0.000722996 0.025699 0.0143925 0.030224 0.028278
internal_weight=210.914 112.228 105.88 24.5939 81.286 8.88546 72.4006 14.8852 98.6858 57.5154
internal_count=610 535 385 171 214 78 136 78 75 58
is_linear=0
shrinkage=0.03


Tree=71
num_leaves=12
num_cat=0
split_feature=1 20 100 28 39 52 15 19 67 23 107
split_gain=13.1005 18.1395 9.81515 17.0875 8.83383 6.91447 11.0143 4.18331 5.18055 0.888289 0.865342
threshold=-0.24904297714365201 0.0015044800395857929 -1.0000000180025095e-35 0.11377201837020971 -0.4034144751984845 1.4796500771604941 -0.10103974902439893 0.018623373531532077 0.14494914961621599 0.5075254631882482 56.573763003166
decision_type=2 2 2 2 2 2 2 2 2 2 2
left_child=9 2 3 -2 -3 7 -7 8 -4 -1 -9
right_child=1 4 5 -5 -6 6 -8 10 -10 -11 -12
leaf_value=0.023521041110545073 -0.035750409153364228 0.022281289699373572 0.023963692393791279 0.026486440989160524 -0.03610818888064625 0.027923265445509278 -0.031088076055175717 0.019491145124492584 -0.027648530760131462 0.032743559819586224 0.029745307960912664
leaf_weight=32.025159001350403 6.8753317547962052 2.3270851001143456 2.614916017279028 6.99973389133811 7.9380068955942971 4.654144499450922 4.7242766153067333 21.796633826568723 2.387178810313344 64.520509243011475 50.014904212206602
leaf_count=38 126 3 4 7 140 3 91 67 40 37 54
internal_value=0.0218762 0.0145459 0.018483 -0.00448145 -0.0218022 0.0222232 -0.0016452 0.0251596 -0.000670396 0.0299876 0.0269845
internal_weight=206.878 110.332 100.067 13.8751 10.2651 86.1921 9.37842 76.8136 5.00209 96.5457 71.8115
internal_count=610 535 392 133 143 259 94 165 44 75 121
is_linear=0
shrinkage=0.03


Tree=72
num_leaves=10
num_cat=0
split_feature=19 83 34 6 48 68 1 1 57
split_gain=12.9275 21.2624 9.0807 6.4884 10.5055 15.9443 5.16466 1.53426 0.652895
threshold=0.045395843250400199 0.97260055768714315 7.5000000000000009 0.0083684356092756044 -0.018523024685023978 0.028888473308352019 -0.42570305681529164 0.029389150280104696 30.390051311916778
decision_type=2 2 2 2 2 2 2 2 2
left_child=1 2 3 4 7 -6 -4 -1 -5
right_child=-2 -3 6 8 5 -7 -8 -9 -10
leaf_value=0.028827488733476313 0.030592798551865273 -0.032875984680031743 0.021488463593087818 0.029922391536612847 -0.033676713181737254 0.023921409712969802 -0.026984345462507775 0.012908957692604419 0.019370124820277425
leaf_weight=14.756463112309577 85.27711745351553 6.9023825218901029 1.9471896886825559 40.59480875171721 8.6417854838073236 6.8600962460041037 5.3150801174342623 14.290665650740264 18.302183026447892
leaf_count=12 56 156 1 40 137 5 126 38 39
internal_value=0.0216541 0.0149443 0.0182202 0.0205123 0.0113708 -0.00810084 -0.0125967 0.021786 0.0270715
internal_weight=202.888 117.611 110.708 103.446 44.549 15.5019 7.26227 29.0471 58.897
internal_count=610 554 398 271 192 142 127 50 79
is_linear=0
shrinkage=0.03


Tree=73
num_leaves=11
num_cat=0
split_feature=19 78 18 76 112 9 18 32 8 56
split_gain=12.6327 13.1727 10.4661 10.0344 13.4885 6.59877 4.2324 10.9873 4.07661 0.682256
threshold=0.045395843250400199 -0.29038132670563022 0.13683695357456857 48.190149253731349 0.16500000000000004 -0.37364542143561608 0.0037342959600773738 0.39748167541544577 -0.039402044879011215 1.3784328358208957
decision_type=2 2 2 2 2 2 2 2 2 2
left_child=1 -1 3 4 -3 -4 7 -5 -6 -8
right_child=-2 2 5 6 8 -7 9 -9 -10 -11
leaf_value=-0.027264517912675385 0.030385374734770577 -0.036593860187088462 0.021805962537095665 -0.015780100391235053 0.02753247867777471 -0.033406035588791606 0.030709455784898303 0.02688991043862652 -0.0046400823168522912 0.020245613131120024
leaf_weight=5.445373333990573 83.319940559566021 5.3815414654091027 1.9997808933258054 7.7046962585300234 8.4098422173410636 4.9844125993549815 43.345301209017634 13.668424218893049 5.0520686842501155 19.650838715955615
leaf_count=156 56 80 1 89 11 59 35 10 63 50
internal_value=0.0214356 0.0147564 0.0170863 0.0195221 -0.000127551 -0.0164703 0.023896 0.0113561 0.0157651 0.0278596
internal_weight=198.962 115.642 110.197 103.213 18.8435 6.98419 84.3693 21.3731 13.4619 62.9961
internal_count=610 554 398 338 154 60 184 99 74 85
is_linear=0
shrinkage=0.03


Tree=74
num_leaves=11
num_cat=0
split_feature=21 34 113 23 17 2 2 107 13 71
split_gain=12.1701 11.8839 10.6506 6.06615 8.57212 13.9847 10.5025 15.3288 5.80457 1.27272
threshold=0.09138721345256122 2.5000000000000004 -0.29459381991765782 0.44330549531948021 3.5000000000000004 1.117893863456338 0.96517975331594308 65.519423337856196 -0.49803627782189835 48.607632739059405
decision_type=2 2 2 2 2 2 2 2 2 2
left_child=2 -2 8 4 5 -4 -6 -8 -1 -5
right_child=1 -3 3 9 6 -7 7 -9 -10 -11
leaf_value=0.022645023336764204 0.02683884884997691 -0.032981861790496524 -0.040833468270341247 0.032009036818580555 0.028603535586010642 0.027037446376850741 -0.029800428473165282 0.02374437724870853 -0.028018091080093115 0.022478027728721057
leaf_weight=2.141963005065918 4.0257264375686628 6.422077052295208 4.7667761640623194 70.987756140530109 45.344227228313684 4.212615204975009 7.2787351030856398 10.478714268654583 4.9528954960405818 34.530467938631773
leaf_count=1 2 125 56 45 47 3 146 21 128 36
internal_value=0.0212105 -0.00933884 0.0229958 0.0244448 0.0171989 -0.00917307 0.021083 0.00121792 -0.0114442 0.0291585
internal_weight=195.142 10.4478 184.694 177.599 72.0811 8.97939 63.1017 17.7574 7.09486 105.518
internal_count=610 127 483 354 273 59 214 167 129 81
is_linear=0
shrinkage=0.03


Tree=75
num_leaves=12
num_cat=0
split_feature=21 11 78 23 76 25 3 3 8 43 110
split_gain=11.703 11.5143 8.73433 6.33129 18.0079 6.22022 12.2726 5.33564 3.48343 0.687892 1.24131
threshold=0.09138721345256122 0.010481857124605271 -0.29038132670563022 0.44330549531948021 48.447618525021959 2.9890728177295345 0.85761369831245149 0.75634856100047942 -0.049708426637172225 0.48180780629909215 0.81624009232985528
