tree
version=v4
num_class=1
num_tree_per_iteration=1
label_index=0
max_feature_idx=109
objective=binary sigmoid:1
feature_names=Column_0 Column_1 Column_2 Column_3 Column_4 Column_5 Column_6 Column_7 Column_8 Column_9 Column_10 Column_11 Column_12 Column_13 Column_14 Column_15 Column_16 Column_17 Column_18 Column_19 Column_20 Column_21 Column_22 Column_23 Column_24 Column_25 Column_26 Column_27 Column_28 Column_29 Column_30 Column_31 Column_32 Column_33 Column_34 Column_35 Column_36 Column_37 Column_38 Column_39 Column_40 Column_41 Column_42 Column_43 Column_44 Column_45 Column_46 Column_47 Column_48 Column_49 Column_50 Column_51 Column_52 Column_53 Column_54 Column_55 Column_56 Column_57 Column_58 Column_59 Column_60 Column_61 Column_62 Column_63 Column_64 Column_65 Column_66 Column_67 Column_68 Column_69 Column_70 Column_71 Column_72 Column_73 Column_74 Column_75 Column_76 Column_77 Column_78 Column_79 Column_80 Column_81 Column_82 Column_83 Column_84 Column_85 Column_86 Column_87 Column_88 Column_89 Column_90 Column_91 Column_92 Column_93 Column_94 Column_95 Column_96 Column_97 Column_98 Column_99 Column_100 Column_101 Column_102 Column_103 Column_104 Column_105 Column_106 Column_107 Column_108 Column_109
feature_infos=[3.0951519012451172:90.752201690673857] [0.12386832628849136:1.1644372722359764] [0.6416070162750821:2.129214264756059] [0.011885626260501086:0.10561151205553634] [-0.82885558175978147:-0.063659248499362386] [-0.60014462039334249:1.0818536132225245] [-0.62636860904216185:0.95932239875740422] none none none none none none none none none none none none none none none none [3.0951519012451172:90.752201690673857] [3.3528844938903557:87.315651507188448] [0.21974444042181968:11.023636028228003] [-0.014946740966631554:0.011325121667722201] [0.0087578252174694404:0.10814860749775569] [-0.47048609218099419:-0.017961097735517503] [0.019807259594852758:0.29554929640273314] [-2.5641354108387415:2.1326895957828] [0.13780967365188562:1.5151522402627307] [0.12386832628849109:1.1644372722359773] [0.16802854594404845:2.3190181526883387] [0.14457145879226577:1.5137070937782131] [0.13778834014806474:1.7298536092349568] [0.65669343057170992:1.359322657754396] [0.79015024316895677:2.3044491673381668] [-0.27749930943386769:0.11844883087453646] [0.79196205732197922:1.415015916021499] [-4.5799947367451468:-1.4398990873022313] [1.5635787057263015:4.2865898799590072] [-0.3536957872533657:0.33054945054945062] [-0.61111111412244556:1.1208509423268103] [-0.69638272349066388:1.1504755510272435] [-0.76098517497744989:2.3014743999776566] [0.19261238623673474:0.79998943467433203] [-0.37935367614760757:0.30880455748058172] [0.052977908545708927:0.58767186138720684] [0.087199759035823193:0.92086517285811798] [30.92955029194631:67.640734130802457] [19.42327574238146:89.031526788433681] [1.6634148549483294:42.235044627214123] [-0.32186917432116458:0.29122942409019359] [-0.60622684155461326:0.93615584560692622] [0.869982267189369:1.2370381129644716] [1.5628879047384403:8.0967153623324393] [-12.502114810009781:11.578745049333669] [-6.4748912290986107:3.5034338260585289] [0.77977681545421318:1.267559165504996] [0.65491990936976685:1.2591630408729604] [0.4542008137867552:1.4984043377224401] [0.3812998621622371:1.5355423538595447] [-1.1113692848916199:0.30474937839169669] [-0.76748696876610722:-0.015230416105738344] [-0.87807963248468524:-0.058710226543685178] [0.013610460728805408:0.1371011237765179] [0.016228131054851876:0.32234941780365128] [3.4670588235294115:7.5815151515151511] [3.2799999999999998:7.0499999999999998] [10.294477611940298:21.224776119402986] [9.5099999999999998:25.420000000000002] [33.366060606060607:69.874411764705883] [36.939999999999998:74.129999999999995] [33.911060606060609:75.245000000000005] [1.9959090909090909:3.7994029850746269] [0.2373134328358209:1.5513636363636363] [0.20999999999999999:1.71] [1.5617910447761194:3.0395522388059701] [0.23588235294117646:0.49940298507462688] [0.11:2.2195522388059703] [3.7676470588235293:5.533823529411765] [1.7125757575757576:3.3818181818181818] [1.2775757575757574:2.6724242424242424] [-0.38285948605795517:0.30671358960476458] [-1.2400000000000002:2.0500000000000003] none [0:1] [0:0.066801619433198373] [0.0092466164060876072:0.094543284063063698] [0:0.62910508423225442] [0:1] [0:1] [0:0.2088874139568577] [0.230625:0.95374999999999999] [0.31374999999999997:0.82874999999999999] [0:6] [0:4] [0:13] [1:9] [0:1] [0.64194974589142417:0.64760775824993511] [0:1] [0:0.03430287626032702] [13:14] [0:0.12741119629545811] [0:1] [0:2.8025968497232867] [0.025000000000000001:0.095064921243082162] [0:13]
tree_sizes=1052 1077 1272 1269 1168 1069 1175 1179 978 1278 1182 977 1283 1485 1587 970 1365 1283 1174 1290 1182 1280 1187 1081 1292 1384 1493 1494 1390 1186 1083 1087 1288 1178 1088 1074 1268 1381 1277 1087 1284 1081 1292 1289 1190 1182 1181 1186 1088 1084 1187 1185 1076 1178 1395 1284 1087 1492 1497 1497 1182 1283 1472 1495 1181 1606 1599 1388 1188 1491 1289 1283 1189 1398 1300 1185 1400 1187 1188 1289 1190 1490 1187 1169 1189 1491 1169 1710 1185 1288 1184 1598 1805 1291 1285 1600 1083 1297 1474 1189 1396 1480 1379 1397 1275 1407 1290 1503 1268 1402 1093 1611 1290 1495 1298 1196 1194 1614 1615 1263 1502 1401 1286 1085 1295 1299 1594 1511 1191 1287 1295 1518 1094 1196 1504 1505 1823 1194 1394 1197 987 1487 1092 1089 1711 1510 1615 1614 1500 1190 1617 1605 1191 1294 1092 1182 1275 1718 1500 1725 1194 1194 1606 1280 1514 1279 1413 1812 1197 1376 1401 1289 1294 1393 1696 1400 1383 1401 1094 1386 1839 1704 1669 1700 1707 1182 1729 1506 1519 1415 1313 1510 1508 1524 1312 1609 1583 1284 1513 1297 1591 1096 1183 1095 1471 1397 1397 1626 1400 1484 1384 1607 1102 1480 1507 1316 1719 1208 1848 1622 1625 1598 1315 1422 1296 1710 1788 1618 1410 1530 1718 1642 1720 1397 1396 1500 1372 1371 1180 1631 1286 1401 1517 1427 1525 1506 1720 1418 1512 1593 1583 1095 1594 1394 1629 1498 1689 1525 1181 1584 1504 1176 1634 1604 1176 1610 1725 1498 1320 1398 1532 1736 1630 1217 1606 1505 1646 1435 1524 1607 1609 1814 1611 1711 1396 1703 1513 1080 1492 1588 1287 1683 1574 1591 1520 1649 1520 1588 1604 1700 1693 1666 1462 1610 1152 1690 1503 1496 1555 1602 1512 1668 1477 1678 1958 1959 1397 1771 1661 1557 1910 1581 1663 1783 1613 1597 1665 1501 1427 1578 1215 1715 1573 1389 1501 1470 1511 1391 1474 1431 1557 1683 1661 1412 1679 1605 1351 1526 1566 1309 1595 1387 1505 1520 1580 1704 1670 1472 1372 1737 1658 1228 1251 1654 1528 1359 1545 1396 1592 1655 1554 1498 1570 1529 1591 1471 1513 1573 1611 1397 1653 1580 1363 1372 1689 1486 1592 1562 1693 1563 1575 1765 1358 1404 1564 1278 1541 1466 1581 1574 1681 1456 1722 1494 1689 1687 1690 1546 1384 1656 1386 1556 1587 1552 1538 1650 1467 1457 1657 1502 1637 1634 1348 1648 1494 1471 1529 1289 1690 1467 1611 1586 1691 1449 1255 1666 1560 1479 1655 1665 1587 1384 1573 1522 1579 1460 1571 1574 1334 1451 1767 1671 1692 1487 1411 1439 1378 1778 1469 1213 1595 1563 1551 1201 1351 1669 1709 1301 1747 1601 1224 1584 1464 1692 1662 1434 1679 1263 1717 1491 1547 1645 1573 1587 1685 1278 1562 1649 1384 1730 1169 1467 1482 1742 1557 1154 1279 1357 1240 1671

Tree=0
num_leaves=9
num_cat=0
split_feature=33 60 76 99 39 68 48 1
split_gain=925.895 754.023 113.476 163.367 96.0852 97.2489 49.488 9.48193
threshold=0.48638290490404351 0.96426324433407407 1.4469293239683936 4.5000000000000009 0.91326547916200085 3.5530235187697881 0.12987274697279186 0.33076324256429229
decision_type=2 2 2 2 2 2 2 2
left_child=1 2 3 -1 5 -3 -2 -8
right_child=6 4 -4 -5 -6 -7 7 -9
leaf_value=-1.6665129342615081 -1.8350239335717973 -1.6770189675894085 -1.6274068180356303 -1.8504578264792175 -1.854573696931517 -1.8492061461785287 -1.7261856373820343 -1.6212534736858106
leaf_weight=10.927505999803545 0.83949205279350181 5.403789281845091 30.807242631912231 6.3561541140079489 35.738375961780548 4.9170248806476593 3.5413866937160483 153.31664854288101
leaf_count=21 7 10 29 53 298 41 12 139
internal_value=-1.66861 -1.74427 -1.66246 -1.73225 -1.83117 -1.75458 -1.62422 -1.62299
internal_weight=251.848 94.1501 48.0909 17.2837 46.0592 10.3208 157.698 156.858
internal_count=610 452 103 74 349 51 158 151
is_linear=0
shrinkage=1


Tree=1
num_leaves=9
num_cat=0
split_feature=33 38 80 99 54 89 48 4
split_gain=638.727 428.928 108.965 126.961 105.505 68.5323 36.7167 19.1501
threshold=0.48638290490404351 -0.038483550562155626 0.14857769973661109 4.5000000000000009 0.33183522533031196 0.065680957985488023 0.12987274697279186 -0.38638300995643782
decision_type=2 2 2 2 2 2 2 2
left_child=1 2 -1 -4 5 -3 -2 -8
right_child=6 4 3 -5 -6 -7 7 -9
leaf_value=0.15548549030700765 -0.014148774854300161 -0.033664012179712939 0.12708144935671245 -0.030354186678587775 0.096261506655488521 0.087742305364089904 0.17672982689205977 0.14234633410476172
leaf_weight=36.945215485990047 0.83087098598480125 33.813730515539646 9.4523333013057727 7.6352369114756575 7.6921754181385031 3.7785942405462256 124.62477055191994 55.32309864461422
leaf_count=44 7 287 19 65 25 12 63 88
internal_value=0.132514 0.0703084 0.126581 0.0587797 0.00181566 -0.0194258 0.166098 0.167021
internal_weight=280.096 99.3173 54.0328 17.0876 45.2845 37.5923 180.779 179.948
internal_count=610 452 128 84 324 299 158 151
is_linear=0
shrinkage=0.03


Tree=2
num_leaves=11
num_cat=0
split_feature=33 60 39 68 79 107 48 35 27 2
split_gain=467.669 515.399 85.9187 76.5643 59.0814 106.817 28.8144 9.17581 9.91353 1.78526
threshold=0.48638290490404351 0.96426324433407407 0.91326547916200085 3.5530235187697881 0.3081156716417911 2.2709983532818447 0.12987274697279186 0.43897004552459934 0.024416312690326542 1.0978735074730586
decision_type=2 2 2 2 2 2 2 2 2 2
left_child=1 4 3 -3 9 -6 -2 8 -8 -1
right_child=6 2 -4 -5 5 -7 7 -9 -10 -11
leaf_value=0.11002950075653313 -0.01402219967738845 0.12067757313863997 -0.033590500300502812 -0.028246977676265234 -0.029702129658155118 0.14121474718174848 0.13863980463699008 0.14935376770649908 0.081847964939727777 0.15286602034410682
leaf_weight=18.172907173633575 0.82237540185451408 6.3034946024417859 34.546957276761532 4.8133608847856522 6.0929136723279935 5.4504942446947098 11.877114176750185 175.15918715298176 13.327148690819739 28.49306657910347
leaf_count=35 7 10 298 41 50 3 10 106 35 15
internal_value=0.117918 0.0652352 -0.0102195 0.0589392 0.123651 0.0555854 0.144646 0.145379 0.112994 0.138906
internal_weight=305.059 103.873 45.6638 11.1169 58.2094 11.5434 201.186 200.363 25.2043 46.666
internal_count=610 452 349 51 103 53 158 151 45 50
is_linear=0
shrinkage=0.03


Tree=3
num_leaves=11
num_cat=0
split_feature=99 49 27 42 23 67 58 76 69 27
split_gain=372.392 194.397 145.143 142.12 197.58 39.1322 39.2785 25.2535 27.1839 35.964
threshold=7.5000000000000009 0.26867621880952808 0.046740633074918769 -0.020473522171340349 21.969675064086918 0.043181151422227719 0.65701240659971516 1.4469293239683936 3.5950000000000002 0.02516407624495872
decision_type=2 2 2 2 2 2 2 2 2 2
left_child=1 3 -2 7 5 6 -5 8 -1 -10
right_child=2 -3 -4 4 -6 -7 -8 -9 9 -11
leaf_value=0.11307635950630561 -0.033814787719535631 0.1317145860091789 0.11989789994489608 -0.026988641927968505 -0.032910284514227367 0.12885873174110943 0.098173576487589426 0.13057424496366732 -0.028197291154692678 0.0863325543458347
leaf_weight=6.6368181854486457 22.235827580094341 215.35758779197931 6.2541604042053214 3.9187767803669002 19.798998184502125 12.584136530756949 3.3765467256307602 28.907555237412453 4.3130195066332799 3.7628210261464119
leaf_count=9 178 142 2 34 171 10 6 18 34 6
internal_value=0.1066 0.116455 0.00274819 0.0758721 0.0334291 0.0980554 0.0354308 0.112798 0.0715931 0.0284683
internal_weight=327.146 298.656 28.49 83.2987 39.6785 19.8795 7.29532 43.6202 14.7127 8.07584
internal_count=610 430 180 288 221 50 40 67 49 40
is_linear=0
shrinkage=0.03


Tree=4
num_leaves=10
num_cat=0
split_feature=99 4 72 66 67 65 49 94 94
split_gain=307.17 181.173 252.181 131.933 62.2367 26.2056 5.48368 0.904938 4.63649
threshold=7.5000000000000009 -0.23267893591572383 56.573763003166 0.063410331316314544 0.062160210670970988 -0.23267893600623049 0.27143848125317266 0.34031250000000007 0.83062500000000006
decision_type=2 2 2 2 2 2 2 2 2
left_child=1 6 4 -2 -3 -4 -1 -7 -9
right_child=3 2 5 -5 -6 7 -8 8 -10
leaf_value=0.090048506523600816 -0.033606103978610746 -0.033325533077648462 0.037958785645034555 0.11022132080801934 0.08654759161738064 0.12326687539959334 0.12155931390032339 0.069398333857672856 0.11331848206452758
leaf_weight=20.940662555396557 21.716747999191288 21.436618581414226 6.8978366553783408 6.6799631118774405 3.726226568222045 23.29336854070425 217.06075586378574 14.880466394126417 10.221472308039663
leaf_count=40 178 181 33 2 4 15 106 43 8
internal_value=0.0974848 0.10589 0.0655369 0.00272392 -0.01283 0.100848 0.119188 0.108801 0.0910537
internal_weight=346.854 318.457 80.456 28.3967 25.1628 55.2931 238.001 48.3953 25.1019
internal_count=610 430 284 180 185 99 146 66 51
is_linear=0
shrinkage=0.03


Tree=5
num_leaves=9
num_cat=0
split_feature=99 4 72 31 67 90 2 49
split_gain=258.266 144.932 218.656 120.789 58.3133 35.1504 68.8773 3.74224
threshold=7.5000000000000009 -0.23267893591572383 56.573763003166 0.74910473689237944 0.062160210670970988 0.049939818224454507 1.3313596305293507 0.27143848125317266
decision_type=2 2 2 2 2 2 2 2
left_child=1 7 4 -2 -3 -4 -7 -1
right_child=3 2 5 -5 -6 6 -8 -9
leaf_value=0.083317880694593879 -0.033403251263165366 -0.033131679506198809 0.10556632614351871 0.10214608871676074 0.081386253161044073 -0.029932675372797223 0.10090187671693911 0.11078474098020537
leaf_weight=22.016657784581184 21.206953056156639 20.928713597357277 45.366919480264187 7.06461477279663 3.9042332768440238 5.8217289447784406 7.1455183699727058 230.89480166137218
leaf_count=40 178 181 50 2 4 46 3 106
internal_value=0.0899991 0.0973043 0.0616047 0.00269833 -0.0125575 0.0929058 0.0440105 0.108743
internal_weight=364.35 336.079 83.1671 28.2716 24.8329 58.3342 12.9672 252.911
internal_count=610 430 284 180 185 99 49 146
is_linear=0
shrinkage=0.03


Tree=6
num_leaves=10
num_cat=0
split_feature=99 4 72 27 27 90 2 4 49
split_gain=220.447 119.432 191.117 111.252 55.1195 28.2407 62.2444 4.017 7.21925
threshold=7.5000000000000009 -0.23267893591572383 56.573763003166 0.046740633074918769 0.030646526594427553 0.049939818224454507 1.3313596305293507 -0.39534173004085088 0.27143848125317266
decision_type=2 2 2 2 2 2 2 2 2
left_child=1 7 4 -2 -3 -4 -7 -1 -9
right_child=3 2 5 -5 -6 6 -8 8 -10
leaf_value=0.10466066964301893 -0.033205908004410249 -0.032960962886460797 0.097036094661932179 0.095311670208192728 0.077268203760333359 -0.02969444885044549 0.094120305071905108 0.061320184249977511 0.094512358634865054
leaf_weight=185.33676941692829 20.706507325172428 20.447732761502269 47.920484282076359 7.4101705551147452 4.0520040243864051 5.7022140920162183 7.496926374733448 15.907390899956225 64.834465548396111
leaf_count=59 178 181 50 2 4 46 3 38 49
internal_value=0.0837207 0.0901657 0.0580839 0.00267212 -0.0122973 0.0860882 0.0420951 0.100222 0.0888399
internal_weight=379.815 351.698 85.6194 28.1167 24.4997 61.1196 13.1991 266.079 80.7419
internal_count=610 430 284 180 185 99 49 146 87
is_linear=0
shrinkage=0.03


Tree=7
num_leaves=10
num_cat=0
split_feature=99 27 4 72 67 64 4 49 33
split_gain=190.725 102.992 100.548 168.663 51.9769 19.7947 3.18192 5.95314 0.0808451
threshold=7.5000000000000009 0.046740633074918769 -0.23267893591572383 56.573763003166 0.062160210670970988 -0.13273524551230034 -0.39534173004085088 0.27143848125317266 0.30414258762592739
decision_type=2 2 2 2 2 2 2 2 2
left_child=2 -2 6 4 -4 -5 -1 -8 -7
right_child=1 -3 3 5 -6 8 7 -9 -10
leaf_value=0.097159818133679549 -0.033013766065386363 0.0894569616786869 -0.032780627715874887 0.029579650831719335 0.073243919129002952 0.066077616803565317 0.057822154941454561 0.087987016549936015 0.092315731425324621
leaf_weight=193.59800691902637 20.215454541146759 7.7187657356262198 19.962718725204471 7.7335996255278578 4.20177038013935 14.961968176066874 16.416028067469597 67.583017989993095 40.913336455821991
leaf_count=59 178 2 181 34 4 29 38 49 36
internal_value=0.0784146 0.00264573 0.0841763 0.0549957 -0.0120477 0.0803036 0.0931616 0.0828768 0.0866279
internal_weight=393.305 27.9342 365.37 87.7734 24.1645 63.6089 277.597 83.999 55.8753
internal_count=610 180 430 284 185 99 146 87 65
is_linear=0
shrinkage=0.03


Tree=8
num_leaves=8
num_cat=0
split_feature=35 103 61 61 60 62 34
split_gain=147.413 151.324 110.761 79.4679 47.1977 117.454 18.5876
threshold=0.43897004552459934 0.023953421452680205 0.8139767944928864 0.99378016711652906 0.95240915399168713 1.0552615148776254 0.39958818341812458
decision_type=2 2 2 2 2 2 2
left_child=1 3 -3 -1 -5 -6 -7
right_child=-2 2 -4 4 5 6 -8
leaf_value=-0.031929023130482126 0.088442011474529569 0.088593509054470498 -0.033364855859185749 0.087116422992587914 -0.03220924522474173 0.041731288676209732 0.093509976742498793
leaf_weight=6.4565247893333426 246.8562300875783 7.7980481386184684 27.122694417834282 71.984924621880054 12.043473765254019 13.212693795561789 19.657688677310944
leaf_count=45 108 3 249 50 102 47 6
internal_value=0.0738426 0.0506413 -0.00433899 0.0661395 0.0718063 0.0458401 0.074632
internal_weight=405.132 158.276 34.9207 123.355 116.899 44.9139 32.8704
internal_count=610 502 252 250 205 155 53
is_linear=0
shrinkage=0.03


Tree=9
num_leaves=11
num_cat=0
split_feature=99 27 4 74 40 70 60 4 76 75
split_gain=152.965 90.113 75.1731 136.109 48.6906 16.5704 55.7328 2.72791 12.7856 9.24666
threshold=7.5000000000000009 0.046740633074918769 -0.23267893591572383 61.568585481682504 -1.44295705787183 14.703358208955226 1.0652686914861427 -0.39534173004085088 1.1053844414292178 2.8683582089552244
decision_type=2 2 2 2 2 2 2 2 2 2
left_child=2 -2 7 4 -4 -5 -7 -1 9 -9
right_child=1 -3 3 5 -6 6 -8 8 -10 -11
leaf_value=0.085656629942344714 -0.032902375371543009 0.079755775812472895 -0.032668218498937328 0.079031195133895213 0.069299382090304271 -0.030186428425525609 0.084551639595058625 0.069011913035865097 0.083101858113499613 0.032593524765512603
leaf_weight=206.74009795486927 19.687355399131778 8.2447576522827131 19.257322318851951 53.854134574532509 4.3318648338317862 5.8326483890414229 8.0510085821151716 18.963675856590271 56.006247118115425 14.455811604857443
leaf_count=59 178 2 181 51 4 44 4 18 29 40
internal_value=0.0698415 0.00185468 0.0747171 0.0498439 -0.0117643 0.0712012 0.037358 0.0821835 0.0732625 0.0547507
internal_weight=415.425 27.9321 387.493 91.327 23.5892 67.7378 13.8837 296.166 89.4257 33.4195
internal_count=610 180 430 284 185 99 48 146 87 58
is_linear=0
shrinkage=0.03


Tree=10
num_leaves=10
num_cat=0
split_feature=99 27 83 4 4 73 26 57 57
split_gain=136.156 84.4168 67.9253 66.574 37.5855 112.492 49.5612 3.03823 9.49007
threshold=7.5000000000000009 0.046740633074918769 1.4567910447761196 -0.38344192750525619 -0.23267893591572383 56.615000000000002 -0.00258805020610138 0.056664862957603583 -0.18655887291674397
decision_type=2 2 2 2 2 2 2 2 2
left_child=2 -2 3 -1 -4 6 -6 8 -7
right_child=1 -3 4 -5 5 7 -8 -9 -10
leaf_value=0.073373103502204703 -0.032717721527960701 0.07587890769696358 0.079026514765562328 -0.033062248859117321 0.075130087362639097 0.077760744959519859 -0.032453965501655427 0.081385926759793628 0.036407324164899967
leaf_weight=8.5859088897705096 19.217265427112583 8.4537734985351545 291.595350086689 10.85661920160055 4.0126428604126003 12.861943751573564 15.691226154565809 39.138513080775738 13.694928191602228
leaf_count=2 178 2 124 88 1 5 145 25 40
internal_value=0.0663679 0.00184434 0.0708481 0.0150833 0.0736686 0.0546363 -0.00782927 0.0732529 0.0586394
internal_weight=424.108 27.671 396.437 19.4425 376.995 85.3993 19.7039 65.6954 26.5569
internal_count=610 180 430 90 340 216 146 70 45
is_linear=0
shrinkage=0.03


Tree=11
num_leaves=8
num_cat=0
split_feature=99 27 33 60 51 36 77
split_gain=121.97 79.3048 59.8873 153.821 60.0006 3.33108 12.1002
threshold=7.5000000000000009 0.046740633074918769 0.48638290490404351 0.96517975331594308 71.457255771338183 0.86872796793159635 1.4000000000000001
decision_type=2 2 2 2 2 2 2
left_child=2 -2 3 5 -5 -1 -7
right_child=1 -3 -4 4 -6 6 -8
leaf_value=0.079117169100720447 -0.03253749017917873 0.072438209581180912 0.074859834744576789 -0.033165969430754984 0.047112272455088242 0.033266503068847632 0.072966750750265957
leaf_weight=43.541347712278366 18.756507895886902 8.6342678070068342 289.19100550562143 22.529435664415359 12.011102236807345 14.312680490314959 22.50602450966835
leaf_count=15 178 2 122 205 37 41 10
internal_value=0.0632832 0.00183376 0.0674262 0.0482064 -0.00462553 0.0707293 0.0589009
internal_weight=431.482 27.3908 404.092 114.901 34.5405 80.3601 36.8187
internal_count=610 180 430 308 242 66 51
is_linear=0
shrinkage=0.03


Tree=12
num_leaves=11
num_cat=0
split_feature=99 27 83 4 4 73 26 90 57 24
split_gain=109.871 74.6886 56.7313 59.5193 30.4243 95.0276 44.7539 3.02474 12.6722 0.350627
threshold=7.5000000000000009 0.046740633074918769 1.4567910447761196 -0.38344192750525619 -0.23267893591572383 56.615000000000002 -0.00258805020610138 0.018559916874695926 0.34652845263158483 32.210823950220338
decision_type=2 2 2 2 2 2 2 2 2 2
left_child=2 -2 3 -1 9 6 -6 -7 -9 -4
right_child=1 -3 4 -5 5 7 -8 8 -10 -11
leaf_value=0.067174888253820883 -0.032361432411294883 0.069364948800745452 0.073305349763296307 -0.03299346544897 0.068622787152790646 0.075243239295083988 -0.03236958574871112 0.030202936194156461 0.071465393351710163 0.061551594667844038
leaf_weight=8.8914556503295916 18.305059850215915 8.7881565093994123 253.20887221395969 10.644586749374865 4.2179617881774929 35.765446037054062 15.265539862215517 14.550362482666968 18.188531845808029 49.831240072846413
leaf_count=2 178 2 86 88 1 17 145 42 11 38
internal_value=0.0605233 0.00182306 0.0643758 0.0135012 0.066869 0.0499495 -0.00807663 0.0663748 0.0546545 0.0715913
internal_weight=437.657 27.0932 410.564 19.536 391.028 87.9878 19.4835 68.5043 32.7389 303.04
internal_count=610 180 430 90 340 216 146 70 53 124
is_linear=0
shrinkage=0.03


Tree=13
num_leaves=13
num_cat=0
split_feature=66 60 60 54 4 65 34 76 51 65 29 0
split_gain=87.5621 105.842 80.3588 40.067 7.59544 45.998 14.4938 5.00031 14.2208 25.2844 2.21315 2.56205
threshold=0.034168031773422113 0.95485340012015618 1.0903483199492821 0.44798366602051604 -0.39534173004085088 -0.47247844212113238 0.36834233511652487 1.4469293239683936 50.066445880232187 -0.1476819763150064 0.066330396453509452 9.6667799949646014
decision_type=2 2 2 2 2 2 2 2 2 2 2 2
left_child=1 7 3 -3 -2 -6 -7 8 9 -1 -8 -12
right_child=4 2 -4 -5 5 6 10 -9 -10 -11 11 -13
leaf_value=-0.029937831080805461 0.069782540169853677 -0.033196067116356837 0.059386335334254373 0.049252511316527442 -0.034778536567376304 0.019732894129731494 0.070722236464750496 0.068314752771605231 0.068193889270892094 0.05918604554940899 0.067759447810087428 0.043408675648764869
leaf_weight=4.8954069241881371 224.29106175154448 32.010842718183994 15.201633267104624 5.3793808072805396 4.0523673966526976 8.3524308428168279 55.273575827479362 42.004090927541256 9.107110992074011 4.627630829811098 13.56716203689575 23.861414231359959
leaf_count=37 69 318 24 9 21 27 30 22 6 3 4 40
internal_value=0.0580637 0.0347571 0.00336853 -0.020282 0.0659365 0.0571206 0.0611399 0.0614373 0.043088 0.0145948 0.0645882 0.053847
internal_weight=442.624 113.226 52.5919 37.3902 329.398 105.107 101.055 60.6342 18.6301 9.52304 92.7022 37.4286
internal_count=610 419 351 327 191 122 101 68 46 40 74 44
is_linear=0
shrinkage=0.03


Tree=14
num_leaves=14
num_cat=0
split_feature=33 60 39 70 36 41 40 48 52 39 44 0 1
split_gain=83.9167 153.904 52.7525 18.3835 15.5674 23.2306 7.30768 7.13051 6.13579 24.8958 2.20963 1.9321 7.26344
threshold=0.48638290490404351 0.96426324433407407 0.91326547916200085 13.875905698778835 1.2224562040016969 3.2758239210553799 -3.7998935868237056 0.12987274697279186 13.83350006529812 0.91188538976780531 -0.26737159620994938 21.025650978088382 0.39117599459011421
decision_type=2 2 2 2 2 2 2 2 2 2 2 2 2
left_child=1 3 8 -1 5 -5 -2 -8 -3 -10 -9 -12 -13
right_child=6 2 -4 4 -6 -7 7 10 9 -11 11 12 -14
leaf_value=0.065649010996255253 -0.015699112169247884 0.062188854765407774 -0.033037116788444496 -0.031070004983984031 0.056675813672229333 0.048529808874661656 -0.012510784842896926 0.068013310843894573 -0.028050970064738525 0.062191289649274152 0.06394396766567513 0.062993710547646548 0.036150476903364308
leaf_weight=66.916172839701176 0.61159589886665244 4.5329885929822913 29.724541433155537 6.2315112352371234 9.7935955971479398 5.0671503394842148 0.71580597013234992 197.19396778941154 4.5931927189230901 4.5102702975273132 67.12717379629612 24.068626970052719 25.62320664525032
leaf_count=44 3 4 298 48 7 4 7 51 44 3 35 16 46
internal_value=0.0558285 0.0351891 -0.0108691 0.0577824 0.0308475 0.00542779 0.0642788 0.064493 0.0362032 0.0180924 0.0647172 0.0585978 0.0501976
internal_weight=446.71 131.369 43.361 88.0084 21.0923 11.2987 315.34 314.729 13.6365 9.10346 314.013 116.819 49.6918
internal_count=610 452 349 103 59 52 158 155 51 47 148 97 62
is_linear=0
shrinkage=0.03


Tree=15
num_leaves=8
num_cat=0
split_feature=99 35 33 60 68 52 76
split_gain=89.6341 64.3886 41.2873 111.56 39.5054 6.30175 1.52638
threshold=7.5000000000000009 0.73561529332712527 0.48638290490404351 0.96517975331594308 3.4917548620533698 13.661667022093441 1.5418758480325645
decision_type=2 2 2 2 2 2 2
left_child=2 -2 3 6 5 -5 -1
right_child=1 -3 -4 4 -6 -7 -8
leaf_value=0.050291945318787688 -0.032305082329140242 0.06160610828990281 0.063162333665867751 0.057101385788929683 -0.032190345836280734 0.014440114917596421 0.065842588443079691
leaf_weight=38.644394010305405 17.74518504738808 9.1163368225097638 304.2094741165638 4.7676330953836432 19.268721073865891 9.5580540001392347 46.469925969839096
leaf_count=51 178 2 122 4 200 38 15
internal_value=0.0538025 0.000526296 0.05717 0.0413895 -0.00475966 0.0316331 0.059483
internal_weight=449.78 26.8615 422.918 118.709 33.5944 14.3257 85.1143
internal_count=610 180 430 308 242 42 66
is_linear=0
shrinkage=0.03


Tree=16
num_leaves=12
num_cat=0
split_feature=99 4 4 72 26 90 40 90 4 77 4
split_gain=82.1934 61.1338 38.2366 80.4658 39.1668 12.4336 19.2231 27.6195 3.65628 9.29848 27.4988
threshold=7.5000000000000009 -0.5010437710879444 -0.23267893591572383 56.573763003166 -0.002504969442767522 0.038506339255692378 -1.9114708562816281 0.62263142197698274 -0.39534173004085088 1.0900000000000001 -0.27766542032691321
decision_type=2 2 2 2 2 2 2 2 2 2 2
left_child=2 -2 8 4 -4 -5 7 -7 -1 10 -10
right_child=1 -3 3 5 -6 6 -8 -9 9 -11 -12
leaf_value=0.063052090198724944 0.059565126211030751 -0.032133352385962953 0.058865726217770267 0.060300960026010389 -0.032386011973022238 -0.032063043888955964 0.059846284869336054 0.054647782375006809 0 0.060502761198755008 0.055507057776064843
leaf_weight=228.16994662582874 9.1790924072265643 17.316643685102463 4.4921307563781765 54.187716588377953 17.626457966864109 7.1084526404738444 9.4841696918010694 4.578669548034668 11.607591927051542 62.872616112232208 25.385073199868202
leaf_count=59 2 178 1 40 184 53 5 1 37 29 21
internal_value=0.0519412 0.00053622 0.0551263 0.0378081 -0.011979 0.0524259 0.0303238 0.003301 0.0601328 0.0528742 0.0385785
internal_weight=452.009 26.4957 425.513 97.4776 22.1186 75.359 21.1713 11.6871 328.035 99.8653 36.9927
internal_count=610 180 430 284 185 99 59 54 146 87 58
is_linear=0
shrinkage=0.03


Tree=17
num_leaves=11
num_cat=0
split_feature=99 27 83 44 35 75 61 42 42 58
split_gain=75.7146 58.1251 40.031 46.5842 18.4754 32.2197 31.7975 19.3721 85.1471 1.8544
threshold=7.5000000000000009 0.046740633074918769 1.4567910447761196 -0.29345352597269042 0.43897004552459934 3.0367593848937138 0.82761134609886944 -0.01388141526517561 0.053251892775236238 -6.4188524055351417
decision_type=2 2 2 2 2 2 2 2 2 2
left_child=2 -2 3 -1 5 7 -7 -4 -9 -6
right_child=1 -3 4 -5 9 6 -8 8 -10 -11
leaf_value=0.055985707472040493 -0.031965186823334588 0.057696855611557275 0.057904682725890159 -0.032885566044899631 -0.0040359417231189184 0.056800842610480691 -0.034341275195248155 -0.033338049485837185 0.058550100178085963 0.06051453126886424
leaf_weight=9.2514200210571307 16.897116340696815 9.2236785888671857 93.971633896231651 10.031425476074217 0.19261285662650962 4.5381689071655265 8.1151817739009839 12.087683312594889 29.636762164533138 259.27682827413082
leaf_count=2 178 2 63 88 1 1 64 108 25 78
internal_value=0.0502683 0.000545317 0.0532939 0.0102628 0.0552911 0.0459213 0 0.0501607 0.0317024 0.0604398
internal_weight=453.223 26.1208 427.102 19.2828 407.819 148.349 12.6534 135.696 41.7244 259.469
internal_count=610 180 430 90 340 261 65 196 133 79
is_linear=0
shrinkage=0.03


Tree=18
num_leaves=10
num_cat=0
split_feature=99 27 83 63 35 73 6 90 94
split_gain=69.9215 55.335 36.7984 44.2902 17.4664 29.7849 96.9502 3.0653 14.6388
threshold=7.5000000000000009 0.046740633074918769 1.4567910447761196 -0.22717355450499102 0.43897004552459934 56.615000000000002 -0.18682550933168904 0.018559916874695926 0.83062500000000006
decision_type=2 2 2 2 2 2 2 2 2
left_child=2 -2 3 -1 5 6 -4 -7 -9
right_child=1 -3 4 -5 -6 7 -8 8 -10
leaf_value=0.05440306817093217 -0.031800380069201072 0.055980435482340503 0.052586107264058664 -0.032646963333977319 0.058503031776785022 0.06092972558092391 -0.033949861242525275 0.025478538574845597 0.06175372587801424
leaf_weight=9.2637987136840838 16.486535891890529 9.2514839172363263 35.424757808446884 9.812225438654421 260.036960542202 52.097494810819626 16.269391983747482 21.622456260025501 23.418684616684914
leaf_count=2 178 2 22 88 79 20 156 54 9
internal_value=0.0487203 0.00055367 0.0516022 0.0100815 0.0535027 0.0444141 0.0251668 0.0542656 0.0453362
internal_weight=453.684 25.738 427.946 19.076 408.87 148.833 51.6941 97.1386 45.0411
internal_count=610 180 430 90 340 261 178 83 63
is_linear=0
shrinkage=0.03


Tree=19
num_leaves=11
num_cat=0
split_feature=99 27 83 4 4 73 28 57 57 0
split_gain=64.7593 52.7401 33.9374 42.1594 18.4584 59.6886 32.2207 2.63134 6.80075 0.297167
threshold=7.5000000000000009 0.046740633074918769 1.4567910447761196 -0.38344192750525619 -0.23267893591572383 56.615000000000002 -0.095540365253049278 0.056664862957603583 -0.18655887291674397 30.931868553161625
decision_type=2 2 2 2 2 2 2 2 2 2
left_child=2 -2 3 -1 9 6 -6 8 -7 -4
right_child=1 -3 4 -5 5 7 -8 -9 -10 -11
leaf_value=0.052939589411746639 -0.031638735845929383 0.054398204488036575 0.056780175932219991 -0.032412971034389539 0.052003505064833318 0.054929913373632476 -0.032125837606353874 0.057028324354074726 0.023080399585494557 0.047681752314110815
leaf_weight=9.2619314193725604 16.084826059639457 9.2638149261474592 265.59206157922745 9.5970452129840833 4.6902677044272449 14.231754899024965 13.677920483052729 44.033270910382271 14.948052212595938 52.080115988850594
leaf_count=2 178 2 87 88 2 5 144 25 40 37
internal_value=0.0472977 0.00056135 0.0500503 0.00990891 0.0518641 0.0389205 -0.00891289 0.0509201 0.040019 0.0554523
internal_weight=453.461 25.3486 428.112 18.859 409.253 91.5813 18.3682 73.2131 29.1798 317.672
internal_count=610 180 430 90 340 216 146 70 45 124
is_linear=0
shrinkage=0.03


Tree=20
num_leaves=10
num_cat=0
split_feature=99 27 33 60 40 68 76 76 4
split_gain=60.1032 50.3204 30.1515 82.8998 31.5306 26.0248 1.81571 0.483895 0.145925
threshold=7.5000000000000009 0.046740633074918769 0.48638290490404351 0.96517975331594308 -2.2281258803052926 3.4917548620533698 1.5418758480325645 1.1664450474898238 -0.38638300995643782
decision_type=2 2 2 2 2 2 2 2 2
left_child=2 -2 3 6 -5 -6 7 -1 -4
right_child=1 -3 8 4 5 -7 -8 -9 -10
leaf_value=0.033146077315882955 -0.03148006937713644 0.052935081696883358 0.055679048115934875 -0.032425546930625625 0.050678050302517687 -0.027747514401756612 0.056130147073707171 0.048314687298513383 0.048563012512360483
leaf_weight=19.394066601991653 15.691900976002218 9.261903762817381 214.48934723436832 17.31315279006958 10.298508048057554 4.9114917889237395 47.487902015447617 20.386216066777706 93.481763936579227
leaf_count=36 178 2 54 180 9 53 15 15 68
internal_value=0.0459735 0.000568414 0.0486078 0.0351733 -0.00552624 0.0250189 0.050266 0.0419872 0.0536929
internal_weight=452.716 24.9538 427.762 119.791 32.5232 15.21 87.2682 39.7803 307.971
internal_count=610 180 430 308 242 62 66 51 122
is_linear=0
shrinkage=0.03


Tree=21
num_leaves=11
num_cat=0
split_feature=99 35 35 76 68 61 57 94 40 58
split_gain=55.8996 48.0585 28.3593 34.0272 72.4766 63.5615 5.54122 15.7132 4.93034 1.63951
threshold=7.5000000000000009 0.73561529332712527 0.43897004552459934 1.4469293239683936 3.4917548620533698 0.8139767944928864 0.19264624104181435 0.25875000000000009 -3.758505215055695 -6.4188524055351417
decision_type=2 2 2 2 2 2 2 2 2 2
left_child=2 -2 3 4 6 -6 7 -1 -4 -10
right_child=1 -3 8 -5 5 -7 -8 -9 9 -11
leaf_value=0.052957062797123346 -0.031324201325398281 0.051578162880739166 -0.015386877415604149 0.051450637106665628 0.052005279115399983 -0.035157038136193954 0.057530873010148753 0.0050485431131520597 -0.0043616426609879196 0.053597263471451252
leaf_weight=14.500772148370745 15.307669021189215 9.2469053268432599 0.47202767431735893 73.783383019268513 9.6130360811948758 24.979851923882961 23.67754802107811 10.855577088892458 0.19907349348068137 268.76181153953075
leaf_count=7 178 2 2 43 4 240 9 41 1 83
internal_value=0.0447415 0.00057492 0.047268 0.0365864 0.0229834 -0.0100706 0.0460977 0.03353 0.053339 0.0535273
internal_weight=451.398 24.5546 426.843 157.41 83.6268 34.5929 49.0339 25.3563 269.433 268.961
internal_count=610 180 430 344 301 244 57 48 86 84
is_linear=0
shrinkage=0.03


Tree=22
num_leaves=10
num_cat=0
split_feature=99 4 35 75 61 42 42 40 58
split_gain=52.1356 45.9395 26.76 44.6202 55.5896 20.2643 56.2492 4.73905 1.57712
threshold=7.5000000000000009 -0.5010437710879444 0.43897004552459934 2.9419293239683939 0.8139767944928864 -0.01388141526517561 0.053251892775236238 -3.758505215055695 -6.4188524055351417
decision_type=2 2 2 2 2 2 2 2 2
left_child=2 -2 3 5 -5 -1 -7 -4 -9
right_child=1 -3 7 4 -6 6 -8 8 -10
leaf_value=0.049997823236362593 0.050316279546326809 -0.031170959479520945 -0.015249358505487738 0.053874771135483029 -0.034840221941872911 -0.033028842448381529 0.045752573252185576 -0.0043413604531833908 0.052206449719926079
leaf_weight=94.667847029864788 9.2199068069458026 14.93203169107437 0.47102896869182487 9.2617139816284197 15.700858160853384 10.710804663598536 26.535902306437492 0.19868123531341453 267.68639269471169
leaf_count=60 2 178 2 2 145 100 37 1 83
internal_value=0.0436101 0.000580908 0.0460399 0.035643 -0.00100199 0.0425554 0.0227482 0.0519518 0.0521374
internal_weight=449.385 24.1519 425.233 156.877 24.9626 131.915 37.2467 268.356 267.885
internal_count=610 180 430 344 147 197 137 86 84
is_linear=0
shrinkage=0.03


Tree=23
num_leaves=9
num_cat=0
split_feature=99 31 33 60 39 36 76 44
split_gain=48.6748 43.9503 25.4284 69.8221 42.8735 2.84193 8.48277 0.33134
threshold=7.5000000000000009 0.74910473689237944 0.48638290490404351 0.96517975331594308 0.91371385099862967 0.86872796793159635 1.4469293239683936 -0.3111322488571398
decision_type=2 2 2 2 2 2 2 2
left_child=2 -2 3 5 -5 -1 -7 -4
right_child=1 -3 7 4 -6 6 -8 -9
leaf_value=0.052508299847249376 -0.031020181218734205 0.049139780057608634 0.052136979756732406 0.037145613984979592 -0.032464898860117448 0.018379222562222745 0.048691587208215474 0.045771846072254034
leaf_weight=47.150151938199997 14.564883857965471 9.1819257736206037 173.97234453260899 11.998122543096544 19.553509026765823 15.722524821758268 24.165793836116791 130.69704048335552
leaf_count=15 178 2 42 29 213 41 10 80
internal_value=0.0425365 0.000586422 0.0448761 0.0324655 -0.00557405 0.0461956 0.0375586 0.049575
internal_weight=447.006 23.7468 423.259 118.59 31.5516 87.0385 39.8883 304.669
internal_count=610 180 430 308 242 66 51 122
is_linear=0
shrinkage=0.03


Tree=24
num_leaves=11
num_cat=0
split_feature=99 27 35 75 64 2 54 60 25 58
split_gain=45.5182 42.0795 24.5976 40.2621 49.8478 18.5774 17.9723 12.0101 1.99271 1.51297
threshold=7.5000000000000009 0.046740633074918769 0.43897004552459934 2.9419293239683939 -0.29809993937164658 0.83319654771652185 -0.2722801462871583 0.95485340012015618 0.36265273653578706 -6.4188524055351417
decision_type=2 2 2 2 2 2 2 2 2 2
left_child=2 -2 3 5 -5 -1 -7 -8 -4 -10
right_child=1 -3 8 4 -6 6 7 -9 9 -11
leaf_value=-0.026958227062535246 -0.030871710884026436 0.048040229685485367 -0.0069662051352594023 0.049349697837940153 -0.034750457793253392 -0.031576225751420439 0.05086118099367435 0.02993883939437916 -0.0045353135807782554 0.0496485930586286
leaf_weight=2.9103481844067565 14.206115521490576 9.1339178085327131 0.23730090260505576 9.5066562071442622 15.000349491834639 2.2044765651226035 80.624553859233856 45.446316257119179 0.20237645506858726 264.83254684507847
leaf_count=23 178 2 1 4 143 11 30 133 1 84
internal_value=0.0415299 0.000591492 0.0437858 0.0337919 -0.00135332 0.0403407 0.0420876 0.0436376 0.0494912 0.0495791
internal_weight=444.305 23.34 420.965 155.693 24.507 131.186 128.275 126.071 265.272 265.035
internal_count=610 180 430 344 147 197 174 163 86 85
is_linear=0
shrinkage=0.03


Tree=25
num_leaves=12
num_cat=0
split_feature=99 31 4 74 4 34 4 61 61 79 0
split_gain=42.5817 40.3169 24.154 52.9108 17.2738 8.09178 4.36592 17.5797 17.0768 16.5214 2.562
threshold=7.5000000000000009 0.74910473689237944 -0.23267893591572383 53.788910427807494 -0.23219285021401673 0.23776344628659243 -0.39534173004085088 0.99570937998396214 0.96934943197879819 0.43085933966530987 35.426275253295906
decision_type=2 2 2 2 2 2 2 2 2 2 2
left_child=2 -2 6 -4 -5 -6 -1 8 9 -8 -7
right_child=1 -3 3 4 5 10 7 -9 -10 -11 -12
leaf_value=0.049588144358252123 -0.030725398364866041 0.047010252722177098 -0.031158740241461411 -0.02506929651307075 0.010169052933250383 0.04754355332271825 -0.040115055647804689 0.046789510829621496 0.04246200909218005 0.024331916384080731 0.031385868737750837
leaf_weight=222.23895709216595 13.855612471699716 9.0767774581909162 10.8687886595726 3.1903201788663855 8.6125606596469861 49.49720062315464 6.1111815869808215 77.447114437818527 10.225573703646658 6.2233363091945648 24.008655071258545
leaf_count=59 178 2 133 35 35 38 32 37 8 10 43
internal_value=0.0405613 0.000596148 0.0427379 0.028902 0.0368611 0.0395759 0.0467559 0.0400036 0.0155837 -0.00798738 0.0427984
internal_weight=441.356 22.9324 418.424 96.1775 85.3087 82.1184 322.246 100.007 22.5601 12.3345 73.5059
internal_count=610 180 430 284 151 116 146 87 50 42 81
is_linear=0
shrinkage=0.03


Tree=26
num_leaves=13
num_cat=0
split_feature=99 4 4 103 36 60 4 61 65 76 64 2
split_gain=39.9067 38.6537 23.3255 52.5182 16.0311 34.8118 4.36515 16.6551 19.9774 18.7198 2.63659 6.97559
threshold=7.5000000000000009 -0.5010437710879444 -0.23267893591572383 0.023953421452680205 0.94501696972639648 1.117893863456338 -0.39534173004085088 0.99570937998396214 -0.25063641300612194 1.1664450474898238 -0.077538315263957477 1.1561390764687209
decision_type=2 2 2 2 2 2 2 2 2 2 2 2
left_child=2 -2 6 4 10 -6 -1 8 9 -8 -4 -12
right_child=1 -3 3 -5 5 -7 7 -9 -10 -11 11 -13
leaf_value=0.048557335344762823 0.046043370273978423 -0.030581098593724626 0.049218581611400018 -0.030909006225451945 -0.031403590384844381 0.048081015103822775 -0.03924273670293317 0.045646971693868429 0.045673010420542885 0.028604007912195844 0.016269704746046731 0.047671928971048314
leaf_weight=220.19994315505028 9.0113401412963885 13.513256162405012 38.285576067864895 11.131299987435339 8.5978185087442398 9.2868468761444092 7.1628855764865893 77.035202264785767 9.6602973192930204 5.654152974486351 14.418586261570455 14.094554878771303
leaf_count=59 2 178 17 142 80 3 39 37 5 6 36 6
internal_value=0.0396564 0.000600415 0.0417598 0.0281492 0.0362173 0.0100715 0.0457289 0.0390196 0.0152014 -0.00919144 0.0429215 0.0329834
internal_weight=438.052 22.5246 415.527 95.8147 84.6834 17.8847 319.712 99.5125 22.4773 12.817 66.7987 28.5131
internal_count=610 180 430 284 142 83 146 87 50 45 59 42
is_linear=0
shrinkage=0.03


Tree=27
num_leaves=13
num_cat=0
split_feature=99 27 4 103 90 55 4 65 80 48 39 52
split_gain=37.5222 37.0818 22.2324 49.9191 17.5271 29.6801 4.33488 10.8982 10.2093 10.6204 2.65816 7.74676
threshold=7.5000000000000009 0.046740633074918769 -0.23267893591572383 0.023953421452680205 0.049939818224454507 1.0622300060145091 -0.39534173004085088 -0.25063641300612194 0.26014260249554372 0.14628742847602177 0.93458413484571667 8.6554417144411619
decision_type=2 2 2 2 2 2 2 2 2 2 2 2
left_child=2 -2 6 4 10 -6 -1 8 -8 -10 -4 -12
right_child=1 -3 3 -5 5 -7 7 -9 9 -11 11 -13
leaf_value=0.047593617395504308 -0.03043867464210669 0.045133856250318467 0.048483368741612153 -0.030742890013117807 -0.033223927387079293 0.041434850692370989 0.039853299622626598 0.048028041796746773 0.030636990522652296 -0.0084943258799464062 0.048247678532745086 0.015393715100264497
leaf_weight=217.97274616360664 13.17892410233617 8.9383897781372053 38.580273494124413 10.86513279378414 7.7940082848072079 9.5420281216502172 24.689469993114471 51.07941934466362 11.583632633090021 11.540310576558111 13.545433044433596 14.778555952012537
leaf_count=59 178 2 20 142 66 7 14 20 18 35 3 46
internal_value=0.0388388 0.000604318 0.0408777 0.0275377 0.0353623 0.00772445 0.044773 0.0381117 0.0266897 0.011441 0.0422604 0.0323174
internal_weight=434.088 22.1173 411.971 95.1054 84.2403 17.336 316.866 98.8928 47.8134 23.1239 66.9043 28.324
internal_count=610 180 430 284 142 73 146 87 67 53 69 49
is_linear=0
shrinkage=0.03


Tree=28
num_leaves=12
num_cat=0
split_feature=35 74 83 75 64 107 90 33 4 50 50
split_gain=36.7835 43.3343 43.0662 18.4424 37.5674 9.9472 14.5904 5.68915 0.720689 0.792157 0.32625
threshold=0.43897004552459934 49.474029850746277 1.4567910447761196 2.9890728177295345 -0.32567574459931375 1.3814046824433659 0.025361125880140882 0.30414258762592739 -0.49088167148593659 48.381248588921103 55.971013166599349
decision_type=2 2 2 2 2 2 2 2 2 2 2
left_child=1 -1 -3 5 -5 7 -7 -4 -2 -10 -11
right_child=8 2 3 4 -6 6 -8 -9 9 10 -12
leaf_value=-0.031980763842426423 0.047480842031523189 -0.03018745080581637 0.020976523863738251 0.046771571534501719 -0.0341216652797693 0.044521275683484379 -0.0044788837287454688 0.045163730063527072 0.044652656422491437 0.027955818284909104 0.039760317320786019
leaf_weight=9.8590350486338121 160.84643824398518 9.1016288734972459 13.082957081496714 9.2389043755829352 9.4305416308343393 9.0018234550952929 11.492217268794773 91.797951951622963 59.903927125036716 22.611017547547817 23.690161764621735
leaf_count=123 38 110 32 4 99 3 62 69 28 29 13
internal_value=0.0380495 0.0264846 0.030451 0.0344849 0.00609993 0.0386062 0.0179744 0.0424015 0.0449723 0.0407376 0.0347719
internal_weight=430.057 163.005 153.146 144.044 18.6694 125.375 20.494 104.881 267.052 106.205 46.3012
internal_count=610 502 379 269 103 166 65 101 108 70 42
is_linear=0
shrinkage=0.03


Tree=29
num_leaves=10
num_cat=0
split_feature=35 78 83 54 38 34 4 50 50
split_gain=35.3614 42.1421 41.1509 18.1155 13.6624 43.0206 0.8358 0.789179 0.350324
threshold=0.43897004552459934 2.1515999547715969 1.4567910447761196 -0.2722801462871583 -0.046084154672602261 0.30999240321072108 -0.49088167148593659 48.381248588921103 55.971013166599349
decision_type=2 2 2 2 2 2 2 2 2
left_child=1 -1 -3 -4 -5 -6 -2 -8 -9
right_child=6 2 3 4 5 -7 7 8 -10
leaf_value=-0.030641053682372969 0.04664622649210938 -0.030012696762789483 -0.034121026585363749 0.043557057364128508 -0.033375336486884406 0.034615205994406185 0.043723400169876851 0.027225493156887111 0.038926888806365689
leaf_weight=10.253742612898348 158.86049760878086 8.8890252076089364 2.6590097993612281 80.961670812219381 9.1555427163839322 49.82781882211566 59.371048465371132 22.548797063529491 23.495798110961914
leaf_count=134 38 110 14 59 86 99 28 29 13
internal_value=0.0372771 0.0258992 0.0299216 0.0338614 0.0354073 0.0236311 0.0441057 0.0398466 0.0339608
internal_weight=426.023 161.747 151.493 142.604 139.945 58.9834 264.276 105.416 46.0446
internal_count=610 502 368 258 244 185 108 70 42
is_linear=0
shrinkage=0.03


Tree=30
num_leaves=9
num_cat=0
split_feature=35 78 83 54 38 66 59 42
split_gain=34.1806 40.0899 39.0751 17.2982 13.0977 40.9674 0.811185 0.05633
threshold=0.43897004552459934 2.1515999547715969 1.4567910447761196 -0.2722801462871583 -0.046084154672602261 0.028661412598925153 0.99647688277169488 -0.080295960300744193
decision_type=2 2 2 2 2 2 2 2
left_child=1 -1 -3 -4 7 -6 -2 -5
right_child=6 2 3 4 5 -7 -8 -9
leaf_value=-0.030473131118558278 0.044691866856942826 -0.029839953292016965 -0.033632947704973506 0.033501199043118587 -0.032697397618383486 0.033747966304735567 0.036254144449060409 0.044991832805200353
leaf_weight=10.010134145617483 212.99292433261871 8.6812025718390924 2.6315962858498088 20.40676000341773 9.1257549747824651 49.636924490332603 48.356118492782116 59.998193148523569
leaf_count=134 73 110 14 24 92 93 35 35
internal_value=0.0365291 0.025307 0.029214 0.0330341 0.0345471 0.0230044 0.0432863 0.0425597
internal_weight=421.84 160.491 150.48 141.799 139.168 58.7627 261.349 80.405
internal_count=610 502 368 258 244 185 108 59
is_linear=0
shrinkage=0.03


Tree=31
num_leaves=9
num_cat=0
split_feature=4 45 103 4 90 2 34 87
split_gain=33.3821 59.0627 36.5318 37.0027 18.6677 36.6295 7.42181 1.36152
threshold=-0.39534173004085088 -0.12910626126319188 0.023953421452680205 -0.26300431401027341 0.049939818224454507 1.1112223942720811 0.24155995979304409 1.0000000180025095e-35
decision_type=2 2 2 2 2 2 2 2
left_child=-1 -2 4 -4 6 -6 -3 -8
right_child=1 2 3 -5 5 -7 7 -9
leaf_value=0.044038162908298234 -0.03934102892567732 0.010541128171343291 0.031464697641111074 -0.032576625600734321 -0.034683064650422944 0.035962697273221725 0.045588013497626548 0.033784791246529659
leaf_weight=217.42100530862808 10.651462584733961 7.7776289246976367 15.783209007233379 14.728525228798391 8.7911969907581824 19.48566010966897 91.929591473191977 30.917198371142149
leaf_count=72 81 28 20 212 76 20 50 51
internal_value=0.0358116 0.0266818 0.0305974 0.000402908 0.0363377 0.0134622 0.041127 0.0429385
internal_weight=417.485 200.064 189.413 30.5117 158.901 28.2769 130.624 122.847
internal_count=610 538 457 232 225 96 129 101
is_linear=0
shrinkage=0.03


Tree=32
num_leaves=11
num_cat=0
split_feature=4 103 76 61 90 56 30 1 34 70
split_gain=32.3703 48.4482 33.5497 32.5884 17.5992 36.7241 10.1362 15.0609 3.98203 1.69843
threshold=-0.39534173004085088 0.023953421452680205 1.1053844414292178 0.96934943197879819 0.049939818224454507 2.7071537856525958 -0.48391392005589301 0.8600052460153208 0.25604852713111254 16.156827260755051
decision_type=2 2 2 2 2 2 2 2 2 2
left_child=-1 3 -3 -2 8 -6 -4 -8 -5 -10
right_child=1 2 6 4 5 -7 7 -9 9 -11
leaf_value=0.043313321640370758 -0.035059185688223554 -0.035766432345402326 0.042466510408780661 0.020899816581812392 -0.035048128952975842 0.03590542504288325 -0.031055368011808821 0.037280226387320002 0.04492689995626007 0.032632460805519507
leaf_weight=214.48881204426289 5.3089744932949534 16.483358219265938 9.0224920175969618 12.562284674495457 8.7567055113613623 19.239705048501492 5.4760679528117162 4.2593197822570801 86.259034261107445 30.87531790137291
leaf_count=72 35 202 5 33 79 17 70 1 45 51
internal_value=0.035149 0.0261275 -0.00556673 0.0329903 0.0355066 0.0131658 0.0212863 -0.000190775 0.0401686 0.0420153
internal_weight=412.732 198.243 35.2412 163.002 157.693 27.9964 18.7579 9.73539 129.697 117.134
internal_count=610 538 278 260 225 96 76 71 129 96
is_linear=0
shrinkage=0.03


Tree=33
num_leaves=10
num_cat=0
split_feature=35 99 75 61 6 5 94 4 65
split_gain=31.5768 36.1426 28.2155 39.9843 14.3672 36.692 10.3401 1.235 1.99527
threshold=0.43897004552459934 7.5000000000000009 2.9419293239683939 0.8139767944928864 -0.01419624830142424 0.021437948622781814 0.32000000000000012 -0.49088167148593659 -0.47247844212113238
decision_type=2 2 2 2 2 2 2 2 2
left_child=1 2 4 -4 -1 -6 -7 -2 -9
right_child=7 -3 3 -5 5 6 -8 8 -10
leaf_value=0.041703706314592526 0.043837566937483918 -0.029252088022109973 0.043646617863757814 -0.034661569109033001 -0.034441297140744433 0.042181412907403674 0.010550430876256992 0.027495163960218425 0.040036641650284199
leaf_weight=72.369735356420279 150.23571962118149 10.018538672477005 8.7926874160766619 13.634841550141571 8.333247594535349 27.441408414393663 15.504607677459715 29.057802133262157 72.353395633399487
leaf_count=40 38 158 2 145 80 21 56 29 41
internal_value=0.0345256 0.0236163 0.0274369 -0.00328028 0.0330141 0.02013 0.03133 0.0411605 0.0367759
internal_weight=407.742 156.095 146.077 22.4275 123.649 51.2793 42.946 251.647 101.411
internal_count=610 502 344 147 197 157 77 108 70
is_linear=0
shrinkage=0.03


Tree=34
num_leaves=9
num_cat=0
split_feature=4 45 103 4 90 56 90 102
split_gain=30.7534 53.5428 31.4128 33.1036 16.2422 35.0481 3.40319 14.3958
threshold=-0.39534173004085088 -0.12910626126319188 0.023953421452680205 -0.26300431401027341 0.049939818224454507 2.7071537856525958 0.010481857124605271 0.76388888888888895
decision_type=2 2 2 2 2 2 2 2
left_child=-1 -2 4 -4 6 -6 -3 -8
right_child=1 2 3 -5 5 -7 7 -9
leaf_value=0.042017699909598687 -0.038871657711459721 0.042428508172905784 0.029616099321563307 -0.032306233915195916 -0.035002270673936013 0.034959049318079478 0.040029771693789268 -0.00064678508195280943
leaf_weight=208.42017309367657 10.260097045451401 88.614102274179459 15.381244596093891 13.77995663136244 8.5818627662956732 18.831887908279896 28.325092136859894 10.443717878311871
leaf_count=72 81 44 20 212 79 17 24 61
internal_value=0.0339311 0.0250671 0.0288403 0.00015463 0.0341893 0.012491 0.0387019 0.029256
internal_weight=402.638 194.218 183.958 29.1612 154.797 27.4138 127.383 38.7688
internal_count=610 538 457 232 225 96 129 85
is_linear=0
shrinkage=0.03


Tree=35
num_leaves=9
num_cat=0
split_feature=4 45 99 90 2 64 36 72
split_gain=29.8422 51.1824 35.2017 20.4424 47.5746 6.1579 10.6005 3.45152
threshold=-0.39534173004085088 -0.12910626126319188 7.5000000000000009 0.049939818224454507 1.1112223942720811 -0.16973151913454002 1.1902638057785033 56.573763003166
decision_type=2 2 2 2 2 2 2 2
left_child=-1 -2 3 5 -5 6 -3 -7
right_child=1 2 -4 4 -6 7 -8 -9
leaf_value=0.041396953564320486 -0.038474569587369806 -0.0031052017502449574 -0.028833166077651091 -0.035717651888687335 0.035025948730919097 0.027010009801862429 0.04100478124847285 0.042077676318158327
leaf_weight=205.26188167929649 10.068238649517296 9.7086646668612975 8.4398099146783334 12.16761878505349 23.500277262181044 26.61116973683238 8.4257459640502912 93.171316936612129
leaf_count=72 81 52 134 130 28 66 2 45
internal_value=0.0333621 0.024591 0.0282868 0.0312305 0.010495 0.0364573 0.0183046 0.0390064
internal_weight=397.355 192.093 182.025 173.585 35.6679 137.917 18.1344 119.782
internal_count=610 538 457 323 158 165 54 111
is_linear=0
shrinkage=0.03


Tree=36
num_leaves=11
num_cat=0
split_feature=99 31 44 90 84 61 61 40 36 56
split_gain=28.3383 27.8158 16.0117 21.7588 34.2284 20.8725 20.1044 15.6202 5.21452 8.729
threshold=7.5000000000000009 0.74910473689237944 -0.24904297714365201 0.049939818224454507 0.2082778046442452 0.7689642627887765 0.99378016711652906 -1.857724923028252 0.94501696972639648 2.8351333640003946
decision_type=2 2 2 2 2 2 2 2 2 2
left_child=2 -2 -1 6 5 -5 7 -4 -8 -10
right_child=1 -3 3 4 -6 -7 8 -9 9 -11
leaf_value=0.041049612596023112 -0.030171885992219604 0.038572225529264495 -0.038257445736724488 0.034173122844287571 0.032767649696332231 -0.036849083831126381 0.040163311190134728 0.031074346190897478 0 0.033903256222803463
leaf_weight=186.62160439789295 11.883774276822807 7.9917492866516104 5.429190207272768 3.9699513912200954 22.658450212329626 14.816263392567633 101.30145581811666 4.3693205378949624 9.3765102066099626 23.667076531797647
leaf_count=62 178 2 40 1 23 152 70 4 53 25
internal_value=0.0328075 -0.00186323 0.0346669 0.028047 0.00853478 -0.0207203 0.0335391 -0.00704877 0.0365518 0.0245373
internal_weight=392.085 19.8755 372.21 185.588 41.4447 18.7862 144.144 9.79851 134.345 33.0436
internal_count=610 180 430 368 176 153 192 44 148 78
is_linear=0
shrinkage=0.03


Tree=37
num_leaves=12
num_cat=0
split_feature=4 74 98 90 98 58 76 57 68 76 76
split_gain=28.4492 37.7778 32.6858 17.3468 46.4763 22.7244 5.19122 21.963 0.533178 4.33378 4.01058
threshold=-0.39534173004085088 50.062313432835829 1.5000000000000002 0.010481857124605271 8.5000000000000018 -5.6929860078656276 1.1664450474898238 0.62014610917683333 3.4917548620533698 1.4469293239683936 1.3579411764705884
decision_type=2 2 2 2 2 2 2 2 2 2 2
left_child=-1 2 -2 8 5 -5 7 -6 -3 10 -10
right_child=1 3 -4 4 6 -7 -8 -9 9 -11 -12
leaf_value=0.040276144833005456 0.032252420582660285 0.042367799914075709 -0.037227685833329166 0.035308001036881212 -0.030414820470384706 -0.035208972415267104 0.03790599918176376 0.041839565857885667 0.0025885109024251858 0.040032860796237232 0.031599311280818894
leaf_weight=198.7751652225852 8.8529493957757968 42.605571836233139 15.048926234245299 4.4451371654868153 5.1872450560331336 16.66558800265193 39.981076925992966 8.9131450206041318 8.2865780889987946 28.916797138750553 8.9814661592245102
leaf_count=72 9 16 179 3 53 177 42 4 36 11 8
internal_value=0.0322869 0.0236503 -0.0111109 0.0287718 0.017722 -0.0192997 0.0323159 0.0148061 0.0377944 0.0327033 0.0187456
internal_weight=386.66 187.884 23.9019 163.983 75.1922 21.1107 54.0815 14.1004 88.7904 46.1848 17.268
internal_count=610 538 188 350 279 180 99 57 71 55 44
is_linear=0
shrinkage=0.03


Tree=38
num_leaves=11
num_cat=0
split_feature=4 103 76 90 98 34 34 4 95 76
split_gain=27.4743 37.9002 28.6963 18.3309 43.4352 23.2062 8.04664 13.8599 5.70932 10.1333
threshold=-0.39534173004085088 0.023953421452680205 1.1053844414292178 0.010481857124605271 8.5000000000000018 0.15853127839461004 0.59589194131498535 -0.30281094648723628 0.65937500000000016 1.5418758480325645
decision_type=2 2 2 2 2 2 2 2 2 2
left_child=-1 3 -3 -2 5 -5 7 -4 9 -6
right_child=1 2 6 4 8 -7 -8 -9 -10 -11
leaf_value=0.039737704095451146 0.038755459321682 -0.035282580854972823 0.036233955327264367 0.036947561667326489 -0.0034424701146744253 -0.035917097117426633 0.039546965824192586 -0.030315900007153593 0.042726043822145419 0.036171305381572448
leaf_weight=195.48782581835985 85.463769987225533 14.983215499669312 4.1733503341674805 4.233199596405032 9.412034310400486 15.607215881347654 8.1715350151061994 5.1822193711996096 25.128277234733105 13.064633451402187
leaf_count=72 48 202 1 1 49 144 2 73 9 9
internal_value=0.0318136 0.0232748 -0.00591434 0.0294983 0.0173295 -0.0191997 0.0195788 0 0.0326973 0.0200153
internal_weight=380.907 185.419 32.5103 152.909 67.4454 19.8404 17.5271 9.35557 47.6049 22.4767
internal_count=610 538 278 260 212 145 76 74 67 58
is_linear=0
shrinkage=0.03


Tree=39
num_leaves=9
num_cat=0
split_feature=4 45 99 103 4 90 56 34
split_gain=26.5354 44.4878 29.1048 17.7028 25.1136 12.8108 28.8491 0.957029
threshold=-0.39534173004085088 -0.12910626126319188 7.5000000000000009 0.023953421452680205 -0.26300431401027341 0.049939818224454507 2.7071537856525958 0.39958818341812458
decision_type=2 2 2 2 2 2 2 2
left_child=-1 -2 3 5 -5 7 -7 -3
right_child=1 2 -4 4 -6 6 -8 -9
leaf_value=0.039222611519279825 -0.037487616401851956 0.032518516167552962 -0.028180788328514308 0.028872982040864765 -0.031872785778564283 -0.034226853574577228 0.033086056269385503 0.041599309586885617
leaf_weight=192.17672075331211 9.4884299673140031 60.909143537282944 7.5658820159733287 14.287038765847685 9.2152481190860254 7.3105172440409687 17.644364096224308 56.436721161007881
leaf_count=72 81 70 134 15 139 67 15 17
internal_value=0.0313617 0.0229154 0.0264345 0.0290986 0.00460341 0.033063 0.0126922 0.0372258
internal_weight=375.034 182.857 173.369 165.803 23.5023 142.301 24.9549 117.346
internal_count=610 538 457 323 154 169 82 87
is_linear=0
shrinkage=0.03


Tree=40
num_leaves=11
num_cat=0
split_feature=35 75 61 60 94 58 4 45 32 2
split_gain=26.2943 26.9311 33.9023 17.8986 39.8711 21.3652 1.66536 4.88155 1.98121 0.301053
threshold=0.43897004552459934 2.9419293239683939 0.8139767944928864 0.95240915399168713 0.26281250000000006 3.4035985509444191 -0.49088167148593659 -0.024896196242027737 0.54102047078870641 1.1072926174148241
decision_type=2 2 2 2 2 2 2 2 2 2
left_child=1 3 -3 9 -5 -6 -2 8 -8 -1
right_child=6 2 -4 4 5 -7 7 -9 -10 -11
leaf_value=0.029694142361599674 0.040223210288409021 0.037376359351011738 -0.034219333269512431 0.03570398497246078 -0.033264156704128058 0.035232732427567609 0.012409240383348407 0.037961897740398862 0.029159321722124636 0.039523413788678748
leaf_weight=30.942454498261213 133.4321496039629 8.3808692246675509 15.31349105760455 26.59600392729044 17.057334169745449 4.3774767592549315 15.459125608205797 60.903441049158573 16.315976418554783 40.586805872619152
leaf_count=34 38 5 203 31 208 3 28 30 12 18
internal_value=0.0308967 0.0205514 -0.00828586 0.0263126 0.0117087 -0.0181949 0.0373185 0.0327198 0.0217289 0.0357808
internal_weight=369.365 143.254 23.6944 119.56 48.0308 21.4348 226.111 92.6785 31.7751 71.5293
internal_count=610 502 208 294 242 211 108 70 40 52
is_linear=0
shrinkage=0.03


Tree=41
num_leaves=9
num_cat=0
split_feature=4 45 74 48 46 34 58 107
split_gain=25.3791 41.9548 18.5481 24.8545 14.1072 10.8246 12.8441 5.6747
threshold=-0.39534173004085088 -0.12910626126319188 50.062313432835829 0.26587902250495826 0.31779698580024257 0.23776344628659243 -5.6929860078656276 1.4796500771604941
decision_type=2 2 2 2 2 2 2 2
left_child=-1 -2 3 -3 -4 6 -6 -7
right_child=1 2 4 -5 5 7 -8 -9
leaf_value=0.038299585493189119 -0.037237585820763842 -0.033686435469979036 -0.029959202061415259 0.034028117400576 0.034065996197566985 0.034765915224822634 -0.029930903283883578 0.01512415002043997
leaf_weight=185.63648651540279 9.2419655323028547 9.8174407966434973 2.7741223201155654 7.8793141841888419 4.1833598166704178 120.95084472745657 5.192521855235098 17.994106821715832
leaf_count=72 81 142 27 3 2 135 64 84
internal_value=0.0304648 0.0221105 0.0255778 -0.00316925 0.0289632 0.0302786 -0.000556238 0.0323699
internal_weight=363.67 178.034 168.792 17.6968 151.095 148.321 9.37588 138.945
internal_count=610 538 457 145 312 285 66 219
is_linear=0
shrinkage=0.03


Tree=42
num_leaves=11
num_cat=0
split_feature=35 78 83 54 38 66 4 101 49 38
split_gain=25.0623 26.0852 25.2258 12.5771 10.3921 29.3102 1.82534 4.87578 6.86913 0.311836
threshold=0.43897004552459934 2.1515999547715969 1.4567910447761196 -0.2722801462871583 -0.046084154672602261 0.028661412598925153 -0.49088167148593659 0.64371419419821541 0.48180780629909215 -0.06722254754459446
decision_type=2 2 2 2 2 2 2 2 2 2
left_child=1 -1 -3 -4 9 -6 -2 -8 -9 -5
right_child=6 2 3 4 5 -7 7 8 -10 -11
leaf_value=-0.029505452994509136 0.039394962049664042 -0.02873157169421265 -0.031401226021487698 0.028799418131595714 -0.032700012591041494 0.026635571854383151 0.037737187062853457 0.0074464348095219408 0.034023689802158419 0.038809308744029741
leaf_weight=8.1841584332287294 128.42870102822781 7.1274174824357024 2.4856103919446459 27.545795917510986 8.0616478063166124 44.055409401655197 53.774232603609562 17.455708626657724 18.986742809414864 42.243213206529617
leaf_count=134 38 110 14 36 92 93 23 38 9 23
internal_value=0.0299972 0.0197874 0.0230769 0.0262749 0.0277212 0.016958 0.0363874 0.031688 0.0219123 0.0353634
internal_weight=358.349 139.703 131.519 124.392 121.906 52.1171 218.645 90.2167 36.4425 69.789
internal_count=610 502 368 258 244 185 108 70 47 59
is_linear=0
shrinkage=0.03


Tree=43
num_leaves=11
num_cat=0
split_feature=35 78 75 61 60 54 95 4 45 49
split_gain=24.4552 24.9756 24.5011 29.9837 8.6321 32.0369 4.64368 1.91911 4.84694 5.85342
threshold=0.43897004552459934 2.1515999547715969 2.9419293239683939 0.8139767944928864 0.95240915399168713 0.042138521552981943 0.36375000000000007 -0.49088167148593659 -0.024896196242027737 0.48180780629909215
decision_type=2 2 2 2 2 2 2 2 2 2
left_child=1 -1 4 -4 -3 -6 -7 -2 9 -9
right_child=7 2 3 -5 5 6 -8 8 -10 -11
leaf_value=-0.029342151026253874 0.039002054484704417 0.034951758789333237 0.035833268299122645 -0.034162420322710184 -0.032525457721153284 0.039130251037132822 0.013877455669275861 0.0066130699654371253 0.036474831162860703 0.033245363117738701
leaf_weight=7.9912991374731055 125.87946182489395 68.087081305682659 8.1154580786824244 12.921796411275862 8.4682388566434366 19.909046739339828 12.531340077519415 15.927532210946085 58.408815965056419 14.704043865203856
leaf_count=134 38 46 5 170 82 10 55 33 30 7
internal_value=0.0295568 0.0194205 0.0226412 -0.00662358 0.0283258 0.0166552 0.0301718 0.0359324 0.0311744 0.020139
internal_weight=352.944 138.024 130.033 21.0373 108.996 40.9086 32.4404 214.92 89.0404 30.6316
internal_count=610 502 368 175 193 147 65 108 70 40
is_linear=0
shrinkage=0.03


Tree=44
num_leaves=10
num_cat=0
split_feature=3 75 45 72 55 54 3 42 107
split_gain=20.9674 26.4846 26.9912 15.0627 29.5001 9.21256 9.56688 24.0579 2.25182
threshold=0.045395843250400199 3.0367593848937138 -0.44768142216556284 46.089328358208967 0.95220579418316176 -0.2722801462871583 0.020800652502156857 -0.063966447796601086 1.4796500771604941
decision_type=2 2 2 2 2 2 2 2 2
left_child=1 3 -3 4 -1 -5 7 -7 -8
right_child=-2 2 -4 5 -6 6 8 -9 -10
leaf_value=0.032978627966139769 0.037526656228197966 0.031742532708818431 -0.036812806915223303 -0.027500198718544779 -0.036983011479616024 0.03452850140831859 0.034749467279410681 -0.031337852855260924 0.021012031033925835
leaf_weight=10.992612380534412 153.75502923876047 7.5462926402688053 12.132026400417088 1.7540017589926709 8.899766016751526 11.925613157451155 113.48930393531919 7.1480656452476969 19.625515516847372
leaf_count=8 56 5 140 10 109 6 116 93 67
internal_value=0.0291578 0.0223341 -0.0101143 0.0260613 0.00126251 0.0292176 0.0300661 0.00936346 0.0329183
internal_weight=347.268 193.513 19.6783 173.835 19.8924 153.943 152.188 19.0737 133.115
internal_count=610 554 145 409 117 292 282 99 183
is_linear=0
shrinkage=0.03


Tree=45
num_leaves=10
num_cat=0
split_feature=44 99 75 33 90 75 64 5 64
split_gain=22.6125 29.933 20.3193 27.2369 11.8314 24.682 4.56621 7.44088 0.0467467
threshold=-0.24904297714365201 7.5000000000000009 2.9419293239683939 0.86492314932401626 0.049939818224454507 2.7537946630483949 -0.1673049558778909 -0.076093209281102511 -0.082234553319786088
decision_type=2 2 2 2 2 2 2 2 2
left_child=-1 2 4 -4 6 -6 7 -2 -8
right_child=1 -3 3 -5 5 -7 8 -9 -10
leaf_value=0.036708094243325107 0.035382708272946532 -0.029220756237067651 -0.033668355847712439 0.036356637220944475 0.02530386222928899 -0.033876302969810819 0.037754812629823074 0.0014299438238229206 0.029287473883476443
leaf_weight=167.2092018276453 10.877422735095026 9.242180369794367 11.233210351318123 7.4511220455169669 25.017988853156567 7.414443537592887 61.275193739682436 11.920154776424168 30.116218183189631
leaf_count=75 4 167 142 2 38 72 29 42 39
internal_value=0.02875 0.0209438 0.0239253 -0.00516236 0.0276622 0.0110762 0.03221 0.018562 0.0353442
internal_weight=341.757 174.548 165.306 18.6843 146.621 32.4324 114.189 22.7976 91.3914
internal_count=610 535 368 144 224 110 114 46 68
is_linear=0
shrinkage=0.03


Tree=46
num_leaves=10
num_cat=0
split_feature=4 78 75 90 98 31 38 0 4
split_gain=23.5823 29.3182 31.0602 15.3138 33.2989 17.7444 8.23895 0.800643 1.03022
threshold=-0.39534173004085088 1.9410160427807488 3.0632089552238813 0.010481857124605271 8.5000000000000018 0.13840412042396308 -0.03748878166760463 20.311946868896488 -0.23267893591572383
decision_type=2 2 2 2 2 2 2 2 2
left_child=-1 -2 3 7 5 -5 -6 -3 -9
right_child=1 2 -4 4 6 -7 -8 8 -10
leaf_value=0.036318196431828348 -0.036508596004109585 0.038698638586331761 -0.032314542362535989 0.03075685698318871 0.035083414977458795 -0.03479856355572053 0.0070032616703544822 0.034281736550002578 0.021003662398812489
leaf_weight=169.22143094241619 6.954445492476224 43.440511979162693 7.8554321713745585 4.0311467275023487 35.059389472007751 14.072091046720741 13.90694338083267 22.576999828219414 19.094624575227499
leaf_count=72 90 17 95 6 26 172 76 14 42
internal_value=0.0283631 0.0201158 0.0228065 0.0258637 0.0147311 -0.019198 0.0274682 0.0343286 0.0289026
internal_weight=336.213 166.992 160.037 152.182 67.0696 18.1032 48.9663 85.1121 41.6716
internal_count=610 538 448 353 280 178 102 73 56
is_linear=0
shrinkage=0.03


Tree=47
num_leaves=10
num_cat=0
split_feature=4 78 94 63 38 42 76 34 52
split_gain=22.9736 28.1692 18.5134 28.622 18.3911 23.3748 3.3334 1.71919 5.19846
threshold=-0.39534173004085088 1.9410160427807488 0.26750000000000007 1.0000000180025095e-35 -0.038483550562155626 0.064039519869189557 1.5418758480325645 0.39958818341812458 24.976827256128555
decision_type=2 2 2 2 2 2 2 2 2
left_child=-1 -2 7 4 6 -6 -4 8 -3
right_child=1 2 3 -5 5 -7 -8 -9 -10
leaf_value=0.035936469429229394 -0.03619116931776107 0.0066274723181693708 0.016015286284520328 -0.033211228162379029 -0.034117779065558046 0.028170197946632624 0.035049457233285675 0.035987894836064856 0.034354863685137516
leaf_weight=165.94858936220407 6.8158510178327552 10.939670514315369 16.02595205232501 10.116660360246895 10.598664028570058 9.1781852766871435 30.272192493081093 54.908807713538408 15.758322697132824
leaf_count=72 90 39 58 133 132 28 17 27 14
internal_value=0.0279981 0.0198086 0.022459 0.0115369 0.0188259 -0.00510179 0.0290022 0.0323569 0.0237512
internal_weight=330.563 164.614 157.798 76.1917 66.075 19.7768 46.2981 81.6068 26.698
internal_count=610 538 448 368 235 160 75 80 53
is_linear=0
shrinkage=0.03


Tree=48
num_leaves=9
num_cat=0
split_feature=4 45 103 4 54 34 34 107
split_gain=22.4357 35.7004 18.897 21.683 10.9762 7.29883 10.4319 6.29457
threshold=-0.39534173004085088 -0.12910626126319188 0.023953421452680205 -0.26300431401027341 -0.2722801462871583 0.23776344628659243 0.15853127839461004 1.4796500771604941
decision_type=2 2 2 2 2 2 2 2
left_child=-1 -2 4 -4 -3 6 -6 -7
right_child=1 2 3 -5 5 7 -8 -9
leaf_value=0.035566788036992758 -0.036800910802318426 -0.029768188388497947 0.023578761656025099 -0.031327046522928177 0.032273866918581001 0.032734882258222353 -0.029744644656216696 0.0085906829720409448
leaf_weight=162.70283061265945 8.6545904055237752 2.1438375525176516 13.224804684519766 10.872111210599543 3.7407169342041007 107.68885065615177 4.0306068062782288 11.991289302706717
leaf_count=72 81 12 20 212 1 106 41 65
internal_value=0.0276334 0.0194953 0.0229022 -0.00133542 0.0274076 0.0286169 4.19156e-05 0.0304319
internal_weight=325.05 162.347 153.692 24.0969 129.595 127.451 7.77132 119.68
internal_count=610 538 457 232 225 213 42 171
is_linear=0
shrinkage=0.03


Tree=49
num_leaves=9
num_cat=0
split_feature=4 78 83 94 63 64 0 4
split_gain=22.0358 26.1484 27.701 15.0482 24.5266 15.1692 0.433094 0.0800425
threshold=-0.39534173004085088 1.9410160427807488 1.4567910447761196 0.26750000000000007 1.0000000180025095e-35 -0.13644077343855457 20.311946868896488 -0.49088167148593659
decision_type=2 2 2 2 2 2 2 2
left_child=7 -2 -3 6 5 -5 -4 -1
right_child=1 2 3 4 -6 -7 -8 -9
leaf_value=0.036991840809030861 -0.035706747348006405 -0.031111228303994359 0.037727257941340783 -0.0035790312489617456 -0.033100558020375731 0.029509136723340969 0.028351396190871476 0.030331177685479552
leaf_weight=111.50908371806145 6.5619804039597502 7.590243585407733 41.231755927205086 16.625152671709657 7.7664222382009021 44.972080338746309 35.508839648216963 47.978528127074242
leaf_count=39 90 115 16 108 94 73 42 33
internal_value=0.0272552 0.0191523 0.0217296 0.024688 0.0141741 0.0206162 0.033848 0.0352083
internal_weight=319.744 160.256 153.694 146.104 69.3637 61.5972 76.7406 159.488
internal_count=610 538 448 333 275 181 58 72
is_linear=0
shrinkage=0.03


Tree=50
num_leaves=10
num_cat=0
split_feature=4 74 49 46 34 42 42 76 4
split_gain=21.6429 25.54 18.8996 12.7772 9.64623 21.6795 22.2179 2.54807 0.148724
threshold=-0.39534173004085088 50.062313432835829 0.44203951438640487 0.31779698580024257 0.36834233511652487 -0.020473522171340349 0.10046193718231468 1.4469293239683936 -0.49088167148593659
decision_type=2 2 2 2 2 2 2 2 2
left_child=8 2 -2 -3 5 7 -7 -5 -1
right_child=1 3 -4 4 -6 6 -8 -9 -10
leaf_value=0.036698312778743587 -0.035028625859361423 -0.030031896425649907 0.022263997132653243 0.015742984806466388 0.033162776702821258 -0.032689928046364343 0.026961577474261145 0.032530669260832298 0.029900826999039044
leaf_weight=109.07378285378218 12.00915730930865 3.0756395459175101 7.6785259097814551 16.116557160392404 65.523127939552069 12.656240491196515 8.5638994537293893 32.532184932380915 47.234698608517647
leaf_count=39 181 31 7 49 50 174 22 24 33
internal_value=0.0268929 0.018824 -0.0125424 0.0233633 0.0248095 0.0165761 -0.00835115 0.0274587 0.0348664
internal_weight=314.464 158.155 19.6877 138.468 135.392 69.8689 21.2201 48.6487 156.308
internal_count=610 538 188 350 319 269 196 73 72
is_linear=0
shrinkage=0.03


Tree=51
num_leaves=10
num_cat=0
split_feature=35 75 74 60 54 34 44 45 2
split_gain=20.9701 22.9525 20.9015 13.5193 26.5283 16.7803 1.73795 4.26827 0.850835
threshold=0.44330549531948021 3.0947071460877438 49.474029850746277 0.95485340012015618 0.042138521552981943 0.30999240321072108 -0.24904297714365201 -0.024896196242027737 1.0853928651757174
decision_type=2 2 2 2 2 2 2 2 2
left_child=1 2 -1 8 -5 -6 -2 -8 -4
right_child=6 -3 3 4 5 -7 7 -9 -10
leaf_value=-0.029368252026762447 0.035818902023970138 -0.034963826569177951 0.024494136242195135 -0.031971235964147068 -0.026881948397010948 0.029411808693619552 0.014707734562318752 0.033077786016602523 0.03517355547609409
leaf_weight=6.4086284544318906 119.43426667153835 6.3145829476416102 26.97113860398531 9.6215690653771144 4.7009707707911721 32.419360879808664 20.00223596394062 41.615623071789742 41.570458866655827
leaf_count=123 47 65 34 121 84 56 32 25 23
internal_value=0.0265582 0.017001 0.0199849 0.0229832 0.0101396 0.0216858 0.0331682 0.0274926 0.031427
internal_weight=309.059 128.007 121.692 115.283 46.7419 37.1203 181.052 61.6179 68.5416
internal_count=610 506 441 318 261 140 104 57 57
is_linear=0
shrinkage=0.03


Tree=52
num_leaves=9
num_cat=0
split_feature=4 45 75 1 5 72 94 4
split_gain=20.9804 32.1838 14.1533 11.1903 9.98227 42.9426 10.4805 0.253557
threshold=-0.39534173004085088 -0.12910626126319188 3.0367593848937138 0.8600052460153208 -0.075323744608302087 56.573763003166 0.29781250000000009 -0.49088167148593659
decision_type=2 2 2 2 2 2 2 2
left_child=7 -2 4 -4 -3 -6 -7 -1
right_child=1 2 3 -5 5 6 -8 -9
leaf_value=0.036163104117889797 -0.036279641719267265 0.032813128138362846 -0.031542346735500652 0.028890067041054377 -0.033719001752465269 0.034637900504524977 0.0065970198777230964 0.02913842913419603
leaf_weight=104.39424701035023 8.2848391104489547 63.771213596686721 7.0214289072900993 3.2373754978179932 12.023113021627067 41.401929900050163 17.896992243826389 45.732132196426392
leaf_count=39 81 57 108 1 198 24 69 33
internal_value=0.0262211 0.0181855 0.0215371 -0.0113331 0.0241202 0.0159599 0.0264744 0.03425
internal_weight=303.763 153.637 145.352 10.2588 135.093 71.322 59.2989 150.126
internal_count=610 538 457 109 348 291 93 72
is_linear=0
shrinkage=0.03


Tree=53
num_leaves=10
num_cat=0
split_feature=4 75 78 94 61 52 0 4 41
split_gain=20.4923 23.193 25.5635 12.7473 23.6979 14.682 0.729365 0.322809 0.235719
threshold=-0.39534173004085088 3.0632089552238813 1.9410160427807488 0.26750000000000007 1.0079877114880957 16.720642171918175 20.311946868896488 -0.49088167148593659 2.1330915910622799
decision_type=2 2 2 2 2 2 2 2 2
left_child=7 2 -2 6 5 -5 -4 -1 -8
right_child=1 -3 3 4 -6 -7 8 -9 -10
leaf_value=0.035901997806941845 -0.035189008651027233 -0.031615380986028029 0.036268830013372 0.030936763908416511 -0.032638444196484789 -0.00050171857391332058 0.032007903395865109 0.028729269900311414 0.021043471904430018
leaf_weight=102.04172579944134 6.1522015556693068 7.1689041554927817 38.46771227568388 37.707747280597687 7.8510439060628405 20.090830823406577 13.350719988346098 45.017062917351723 20.504172321408987
leaf_count=39 90 95 17 53 106 129 9 33 39
internal_value=0.0259087 0.0179154 0.0206006 0.0233452 0.0133838 0.020135 0.0320407 0.0339354 0.0262476
internal_weight=298.352 151.293 144.124 137.972 65.6496 57.7986 72.3226 147.059 33.8549
internal_count=610 538 443 353 288 182 65 72 48
is_linear=0
shrinkage=0.03


Tree=54
num_leaves=12
num_cat=0
split_feature=4 103 76 61 54 34 31 33 4 70 4
split_gain=20.114 22.4518 18.869 17.9989 9.91514 6.74112 9.09031 5.02167 9.60895 4.30721 0.392379
threshold=-0.39534173004085088 0.023953421452680205 1.1053844414292178 0.96934943197879819 -0.2722801462871583 0.23776344628659243 0.13840412042396308 0.86492314932401626 -0.30281094648723628 16.156827260755051 -0.49088167148593659
decision_type=2 2 2 2 2 2 2 2 2 2 2
left_child=10 3 -3 -2 -5 6 -6 8 -4 -7 -1
right_child=1 2 7 4 5 9 -8 -9 -10 -11 -12
leaf_value=0.035650605790052969 -0.031753911020599122 -0.034207379095847319 0.030709368734527107 -0.029236663594185565 0.029980039394609047 0.032044717378877756 -0.029448585016252572 0.033003156176828474 -0.029056725684188975 0.017278230275428318 0.028326186301082714
leaf_weight=99.720594704151154 4.3412472102791062 11.743362000212073 3.5220956802368164 2.1131493784487239 3.4115893840789786 80.08250742033124 3.8709916826337576 6.414583683013916 4.2036412842571735 29.541775459423661 44.312874972820282
leaf_count=39 35 202 1 13 1 75 41 2 73 95 33
internal_value=0.0255809 0.017622 -0.00745963 0.0229265 0.0251939 0.0264428 -0.000988121 0.0153481 -0.00106926 0.0282847 0.0336287
internal_weight=293.278 149.245 25.8837 123.361 119.02 116.907 7.28258 14.1403 7.72574 109.624 144.033
internal_count=610 538 278 260 225 212 42 76 74 170 72
is_linear=0
shrinkage=0.03


Tree=55
num_leaves=11
num_cat=0
split_feature=35 75 74 42 54 47 1 45 79 2
split_gain=19.7171 20.8205 18.1232 12.1724 28.66 12.3349 1.87761 2.7421 4.35696 0.374307
threshold=0.44330549531948021 3.0947071460877438 49.474029850746277 -0.049708426637172225 0.042138521552981943 -0.1616327043620783 0.58191668190186385 -0.43272477241466661 0.31559701492537323 1.0978735074730586
decision_type=2 2 2 2 2 2 2 2 2 2
left_child=1 2 -1 9 -5 -6 7 -2 -9 -4
right_child=6 -3 3 4 5 -7 -8 8 -10 -11
leaf_value=-0.028870017704581766 0.03417296961293155 -0.034895761080505544 0.024172760668048965 -0.033531881397036237 -0.028648260566734945 0.026176402656730234 0.03525824124234115 0.029252703300534286 0.0083687258626810816 0.034425722324976288
leaf_weight=5.9157276805490246 30.43482980132103 5.9691744502633801 21.668668746948242 9.6828237920999509 3.1987078581005326 39.058543175458908 97.660654187202454 21.639981187880039 17.552692569792271 35.431424871087074
leaf_count=123 13 65 32 120 46 98 40 14 37 22
internal_value=0.0252608 0.0157751 0.0187103 0.0215579 0.0106552 0.0213907 0.0319652 0.02687 0.0204152 0.0310695
internal_weight=288.213 120.925 114.956 109.04 51.9401 42.2573 167.288 69.6275 39.1927 57.1001
internal_count=610 506 441 318 264 144 104 64 51 54
is_linear=0
shrinkage=0.03


Tree=56
num_leaves=9
num_cat=0
split_feature=4 45 99 54 103 4 90 4
split_gain=19.474 28.8236 17.8364 12.1782 10.0946 15.4078 5.93489 0.508967
threshold=-0.39534173004085088 -0.12910626126319188 7.5000000000000009 -0.2722801462871583 0.023953421452680205 -0.25886592010823922 0.049939818224454507 -0.49088167148593659
decision_type=2 2 2 2 2 2 2 2
left_child=7 -2 3 -3 6 -6 -5 -1
right_child=1 2 -4 4 5 -7 -8 -9
leaf_value=0.035184153906509821 -0.035609411121095148 -0.032940883924281475 -0.027090958636531538 0.030628034880326591 0.02387335481198238 -0.029820191501938501 0.011077488337537463 0.02757986826343185
leaf_weight=95.217502102255821 7.8888903837651005 2.5849342793226233 5.9436168279498807 91.708534348756075 11.366322770714762 6.8632847573608151 18.858522687107325 42.795491881668568
leaf_count=39 81 15 134 85 14 136 73 33
internal_value=0.0249472 0.0170399 0.0203217 0.0226777 0.0240623 0.00300271 0.0274495 0.0330631
internal_weight=283.227 145.214 137.325 131.382 128.797 18.2296 110.567 138.013
internal_count=610 538 457 323 308 150 158 72
is_linear=0
shrinkage=0.03


Tree=57
num_leaves=13
num_cat=0
split_feature=4 74 48 90 98 33 53 42 74 76 33 4
split_gain=19.1716 20.6305 18.3754 9.95909 29.5265 13.7968 4.16108 12.6483 0.999667 4.2738 6.5406 0.578744
threshold=-0.39534173004085088 50.062313432835829 0.26587902250495826 0.010481857124605271 8.5000000000000018 0.16805317501963932 -0.012977417011959124 0.10046193718231468 71.01014925373137 1.4469293239683936 0.76793668942926174 -0.49088167148593659
decision_type=2 2 2 2 2 2 2 2 2 2 2 2
left_child=11 2 -2 8 5 -5 -6 -8 9 10 -3 -1
right_child=1 3 -4 4 6 -7 7 -9 -10 -11 -12 -13
leaf_value=0.034958686390450272 -0.034905495187756042 -0.0091593187537371556 0.025234481038290527 0.027254376334393909 0.03055057410072156 -0.034317244984774203 -0.028074204383796632 0.031707230257294883 0.033985530280194388 0.031812176149401405 0.029735461939162752 0.027193512126905003
leaf_weight=92.996691793203354 11.308689905330541 7.4714929908514005 6.334814876317977 3.3658814448863295 30.950494468212128 13.469731984660028 4.3385046105831844 6.9215950071811676 31.84109191596508 20.990846358239651 6.2575480043888092 42.125811837613583
leaf_count=39 184 41 4 5 32 175 61 6 16 11 3 33
internal_value=0.0246263 0.016743 -0.0129563 0.0210078 0.0116549 -0.0210014 0.0249338 0.00801768 0.0289651 0.0234544 0.00918006 0.0327774
internal_weight=278.373 143.251 17.6435 125.607 59.0462 16.8356 42.2106 11.2601 66.561 34.7199 13.729 135.123
internal_count=610 538 188 350 279 180 99 67 71 55 44 72
is_linear=0
shrinkage=0.03


Tree=58
num_leaves=13
num_cat=0
split_feature=35 75 78 38 51 66 6 2 1 45 65 0
split_gain=18.7148 19.636 18.6107 10.2632 20.12 6.69869 3.84867 6.2331 1.95194 2.78203 7.26698 5.90964
threshold=0.44330549531948021 3.0947071460877438 2.1515999547715969 -0.021444960712342202 56.953335089720049 0.030865767761384444 -0.034617532729471372 0.91125304246080152 0.58191668190186385 -0.43272477241466661 -0.27053125072513029 16.096432685852054
decision_type=2 2 2 2 2 2 2 2 2 2 2 2
left_child=1 2 -1 6 -5 -6 -4 -8 9 -2 11 -11
right_child=8 -3 3 4 5 -7 7 -9 -10 10 -12 -13
leaf_value=-0.028529780422311975 0.033459906203192578 -0.034851542334233709 0.031530245116189758 -0.033630345174521563 -0.0024363529807522278 0.029468033256916978 0.028159132374515134 -0.0070283920709490423 0.034558676975111613 0.022704699810262154 0.032442690560149673 -0.0090319027212062402
leaf_weight=6.3902405221015206 28.554914206266403 5.7903114780783644 53.412399964407086 7.4283299688249818 8.2242627087980527 17.652257971465588 9.6249533351510781 7.1341874506324521 91.335767507553101 8.8299032673239726 18.320628114044666 10.40276053547859
leaf_count=134 13 65 50 99 75 17 15 51 40 8 10 33
internal_value=0.0243735 0.0149574 0.0179002 0.0210419 0.00692975 0.019503 0.0275062 0.0134589 0.0311335 0.0259121 0.019376 0.00579243
internal_weight=273.101 115.657 109.867 103.476 33.3049 25.8765 70.1715 16.7591 157.444 66.1082 37.5533 19.2327
internal_count=610 506 441 307 191 92 116 66 104 64 51 41
is_linear=0
shrinkage=0.03


Tree=59
num_leaves=13
num_cat=0
split_feature=4 75 103 75 107 38 106 39 28 61 4 56
split_gain=18.3991 19.5279 18.8161 15.4316 11.4143 17.3475 6.40048 8.5756 4.20231 8.35264 0.675798 0.598629
threshold=-0.39534173004085088 3.0632089552238813 0.023953421452680205 2.9890728177295345 1.4796500771604941 -0.10103974902439893 0.49000000000000005 1.021830449842519 -0.089174371146832854 0.87761388761304071 -0.49088167148593659 2.499126344646744
decision_type=2 2 2 2 2 2 2 2 2 2 2 2
left_child=10 2 4 -4 6 -6 11 -8 -5 -10 -1 -2
right_child=1 -3 3 8 5 -7 7 -9 9 -11 -12 -13
leaf_value=0.034542133430591412 0.024963881592179785 -0.030957896947550006 -0.033984534996003166 0.031032098743646038 0.031457421640084422 -0.033463955613791029 -0.01086921821086353 0.026243428808918078 0.029123024925675676 -0.028441285832193262 0.026519048765834347 0.034693424287791812
leaf_weight=88.724697925150394 27.60613901540637 6.5596960037946692 9.1855993829667586 5.9850086346268654 6.1069097816944122 6.7280940338969213 8.3181867878884095 13.376522615551947 3.2754538059234601 3.8247679378837347 40.72485413402319 47.842941407114267
leaf_count=39 40 95 166 3 3 71 48 17 1 72 33 22
internal_value=0.0240856 0.0162613 0.0188406 -0.00597752 0.0239019 -0.00231641 0.0273849 0.0120296 0.0144869 -0.00119854 0.0322637 0.0315458
internal_weight=268.259 138.809 132.25 22.2708 109.979 12.835 97.1438 21.6947 13.0852 7.10022 129.45 75.4491
internal_count=610 538 443 242 201 74 127 65 76 73 72 62
is_linear=0
shrinkage=0.03


Tree=60
num_leaves=10
num_cat=0
split_feature=4 45 75 5 72 94 6 41 4
split_gain=17.9225 25.7756 11.1518 8.89728 35.1054 9.25443 8.88977 0.867624 0.745749
threshold=-0.39534173004085088 -0.12910626126319188 3.0367593848937138 -0.075323744608302087 56.573763003166 0.29781250000000009 0.61193420153310807 2.2637989031290315 -0.49088167148593659
decision_type=2 2 2 2 2 2 2 2 2
left_child=8 -2 3 7 -5 -6 -4 -3 -1
right_child=1 2 6 4 5 -7 -8 -9 -10
leaf_value=0.03433842824125307 -0.034967814995069887 0.035045163951413702 -0.030645293986237727 -0.033418395763388911 0.032061339799079436 0.0046302985812394452 0.026331195253251196 0.02368888883088972 0.026146098002084582
leaf_weight=86.611384704709053 7.4580076411366454 30.547315863892436 6.1782867573201639 10.844247326254843 36.223829422146082 16.683022867888212 2.7964153289794922 25.792502388358116 40.090509824454784
leaf_count=39 81 21 108 198 24 69 1 36 33
internal_value=0.0238273 0.0160481 0.0192653 0.0216843 0.0135829 0.0237136 -0.0117313 0.0304024 0.0319948
internal_weight=263.226 136.524 129.066 120.091 63.7511 52.9069 8.9747 56.3398 126.702
internal_count=610 538 457 348 291 93 109 57 72
is_linear=0
shrinkage=0.03


Tree=61
num_leaves=11
num_cat=0
split_feature=44 99 75 33 90 75 72 5 57 69
split_gain=17.4968 19.3773 13.0599 17.9712 8.6645 17.0129 3.68782 10.7162 0.835128 0.611856
threshold=-0.24904297714365201 7.5000000000000009 2.9419293239683939 0.86492314932401626 0.049939818224454507 2.7537946630483949 56.573763003166 -0.076093209281102511 0.1378010685354045 5.7700000000000005
decision_type=2 2 2 2 2 2 2 2 2 2
left_child=9 2 4 -4 6 -6 7 -2 -8 -1
right_child=1 -3 3 -5 5 -7 8 -9 -10 -11
leaf_value=0.025464923868909809 0.03181969279869673 -0.028620561590368784 -0.032367571917294218 0.031072998976065122 0.020264298570888514 -0.032727336005675858 0.024239589263217502 -0.0066889946662350968 0.034794075591205217 0.033973671077131118
leaf_weight=32.226168856024742 14.098926059901713 7.337866846472024 9.0567215606570226 5.6989636421203604 19.792761623859409 6.3925768807530394 29.571954309940338 10.72047437168658 35.160721257328987 88.324698004871607
leaf_count=31 7 167 142 2 38 72 34 58 15 44
internal_value=0.0235617 0.0160245 0.0187564 -0.007258 0.0221325 0.00648921 0.0265513 0.0154552 0.0304602 0.031952
internal_weight=258.382 137.831 130.493 14.7557 115.737 26.1853 89.5521 24.8194 64.7327 120.551
internal_count=610 535 368 144 224 110 114 65 49 75
is_linear=0
shrinkage=0.03


Tree=62
num_leaves=13
num_cat=0
split_feature=35 75 60 51 66 4 101 49 98 60 39 89
split_gain=17.4549 17.8455 14.3824 20.1686 16.6557 2.5188 3.52154 6.40043 1.69567 2.04996 2.89314 1.3692
threshold=0.44330549531948021 3.0947071460877438 0.95485340012015618 53.477070031631968 0.028661412598925153 -0.49088167148593659 0.64371419419821541 0.44203951438640487 8.5000000000000018 0.87255530541551984 0.93023956468059477 0.00997326018616225
decision_type=2 2 2 2 2 2 2 2 2 2 2 2
left_child=1 2 8 -4 -5 -2 -7 -8 9 -1 -11 -6
right_child=5 -3 3 4 11 6 7 -9 -10 10 -12 -13
leaf_value=0.030476267945632334 0.034065819114672005 -0.03483756209466872 -0.031243998325580384 -0.028294776199919512 0.029375451834291057 0.03081994631226705 -0.0037446525121860182 0.025729090619176054 0.031097483696968277 0.025400330732725313 0 0.012610978534276354
leaf_weight=7.9202072769403484 82.544094115495682 5.4237471763044587 10.245715182274578 5.6951345093548289 18.655813449993733 35.449981980025768 9.8395086750388163 17.131675153970718 35.321199547499418 6.0172185599803916 9.7617345135658962 9.7028044033795577
leaf_count=4 38 65 186 116 22 21 32 13 23 8 36 46
internal_value=0.0232936 0.0139579 0.0168575 0.0037213 0.0149181 0.0301326 0.0244289 0.0151199 0.0264411 0.0184017 0.0107069 0.0243667
internal_weight=253.709 108.744 103.32 44.2995 34.0538 144.965 62.4212 26.9712 59.0204 23.6992 15.779 28.3586
internal_count=610 506 441 370 184 104 66 45 71 48 44 68
is_linear=0
shrinkage=0.03


Tree=63
num_leaves=13
num_cat=0
split_feature=35 75 99 6 5 23 32 45 65 23 71 30
split_gain=16.9959 17.1941 13.3885 11.0653 21.4467 9.07567 2.1599 2.96448 7.16798 5.54166 1.47112 2.35068
threshold=0.44330549531948021 3.0947071460877438 7.5000000000000009 -0.01419624830142424 0.021437948622781814 31.961848258972172 0.58191668190186396 -0.43272477241466661 -0.27053125072513029 16.096432685852054 18.220000000000002 -0.50617555345664955
decision_type=2 2 2 2 2 2 2 2 2 2 2 2
left_child=1 2 3 10 -5 -6 7 -2 9 -9 11 -1
right_child=6 -3 -4 4 5 -7 -8 8 -10 -11 -12 -13
leaf_value=0.02833391532871838 0.032414014809306155 -0.034562004506457585 -0.026322218235175672 -0.035029008975016498 0.027047197711495424 -0.0093884914534376925 0.033571171930102874 0.021038417286068638 0.031072594849355286 -0.010707038883331585 0.031252054562845515 0.0065558140248089102
leaf_weight=9.7070695515722054 25.725598260760307 5.3126371931284657 5.2668403759598723 7.8283365219831458 22.894436020404104 7.5701253153383723 81.617905527353287 8.0382667928934115 16.737970925867558 9.8974469564855081 38.774134874343872 9.7494432218372804
leaf_count=12 13 65 142 115 41 64 40 8 10 33 23 44
internal_value=0.0230321 0.0137582 0.016621 0.0192409 0.00637696 0.0178873 0.02986 0.0243312 0.0175097 0.00372162 0.0273991 0.0184217
internal_weight=249.12 107.103 101.79 96.5235 38.2929 30.4646 142.017 60.3993 34.6737 17.9357 58.2306 19.4565
internal_count=610 506 441 299 220 105 104 64 51 41 79 56
is_linear=0
shrinkage=0.03


Tree=64
num_leaves=10
num_cat=0
split_feature=44 99 75 34 90 75 72 43 76
split_gain=16.6919 17.632 11.9315 16.5546 8.39313 15.7946 3.72862 10.7415 1.19851
threshold=-0.24904297714365201 7.5000000000000009 2.9419293239683939 0.59589194131498535 0.049939818224454507 2.7537946630483949 56.573763003166 -0.099306110007362433 1.0312053369516059
decision_type=2 2 2 2 2 2 2 2 2
left_child=8 2 4 -4 6 -6 7 -2 -1
right_child=1 -3 3 -5 5 -7 -8 -9 -10
leaf_value=0.023669794344593011 0.031484872755136173 -0.028342325666899561 -0.032080247305054176 0.030250320320876788 0.019200169341043224 -0.03268090428866402 0.029673430831118088 -0.0076522846160233891 0.033630350786707119
leaf_weight=29.726886946707964 13.249788597226141 6.947988672181963 8.6360116302967054 5.3774487972259513 18.921055236831311 6.1844243295490733 61.811612226068974 10.574907623231413 83.219630714505911
leaf_count=32 6 167 142 2 38 72 49 59 43
internal_value=0.0227673 0.0152757 0.0179349 -0.00754028 0.021224 0.00554267 0.0256695 0.014384 0.0312659
internal_weight=244.65 131.703 124.755 14.0135 110.742 25.1055 85.6363 23.8247 112.947
internal_count=610 535 368 144 224 110 114 65 75
is_linear=0
shrinkage=0.03


Tree=65
num_leaves=14
num_cat=0
split_feature=35 77 87 31 29 26 60 0 42 44 64 32 66
split_gain=16.4983 15.0774 24.2117 19.5018 10.1815 7.82258 2.92093 3.24322 4.84204 2.26551 3.35542 9.41389 0.159091
threshold=0.44330549531948021 1.4000000000000001 1.0000000180025095e-35 0.28357342786260653 0.053306827129669949 0.0048733236802225065 0.91912626284218268 23.164497375488285 -0.060328129850772898 -0.3259767078467366 -0.18696144702818676 0.68831874836739482 0.030865767761384444
decision_type=2 2 2 2 2 2 2 2 2 2 2 2 2
left_child=1 2 3 -1 12 -6 -3 -8 -9 -2 11 -11 -5
right_child=9 6 -4 4 5 -7 7 8 -10 10 -12 -13 -14
leaf_value=-0.030893066544747612 0.033254849877916215 0.032879598135914324 -0.034479190006419677 0.019951193009891236 -0.029428233392227745 0.025978950502185193 0.029006472698693112 0.02377594218570175 -0.011187816915013239 -0.0039644087905418039 0.030425761877510272 0.030794486505694874 0.031800535242995441
leaf_weight=6.8535465598106375 77.673313766717911 25.334331288933754 11.406878910958765 11.280475577339532 4.9901973959058514 2.7335541248321533 8.8028225079178828 5.5827275887131691 6.755083214491604 12.535663779824974 32.200877174735069 13.998562470078467 20.061642277985811
leaf_count=126 39 13 187 34 80 1 6 5 37 36 22 7 17
internal_value=0.0225061 0.0132446 0.00277911 0.012636 0.0209279 -0.00874476 0.02576 0.0159929 0.00500443 0.0293843 0.0237444 0.0147167 0.0283773
internal_weight=240.21 103.801 57.3263 45.9194 39.0659 7.72375 46.475 21.1406 12.3378 136.408 58.7351 26.5342 31.3421
internal_count=610 506 445 258 132 81 61 48 42 104 65 43 51
is_linear=0
shrinkage=0.03


Tree=66
num_leaves=14
num_cat=0
split_feature=4 45 99 2 94 64 36 28 77 39 4 4 73
split_gain=16.3841 22.9975 10.1049 17.312 25.8338 3.01192 4.87388 6.29878 2.80002 2.41577 0.992981 0.52404 1.99297
threshold=-0.39534173004085088 -0.12910626126319188 3.5000000000000004 1.1026380388748305 0.28750000000000009 -0.16973151913454002 1.1902638057785033 -0.1174446722484707 1.4000000000000001 0.92807964271958465 -0.49088167148593659 -0.22643977863564843 69.015000000000015
decision_type=2 2 2 2 2 2 2 2 2 2 2 2 2
left_child=10 -2 5 4 -4 6 7 -3 9 -5 -1 -7 -13
right_child=1 2 3 8 -6 11 -8 -9 -10 -11 -12 12 -14
leaf_value=0.033304956247377102 -0.034760209279678114 0.023896362102910053 0.022175916713714952 0.027640331621256377 -0.035167549728546452 0.032913257586942191 0.029188606969645772 -0.030238342073189688 0.032017964720948644 -0.0012716777089607895 0.024348901821167054 0.011002076321086065 0.030031235048807378
leaf_weight=75.190507911145687 7.0467896573245516 2.3608729839324951 12.068342344835402 3.1298891231417674 14.4453859180212 28.464578323066231 4.9471936225891113 3.5812744870781881 16.603867840021849 6.3176470492035151 36.275091551244259 10.834818307310348 14.362139567732809
leaf_count=39 81 1 34 2 237 16 2 48 10 59 33 39 9
internal_value=0.0222806 0.0145499 0.0178114 0.00774967 -0.00909996 0.0257159 0.00970388 -0.00795395 0.0247117 0.00974831 0.0306594 0.0286733 0.0226954
internal_weight=235.628 124.163 117.116 52.5651 26.5137 64.5509 10.8893 5.94215 26.0514 9.44754 111.466 53.6615 25.197
internal_count=610 538 457 342 271 115 51 49 71 61 72 64 48
is_linear=0
shrinkage=0.03


Tree=67
num_leaves=12
num_cat=0
split_feature=3 74 45 30 105 55 109 98 49 64 36
split_gain=15.7391 10.1807 17.9892 9.3328 8.24744 11.7409 6.38073 14.7609 3.49557 2.83716 5.01902
threshold=0.045395843250400199 50.062313432835829 -0.44353404486151493 -0.82042407150206575 0.035911666078292534 1.0622300060145091 4.5000000000000009 8.5000000000000018 0.31820222830526218 -0.150251441562993 1.1902638057785033
decision_type=2 2 2 2 2 2 2 2 2 2 2
left_child=1 2 -1 -4 6 -6 9 -8 -9 10 -3
right_child=-2 4 3 -5 5 -7 7 8 -10 -11 -12
leaf_value=0.030899548664993597 0.03155367707057067 -0.0018865622041169669 0.020347612540253329 -0.036832138479872711 -0.031803366540839061 0.018351174698882557 -0.029958353497164029 0.0053929036652419051 0.032120373916756283 0.029470754009309555 0.02835770792345086
leaf_weight=7.3477998524904278 93.993456237018108 8.8380935620516556 2.538566555827857 10.418634090572592 5.9323894549161187 9.644152754917739 5.9158194512128857 8.545694315806033 10.222916953265665 58.340593367815018 9.4154824167489988
leaf_count=4 56 47 4 184 90 22 86 44 5 62 6
internal_value=0.0220587 0.015349 -0.00397222 -0.0247594 0.018737 -0.00133566 0.0218363 0.0079728 0.020991 0.0261052 0.0142207
internal_weight=231.154 137.16 20.305 12.9572 116.855 15.5765 101.279 24.6844 18.7686 76.5942 18.2536
internal_count=610 554 192 188 362 112 250 135 49 115 53
is_linear=0
shrinkage=0.03


Tree=68
num_leaves=10
num_cat=0
split_feature=4 45 103 4 99 2 94 4 23
split_gain=15.6909 21.6641 10.4637 11.7869 7.61198 10.3585 22.5183 1.10243 0.550615
threshold=-0.39534173004085088 -0.12910626126319188 0.023953421452680205 -0.26300431401027341 3.5000000000000004 1.1026380388748305 0.28750000000000009 -0.49088167148593659 23.164497375488285
decision_type=2 2 2 2 2 2 2 2 2
left_child=7 -2 4 -4 8 6 -6 -1 -3
right_child=1 2 3 -5 5 -7 -8 -9 -10
leaf_value=0.03299609677939689 -0.034325705097688709 0.032768048903746017 0.017079720134573241 -0.02978460753862671 0.024501758398677621 0.025485818700402983 -0.034960507907898709 0.023707572636167955 0.02236412941229373
leaf_weight=71.651407189667225 6.8391796033829442 30.131480924785137 9.9646446648985147 7.6205324493348607 11.129869682714345 21.331096936017275 9.8580852057784778 35.000691697001457 23.327208204194903
leaf_count=39 81 16 20 212 18 39 115 33 37
internal_value=0.0218211 0.0141526 0.0173781 -0.00357737 0.0212539 0.0112358 -0.00361112 0.0302242 0.0287773
internal_weight=226.854 120.202 113.363 17.5852 95.7777 42.3191 20.988 106.652 53.4587
internal_count=610 538 457 232 225 172 133 72 53
is_linear=0
shrinkage=0.03


Tree=69
num_leaves=13
num_cat=0
split_feature=4 45 99 76 59 90 64 36 28 4 4 72
split_gain=15.3117 20.8505 8.96237 12.0917 15.091 16.5529 2.89664 4.64803 5.85856 1.17054 0.659051 1.95896
threshold=-0.39534173004085088 -0.12910626126319188 3.5000000000000004 1.5418758480325645 0.932884261680336 0.010481857124605271 -0.16973151913454002 1.1902638057785033 -0.1174446722484707 -0.49088167148593659 -0.22643977863564843 65.519423337856196
decision_type=2 2 2 2 2 2 2 2 2 2 2 2
left_child=9 -2 6 4 -4 -6 7 8 -3 -1 -8 -12
right_child=1 2 3 -5 5 -7 10 -9 -10 -11 11 -13
leaf_value=0.032838647922450767 -0.034010439486576657 0.023080147312689085 0.02757866905781612 0.024698227239901432 0.0209204655676095 -0.034042784965290326 0.032239533682904442 0.02842709584964177 -0.030036921199522899 0.023363308370277579 0.0099417206119362146 0.028985243405009496
leaf_weight=69.866867147386074 6.7067757174372664 2.2172892093658447 8.2772199939936417 20.389879539608955 6.2000580467283752 15.347335545346139 26.893884636461731 4.6419672966003418 3.4959909394383413 34.473710991442204 10.492907986044889 13.616999357938765
leaf_count=39 81 1 11 28 8 295 16 2 48 33 39 9
internal_value=0.0215853 0.0139585 0.0171451 0.00744448 -0.00467246 -0.0178682 0.024789 0.00877079 -0.00860834 0.029988 0.0277523 0.0215428
internal_weight=222.621 118.28 111.574 50.2145 29.8246 21.5474 61.359 10.3552 5.71328 104.341 51.0038 24.1099
internal_count=610 538 457 342 314 303 115 51 49 72 64 48
is_linear=0
shrinkage=0.03


Tree=70
num_leaves=11
num_cat=0
split_feature=3 75 45 99 6 64 0 26 29 38
split_gain=14.9491 16.1157 14.3809 9.73412 7.52123 14.0171 10.5065 9.25066 5.36897 0.306993
threshold=0.045395843250400199 3.0367593848937138 -0.44768142216556284 7.5000000000000009 -0.01419624830142424 -0.150251441562993 35.929006576538093 0.0056213656817538172 0.14386573943777953 -0.046084154672602261
decision_type=2 2 2 2 2 2 2 2 2 2
left_child=1 3 -3 4 9 7 -7 -6 -5 -1
right_child=-2 2 -4 8 5 6 -8 -9 -10 -11
leaf_value=0.031703472576776956 0.030989319969825391 0.022794384584549948 -0.037252811093705998 -0.027683265975775653 -0.035104678851410234 0.027545957094677564 -0.005768502779743224 0.024287627673664425 0.021550999510746755 0.022485157122295835
leaf_weight=31.922971270978451 87.6712396889925 4.8218512609601012 8.6213303264230472 5.4628147706389418 7.2684552650898677 32.794716909527779 10.798679811879991 2.430495023727417 1.9574916362762449 24.616702916100621
leaf_count=19 56 5 140 131 96 53 65 1 1 43
internal_value=0.0213735 0.0147141 -0.0154202 0.0182956 0.0205597 0.0120257 0.0192819 -0.019062 -0.013322 0.0282026
internal_weight=218.367 130.696 13.4432 117.252 109.832 53.2923 43.5934 9.69895 7.42031 56.5397
internal_count=610 554 145 409 277 215 118 97 132 62
is_linear=0
shrinkage=0.03


Tree=71
num_leaves=11
num_cat=0
split_feature=3 75 45 99 6 64 0 5 0 38
split_gain=14.632 15.4476 13.9037 9.31444 7.27715 13.3911 10.1263 8.96902 5.21926 0.343014
threshold=0.045395843250400199 3.0367593848937138 -0.44768142216556284 7.5000000000000009 -0.01419624830142424 -0.150251441562993 35.929006576538093 0.47428559532228204 11.210037231445314 -0.046084154672602261
decision_type=2 2 2 2 2 2 2 2 2 2
left_child=1 3 -3 4 9 7 -7 -6 -5 -1
right_child=-2 2 -4 8 5 6 -8 -9 -10 -11
leaf_value=0.031429515208788436 0.030781381448215912 0.022484408775951262 -0.036989875094789036 0.021356852838002861 -0.034829812769806054 0.027158347660711755 -0.0056110544272819536 0.024060059968397478 -0.027512389294492495 0.022096497360160543
leaf_weight=31.254048440605402 85.652898564934731 4.7564592063426963 8.432109968736766 1.9256021976470936 7.116238469257949 32.286897482350469 10.796735225245355 2.3899519443511963 5.3399130832403898 24.320319725200534
leaf_count=19 56 5 140 1 96 53 65 1 131 43
internal_value=0.0211445 0.0145158 -0.0152561 0.018045 0.0202715 0.011825 0.0189373 -0.0188579 -0.0131806 0.027861
internal_weight=214.271 128.618 13.1886 115.43 108.164 52.5898 43.0836 9.50619 7.26552 55.5744
internal_count=610 554 145 409 277 215 118 97 132 62
is_linear=0
shrinkage=0.03


Tree=72
num_leaves=10
num_cat=0
split_feature=44 99 64 66 105 2 33 73 65
split_gain=14.5263 13.5967 10.724 26.2292 7.31181 11.5005 5.07249 2.90718 1.07312
threshold=-0.24904297714365201 7.5000000000000009 -0.16973151913454002 0.049815976218702776 0.035911666078292534 1.3313596305293507 0.29805297073640413 56.615000000000002 -0.53379582854995156
decision_type=2 2 2 2 2 2 2 2 2
left_child=8 2 3 -2 6 -6 -4 -8 -1
right_child=1 -3 4 -5 5 -7 7 -9 -10
leaf_value=0.032505789945537995 -0.034966741898263674 -0.027545128370963075 -0.0030555413509348252 0.023487537396461526 -0.03178618241318585 0.026582582704220717 0.013833779206841692 0.030281263080672128 0.022807079914437828
leaf_weight=63.8454719632864 10.743623964488508 5.9101147381588808 5.1703944373875848 15.775391511619089 4.9937369134277088 5.1507688146084547 15.990588925778864 51.780875850468874 30.905357152223587
leaf_count=39 145 167 33 13 74 5 56 42 36
internal_value=0.0209167 0.0135388 0.0160103 -0.000495063 0.0212573 -0.00215485 0.024539 0.0267017 0.0296449
internal_weight=210.266 115.515 109.605 26.519 83.0864 10.1445 72.9419 67.7715 94.7508
internal_count=610 535 368 158 210 79 131 98 75
is_linear=0
shrinkage=0.03


Tree=73
num_leaves=12
num_cat=0
split_feature=3 75 45 99 47 42 43 27 90 2 42
split_gain=14.1412 14.7799 13.1639 8.66503 5.88608 9.8392 7.10047 4.90585 3.45525 11.7223 0.974554
threshold=0.045395843250400199 3.0367593848937138 -0.44768142216556284 7.5000000000000009 -0.050132822558383104 0.10046193718231468 -0.062974961319991127 0.046740633074918769 0.049939818224454507 1.1053664540774288 -0.013598775153807528
decision_type=2 2 2 2 2 2 2 2 2 2 2
left_child=1 3 -3 4 8 6 -6 -5 10 -10 -1
right_child=-2 2 -4 7 5 -7 -8 -9 9 -11 -12
leaf_value=0.029286580252915296 0.030401777818591508 0.021791022634204005 -0.03684400174188239 -0.027229357642767894 0.01833649972701264 0.025261654777298217 -0.036236714522977997 0.020873082292913753 -0.016857098704300095 0.026301974786146126 0.018459765783110853
leaf_weight=45.542615193873644 81.825177259743214 4.6175505295395842 8.1819485714659077 5.1206242255866519 2.351770281791687 7.6456606276333332 5.6233260147273523 1.8473801612854002 7.6924633765593198 15.547462934628127 20.335213996469975
leaf_count=37 56 5 140 131 2 13 61 1 83 18 63
internal_value=0.0206886 0.0140898 -0.0154272 0.0176054 0.0197797 0.00239796 -0.0195594 -0.0130807 0.0227327 0.0117864 0.0263154
internal_weight=206.331 124.506 12.7995 111.707 104.739 15.6208 7.9751 6.968 89.1178 23.2399 65.8778
internal_count=610 554 145 409 277 76 63 132 201 101 100
is_linear=0
shrinkage=0.03


Tree=74
num_leaves=11
num_cat=0
split_feature=4 64 26 87 48 33 55 64 38 4
split_gain=14.0713 14.3566 22.842 7.8359 13.9043 7.18751 9.66567 2.0401 1.43011 1.36133
