tree
version=v4
num_class=1
num_tree_per_iteration=1
label_index=0
max_feature_idx=119
objective=binary sigmoid:1
feature_names=Column_0 Column_1 Column_2 Column_3 Column_4 Column_5 Column_6 Column_7 Column_8 Column_9 Column_10 Column_11 Column_12 Column_13 Column_14 Column_15 Column_16 Column_17 Column_18 Column_19 Column_20 Column_21 Column_22 Column_23 Column_24 Column_25 Column_26 Column_27 Column_28 Column_29 Column_30 Column_31 Column_32 Column_33 Column_34 Column_35 Column_36 Column_37 Column_38 Column_39 Column_40 Column_41 Column_42 Column_43 Column_44 Column_45 Column_46 Column_47 Column_48 Column_49 Column_50 Column_51 Column_52 Column_53 Column_54 Column_55 Column_56 Column_57 Column_58 Column_59 Column_60 Column_61 Column_62 Column_63 Column_64 Column_65 Column_66 Column_67 Column_68 Column_69 Column_70 Column_71 Column_72 Column_73 Column_74 Column_75 Column_76 Column_77 Column_78 Column_79 Column_80 Column_81 Column_82 Column_83 Column_84 Column_85 Column_86 Column_87 Column_88 Column_89 Column_90 Column_91 Column_92 Column_93 Column_94 Column_95 Column_96 Column_97 Column_98 Column_99 Column_100 Column_101 Column_102 Column_103 Column_104 Column_105 Column_106 Column_107 Column_108 Column_109 Column_110 Column_111 Column_112 Column_113 Column_114 Column_115 Column_116 Column_117 Column_118 Column_119
feature_infos=[0.12386832628849136:1.1644372722359764] [-0.69638272349066388:1.1504755510272435] [0.65491990936976685:1.2591630408729604] [0:1] [-0.27749930943386769:0.11844883087453646] [0.4542008137867552:1.4984043377224401] [-0.28019778630901737:0.28343891177621749] [0:0.62910508423225442] [-0.60014462039334249:1.0818536132225245] [-0.76098517497744989:2.3014743999776566] [0.13778834014806474:1.7298536092349568] [-0.27749930943386769:0.11844883087453646] [-1.4926916830498334:1.2346767015627553] [-2.5222186542703966:8.3913392503378734] [-0.3536957872533657:0.33054945054945062] [-0.37935367614760757:0.30880455748058172] [0:13] [-12.502114810009781:11.578745049333669] [0.6416070162750821:2.129214264756059] [-0.39330600328294474:0.68679296459595074] [0.230625:0.95374999999999999] [0:1] [-0.32704899001625259:1] [-0.018379087204010981:0.91168640603710305] [1.9959090909090909:3.7994029850746269] [-0.63191667492744996:0.53318180801423753] [-2.5641354108387415:2.1326895957828] [-30.119537353515625:63.899687423706084] [-0.31672025723472669:0.47062920826561411] [-0.27749930943386769:0.11844883087453646] [-0.85471783537695245:4.6184165579321892] [-0.37593995381847167:0.3858267901603013] [-0.014946740966631554:0.011325121667722201] [0.011885626260501086:0.10561151205553634] [-6.4748912290986107:3.5034338260585289] [0:1.1644372722359764] [0.087199759035823193:0.92086517285811798] [0:1.5137070937782131] [-4.5799947367451468:-1.4398990873022313] [0.16802854594404845:2.3190181526883387] [0.869982267189369:1.2370381129644716] [-0.56819576219901624:1.0818536132225245] [3.0951519012451172:90.752201690673857] [0.019807259594852758:0.29554929640273314] [0.13780967365188562:1.5151522402627307] [-0.9921798927148906:0.92193521483751995] [1:9] [0:1.4403779057306294] [-2.7309516182970492:3.1736742885388738] [-0.32186917432116458:0.29122942409019359] [0:1.7298536092349568] [-0.62636860904216185:0.95932239875740422] [0.14457145879226577:1.5137070937782131] [-0.50380182330804757:0.89623899232087467] [-14.210832214355468:8.2905008850097772] [0:90.752201690673857] [0.0092466164060876072:0.094543284063063698] [3.3528844938903557:87.315651507188448] [-0.48158620496423665:0.58931085381372394] [0:1.4984043377224401] [19.42327574238146:89.031526788433681] [0:2.6724242424242424] [-0.60622684155461326:0.93615584560692622] [-0.47048609218099419:-0.017961097735517503] [0.12386832628849109:1.1644372722359773] [-0.98561524791596855:1.5526759349357775] [-1.1113692848916199:0.30474937839169669] [0:0.99991855120157613] [30.92955029194631:67.640734130802457] [0.79196205732197922:1.415015916021499] [0:90.752201690673857] [0:1.1644372722359764] [0.21974444042181968:11.023636028228003] [0.0087578252174694404:0.10814860749775569] [0.79015024316895677:2.3044491673381668] [-0.56819576219901624:1.0818536132225245] [1.5628879047384403:8.0967153623324393] [0:7.5815151515151511] [-0.27749930943386769:0.11844883087453646] [1.5635787057263015:4.2865898799590072] [-0.82885558175978147:0] [-0.44383421259767869:0] [1.6634148549483294:42.235044627214123] [0:1] [0:0.49940298507462688] [0:0.9992790370945438] [-11.129914066033464:12.168267752148353] [0:2.8025968497232867] [0:1] [0.2373134328358209:1.5513636363636363] [0.052977908545708927:0.58767186138720684] [0.65669343057170992:1.359322657754396] [0:0.99925359436889405] [0:69.874411764705883] [-0.44383421259767869:0] [-0.82885558175978147:0] [0.013610460728805408:0.1371011237765179] [-0.98094708276797815:0.98127881315348353] [0.77977681545421318:1.267559165504996] [-0.22672869045077421:0.23577610352442346] [-0.82885558175978147:0] [-0.61111111412244556:1.1208509423268103] [-53:111] [0:1.7298536092349568] [0.31374999999999997:0.82874999999999999] [0:0.46951246857643125] [0:39.635294117647057] [-15.273057040998218:21.750232660228271] [-0.56819576219901624:1.0818536132225245] [0:0.99990472799749774] [0:0.12741119629545811] [0:33.271748991671465] [0.3812998621622371:1.5355423538595447] [-41.638496398925781:33.520469665527344] [-0.5139883174359311:0.54243812228525556] [0:90.752201690673857] [0.025000000000000001:0.095064921243082162] [0.19261238623673474:0.79998943467433203] [0:1.4984043377224401] [-0.42636059570794155:0]
tree_sizes=1156 1067 1280 975 1175 1272 1178 1390 1077 1184 1185 1185 1192 1284 1184 1180 1293 1293 1087 1192 1186 1188 1193 1185 1285 1292 1189 1189 1304 1392 980 1194 1081 1197 1188 1192 1293 1188 1189 1190 1195 1190 1191 1083 1298 1298 1178 1091 1389 1054 1182 1294 1291 1388 1386 1089 1401 1295 1277 1292 1297 1394 1193 1396 1393 1188 1297 1299 1295 1294 1179 1160 1081 1289 1190 1394 1290 1287 1380 1384 1185 1288 1191 1187 1194 1077 1187 1180 1400 1185 1606 1290 1290 1193 1605 1506 1081 1299 1402 1395 1284 1285 1495 1403 1169 1378 1188 1196 1505 1486 1192 1298 1409 1407 1186 1297 1192 1503 1401 1190 1301 1293 1399 1190 1382 1594 1507 1196 1500 1303 1717 1605 1612 1620 1511 1198 1614 1306 1514 1298 1399 1303 1411 1289 1503 1316 1528 1203 1601 1622 1406 1511 1299 1313 1511 1507 1626 1498 1706 1414 1621 1397 1514 1506 1627 1398 1418 1598 1270 1401 1492 1400 1302 1595 1415 1273 1408 1413 1516 1194 1208 1846 1308 1397 1424 1199 1848 1520 1296 1592 1509 1498 1639 990 1082 1526 1402 1096 1403 1630 1631 1099 1607 1614 1312 1523 1529 1627 1512 1647 1320 1420 1612 1729 1297 1525 1305 1204 1427 1293 1497 1407 1420 1303 1299 1416 1631 1494 1280 1514 1601 1509 1289 1516 1312 1308 1413 1510 1411 1525 1087 1298 1630 1529 1599 1326 1298 1423 1425 1213 1736 1508 1214 1273 1194 1412 1503 1484 1299 1204 1179 1490 1742 1404 1568 1376 1397 1499 1424 1622 1303 1212 1618 1321 1494 1489 1497 1691 1314 1398 1614 1273 1292 1517 1582 1579 1596 1251 1514 1421 1629 1390 1526 1583 1429 1524 1414 1391 1665 1566 1580 1346 1499 1580 1482 1364 1451 1310 1488 1496 1199 1466 1512 1287 1200 1187 1529 1425 1379 1199 1571 1425 1596 1508 1282 1295 1519 1496 1531 1402 1657 1680 1475 1607 1357 1413 1395 1486 1475 1394 1342 1722 1526 1369 1473 1595 1367 1599 1679 1451 1581 1474 1576 1413 1491 1585 1377 1364 1586 1252 1553 1162 1562 1660 1487 1393 1380 1268 1749 1366 1397 1250 1372 1207 1356 1525 1572 1395 1377 1447 1299 1372 1294 1352 1287 1312 1340 1471 1189 1381 1379 1631 1371 1503 1605 1587 1478 1497 1480 1370 1509 1243 1377 1352 1397 1456 1456 1216 1688 1482 1375 1465 1379 1407 1476 1381 1287 1290 1568 1577 1542 1481 1479 1482 1478 1287 1390 1388 1491 1468 1482 1638 1366 1288 1473 1564 1312 1343 1267 1341 1351 1227 1467 1372 1452 1454 1447 1464 1283 1283 1365 1268 1561 1443 1453 1587 1568 1499 1481 1423 1266 1486 1335 1460 1452 1376 1380 1440 1269 1243 1372 1338 1168 1255 1363 1453 1339 1458 1536 1435 1299 1254 1368 1329 1418 1254 1751 1311 1303 1346 1342 1398 1351 1364 1226 1363 1337 1251 1506 1381

Tree=0
num_leaves=10
num_cat=0
split_feature=39 47 93 41 14 62 90 10 73
split_gain=925.895 635.365 295.306 83.2145 77.3003 160.077 49.488 11.606 0.6753
threshold=0.48638290490404351 0.89378957318422081 48.447618525021959 0.31047432343200759 -0.054182800945091585 0.11597742748519931 0.12987274697279186 0.43897004552459934 0.024416312690326542
decision_type=2 2 2 2 2 2 2 2 2
left_child=1 2 -1 -3 -4 -6 -2 8 -8
right_child=6 3 4 -5 5 -7 7 -9 -10
leaf_value=-1.8512403924351379 -1.8350239335717973 -1.8545316860069052 -1.6239124961618201 -1.7109004923518898 -1.84957287534975 -1.6618501151669869 -1.6429983869939513 -1.6172739168027577 -1.7078755445451839
leaf_weight=7.6753559112548819 0.83949205279350181 34.299246728420258 30.327532887458801 3.0616769492626181 5.2768071889877346 13.50947320461273 9.6083042025566119 136.74549838900566 10.504232645034788
leaf_count=64 7 286 25 8 44 25 10 106 35
internal_value=-1.66861 -1.74427 -1.68191 -1.84013 -1.65531 -1.71352 -1.62422 -1.62299 -1.66979
internal_weight=251.848 94.1501 56.7892 37.3609 49.1138 18.7863 157.698 156.858 20.1125
internal_count=610 452 158 294 94 69 158 151 45
is_linear=0
shrinkage=1


Tree=1
num_leaves=9
num_cat=0
split_feature=39 2 78 112 103 90 0 90
split_gain=641.38 617.321 122.011 72.8423 112.645 36.7818 8.0493 0.307819
threshold=0.48638290490404351 0.96426324433407407 0.044586665567016494 1.0156171063720258 0.34377567649404422 0.12987274697279186 0.33076324256429229 0.1906179449244203
decision_type=2 2 2 2 2 2 2 2
left_child=1 3 -3 4 -1 -2 -7 -8
right_child=5 2 -4 -5 -6 6 7 -9
leaf_value=-0.029109880132680895 -0.014148774854300161 -0.033775514621204913 0.087060108702029806 0.16073199730353857 0.1341330456703794 0.082384228363180406 0.14002993861943855 0.173675042882381
leaf_weight=5.6016865074634543 0.83087098598480125 37.613448761403561 8.3443587720394117 38.76149745285511 9.0191797241568548 3.9828162640333167 30.796536669135094 145.01708614826202
leaf_count=47 7 319 30 40 16 12 51 88
internal_value=0.132594 0.070281 -0.0103852 0.138697 0.0735381 0.166272 0.167196 0.168624
internal_weight=279.967 99.3402 45.9578 53.3824 14.6209 180.627 179.796 175.814
internal_count=610 452 349 103 63 158 151 139
is_linear=0
shrinkage=0.03


Tree=2
num_leaves=11
num_cat=0
split_feature=96 47 86 33 69 21 73 31 17 63
split_gain=471.287 374.947 114.002 92.2344 58.9046 35.1423 43.9426 73.0743 15.5044 25.5278
threshold=0.034168031773422113 0.89378957318422081 1.0000000180025095e-35 0.035738944796036468 1.2243345464104216 0.12179487179487181 0.027931106365554407 -0.03730990297194809 0.035932253024751053 -0.03609855442309013
decision_type=2 2 2 2 2 2 2 2 2 2
left_child=1 2 4 -3 -1 6 7 -2 9 -4
right_child=5 3 8 -5 -6 -7 -8 -9 -10 -11
leaf_value=-0.030468002823094958 0.10464821175244936 -0.033511088009593702 0.038008909001712075 0.12609094564084564 0.10855945709609097 0.15028967094470538 0.13387987590241271 -0.028804072955942003 0.14208029290176913 0.12047082521335875
leaf_weight=7.5298915058374387 11.056390836834906 31.687058389186859 6.9781895577907553 2.6298038959503165 3.0574287995696068 165.40215871483088 31.724047273397446 4.7561412006616584 30.292090773582458 9.8276185169816035
leaf_count=63 24 273 35 1 3 99 31 37 30 14
internal_value=0.117977 0.060241 0.106334 -0.0179714 0.0153257 0.14251 0.112842 0.0650039 0.125986 0.0904567
internal_weight=304.941 92.0021 57.6852 34.3169 10.5873 212.939 47.5366 15.8125 47.0979 16.8058
internal_count=610 419 145 274 66 191 92 61 79 49
is_linear=0
shrinkage=0.03


Tree=3
num_leaves=8
num_cat=0
split_feature=46 119 10 36 53 101 44
split_gain=373.106 263.252 144.887 85.3688 183.685 168.099 66.8964
threshold=7.5000000000000009 -0.29459381991765782 0.73561529332712527 0.26867621880952808 -0.031875621687069554 -0.16229248974162222 0.56906805287600026
decision_type=2 2 2 2 2 2 2
left_child=1 6 -2 4 -3 -6 -1
right_child=2 3 -4 -5 5 -7 -8
leaf_value=-0.032503873988404063 -0.033771147884734926 0.1274774741841222 0.11974026012235643 0.13345314065174282 0.1184105860052333 -0.032491705507226319 0.10488209215580109
leaf_weight=13.001077190041544 22.251413829624656 46.422519132494926 6.260793685913085 209.88751477003098 9.8970389664173144 16.179301775991917 3.1303968429565421
leaf_count=106 178 52 2 123 8 140 1
internal_value=0.106656 0.116528 0.00275081 0.123238 0.0922115 0.026929 -0.00110233
internal_weight=327.03 298.518 28.5122 282.386 72.4989 26.0763 16.1315
internal_count=610 430 180 323 200 148 107
is_linear=0
shrinkage=0.03


Tree=4
num_leaves=10
num_cat=0
split_feature=12 97 67 22 7 20 36 36 90
split_gain=416.286 202.034 248.391 26.6637 44.773 87.5948 4.71049 11.2712 17.3156
threshold=0.30849514296003783 -0.097290592492085104 0.43668716070741481 0.038487492284476739 0.019512286172977348 0.94875000000000009 0.28653334320465568 0.23411349729136857 0.17324498020565102
decision_type=2 2 2 2 2 2 2 2 2
left_child=1 2 -1 6 -5 -6 7 -3 -9
right_child=-2 3 -4 4 5 -7 -8 8 -10
leaf_value=-0.033449539268016228 -0.033069113360414903 0.11228216080506276 0.10465097039118416 0.11423254764418374 -0.031325153924432109 0.10985828739052515 0.12337949718637499 0.031406233329928403 0.10131013177187931
leaf_weight=19.760828197002411 20.222698852419853 43.549686081707478 26.426244415342808 17.367055676877502 7.3727034255862218 6.7111255377531052 190.61124238371849 7.6469326168298704 7.1869189813733101
leaf_count=161 173 53 34 11 56 3 76 37 6
internal_value=0.0974828 0.105651 0.0460453 0.115258 0.0826779 0.0385747 0.119015 0.102876 0.0697231
internal_weight=346.855 326.633 46.1871 280.446 31.4509 14.0838 248.995 58.3835 14.8339
internal_count=610 437 195 242 70 59 172 96 43
is_linear=0
shrinkage=0.03


Tree=5
num_leaves=11
num_cat=0
split_feature=12 22 77 36 47 11 12 89 46 17
split_gain=359.03 112.293 108.987 50.4089 120.562 51.116 21.1272 21.8212 13.0408 9.1456
threshold=0.30849514296003783 0.046234405535656421 3.8665694255992764 0.28653334320465568 0.97689034036886435 0.060243015674283619 0.0010495533268707388 1.4469293239683936 2.5000000000000004 -1.3674079768026199
decision_type=2 2 2 2 2 2 2 2 2 2
left_child=1 3 8 4 6 -6 7 -1 -3 -10
right_child=-2 2 -4 -5 5 -7 -8 -9 9 -11
leaf_value=0.024512922505662667 -0.032879046706581878 0.1048795548407791 -0.032072184361944783 0.11036157153448309 -0.031838861598779869 0.083821251611342712 0.10995537589984584 0.09046845204067841 0.085538747541177601 0.026582168812252577
leaf_weight=8.6180821657180786 19.742456428706646 10.759852573275566 11.027297049760817 231.52035453915596 10.85718262940645 3.842829927802085 43.922167427837849 12.096404232084751 3.7328732535243043 8.2188842445611936
leaf_count=43 173 5 91 109 91 6 36 14 3 39
internal_value=0.0899913 0.0971142 0.0431945 0.102799 0.0795954 0.00161865 0.0969887 0.0655589 0.079677 0.0504103
internal_weight=364.338 344.596 33.7389 310.857 79.3367 14.7 64.6367 20.7145 22.7116 11.9518
internal_count=610 437 138 299 190 97 93 57 47 42
is_linear=0
shrinkage=0.03


Tree=6
num_leaves=10
num_cat=0
split_feature=12 97 30 87 90 7 23 10 10
split_gain=314.022 143.828 241.7 18.657 62.3236 43.7788 6.22873 20.4467 2.55257
threshold=0.30849514296003783 -0.097290592492085104 0.30370451323011421 1.5364541136188274 0.18858201682594675 0.034381800501385638 0.11400229000901542 0.43897004552459934 0.22357360921876793
decision_type=2 2 2 2 2 2 2 2 2
left_child=1 2 -1 6 5 -5 -3 8 -8
right_child=-2 3 -4 4 -6 -7 7 -9 -10
leaf_value=-0.033810698309507663 -0.032693796630670902 0.10377649651987501 0.098612149514709216 0.082621928429871552 0.096391302148513353 -0.031334471539720965 0.063433962930993334 0.096451611283246155 0.027870747495946768
leaf_weight=21.393001601099968 19.271479070186615 229.07952657341957 27.212667383253574 3.7993008345365507 27.488375633955002 7.2786775380373001 4.7302353009581557 31.497520446777344 8.0152057558298093
leaf_count=173 173 108 22 2 15 55 9 17 36
internal_value=0.0837271 0.0900323 0.0407612 0.0975464 0.0728688 0.0111045 0.100739 0.0830005 0.0449423
internal_weight=379.766 360.495 48.6057 311.889 38.5664 11.078 273.322 44.243 12.7454
internal_count=610 437 195 242 72 57 170 62 45
is_linear=0
shrinkage=0.03


Tree=7
num_leaves=12
num_cat=0
split_feature=12 22 18 8 90 75 1 39 90 24 76
split_gain=277.826 82.8584 79.4318 53.2912 34.6929 61.5711 12.9571 54.4714 37.4859 9.91448 8.15026
threshold=0.30849514296003783 0.046234405535656421 1.1561390764687209 0.38676843618694107 0.12987274697279186 0.0030982131487359292 -0.01700014305571412 0.48748787861854892 0.18858201682594675 2.8071641791044781 1.7873240423653616
decision_type=2 2 2 2 2 2 2 2 2 2 2
left_child=1 4 3 -3 5 -1 -6 8 -8 -7 -11
right_child=-2 2 -4 -5 6 9 7 -9 -10 10 -12
leaf_value=-0.029441017327597362 -0.032513091266434355 -0.032778736336568068 0.082883665674447951 0.081809022542723639 0.096379553929499137 0.091157704736637993 -0.030088809919305386 0.087715906377793987 0.075528465682742574 0.079333526875670954 0.024847633469000211
leaf_weight=5.6463604122400275 18.80976976454258 14.274095542728903 17.177939958870411 3.8004868030548087 231.10983487963676 15.986834950745108 6.6055342480540258 63.397554472088814 4.0406663119792938 3.9386094510555258 8.5025930032134038
leaf_count=47 173 118 19 1 95 9 55 46 2 3 42
internal_value=0.0784081 0.0840593 0.0385825 -0.00550169 0.0886492 0.0565575 0.0920264 0.0772957 0.0127829 0.0741604 0.0469388
internal_weight=393.29 374.481 35.2525 18.0746 339.228 34.0744 305.154 74.0438 10.6462 28.428 12.4412
internal_count=610 437 138 119 299 101 198 103 57 54 45
is_linear=0
shrinkage=0.03


Tree=8
num_leaves=9
num_cat=0
split_feature=54 46 10 97 95 51 52 1
split_gain=210.974 132.745 86.2457 47.1557 128.155 9.9361 39.3657 87.2411
threshold=1.6022875785827639 7.5000000000000009 0.73561529332712527 -0.097290592492085104 -0.25886592010823922 -0.01419624830142424 0.39958818341812458 0.090893009447561082
decision_type=2 2 2 2 2 2 2 2
left_child=1 3 -3 4 -1 -5 7 -7
right_child=-2 2 -4 5 -6 6 -8 -9
leaf_value=0.082124834058173002 -0.033064410215944029 -0.032843177678124919 0.082329068483092252 0.09107998416926022 -0.031956642227393466 -0.030974544997514404 0.087222170191631782 0.079387052706779884
leaf_weight=30.450227379798889 15.414608150720595 15.390266776084902 8.1046857833862287 225.80770356953144 11.668263986706732 9.153560973703863 71.466260895133018 17.572508916258812
leaf_count=26 129 131 2 88 102 80 35 17
internal_value=0.073849 0.0781604 0.00850264 0.082587 0.0504426 0.0865884 0.0754149 0.0417266
internal_weight=405.028 389.613 23.495 366.119 42.1185 324 98.1923 26.7261
internal_count=610 481 133 348 128 220 132 97
is_linear=0
shrinkage=0.03


Tree=9
num_leaves=10
num_cat=0
split_feature=54 46 10 97 95 36 7 90 37
split_gain=190.301 116.366 80.4256 40.69 116.317 6.72902 32.6444 55.9497 1.39687
threshold=1.6022875785827639 7.5000000000000009 0.73561529332712527 -0.097290592492085104 -0.25886592010823922 0.26867621880952808 0.049939818224454507 0.078672489074151822 0.3990757691122348
decision_type=2 2 2 2 2 2 2 2 2
left_child=1 3 -3 4 -1 6 8 -8 -5
right_child=-2 2 -4 5 -6 -7 7 -9 -10
leaf_value=0.077290217895942925 -0.032854008446766843 -0.032638784277121559 0.078149941027606584 0.068847287339577595 -0.031752642570195999 0.084589978815364425 0.076415550287860901 -0.031208672137715224 0.092304041743386661
leaf_weight=31.431055441498756 15.059698306024073 15.033701203763487 8.3317861557006818 34.151036500930786 11.401393875479696 260.14191560447216 8.5817204266786558 7.1336294636130324 23.870597645640373
leaf_count=26 129 131 2 54 102 97 5 57 7
internal_value=0.0698766 0.0738234 0.00832973 0.0778448 0.0481339 0.0814923 0.069538 0.0284381 0.0799488
internal_weight=415.137 400.077 23.3655 376.711 42.8324 333.879 73.737 15.7153 58.0216
internal_count=610 481 133 348 128 220 123 62 61
is_linear=0
shrinkage=0.03


Tree=10
num_leaves=10
num_cat=0
split_feature=94 46 5 37 97 67 68 37 96
split_gain=159.552 97.8263 73.921 46.1874 29.9724 107.126 8.15192 33.7192 64.6136
threshold=-0.29038132670563022 7.5000000000000009 0.73136147574863941 1.2495753215677479 -0.097290592492085104 0.43668716070741481 50.631040473053083 0.36585036238079116 0.023438828984938129
decision_type=2 2 2 2 2 2 2 2 2
left_child=3 4 -3 -1 5 -2 -6 8 -8
right_child=1 2 -4 -5 6 -7 7 -9 -10
leaf_value=-0.033109314782721368 -0.032177414112238463 0.074456556477564911 -0.032414255275949939 0.067585436589675599 0.080750274417988585 0.075127119482052848 0.070044798827005011 0.077972659890392218 -0.03132605462785882
leaf_weight=17.838501319289211 10.564425043761728 8.5291757583618182 14.002054423093794 4.2498216629028311 257.20511348545551 31.734795868396759 13.841162823140623 57.51220740377903 8.3519580736756307
leaf_count=157 90 2 124 1 102 25 12 26 71
internal_value=0.066388 0.0706967 0.00935902 -0.0115174 0.0742991 0.0481338 0.0774231 0.0657818 0.0320606
internal_weight=423.829 401.741 22.5312 22.0883 379.21 42.2992 336.91 79.7053 22.1931
internal_count=610 452 126 158 326 115 211 109 83
is_linear=0
shrinkage=0.03


Tree=11
num_leaves=10
num_cat=0
split_feature=94 46 10 50 97 67 51 52 1
split_gain=143.952 87.0415 69.3235 43.9195 26.4687 98.1458 8.71698 28.203 68.2573
threshold=-0.29038132670563022 7.5000000000000009 0.73561529332712527 1.3583973153252549 -0.097290592492085104 0.43668716070741481 -0.01419624830142424 0.39958818341812458 0.090893009447561082
decision_type=2 2 2 2 2 2 2 2 2
left_child=3 4 -3 -1 5 -2 -6 8 -8
right_child=1 2 -4 -5 6 -7 7 -9 -10
leaf_value=-0.032912212699170586 -0.031956779173717496 -0.032215526226562582 0.07117000999710027 0.064953926509854321 0.077362482598405433 0.071225661250303982 -0.030822112724136021 0.073600034479142887 0.066429809709154922
leaf_weight=17.419299796223644 10.328713923692701 13.676864020526411 8.698819160461424 4.3286008834838858 243.31090725213289 32.511241495609283 8.7995423004031199 72.73837947845459 19.255109593272209
leaf_count=157 90 124 2 1 81 25 78 33 19
internal_value=0.0633149 0.0673047 0.00917373 -0.0113024 0.0706261 0.0461185 0.0735261 0.0635667 0.0358118
internal_weight=431.067 409.32 22.3757 21.7479 386.944 42.84 344.104 100.793 28.0547
internal_count=610 452 126 158 326 115 211 130 97
is_linear=0
shrinkage=0.03


Tree=12
num_leaves=10
num_cat=0
split_feature=94 22 18 65 50 63 45 19 110
split_gain=130.644 67.0082 68.7779 42.7992 41.8229 15.8976 42.7275 75.2642 0.187812
threshold=-0.29038132670563022 0.046234405535656421 1.1561390764687209 0.59438919715762706 1.3583973153252549 -0.065493907458072917 -0.014019995818507503 0.11889822288553131 0.025111217414595054
decision_type=2 2 2 2 2 2 2 2 2
left_child=4 5 3 -3 -1 -2 8 -8 -7
right_child=1 2 -4 -5 -6 6 7 -9 -10
leaf_value=-0.032719759866994665 0.072463761804485965 -0.032765741909341436 0.06654041708645754 0.064037094700224131 0.062557165292969286 0.071706032409210751 -0.032724292161696054 0.066986588157599294 0.053950197607240888
leaf_weight=17.008203662931923 273.15530595183372 16.780994638800625 18.85009191185236 4.3551707267761222 4.3968405723571768 55.385099001228809 11.745702579617502 13.787214189767836 21.510578401386738
leaf_count=157 104 152 15 1 1 35 103 6 36
internal_value=0.0605877 0.064305 0.0263785 -0.0106919 -0.0110963 0.0682541 0.0564066 0.0214997 0.0675339
internal_weight=436.975 415.57 39.9863 21.1362 21.405 375.584 102.429 25.5329 76.8957
internal_count=610 452 168 153 158 284 180 109 71
is_linear=0
shrinkage=0.03


Tree=13
num_leaves=11
num_cat=0
split_feature=94 46 10 37 22 34 8 63 24 37
split_gain=119.08 72.9918 61.9935 39.878 20.382 35.908 33.812 6.71101 31.262 68.7997
threshold=-0.29038132670563022 7.5000000000000009 0.73561529332712527 1.2495753215677479 0.047244183721553694 -0.23765451300949972 0.38676843618694107 -0.065493907458072917 2.8683582089552244 0.40520008556379233
decision_type=2 2 2 2 2 2 2 2 2 2
left_child=3 4 -3 -1 7 -6 -7 -2 -9 -10
right_child=1 2 -4 -5 5 6 -8 8 9 -11
leaf_value=-0.032531695343538773 0.069804959624563914 -0.032049637061363233 0.065419037818629788 0.06036572630342317 0.064937026896111194 -0.031215417122814719 0.061719842827002366 0.067098898182117381 -0.032873866124573783 0.066597212059790134
leaf_weight=16.60520696640015 266.54214773327112 13.304056860506536 8.9691324234008771 4.4551410675048819 18.886967286467552 9.0638938546180707 4.4196453094482413 75.717137791216373 9.8171153366565722 14.13605187833309
leaf_count=157 92 124 2 1 12 82 1 49 78 12
internal_value=0.0581236 0.0616023 0.00819532 -0.0108985 0.0645512 0.0393087 0.00119798 0.0666612 0.0576143 0.0260255
internal_weight=441.916 420.856 22.2732 21.0603 398.583 32.3705 13.4835 366.212 99.6703 23.9532
internal_count=610 452 126 158 326 95 83 231 139 90
is_linear=0
shrinkage=0.03


Tree=14
num_leaves=10
num_cat=0
split_feature=94 46 43 37 97 67 51 39 42
split_gain=109.069 66.1447 58.5581 38.0683 21.3287 81.275 6.94696 29.5706 52.228
threshold=-0.29038132670563022 7.5000000000000009 0.14386573943777953 1.2495753215677479 -0.097290592492085104 0.43668716070741481 -0.01419624830142424 0.48748787861854892 23.887056350708011
decision_type=2 2 2 2 2 2 2 2 2
left_child=3 4 -3 -1 5 -2 -6 8 -8
right_child=1 2 -4 -5 6 -7 7 -9 -10
leaf_value=-0.03234777248998312 -0.031976499766619815 -0.031858430289237738 0.063036645956435836 0.058354769626669724 0.067825860078758085 0.062085960306247349 0.057120007486155221 0.0645465400906724 -0.031120826274774138
leaf_weight=16.210289992392067 10.073894679546354 12.99309289455414 9.0651197433471662 4.5040912628173819 253.92509939521551 34.145683199167252 15.295712098479273 80.700732350349426 8.7372717857360822
leaf_count=157 90 124 2 1 81 25 18 35 77
internal_value=0.0559181 0.0591905 0.00805238 -0.0107083 0.0619561 0.0403575 0.0644911 0.0558126 0.0249582
internal_weight=445.651 424.937 22.0582 20.7144 402.878 44.2196 358.659 104.734 24.033
internal_count=610 452 126 158 326 115 211 130 95
is_linear=0
shrinkage=0.03


Tree=15
num_leaves=10
num_cat=0
split_feature=94 39 2 69 37 89 37 1 1
split_gain=100.289 37.9355 114.927 54.2814 36.3798 2.57649 17.4929 1.73395 1.7994
threshold=-0.29038132670563022 0.48638290490404351 0.96426324433407407 0.91326547916200085 1.2495753215677479 1.4469293239683936 0.40520008556379233 -0.26737159620994938 -0.1148376782455121
decision_type=2 2 2 2 2 2 2 2 2
left_child=4 2 5 -4 -1 6 -2 -3 -9
right_child=1 7 3 -5 -6 -7 -8 8 -10
leaf_value=-0.032167756282073127 0.012621125847306481 0.065717953691098743 0.044332085414414663 -0.032733849051811294 0.056503203274125439 0.064796439691349544 0.066774125420332148 0.040880401250011564 0.059134732071218249
leaf_weight=15.823421783745291 9.6400047466158885 198.25068092346191 11.867152854800223 21.796203002333641 4.5442647933959952 61.365425661206245 13.555489487946032 17.424144998192787 94.096590936183929
leaf_count=157 44 48 31 212 1 29 4 24 60
internal_value=0.0539199 0.0570112 0.041749 -0.00498451 -0.0105254 0.0602293 0.045844 0.0626732 0.056698
internal_weight=448.363 427.996 118.224 33.6634 20.3677 84.5609 23.1955 309.771 111.521
internal_count=610 452 320 243 158 77 48 132 84
is_linear=0
shrinkage=0.03


Tree=16
num_leaves=11
num_cat=0
split_feature=94 46 43 45 97 83 51 7 6 51
split_gain=92.467 58.3864 53.3835 34.8001 18.504 80.5209 5.8156 16.1702 40.8167 2.24645
threshold=-0.29038132670563022 7.5000000000000009 0.14386573943777953 -0.48293753681998491 -0.097290592492085104 0.027399442312857018 -0.01419624830142424 0.049939818224454507 0.0086897162265693797 0.03118839447701716
decision_type=2 2 2 2 2 2 2 2 2 2
left_child=3 4 -3 -1 5 -2 -6 9 -9 -8
right_child=1 2 -4 -5 6 -7 7 8 -10 -11
leaf_value=0.054793004551411249 -0.032513394721460802 -0.031807056208336251 0.058739615075260647 -0.031991423220571968 0.06295302192937377 0.059584634184365125 0.044082355343909176 -0.031820212568124451 0.052992390027276064 0.062300519806226369
leaf_weight=4.576217174530032 10.536799825727938 12.775680035352709 9.2004632949829084 15.44456050544977 257.75611566007137 34.056393407285213 22.615118160843849 6.6269459351897266 15.156123034656046 61.698732770979404
leaf_count=1 93 124 2 157 81 22 38 54 12 26
internal_value=0.0520781 0.0550061 0.00687702 -0.0103492 0.0575652 0.0375214 0.0599039 0.0519495 0.0267945 0.0580231
internal_weight=450.443 430.422 21.9761 20.0208 408.446 44.5932 363.853 106.097 21.7831 84.3139
internal_count=610 452 126 158 326 115 211 130 66 64
is_linear=0
shrinkage=0.03


Tree=17
num_leaves=11
num_cat=0
split_feature=94 46 10 52 22 49 65 63 24 29
split_gain=85.5534 53.5685 50.6928 33.3189 15.8257 32.1866 29.326 5.52972 24.1673 34.2278
threshold=-0.29038132670563022 7.5000000000000009 0.73561529332712527 0.82375914084370006 0.047244183721553694 -0.059678302373467843 0.59438919715762706 -0.065493907458072917 2.8683582089552244 -0.0093145221926427529
decision_type=2 2 2 2 2 2 2 2 2 2
left_child=3 4 -3 -1 7 -6 -7 -2 -9 -10
right_child=1 2 -4 -5 5 6 -8 8 9 -11
leaf_value=-0.031818559772417487 0.060199957817920396 -0.031620083469607284 0.056939182587868106 0.053208699788600607 0.057832819551982356 -0.031608846281045162 0.053817428151588416 0.057650158450967041 0.043099065390884192 -0.03281005251446021
leaf_weight=15.073654718697073 274.45932500809431 12.47613123804331 9.2376480102539045 4.6004843711853018 19.134943656623363 9.2323049977421743 4.5918273925781241 78.38166418671608 17.777382954955105 6.5888139158487311
leaf_count=157 92 124 2 1 9 85 1 49 43 47
internal_value=0.0504042 0.0531881 0.00677152 -0.0101792 0.0556156 0.0336277 -0.00131499 0.0574349 0.049511 0.0219701
internal_weight=451.554 431.88 21.7138 19.6741 410.166 32.9591 13.8241 377.207 102.748 24.3662
internal_count=610 452 126 158 326 95 86 231 139 90
is_linear=0
shrinkage=0.03


Tree=18
num_leaves=9
num_cat=0
split_feature=119 46 10 9 51 52 17 9
split_gain=76.8079 54.5572 49.6446 31.7451 15.2945 39.8499 61.1821 0.0432744
threshold=-0.29459381991765782 7.5000000000000009 0.73561529332712527 -0.49803627782189835 -0.01419624830142424 0.39958818341812458 0.1378010685354045 0.040787681928615933
decision_type=2 2 2 2 2 2 2 2
left_child=3 4 -3 -1 -2 6 -6 -7
right_child=1 2 -4 -5 5 7 -8 -9
leaf_value=0.051736932304619246 0.058017419024835558 -0.031624111105268853 0.055282624030533557 -0.031660676660934792 -0.031864774912681117 0.047703715402781732 0.04679955178953004 0.059829659994904333
leaf_weight=4.6175813674926784 286.39658126235008 12.970829807221891 9.2586250305175763 14.350389979779719 13.633935824036596 41.785034529864788 21.880986459553242 47.084829077124596
leaf_count=1 115 131 2 153 133 30 30 15
internal_value=0.0488596 0.0514451 0.00526524 -0.00963379 0.053918 0.0440677 0.0164731 0.0547559
internal_weight=451.979 433.011 22.2295 18.968 410.781 124.385 35.5149 88.8699
internal_count=610 456 133 154 323 208 163 45
is_linear=0
shrinkage=0.03


Tree=19
num_leaves=10
num_cat=0
split_feature=94 46 5 65 97 83 51 39 42
split_gain=74.0289 45.4776 45.8846 30.6475 16.2489 70.2784 5.08488 22.3081 41.362
threshold=-0.29038132670563022 7.5000000000000009 0.73136147574863941 0.74175220602157677 -0.097290592492085104 0.027399442312857018 -0.01419624830142424 0.48748787861854892 23.887056350708011
decision_type=2 2 2 2 2 2 2 2 2
left_child=3 4 -3 -1 5 -2 -6 8 -8
right_child=1 2 -4 -5 6 -7 7 -9 -10
leaf_value=-0.031503726281068262 -0.032559503190311978 0.053753471361206145 -0.031255232282833473 0.050366118538414655 0.057165898238434397 0.053796037804243343 0.047888334053394634 0.054479088967850385 -0.030876955402141391
leaf_weight=14.384816288948061 10.349251702427862 9.2646684646606463 11.893851719796656 4.6280007362365714 259.56356489658356 34.553202286362648 15.938263155519964 82.780757829546928 8.4019921049475652
leaf_count=157 93 2 124 1 81 22 18 35 77
internal_value=0.0474296 0.0499725 0.00657811 -0.00990458 0.0521747 0.0335515 0.0543495 0.0470319 0.0204355
internal_weight=451.758 432.746 21.1585 19.0128 411.587 44.9025 366.685 107.121 24.3403
internal_count=610 452 126 158 326 115 211 130 95
is_linear=0
shrinkage=0.03


Tree=20
num_leaves=10
num_cat=0
split_feature=94 12 7 37 97 67 91 72 40
split_gain=69.044 40.2661 50.5037 29.4103 16.4318 66.6998 3.77835 3.67886 1.25622
threshold=-0.29038132670563022 0.19450551911525152 0.025361125880140882 1.2495753215677479 -0.097290592492085104 0.43668716070741481 0.68071100150814379 0.33875199207424467 0.93196444828599045
decision_type=2 2 2 2 2 2 2 2 2
left_child=3 4 -3 -1 5 -2 -6 -8 -9
right_child=1 2 -4 -5 6 -7 7 8 -10
leaf_value=-0.031339658471990162 -0.032023513243120555 0.042734648452800575 -0.03183308694902174 0.049086168023340426 -0.010769269521804858 0.052288030961766749 -0.0097639454200312645 0.029096145766212597 0.054066248351206665
leaf_weight=14.03681652992964 10.284652531147001 21.82332918792963 11.807569265365599 4.6322140693664542 0.4374857172369947 34.52479375898838 0.45869292318820853 6.0870226547121993 346.58674491196871
leaf_count=157 96 37 120 1 3 20 3 10 163
internal_value=0.0461283 0.0485669 0.0163046 -0.0097506 0.0512353 0.0325947 0.0534907 0.053609 0.0537272
internal_weight=450.679 432.01 33.6309 18.669 398.379 44.8094 353.57 353.132 352.674
internal_count=610 452 157 158 295 116 179 176 173
is_linear=0
shrinkage=0.03


Tree=21
num_leaves=10
num_cat=0
split_feature=94 46 10 37 10 47 5 45 45
split_gain=64.403 40.2595 42.5779 28.2414 13.8456 51.3024 31.0686 12.7467 50.4781
threshold=-0.29038132670563022 7.5000000000000009 0.73561529332712527 1.2495753215677479 0.43897004552459934 0.99459085184592488 0.8139767944928864 -0.037647224852486526 0.076048347434290564
decision_type=2 2 2 2 2 2 2 2 2
left_child=3 4 -3 -1 5 7 -7 -2 -9
right_child=1 2 -4 -5 -6 6 -8 8 -10
leaf_value=-0.031178324177158118 0.053610355274804351 -0.031117394242271851 0.051290051371597818 0.047888252485313386 0.053691221457557475 0.051385909908213186 -0.032962891482982482 -0.032474782080656413 0.048674963812784626
leaf_weight=13.696488097310068 92.485271744430065 11.566484272480013 9.2415161132812482 4.6306695938110343 262.94067016243935 4.6207871437072781 12.087154000997542 8.0501877143979055 30.184638790786266
leaf_count=157 48 124 2 1 78 1 114 65 20
internal_value=0.044868 0.047207 0.00601851 -0.00960146 0.0492685 0.0410517 -0.00788128 0.0473412 0.0311205
internal_weight=449.504 431.177 20.808 18.3272 410.369 147.428 16.7079 130.72 38.2348
internal_count=610 452 126 158 326 248 115 133 85
is_linear=0
shrinkage=0.03


Tree=22
num_leaves=10
num_cat=0
split_feature=94 46 10 31 97 30 51 44 1
split_gain=60.3201 37.4874 40.6552 27.1352 13.5749 73.2723 5.02919 11.0526 41.7282
threshold=-0.29038132670563022 7.5000000000000009 0.73561529332712527 -0.19996795771478265 -0.097290592492085104 0.30370451323011421 -0.01419624830142424 0.36192003937419504 0.090893009447561082
decision_type=2 2 2 2 2 2 2 2 2
left_child=3 4 -3 -1 5 -2 -6 8 -8
right_child=1 2 -4 -5 6 -7 7 -9 -10
leaf_value=0.046764611556838594 -0.033561818998800411 -0.030941890425561905 0.050048000116547975 -0.031019553567546463 0.052719948548541035 0.05276093552710779 -0.030292353015344303 0.048885626686170261 0.047330368687394438
leaf_weight=4.6237945556640652 11.110296376049517 11.292936809360983 9.2119793891906721 13.363744236528872 257.57960478961468 33.300943300127983 7.9446322843432453 78.421206519007683 20.429396815598011
leaf_count=1 101 124 2 157 81 14 76 38 16
internal_value=0.043751 0.0460042 0.00593922 -0.00945685 0.0479872 0.0308361 0.0499793 0.0429134 0.0252028
internal_weight=447.279 429.291 20.5049 17.9875 408.786 44.4112 364.375 106.795 28.374
internal_count=610 452 126 158 326 115 211 130 92
is_linear=0
shrinkage=0.03


Tree=23
num_leaves=10
num_cat=0
split_feature=119 46 10 9 10 45 8 2 83
split_gain=55.2325 38.7907 40.0487 26.0107 12.7507 26.9335 79.968 0.347616 4.95162
threshold=-0.29459381991765782 7.5000000000000009 0.73561529332712527 -0.49803627782189835 0.43897004552459934 -0.018685074274954857 -0.18374533797979317 0.97393437473299682 0.028170564645354116
decision_type=2 2 2 2 2 2 2 2 2
left_child=3 4 -3 -1 5 7 -7 -2 -9
right_child=1 2 -4 -5 -6 6 -8 8 -10
leaf_value=0.045708418198170536 0.051299414439225824 -0.030951507589330147 0.048889339738865792 -0.030949934232000209 0.05115212789443533 0.047902002024624454 -0.033572824816409746 0.027340941662708097 0.052212236302123738
leaf_weight=4.6119942665100124 62.160168781876564 11.726529285311701 9.1716804504394513 12.781659618020056 260.09874205291271 29.373441450297832 15.9494691491127 19.920388586819172 18.807485304772854
leaf_count=1 26 131 2 153 77 15 152 46 7
internal_value=0.0427069 0.0448387 0.004584 -0.00908064 0.0468855 0.0389792 0.0190598 0.0476234 0.040505
internal_weight=444.602 427.208 20.8982 17.3937 406.31 146.211 45.3229 100.888 38.7279
internal_count=610 456 133 154 323 246 167 79 53
is_linear=0
shrinkage=0.03


Tree=24
num_leaves=11
num_cat=0
split_feature=94 46 5 37 10 77 5 55 57 53
split_gain=53.3525 32.6902 37.1589 25.1185 12.3568 25.3888 41.5722 11.5515 4.51462 3.14214
threshold=-0.29038132670563022 7.5000000000000009 0.73136147574863941 1.2495753215677479 0.44330549531948021 3.8665694255992764 0.8139767944928864 15.736342906951906 8.2905929036682764 -0.016816975781868689
decision_type=2 2 2 2 2 2 2 2 2 2
left_child=3 4 -3 -1 5 7 -7 8 -2 -9
right_child=1 2 -4 -5 -6 6 -8 9 -10 -11
leaf_value=-0.030729755403689867 0.037032563242880061 0.047805902155372268 -0.030597810311389334 0.044713608444666153 0.050009570794710599 0.050000869015021529 -0.032139593976660601 0.051063780070661403 0.0035022988912829776 0.037362186935095111
leaf_weight=12.745263233780863 5.0835926681756964 9.1215596199035662 10.762068912386892 4.5956525802612296 253.5331544727087 9.3985330015420931 10.882892385125158 71.112934969365597 10.067048303782938 44.240964144468307
leaf_count=157 3 2 124 1 75 3 108 28 40 69
internal_value=0.0417306 0.0438375 0.0057929 -0.00922455 0.0456821 0.0381045 0.0063447 0.0429317 0.016535 0.0462009
internal_weight=441.544 424.203 19.8836 17.3409 404.319 150.786 20.2814 130.505 15.1506 115.354
internal_count=610 452 126 158 326 251 111 140 43 97
is_linear=0
shrinkage=0.03


Tree=25
num_leaves=11
num_cat=0
split_feature=119 46 5 9 1 97 39 7 37 25
split_gain=48.9321 33.9501 36.6863 24.0925 12.2943 30.1445 37.2687 15.5561 23.6651 1.01113
threshold=-0.29459381991765782 7.5000000000000009 0.73136147574863941 -0.49803627782189835 -0.24904297714365201 -0.097290592492085104 0.86492314932401626 0.049939818224454507 0.38419008319207265 -0.016210836480706547
decision_type=2 2 2 2 2 2 2 2 2 2
left_child=3 4 -3 -1 -2 6 -6 9 -9 -7
right_child=1 2 -4 -5 5 7 -8 8 -10 -11
leaf_value=0.043774825648525875 0.049981596855475735 0.046790518320263035 -0.030617174168114929 -0.030653329978235461 -0.033112461120865633 0.050170210705826404 0.044918076720967724 -0.0075463091658493362 0.043079266751572011 0.039408693560401074
leaf_weight=4.5751323699951199 213.2462560236454 9.0624990463256854 11.174927935004233 12.186839476227759 10.771978229284288 93.374583907425404 9.3489819020032865 13.340560756623743 19.609517619013786 41.64085478335619
leaf_count=1 56 2 131 153 104 33 3 68 11 48
internal_value=0.0407941 0.0427913 0.00447642 -0.00884869 0.0447 0.0384633 0.00341164 0.0425994 0.0228755 0.0471874
internal_weight=438.332 421.57 20.2374 16.762 401.333 188.086 20.121 167.966 32.9501 135.015
internal_count=610 456 133 154 323 267 107 160 79 81
is_linear=0
shrinkage=0.03


Tree=26
num_leaves=10
num_cat=0
split_feature=94 46 10 9 10 47 83 14 37
split_gain=47.31 28.6457 34.0666 23.2821 11.9579 29.474 32.9342 8.33597 47.3621
threshold=-0.29038132670563022 7.5000000000000009 0.73561529332712527 -0.49803627782189835 0.43897004552459934 0.97689034036886435 0.027399442312857018 -0.049708426637172225 0.35423790080661638
decision_type=2 2 2 2 2 2 2 2 2
left_child=3 4 -3 -1 5 7 -7 -2 -9
right_child=1 2 -4 -5 -6 6 -8 8 -10
leaf_value=0.042887275333773602 0.048165227009272657 -0.030263231215701101 0.045836883449065773 -0.030436406501793911 0.047794803753726085 -0.032670356109093281 0.03935261178052285 -0.034000096365033143 0.043294930940351445
leaf_weight=4.550777435302737 75.033706113696098 10.254524424672129 8.9953227043151838 12.136737406253813 254.26597584784031 10.630688250064852 10.22601482272148 7.7821180634200564 40.766671545803547
leaf_count=1 31 124 2 157 78 108 11 57 41
internal_value=0.0399246 0.0419009 0.00565714 -0.0089768 0.0436248 0.0359853 0.00268999 0.0415136 0.0304083
internal_weight=434.643 417.955 19.2498 16.6875 398.705 144.439 20.8567 123.582 48.5488
internal_count=610 452 126 158 326 248 119 129 98
is_linear=0
shrinkage=0.03


Tree=27
num_leaves=10
num_cat=0
split_feature=12 22 97 30 11 68 36 15 25
split_gain=45.2657 51.9293 21.4022 74.1122 2.79843 9.26212 32.5165 21.1694 0.0104935
threshold=0.19450551911525152 0.01968346652578316 -0.097290592492085104 0.30370451323011421 -0.012996257681044428 48.668053369582573 0.48180780629909215 0.16457868938179943 -0.10615707609871608
decision_type=2 2 2 2 2 2 2 2 2
left_child=2 8 3 -1 -4 -6 7 -7 -2
right_child=1 -3 4 -5 5 6 -8 -9 -10
leaf_value=-0.033371671955483996 0.045329467875781619 -0.03225443872073655 0.047221051567058719 0.046716179119022282 0.045129536807494749 -0.038014611830015484 0.047174573239620203 0.032741447792117247 0.028441952798336039
leaf_weight=14.183960799127815 9.0470356382429618 16.088680181652308 227.69044365733862 32.557427637279034 83.47402323782444 8.5270058885216695 22.101737499237061 5.3584221117198458 11.509629033505915
leaf_count=151 3 190 93 16 41 63 5 8 40
internal_value=0.0391092 0.00690761 0.0420723 0.0221602 0.0446734 0.039441 0.0253016 -0.0101429 0.0377714
internal_weight=430.538 36.6453 393.893 46.7414 347.152 119.461 35.9872 13.8854 20.5567
internal_count=610 233 377 167 210 117 76 71 43
is_linear=0
shrinkage=0.03


Tree=28
num_leaves=11
num_cat=0
split_feature=94 37 1 97 115 116 11 110 53 53
split_gain=43.0009 21.655 21.5358 35.3445 37.9009 17.5472 34.9064 12.2086 14.8402 0.0568366
threshold=-0.29038132670563022 1.2495753215677479 -0.24904297714365201 -0.097290592492085104 4.7697255611419687 0.061991251929012357 0.026500320192046654 0.035911666078292534 -0.13703403305872655 -0.0066928093317984985
decision_type=2 2 2 2 2 2 2 2 2 2
left_child=1 -1 -2 4 -4 7 -7 9 -9 -5
right_child=2 -3 3 5 -6 6 -8 8 -10 -11
leaf_value=-0.030221111142495302 0.046896184081593413 0.041152842476534453 0.041974884522082027 0.047533188366357768 -0.033270062231007258 -0.033435401088714255 0.039633323367921552 0.045008342572833475 -0.0041755301869084629 0.038906397530127861
leaf_weight=11.686343453824522 216.78904559463263 4.4877657890319815 9.2319565489888209 77.381486140191555 13.643212269991634 8.5711208842694777 14.360732819885014 9.0328825488686579 11.718574918806551 49.413522653281689
leaf_count=157 67 1 5 27 152 78 12 3 58 50
internal_value=0.0383289 -0.00899949 0.04022 0.0325164 -0.00229089 0.0371905 0.0119415 0.0409878 0.0181807 0.0445255
internal_weight=426.317 16.1741 410.143 193.353 22.8752 170.478 22.9319 147.546 20.7515 126.795
internal_count=610 158 452 385 157 228 90 138 61 77
is_linear=0
shrinkage=0.03


Tree=29
num_leaves=12
num_cat=0
split_feature=12 22 97 67 23 10 37 87 36 87 25
split_gain=41.3969 48.0378 19.0393 54.7613 3.00602 9.97004 28.1539 0.748352 2.67217 1.10016 0.0764827
threshold=0.19450551911525152 0.01968346652578316 -0.097290592492085104 0.43668716070741481 0.11400229000901542 0.43897004552459934 0.38419008319207265 1.3814046824433659 0.38045547130145857 1.7548545258620691 -0.10615707609871608
decision_type=2 2 2 2 2 2 2 2 2 2 2
left_child=2 10 3 -1 7 6 -6 -4 9 -9 -2
right_child=1 -3 4 -5 5 -7 -8 8 -10 -11 -12
leaf_value=-0.031549228928737766 0.043625155863948537 -0.032048518065665089 0.04564844136019694 0.040841215946247754 -0.034694797223034729 0.042585413582255115 0.043123883179051643 0.035271538318919826 0.044775255179968117 0.017901043356248845 0.026992382071226003
leaf_weight=12.039308294653891 8.8941404521465319 15.517200913280247 240.57795260101557 33.547153569757938 6.0014247000217429 35.792428240180016 9.4765920341014844 10.174491226673126 25.914914816617966 12.487041484564543 11.397765643894671
leaf_count=140 3 190 91 27 47 15 6 14 7 30 40
internal_value=0.0375941 0.00643664 0.0404526 0.0213918 0.0429261 0.0339714 0.0124941 0.044381 0.0372495 0.0269878 0.0361301
internal_weight=421.82 35.8091 386.011 45.5865 340.425 51.2704 15.478 289.154 48.5764 22.6615 20.2919
internal_count=610 233 377 167 210 68 53 142 51 44 43
is_linear=0
shrinkage=0.03


Tree=30
num_leaves=8
num_cat=0
split_feature=46 10 97 30 36 45 98
split_gain=37.2828 34.071 19.503 65.528 6.28892 18.3257 32.5724
threshold=7.5000000000000009 0.73561529332712527 -0.097290592492085104 0.30370451323011421 0.26867621880952808 -0.037647224852486526 0.95122721959989798
decision_type=2 2 2 2 2 2 2
left_child=2 -2 3 -1 5 -4 -7
right_child=1 -3 4 -5 -6 6 -8
leaf_value=-0.032991304734213162 -0.030603950623188127 0.04241024230417232 0.041916551411850772 0.042992304325970197 0.043883189952878765 0.037345814378355942 -0.031742041482128232
leaf_weight=13.849512491375206 13.247182849794628 8.643575191497801 57.599131405353546 32.21213061362505 268.16207442432642 14.330806382000448 9.2680733241140825
leaf_count=160 178 2 42 24 104 10 90
internal_value=0.0368827 -0.00104993 0.0389876 0.0198667 0.0414362 0.0328826 0.00990337
internal_weight=417.312 21.8908 395.422 46.0616 349.36 81.198 23.5989
internal_count=610 180 430 184 246 142 100
is_linear=0
shrinkage=0.03


Tree=31
num_leaves=10
num_cat=0
split_feature=94 12 22 9 97 67 91 72 36
split_gain=38.0807 24.7592 39.6384 19.7169 9.33943 41.462 2.705 2.37833 3.13328
threshold=-0.29038132670563022 0.19450551911525152 0.020913269065243462 -0.49803627782189835 -0.097290592492085104 0.43668716070741481 0.68071100150814379 0.33875199207424467 0.11839725254064074
decision_type=2 2 2 2 2 2 2 2 2
left_child=3 4 -3 -1 5 -2 -6 -8 -9
right_child=1 2 -4 -5 6 -7 7 8 -10
leaf_value=0.039015285998372333 -0.030824364444883061 0.03674806223729099 -0.031886310032939805 -0.030034818147053981 -0.010721348009546766 0.040667578265166704 -0.0087067413762497731 -0.011427323719872196 0.042292736639318387
leaf_weight=4.3781285285949698 8.5039127543568593 19.353034995496277 11.093071933835743 11.144970916211603 0.41962666809558768 32.313009701669216 0.41764533519744773 0.51091012358665366 324.25611357390881
leaf_count=1 96 33 124 157 3 20 3 3 170
internal_value=0.036216 0.0380184 0.0114269 -0.00919578 0.0401826 0.0253201 0.0419533 0.0420632 0.0421642
internal_weight=412.39 396.867 30.4461 15.5231 366.421 40.8169 325.604 325.185 324.767
internal_count=610 452 157 158 295 116 179 176 173
is_linear=0
shrinkage=0.03


Tree=32
num_leaves=9
num_cat=0
split_feature=12 2 97 30 51 39 45 111
split_gain=36.1269 43.9968 16.2036 60.6725 3.58602 14.627 24.6137 0.818107
threshold=0.19450551911525152 0.9347844025321197 -0.097290592492085104 0.30370451323011421 -0.01419624830142424 0.48748787861854892 -0.080162277646831342 26.212553725164124
decision_type=2 2 2 2 2 2 2 2
left_child=2 -2 3 -1 -4 6 -6 -7
right_child=1 -3 4 -5 5 7 -8 -9
leaf_value=-0.032796269729564308 0.035065761547270001 -0.031299492692288267 0.043018017252567813 0.042600134080192822 0.038237429109472441 0.032681307376693954 -0.030836266964069464 0.04383020918356615
leaf_weight=12.812267933040856 19.379951603710651 15.086528293788431 230.8488325253129 31.085139028728008 9.5902175977826136 33.962757758796215 7.2787013053894034 47.55635978281498
leaf_count=151 28 205 91 16 8 28 66 17
internal_value=0.0355486 0.00586859 0.0382591 0.0202871 0.0405775 0.034446 0.00820746 0.039674
internal_weight=407.601 34.4665 373.134 43.8974 329.237 98.388 16.8689 81.5191
internal_count=610 233 377 167 210 119 74 45
is_linear=0
shrinkage=0.03


Tree=33
num_leaves=10
num_cat=0
split_feature=94 46 10 9 10 47 99 6 53
split_gain=34.9656 22.6721 27.0499 18.4297 10.5748 23.3057 26.1543 9.27015 22.1431
threshold=-0.29038132670563022 7.5000000000000009 0.73561529332712527 -0.49803627782189835 0.44330549531948021 0.97689034036886435 -0.044035017507350734 1.0000000180025095e-35 -0.031875621687069554
decision_type=2 2 2 2 2 2 2 2 2
left_child=3 4 -3 -1 5 7 -7 8 -2
right_child=1 2 -4 -5 -6 6 -8 -9 -10
leaf_value=0.03765011198813252 0.037872170822373687 -0.029904500880136426 0.040343493837392858 -0.029868372871695994 0.042463986713919051 0.033899212566110476 -0.032470187909194571 0.042040423710682097 -0.009003532420385426
leaf_weight=4.2870664596557608 27.346867516636848 9.459251783788206 8.331105709075926 10.731410969048737 229.40831369161606 9.6269641071558016 9.7465092018246633 80.717526603490114 12.717849932610987
leaf_count=1 17 124 2 157 75 10 110 46 68
internal_value=0.0349458 0.0366869 0.00322882 -0.00926053 0.0382764 0.0311485 0.000407615 0.0360109 0.0230623
internal_weight=402.373 387.354 17.7904 15.0185 369.564 140.156 19.3735 120.782 40.0647
internal_count=610 452 126 158 326 251 120 131 85
is_linear=0
shrinkage=0.03


Tree=34
num_leaves=10
num_cat=0
split_feature=94 31 73 93 24 95 14 37 68
split_gain=33.2072 17.7966 17.119 71.9303 15.0303 28.3234 3.34248 17.6342 0.296902
threshold=-0.29038132670563022 -0.19996795771478265 0.027931106365554407 48.447618525021959 2.9890728177295345 -0.26777239531552338 -0.049708426637172225 0.36585036238079116 48.381248588921103
decision_type=2 2 2 2 2 2 2 2 2
left_child=1 -1 3 -2 6 -6 -5 -8 -4
right_child=2 -3 8 4 5 -7 7 -9 -10
leaf_value=0.037056030547628238 -0.03377046861235012 -0.029723520116467363 0.042997014354052683 0.042853770545748369 0.041399963636338313 -0.033749789930843488 -0.0026114091768925742 0.040968291195509453 0.036362616372184742
leaf_weight=4.2418384552001944 14.628159858286379 10.469038449227808 165.8953156247735 73.086063157767057 8.7425586730241793 7.4128465577960005 10.978581130504606 31.043375179171562 70.491266712546349
leaf_count=1 167 157 48 34 4 81 59 14 45
internal_value=0.0343727 -0.00914389 0.0360746 0.0275372 0.0345958 0.0067856 0.0383811 0.029717 0.0411928
internal_weight=396.989 14.7109 382.278 145.892 131.263 16.1554 115.108 42.022 236.387
internal_count=610 158 452 359 192 85 107 73 93
is_linear=0
shrinkage=0.03


Tree=35
num_leaves=10
num_cat=0
split_feature=94 46 5 9 1 86 19 53 52
split_gain=31.5715 21.0271 25.4261 17.1899 10.2318 21.1509 36.9888 6.08457 25.3656
threshold=-0.29038132670563022 7.5000000000000009 0.73136147574863941 -0.49803627782189835 -0.24904297714365201 -1.0000000180025095e-35 0.11377201837020971 -0.02395478549570226 0.4076856459417022
decision_type=2 2 2 2 2 2 2 2 2
left_child=3 4 -3 -1 -2 6 -6 -7 -9
right_child=1 2 -4 -5 5 7 -8 8 -10
leaf_value=0.036486458623413473 0.042131022297754755 0.039201155566890779 -0.029765738267188504 -0.029579887214572626 -0.039279477542386386 0.03967984936553659 0.035841668512115676 -0.0092260457852736399 0.03849923943445685
leaf_weight=4.1951303482055655 189.04707208275795 8.1200814247131365 9.1742435321211797 10.213005010038612 9.3764241896569747 100.71860586851835 12.663274094462393 13.366667322814463 34.541153818368912
leaf_count=1 58 2 124 157 85 61 7 99 16
internal_value=0.0338327 0.0354983 0.00282458 -0.00902948 0.0370487 0.0311889 0.00343468 0.035234 0.0252058
internal_weight=391.416 377.008 17.2943 14.4081 359.713 170.666 22.0397 148.626 47.9078
internal_count=610 452 126 158 326 268 92 176 115
is_linear=0
shrinkage=0.03


Tree=36
num_leaves=11
num_cat=0
split_feature=12 22 1 86 36 24 35 62 50 25
split_gain=31.0417 38.2241 12.5145 25.7735 27.962 9.4886 21.641 3.81688 2.77983 0.0475993
threshold=0.19450551911525152 0.01968346652578316 -0.23846422108826573 -1.0000000180025095e-35 0.49294087232629819 2.9890728177295345 0.69906446399353672 -0.12000505215754735 0.37725053767596778 -0.10615707609871608
decision_type=2 2 2 2 2 2 2 2 2 2
left_child=2 9 -1 4 -4 7 -7 -5 -9 -2
right_child=1 -3 3 5 -6 6 -8 8 -10 -11
leaf_value=0.041321966451809758 0.039043060667711162 -0.031631390999217406 -0.037100530534834225 0.0096161572643825681 0.03380781819474616 -0.031092668347173516 0.039148478458716746 0.029394512319730937 0.041171116158031207 0.023662172602692929
leaf_weight=190.41046063601971 8.2258165925741213 13.744500946253536 9.7328628823161143 5.8673135824501506 8.3733863681554777 5.9827889800071707 8.1092386245727521 45.703133881092072 79.13855591788888 10.535285897552965
leaf_count=65 3 190 100 14 4 69 2 87 36 40
internal_value=0.0333089 0.00497723 0.0358856 0.0292998 -0.0040982 0.033496 0.00904446 0.0360207 0.0371515 0.0321922
internal_weight=385.823 32.5056 353.318 162.907 18.1062 144.801 14.092 130.709 124.842 18.7611
internal_count=610 233 377 312 104 208 71 137 123 43
is_linear=0
shrinkage=0.03


Tree=37
num_leaves=10
num_cat=0
split_feature=12 22 1 61 39 50 8 53 1
split_gain=29.5868 36.6616 12.2929 22.1554 71.5837 1.66251 5.32801 6.88827 0.113328
threshold=0.19450551911525152 0.01968346652578316 -0.24904297714365201 1.3784328358208957 0.69468552371236791 0.37725053767596778 -0.063372732587670275 -0.036837803858042882 -0.26737159620994938
decision_type=2 2 2 2 2 2 2 2 2
left_child=2 8 -1 5 -5 6 -4 -8 -2
right_child=1 -3 3 4 -6 -7 7 -9 -10
leaf_value=0.040888248974959483 0.038635650657195542 -0.031470654290080266 0.039204898214768455 -0.03535744648587117 0.036203774551890396 0.040662935472276021 0.032940910349255705 -0.0016625409963128871 0.023078990253935242
leaf_weight=183.19324644654989 7.9949023723602322 13.410419713705776 25.161944769322872 17.703670527786016 37.592613540589809 65.458589263260365 9.8132843226194399 9.458155192434786 10.637731090188025
leaf_count=62 2 190 11 201 20 25 10 48 41
internal_value=0.0327869 0.00492102 0.0353199 0.0289177 0.0130183 0.0367014 0.0300327 0.0165658 0.0315348
internal_weight=380.425 32.0431 348.382 165.188 55.2963 109.892 44.4334 19.2714 18.6326
internal_count=610 233 377 315 221 94 69 58 43
is_linear=0
shrinkage=0.03


Tree=38
num_leaves=10
num_cat=0
split_feature=12 20 97 30 10 87 18 6 37
split_gain=28.2865 35.2948 12.9369 49.8812 3.62127 9.10145 16.2025 2.74545 4.72178
threshold=0.19450551911525152 0.28750000000000009 -0.097290592492085104 0.30370451323011421 0.43897004552459934 1.2192796824433658 1.1292047595551236 1.0000000180025095e-35 0.3990757691122348
decision_type=2 2 2 2 2 2 2 2 2
left_child=2 -2 3 -1 5 7 -7 8 -4
right_child=1 -3 4 -5 -6 6 -8 -9 -10
leaf_value=-0.032715510771478613 0.031041142373026145 -0.031241712969570557 0.010206773501190465 0.038846793117858484 0.039602253178058745 -0.031918774901962384 0.030716404838325908 0.039343472432745594 0.035583581182844333
leaf_weight=11.513647265732287 18.440034937113527 13.144170232117174 12.896695971488954 28.736539460718632 204.83250049501657 4.9287474304437628 8.9844917245209199 54.427974581718445 16.737552210688591
leaf_count=151 39 194 37 16 77 45 9 32 10
internal_value=0.0323152 0.00486594 0.0348121 0.0180067 0.0369695 0.0310904 0.00767434 0.0347949 0.0253313
internal_weight=374.642 31.5842 343.058 40.2502 302.808 97.9755 13.9132 84.0622 29.6342
internal_count=610 233 377 167 210 133 54 79 47
is_linear=0
shrinkage=0.03


Tree=39
num_leaves=10
num_cat=0
split_feature=94 46 5 5 10 47 99 14 37
split_gain=27.3996 18.4095 22.3187 15.1585 9.62679 19.3589 21.6427 7.07202 22.9757
threshold=-0.29038132670563022 7.5000000000000009 0.73136147574863941 0.75634856100047942 0.44330549531948021 0.97689034036886435 -0.044035017507350734 -0.049708426637172225 0.36585036238079116
decision_type=2 2 2 2 2 2 2 2 2
left_child=3 4 -3 -1 5 7 -7 -2 -9
right_child=1 2 -4 -5 -6 6 -8 8 -10
leaf_value=0.034274017951809947 0.038682794591498169 0.037013408095774587 -0.02940740167615713 -0.029301495522667777 0.039115304093743565 0.030308871238905424 -0.03221697086055126 -0.01041075657889372 0.03606465563475203
leaf_weight=3.9809982776641837 69.190609738230705 7.6307513713836697 8.6288495548069459 9.5383504852652532 208.87143757939339 8.9692693836987036 8.955562084913252 13.162022620439528 30.108131475746632
leaf_count=1 33 2 124 157 75 10 110 76 22
internal_value=0.0318387 0.0334333 0.00192902 -0.0093028 0.0349243 0.0279411 -0.000823297 0.032519 0.0219441
internal_weight=369.036 355.517 16.2596 13.5193 339.257 130.386 17.9248 112.461 43.2702
internal_count=610 452 126 158 326 251 120 131 98
is_linear=0
shrinkage=0.03


Tree=40
num_leaves=10
num_cat=0
split_feature=119 46 10 9 1 86 13 45 10
split_gain=25.9649 19.5411 22.2308 14.6978 9.51246 18.2401 30.7891 6.61535 19.4214
threshold=-0.29459381991765782 7.5000000000000009 0.73561529332712527 -0.49803627782189835 -0.24904297714365201 -1.0000000180025095e-35 1.2595710982467005 -0.014019995818507503 0.44330549531948021
decision_type=2 2 2 2 2 2 2 2 2
left_child=3 4 -3 -1 -2 6 -6 -7 -9
right_child=1 2 -4 -5 5 7 -8 8 -10
leaf_value=0.033809320816888318 0.039638575306020093 -0.029460417272445923 0.036546578701391198 -0.029322793019826775 -0.039457997116240873 0.036645752618058816 0.031774339016456696 -0.0090533585039652299 0.035819214957370234
leaf_weight=3.9291739463806143 173.68672721087933 8.9685136117041129 7.5109641551971427 9.2228486873209459 8.3686966635286826 102.69044011831284 12.084534943103789 12.602903094142674 24.12275542318821
leaf_count=1 56 131 2 153 82 68 10 95 12
internal_value=0.0313965 0.032952 0.00082211 -0.00919377 0.0345232 0.0287353 0.0020082 0.0325927 0.0205093
internal_weight=363.188 350.036 16.4795 13.152 333.556 159.869 20.4532 139.416 36.7257
internal_count=610 456 133 154 323 267 92 175 107
is_linear=0
shrinkage=0.03


Tree=41
num_leaves=10
num_cat=0
split_feature=12 22 97 67 51 111 73 17 45
split_gain=25.3013 32.3203 11.9271 35.4925 3.65 7.76375 12.0545 20.8423 0.126482
threshold=0.19450551911525152 0.01968346652578316 -0.097290592492085104 0.43668716070741481 -0.01419624830142424 26.212553725164124 0.028888473308352019 0.62014610917683333 -0.10134884476832857
decision_type=2 2 2 2 2 2 2 2 2
left_child=2 8 3 -1 -4 6 7 -6 -2
right_child=1 -3 4 -5 5 -7 -8 -9 -10
leaf_value=-0.030515776893642047 0.03670643251394716 -0.031100463043659633 0.03805732649620841 0.033406590329463075 -0.035396557894979273 0.037750562765746051 0.031889533645079217 0.028184584523074672 0.021440983865055815
leaf_weight=9.6793126016855222 7.7211931422352817 12.457244981080292 200.70875154435635 28.792971469461918 7.5370230153203037 47.033783689141273 24.352269068360329 9.1605038419365865 9.9456885941326636
leaf_count=140 3 190 91 27 64 28 15 12 40
internal_value=0.030964 0.00437871 0.0333812 0.0168826 0.0355029 0.0292867 0.0188505 -0.000723923 0.0298823
internal_weight=357.389 30.1241 327.265 38.4723 288.792 88.0836 41.0498 16.6975 17.6669
internal_count=610 233 377 167 210 119 91 76 43
is_linear=0
shrinkage=0.03


Tree=42
num_leaves=10
num_cat=0
split_feature=94 46 5 5 10 47 99 6 44
split_gain=24.5386 16.4638 20.2501 13.8202 9.27975 17.6385 19.7546 8.0335 18.1135
threshold=-0.29038132670563022 7.5000000000000009 0.73136147574863941 0.75634856100047942 0.44330549531948021 0.97689034036886435 -0.044035017507350734 1.0000000180025095e-35 0.28994658560664305
decision_type=2 2 2 2 2 2 2 2 2
left_child=3 4 -3 -1 5 7 -7 8 -2
right_child=1 2 -4 -5 -6 6 -8 -9 -10
leaf_value=0.032870108800721283 0.031951619045372692 0.035642251245420802 -0.029099733481077895 -0.029038542097228771 0.037747077701183698 0.028793600330187415 -0.032063419980399674 0.03694282361658912 -0.013116597212766432
leaf_weight=3.8170313835144034 25.485980629920959 7.2630069255828849 8.1699456647038442 9.0169789716601354 198.24213255941868 8.6355967931449431 8.5596161819994432 71.782004714012146 10.745454262942074
leaf_count=1 27 2 124 157 75 10 110 46 58
internal_value=0.0305367 0.0320798 0.0015012 -0.00936403 0.0335204 0.0265585 -0.00143282 0.0310144 0.0185115
internal_weight=351.718 338.884 15.433 12.834 323.451 125.209 17.1952 108.013 36.2314
internal_count=610 452 126 158 326 251 120 131 85
is_linear=0
shrinkage=0.03


Tree=43
num_leaves=9
num_cat=0
split_feature=12 2 97 30 51 39 53 106
split_gain=23.5935 31.3243 11.2662 43.6365 3.6194 11.2383 14.2106 1.58601
threshold=0.19450551911525152 0.9347844025321197 -0.097290592492085104 0.30370451323011421 -0.01419624830142424 0.48748787861854892 -0.036837803858042882 29.243664717348931
decision_type=2 2 2 2 2 2 2 2
left_child=2 -2 3 -1 -4 6 -6 -7
right_child=1 -3 4 -5 5 7 -8 -9
leaf_value=-0.032792201838815316 0.030154719681045973 -0.030509164436287137 0.037179014462717139 0.03648477780191265 0.026325736685676115 0.025780338439179009 -0.029247395604971076 0.038198785005575241
leaf_weight=10.692818164825438 16.788096845149997 12.448601223528383 193.87872472405434 26.638894759118557 9.5055646225810033 29.860771112143993 5.8297826014459124 40.323872152715921
leaf_count=151 28 205 91 16 13 29 61 16
internal_value=0.0301279 0.00407086 0.0325033 0.0162259 0.0346019 0.0283626 0.00451863 0.0333938
internal_weight=345.967 29.2367 316.73 37.3317 279.399 85.52 15.3353 70.1846
internal_count=610 233 377 167 210 119 74 45
is_linear=0
shrinkage=0.03


Tree=44
num_leaves=11
num_cat=0
split_feature=94 22 18 65 9 73 85 94 2 89
split_gain=22.9142 15.0885 19.6238 14.5695 12.9974 7.50053 12.0695 23.4374 9.58818 28.7887
threshold=-0.29038132670563022 0.046234405535656421 1.1561390764687209 0.59438919715762706 -0.49803627782189835 0.027931106365554407 7.7689352814143539e-06 -0.28183222596105056 0.96517975331594308 0.51778493894165545
decision_type=2 2 2 2 2 2 2 2 2 2
left_child=4 5 3 -3 -1 6 8 -8 -2 -10
right_child=1 2 -4 -5 -6 -7 7 -9 9 -11
leaf_value=0.031975785129386383 0.036122491561667948 -0.031798225872807936 0.032909804929922508 0.031429252458944408 -0.028888356644982446 0.036935563980215941 0.03568482445704494 -0.036458351972118608 0.034816889405039422 -0.032178350740733823
leaf_weight=3.7010900974273673 64.975762777030468 10.621303930878641 15.285442005842922 3.6259243488311759 8.6937218979001027 194.95358771085739 7.2678813934326172 6.9487616084516031 16.512700796127323 7.6548563316464415
leaf_count=1 37 152 15 1 157 79 2 65 17 84
internal_value=0.029731 0.0312461 0.0102121 -0.0145041 -0.00945998 0.0332773 0.0260606 0.000147151 0.0301126 0.0130421
internal_weight=340.241 327.846 29.5327 14.2472 12.3948 298.314 103.36 14.2166 89.1433 24.1676
internal_count=610 452 168 153 158 284 205 67 138 101
is_linear=0
shrinkage=0.03


Tree=45
num_leaves=11
num_cat=0
split_feature=94 12 22 45 10 47 83 6 12 79
split_gain=21.9161 14.7223 25.7368 12.5824 6.7322 14.0119 17.9413 5.85671 15.688 0.139822
threshold=-0.29038132670563022 0.19450551911525152 0.020913269065243462 -0.48293753681998491 0.44330549531948021 0.97689034036886435 0.027399442312857018 1.0000000180025095e-35 0.0010495533268707388 2.018797132505735
decision_type=2 2 2 2 2 2 2 2 2 2
left_child=3 4 -3 -1 5 7 -7 8 -2 -6
right_child=1 2 -4 -5 9 6 -8 -9 -10 -11
leaf_value=0.031584946741822495 -0.01275991623217336 0.030193104991671469 -0.030646302823024916 -0.028746178983418982 0.026537084866688421 -0.032199209240900438 0.028560271556678993 0.035906192064713516 0.032844243892715598 0.036973956202775472
leaf_weight=3.64766502380371 9.3319082111120242 16.19145300984383 8.8511282503604871 8.4827559888362867 15.585801810026167 7.3405856713652602 8.1949651613831502 60.651768635958433 19.694693293422461 176.25875558704138
leaf_count=1 44 33 124 157 13 97 9 42 20 70
internal_value=0.0293739 0.0308661 0.00822356 -0.00935208 0.0327308 0.0259438 -0.000178377 0.0304543 0.0181462 0.0362836
internal_weight=334.231 322.101 25.0426 12.1304 297.058 105.214 15.5356 89.6784 29.0266 191.845
internal_count=610 452 157 158 295 212 106 106 64 83
is_linear=0
shrinkage=0.03


Tree=46
num_leaves=10
num_cat=0
split_feature=46 5 73 92 47 67 14 107 68
split_gain=21.6029 20.585 12.4326 30.9622 14.2348 19.2452 5.35587 25.4421 0.87308
threshold=7.5000000000000009 0.73136147574863941 0.027931106365554407 0.97260055768714315 0.9787787796324513 0.43668716070741481 -0.049708426637172225 14.783333333333337 48.607632739059405
decision_type=2 2 2 2 2 2 2 2 2
left_child=2 -2 3 4 6 -6 -1 -8 -4
right_child=1 -3 8 -5 5 -7 7 -9 -10
leaf_value=0.036688928407395877 0.033991527129725349 -0.029557444390120338 0.037759813642143154 -0.032464490026882328 -0.031293900709151674 0.031703863547672524 -0.014906788640309846 0.036806923299834433 0.030178339038208022
leaf_weight=61.601503029465675 6.7563059329986599 10.216018572449682 133.90626381337643 7.6224154792726031 7.7727140858769399 7.6848498918116093 11.662167660892008 26.565884809941053 54.838226057589054
leaf_count=30 2 178 45 103 116 8 73 16 39
internal_value=0.0289959 -0.00360934 0.030787 0.0229243 0.0268599 0 0.0309695 0.0209764 0.0357435
internal_weight=328.626 16.9723 311.654 122.91 115.287 15.4576 99.8296 38.2281 188.744
internal_count=610 180 430 346 243 124 119 89 84
is_linear=0
shrinkage=0.03


Tree=47
num_leaves=9
num_cat=0
split_feature=1 92 86 13 62 45 73 90
split_gain=20.8298 33.0964 25.7369 27.3539 9.11844 6.22051 16.2698 0.423818
threshold=-0.24904297714365201 0.97182943535464605 -1.0000000180025095e-35 1.2595710982467005 -0.2722801462871583 -0.014019995818507503 0.027931106365554407 0.098364873546347986
decision_type=2 2 2 2 2 2 2 2
left_child=-1 2 3 -2 -4 7 -7 -6
right_child=1 -3 4 -5 5 6 -8 -9
leaf_value=0.036395639161131366 -0.038710731196126016 -0.031234898894258824 -0.028076030604710731 0.025451991801177878 0.02358669648795618 -0.0094195166329029707 0.033093355545680075 0.03557013734203076
leaf_weight=160.44652836769819 10.519132547080519 9.4491519294679147 1.667886659502982 11.432543504983185 13.198402028530834 11.944895457476376 21.50334495306015 82.604097466915846
leaf_count=75 127 150 14 25 31 116 11 61
internal_value=0.0286524 0.0208041 0.0242223 -0.00551075 0.0292345 0.030207 0.0179915 0.0342109
internal_weight=322.766 162.319 152.87 21.9517 130.919 129.251 33.4482 95.8025
internal_count=610 535 385 152 233 219 127 92
is_linear=0
shrinkage=0.03


Tree=48
num_leaves=12
num_cat=0
split_feature=46 5 92 2 51 39 42 9 101 21 24
split_gain=20.3198 19.3658 10.9345 26.8919 6.46701 14.0116 21.3842 1.8882 3.93787 1.66395 2.04415
threshold=7.5000000000000009 0.73136147574863941 0.97260055768714315 0.78233739871361696 -0.01419624830142424 0.48748787861854892 23.887056350708011 0.18982631853279799 -0.099306110007362433 0.12179487179487181 2.8071641791044781
decision_type=2 2 2 2 2 2 2 2 2 2 2
left_child=2 -2 4 -4 9 6 -6 8 -7 10 -1
right_child=1 -3 3 -5 5 7 -8 -9 -10 -11 -12
leaf_value=0.034355276327323263 0.033252425597840092 -0.029360503659919969 0.034794212868185063 -0.032912583973242558 0.02716088083709807 0.03665200066604396 -0.030376658120605575 0.037539754891398255 0.016461410623530508 0.036736817171993022 0.017345187945472434
leaf_weight=17.790396235883236 6.5075478553771999 9.888594947755335 12.217704057693483 7.7997435033321372 12.901339989155533 16.47571587562561 8.9840103127062303 30.310376197099686 25.701367933303118 151.2240829616785 17.416702345013618
leaf_count=9 2 178 4 106 24 5 136 11 38 59 38
internal_value=0.0282894 -0.00385433 0.0300583 0.00795897 0.0315892 0.0244906 0.00311517 0.0307732 0.0250842 0.0350167 0.0267348
internal_weight=317.218 16.3961 300.821 20.0174 280.804 94.3728 21.8854 72.4875 42.1771 186.431 35.2071
internal_count=610 180 430 110 320 214 160 54 43 106 47
is_linear=0
shrinkage=0.03


Tree=49
num_leaves=9
num_cat=0
split_feature=1 92 61 52 59 2 2 33
split_gain=19.9537 30.503 21.584 51.7066 2.51342 2.32829 0.951413 0.34838
threshold=-0.24904297714365201 0.97182943535464605 1.3784328358208957 0.52704196955137783 0.9685910920774512 0.94629939493293191 0.98736006671191523 0.023673437905457891
decision_type=2 2 2 2 2 2 2 2
left_child=-1 2 4 -4 5 -2 -7 -6
right_child=1 -3 3 -5 7 6 -8 -9
leaf_value=0.035702280724649586 0.031143991137715068 -0.03091327033835739 -0.034972560657304502 0.028866016432940022 0.02555652538672392 0.017088950060972389 0 0.035797649493090812
leaf_weight=154.23035755008459 6.8984040021896389 9.0028540603816491 16.500305103138089 31.869381159543991 19.639450933784246 4.2549982331693155 5.9430455975234509 63.280997455120087
leaf_count=75 4 150 241 24 32 11 30 43
internal_value=0.0279584 0.0201736 0.0234794 0.00676078 0.0313881 0.0185752 0.0077832 0.0337413
internal_weight=311.62 157.389 148.387 48.3697 100.017 17.0964 10.198 82.9204
internal_count=610 535 385 265 120 45 41 75
is_linear=0
shrinkage=0.03


Tree=50
num_leaves=10
num_cat=0
split_feature=10 93 24 5 14 62 52 1 9
split_gain=19.6751 50.1886 16.3169 13.1245 5.14361 24.73 1.99296 1.37724 2.57189
threshold=0.44330549531948021 48.447618525021959 3.0632089552238813 0.75634856100047942 -0.049708426637172225 0.042138521552981943 0.39958818341812458 -0.24904297714365201 -0.024896196242027737
decision_type=2 2 2 2 2 2 2 2 2
left_child=1 -1 4 -4 -3 -6 -7 -2 -9
right_child=7 2 3 -5 5 6 -8 8 -10
leaf_value=-0.032806065505402389 0.036346481875671313 0.034735018630128275 0.030746242119426379 -0.034024546441346296 -0.031842182274257565 0.018362296603274063 0.03617428781254612 0.017800722156269502 0.033107448597575945
leaf_weight=14.449331317096947 122.69531326368451 58.076928459107876 3.5275433063507062 6.5124312490224838 6.1910220943391314 14.364753630012272 19.989499393850565 20.194398999214172 40.091008841991425
leaf_count=231 47 45 1 101 70 49 9 32 25
internal_value=0.0276263 0.0180583 0.0250868 -0.010272 0.0287835 0.0195554 0.0295413 0.0339143 0.0284031
internal_weight=306.092 123.112 108.662 10.04 98.6222 40.5453 34.3543 182.981 60.2854
internal_count=610 506 275 102 173 128 58 104 57
is_linear=0
shrinkage=0.03


Tree=51
num_leaves=11
num_cat=0
split_feature=1 92 86 19 87 6 47 50 35 6
split_gain=19.0223 28.5748 23.1699 26.1701 6.51903 14.9243 2.89674 11.8713 0.95181 0.0564388
threshold=-0.24904297714365201 0.97182943535464605 -1.0000000180025095e-35 0.11377201837020971 1.4796500771604941 -0.13496368288974944 0.99561518504704594 1.1699564918244076 0.25213319028155751 -0.050867896587014703
decision_type=2 2 2 2 2 2 2 2 2 2
left_child=9 2 3 -2 6 -6 8 -8 -4 -1
right_child=1 -3 4 -5 5 -7 7 -9 -10 -11
leaf_value=0.028085571187743134 -0.038358083424308395 -0.030654067358332086 0.023205569928951696 0.026093733276027702 0.03272599916083159 -0.031216655356505783 -0.0089826196090025106 0.035381703363965136 0.034604494490337055 0.036264215342338313
leaf_weight=25.971727382391691 10.301280625164511 8.682222552597521 19.706683367490768 10.379198897629974 6.6027505192905664 4.7815644536167365 8.3101173005998152 12.642942905426024 71.116379044950008 122.02741270884871
leaf_count=25 140 150 37 12 4 75 65 4 48 50
internal_value=0.0273118 0.0196068 0.022852 -0.00616083 0.0277582 0.00527494 0.0299544 0.0180422 0.0324435 0.0350472
internal_weight=300.522 152.523 143.841 20.6805 123.16 11.3843 111.776 20.9531 90.8231 147.999
internal_count=610 535 385 152 233 79 154 69 85 75
is_linear=0
shrinkage=0.03


Tree=52
num_leaves=11
num_cat=0
split_feature=1 92 86 13 87 4 47 33 50 6
split_gain=18.5333 27.4706 22.1731 24.351 6.19805 14.5496 2.77979 11.7459 0.693382 0.103669
threshold=-0.24904297714365201 0.97182943535464605 -1.0000000180025095e-35 1.2595710982467005 1.4796500771604941 -0.10103974902439893 0.99561518504704594 0.04415370956325048 0.34476130193099286 -0.050867896587014703
decision_type=2 2 2 2 2 2 2 2 2 2
left_child=9 2 3 -2 6 -6 8 -8 -4 -1
right_child=1 -3 4 -5 5 -7 7 -9 -10 -11
leaf_value=0.027671093915378239 -0.038626105962203346 -0.030482994255361353 0.024918010796407989 0.024096870506778997 0.032623790231955295 -0.030996551653333836 -0.009214477603524002 0.03514115686382896 0.03458642157882956 0.035962500039333489
leaf_weight=25.590709306299686 9.6947802919894475 8.4777259062975627 27.262003447860479 10.626884462311862 6.4584418833255768 4.7100755237042886 8.226524146273734 12.46142792701721 62.174301043152809 119.40768974274397
leaf_count=25 127 150 46 25 3 76 65 4 39 50
internal_value=0.0269974 0.0193374 0.0225338 -0.00609362 0.0273652 0.00520441 0.0295187 0.0177533 0.0319806 0.0347193
internal_weight=295.091 150.092 141.614 20.3217 121.293 11.1685 110.124 20.688 89.4363 144.998
internal_count=610 535 385 152 233 79 154 69 85 75
is_linear=0
shrinkage=0.03


Tree=53
num_leaves=12
num_cat=0
split_feature=10 93 24 108 4 2 41 64 9 42 101
split_gain=18.6317 45.8766 15.2706 20.699 4.27464 12.9468 12.5129 1.0247 2.07539 2.6807 0.453652
threshold=0.44330549531948021 48.447618525021959 2.9890728177295345 -0.10216259410591093 -0.021444960712342202 1.0903483199492821 0.38962705330454855 0.58191668190186396 -0.43272477241466661 16.096432685852054 -0.16762685481977865
decision_type=2 2 2 2 2 2 2 2 2 2 2
left_child=1 -1 4 -4 -3 6 -6 8 -2 -10 -11
right_child=7 2 3 -5 5 -7 -8 -9 9 10 -12
leaf_value=-0.032581480705426907 0.034941212477216467 0.032747526494563507 0.033091450353302063 -0.033809842445392028 -0.033261181048194532 0.034713621725781567 0.030538151834493318 0.035740034547784863 0.030602666970194994 0.019793200486720276 0.0084049545676181982
leaf_weight=13.760727025568483 31.941717058420181 65.693401820957661 6.5647624582052222 8.2442766726016981 6.2383408304303902 13.022623375058172 3.4966206550598145 102.27387226372957 18.779170915484428 6.9123735949397114 12.829617306590078
leaf_count=231 13 59 3 136 71 5 1 40 11 8 32
internal_value=0.0266869 0.0171515 0.0240568 -0.00374587 0.0287351 0.0161354 -0.00935609 0.0329935 0.0285206 0.0223714 0.013299
internal_weight=289.758 117.021 103.26 14.809 88.451 22.7576 9.73496 172.737 70.4629 38.5212 19.742
internal_count=610 506 275 139 136 77 72 104 64 51 40
is_linear=0
shrinkage=0.03


Tree=54
num_leaves=12
num_cat=0
split_feature=10 93 58 16 2 47 37 4 0 66 9
split_gain=17.9635 44.1602 14.9102 7.86486 16.2162 4.85887 16.3416 1.08287 1.07384 2.11027 3.14533
threshold=0.44330549531948021 48.447618525021959 -0.14286751353517083 3.5000000000000004 1.117893863456338 0.89378957318422081 0.39748167541544577 -0.042458028601943539 0.58191668190186385 -0.35010041795564145 -0.024896196242027737
decision_type=2 2 2 2 2 2 2 2 2 2 2
left_child=1 -1 -3 4 -4 7 -7 -5 9 -2 -11
right_child=8 2 3 5 -6 6 -8 -9 -10 10 -12
leaf_value=-0.032413928050932704 0.035390906513814137 -0.033230069789255683 -0.035100325012583422 0.035297568615287427 0.032162810311980539 -0.028633080997257376 0.03373411066744967 0.023689869696954205 0.035466350140052144 0.010914736382136005 0.029133904961759598
leaf_weight=13.427117776125668 27.788821697235107 3.1174977477639905 4.8942235466092807 50.234203297644854 6.1176588535308838 4.9669080544263116 9.4379851669073087 22.663800541311502 100.01312066614628 16.228342898190022 25.351553406566381
leaf_count=231 10 32 66 28 2 88 5 54 40 34 20
internal_value=0.026413 0.0169591 0.0237768 0.025931 0.00158466 0.0289152 0.011572 0.0320988 0.0326689 0.0281464 0.0225169
internal_weight=284.241 114.859 101.432 98.3148 11.0119 87.3029 14.4049 72.898 169.382 69.3687 41.5799
internal_count=610 506 275 243 68 175 93 82 104 64 54
is_linear=0
shrinkage=0.03


Tree=55
num_leaves=9
num_cat=0
split_feature=1 92 86 19 97 35 62 76
split_gain=17.4335 24.6986 20.8229 23.4881 6.0623 13.0483 3.82952 3.14965
threshold=-0.24904297714365201 0.97182943535464605 -1.0000000180025095e-35 0.11377201837020971 -0.097290592492085104 0.69906446399353672 -0.19981720616082072 2.499126344646744
decision_type=2 2 2 2 2 2 2 2
left_child=-1 2 3 -2 5 -4 -6 -8
right_child=1 -3 4 -5 6 -7 7 -9
leaf_value=0.033879926393279275 -0.038075546433618823 -0.030078938098148725 -0.030406543769755972 0.024743811692704752 0.00053079258748275633 0.031456357972553251 0.020914885718000778 0.033904375193560918
leaf_weight=136.14001414552331 9.6658354029059428 7.9550435561686745 4.5498608704656345 9.7657396085560304 4.4489484615623942 5.8524675369262695 34.018493859097362 66.493828717619181
leaf_count=75 140 150 76 12 14 2 96 45
internal_value=0.0261304 0.0185346 0.0216261 -0.00669171 0.0264381 0.00384146 0.0285919 0.029787
internal_weight=278.89 142.75 134.795 19.4316 115.364 10.4023 104.961 100.512
internal_count=610 535 385 152 233 78 155 141
is_linear=0
shrinkage=0.03


Tree=56
num_leaves=12
num_cat=0
split_feature=22 12 73 85 20 2 6 4 8 68 101
split_gain=16.766 14.9902 9.56279 14.1671 17.2836 8.4151 21.4932 6.19802 7.65646 0.924481 0.166442
threshold=0.046234405535656421 0.19450551911525152 0.027931106365554407 7.7182424987984478e-06 0.23375000000000004 0.96517975331594308 0.025510879064805064 -0.051642861981227743 0.38676843618694107 48.607632739059405 0.17960874035704247
decision_type=2 2 2 2 2 2 2 2 2 2 2
left_child=2 7 3 5 -5 -1 -7 -2 -9 -4 -11
right_child=1 -3 9 4 -6 6 -8 8 -10 10 -12
leaf_value=0.03135961642398194 0.029537220057382543 -0.029615817451953862 0.035121487818045576 0.028235020612263122 -0.034056490880975308 -0.031485890061156319 0.029342489123399349 -0.028733451680383146 0.027065300362600648 0.021763859117875244 0.030669504344639512
leaf_weight=53.454881535843015 12.147451408207418 7.7803077585995188 106.05268345028162 6.1534429229795924 8.1267035584896785 7.0496586672961739 13.953197944909332 4.0608834493905333 2.9262721538543701 22.063302002847195 30.096309989690781
leaf_count=43 16 147 44 9 121 90 24 74 1 22 19
internal_value=0.0258229 0.00308624 0.0282664 0.0198818 -0.00692702 0.0250869 0.0082859 0.0173427 -0.00452613 0.0327959 0.0274392
internal_weight=273.865 26.9149 246.95 88.7379 14.2801 74.4577 21.0029 19.1346 6.98716 158.212 52.1596
internal_count=610 238 372 287 130 157 114 91 75 85 41
is_linear=0
shrinkage=0.03


Tree=57
num_leaves=11
num_cat=0
split_feature=1 54 45 73 48 37 114 7 20 39
split_gain=16.7497 23.1955 15.1442 20.4755 12.2954 4.50413 11.6903 0.713751 2.72034 0.00426714
threshold=-0.24904297714365201 1.6022875785827639 -0.014019995818507503 0.027931106365554407 -0.085099318500868923 0.3199206261270352 -0.049376181578370752 0.016244554601426788 0.72031250000000013 0.61318413001693195
decision_type=2 2 2 2 2 2 2 2 2 2
left_child=9 2 5 4 -4 6 -2 -7 -9 -1
right_child=1 -3 3 -5 -6 7 -8 8 -10 -11
leaf_value=0.028465193192791536 0.031745051331799522 -0.031196259042350197 0.025039276431502711 0.022262642773776355 -0.03215422928894443 0.033324084256466824 -0.029486795631853888 0.0085182561373841423 0.030650939136702107 0.035199739152693761
leaf_weight=41.218723986297846 5.9621543884277344 7.2368421386927357 3.5698914770036945 26.601915620267391 13.1581667996943 52.775610025972128 3.7075960915535671 9.1157811786979455 16.041381252929568 89.261409915983677
leaf_count=38 2 129 9 32 220 30 59 36 18 37
internal_value=0.0255531 0.0180028 0.0209607 0.00617355 -0.0190556 0.0280887 0.00742304 0.0304883 0.023378 0.0333278
internal_weight=268.649 138.169 130.932 43.33 16.7281 87.6025 9.66975 77.9328 25.1572 130.48
internal_count=610 535 406 261 229 145 61 84 54 75
is_linear=0
shrinkage=0.03


Tree=58
num_leaves=11
num_cat=0
split_feature=10 93 58 16 2 55 22 68 5 58
split_gain=16.168 39.214 14.1118 7.306 14.6881 4.29624 2.34564 1.33385 2.81684 3.8359
threshold=0.44330549531948021 48.447618525021959 -0.14286751353517083 3.5000000000000004 1.117893863456338 19.645403861999515 0.023661151308695141 48.381248588921103 0.76157650888908324 0.3086417085019354
decision_type=2 2 2 2 2 2 2 2 2 2
left_child=1 -1 -3 4 -4 -5 -7 -2 -9 -10
right_child=7 2 3 5 -6 6 -8 8 9 -11
leaf_value=-0.032032472135224851 0.033994690314448732 -0.033222476411057404 -0.034916152083967804 0.0016360932248185717 0.030961453206051426 0.032555664954670493 0.016869441055401238 0.034589164462800026 0.0074182547008387065 0.029439900862527554
leaf_weight=12.520623264834283 104.79658472537994 3.0403743069618931 4.6085620708763582 5.6106789819896212 5.6623835563659668 60.700010580942035 15.208044314756988 21.24112606048584 15.891873091459276 14.301023855805395
leaf_count=231 53 32 66 30 2 67 78 8 34 9
internal_value=0.0252838 0.0160224 0.0226666 0.0248882 0.000660785 0.0278594 0.0297122 0.0314862 0.0257671 0.0185545
internal_weight=263.581 107.351 94.8301 91.7897 10.2709 81.5187 75.9081 156.231 51.434 30.1929
internal_count=610 506 275 243 68 175 145 104 51 43
is_linear=0
shrinkage=0.03


Tree=59
num_leaves=11
num_cat=0
split_feature=46 75 10 47 31 37 7 72 68 14
split_gain=16.0331 14.2276 10.1849 20.0391 11.1212 8.1803 4.3583 8.43991 1.18035 0.319238
threshold=7.5000000000000009 -0.27633513481970651 0.44330549531948021 0.99459085184592488 -0.1714158971576287 1.0000000180025095e-35 0.049939818224454507 2.6687494686780391 48.607632739059405 -0.013598775153807528
decision_type=2 2 2 2 2 2 2 2 2 2
left_child=2 -2 3 5 -5 -1 9 -8 -4 -7
right_child=1 -3 8 4 -6 6 7 -9 -10 -11
leaf_value=-0.023829596426250335 0.029680832468850244 -0.028846108334376775 0.034260183489011761 0.02768390650080885 -0.031487661835961231 0.032386003247719453 -0.010438112632846762 0.025951992594868429 0.025778183803450868 0.022271544077409059
leaf_weight=2.3107462450861922 5.1568539142608634 8.5152224078774434 101.67277762293816 3.0339548587799063 9.3061341755092126 43.357607912272215 7.9885396640747812 15.423093944787977 44.345297370105982 17.672119909897447
leaf_count=25 2 178 45 1 177 33 49 19 38 43
internal_value=0.0249973 -0.00604799 0.0267587 0.0189133 -0.0157301 0.0239985 0.025606 0.0134931 0.0318975 0.0299118
internal_weight=258.782 13.6721 245.11 99.0922 12.3401 86.7521 84.4414 23.4116 146.018 61.0297
internal_count=610 180 430 347 178 169 144 68 83 76
is_linear=0
shrinkage=0.03


Tree=60
num_leaves=11
num_cat=0
split_feature=1 29 46 65 86 0 7 11 37 6
split_gain=15.8995 22.342 19.4733 10.9503 8.0474 15.8803 4.60809 11.1767 0.820351 0.156882
threshold=-0.24904297714365201 0.0015044800395857929 7.5000000000000009 -0.4034144751984845 -1.0000000180025095e-35 0.55990770118732225 0.049939818224454507 -0.045527579636144323 0.30944017978682964 -0.049799737247804815
decision_type=2 2 2 2 2 2 2 2 2 2
left_child=9 2 4 -3 5 -2 8 -8 -6 -1
right_child=1 3 -4 -5 6 -7 7 -9 -10 -11
leaf_value=0.025677534156524823 -0.034781895186034945 0.024572804937603457 -0.027694002369516645 -0.036601961904652237 0.020942220296571491 0.026930640247562341 0.030240508364261679 -0.013168406881400582 0.032244730032571702 0.033982521134825333
leaf_weight=24.259450394660234 5.3042634893208733 2.7422989532351485 6.1035449374467126 8.8516022488474828 17.252590345218778 8.2600992918014509 12.119176184758546 8.1282409857958537 62.979440337046981 97.963853981345892
leaf_count=26 78 3 125 140 45 5 12 70 57 49
internal_value=0.0247257 0.0172254 0.0210913 -0.0210919 0.0239464 0.00186113 0.0268505 0.0128734 0.030139 0.0325802
internal_weight=253.965 131.741 120.147 11.5939 114.044 13.5644 100.479 20.2474 80.232 122.223
internal_count=610 535 392 143 267 83 184 82 102 75
is_linear=0
shrinkage=0.03


Tree=61
num_leaves=12
num_cat=0
split_feature=1 29 12 25 35 87 90 47 50 44 76
split_gain=15.5223 21.4116 14.7591 14.8069 10.8728 8.24856 13.1012 3.85929 11.7324 0.434594 0.400096
threshold=-0.24904297714365201 0.0015044800395857929 0.1470487332976719 -0.10615707609871608 0.8600052460153208 1.5364541136188274 0.18858201682594675 0.99561518504704594 1.1699564918244076 0.41218247675046521 2.499126344646744
decision_type=2 2 2 2 2 2 2 2 2 2 2
left_child=9 2 5 -4 -3 7 -7 10 -9 -1 -2
right_child=1 4 3 -5 -6 6 -8 8 -10 -11 -12
leaf_value=0.025165507719469515 0.023467124225854705 -0.036336256673807202 0.027742076648674598 -0.029856471407803873 0.025399334459317656 -0.032098585494606258 0.029177635211805331 -0.013881673400357753 0.032871095282991175 0.033964958954916968 0.03306166016411468
leaf_weight=25.826696392148733 21.627224048599601 8.7208464592695218 5.7460272144526234 8.9371407106518728 2.6296875476837149 5.0488019008189422 5.5296054258942604 7.4353651832789209 10.556850194931028 93.781912341713905 53.340318340808153
leaf_count=29 37 142 11 174 1 69 3 60 4 46 34
internal_value=0.0244605 0.0169957 0.0208032 -0.00679322 -0.020892 0.024773 -5.52356e-05 0.0276008 0.0136787 0.0323142 0.0306786
internal_weight=249.18 129.572 118.221 14.6832 11.3505 103.538 10.5784 92.9598 17.9922 119.609 74.9675
internal_count=610 535 392 185 143 207 72 135 64 75 71
is_linear=0
shrinkage=0.03


Tree=62
num_leaves=10
num_cat=0
split_feature=1 54 86 13 116 25 50 76 44
split_gain=15.0857 20.2815 19.5078 19.1542 7.68029 12.7609 3.83202 7.20896 0.492448
threshold=-0.24904297714365201 1.6022875785827639 -1.0000000180025095e-35 1.2595710982467005 0.061991251929012357 -0.14794514819700816 0.37725053767596778 2.9292302803208612 0.41218247675046521
decision_type=2 2 2 2 2 2 2 2 2
left_child=8 2 3 -2 6 -6 7 -4 -1
right_child=1 -3 4 -5 5 -7 -8 -9 -10
leaf_value=0.024789226345827767 -0.038587601110328974 -0.030706119828308811 0.0019768876726318058 0.020388681938481965 0.029617381262080765 -0.030597867681639804 0.032648665183601128 0.029405756124406046 0.033751815284962197
leaf_weight=25.45303887501359 8.70344444550574 6.7151820790022603 14.641324810683725 9.1571718864142877 5.5520114824175835 5.1293969340622407 55.909510156139731 21.472742030397058 91.58250518143177
leaf_count=29 137 129 88 29 3 84 37 28 46
internal_value=0.0242202 0.0167993 0.0197008 -0.00871346 0.0247074 0.000300216 0.0274744 0.0187193 0.0320546
internal_weight=244.316 127.281 120.566 17.8606 102.705 10.6814 92.0236 36.1141 117.036
internal_count=610 535 406 166 240 87 153 116 75
is_linear=0
shrinkage=0.03


Tree=63
num_leaves=12
num_cat=0
split_feature=1 29 77 0 35 87 6 110 87 50 39
split_gain=14.7299 20.2151 14.1824 16.4809 10.2515 9.57633 14.0281 5.72396 13.8483 0.460268 0.355213
threshold=-0.24904297714365201 0.0015044800395857929 4.6167989597467214 0.80216672879394813 0.8600052460153208 1.4796500771604941 -0.14035165843201383 0.035911666078292534 1.1024857954545457 0.37725053767596778 0.61318413001693195
decision_type=2 2 2 2 2 2 2 2 2 2 2
left_child=10 2 5 -4 -3 7 -7 9 -9 -2 -1
right_child=1 4 3 -5 -6 6 -8 8 -10 -11 -12
leaf_value=0.026314131618330065 0.024338740120144187 -0.035995555835353472 -0.035213647857722588 0.029449798782367278 0.024843851608146204 0.030200869697885831 -0.031709032870382146 -0.031233666307820915 0.029146766569848714 0.033306735179659729 0.034001345354262642
leaf_weight=36.907706867903471 29.015198599547148 8.4407563712447864 7.5868359412997943 5.0603606700897217 2.5300161838531485 5.3617370128631592 5.8223997689783555 4.354918608441948 8.4777296073734743 48.51377560198307 77.603938356041908
leaf_count=38 60 142 156 2 1 2 84 54 8 26 37
internal_value=0.0239642 0.0165772 0.0203447 -0.00885877 -0.0208112 0.0240621 -0.00174011 0.0272726 0.00766241 0.0303413 0.0317989
internal_weight=239.675 125.164 114.193 12.6472 10.9708 101.546 11.1841 90.3616 12.8326 77.529 114.512
internal_count=610 535 392 158 143 234 86 148 62 86 75
is_linear=0
shrinkage=0.03


Tree=64
num_leaves=12
num_cat=0
split_feature=10 93 24 5 14 62 50 64 9 43 112
split_gain=14.2458 33.3107 12.4953 9.66428 4.33077 18.0291 2.37875 1.58278 2.45858 3.65597 3.50211
threshold=0.44330549531948021 48.447618525021959 3.0632089552238813 0.75634856100047942 -0.049708426637172225 0.042138521552981943 0.41600731294818621 0.58191668190186396 -0.43272477241466661 0.067358480188278738 0.82010497615962585
decision_type=2 2 2 2 2 2 2 2 2 2 2
left_child=1 -1 4 -4 -3 -6 -7 8 -2 -10 -11
right_child=7 2 3 -5 5 6 -8 -9 9 10 -12
leaf_value=-0.031646397695285162 0.032249194563237549 0.030989458619820238 0.026373682195324002 -0.034241302569467953 -0.030433161476942177 0.010553097512685506 0.031740901768722719 0.033340188804781484 0.029992445059124448 0.023200105257493952 -0.0016009877519797767
leaf_weight=11.35991866327822 25.264970108866692 45.123934503644705 2.8039777278900129 5.4118507783859968 5.4152066428214303 8.826238617300989 18.228802114725113 80.118548311293125 12.957915484905241 7.7375886887311962 11.614998325705526
leaf_count=231 13 45 1 101 70 44 14 40 9 8 34
internal_value=0.0237402 0.0146459 0.0211028 -0.0126115 0.0248257 0.0155004 0.0255582 0.0299846 0.0247744 0.0180468 0.00882033
internal_weight=234.864 97.1699 85.81 8.21583 77.5942 32.4702 27.055 137.694 57.5755 32.3105 19.3526
internal_count=610 506 275 102 173 128 58 104 64 51 42
is_linear=0
shrinkage=0.03


Tree=65
num_leaves=10
num_cat=0
split_feature=1 29 46 35 77 39 37 17 6
split_gain=14.049 19.0909 16.7568 9.71517 9.63041 14.1194 4.84363 6.58717 0.722769
threshold=-0.24904297714365201 0.0015044800395857929 7.5000000000000009 0.8600052460153208 4.6167989597467214 0.93057445633552061 0.38419008319207265 0.1378010685354045 -0.050867896587014703
decision_type=2 2 2 2 2 2 2 2 2
left_child=8 2 4 -3 6 -6 7 -2 -1
right_child=1 3 -4 -5 5 -7 -8 -9 -10
leaf_value=0.022653988690972147 0.002983680218104592 -0.035784845720788515 -0.027130086562558178 0.024325583776266733 -0.036086401741164974 0.028921722644348644 0.032188474252978175 0.02679371057119068 0.032976106632879899
leaf_weight=19.918161407113075 17.845919568091631 8.1390380468219501 5.5761788357049218 2.4372694492340079 5.1823912486433965 4.8483543395996094 50.30271914601326 26.421726683154702 89.601572386920452
leaf_count=25 104 142 125 1 100 2 29 32 50
internal_value=0.0235094 0.0161763 0.0199047 -0.0207688 0.0226736 -0.00461943 0.0256179 0.0175392 0.0313479
internal_weight=230.273 120.754 110.177 10.5763 104.601 10.0307 94.5704 44.2676 109.52
internal_count=610 535 392 143 267 102 165 136 75
is_linear=0
shrinkage=0.03


Tree=66
num_leaves=11
num_cat=0
split_feature=10 23 47 31 45 32 1 43 100 23
split_gain=13.7399 21.1259 12.3689 8.41823 6.3455 21.2151 2.06951 2.149 3.38921 0.272921
threshold=0.44330549531948021 0.13683695357456857 0.99459085184592488 -0.1714158971576287 -0.038220070658174225 -0.0029089971908574665 -0.3259767078467366 0.099759977916909964 -0.11575078922015687 0.0037342959600773738
decision_type=2 2 2 2 2 2 2 2 2 2
left_child=1 2 4 -4 9 -6 -2 8 -8 -1
right_child=6 -3 3 -5 5 -7 7 -9 -10 -11
leaf_value=0.019430825187550186 0.033265990769205764 -0.033526079404666016 0.025891717866769363 -0.028976858518576089 0.026368006456501097 -0.030990925590691994 0.002819634321709921 0.029340166679655243 0.025570894595909534 0.030436941863351129
leaf_weight=12.116058686748145 76.455602377653122 6.7619951087981454 2.7179486751556396 7.0217031035572273 18.399570701643825 7.2995674833655384 11.18306490406394 31.457214031368494 13.058435052633286 39.428033327683806
leaf_count=26 39 112 1 186 26 109 31 22 12 46
internal_value=0.0232616 0.0141778 0.0182592 -0.0124007 0.0222726 0.00941292 0.029528 0.0238478 0.0157217 0.028326
internal_weight=225.899 93.7449 86.9829 9.73965 77.2432 25.6991 132.154 55.6987 24.2415 51.5441
internal_count=610 506 394 187 207 135 104 65 43 72
is_linear=0
shrinkage=0.03


Tree=67
num_leaves=11
num_cat=0
split_feature=22 67 119 5 33 93 40 110 22 49
split_gain=13.4742 11.8521 11.6719 6.86161 5.99437 10.2579 24.9853 3.20361 4.77963 1.38026
threshold=0.091983911548171218 0.12041119272626029 -0.29459381991765782 0.75634856100047942 0.045395843250400199 48.190149253731349 0.95298592286697326 0.035911666078292534 0.028880818343587061 -0.044640387576080305
decision_type=2 2 2 2 2 2 2 2 2 2
left_child=2 -2 3 -1 5 6 -4 9 -9 -7
right_child=1 -3 4 -5 -6 7 -8 8 -10 -11
leaf_value=0.024711780418634366 -0.031173469939554194 0.025736189707273725 0.026757090635827794 -0.027687657370292818 0.032085021104340125 0.013454994440475942 -0.038283426177239885 -0.010482920679122112 0.026036851163815756 0.02899275763185374
leaf_weight=2.5063447952270499 6.8898117262870056 4.664387833327055 12.731992555782201 5.3644530829042196 91.565401986241341 9.167661624029277 7.6686875075101844 5.3264193534851056 5.6446149162948132 70.029206907376647
leaf_count=1 142 6 21 128 51 19 100 40 9 93
internal_value=0.0230258 -0.00774028 0.0247614 -0.00975885 0.0261618 0.0209861 0.0015215 0.0252921 0.00866137 0.0274217
internal_weight=221.559 11.5542 210.005 7.8708 202.134 110.569 20.4007 90.1679 10.971 79.1969
internal_count=610 148 462 129 333 282 121 161 49 112
is_linear=0
shrinkage=0.03


Tree=68
num_leaves=11
num_cat=0
split_feature=1 29 46 65 86 90 7 11 44 17
split_gain=13.3233 17.5278 15.3858 8.99187 6.88318 19.7239 2.76727 7.24303 0.788997 0.479238
threshold=-0.24904297714365201 0.0015044800395857929 7.5000000000000009 -0.4034144751984845 1.0000000180025095e-35 0.1906179449244203 0.049939818224454507 -0.045527579636144323 0.41218247675046521 0.056664862957603583
decision_type=2 2 2 2 2 2 2 2 2 2
left_child=8 2 4 -3 5 -2 9 -8 -1 -6
right_child=1 3 -4 -5 6 -7 7 -9 -10 -11
leaf_value=0.022716476713250482 -0.034010942356309672 0.022873342600713477 -0.026847376822667073 -0.035629656050778627 0.022140528230011829 0.024865205145613568 0.028139011628746654 -0.010279447035660329 0.032662472803604979 0.032151283076479194
leaf_weight=22.95414287596941 6.4886763840913799 2.4014788996428251 5.3057535551488391 7.698457080870865 21.154891688376665 15.203201249241827 10.44932706654072 6.3689224962145081 79.500780873000622 39.789064567536116
leaf_count=29 98 3 125 140 53 15 12 57 46 32
internal_value=0.0227866 0.0154942 0.0191686 -0.0206415 0.0218962 0.00639872 0.0260451 0.0136615 0.0307043 0.0291383
internal_weight=217.315 114.86 104.76 10.0999 99.4541 21.6919 77.7622 16.8182 102.455 60.944
internal_count=610 535 392 143 267 113 154 69 75 85
is_linear=0
shrinkage=0.03


Tree=69
num_leaves=11
num_cat=0
split_feature=22 111 119 9 33 93 40 24 30 4
split_gain=12.7631 11.9957 11.1263 6.5244 5.89612 9.57732 23.4215 5.69143 16.0454 1.39997
threshold=0.091983911548171218 27.716833904950146 -0.29459381991765782 -0.49803627782189835 0.045395843250400199 48.190149253731349 0.95298592286697326 2.9890728177295345 0.30370451323011421 -0.012996257681044428
decision_type=2 2 2 2 2 2 2 2 2 2
left_child=2 -2 3 -1 5 6 -4 9 -9 -7
right_child=1 -3 4 -5 -6 7 -8 8 -10 -11
leaf_value=0.024213597669516321 -0.031040481937860791 0.027501349129187735 0.02619761048559768 -0.027544321156857281 0.031703192867448819 0.030558251661947491 -0.03778733516390273 -0.038545140386465948 0.029341887959933016 0.018781980863382584
leaf_weight=2.4172921180725098 6.8567409086972457 4.2694473266601562 12.286490095779302 5.2113682311028233 87.35676321387291 55.084673767909408 7.4022397492080918 3.9828031025826913 7.4304472021758556 20.820949338376522
leaf_count=1 146 2 21 128 51 43 100 51 6 61
internal_value=0.022555 -0.00791346 0.0242788 -0.00989064 0.025679 0.0204853 0.0013329 0.0247058 0.00421343 0.0276532
internal_weight=213.119 11.1262 201.993 7.62866 194.364 107.008 19.6887 87.3189 11.4133 75.9056
internal_count=610 148 462 129 333 282 121 161 57 104
is_linear=0
shrinkage=0.03


Tree=70
num_leaves=10
num_cat=0
split_feature=1 61 39 7 18 37 10 39 6
split_gain=12.8533 17.2906 34.5837 6.04047 14.0824 1.71416 5.29595 5.20025 0.93867
threshold=-0.24904297714365201 1.3784328358208957 0.69468552371236791 0.049939818224454507 1.1292047595551236 0.30944017978682964 0.45343375275833847 0.19385726154994751 -0.050867896587014703
decision_type=2 2 2 2 2 2 2 2 2
left_child=8 3 -3 5 -5 6 7 -2 -1
right_child=1 2 -4 4 -6 -7 -8 -9 -10
leaf_value=0.020913401845074436 0.023467787207952777 -0.033453950821034473 0.022924951455619302 -0.033419211753291309 0.027465810134890845 0.030616019858366043 0.029016379682604686 -0.026237379414791612 0.032108444148143067
leaf_weight=18.068591114133596 2.2851543426513663 16.184546444565058 21.752981342375278 4.6033719759434444 7.7554449737071991 45.135599153116345 9.6828913092613202 3.4665671940892935 79.904898703098297
leaf_count=25 1 357 22 52 8 41 5 49 50
internal_value=0.02234 0.0150653 -0.0012913 0.023517 0.00375895 0.0273732 0.0164216 -0.00549426 0.0303063
internal_weight=208.84 110.867 37.9375 72.929 12.3588 60.5702 15.4346 5.75172 97.9735
internal_count=610 535 379 156 60 96 55 50 75
is_linear=0
shrinkage=0.03


Tree=71
num_leaves=10
num_cat=0
split_feature=1 61 39 7 18 44 4 44 76
split_gain=12.4454 16.6413 33.3309 5.83802 13.5842 1.62422 1.78955 0.959231 0.176671
threshold=-0.24904297714365201 1.3784328358208957 0.69468552371236791 0.049939818224454507 1.1292047595551236 0.28357342786260653 -0.16363948675203674 0.41218247675046521 1.8088544505942521
decision_type=2 2 2 2 2 2 2 2 2
left_child=7 3 -3 5 -5 6 -2 -1 -8
right_child=1 2 -4 4 -6 -7 8 -9 -10
leaf_value=0.021655329982060545 0.027504850795119926 -0.033304793652067628 0.022591347570472781 -0.033115184051275316 0.02714052606215105 0.029822842914299603 0.0085288443113318447 0.032186173102112983 0
leaf_weight=21.762665644288063 4.6495073363184929 15.779915484599767 21.431643508374691 4.5167601667344552 7.626883240416646 47.433723889291286 2.809041837230323 74.071825228631496 4.4742957036942244
leaf_count=29 3 357 22 52 8 52 9 46 32
internal_value=0.0221431 0.0149146 -0.0012847 0.023287 0.00368616 0.0271192 0.0146651 0.0300741 0.00377544
internal_weight=204.556 108.722 37.2116 71.5102 12.1436 59.3666 11.9328 95.8345 7.28334
internal_count=610 535 379 156 60 96 44 75 41
is_linear=0
shrinkage=0.03


Tree=72
num_leaves=9
num_cat=0
split_feature=1 61 39 50 4 71 6 0
split_gain=12.0994 15.963 32.1239 3.67705 8.88485 13.5776 1.06771 0.523589
threshold=-0.24904297714365201 1.3784328358208957 0.69468552371236791 0.37725053767596778 -0.038573285724221022 0.35122095397463526 -0.050867896587014703 0.33076324256429229
decision_type=2 2 2 2 2 2 2 2
left_child=6 3 -3 4 7 -6 -1 -2
right_child=1 2 -4 -5 5 -7 -8 -9
leaf_value=0.020113820082824821 0.017311472976075017 -0.033156301135297876 0.022260021865047767 0.029983337233332776 -0.035391113250270917 0.02443361723851795 0.031748641976423672 0.031402781681502907
leaf_weight=17.488510392606258 11.382033757865431 15.385511352680622 21.117789875715971 35.500622428953648 5.8318628109991533 5.8229258805513382 76.251805353909731 11.756725348532198
leaf_count=25 35 357 22 25 74 14 50 8
internal_value=0.0219306 0.0147438 -0.0012783 0.0230072 0.0151667 -0.00569575 0.0298449 0.0255998
internal_weight=200.538 106.797 36.5033 70.2942 34.7935 11.6548 93.7403 23.1388
internal_count=610 535 379 156 131 88 75 43
is_linear=0
shrinkage=0.03


Tree=73
num_leaves=11
num_cat=0
split_feature=10 93 58 19 79 12 22 1 19 18
split_gain=11.7717 25.1457 11.7161 5.52015 9.78835 3.13482 8.28909 2.28935 3.23435 1.79668
threshold=0.44330549531948021 48.447618525021959 -0.14286751353517083 0.02791844845890196 1.7904380067241028 0.19450551911525152 0.022374999375407406 -0.3259767078467366 0.10748417178868326 1.0853928651757174
decision_type=2 2 2 2 2 2 2 2 2 2
left_child=1 -1 -3 5 -5 9 -7 -2 -9 -4
right_child=7 2 3 4 -6 6 -8 8 -10 -11
leaf_value=-0.030686712353706926 0.032207943761173599 -0.033575577941201369 0.018511546880328592 0.026837075518730637 -0.033587461181753875 0.025739995005769001 -0.025300191485941145 0.0087443526819157777 0.026858751289031663 0.03234328912851113
leaf_weight=9.5612009214237315 64.662857986986637 2.7545736152678719 21.033583644777536 4.0247528553009024 3.6334113944321871 7.0525429565459472 3.4566731192171574 14.282071229070423 34.667987231165171 31.408299971371889
leaf_count=231 39 32 71 2 50 18 75 32 33 27
internal_value=0.0217283 0.0128288 0.0188768 0.0214052 -0.00205296 0.0242933 0.00795169 0.0280291 0.0219145 0.0273019
internal_weight=196.538 82.925 73.3638 70.6093 7.65816 62.9511 10.5092 113.613 48.9501 52.4419
internal_count=610 506 275 243 52 191 93 104 65 98
is_linear=0
shrinkage=0.03


Tree=74
num_leaves=10
num_cat=0
split_feature=33 92 93 40 23 37 32 6 13
split_gain=11.5071 19.7638 14.7324 22.972 3.82995 5.82594 5.40286 1.61736 4.48042
threshold=0.045395843250400199 0.97260055768714315 48.190149253731349 0.95220579418316176 0.12750008153709816 0.38419008319207265 -0.0074505588599805333 0.0083684356092756044 0.43069404136884232
decision_type=2 2 2 2 2 2 2 2 2
left_child=1 2 3 -1 7 6 -6 8 -4
right_child=-2 -3 4 -5 5 -7 -8 -9 -10
leaf_value=0.023326361581331407 0.030186244358139436 -0.032002388082255383 -0.00033507973102941957 -0.036797804817883292 0.020258860131110959 0.027308837543429689 -0.033731734318938791 0.029563807015205643 0.026531326219822043
leaf_weight=11.63481733761728 80.812902897596359 6.6052489001303902 7.9170556738972691 9.4417684776708466 1.7507674694061277 4.5646372511982918 3.4971343129873258 50.33442317135632 16.185588921420276
leaf_count=33 56 156 57 161 1 3 48 65 30
internal_value=0.0215043 0.0149977 0.0182466 -0.00391862 0.0238078 0.00517871 -0.01488 0.0261226 0.0179251
internal_weight=192.744 111.931 105.326 21.0766 84.2496 9.81254 5.2479 74.4371 24.1026
internal_count=610 554 398 194 204 52 49 152 87
is_linear=0
shrinkage=0.03


Tree=75
num_leaves=12
num_cat=0
split_feature=22 111 119 37 27 3 91 33 23 37 6
split_gain=11.3092 10.3472 9.40773 5.68506 5.48945 8.7963 7.18521 3.35307 6.9439 9.48706 2.85796
