tree
version=v4
num_class=1
num_tree_per_iteration=1
label_index=0
max_feature_idx=243
objective=binary sigmoid:1
feature_names=Column_0 Column_1 Column_2 Column_3 Column_4 Column_5 Column_6 Column_7 Column_8 Column_9 Column_10 Column_11 Column_12 Column_13 Column_14 Column_15 Column_16 Column_17 Column_18 Column_19 Column_20 Column_21 Column_22 Column_23 Column_24 Column_25 Column_26 Column_27 Column_28 Column_29 Column_30 Column_31 Column_32 Column_33 Column_34 Column_35 Column_36 Column_37 Column_38 Column_39 Column_40 Column_41 Column_42 Column_43 Column_44 Column_45 Column_46 Column_47 Column_48 Column_49 Column_50 Column_51 Column_52 Column_53 Column_54 Column_55 Column_56 Column_57 Column_58 Column_59 Column_60 Column_61 Column_62 Column_63 Column_64 Column_65 Column_66 Column_67 Column_68 Column_69 Column_70 Column_71 Column_72 Column_73 Column_74 Column_75 Column_76 Column_77 Column_78 Column_79 Column_80 Column_81 Column_82 Column_83 Column_84 Column_85 Column_86 Column_87 Column_88 Column_89 Column_90 Column_91 Column_92 Column_93 Column_94 Column_95 Column_96 Column_97 Column_98 Column_99 Column_100 Column_101 Column_102 Column_103 Column_104 Column_105 Column_106 Column_107 Column_108 Column_109 Column_110 Column_111 Column_112 Column_113 Column_114 Column_115 Column_116 Column_117 Column_118 Column_119 Column_120 Column_121 Column_122 Column_123 Column_124 Column_125 Column_126 Column_127 Column_128 Column_129 Column_130 Column_131 Column_132 Column_133 Column_134 Column_135 Column_136 Column_137 Column_138 Column_139 Column_140 Column_141 Column_142 Column_143 Column_144 Column_145 Column_146 Column_147 Column_148 Column_149 Column_150 Column_151 Column_152 Column_153 Column_154 Column_155 Column_156 Column_157 Column_158 Column_159 Column_160 Column_161 Column_162 Column_163 Column_164 Column_165 Column_166 Column_167 Column_168 Column_169 Column_170 Column_171 Column_172 Column_173 Column_174 Column_175 Column_176 Column_177 Column_178 Column_179 Column_180 Column_181 Column_182 Column_183 Column_184 Column_185 Column_186 Column_187 Column_188 Column_189 Column_190 Column_191 Column_192 Column_193 Column_194 Column_195 Column_196 Column_197 Column_198 Column_199 Column_200 Column_201 Column_202 Column_203 Column_204 Column_205 Column_206 Column_207 Column_208 Column_209 Column_210 Column_211 Column_212 Column_213 Column_214 Column_215 Column_216 Column_217 Column_218 Column_219 Column_220 Column_221 Column_222 Column_223 Column_224 Column_225 Column_226 Column_227 Column_228 Column_229 Column_230 Column_231 Column_232 Column_233 Column_234 Column_235 Column_236 Column_237 Column_238 Column_239 Column_240 Column_241 Column_242 Column_243
feature_infos=[3.0951519012451172:90.752201690673857] [0.12386832628849136:1.1644372722359764] [0.6416070162750821:2.129214264756059] [0.011885626260501086:0.10561151205553634] [-0.82885558175978147:-0.063659248499362386] [-0.60014462039334249:1.0818536132225245] [-0.62636860904216185:0.95932239875740422] none none none none none none none none none none none none none none none none [3.0951519012451172:90.752201690673857] [3.3528844938903557:87.315651507188448] [0.21974444042181968:11.023636028228003] [-0.014946740966631554:0.011325121667722201] [0.0087578252174694404:0.10814860749775569] [-0.47048609218099419:-0.017961097735517503] [0.019807259594852758:0.29554929640273314] [-2.5641354108387415:2.1326895957828] [0.13780967365188562:1.5151522402627307] [0.12386832628849109:1.1644372722359773] [0.16802854594404845:2.3190181526883387] [0.14457145879226577:1.5137070937782131] [0.13778834014806474:1.7298536092349568] [0.65669343057170992:1.359322657754396] [0.79015024316895677:2.3044491673381668] [-0.27749930943386769:0.11844883087453646] [0.79196205732197922:1.415015916021499] [-4.5799947367451468:-1.4398990873022313] [1.5635787057263015:4.2865898799590072] [-0.3536957872533657:0.33054945054945062] [-0.61111111412244556:1.1208509423268103] [-0.69638272349066388:1.1504755510272435] [-0.76098517497744989:2.3014743999776566] [0.19261238623673474:0.79998943467433203] [-0.37935367614760757:0.30880455748058172] [0.052977908545708927:0.58767186138720684] [0.087199759035823193:0.92086517285811798] [30.92955029194631:67.640734130802457] [19.42327574238146:89.031526788433681] [1.6634148549483294:42.235044627214123] [-0.32186917432116458:0.29122942409019359] [-0.60622684155461326:0.93615584560692622] [0.869982267189369:1.2370381129644716] [1.5628879047384403:8.0967153623324393] [-12.502114810009781:11.578745049333669] [-6.4748912290986107:3.5034338260585289] [0.77977681545421318:1.267559165504996] [0.65491990936976685:1.2591630408729604] [0.4542008137867552:1.4984043377224401] [0.3812998621622371:1.5355423538595447] [-1.1113692848916199:0.30474937839169669] [-0.76748696876610722:-0.015230416105738344] [-0.87807963248468524:-0.058710226543685178] [0.013610460728805408:0.1371011237765179] [0.016228131054851876:0.32234941780365128] [3.4670588235294115:7.5815151515151511] [3.2799999999999998:7.0499999999999998] [10.294477611940298:21.224776119402986] [9.5099999999999998:25.420000000000002] [33.366060606060607:69.874411764705883] [36.939999999999998:74.129999999999995] [33.911060606060609:75.245000000000005] [1.9959090909090909:3.7994029850746269] [0.2373134328358209:1.5513636363636363] [0.20999999999999999:1.71] [1.5617910447761194:3.0395522388059701] [0.23588235294117646:0.49940298507462688] [0.11:2.2195522388059703] [3.7676470588235293:5.533823529411765] [1.7125757575757576:3.3818181818181818] [1.2775757575757574:2.6724242424242424] [-0.38285948605795517:0.30671358960476458] [-1.2400000000000002:2.0500000000000003] none [0:1] [0:0.066801619433198373] [0.0092466164060876072:0.094543284063063698] [0:0.62910508423225442] [0:1] [0:1] [0:0.2088874139568577] [0.230625:0.95374999999999999] [0.31374999999999997:0.82874999999999999] [0:6] [0:4] [0:13] [1:9] [0:1] [0.64194974589142417:0.64760775824993511] [0:1] [0:0.03430287626032702] [13:14] [0:0.12741119629545811] [0:1] [0:2.8025968497232867] [0.025000000000000001:0.095064921243082162] [0:13] [0:0.99728781062541771] [0:0.99771098933158298] [0:0.97632583547746066] [0:0.95234633214650533] [0:0.92457718717296777] [0:0.98446272865230233] [0:0.9998991085054737] [0:0.9778301381707335] [0:0.95510960646499277] [0:0.99469018498075701] [0:0.96852710983276935] [0:0.71171274158629527] [0:0.006799637352674524] [0:0.012905911740216486] [0:1] [-0.010159651669085633:0.0016672010259698618] none none none none [-0.010159651669085633:0.0011363950279230941] none [-0.82885558175978147:0] [-0.82885558175978147:0] [-0.82885558175978147:0] [-0.5139883174359311:0.54243812228525556] [-0.69190179110201511:0.66714863762891297] [0:1.1644372722359764] [0:1.1644372722359764] [0:1.1644372722359764] [-0.63191667492744996:0.53318180801423753] [-0.69966326556860947:0.83277453792660094] [0:1.7298536092349568] [0:1.7298536092349568] [0:1.7298536092349568] [-0.9921798927148906:0.92193521483751995] [-1.4395918152606888:1.3448185399121888] [0:1.5137070937782131] [0:1.5137070937782131] [0:1.5137070937782131] [-0.50380182330804757:0.89623899232087467] [-1.1498823350452196:1.1286720244554451] none none none none none none none none none none [0:90.752201690673857] [0:90.752201690673857] [0:90.752201690673857] [-29.846237182617188:16.058666229248047] [-41.638496398925781:33.520469665527344] [-0.56819576219901624:1.0818536132225245] [-0.56819576219901624:1.0818536132225245] [-0.56819576219901624:1.0818536132225245] [-0.98561524791596855:1.5526759349357775] [-1.1424347569045747:1.0904666646503391] [0:7.5815151515151511] [0:7.5815151515151511] [0:7.5815151515151511] [-1.2550972410673902:1.1769563279857396] [-3.6512121212121214:2.6856327985739741] [0:2.6724242424242424] [0:2.6724242424242424] [0:2.6724242424242424] [-0.54346901854364571:0.37918894830659555] [-1.0903030303030303:0.71374777183600702] [0:0.49940298507462688] [0:0.49940298507462688] [0:0.49507462686567166] [-0.19690298507462689:0.12561510628674805] [-0.23283582089552241:0.21999999999999992] [0:69.874411764705883] [0:68.106119402985072] [0:57.774242424242424] [-11.129914066033464:12.168267752148353] [-15.273057040998218:21.750232660228271] [-0.27749930943386769:0.11844883087453646] [-0.27749930943386769:0.11844883087453646] [-0.27749930943386769:0.11844883087453646] [-0.28019778630901737:0.28343891177621749] [-0.22277829271783667:0.25333985968486994] [0:1.4984043377224401] [0:1.4984043377224401] [0:1.4403779057306294] [-0.48158620496423665:0.58931085381372394] [-0.54153800675354424:0.81342760878923481] none none none none none none none none none none none none none none none [-0.010159651669085633:0.0016672010259698618] [-0.010159651669085633:0.0016672010259698618] [-0.010159651669085633:0.0011755756863287463] [-0.0042565298197256183:0.0023638925381244112] [-0.0042565298197256183:0.0023638925381244112] [-0.010159651669085633:0.0011363950279230941] [-0.010159651669085633:0.0011363950279230941] [-0.010159651669085633:0.00095945969524083817] [-0.00093104945317486979:0.0008000139270475928] [-0.00093104945317486979:0.0008000139270475928] none none [-0.22672869045077421:0.23577610352442346] [-0.22712941154013516:0.280307034417343] [-0.98094708276797815:0.98127881315348353] [-14.210832214355468:8.2905008850097772] [-0.37593995381847167:0.3858267901603013] [-0.39330600328294474:0.68679296459595074] none none [-30.119537353515625:63.899687423706084] [0:1] [-15.273057040998218:21.750232660228271] [-3.6512121212121214:2.6856327985739741] [-8.7807575757575762:10.930298507462687] [-0.23283582089552241:0.21999999999999992] [-1.1639393939393941:0.84799465240641725]
tree_sizes=958 1067 1066 970 877 1186 978 1191 1181 1087 1189 1094 1094 1084 988 1184 1093 1081 1387 1402 1396 1289 1082 1186 1396 1288 1395 1201 1282 1181 1283 988 1086 1187 1189 1192 1176 1077 1190 1393 987 989 1081 1397 1064 1200 1398 1397 1090 1294 1194 1395 1084 1286 1168 1175 1189 1185 1287 1292 1089 1290 1294 1396 1191 1289 1184 1500 1295 1404 1403 1187 1411 1397 1289 1397 1188 1185 1181 1183 1299 1199 1296 1288 1393 1391 1188 1185 1294 1190 1294 1199 1302 1506 1299 1303 1295 1279 1189 1306 1195 1191 1419 1312 1199 1292 1199 1506 1206 1622 1298 1300 1290 1509 1197 1296 1412 1299 1401 1515 1515 1291 1508 1415 1622 1611 1402 1624 1309 1413 1511 1707 1416 1527 1634 1408 1313 1408 1419 1304 1305 1504 1199 1397 1620 1632 1405 1321 1211 1405 1601 1524 1606 1310 1415 1499 1524 1414 1624 1312 1507 1305 1738 1312 1633 1395 1534 1185 1509 1389 1526 1203 1200 1503 1365 1421 1519 1502 1513 1388 1505 1482 1276 1423 1416 1633 1736 1282 1399 1176 993 1640 1524 1522 1623 1198 1531 1291 1485 1535 1405 1295 1537 1605 1549 1211 1221 1221 1531 1520 1621 1106 1510 1288 1625 1521 1223 1201 1693 1293 1432 1398 1411 1514 1608 1330 1199 1738 1612 1393 1438 1605 1515 1606 1530 1290 1547 1527 1546 1604 1439 1516 1539 1532 1500 1300 1732 1496 1530 1400 1310 1611 1524 1745 1518 1324 1463 1517 1386 1579 1403 1595 1623 1536 1368 1527 1642 1365 1408 1505 1508 1522 1588 1469 1622 1399 1422 1207 1425 1463 1709 1329 1199 1518 1362 1405 1510 1640 1204 1507 1490 1602 1517 1613 1361 1513 1522 1806 1430 1321 1295 1464 1356 1511 1406 1606 1399 1424 1257 1407 1434 1377 1478 1291 1506 1593 1312 1296 1294 1266 1397 1410 1405 1510 1293 1415 1369 1392 1380 1519 1541 1695 1407 1595 1274 1399 1498 1470 1265 1277 1486 1620 1605 1484 1390 1491 1578 1589 1407 1291 1167 1515 1510 1481 1482 1602 1371 1606 1479 1455 1299 1790 1668 1500 1281 1292 1496 1353 1395 1467 1488 1286 1678 1286 1577 1380 1460 1385 1375 1402 1485 1516 1288 1354 1391 1310 1549 1445 1403 1810 1617 1467 1091 1327 1573 1561 1385 1384 1380 1263 1450 1465 1482 1290 1398 1377 1366 1583 1694 1609 1660 1574 1491 1483 1379 1559 1674 1573 1414 1756 1520 1148 1470 1471 1574 1583 1304 1452 1382 1464 1526 1338 1499 1465 1145 1182 1534 1344 1451 1532 1521 1639 1304 1503 1604 1345 1596 1344 1295 1485 1323 1435 1364 1537 1247 1325 1515 1555 1395 1434 1480 1187 1645 1663 1377 1491 1345 1522 1470 1384 1346 1607 1378 1739 1242 1687 1525 1563 1475 1357 1175 1392 1432 1360 1265 1488 1466 1132 1535 1467 1471 1570 1466 1269 1153 1360 1349 1346 1480 1474

Tree=0
num_leaves=8
num_cat=0
split_feature=33 60 194 77 117 48 1
split_gain=925.895 754.023 132.809 113.476 199.222 49.488 9.48193
threshold=0.48638290490404351 0.96426324433407407 0.044586665567016494 1.4000000000000001 0.24556862394560872 0.12987274697279186 0.33076324256429229
decision_type=2 2 2 2 2 2 2
left_child=1 3 -3 4 -1 -2 -7
right_child=5 2 -4 -5 -6 6 -8
leaf_value=-1.850984971861426 -1.8350239335717973 -1.8546398043585743 -1.7256816364149519 -1.6274068180356303 -1.6521965225976702 -1.7261856373820343 -1.6212534736858106
leaf_weight=7.1956461668014553 0.83949205279350181 38.256852120161057 7.8023380041122428 30.807242631912231 10.088013947010039 3.5413866937160483 153.31664854288101
leaf_count=60 7 319 30 29 14 12 139
internal_value=-1.66861 -1.74427 -1.83117 -1.66246 -1.73225 -1.62422 -1.62299
internal_weight=251.848 94.1501 46.0592 48.0909 17.2837 157.698 156.858
internal_count=610 452 349 103 74 158 151
is_linear=0
shrinkage=1


Tree=1
num_leaves=9
num_cat=0
split_feature=66 199 72 144 39 238 66 233
split_gain=636.679 442.928 273.684 93.293 74.0571 44.7241 86.6231 26.173
threshold=0.034168031773422113 0.89378957318422081 56.573763003166 0.54294711616808222 1.2243345464104216 0.12179487179487181 0.03871322699332682 -0.03730990297194809
decision_type=2 2 2 2 2 2 2 2
left_child=1 2 4 -3 -1 6 7 -2
right_child=5 3 -4 -5 -6 -7 -8 -9
leaf_value=-0.031764103666817325 0.073777427334081949 -0.033643627998615755 0.15797611708712941 0.1269988131950634 0.12007372233004619 0.17249894445335379 0.14748878025329426 -0.026500961760703417
leaf_weight=11.320052020251749 4.3831197619438171 32.195666499435902 39.34237726777792 2.6175908818840972 2.7768010646104804 148.5251786634326 35.554911904036999 3.3808655217289916
leaf_count=95 16 272 47 2 3 99 49 27
internal_value=0.132514 0.0647366 0.118211 -0.0182724 0.00391864 0.163181 0.127993 0.0317271
internal_weight=280.097 88.2525 53.4392 34.8133 14.0969 191.844 43.3189 7.76399
internal_count=610 419 145 274 98 191 92 43
is_linear=0
shrinkage=0.03


Tree=2
num_leaves=9
num_cat=0
split_feature=4 178 150 27 3 4 65 99
split_gain=468.12 476.572 137.956 123.559 74.2863 22.4298 64.5388 2.28935
threshold=-0.23267893591572383 1.3784328358208957 -0.031875621687069554 0.030646526594427553 0.0283962124574389 -0.39534173004085088 -0.35088000751930765 3.5000000000000004
decision_type=2 2 2 2 2 2 2 2
left_child=4 2 -2 -4 -1 -6 -7 -8
right_child=1 -3 3 -5 5 6 7 -9
leaf_value=0.03803488362552216 0.13947383055571952 -0.033612969002633129 -0.031446443043657221 0.13183153734777323 0.15321291203318757 0.052767357598615075 0.15032470658409583 0.10842482654914151
leaf_weight=6.9835165143012992 40.220077648758888 31.792342819273472 10.022572398185728 5.7896187901496878 148.21548257023096 11.824388958513735 31.841631598770618 18.388273507356644
leaf_count=36 44 271 84 3 72 46 17 37
internal_value=0.117906 0.0584561 0.110421 0.0324446 0.141547 0.144775 0.122463 0.13746
internal_weight=305.078 87.8246 56.0323 15.8122 217.253 210.27 62.0543 50.2299
internal_count=610 402 131 87 208 172 100 54
is_linear=0
shrinkage=0.03


Tree=3
num_leaves=8
num_cat=0
split_feature=66 199 74 3 39 44 6
split_gain=368.894 328.375 178.168 81.3515 63.7267 24.5682 58.4303
threshold=0.034168031773422113 0.89378957318422081 61.568585481682504 0.035738944796036468 1.232961917251248 -0.23846422108826573 -0.036844819101828789
decision_type=2 2 2 2 2 2 2
left_child=1 2 4 -3 -1 -2 -7
right_child=5 3 -4 -5 -6 6 -8
leaf_value=-0.031534527566983162 0.13581662563675134 -0.033420213268612699 0.12462997969022233 0.11037814358419866 0.10476650920183846 0.027729112608773577 0.11730483372046678
leaf_weight=11.07548864930868 152.60297322273254 31.258689641952515 47.168622553348541 2.9901714324951163 3.1467018499970427 8.1106888279318792 70.897697679698467
leaf_count=96 70 273 47 1 2 36 85
internal_value=0.106555 0.0560767 0.0970799 -0.0180053 0.00332676 0.127055 0.108608
internal_weight=327.251 95.6397 61.3908 34.2489 14.2222 231.611 79.0084
internal_count=610 419 145 274 98 191 121
is_linear=0
shrinkage=0.03


Tree=4
num_leaves=7
num_cat=0
split_feature=232 49 150 26 137 3
split_gain=310.125 194.253 209.292 166.737 42.4741 33.8566
threshold=1.6022875785827639 0.26867621880952808 -0.031875621687069554 -0.0029089971908574665 0.25213319028155751 0.026425743284302534
decision_type=2 2 2 2 2 2
left_child=1 2 4 -4 -1 -3
right_child=-2 5 3 -5 -6 -7
leaf_value=0.030783113768400032 -0.032679059582575214 -0.018807542876798138 0.1003516902127061 -0.033336406630405539 0.11234622350295885 0.11867960137459316
leaf_weight=7.6938849836587897 15.287202343344687 1.3286132365465153 11.293751716613768 25.500264599919319 47.14134407043457 238.74989880621433
leaf_count=36 129 11 16 221 50 147
internal_value=0.0974261 0.103511 0.0650917 0.00918863 0.101712 0.117831
internal_weight=346.995 331.708 91.6292 36.794 54.8352 240.079
internal_count=610 481 323 237 86 158
is_linear=0
shrinkage=0.03


Tree=5
num_leaves=10
num_cat=0
split_feature=232 49 199 107 144 64 3 105 106
split_gain=267.542 156.486 180.754 81.8475 66.457 49.2528 28.8931 12.338 16.696
threshold=1.6022875785827639 0.26867621880952808 0.9787787796324513 1.3814046824433659 0.54294711616808222 -0.02803450499109995 0.026425743284302534 0.025111217414595054 0.97500000000000009
decision_type=2 2 2 2 2 2 2 2 2
left_child=1 2 3 7 -4 -5 -3 -1 -9
right_child=-2 6 4 5 -6 -7 -8 8 -10
leaf_value=0.10778145625942986 -0.032478127804707019 -0.018628509624196349 -0.032916825941255556 -0.031748454189681259 0.095564394740819097 0.089249552258811912 0.10826928204129531 0.029001600386725463 0.096112254906135855
leaf_weight=44.620534144341946 14.931886918842791 1.3110182061791409 19.946472823619846 7.9146327152848244 3.3857717514038077 3.5904217511415464 253.70428650826216 7.8488343060016614 7.4546884521842003
leaf_count=44 129 11 175 60 1 2 147 35 6
internal_value=0.0898577 0.0951665 0.0610745 0.0844818 -0.0109882 0.00988938 0.107535 0.0983565 0.0657667
internal_weight=364.709 349.777 94.7614 71.4291 23.3322 11.5051 255.015 59.9241 15.3035
internal_count=610 481 323 147 176 62 158 85 41
is_linear=0
shrinkage=0.03


Tree=6
num_leaves=8
num_cat=0
split_feature=99 4 173 27 140 27 49
split_gain=259.318 121.883 240.37 113.744 44.45 70.2493 1.81963
threshold=7.5000000000000009 -0.23267893591572383 3.6708208955223887 0.046740633074918769 -1.0000000180025095e-35 0.030646526594427553 0.27143848125317266
decision_type=2 2 2 2 2 2 2
left_child=1 6 4 -2 -3 -6 -1
right_child=3 2 -4 -5 5 -7 -8
leaf_value=0.078804744387175371 -0.034435739426170529 0.098690703437881055 -0.032745751833612474 0.09340824536029671 -0.030149800736977619 0.094389801277979885 0.10275447566502034
leaf_weight=22.743379823863506 22.727706231176857 51.212357252836227 19.501768857240677 7.5093641281127921 7.0818952769041044 7.4889309704303741 242.00702881067991
leaf_count=40 178 45 175 2 61 3 106
internal_value=0.083565 0.0908264 0.0583663 -0.000615818 0.0855077 0.035618 0.101013
internal_weight=380.272 350.035 85.285 30.2371 65.7832 14.5708 264.75
internal_count=610 430 284 180 109 64 146
is_linear=0
shrinkage=0.03


Tree=7
num_leaves=10
num_cat=0
split_feature=99 27 231 132 4 110 0 147 5
split_gain=224.786 105.625 103.333 174.182 20.3779 48.4193 44.3539 8.71311 19.0627
threshold=7.5000000000000009 0.046740633074918769 -0.097290592492085104 -0.26300431401027341 -0.23267893591572383 5.747475027030681e-06 53.367456436157234 0.34453544964730737 -0.070734310206553505
decision_type=2 2 2 2 2 2 2 2 2
left_child=2 -2 3 -1 -4 6 -6 8 -7
right_child=1 -3 4 -5 5 7 -8 -9 -10
leaf_value=0.084475717198360639 -0.034209640104972884 0.08781459833052907 0.095714900130789232 -0.032856426219799645 -0.030294361917788813 0.092289789419855009 0.08604503232173813 0.095840695922736599 0.036538760793142534
leaf_weight=30.171129286289215 22.206080116331581 7.8069744110107413 244.22423212975264 17.209659099578857 7.0559145137667638 11.774365097284317 3.6686441898345947 35.608818680047989 14.141890123486519
leaf_count=32 178 2 103 152 61 8 1 19 54
internal_value=0.0782376 -0.00056398 0.0847296 0.0419981 0.0909653 0.0737818 0.0131915 0.0839155 0.064467
internal_weight=393.868 30.0131 363.855 47.3808 316.474 72.2496 10.7246 61.5251 25.9163
internal_count=610 180 430 184 246 143 62 81 62
is_linear=0
shrinkage=0.03


Tree=8
num_leaves=10
num_cat=0
split_feature=99 31 4 173 150 35 238 75 75
split_gain=197.03 98.4806 87.8883 197.597 47.7434 66.989 2.02904 4.63897 5.49576
threshold=7.5000000000000009 0.74910473689237944 -0.23267893591572383 3.6708208955223887 -0.030336388760263119 0.4877887802817914 0.12179487179487181 2.9072464881474982 3.0367593848937138
decision_type=2 2 2 2 2 2 2 2 2
left_child=2 -2 6 4 -4 -6 7 -1 -9
right_child=1 -3 3 -5 5 -7 -8 8 -10
leaf_value=0.086901410685435637 -0.03399005067223268 0.082957774544108742 0.088710261027943327 -0.032525786852461186 -0.030649493634688326 0.084801253390363776 0.090376959288202996 0.075273919505969455 0.04016726099660195
leaf_weight=29.196404218673706 21.693270049989227 8.0704345703124982 54.273666709661484 18.809488892555237 8.2510172352194804 8.0152076333761197 230.81086722016335 13.546896465122702 13.019385948777197
leaf_count=16 178 2 34 175 72 3 82 16 32
internal_value=0.0736751 -0.000516269 0.079543 0.0524296 0.075263 0.0276819 0.0877744 0.0755467 0.0602592
internal_weight=405.687 29.7637 375.923 89.3494 70.5399 16.2662 286.574 55.7627 26.5663
internal_count=610 180 430 284 109 75 146 64 48
is_linear=0
shrinkage=0.03


Tree=9
num_leaves=9
num_cat=0
split_feature=99 31 231 4 4 64 137 113
split_gain=174.369 92.1397 76.4124 141.792 14.4975 71.2646 10.344 40.5907
threshold=7.5000000000000009 0.74910473689237944 -0.097290592492085104 -0.25886592010823922 -0.23267893591572383 -0.13644077343855457 0.29574059995507401 0.04732392095731143
decision_type=2 2 2 2 2 2 2 2
left_child=2 -2 3 -1 -4 -6 7 -7
right_child=1 -3 4 -5 5 6 -8 -9
leaf_value=0.074188308402942965 -0.033776619959351502 0.078703262423825041 0.084114307805921065 -0.032232099339239872 -0.029198730037216902 0.0093978168949569556 0.085000039475704489 0.083697694315169269
leaf_weight=32.38102214038372 21.189376667141918 8.3018522262573224 261.32123243808746 16.259384766221046 5.9776814207434645 11.162646278738977 42.460032284259796 16.726421520113945
leaf_count=31 178 2 103 153 55 55 25 8
internal_value=0.0697301 -0.000472137 0.0750848 0.0386213 0.0801992 0.0658417 0.0742556 0.0554176
internal_weight=415.78 29.4912 386.288 48.6404 337.648 76.3268 70.3491 27.8891
internal_count=610 180 430 184 246 143 88 63
is_linear=0
shrinkage=0.03


Tree=10
num_leaves=10
num_cat=0
split_feature=99 27 231 4 35 199 147 6 6
split_gain=155.385 86.4689 67.1225 129.92 13.537 31.8451 75.4268 19.4454 34.6014
threshold=7.5000000000000009 0.046740633074918769 -0.097290592492085104 -0.25886592010823922 0.43897004552459934 0.89617615416478158 0.39748167541544577 -0.01419624830142424 0.10844527590572052
decision_type=2 2 2 2 2 2 2 2 2
left_child=2 -2 3 -1 5 7 -7 -4 -9
right_child=1 -3 4 -5 -6 6 -8 8 -10
leaf_value=0.070137464146365194 -0.033569013665229616 0.074947104082937421 0.082478507765363612 -0.032053510106677979 0.080968150122582919 -0.032503130017124293 0.074984971508621726 0.0072950046375569767 0.074290746820932813
leaf_weight=33.267232447862625 20.694477573037151 8.5032777786254865 68.779770813882351 15.870922110974787 225.52310632169247 9.2033262550830841 13.221511907875538 11.480127453804018 17.970055773854256
leaf_count=31 178 2 27 153 69 73 8 57 12
internal_value=0.0662428 -0.000431127 0.0711635 0.0370904 0.0758706 0.0657305 0.0312386 0.0731803 0.0493705
internal_weight=424.514 29.1978 395.316 49.1382 346.178 120.655 22.4248 98.23 29.4502
internal_count=610 180 430 184 246 177 81 96 69
is_linear=0
shrinkage=0.03


Tree=11
num_leaves=9
num_cat=0
split_feature=115 231 132 108 118 25 1 117
split_gain=124.281 80.7978 137.982 31.3573 120.07 7.91997 1.91171 0.65713
threshold=0.11992327194306204 -0.097290592492085104 -0.26300431401027341 0.061991251929012357 0.0006103353004854482 0.33875199207424467 0.19028130956000661 5.7474764840947036e-06
decision_type=2 2 2 2 2 2 2 2
left_child=1 2 -1 5 -5 -3 -7 -8
right_child=-2 3 -4 4 -6 6 7 -9
leaf_value=0.065786604054148462 -0.032404679239618255 -0.011979470936741234 -0.032830572000181711 -0.03407735613027589 0.073028504825696547 0.041599281217915084 0.065403666139724675 0.077126007523208057
leaf_weight=34.416085138916969 11.313712574541567 0.63483286648988624 19.153971590101719 11.903208814561365 36.188010923564434 6.018775261938571 58.979698322713375 253.15198555588722
leaf_count=39 100 5 183 91 17 14 63 98
internal_value=0.0631812 0.0658312 0.0305156 0.0708827 0.0463031 0.074425 0.0746438 0.0751365
internal_weight=431.76 420.447 53.5701 366.877 48.0912 318.785 318.15 312.132
internal_count=610 510 222 288 108 180 175 161
is_linear=0
shrinkage=0.03


Tree=12
num_leaves=9
num_cat=0
split_feature=115 181 132 108 117 66 41 192
split_gain=114.098 70.4715 126.273 27.2927 93.13 5.39093 1.1254 0.831552
threshold=0.11992327194306204 -0.13149253731343277 -0.26300431401027341 0.061991251929012357 0.79366645620804588 0.021742475421349858 1.5677217719862331 -0.012996257681044428
decision_type=2 2 2 2 2 2 2 2
left_child=1 2 -1 5 -5 -3 -7 -8
right_child=-2 3 -4 4 -6 6 7 -9
leaf_value=0.062556609307343983 -0.032188121676088581 0.034406562406862753 -0.032586463211996756 -0.033270666021027399 0.065732895344747841 -0.00040995549059634939 0.074174264344455759 0.064601526336284701
leaf_weight=35.147274069488049 11.058721259236334 6.6771386116743079 18.416168488562107 10.214257501065729 38.26826848089695 0.10181853920221229 220.32979720830917 97.921479389071465
leaf_count=39 100 18 181 81 27 1 77 86
internal_value=0.0603907 0.0628645 0.0297919 0.0675071 0.0445634 0.070773 0.0714163 0.0714498
internal_weight=438.135 427.076 53.5634 373.513 48.4825 325.03 318.353 318.251
internal_count=610 510 220 290 108 182 164 163
is_linear=0
shrinkage=0.03


Tree=13
num_leaves=9
num_cat=0
split_feature=99 27 4 72 26 121 49 147
split_gain=120.486 73.5323 50.6701 107.711 42.3813 12.4958 3.43273 3.05715
threshold=7.5000000000000009 0.046740633074918769 -0.23267893591572383 56.573763003166 -0.002504969442767522 1.1030629120900262e-05 0.27143848125317266 0.34453544964730737
decision_type=2 2 2 2 2 2 2 2
left_child=2 -2 6 4 -4 -5 -1 -7
right_child=1 -3 3 5 -6 7 -8 -9
leaf_value=0.051606266104939229 -0.033349325130564017 0.065735764862612789 0.061836516954973941 0.02154074705384737 -0.032780424492466619 0.049645548072229664 0.069191958982017562 0.071479401529856809
leaf_weight=27.703837268054485 19.868398502469066 8.9554581642150861 4.4165043830871609 8.3683466017246229 19.190017074346542 22.86045777797699 291.33258479088545 40.757207244634628
leaf_count=40 178 2 1 37 184 48 106 14
internal_value=0.0578759 -0.00129149 0.0619894 0.0419313 -0.0131632 0.0599724 0.0678403 0.0645697
internal_weight=443.453 28.8239 414.629 95.5925 23.6065 71.986 319.036 63.6177
internal_count=610 180 430 284 185 99 146 62
is_linear=0
shrinkage=0.03


Tree=14
num_leaves=8
num_cat=0
split_feature=99 27 231 132 49 42 124
split_gain=109.796 69.658 44.9713 104.993 11.0798 30.0808 66.4969
threshold=7.5000000000000009 0.046740633074918769 -0.097290592492085104 -0.26300431401027341 0.26867621880952808 -0.020473522171340349 0.99022841512034543
decision_type=2 2 2 2 2 2 2
left_child=2 -2 3 -1 5 -4 -7
right_child=1 -3 4 -5 -6 6 -8
leaf_value=0.059822083703145526 -0.033152784909661566 0.063323962915957641 0.063225970417870064 -0.032363621603556096 0.066388317917815062 -0.032797825358942635 0.062987018797846142
leaf_weight=35.254410170018673 19.399616494774822 9.0541496276855451 58.74894405901432 15.236725762486456 285.07531312853098 10.539681002497675 14.209946930408476
leaf_count=32 178 2 47 152 104 86 9
internal_value=0.0556409 -0.00124383 0.0595042 0.0318567 0.0631871 0.0515658 0.0223907
internal_weight=447.519 28.4538 419.065 50.4911 368.574 83.4986 24.7496
internal_count=610 180 430 184 246 142 95
is_linear=0
shrinkage=0.03


Tree=15
num_leaves=10
num_cat=0
split_feature=99 35 4 173 145 33 4 76 4
split_gain=100.467 66.0959 42.7372 118.178 19.4337 58.5428 4.03761 13.7098 29.2666
threshold=7.5000000000000009 0.73561529332712527 -0.23267893591572383 3.6708208955223887 -0.037647224852486526 0.56103698065249985 -0.39534173004085088 1.1053844414292178 -0.27766542032691321
decision_type=2 2 2 2 2 2 2 2 2
left_child=2 -2 6 4 -4 -6 -1 8 -8
right_child=1 -3 3 -5 5 -7 7 -9 -10
leaf_value=0.065622250519182565 -0.032961066665103095 0.0611322030305603 0.063295269483925082 -0.031995723695512734 -0.031202855218903942 0.064701005818181848 -0.00044278923062432743 0.064070966334521404 0.05606082497313173
leaf_weight=226.68639701604843 18.939849883317951 9.1320018768310529 57.793563358485699 16.738942116498947 8.5379931032657641 13.754792571067808 11.859144210815428 61.852636598050594 25.234561629593372
leaf_count=59 178 2 33 175 72 4 37 29 21
internal_value=0.0536162 -0.00119866 0.0572599 0.0389247 0.0539967 0.028079 0.0625668 0.0549501 0.03838
internal_weight=450.53 28.0719 422.458 96.8253 80.0863 22.2928 325.633 98.9463 37.0937
internal_count=610 180 430 284 109 76 146 87 58
is_linear=0
shrinkage=0.03


Tree=16
num_leaves=9
num_cat=0
split_feature=99 31 231 3 49 60 135 233
split_gain=92.3535 62.8085 38.3207 88.4002 9.83527 27.5732 60.6403 0.236328
threshold=7.5000000000000009 0.74910473689237944 -0.097290592492085104 0.032557935492552571 0.26867621880952808 0.95485340012015618 0.015668778226540146 -0.0051331651390424593
decision_type=2 2 2 2 2 2 2 2
left_child=2 -2 3 -1 5 -4 -7 -6
right_child=1 -3 4 -5 7 6 -8 -9
leaf_value=-0.031991649642228559 -0.032773908207817226 0.05913198183456584 0.060891472160294155 0.054105990650515412 0.063182446073212092 -0.032623485107112722 0.052893088484770277 0.053094290667924052
leaf_weight=14.224124632775782 18.489094175398353 9.1905527114868146 53.428808033466339 36.476956322789192 238.06792660057545 10.451114527881147 20.91462604701519 51.223285779356956
leaf_count=148 178 2 31 36 67 88 23 37
internal_value=0.0517965 -0.00115574 0.0552486 0.0297418 0.0586092 0.0477863 0.0241786 0.0615956
internal_weight=452.466 27.6796 424.787 50.7011 374.086 84.7945 31.3657 289.291
internal_count=610 180 430 184 246 142 111 104
is_linear=0
shrinkage=0.03


Tree=17
num_leaves=9
num_cat=0
split_feature=35 199 61 197 75 168 117 38
split_gain=68.1658 118.231 41.7671 41.5588 37.765 32.6291 6.69359 14.5859
threshold=0.43897004552459934 0.99459085184592488 0.8139767944928864 0.95304501964078769 2.9419293239683939 -0.11314577497059818 0.1252676782925127 -0.050651677513168111
decision_type=2 2 2 2 2 2 2 2
left_child=1 3 -3 -1 6 -6 7 -5
right_child=-2 2 -4 4 5 -7 -8 -9
leaf_value=-0.02998398570459461 0.059263629916758619 0.057085296865680348 -0.033795085890976725 0.05734731736806413 0.059830992046160332 -0.03169575815973661 0.06225559340047454 0.024398113919556631
leaf_weight=5.5016045197844496 282.03262355923653 4.5322074890136745 25.570276901125908 34.293356321752071 4.4686303138732901 8.7602243199944478 65.929977171123028 22.659247390925884
leaf_count=46 108 1 252 22 1 84 24 72
internal_value=0.0501119 0.0348072 -0.0186203 0.0462361 0.049535 0.00104266 0.0546807 0.0449371
internal_weight=453.748 171.716 30.1025 141.613 136.111 13.2289 122.883 56.9526
internal_count=610 502 253 249 203 85 118 94
is_linear=0
shrinkage=0.03


Tree=18
num_leaves=12
num_cat=0
split_feature=99 4 4 173 110 0 4 164 4 147 56
split_gain=81.7793 57.6012 34.1953 99.3835 11.6151 22.64 4.04317 9.28089 10.5193 2.55771 14.6942
threshold=7.5000000000000009 -0.5010437710879444 -0.23267893591572383 3.6708208955223887 5.747475027030681e-06 53.367456436157234 -0.39534173004085088 4.7697255611419687 -0.27766542032691321 0.34453544964730737 2.9292302803208612
decision_type=2 2 2 2 2 2 2 2 2 2 2
left_child=2 -2 6 4 5 -4 -1 -8 -9 10 -6
right_child=1 -3 3 -5 9 -7 7 8 -10 -11 -12
leaf_value=0.05937065107253682 0.05555837633616563 -0.032668982464396756 -0.029211207372478284 -0.031743392508350024 0.010016369332632218 0.056504874519387682 0.05774763052094193 0.016278568387316252 0.048398854154478581 0.059069716583538587 0.056233889343500265
leaf_weight=229.23271062970161 9.2560362815856951 17.986110702157021 4.6090411841869336 15.847664847970007 9.8024924024939555 4.5442309379577637 57.821772024035454 16.473010092973709 26.38377920538187 42.732669681310654 19.688164308667183
leaf_count=59 2 178 40 175 40 1 23 38 26 15 13
internal_value=0.0485524 -0.00168005 0.0517596 0.0353526 0.0486823 0.0144219 0.0564643 0.0492985 0.0367738 0.0527271 0.0418022
internal_weight=454.378 27.2421 427.136 97.2243 81.3766 9.15327 329.911 100.679 42.8568 72.2233 29.4907
internal_count=610 180 430 284 109 41 146 87 64 68 53
is_linear=0
shrinkage=0.03


Tree=19
num_leaves=12
num_cat=0
split_feature=66 187 200 38 134 44 145 183 165 2 65
split_gain=54.2906 84.5667 36.6411 23.6529 48.0748 8.0513 15.1548 19.1009 22.6967 1.31463 0.78122
threshold=0.034168031773422113 48.447618525021959 -0.064413705033806765 -0.038483550562155626 -0.24447092813272964 -0.24904297714365201 0.002222861737469856 0.26723880597014932 4.8293457031250009 1.0853928651757174 -0.35088000751930765
decision_type=2 2 2 2 2 2 2 2 2 2 2
left_child=1 -1 -3 9 -5 -2 10 -8 -9 -4 -7
right_child=5 2 3 4 -6 6 7 8 -10 -11 -12
leaf_value=-0.031626755326271114 0.057057136813357612 -0.029955344614727354 0.041903270204699875 0.050028797549075743 -0.031560344024510426 0.041525230290977752 0.045576871869386512 -0.036433195063719552 0.03988672011320657 0.058704955232976384 0.055100255902154921
leaf_weight=16.942389078438282 221.48409465700388 5.6907478496432296 22.615845732390881 15.563443847000601 9.7873983234167081 27.395326025784016 15.63119697570801 7.0701341554522497 5.1973438858985901 43.018726587295532 63.754299491643906
leaf_count=194 67 50 35 21 95 27 13 42 4 24 38
internal_value=0.0471395 0.0287127 0.0395334 0.0441906 0.0184129 0.0531767 0.0455173 0.024609 -0.0033035 0.0536763 0.0515477
internal_weight=454.151 113.619 96.6762 90.9854 25.3508 340.532 119.048 27.8987 12.2675 65.6346 91.1496
internal_count=610 419 225 175 116 191 124 59 46 59 65
is_linear=0
shrinkage=0.03


Tree=20
num_leaves=12
num_cat=0
split_feature=99 35 35 83 74 61 145 55 40 25 58
split_gain=72.8995 52.9335 30.0554 48.2058 36.3432 29.5052 24.0696 55.7421 5.36131 2.40645 1.06309
threshold=7.5000000000000009 0.73561529332712527 0.43897004552459934 1.4567910447761196 50.062313432835829 0.76157650888908324 -0.038220070658174225 1.0386003106182711 -3.758505215055695 0.36265273653578706 -6.4188524055351417
decision_type=2 2 2 2 2 2 2 2 2 2 2
left_child=2 -2 3 -1 5 -5 -6 -8 -4 -10 -11
right_child=1 -3 8 4 6 -7 7 -9 9 10 -12
leaf_value=-0.030871411370936411 -0.032500860319039045 0.052495015526757206 -0.015909767314533321 0.0519539305651864 0.054969321257657411 -0.033153388283097739 -0.032629552638561765 0.045740689797584673 -0.0074743385027792155 -0.0016374956451132496 0.055367473847716772
leaf_weight=7.9837755486369124 17.454120270907882 9.2584395408630353 0.49287389218807121 4.615424156188964 93.267311722040176 9.5513129681348783 10.079689376056193 31.347485288977623 0.24178892374038596 0.13575121760368247 269.19344466924667
leaf_count=83 178 2 2 1 55 89 87 29 1 1 82
internal_value=0.0457947 -0.00210222 0.0487966 0.0377679 0.0416506 -0.00363087 0.0464269 0.026282 0.0550278 0.0552269 0.0553217
internal_weight=453.621 26.7126 426.909 156.845 148.861 14.1667 134.694 41.4272 270.064 269.571 269.329
internal_count=610 180 430 344 261 90 171 116 86 84 83
is_linear=0
shrinkage=0.03


Tree=21
num_leaves=11
num_cat=0
split_feature=99 27 4 173 145 33 4 65 183 76
split_gain=67.9097 50.5981 28.6566 84.926 13.2485 44.3216 4.05965 11.1658 15.0418 49.0904
threshold=7.5000000000000009 0.046740633074918769 -0.23267893591572383 3.6708208955223887 -0.037647224852486526 0.56103698065249985 -0.39534173004085088 -0.25063641300612194 0.26723880597014932 1.1664450474898238
decision_type=2 2 2 2 2 2 2 2 2 2
left_child=2 -2 6 4 -4 -6 -1 8 -8 -10
right_child=1 -3 3 -5 5 -7 7 -9 9 -11
leaf_value=0.054581940644935045 -0.032323281147277373 0.051169301150371417 0.051880831462986027 -0.031464925991359131 -0.030807647013711883 0.053548788699810536 0.045547244973427742 0.054993708179883638 -0.040029886870388547 0.054426275722512456
leaf_weight=228.15161517262459 17.035336486995224 9.2395281791686994 59.490604139864445 15.029453933238981 8.0350580438971537 14.132684096693991 30.899272292852402 52.242414325475693 8.3849542587995529 9.5040571838617325
leaf_count=59 178 2 33 175 72 4 21 20 42 4
internal_value=0.0445716 -0.0020536 0.0474533 0.0323779 0.0444031 0.022833 0.0517607 0.0448879 0.0331191 0.0102185
internal_weight=452.145 26.2749 425.87 96.6878 81.6583 22.1677 329.182 101.031 48.7883 17.889
internal_count=610 180 430 284 109 76 146 87 67 46
is_linear=0
shrinkage=0.03


Tree=22
num_leaves=9
num_cat=0
split_feature=99 4 35 189 60 68 169 58
split_gain=63.4635 48.4062 27.1095 56.7019 31.0602 73.9211 4.53365 0.952921
threshold=7.5000000000000009 -0.5010437710879444 0.43897004552459934 48.447618525021959 0.96517975331594308 3.5530235187697881 0.2202779387017553 -6.4188524055351417
decision_type=2 2 2 2 2 2 2 2
left_child=2 -2 3 4 -1 6 -6 -4
right_child=1 -3 7 -5 5 -7 -8 -9
leaf_value=0.050723942023976287 0.049935419685448353 -0.032149369603354724 -0.0015241798841479006 -0.033155737442697515 0.03007852576721249 -0.033118638395557412 0.055005419559472447 0.052216997050053872
leaf_weight=93.655919022858143 9.2089467048645037 16.625274240970612 0.13272754848003288 9.3215226978063566 19.295440003275871 15.151445932686327 18.472638607025146 268.10253532230854
leaf_count=53 2 178 1 88 45 154 4 85
internal_value=0.0434598 -0.00200689 0.0462344 0.0357288 0.0403249 0.0212658 0.0434522 0.0521737
internal_weight=449.966 25.8342 424.132 155.897 146.575 52.9195 37.7681 268.235
internal_count=610 180 430 344 256 203 49 86
is_linear=0
shrinkage=0.03


Tree=23
num_leaves=10
num_cat=0
split_feature=99 27 35 189 60 68 40 169 25
split_gain=59.3432 46.3449 25.7625 53.6731 28.9239 70.0035 4.97224 4.42672 2.17928
threshold=7.5000000000000009 0.046740633074918769 0.43897004552459934 48.447618525021959 0.96517975331594308 3.5530235187697881 -3.758505215055695 0.2202779387017553 0.36265273653578706
decision_type=2 2 2 2 2 2 2 2 2
left_child=2 -2 3 4 -1 7 -4 -6 -8
right_child=1 -3 6 -5 5 -7 8 -9 -10
leaf_value=0.049277283145975882 -0.031978920557958888 0.048784127519351572 -0.016340310159741786 -0.032910389554758675 0.029087773995178225 -0.032919328552905046 -0.0075006385573151823 0.05357427626419943 0.051164691925941398
leaf_weight=93.544053360819817 16.223870456218723 9.1676917076110822 0.49353133141994376 9.1197937279939634 19.386709786951542 14.797296538949011 0.2419942319393148 18.424503326416016 266.13277603685856
leaf_count=53 178 2 2 88 45 154 1 4 83
internal_value=0.0423954 -0.00196195 0.0450689 0.0348075 0.0392484 0.0207732 0.0508759 0.0421697 0.0510723
internal_weight=447.532 25.3916 422.141 155.272 146.153 52.6085 266.868 37.8112 266.375
internal_count=610 180 430 344 256 203 86 49 84
is_linear=0
shrinkage=0.03


Tree=24
num_leaves=12
num_cat=0
split_feature=35 199 61 75 168 107 140 4 137 122 4
split_gain=44.8688 83.9112 32.2583 24.7 24.9282 11.4581 18.2593 21.6371 4.58287 8.82143 0.986216
threshold=0.43897004552459934 0.99459085184592488 0.8139767944928864 2.9419293239683939 -0.11314577497059818 1.3814046824433659 -0.14794514819700816 -0.39534173004085088 0.23911061416983406 0.0057323724269161686 -0.49088167148593659
decision_type=2 2 2 2 2 2 2 2 2 2 2
left_child=1 3 -3 5 -5 8 -7 -8 9 -1 -2
right_child=10 2 -4 4 -6 6 7 -9 -10 -11 -12
leaf_value=0.0063558179901662022 0.051579220902586383 0.046776876786793181 -0.033431154493461276 0.048222487870818169 -0.031235083862494625 0.049951268292472935 0.042144210907416685 -0.034116427823005148 0.049481656463948136 0.048000615942348925 0.044279210430831661
leaf_weight=9.018002100288868 167.62530271708965 4.6239004135131863 22.77466157823801 4.7362590730190268 8.3338161110877973 9.1919612884521502 4.5263957977294922 7.4876832440495473 87.140936695039272 9.5793873444199562 109.62236946821213
leaf_count=38 38 1 252 2 88 2 1 63 49 6 70
internal_value=0.041398 0.0287841 -0.0186188 0.0381476 -0.000847604 0.0421612 0.0203745 -0.00412352 0.0462706 0.0293146 0.0488731
internal_weight=444.661 167.413 27.3986 140.014 13.0701 126.944 21.206 12.0141 105.738 18.5974 277.248
internal_count=610 502 253 249 90 159 66 64 93 44 108
is_linear=0
shrinkage=0.03


Tree=25
num_leaves=11
num_cat=0
split_feature=99 4 4 178 145 33 4 61 65 76
split_gain=53.7394 42.8911 23.5201 74.4826 8.60013 35.1674 4.1275 18.4439 17.6579 21.1396
threshold=7.5000000000000009 -0.5010437710879444 -0.23267893591572383 1.3784328358208957 -0.037647224852486526 0.56103698065249985 -0.39534173004085088 0.99570937998396214 -0.25063641300612194 1.1664450474898238
decision_type=2 2 2 2 2 2 2 2 2 2
left_child=2 -2 6 4 -4 -6 -1 8 9 -8
right_child=1 -3 3 -5 5 -7 7 -9 -10 -11
leaf_value=0.049733479600544479 0.046617909258951325 -0.031828758822321689 0.046581696504044888 -0.031259728592443019 -0.030174661782688197 0.048445624642772293 -0.038874677071829664 0.047252124003423074 0.044303473886922115 0.032792751238781143
leaf_weight=222.50555604696274 9.0515627861022967 15.67586539313197 58.993327796459198 14.662590593099592 6.9095452129840877 13.972847372293471 7.3444126099348086 77.185090787708759 9.5277786478400213 5.6665908694267273
leaf_count=59 2 178 33 184 63 4 39 37 5 6
internal_value=0.0404666 -0.00230063 0.0430106 0.0291892 0.040572 0.0221046 0.0469535 0.0402889 0.0153214 -0.00733498
internal_weight=441.495 24.7274 416.768 94.5383 79.8757 20.8824 322.229 99.7239 22.5388 13.011
internal_count=610 180 430 284 100 67 146 87 50 45
is_linear=0
shrinkage=0.03


Tree=26
num_leaves=12
num_cat=0
split_feature=99 4 4 178 222 150 26 4 61 65 76
split_gain=50.5533 41.1508 22.2437 70.7178 5.92161 11.5624 19.1018 4.08532 17.3459 16.7691 20.2309
threshold=7.5000000000000009 -0.5010437710879444 -0.23267893591572383 1.3784328358208957 -0.0025702853205733125 -0.066497065919948403 -0.0017349610557604569 -0.39534173004085088 0.99570937998396214 -0.25063641300612194 1.1664450474898238
decision_type=2 2 2 2 2 2 2 2 2 2 2
left_child=2 -2 7 4 -4 -6 -7 -1 9 10 -9
right_child=1 -3 3 -5 5 6 -8 8 -10 -11 -12
leaf_value=0.048692937608766182 0.045674536923418906 -0.031663749049867192 0.04459188174546997 -0.031107827512126686 0.045558478766480164 0.042478538364722901 -0.032097605639190716 -0.038372298766629169 0.046091828099866054 0.043283129983330615 0.031936039696879866
leaf_weight=220.49412974715233 8.9830408096313494 15.295788675546644 59.41852218657732 14.302490435540674 9.4694709181785583 4.5378327369689941 5.9926725998520851 7.2321433946490306 76.785390555858612 9.4840360134839994 5.6707974970340729
leaf_count=59 2 178 42 184 4 1 53 39 37 5 6
internal_value=0.0396117 -0.00225544 0.0420773 0.0285672 0.0396046 0.0232269 0.000675685 0.0459275 0.0393243 0.0150056 -0.00718175
internal_weight=437.666 24.2788 413.387 93.721 79.4185 20 10.5305 319.666 99.1724 22.387 12.9029
internal_count=610 180 430 284 100 58 54 146 87 50 45
is_linear=0
shrinkage=0.03


Tree=27
num_leaves=10
num_cat=0
split_feature=99 66 33 199 169 42 168 125 200
split_gain=47.6073 39.5035 21.0756 56.1525 41.5628 13.0016 25.0828 21.2008 0.71688
threshold=7.5000000000000009 0.063410331316314544 0.49741274751147063 0.89378957318422081 0.27637432802584722 -0.049708426637172225 -0.075323744608302087 1.0000000180025095e-35 0.0049009226767730016
decision_type=2 2 2 2 2 2 2 2 2
left_child=2 -2 3 5 -5 -1 -7 -8 -4
right_child=1 -3 8 4 -6 6 7 -9 -10
leaf_value=0.048012921214771062 -0.031501626657088451 0.044786438832715984 0.047164958832714508 -0.033659721739854653 0.039851878049280774 0.048383257434642543 -0.034061644710603495 0.039233226410300269 0.038694456036231832
leaf_weight=69.837392896413803 14.924040280282499 8.9073028564453107 234.42530720308423 17.93672858923674 9.9127905927598459 14.310614973306658 8.6392109654843789 4.6280947774648658 50.084401525557041
leaf_count=29 178 2 75 191 9 6 79 3 38
internal_value=0.0388017 -0.00221174 0.0411938 0.0303716 -0.00691553 0.0410238 0.022159 -0.00732577 0.0458251
internal_weight=433.606 23.8313 409.775 125.265 27.8495 97.4153 27.5779 13.2673 284.51
internal_count=610 180 430 317 200 117 88 82 113
is_linear=0
shrinkage=0.03


Tree=28
num_leaves=11
num_cat=0
split_feature=99 4 35 199 61 73 55 25 90 42
split_gain=44.8864 37.9422 20.602 57.723 26.724 9.219 37.2622 1.88921 1.09755 0.767329
threshold=7.5000000000000009 -0.5010437710879444 0.43897004552459934 0.99459085184592488 0.8139767944928864 56.615000000000002 1.0361385817356721 0.36265273653578706 0.026221772030271265 -0.063966447796601086
decision_type=2 2 2 2 2 2 2 2 2 2
left_child=2 -2 3 5 -5 6 -1 -4 -7 -10
right_child=1 -3 7 4 -6 8 -8 -9 9 -11
leaf_value=-0.032241810620146069 0.043948778925760608 -0.031342221658929741 -0.0074907354135116825 0.042816411009492177 -0.033230647476870816 0.0479574537538974 0.039335531975163956 0.045764373221012886 0.04471438498975127 0.029346807821938097
leaf_weight=7.4474259726703158 8.8250598907470721 14.560527231544254 0.24191723763942619 4.5486135482788113 15.966995429247616 54.922359105199575 29.858125448226929 255.76272441446781 13.896288141608236 23.237276822328568
leaf_count=75 2 178 1 1 176 19 29 85 5 39
internal_value=0.0380365 -0.0021694 0.04036 0.0310217 -0.0150241 0.0384064 0.0244993 0.0456734 0.0436862 0.0361982
internal_weight=429.267 23.3856 405.882 149.877 20.5156 129.361 37.3056 256.005 92.0559 37.1336
internal_count=610 180 430 344 177 167 104 86 63 44
is_linear=0
shrinkage=0.03


Tree=29
num_leaves=10
num_cat=0
split_feature=99 27 4 199 40 90 2 72 31
split_gain=42.3476 36.4606 20.0267 83.2571 22.6646 13.7515 42.0119 0.955833 6.44677
threshold=7.5000000000000009 0.046740633074918769 -0.39534173004085088 0.99459085184592488 -1.857724923028252 0.049939818224454507 1.1112223942720811 56.573763003166 0.45235729797756202
decision_type=2 2 2 2 2 2 2 2 2
left_child=2 -2 -1 5 -5 7 -7 8 -4
right_child=1 -3 3 4 -6 6 -8 -9 -10
leaf_value=0.046036434107291323 -0.031185371977657059 0.043157256263222997 0.01759047089721915 -0.036359948950372797 0.030623181758428691 -0.035685444255702518 0.039953597021448461 0.046623071288877917 0.044996033620156139
leaf_weight=213.55558094382286 14.205150689929726 8.7369756698608381 13.915156655013559 17.87562116235495 5.1021564938127986 7.9954799935221663 24.670652940869331 91.726016767323017 26.993653245270252
leaf_count=59 178 2 51 180 10 63 20 38 9
internal_value=0.037303 -0.00212835 0.0395614 0.0319968 -0.0207046 0.0394211 0.0208407 0.0437845 0.0363878
internal_weight=424.776 22.9421 401.834 188.279 22.9778 165.301 32.6661 132.635 40.9088
internal_count=610 180 430 371 190 181 83 98 60
is_linear=0
shrinkage=0.03


Tree=30
num_leaves=11
num_cat=0
split_feature=35 187 75 61 117 1 42 4 164 65
split_gain=33.9254 80.749 28.0158 21.5915 7.92751 25.8448 7.39293 1.40552 5.78867 4.47961
threshold=0.43897004552459934 48.447618525021959 3.0632089552238813 0.75634856100047942 0.1252676782925127 0.22455404555730674 -0.018260451829577192 -0.49088167148593659 5.5059087276458749 -0.6332830587504511
decision_type=2 2 2 2 2 2 2 2 2 2
left_child=1 -1 4 -4 5 -3 -7 -2 -9 -10
right_child=7 2 3 -5 -6 6 -8 8 9 -11
leaf_value=-0.032895169205263912 0.046066029082861601 -0.031404420252958518 0.041110032009153717 -0.032745658143009081 0.044643183193120661 0.041418042945220238 0.014462305964411986 0.044424595002857531 0.04182611351468437 0.018497763334478955
leaf_weight=18.102656375616789 157.29429306089878 5.1368836797773829 4.4859323501586905 9.17135066911578 69.102324295789003 37.881638873368502 14.417214579880236 66.883574217557907 13.133029386401175 24.331828221678734
leaf_count=231 38 43 1 99 35 32 61 24 4 42
internal_value=0.0366173 0.0253256 0.0330443 -0.00713234 0.037426 0.028076 0.0344542 0.0433151 0.038742 0.0276281
internal_weight=419.941 158.298 140.195 13.6573 126.538 57.4357 52.2989 261.643 104.348 37.4649
internal_count=610 502 271 100 171 136 93 108 70 46
is_linear=0
shrinkage=0.03


Tree=31
num_leaves=8
num_cat=0
split_feature=4 189 193 145 94 193 60
split_gain=33.0028 67.8998 28.0587 21.1009 15.8955 50.7437 20.3359
threshold=-0.39534173004085088 48.447618525021959 0.0021736454256557837 -0.24022865989356243 0.26750000000000007 -0.025304516707908842 0.96517975331594308
decision_type=2 2 2 2 2 2 2
left_child=-1 2 4 -4 -2 -6 -7
right_child=1 -3 3 -5 5 6 -8
leaf_value=0.044069620456246711 0.043677219598506151 -0.035700034315115377 0.039311187852041851 -0.03408795896472757 -0.034817271793425086 0.043387995684632294 0.0059304600533491751
leaf_weight=218.15266701579094 90.286473222076893 13.699078686535357 4.395610809326171 9.2076506987214071 10.376852478832005 50.969775225967169 18.144812200218439
leaf_count=72 54 147 1 94 94 32 116
internal_value=0.0359409 0.0267509 0.0316007 -0.00909729 0.0349134 0.0245031 0.0338218
internal_weight=415.233 197.08 183.381 13.6033 169.778 79.4914 69.1146
internal_count=610 538 391 95 296 242 148
is_linear=0
shrinkage=0.03


Tree=32
num_leaves=9
num_cat=0
split_feature=99 27 4 199 40 90 2 111
split_gain=37.6709 32.8643 18.3602 73.5707 20.9948 12.7116 38.2195 1.86218
threshold=7.5000000000000009 0.046740633074918769 -0.39534173004085088 0.99459085184592488 -1.857724923028252 0.049939818224454507 1.1112223942720811 7.6358175328182528e-06
decision_type=2 2 2 2 2 2 2 2
left_child=2 -2 -1 5 -5 7 -7 -4
right_child=1 -3 3 4 -6 6 -8 -9
leaf_value=0.043787105463726016 -0.030970692445906573 0.040927299838779227 0.029565337902106265 -0.035993298428843794 0.029340142260908329 -0.035457853689210582 0.03755025581421062 0.043471222186803424
leaf_weight=205.35403414070606 13.543210696429016 8.4284467697143537 21.657137591391802 17.051990877836946 4.9819311536848536 7.7708037570118931 24.090014979243279 107.38815056160092
leaf_count=59 178 2 36 180 10 63 20 62
internal_value=0.0352951 -0.00267862 0.0374529 0.0301269 -0.0204585 0.0371559 0.0191152 0.0414058
internal_weight=410.266 21.9717 388.294 182.94 22.0339 160.906 31.8608 129.045
internal_count=610 180 430 371 190 181 83 98
is_linear=0
shrinkage=0.03


Tree=33
num_leaves=10
num_cat=0
split_feature=99 27 4 201 74 3 90 172 147
split_gain=35.6855 31.6382 17.8893 48.1629 19.232 28.4629 10.2273 23.3732 2.26961
threshold=7.5000000000000009 0.046740633074918769 -0.39534173004085088 -0.036769953260803727 50.062313432835829 0.045395843250400199 0.049939818224454507 4.265681818181819 0.30685250458792074
decision_type=2 2 2 2 2 2 2 2 2
left_child=2 -2 -1 -4 5 -5 8 -8 -6
right_child=1 -3 3 4 6 -7 7 -9 -10
leaf_value=0.043106386892203225 -0.030818395276929349 0.040290189651157125 -0.036165661882080889 -0.03518938298245778 0.029458432592166996 0.038385027908771012 -0.029961666241836733 0.032304944993248437 0.042910916207895236
leaf_weight=202.3994747698307 13.211786802858116 8.3222918510436994 8.701730899512766 8.260699465870859 26.543897930532694 8.6708416640758497 5.9330270551145103 25.485934719443321 97.441816978156567
leaf_count=59 178 2 75 84 47 3 66 36 60
internal_value=0.0346981 -0.00263546 0.0368039 0.0295433 0.0330679 0.00236105 0.0363578 0.0198927 0.0403136
internal_weight=404.972 21.5341 383.437 181.038 172.336 16.9315 155.405 31.419 123.986
internal_count=610 180 430 371 296 87 209 102 107
is_linear=0
shrinkage=0.03


Tree=34
num_leaves=10
num_cat=0
split_feature=99 27 4 199 40 94 218 169 2
split_gain=33.8086 30.4687 17.5272 67.2903 19.5941 7.24252 21.2693 21.2638 5.38603
threshold=7.5000000000000009 0.046740633074918769 -0.39534173004085088 0.99459085184592488 -1.857724923028252 0.32000000000000012 -0.0024546056120236027 0.25898006839179039 1.0683780499786095
decision_type=2 2 2 2 2 2 2 2 2
left_child=2 -2 -1 5 -5 -4 7 -7 -8
right_child=1 -3 3 4 -6 6 8 -9 -10
leaf_value=0.04246193607624725 -0.030668135890702601 0.039683159375740122 0.041468062532603468 -0.035562673730359477 0.028182311231561747 -0.03672002289317778 0.019882842052799676 0.037619478570254217 0.042273948027209629
leaf_weight=199.36822079122066 12.888017784804108 8.2130584716796857 91.96839614585042 16.446080759167675 4.8970155864953986 7.7155982628464681 18.095687054097652 4.7507656514644623 35.323616337031126
leaf_count=59 178 2 53 180 10 57 49 4 18
internal_value=0.0341162 -0.00259337 0.0361717 0.02896 -0.0201958 0.0357104 0.0271287 -0.00747761 0.0352489
internal_weight=399.666 21.1011 378.565 179.197 21.3431 157.854 65.8857 12.4664 53.4193
internal_count=610 180 430 371 190 181 128 61 67
is_linear=0
shrinkage=0.03


Tree=35
num_leaves=10
num_cat=0
split_feature=99 4 35 199 61 145 43 147 169
split_gain=32.0828 29.3524 17.3453 41.7223 21.0387 11.5642 42.7263 0.259809 0.111595
threshold=7.5000000000000009 -0.5010437710879444 0.43897004552459934 0.99459085184592488 0.8139767944928864 -0.038220070658174225 -0.17444183530545779 0.38419008319207265 -0.05696880675912968
decision_type=2 2 2 2 2 2 2 2 2
left_child=2 -2 3 5 -5 7 -7 -1 -4
right_child=1 -3 8 4 -6 6 -8 -9 -10
leaf_value=0.032174177373527159 0.039103962478270013 -0.030519780551307791 0.034560556932784106 0.037432301166081219 -0.032525917130149511 0.037813061508183657 -0.032842048050602965 0.042130698214121444 0.041939655152447707
leaf_weight=29.709054689854383 8.1011714935302752 12.571788243949412 44.328426688909531 4.2708916664123562 13.91047493368387 25.878304243087769 9.8782090581953508 56.079531438648701 189.38981807231903
leaf_count=34 2 178 28 1 176 13 94 26 58
internal_value=0.0335758 -0.00255231 0.0355853 0.02677 -0.0148412 0.0330893 0.0178496 0.0391277 0.0407061
internal_weight=394.118 20.673 373.445 139.726 18.1814 121.545 35.7565 85.7886 233.718
internal_count=610 180 430 344 177 167 107 60 86
is_linear=0
shrinkage=0.03


Tree=36
num_leaves=10
num_cat=0
split_feature=99 4 4 199 40 90 2 147 33
split_gain=30.4742 28.286 16.8373 61.8565 18.5634 11.3567 34.3092 1.70121 3.57295
threshold=7.5000000000000009 -0.5010437710879444 -0.39534173004085088 0.99459085184592488 -1.857724923028252 0.049939818224454507 1.1112223942720811 0.30685250458792074 0.60876307683453479
decision_type=2 2 2 2 2 2 2 2 2
left_child=2 -2 -1 5 -5 7 -7 8 -4
right_child=1 -3 3 4 -6 6 -8 -9 -10
leaf_value=0.041298623549259325 0.03855054026827217 -0.030373201104924925 0.015036195175222986 -0.03544104549725044 0.027269728307251037 -0.035323050138186714 0.034920880884281642 0.040799313219367819 0.039621794242777369
leaf_weight=193.20964959263802 7.987028360366824 12.262980438768862 12.862162340432407 15.789669770747425 4.8109255470335475 7.507029294967654 23.211940228939056 98.167190704494715 12.634568959474562
leaf_count=59 2 178 40 180 10 63 20 54 4
internal_value=0.0330632 -0.0025122 0.0350294 0.0278949 -0.0200726 0.0344029 0.0170878 0.0385084 0.028368
internal_weight=388.443 20.25 368.193 174.983 20.6006 154.383 30.719 123.664 25.4967
internal_count=610 180 430 371 190 181 83 98 44
is_linear=0
shrinkage=0.03


Tree=37
num_leaves=9
num_cat=0
split_feature=99 4 4 189 74 3 54 142
split_gain=28.96 27.2667 16.4393 46.6188 15.9051 24.4273 9.06213 5.83161
threshold=7.5000000000000009 -0.5010437710879444 -0.39534173004085088 48.447618525021959 50.062313432835829 0.045395843250400199 -0.2722801462871583 0.37725053767596778
decision_type=2 2 2 2 2 2 2 2
left_child=2 -2 -1 4 5 -4 -6 -8
right_child=1 -3 3 -5 6 -7 7 -9
leaf_value=0.040745761521376357 0.038021040942980304 -0.03022827417426675 -0.034481590111847725 -0.035361800085917564 -0.024788551866598375 0.035965666015269564 0.027485855853482753 0.040946847624298968
leaf_weight=190.01817527413368 7.8709945678710964 11.961474299430845 7.5087466686964026 9.2113310098648054 1.5929845198988903 8.2336444407701475 67.18582259118557 79.122811499983072
leaf_count=59 2 178 80 97 10 3 143 38
internal_value=0.032569 -0.00247299 0.034494 0.0274093 0.0311542 0.00213226 0.034188 0.0350144
internal_weight=382.706 19.8325 362.874 172.855 163.644 15.7424 147.902 146.309
internal_count=610 180 430 371 274 83 191 181
is_linear=0
shrinkage=0.03


Tree=38
num_leaves=10
num_cat=0
split_feature=99 31 33 60 168 76 147 81 200
split_gain=27.4804 26.2917 15.4888 36.3732 30.9968 6.30056 15.4751 12.9999 1.16399
threshold=7.5000000000000009 0.74910473689237944 0.49741274751147063 0.96517975331594308 -0.062200068865724094 1.4469293239683936 0.40520008556379233 3.8002414398595263 0.0049009226767730016
decision_type=2 2 2 2 2 2 2 2 2
left_child=2 -2 3 5 -5 6 7 -1 -4
right_child=1 -3 8 4 -6 -7 -8 -9 -10
leaf_value=0.026579547792660047 -0.030084881052169731 0.03751376196115852 0.039642907709082756 0.025862683553106381 -0.032008810322186304 0.040170847742517321 0.040926707310569632 -0.035456266638173237 0.031031841528919815
leaf_weight=4.6460700407624262 11.66714806482196 7.7534098625183097 201.9351681470871 15.635102506726982 15.673091933131216 57.831943109631538 12.474180966615675 5.595642264932394 44.035443067550659
leaf_count=5 178 2 75 36 209 22 4 41 38
internal_value=0.0320592 -0.00243462 0.0339412 0.0241949 -0.00310935 0.0347526 0.0197196 -0.00718635 0.0382453
internal_weight=377.247 19.4206 357.827 111.856 31.3082 80.5478 22.7159 10.2417 245.971
internal_count=610 180 430 317 245 72 50 46 113
is_linear=0
shrinkage=0.03


Tree=39
num_leaves=12
num_cat=0
split_feature=99 31 33 60 194 80 118 182 44 174 48
split_gain=26.1308 25.3585 14.8641 34.7839 36.2544 5.19413 11.7704 11.7982 1.40767 2.6567 5.60387
threshold=7.5000000000000009 0.74910473689237944 0.49741274751147063 0.96517975331594308 0.044586665567016494 0.14857769973661109 0.013975481236245181 0.4972388059701493 -0.3259767078467366 3.8665694255992764 0.27262270380200598
decision_type=2 2 2 2 2 2 2 2 2 2 2
left_child=2 -2 3 5 -5 -1 7 -7 -4 -10 -11
right_child=1 -3 8 4 -6 6 -8 -9 9 10 -12
leaf_value=0.039180883899017221 -0.029942908246329381 0.037027146278195477 0.040559180606464122 -0.032319424586931135 0.03085179270216911 -0.035032966393294486 0.037807791664564182 0.026061935233561939 0.037589904821662162 0.011554564600712519 0.036066215644935215
leaf_weight=57.290002673864365 11.379878338426353 7.6345882415771475 136.64495581388474 16.650025073438886 14.2255732268095 4.7588527761399764 12.761837549507616 4.6165056824684143 68.70417295396328 17.231520172208548 19.625810220837593
leaf_count=24 178 2 39 223 22 35 8 5 31 35 8
internal_value=0.0315942 -0.00239704 0.0334378 0.0238187 -0.00306512 0.0342146 0.0200946 -0.0050478 0.0376902 0.0336024 0.0252937
internal_weight=371.524 19.0145 352.509 110.303 30.8756 79.4272 22.1372 9.37536 242.206 105.562 36.8573
internal_count=610 180 430 317 245 72 48 40 113 74 43
is_linear=0
shrinkage=0.03


Tree=40
num_leaves=8
num_cat=0
split_feature=4 189 74 3 142 42 57
split_gain=25.6803 49.3111 21.3157 25.5836 10.3561 20.3181 29.1645
threshold=-0.39534173004085088 48.447618525021959 50.062313432835829 0.045395843250400199 0.37725053767596778 -0.059038751435404928 0.056664862957603583
decision_type=2 2 2 2 2 2 2
left_child=-1 2 3 -2 5 -4 -7
right_child=1 -3 4 -5 -6 6 -8
leaf_value=0.038911444218275248 -0.033861659488081806 -0.034636129450777479 0.036175470745902986 0.034378131526770349 0.038485644874724771 -0.033421839757456467 0.024556308935476692
leaf_weight=189.24497107416391 10.115004073828461 11.713333416730164 38.25577037781477 7.9007291495800009 76.591456327587366 11.201648481190206 20.667991798371077
leaf_count=72 134 147 33 3 43 126 52
internal_value=0.0311585 0.0226537 0.0269299 -0.00354349 0.0306907 0.0217135 0.00368986
internal_weight=365.691 176.446 164.733 18.0157 146.717 70.1254 31.8696
internal_count=610 538 391 137 254 211 178
is_linear=0
shrinkage=0.03


Tree=41
num_leaves=8
num_cat=0
split_feature=4 199 183 111 56 38 134
split_gain=24.9144 64.3921 13.3372 11.0274 15.5347 14.3151 33.6467
threshold=-0.39534173004085088 0.99459085184592488 0.26723880597014932 0.033601300137108971 1.9681410434805933 -0.049851830921283626 -0.32141487562571092
decision_type=2 2 2 2 2 2 2
left_child=-1 3 -3 4 -2 -6 -7
right_child=1 2 -4 -5 5 6 -8
leaf_value=0.038435214105014472 -0.030601479627473022 0.015847269597370515 -0.034504543131515387 0.036902813646159716 0.036883575036578263 0.030472534283501235 -0.035604370171175653
leaf_weight=185.90509440749884 4.2305760383605948 5.5120065771043327 18.423581026494503 84.064522698521614 33.172372285276651 18.928442362695936 9.6441385634243471
leaf_count=72 45 20 257 52 31 33 100
internal_value=0.0307234 0.0222931 -0.0226184 0.0295799 0.0197927 0.0237261 0.00761828
internal_weight=359.881 173.976 23.9356 150.04 65.9755 61.745 28.5726
internal_count=610 538 277 261 209 164 133
is_linear=0
shrinkage=0.03


Tree=42
num_leaves=9
num_cat=0
split_feature=4 45 99 174 149 147 27 147
split_gain=24.2039 41.7903 26.9812 16.3635 33.1136 6.059 14.7266 1.48564
threshold=-0.39534173004085088 -0.12910626126319188 7.5000000000000009 3.8665694255992764 0.79789523338799195 0.28457943481606351 0.028888473308352019 0.38419008319207265
decision_type=2 2 2 2 2 2 2 2
left_child=-1 -2 3 5 -5 6 -3 -7
right_child=1 2 -4 4 -6 7 -8 -9
leaf_value=0.037977841697012064 -0.037327238647977212 -0.007445099247009924 -0.027993160618747744 -0.032229932947005546 0.036765217401429365 0.029378546962477183 0.036194452311894762 0.039728731512697166
leaf_weight=182.5623452886939 9.2088459953665716 11.253834612667562 7.2579629793763152 10.75603334605694 12.386222094297407 44.95736675336957 15.729938089847563 59.973216578364372
leaf_count=72 81 64 134 158 9 67 6 19
internal_value=0.0303002 0.0219383 0.025527 0.0282148 0.00456673 0.0322753 0.0182713 0.0356417
internal_weight=354.086 171.523 162.315 155.057 23.1423 131.914 26.9838 104.931
internal_count=610 538 457 323 167 156 70 86
is_linear=0
shrinkage=0.03


Tree=43
num_leaves=12
num_cat=0
split_feature=35 199 197 61 200 197 117 147 4 164 49
split_gain=23.8582 37.2387 18.383 17.3094 16.5002 15.8526 4.07011 11.2646 1.77745 4.65749 8.86077
threshold=0.43897004552459934 0.99459085184592488 0.95304501964078769 0.8139767944928864 -0.035421564133813137 0.9534292841537263 0.1252676782925127 0.38419008319207265 -0.49088167148593659 5.5059087276458749 0.456704071896403
decision_type=2 2 2 2 2 2 2 2 2 2 2
left_child=1 2 -1 -3 5 -4 7 -6 -2 -10 -11
right_child=8 3 4 -5 6 -7 -8 -9 9 10 -12
leaf_value=-0.028946371131124093 0.039135411265468024 0.032957380682533663 0.035511869480666987 -0.032051307697342164 0.0064629265384407789 -0.032517591611219226 0.038566645432594762 0.036840503589349947 0.036897085069641379 0.0014716893852849845 0.033683730931513042
leaf_weight=4.4006023034453383 126.69521667063236 3.8278689384460476 4.1073422431945783 15.502321626991032 19.328991834074259 6.7744091339409351 53.181924719363451 27.056472111493349 55.760189063847065 13.176916025578977 18.494460299611092
leaf_count=46 38 1 1 252 89 73 24 16 24 37 9
internal_value=0.0298913 0.0196778 0.0261533 -0.0180425 0.0286156 -0.00575957 0.0324222 0.0246489 0.0361564 0.0314118 0.0208289
internal_weight=348.307 134.18 114.85 19.3302 110.449 10.8818 99.5674 46.3855 214.127 87.4316 31.6714
internal_count=610 502 249 253 203 74 129 105 108 70 46
is_linear=0
shrinkage=0.03


Tree=44
num_leaves=9
num_cat=0
split_feature=4 199 226 90 98 33 42 41
split_gain=23.011 56.8488 14.0708 11.8941 36.0222 19.5382 3.81598 5.61214
threshold=-0.39534173004085088 0.99459085184592488 0.00042495588963498777 0.010481857124605271 8.5000000000000018 0.16805317501963932 -0.05687800224898331 2.0300403032517713
decision_type=2 2 2 2 2 2 2 2
left_child=-1 3 -3 -2 5 -5 -6 -8
right_child=1 2 -4 4 6 -7 7 -9
leaf_value=0.037149211533440293 0.036035340303349851 -0.03376028919695382 0.020884775001837566 0.033302556879510961 0.037866304076680374 -0.036427365004238502 0.033382087673568886 0
leaf_weight=175.8451482206583 79.687135219573975 18.070473041385416 4.6431223712861529 3.9843411147594479 30.449734982103109 12.819918762892483 8.7064691670238989 8.323304880410431
leaf_count=72 50 265 12 2 14 137 10 48
internal_value=0.0295059 0.0212512 -0.0220536 0.0282088 0.0180576 -0.0187838 0.0312772 0.0178825
internal_weight=342.53 166.684 22.7136 143.971 64.2838 16.8043 47.4795 17.0298
internal_count=610 538 277 261 211 139 72 58
is_linear=0
shrinkage=0.03


Tree=45
num_leaves=10
num_cat=0
split_feature=4 199 45 40 49 108 118 105 195
split_gain=22.2842 54.3962 14.9637 14.5256 9.16859 6.70726 20.0018 5.86651 0.0698874
threshold=-0.39534173004085088 0.99459085184592488 -0.12910626126319188 -1.857724923028252 0.11839725254064074 0.061991251929012357 0.0006103353004854482 0.035911666078292534 -0.12597921466838033
decision_type=2 2 2 2 2 2 2 2 2
left_child=8 2 -2 -3 -4 7 -7 -6 -1
right_child=1 3 4 -5 5 6 -8 -9 -10
leaf_value=0.025309296332760151 -0.032682091053233088 -0.034015380562052611 -0.023722908199512734 0.021602122826346517 0.035527907518705118 -0.032754560733683435 0.032238494481344651 0.014477214234362318 0.037343760544697222
leaf_weight=11.045965261757372 2.7669963948428622 17.604055937379602 2.1328218430280677 4.649131514132022 103.12112041190267 5.3004334904253509 12.317091722041367 16.210098884999752 161.48108642548323
leaf_count=11 20 261 26 16 80 62 16 57 61
internal_value=0.0291403 0.0209573 0.0277978 -0.0218375 0.0292472 0.0302599 0.0118144 0.0328374 0.0367408
internal_weight=336.629 164.102 141.849 22.2532 139.082 136.949 17.6175 119.331 172.527
internal_count=610 538 261 277 241 215 78 137 72
is_linear=0
shrinkage=0.03


Tree=46
num_leaves=12
num_cat=0
split_feature=35 199 197 201 200 197 42 68 1 0 44
split_gain=22.1994 32.6335 16.9708 15.7468 15.4374 14.7153 3.46399 21.3842 1.42263 2.3411 0.0793723
threshold=0.43897004552459934 0.99459085184592488 0.95304501964078769 -0.5185295882229376 -0.035421564133813137 0.9534292841537263 -0.049708426637172225 3.4917548620533698 0.58191668190186385 18.583238601684574 -0.25717188791188278
decision_type=2 2 2 2 2 2 2 2 2 2 2
left_child=1 2 -1 -3 5 -4 -6 -8 9 -2 -11
right_child=8 3 4 -5 6 -7 7 -9 -10 10 -12
leaf_value=-0.028592809375450494 0.034516370207464044 0.031613741035900457 0.034091835700937712 -0.031809989968619834 0.035964758826561798 -0.032317974625879639 0.036597378579479783 -0.012429951645179012 0.03788384080504785 0.026997157001349571 0.017420807996418441
leaf_weight=4.29531655460596 56.127384878695011 3.6516573429107693 3.9609689712524396 14.407463341951368 58.508285272866488 6.6106183454394341 26.212638679891825 10.645937711000441 117.86752327531576 10.203409031033518 18.559470571577549
leaf_count=46 28 1 1 252 37 73 17 75 40 6 34
internal_value=0.0287524 0.0186945 0.0248136 -0.0178421 0.0272542 -0.00638039 0.0310413 0.0224032 0.0349787 0.0305161 0.0217117
internal_weight=331.051 128.293 110.234 18.0591 105.938 10.5716 95.3669 36.8586 202.758 84.8903 28.7629
internal_count=610 502 249 253 203 74 129 92 108 68 40
is_linear=0
shrinkage=0.03


Tree=47
num_leaves=12
num_cat=0
split_feature=35 187 199 61 55 200 197 60 1 23 44
split_gain=21.3969 46.1935 18.2534 13.0165 4.59326 4.25774 3.91314 2.38533 1.49185 2.33173 0.101606
threshold=0.43897004552459934 48.447618525021959 0.99459085184592488 0.82761134609886944 0.94460031301834879 -0.034483691352060523 0.96050099194105576 0.95240915399168713 0.58191668190186385 18.583238601684574 -0.25717188791188278
decision_type=2 2 2 2 2 2 2 2 2 2 2
left_child=1 -1 4 -4 -3 6 -6 -7 9 -2 -11
right_child=8 2 3 -5 5 7 -8 -9 -10 10 -12
leaf_value=-0.031842865707719839 0.034079967966322282 -0.019264825384818725 0.031233461045545682 -0.031184579361435361 0.032393576298867514 0.035641929816692348 -0.00077490977159194925 0.022454738561342374 0.037529216163230905 0.02662465232669391 0.017002571525014078
leaf_weight=13.706157065927981 55.168090552091599 1.0474169105291355 3.5982196331024152 7.7744184918701649 4.0013653188943854 60.873283784836531 8.3041076399385911 26.905609164386988 115.45776868611574 10.052071630954744 18.471473447978497
leaf_count=231 28 6 1 115 2 32 53 62 40 6 34
internal_value=0.0283983 0.0184416 0.0248206 -0.0102653 0.0288574 0.0295763 0.011409 0.0319321 0.0345697 0.0300564 0.0212821
internal_weight=325.36 126.211 112.504 11.3726 101.132 100.084 12.3055 87.7789 199.149 83.6916 28.5235
internal_count=610 502 271 116 155 149 55 94 108 68 40
is_linear=0
shrinkage=0.03


Tree=48
num_leaves=9
num_cat=0
split_feature=4 189 193 137 90 193 2 195
split_gain=21.0755 37.9899 18.9053 13.5765 10.8104 30.7278 11.7581 0.181644
threshold=-0.39534173004085088 48.447618525021959 0.0021736454256557837 0.8600052460153208 0.010481857124605271 -0.025304516707908842 1.1112223942720811 -0.12597921466838033
decision_type=2 2 2 2 2 2 2 2
left_child=7 2 4 -4 -2 -6 -7 -1
right_child=1 -3 3 -5 5 6 -8 -9
leaf_value=0.023921567610930904 0.034640555626913636 -0.033757970514968864 -0.034117219354338361 0.030473279820797599 -0.03359619879406555 0.0090698440781292033 0.038072233893755296 0.036298253601344276
leaf_weight=10.515070535242556 75.008087038993835 10.161858536303042 7.5909727420657855 3.4868924617767334 8.3397640995681268 23.558635037392378 29.090414401143789 152.21405869722366
leaf_count=11 59 147 94 1 92 129 16 61
internal_value=0.0280317 0.0199345 0.0238674 -0.0126984 0.0269388 0.0170123 0.0255615 0.0356678
internal_weight=319.966 157.237 147.075 11.0779 135.997 60.9888 52.649 162.729
internal_count=610 538 391 95 296 237 145 72
is_linear=0
shrinkage=0.03


Tree=49
num_leaves=11
num_cat=0
split_feature=4 199 45 226 90 98 31 2 132 4
split_gain=20.5775 47.6189 13.372 12.2491 8.01344 27.994 16.0685 3.17795 0.163621 0.0859179
threshold=-0.39534173004085088 0.99459085184592488 -0.12910626126319188 0.00042495588963498777 0.010481857124605271 8.5000000000000018 0.13840412042396308 1.0683780499786095 -0.23601087016969816 -0.49088167148593659
decision_type=2 2 2 2 2 2 2 2 2 2
left_child=9 2 -2 -3 8 6 -6 -7 -4 -1
right_child=1 3 4 -5 5 7 -8 -9 -10 -11
leaf_value=0.037083585694481405 -0.03179940950929893 -0.033386174497121994 0.03829051263037276 0.019274433286585797 0.030963447431002322 0.016941750635853205 -0.035227872821968223 0.036402612958453089 0.029335795958859153 0.030365715029036473
leaf_weight=112.25440646708012 2.6577829308807841 16.384336687624458 36.840442180633545 4.355310831218957 3.7005200795829287 14.964392229914663 10.543009199202059 28.843226205557585 36.616809733211994 47.25872115790844
leaf_count=39 20 265 11 12 2 49 123 18 38 33
internal_value=0.0276838 0.0196317 0.0261743 -0.0218116 0.0275997 0.0186067 -0.0169312 0.0303483 0.034321 0.0353136
internal_weight=314.419 154.906 134.166 20.7396 131.508 58.0511 14.2435 43.8076 73.4573 159.513
internal_count=610 538 261 277 241 192 125 67 49 72
is_linear=0
shrinkage=0.03


Tree=50
num_leaves=10
num_cat=0
split_feature=4 199 226 111 2 25 98 114 4
split_gain=20.0048 45.5975 11.8819 9.67983 13.4269 28.3318 1.57211 0.213184 0.148955
threshold=-0.39534173004085088 0.99459085184592488 0.00042495588963498777 0.033601300137108971 1.1026380388748305 2.7415843219878915 8.5000000000000018 7.441122696788115e-06 -0.49088167148593659
decision_type=2 2 2 2 2 2 2 2 2
left_child=8 3 -3 4 5 -2 -6 -5 -1
right_child=1 2 -4 7 6 -7 -8 -9 -10
leaf_value=0.03678598389341102 -0.033777840197446618 -0.033211156409498906 0.018891581264989039 0.037089519934499389 0.018577376838429638 0.025982609748249903 0.035597935161291984 0.028225530330571513 0.029941760658036387
leaf_weight=109.81270268559456 11.408529171720149 15.98782646469772 4.3309067450463763 36.871864166110754 13.710643459111454 15.810605321079491 18.125512789934874 36.194750290364027 46.515499591827393
leaf_count=39 135 265 12 16 35 26 13 36 33
internal_value=0.027365 0.0193676 -0.0215996 0.0258053 0.0162311 0.000519154 0.0291482 0.0331795 0.0349718
internal_weight=308.769 152.441 20.3187 132.122 59.0553 27.2191 31.8362 73.0666 156.328
internal_count=610 538 277 261 209 161 48 52 72
is_linear=0
shrinkage=0.03


Tree=51
num_leaves=12
num_cat=0
split_feature=35 199 197 200 197 61 42 72 4 164 49
split_gain=19.6096 27.6926 15.0995 16.0926 13.8411 13.7402 3.54524 19.9679 1.95135 3.38901 3.87251
threshold=0.44330549531948021 0.99459085184592488 0.95304501964078769 -0.035421564133813137 0.9534292841537263 0.8139767944928864 -0.049708426637172225 65.519423337856196 -0.49088167148593659 5.5059087276458749 0.48180780629909215
decision_type=2 2 2 2 2 2 2 2 2 2 2
left_child=1 2 -1 4 -4 -3 -5 -8 -2 -10 -11
right_child=8 5 3 6 -6 -7 7 -9 9 10 -12
leaf_value=-0.0280953737191805 0.036575592149230007 0.029757080641649496 0.031816001698474088 0.034303157698920568 -0.033938972576301456 -0.031607323991450387 -0.013506829630962064 0.034872955600716266 0.033607833886340276 0.0073759418186062206 0.030306522512796329
leaf_weight=4.1171477064490309 107.28184692561626 3.3767983913421658 3.6794483661651594 57.291370630264282 6.5393366292119026 13.04355004429817 10.259305059909819 24.401013046503067 45.204792939126492 15.261763468384745 12.821934297680853
leaf_count=46 38 1 1 39 74 253 75 17 22 37 7
internal_value=0.0270478 0.0175082 0.0231112 0.0254561 -0.00926981 -0.0178319 0.0294057 0.0204914 0.0333819 0.028237 0.0186304
internal_weight=303.278 122.708 106.288 102.17 10.2188 16.4203 91.9517 34.6603 180.57 73.2885 28.0837
internal_count=610 506 252 206 75 254 131 92 104 66 44
is_linear=0
shrinkage=0.03


Tree=52
num_leaves=9
num_cat=0
split_feature=27 187 200 147 60 60 59 123
split_gain=18.321 40.8847 17.672 7.82091 19.1521 22.5315 2.02012 0.581468
threshold=0.027931106365554407 48.447618525021959 -0.14286751353517083 0.38419008319207265 0.94345900980989561 1.0903483199492821 0.99647688277169488 0.0088108144520621327
decision_type=2 2 2 2 2 2 2 2
left_child=1 -1 -3 4 7 -6 -2 -4
right_child=6 2 3 -5 5 -7 -8 -9
leaf_value=-0.03154617858555344 0.034823892139246498 -0.034170983042300929 0.022673228568434855 0.035144760204558249 -0.031924498532549375 0.03225303560956784 0.024474976616638926 0.035009187554349251
leaf_weight=12.756014598533509 141.95795664191246 3.7252117060124865 19.461545208469033 46.667979441583157 11.491632245481016 7.1294494308531275 35.192525073885918 19.34751944988966
leaf_count=232 68 32 35 27 167 4 36 9
internal_value=0.0267456 0.0174335 0.0234922 0.0258898 0.0178451 -0.00680848 0.0329338 0.0296234
internal_weight=297.73 120.579 107.823 104.098 57.4301 18.6211 177.15 38.8091
internal_count=610 506 274 242 215 171 104 44
is_linear=0
shrinkage=0.03


Tree=53
num_leaves=11
num_cat=0
split_feature=4 199 40 94 193 53 6 217 2 195
split_gain=18.7798 41.455 12.3067 10.0772 20.9627 10.1926 15.9082 0.827533 0.753329 0.393566
threshold=-0.39534173004085088 0.99459085184592488 -1.857724923028252 0.28750000000000009 -0.025304516707908842 -0.013833934520528472 0.15466672068621815 -0.0015277237732327553 1.1292047595551236 -0.12597921466838033
decision_type=2 2 2 2 2 2 2 2 2 2
left_child=9 3 -3 7 -5 8 -7 -2 -6 -1
right_child=1 2 -4 4 5 6 -8 -9 -10 -11
leaf_value=0.021612028104689391 0.036077989853600306 -0.03368772982619031 0.020249360019906761 -0.033345992033570623 0.021363817494000421 -0.032981446415532696 0.026727832180214683 0.025159468348636808 0.034818410605831837 0.034758144382169724
leaf_weight=9.6564929932355863 43.893359333276749 15.15387253649533 4.1691036615520707 6.2122194059193125 15.992312055081127 6.2992760036140663 7.9272328056395054 25.379038862884045 20.278519760817289 137.31319492310286
leaf_count=11 22 261 16 62 39 76 14 35 13 61
internal_value=0.0264425 0.0185305 -0.021479 0.0248115 0.0149242 0.0214529 0 0.0325355 0.029699 0.0340666
internal_weight=292.275 145.305 19.323 125.982 56.7096 50.4973 14.2265 69.2724 36.2708 146.97
internal_count=610 538 277 261 204 142 90 57 52 72
is_linear=0
shrinkage=0.03


Tree=54
num_leaves=10
num_cat=0
split_feature=4 178 76 31 64 64 60 56 195
split_gain=18.2874 30.4478 27.3265 17.6158 5.4331 5.97784 6.34123 13.1464 0.417354
threshold=-0.39534173004085088 1.3784328358208957 1.1053844414292178 0.37388461327609784 -0.1673049558778909 -0.079251210515318388 0.95305791856580468 3.1128104657863731 -0.12597921466838033
decision_type=2 2 2 2 2 2 2 2 2
left_child=8 4 -3 -4 -2 -6 -7 -8 -1
right_child=1 2 3 -5 5 6 7 -9 -10
leaf_value=0.021247230040287005 0 -0.033917229373076847 -0.030165236058389916 0.024701282429446619 0.035039506341512941 0.028635788370270376 -0.032591392295238081 0.025490878611310233 0.034461686019434175
leaf_weight=9.5464677065610868 6.0497603677213183 14.894605206325648 5.619664246216419 25.673716336488724 61.36396311596036 17.053630210459236 5.1339694540947658 7.1853553913533688 134.39243591576815
leaf_count=11 37 257 90 35 38 15 56 10 61
internal_value=0.0261479 0.0182838 -0.00169343 0.0141265 0.0277677 0.0295837 0.0173087 0.00043075 0.0337586
internal_weight=286.914 142.975 46.188 31.2934 96.7867 90.7369 29.373 12.3193 143.939
internal_count=610 538 382 125 156 119 81 66 72
is_linear=0
shrinkage=0.03


Tree=55
num_leaves=10
num_cat=0
split_feature=4 189 74 3 115 38 32 111 4
split_gain=17.8372 30.4551 15.0896 16.8378 7.58142 15.8327 5.80358 2.24326 0.473602
threshold=-0.39534173004085088 48.447618525021959 50.062313432835829 0.045395843250400199 1.2735928335889578e-05 -0.16363948675203674 0.21292003442230162 5.7474784218825397e-06 -0.49088167148593659
decision_type=2 2 2 2 2 2 2 2 2
left_child=8 2 3 -2 6 -6 -4 -8 -1
right_child=1 -3 4 -5 5 -7 7 -9 -10
leaf_value=0.03551104882172703 -0.033007106376376188 -0.032813785391790931 0 0.028237752947404049 0.03200521930259332 -0.030596089646650702 0.018843091485049906 0.032243339134923769 0.027937962650325301
leaf_weight=98.384894087910652 8.3045331947505456 8.9795234799385053 6.1128136347979298 6.1432905793189994 6.7905429229140282 5.8103272728621942 20.804312199354172 77.725402569398284 42.566903233528137
leaf_count=39 134 147 36 3 5 74 68 71 33
internal_value=0.0258541 0.0180315 0.0217422 -0.0066291 0.0252902 0.00279163 0.027919 0.0296618 0.0334581
internal_weight=281.623 140.671 131.691 14.4478 117.243 12.6009 104.643 98.5297 140.952
internal_count=610 538 391 137 254 79 175 139 72
is_linear=0
shrinkage=0.03


Tree=56
num_leaves=10
num_cat=0
split_feature=99 4 4 199 40 90 165 64 111
split_gain=17.5544 15.6025 11.9414 30.9013 11.5656 9.78755 13.8451 11.5532 2.49951
threshold=7.5000000000000009 -0.5010437710879444 -0.39534173004085088 0.99459085184592488 -1.857724923028252 0.049939818224454507 -2.3736181259155269 -0.020857980134803156 7.6358175328182528e-06
decision_type=2 2 2 2 2 2 2 2 2
left_child=2 -2 -1 5 -5 8 -7 -8 -4
right_child=1 -3 3 4 -6 6 7 -9 -10
leaf_value=0.033856024806915831 0.030449196988609525 -0.029349015652551522 0.017480413572620025 -0.033610389183730049 0.022254464447007936 0.027029543261032019 -0.036595253467203888 0.025472390415098283 0.032764475362182841
leaf_weight=130.98715484142303 5.4628629684448233 9.0079399887472373 16.560433957725763 11.212586188688869 3.7293841391801861 13.940362945199015 7.2060470674186945 3.1210253089666349 75.342535328119993
leaf_count=59 2 178 36 180 10 14 66 3 62
internal_value=0.025551 -0.00607171 0.0273247 0.0205701 -0.0189575 0.0257982 0.00825177 -0.0169797 0.0302605
internal_weight=276.57 14.4708 262.1 131.112 14.942 116.17 24.2674 10.3271 91.903
internal_count=610 180 430 371 190 181 83 69 98
is_linear=0
shrinkage=0.03


Tree=57
num_leaves=10
num_cat=0
split_feature=35 187 200 147 117 46 4 164 2
split_gain=17.3267 34.6851 16.3038 6.61979 11.9761 23.504 2.20744 3.34058 5.13115
threshold=0.44330549531948021 48.447618525021959 -0.14286751353517083 0.38419008319207265 0.24556862394560872 0.38155020450855232 -0.49088167148593659 5.5059087276458749 1.1053664540774288
decision_type=2 2 2 2 2 2 2 2 2
left_child=1 -1 -3 4 5 -4 -2 -8 -9
right_child=6 2 3 -5 -6 -7 7 8 -10
leaf_value=-0.031175008494502724 0.035144172002027935 -0.034596096335684202 0.025198937382893815 0.03299966465947244 0.028870891193620629 -0.032898666022110855 0.031753230798177448 0.0026317736721758042 0.02941763731236632
leaf_weight=11.639357296749948 93.863336607813835 3.5556839480996123 13.647700306028129 43.020277805626392 29.336290456354618 9.9522797688841802 40.583263359963894 13.20340406149626 12.530977122485636
leaf_count=231 38 32 33 28 35 147 22 34 10
internal_value=0.0252793 0.0158949 0.0216856 0.0241374 0.0164013 0.00023541 0.0316335 0.0261719 0.0163995
internal_weight=271.333 111.152 99.5122 95.9565 52.9363 23.6 160.181 66.3176 25.7344
internal_count=610 506 275 243 215 180 104 66 44
is_linear=0
shrinkage=0.03


Tree=58
num_leaves=11
num_cat=0
split_feature=35 187 200 98 60 199 138 42 1 173
split_gain=16.8088 33.3591 15.7231 7.89782 14.5321 5.4448 15.127 2.37019 1.81086 3.71965
threshold=0.44330549531948021 48.447618525021959 -0.14286751353517083 3.5000000000000004 1.117893863456338 0.89378957318422081 0.38509486247452601 -0.044907987540385268 0.58191668190186385 4.7642098331870075
decision_type=2 2 2 2 2 2 2 2 2 2
left_child=1 -1 -3 4 -4 7 -7 -5 9 -2
right_child=8 2 3 5 -6 6 -8 -9 -10 -11
leaf_value=-0.031019481058818861 0.031171767244003421 -0.034248056767166767 -0.034617622897736761 0.034155432280901295 0.030433778667762885 -0.029092617088422128 0.030949496540189247 0.019501935202200612 0.034672096580192838 0.014342065090708756
leaf_weight=11.356082275509833 44.731390751898289 3.495144259184598 4.9338397160172445 49.588790711015463 5.4469938278198242 5.0562410950660697 9.0755623634904605 20.27922784537077 91.491794973611832 20.769005104899406
leaf_count=231 26 32 66 30 2 86 7 52 40 38
internal_value=0.0250078 0.0156858 0.021394 0.0238235 -0.00054557 0.0268413 0.00876575 0.0302798 0.0313346 0.0261764
internal_weight=266.224 109.232 97.8758 94.3807 10.3808 83.9998 14.1318 69.868 156.992 65.5004
internal_count=610 506 275 243 68 175 93 82 104 64
is_linear=0
shrinkage=0.03


Tree=59
num_leaves=11
num_cat=0
split_feature=4 189 74 195 90 98 2 2 4 222
split_gain=16.6532 27.254 13.505 15.0486 6.99118 22.9226 12.7104 2.34971 0.64386 0.322592
threshold=-0.39534173004085088 48.447618525021959 50.062313432835829 -0.084706637167584184 0.010481857124605271 8.5000000000000018 1.358161379259347 1.0683780499786095 -0.49088167148593659 -0.0016288282943540005
decision_type=2 2 2 2 2 2 2 2 2 2
left_child=8 2 3 -2 9 6 -6 -7 -1 -4
right_child=1 -3 4 -5 5 7 -8 -9 -10 -11
leaf_value=0.034652135344152263 0.025991498818403146 -0.032501183623819062 0.034450314098373139 -0.033525168972666775 -0.034446116294235891 0.014441214033391015 0.028127475250037601 0.032595955238863716 0.026609063252278721 0.024589265295727455
leaf_weight=89.776760943233967 5.9299585409462452 8.4277973696589452 36.246576346457005 7.5393158029764873 9.7626797296106798 12.975368048995731 3.1098849773406974 24.599332833662629 39.654689304530621 23.206194104626775
leaf_count=39 11 147 20 126 127 53 1 21 33 32
internal_value=0.0247353 0.0169651 0.0206026 -0.00712973 0.0240621 0.0152413 -0.0181749 0.0269414 0.0324338 0.0311213
internal_weight=261.229 131.797 123.369 13.4693 109.9 50.4473 12.8726 37.5747 129.431 59.4528
internal_count=610 538 391 137 254 202 128 74 72 52
is_linear=0
shrinkage=0.03


Tree=60
num_leaves=9
num_cat=0
split_feature=4 199 45 226 147 42 42 4
split_gain=16.2165 33.0461 10.62 9.11065 7.4623 10.54 21.5573 0.708126
threshold=-0.39534173004085088 0.99459085184592488 -0.12910626126319188 0.00042495588963498777 0.38419008319207265 -0.059038751435404928 0.027249867632354489 -0.49088167148593659
decision_type=2 2 2 2 2 2 2 2
left_child=7 2 -2 -3 5 -4 -7 -1
right_child=1 3 4 -5 -6 6 -8 -9
leaf_value=0.034444941008901227 -0.030507936823351837 -0.032405081661389737 0.028234026329951398 0.016406000295260292 0.03212322246157049 -0.034879015290527997 0.020129616720696131 0.026242211939838403
leaf_weight=87.645522251725197 2.4303654972463837 13.293124012649061 28.575466899201274 3.7569131944328538 54.398984214290977 8.5183505825698393 18.619091687723994 39.026314929127693
leaf_count=39 20 265 35 12 41 111 54 33
internal_value=0.0244789 0.0167528 0.0226604 -0.0211705 0.0241249 0.0158336 0.00213005 0.0321666
internal_weight=256.264 129.592 112.542 17.05 110.112 55.7129 27.1374 126.672
internal_count=610 538 261 277 241 200 165 72
is_linear=0
shrinkage=0.03


Tree=61
num_leaves=11
num_cat=0
split_feature=4 199 40 90 98 31 42 41 4 222
split_gain=15.8476 31.6537 9.94323 8.89265 24.8759 12.6311 3.39125 4.19705 0.772817 0.638478
threshold=-0.39534173004085088 0.99459085184592488 -1.857724923028252 0.010481857124605271 8.5000000000000018 0.13840412042396308 -0.05687800224898331 2.0300403032517713 -0.49088167148593659 -0.0015434293651870568
decision_type=2 2 2 2 2 2 2 2 2 2
left_child=8 3 -3 9 5 -5 -6 -8 -1 -2
right_child=1 2 -4 4 6 -7 7 -9 -10 -11
leaf_value=0.034244426546201537 0.034109439512181219 -0.032869181374861563 0.01841289760330625 0.026921416338025958 0.032441929064449648 -0.0351768574518374 0.027015846905263586 -0.0040691759594156359 0.02587878463494778 0.023673971365485377
leaf_weight=85.55147110670805 34.454449947923422 13.013539200648667 3.6928343530744305 3.0520785562694064 23.058521747589111 10.851637601852415 6.9652403853833658 6.9522561095654964 38.410566970705986 25.438807252794504
leaf_count=39 18 261 16 2 14 137 10 48 33 32
internal_value=0.024213 0.0165206 -0.0209645 0.0223378 0.0126353 -0.0204523 0.0253669 0.0120549 0.0319041 0.030188
internal_weight=251.441 127.479 16.7064 110.773 50.8797 13.9037 36.976 13.9175 123.962 59.8933
internal_count=610 538 277 261 211 139 72 58 72 50
is_linear=0
shrinkage=0.03


Tree=62
num_leaves=11
num_cat=0
split_feature=232 99 27 1 27 75 61 42 232 2
split_gain=17.6507 11.2692 11.8133 8.59972 6.23173 12.5078 18.9442 6.20144 24.5311 0.828731
threshold=1.3746132373809818 7.5000000000000009 0.046740633074918769 0.8600052460153208 0.027931106365554407 2.9419293239683939 0.8139767944928864 -0.049708426637172225 0.49677948951721196 0.95214962689040283
decision_type=2 2 2 2 2 2 2 2 2 2
left_child=1 4 -3 -2 5 7 -7 -1 -9 -6
right_child=3 2 -4 -5 9 6 -8 8 -10 -11
leaf_value=0.032058640785946974 -0.029780351787389366 -0.028389206363580551 0.02879392155246091 0.025646093859813399 0.024100687846158007 0.031581288681505497 -0.035234829371957113 -0.019435612833836879 0.033769426257636841 0.03312233404858908
leaf_weight=46.57760173082351 7.3438953123986703 6.3843952622264606 4.8007464408874512 2.6739497184753418 29.143433481454849 5.8796153068542463 7.5819814465939999 11.637302538380036 19.629667026922107 104.93584647774696
leaf_count=32 137 125 2 1 24 2 113 108 13 53
internal_value=0.0239738 0.0256341 -0.00325075 -0.0137288 0.0270888 0.0204883 -0.00567832 0.0250659 0.0138854 0.0313765
internal_weight=246.588 236.571 11.1851 10.0178 225.385 91.3062 13.4616 77.8446 31.267 134.079
internal_count=610 472 127 138 345 268 115 153 121 77
is_linear=0
shrinkage=0.03


Tree=63
num_leaves=12
num_cat=0
split_feature=232 99 4 1 4 61 90 90 2 73 121
split_gain=16.9639 10.8174 11.4373 8.34376 6.90317 16.1417 10.3341 8.27432 17.5225 2.79956 0.0622602
threshold=1.3746132373809818 7.5000000000000009 -0.5010437710879444 0.8600052460153208 -0.39534173004085088 0.96934943197879819 0.35932888464874796 0.049939818224454507 1.1112223942720811 56.615000000000002 0.045092976130372116
decision_type=2 2 2 2 2 2 2 2 2 2 2
left_child=1 4 -3 -2 10 6 -6 9 -9 -7 -1
right_child=3 2 -4 -5 5 7 -8 8 -10 -11 -12
leaf_value=0.026228786447922144 -0.029599250890865576 0.028556270952136979 -0.028219739582648978 0.025398189717990741 -0.035307886511468232 0.018082374670261088 0.023284537677289961 -0.033478291162573157 0.026238373448804524 0.032335334546825072 0.033887703031971819
leaf_weight=28.273495495319366 7.1758259050548059 4.7052469253540039 6.2382701914757472 2.6294825077056885 6.3798180222511274 23.256022773683071 3.3628462813794613 5.8464386537671116 11.47995147295296 58.201558930799365 84.123936399817467
leaf_count=20 137 2 125 1 57 65 5 90 17 52 39
internal_value=0.0237459 0.0253891 -0.00321024 -0.0135874 0.0268274 0.0209554 -0.0145196 0.0245947 0.00519724 0.0285712 0.0322359
internal_weight=241.673 231.868 10.9435 9.80531 220.924 108.527 9.74266 98.784 17.3264 81.4576 112.397
internal_count=610 472 127 138 345 286 62 224 107 117 59
is_linear=0
shrinkage=0.03


Tree=64
num_leaves=10
num_cat=0
split_feature=232 4 45 72 43 162 142 4 4
split_gain=16.293 9.66716 25.4415 8.42739 25.2471 8.0963 3.81869 7.96215 0.769043
threshold=1.3746132373809818 -0.39534173004085088 -0.12910626126319188 50.457120081411134 -0.099306110007362433 7.1061851978302011 0.37725053767596778 -0.16258230583696764 -0.49088167148593659
decision_type=2 2 2 2 2 2 2 2 2
left_child=1 8 -3 4 -4 -2 7 -5 -1
right_child=5 2 3 6 -6 -7 -8 -9 -10
leaf_value=0.033713432807311323 0.025154226321765318 -0.034513071489987564 0.025678358736924565 -0.0089705020340843915 -0.033611315017200341 -0.029419405069917078 0.032899571046064321 0.026139407815980113 0.025181085660341877
leaf_weight=79.747395172715187 2.5856981277465803 6.7204769030213347 20.218366609886289 7.0272403229028013 8.303395142778756 7.0116995703428984 46.900368824601173 22.353232156485319 36.107361145317554
leaf_count=39 1 77 34 75 146 137 26 43 32
internal_value=0.0235075 0.0251325 0.0184587 0.022178 0.00776219 -0.0134471 0.0273591 0.0176242 0.0313182
internal_weight=236.975 227.378 111.523 104.803 28.5218 9.5974 76.2808 29.3805 115.855
internal_count=610 472 401 324 180 138 144 118 71
is_linear=0
shrinkage=0.03


Tree=65
num_leaves=11
num_cat=0
split_feature=4 199 40 90 53 178 32 137 32 4
split_gain=14.4752 28.1323 8.89029 8.23387 14.677 4.08058 17.8574 1.00931 2.89373 0.976805
threshold=-0.39534173004085088 0.99459085184592488 -1.857724923028252 0.049939818224454507 -0.013275788556496325 1.3784328358208957 0.48658303390015839 0.29574059995507401 0.33076324256429218 -0.49088167148593659
decision_type=2 2 2 2 2 2 2 2 2 2
left_child=9 3 -3 5 -5 7 -7 8 -2 -1
right_child=1 2 -4 4 -6 6 -8 -9 -10 -11
leaf_value=0.033535740530984771 0.0067658278292960341 -0.032497886131100301 0.017481720219290002 0.018892878491115501 -0.033934337319630796 -0.030709294891419762 0.030561344283701077 0.032942507553631616 0.029957181580261651 0.024564915963582474
leaf_weight=77.799586541950703 8.8865448236465472 12.111225569620727 3.4456216301769009 16.415775649249557 5.4954704307019702 5.246780680492523 12.78480403870344 40.825035218149424 13.675489973276852 35.693552546203136
leaf_count=39 39 261 16 39 62 77 9 26 9 33
internal_value=0.0232669 0.0156818 -0.0208596 0.0213593 0.00460973 0.0257199 0.0118985 0.0293591 0.0216249 0.0309798
internal_weight=232.38 118.887 15.5568 103.33 21.9112 81.4187 18.0316 63.3871 22.562 113.493
internal_count=610 538 277 261 101 160 86 74 48 72
is_linear=0
shrinkage=0.03


Tree=66
num_leaves=10
num_cat=0
split_feature=4 199 40 90 2 111 178 147 4
split_gain=14.0988 26.9898 8.63245 8.01071 18.7225 5.65602 15.0453 1.57134 1.0411
threshold=-0.39534173004085088 0.99459085184592488 -1.857724923028252 0.049939818224454507 1.1112223942720811 0.033601300137108971 1.3784328358208957 0.36585036238079116 -0.49088167148593659
decision_type=2 2 2 2 2 2 2 2 2
left_child=8 3 -3 5 -5 6 7 -2 -1
right_child=1 2 -4 4 -6 -7 -8 -9 -10
leaf_value=0.03336310012142208 0.013361733058499733 -0.032323219578271049 0.017155194420439269 -0.034195238347790841 0.022845322371468812 0.031627381121369653 -0.030094760981352775 0.031050216404272683 0.024218018030701303
leaf_weight=75.89013933390379 11.7351954150945 11.821163363754748 3.4252145309001198 6.6450307648628977 15.034426240250466 50.385358691215515 4.7953324280679217 13.013929717242716 35.141417726874352
leaf_count=39 45 261 16 77 24 35 73 7 33
internal_value=0.0230333 0.0154889 -0.0206511 0.0210894 0.00449252 0.0254427 0.014107 0.0236241 0.0307375
internal_weight=227.887 116.856 15.2464 101.609 21.6795 79.9298 29.5445 24.7491 111.032
internal_count=610 538 277 261 101 160 125 52 72
is_linear=0
shrinkage=0.03


Tree=67
num_leaves=13
num_cat=0
split_feature=35 187 75 168 38 134 89 4 183 63 2 2
split_gain=14.2083 26.1313 13.0246 17.4084 4.18916 8.24765 8.39794 2.41926 4.0914 4.79578 0.499488 0.658334
threshold=0.44330549531948021 48.447618525021959 2.9890728177295345 -0.10216259410591093 -0.021444960712342202 -0.28202868075580395 0.065680957985488023 -0.49088167148593659 0.26723880597014932 0.10891431852900225 1.0978735074730586 0.89946409300884567
decision_type=2 2 2 2 2 2 2 2 2 2 2 2
left_child=1 -1 4 -4 10 -6 -7 -2 -9 -10 11 -3
right_child=7 2 3 -5 5 6 -8 8 9 -11 -12 -13
leaf_value=-0.030476107505480025 0.033306498515488399 0.030129963225199754 0.030029540421780555 -0.035063976891660992 0.02775261673465072 -0.030914388189341262 0.024822892210491321 0.029985270242197406 -0.00096876230804258414 0.0260099847561211 0.033059185713727547 0.016459620896568994
leaf_weight=9.8312790766358358 73.896823816001415 9.8117851577699202 5.4424850828945619 7.6936360150575638 10.404362469911577 5.4133362323045713 2.9535085298120975 33.749954849481583 11.64347552880645 10.532470151782034 26.450339306145906 15.622846117243169
leaf_count=231 38 7 3 136 8 66 3 21 35 10 17 35
internal_value=0.0228028 0.0136093 0.0191156 -0.00766608 0.0241741 0.0109439 -0.0103692 0.0292552 0.0233584 0.0122848 0.0286064 0.0227869
internal_weight=223.446 93.6236 83.7923 13.1361 70.6562 18.7712 8.36684 129.823 55.9259 22.1759 51.885 25.4346
internal_count=610 506 275 139 136 77 69 104 66 45 59 42
is_linear=0
shrinkage=0.03


Tree=68
num_leaves=11
num_cat=0
split_feature=232 99 4 1 35 199 45 162 195 2
split_gain=14.4973 10.0851 10.0615 7.21766 6.42632 10.8746 7.67383 5.95841 2.82977 0.543196
threshold=1.3746132373809818 7.5000000000000009 -0.5010437710879444 0.8600052460153208 0.44330549531948021 0.99459085184592488 -0.44768142216556284 12.75315570831299 1.0000000180025095e-35 0.95214962689040283
decision_type=2 2 2 2 2 2 2 2 2 2
left_child=1 4 -3 -2 5 7 -7 -1 -9 -6
right_child=3 2 -4 -5 9 6 -8 8 -10 -11
leaf_value=-0.0066496866329892332 -0.028981852811985617 0.027246150393849235 -0.028046099893299623 0.024081960925144738 0.023273418341541539 0.024582814851908087 -0.030622700342609162 0.015236579383688826 0.029427609127618673 0.031988154401652542
leaf_weight=5.3562419526278964 6.5251517258584482 4.1848649978637695 5.8959328327327949 2.3938484191894531 25.822179295122623 2.4832508563995361 5.6925301849842054 24.610501071438193 44.257024399936199 91.810866944491863
leaf_count=38 137 2 125 1 23 1 133 60 37 53
internal_value=0.0225923 0.0241927 -0.00443437 -0.0134451 0.0256652 0.0187104 -0.0126763 0.0223301 0.0246899 0.0303127
internal_weight=219.032 210.113 10.0808 8.919 200.033 82.3995 8.17578 74.2238 68.8675 117.633
internal_count=610 472 127 138 345 269 134 135 97 76
is_linear=0
shrinkage=0.03


Tree=69
num_leaves=12
num_cat=0
split_feature=232 99 27 1 35 200 168 197 6 42 2
split_gain=13.9095 9.65788 9.74734 7.00752 6.38588 9.71598 9.80556 8.24553 6.36606 3.51257 0.578724
threshold=1.3746132373809818 7.5000000000000009 0.046740633074918769 0.8600052460153208 0.44330549531948021 -0.064413705033806765 -0.093922773163209725 0.9685910920774512 -0.15451471661076285 -0.049708426637172225 0.95214962689040283
decision_type=2 2 2 2 2 2 2 2 2 2 2
left_child=1 4 -3 -2 5 6 -1 8 -7 -9 -6
right_child=3 2 -4 -5 10 7 -8 9 -10 -11 -12
leaf_value=0.025647429445823187 -0.028804035184217341 -0.027874442992780288 0.027030568457515822 0.023857222768283365 0.022944862659473198 0.024351077923500219 -0.037016697692268133 0.030600372089840899 -0.027834601885449888 0.015184127224297529 0.031775736965136581
leaf_weight=2.8033397868275642 6.3768885470926744 5.7624528929591161 4.1009409427642822 2.3539321422576904 25.426526732742786 2.4418208599090576 4.6099833119660607 40.682463075965636 4.4488699957728377 26.291640592738993 89.690651327371597
leaf_count=2 137 125 2 1 23 1 43 31 63 129 53
internal_value=0.0223435 0.0239238 -0.00438337 -0.013305 0.0253757 0.0184123 -0.0127318 0.0217064 -0.00821919 0.0249051 0.0300655
internal_weight=214.99 206.259 9.86339 8.73082 196.395 81.2781 7.41332 73.8648 6.89069 66.9741 115.117
internal_count=610 472 127 138 345 269 45 224 64 160 76
is_linear=0
shrinkage=0.03


Tree=70
num_leaves=12
num_cat=0
split_feature=232 35 231 197 231 61 27 46 42 44 61
split_gain=13.3547 8.99743 17.2236 8.06118 9.32377 7.5079 6.80419 6.44636 2.60988 1.46478 2.56721
threshold=1.3746132373809818 0.44330549531948021 1.0000000180025095e-35 0.95304501964078769 -0.097290592492085104 0.85292423529267536 0.044589351916017379 0.30909864263272774 -0.049708426637172225 -0.3259767078467366 0.99570937998396214
decision_type=2 2 2 2 2 2 2 2 2 2 2
left_child=1 2 3 7 5 -5 -2 -1 -6 -3 -11
right_child=6 9 -4 4 8 -7 -8 -9 -10 10 -12
leaf_value=0.024122625101234214 -0.028627201736353438 0.032512422517475048 -0.035171646821538324 0.025922465007359792 0.031005231556872858 -0.028547570838339163 0.023635505986343126 -0.027902541917164504 0.016873534829820031 0.013322585728017295 0.029112771479140504
leaf_weight=2.4010856151580802 6.2321589514613134 69.510588809847832 4.6673905830830327 2.7234506607055655 39.512674417346716 4.8938960880041122 2.3147084712982178 4.8765735579654574 25.010012913495302 18.485952984541655 30.288063626736403
leaf_count=1 137 39 71 1 30 119 1 85 71 34 21
internal_value=0.022109 0.0236709 0.0157723 0.0192038 0.0222347 -0.0079764 -0.0131657 -0.00953509 0.0259145 0.0290813 0.0235763
internal_weight=210.917 202.37 84.0851 79.4177 72.14 7.61735 8.54687 7.27766 64.5227 118.285 48.774
internal_count=610 472 378 307 221 120 138 86 101 94 55
is_linear=0
shrinkage=0.03


Tree=71
num_leaves=10
num_cat=0
split_feature=4 199 90 2 40 111 178 147 4
split_gain=13.1057 23.744 7.91903 16.9406 7.77183 5.33688 13.3421 1.57022 1.17218
threshold=-0.39534173004085088 0.99459085184592488 0.049939818224454507 1.1112223942720811 -1.857724923028252 0.033601300137108971 1.3784328358208957 0.36585036238079116 -0.49088167148593659
decision_type=2 2 2 2 2 2 2 2 2
left_child=8 2 5 -4 -3 6 7 -2 -1
right_child=1 4 3 -5 -6 -7 -8 -9 -10
leaf_value=0.03262325949262268 0.011955449273042131 -0.032319935970924592 -0.034333677438013049 0.021349113357146478 0.016291494643044593 0.030670041856620263 -0.029768404117460515 0.029992177426924373 0.022902051862973772
leaf_weight=67.253035344183445 10.948576323688036 10.899180736392735 6.3610940892249372 13.785607824102042 3.1601054947823277 45.93004197254777 4.4722365736961356 11.941367588937281 32.161483764648438
leaf_count=39 45 261 77 24 16 35 73 7 33
internal_value=0.0218777 0.0143464 0.0198368 0.00283383 -0.0208381 0.0243691 0.0129782 0.0223521 0.0297676
internal_weight=206.913 107.498 93.4389 20.1467 14.0593 73.2922 27.3622 22.8899 99.4145
internal_count=610 538 261 101 277 160 125 52 72
is_linear=0
shrinkage=0.03


Tree=72
num_leaves=12
num_cat=0
split_feature=3 117 115 75 58 107 64 111 111 221 42
split_gain=12.8139 15.8503 19.3099 12.8442 9.68135 7.07134 11.3895 2.74498 4.32382 14.725 1.13518
threshold=0.045395843250400199 0.1252676782925127 7.8241241405196277e-06 2.9419293239683939 -2.2448050131804611 0.53363636363636369 -0.038491382327141395 0.051012841924651185 1.1643461840495486e-05 -0.00027524836564662541 -0.03183447878129269
decision_type=2 2 2 2 2 2 2 2 2 2 2
left_child=1 2 3 5 -4 10 -7 8 -3 -10 -1
right_child=-2 7 4 -5 -6 6 -8 -9 9 -11 -12
leaf_value=0.031201121382441917 0.030692601357349192 0.027743425161132235 0.020478023713698987 -0.031297531226310286 -0.037154149996179678 -0.034319274221690461 0.025384948282998237 0.031294406429750656 0.027475277936770827 -0.035814125881134161 0.015941792750803489
leaf_weight=18.080131419003013 83.834846582263708 13.473429503850641 2.5567144546657792 4.2075400147587052 11.463904553093014 4.495692571625109 5.0207808129489448 35.612755921669304 7.472872662357986 4.4221469117328507 12.228111869655548
leaf_count=15 56 23 6 85 211 75 7 30 8 47 47
internal_value=0.0216606 0.0150717 0.00367799 0.0134892 -0.0257813 0.0189451 -0.00311616 0.0256355 0.0166922 0.00276115 0.0258463
internal_weight=202.869 119.034 58.0529 44.0323 14.0206 39.8247 9.51647 60.9812 25.3684 11.895 30.3082
internal_count=610 554 446 229 217 144 82 108 78 55 62
is_linear=0
shrinkage=0.03


Tree=73
num_leaves=12
num_cat=0
split_feature=3 117 115 75 58 107 2 111 2 195 57
