tree
version=v4
num_class=1
num_tree_per_iteration=1
label_index=0
max_feature_idx=109
objective=binary sigmoid:1
feature_names=Column_0 Column_1 Column_2 Column_3 Column_4 Column_5 Column_6 Column_7 Column_8 Column_9 Column_10 Column_11 Column_12 Column_13 Column_14 Column_15 Column_16 Column_17 Column_18 Column_19 Column_20 Column_21 Column_22 Column_23 Column_24 Column_25 Column_26 Column_27 Column_28 Column_29 Column_30 Column_31 Column_32 Column_33 Column_34 Column_35 Column_36 Column_37 Column_38 Column_39 Column_40 Column_41 Column_42 Column_43 Column_44 Column_45 Column_46 Column_47 Column_48 Column_49 Column_50 Column_51 Column_52 Column_53 Column_54 Column_55 Column_56 Column_57 Column_58 Column_59 Column_60 Column_61 Column_62 Column_63 Column_64 Column_65 Column_66 Column_67 Column_68 Column_69 Column_70 Column_71 Column_72 Column_73 Column_74 Column_75 Column_76 Column_77 Column_78 Column_79 Column_80 Column_81 Column_82 Column_83 Column_84 Column_85 Column_86 Column_87 Column_88 Column_89 Column_90 Column_91 Column_92 Column_93 Column_94 Column_95 Column_96 Column_97 Column_98 Column_99 Column_100 Column_101 Column_102 Column_103 Column_104 Column_105 Column_106 Column_107 Column_108 Column_109
feature_infos=[2.1825423884391784:90.752201690673857] [0.12386832628849136:2.2467567350133812] [0.6416070162750821:2.129214264756059] [0.011885626260501086:0.1482075134623142] [-0.88017950477980622:-0.063659248499362386] [-0.72331483168872157:1.1078996091825961] [-0.66129931803324227:0.95932239875740422] none none none none none none none none none none none none none none none none [2.1825423884391784:90.752201690673857] [2.6003587006933748:87.315651507188448] [0.21974444042181968:11.150285272178269] [-0.020059503152863083:0.012552652099404791] [0.0087578252174694404:0.10842054755858939] [-0.47048609218099419:-0.017961097735517503] [0.019807259594852758:0.29665395879333301] [-2.5641354108387415:2.1326895957828] [0.13780967365188562:1.5151522402627307] [0.12386832628849109:2.2467567350133812] [0.16802854594404845:3.1941335933977153] [0.14457145879226577:1.6381560708937086] [0.13778834014806474:1.7369661803795298] [0.65669343057170992:1.3623117421930124] [0.79015024316895677:2.3335503980849617] [-0.31233207054053341:0.11844883087453646] [0.79196205732197922:1.415015916021499] [-4.7214391455040108:-1.4398990873022313] [1.5635787057263015:4.2865898799590072] [-0.57163417942830819:0.33133044688357721] [-0.72050073343385501:1.1233131789891804] [-0.69750998661812624:1.4528322524909363] [-0.82754359106618847:4.4784992895680871] [0.19261238623673474:0.79998943467433203] [-0.37935367614760757:0.30880455748058172] [0.052977908545708927:0.71678466003299457] [0.087199759035823193:2.5889788565802174] [30.92955029194631:67.640734130802457] [19.42327574238146:89.031526788433681] [1.6634148549483294:42.235044627214123] [-0.32186917432116458:0.31748475932522208] [-0.60622684155461326:0.93615584560692622] [0.869982267189369:1.2370381129644716] [1.5628879047384403:8.0967153623324393] [-12.502114810009781:11.578745049333669] [-6.4748912290986107:3.5034338260585289] [0.77977681545421318:1.2681292928831258] [0.45900274153420173:1.2591630408729604] [0.4542008137867552:1.6353182201005003] [0.31692194465947654:1.7200203087306263] [-1.1113692848916199:0.31614396887882179] [-0.77215015960314592:-0.015230416105738344] [-0.91311367744505789:-0.058710226543685178] [0.013610460728805408:0.13726460639381299] [0.016228131054851876:0.41392310331719373] [3.2051470588235293:7.5815151515151511] [3.04:8.7699999999999996] [10.294477611940298:34.400606060606059] [9.5099999999999998:53.539999999999999] [28.082878787878787:77.39776119402984] [20.510000000000002:75.329999999999998] [29.458787878787877:79.530746268656728] [1.7050000000000001:4.7519402985074626] [0.10823529411764707:1.5513636363636363] [0.050000000000000003:1.71] [0.65059701492537314:3.0395522388059701] [0.07588235294117647:0.49940298507462688] [0.059999999999999998:2.4033846153846152] [3.6000000000000001:13] [1.7125757575757576:3.3818181818181818] [1.1255882352941176:2.7246969696969701] [-0.66454039908406926:0.9146757679180888] [-2.3299999999999992:5.1699999999999999] none [0:1] [0:0.070175438596491224] [0.0092466164060876072:0.094543284063063698] [0:0.62910508423225442] [0:1] [0:1] [0:0.2088874139568577] [0.21374999999999997:0.95374999999999999] [0.3075:0.82874999999999999] [0:6] [0:4] [0:13] [1:9] [0:1] [0.61816739963605161:0.64760775824993511] [0:1] [0:0.03430287626032702] [13:14] [0:0.12741119629545811] [0:1] [0:2.8025968497232867] [0.025000000000000001:0.095064921243082162] [0:13]
tree_sizes=2079 1604 1695 2243 1605 1714 1708 1819 1714 1613 1609 1814 1613 2125 2027 1611 2308 1920 1825 2132 1924 1709 2236 1814 2228 2206 2122 2016 1819 1911 2029 1714 1928 2018 2017 1401 1414 2235 1407 1404 1380 1931 1821 1919 1816 1615 2015 1607 2242 1513 1482 1401 1722 1512 1510 2134 1616 1730 1384 1726 2039 1510 1292 1407 1831 2566 1307 1716 1306 1724 2023 1736 1516 1824 1311 1505 2562 1706 1197 1619 1695 1834 1723 2241 1725 1299 1309 1303 1414 1392 1305 1507 1379 1405 1628 1731 1410 1625 1408 1513 1407 1947 1512 1629 1504 1405 2048 2034 1393 1819 1514 1378 1521 1410 1396 1199 1513 1360 1631 1305 1611 1814 1690 2256 1517 2656 1834 2361 2016 2564 1520 1516 1695 2331 1406 1627 2332 1501 1633 1824 1497 2254 1690 2676 1693 2132 2054 2051 1943 1720 1710 2039 2338 1732 1514 2274 1517 2080 2463 2132 2489 2141 1922 1487 1729 2356 1819 1949 2687 2248 1824 1731 2142 2579 2135 2034 2632 1816 2417 2171 1841 1800 1836 2018 1829 2630 1704 2358 2553 1739 1474 1725 1395 2150 1690 2687 1809 1704 2126 1721 2259 1803 1875 1930 2332 2253 1801 2127 1700 2467 1887 2152 2052 2073 2031 1600 2270 2235 2588 1794 2039 1830 1812 2006 2245 1842 2013 2223 2336 1308 1935 1791 2638 1861 1589 1719 1811 2600 1699 1752 1913 2893 2752 2683 1410 2163 1409 2406 1690 2476 2231 1819 1514 1907 1716 1940 1941 2516 2048 1942 1854 2056 2146 1879 2731 2020 2091 1943 1850 2117 2353 1859 2139 1935 2960 1952 1927 1753 2328 1822 1940 1962 2150 1675 1827 2551 1599 1743 2701 1909 2485 2282 2188 2333 1825 2317 2253 2014 2016 2130 1937 2277 3023 2153 2161 1998 2177 3099 2141 2285 2149 2059 2847 2224 2892 2037 2342 2130 1912 2419 3023 2537 2197 2459 2165 2656 2013 3022 2002 2531 2254 2295 2734 2372 2339 3105 2551 1790 2166 2653 2044 2931 1853 2640 2240 2056 2462 2726 2852 1939 2143 2214 3017 2453 2475 2589 2544 2655 1645 2421 2835 2640 2662 2136 2346 2328 2357 2888 2214 1707 2614 2445 2473 2905 2651 2536 2797 2352 1719 2891 2311 2591 2526 2600 2115 2422 1820 2074 2449 2587 1928 2522 2276 2083 2602 2370 2724 2262 2036 2507 1676 2115 2368 2409 2438 2421 2461 2526 1586 2671 2436 2427 2566 2230 2008 2499 2014 2410 1590 2697 2519 2507 2020 2508 2474 2692 2507 2126 2392 2687 2028 2587 2764 2292 2213 2394 2478 2410 2138 2544 1628 2291 2157 2120 2486 1971 2120 2826 2510 2491 2592 2085 2307 2724 1691 2207 2025 2174 2490 2343 2166 2183 2367 2032 2613 2428 1740 1970 2254 2187 2495 2660 2563 2218 2271 2136 2804 2482 2456 1960 1735 1898 2594 2134 2270 1867 2503 2090 2881 2117 2564 2649 2170 2136 1712 2087 2373 2409 2315 2377

Tree=0
num_leaves=19
num_cat=0
split_feature=75 49 76 63 33 78 60 44 33 61 33 76 70 81 75 63 42 58
split_gain=699.387 180.152 189.411 159.978 50.0719 56.5345 45.6301 37.1015 32.6581 29.5356 13.2759 12.8516 12.7313 9.23926 7.58406 7.31166 6.11273 1.9817
threshold=2.8071641791044781 0.30708836276574342 0.20507462686567166 -0.16466051815211055 0.48690253695034713 2.8340377657168703 0.93669553289176066 -0.071745352180095631 0.86606231146267587 1.1009842201447968 0.86606231146267587 0.69666593503072882 25.87617976294996 3.8002414398595263 2.9072464881474982 -0.33143797225348881 -0.030459117313542724 1.2438105965529558
decision_type=2 2 2 2 2 2 2 2 2 2 2 2 2 2 2 2 2 2
left_child=1 2 -1 15 13 8 -4 -3 14 10 11 -9 16 -5 -6 -2 -8 -15
right_child=3 7 6 4 5 -7 12 9 -10 -11 -12 -13 -14 17 -16 -17 -18 -19
leaf_value=-1.0325848016382484 -1.0374756256595714 -1.0226589838100468 -1.0911830942856051 -1.1412887441501094 -1.1306794505119704 -1.0539211817070318 -1.1384103527687548 -1.0570623100117333 -1.0835397702300911 -1.1384103527687548 -1.0300703163051894 -1.1206330187868794 -1.1159693438618841 -1.1775489797777434 -1.1755906631285236 -1.091575330146247 -1.1759882153393417 -1.1502076435671273
leaf_weight=23.063055336475372 7.2514745593070975 80.568510979413986 11.271344095468519 7.7844648063182822 3.7197118401527502 6.0817008912563315 4.6384189426898983 6.2654423117637688 4.3382612466812125 4.6384189426898947 11.267136394977568 6.1532337367534637 4.1096363961696616 72.761602520942688 15.801762163639067 8.080414801836012 18.9253663122654 3.8810115456581107
leaf_count=47 14 152 38 36 16 14 21 15 13 21 21 25 16 396 86 27 103 19
internal_value=-1.09664 -1.05695 -1.09876 -1.14914 -1.16152 -1.12851 -1.13954 -1.03375 -1.15004 -1.06828 -1.05523 -1.08466 -1.16031 -1.17324 -1.16692 -1.06118 -1.16877 -1.17637
internal_weight=300.601 170.901 62.0078 129.7 114.369 29.9414 38.9448 108.893 23.8597 28.3242 23.6858 12.4187 27.6734 84.4271 19.5215 15.3319 23.5638 76.6426
internal_count=1080 459 225 621 580 129 178 234 115 82 61 40 140 451 102 41 124 415
is_linear=0
shrinkage=1


Tree=1
num_leaves=14
num_cat=0
split_feature=4 81 33 59 90 78 38 70 35 5 98 56 45
split_gain=683.133 416.879 56.9823 35.9567 33.3803 56.5495 29.4068 33.2566 29.1987 28.9213 15.7277 4.34223 2.42312
threshold=-0.39301009887642246 3.6171532045654087 0.68187793292581633 1.0701173353108928 0.0056589236919828518 2.8340377657168703 -0.084756333523532526 15.292089552238808 0.45031754566179721 -0.054707120366680732 10.500000000000002 1.5629704189339362 -0.2425447539162017
decision_type=2 2 2 2 2 2 2 2 2 2 2 2 2
left_child=8 -2 4 -4 5 9 7 -6 -1 -3 -8 -10 -13
right_child=1 2 3 -5 6 -7 10 -9 11 -11 -12 12 -14
leaf_value=0.045796445786212288 0.10223764960377509 0.031624352148307611 0.07074800465662362 -0.012450337762647701 0.065483041795510177 0.07604228473463702 -0.035834094894215143 -0.023895379946035612 -0.0041315283701273556 -0.036803059579569787 -0.0026778756463569707 0.11025565498296862 0.076048714752403171
leaf_weight=10.310504302382467 33.346292406320572 7.379227548837668 10.311948239803316 7.4342884719371787 5.5705995708703977 7.3835399895906439 89.741299599409103 7.8050033003091812 0.19454436004161735 15.738364636898039 15.433367297053335 82.989831820130348 12.995113864541052
leaf_count=33 62 27 27 36 15 18 488 41 1 87 72 141 32
internal_value=0.0398466 0.00703211 -0.0124794 0.0369294 -0.018589 0.0090939 -0.025753 0.0150856 0.100853 -0.0144308 -0.031068 0.106192 0.106487
internal_weight=306.634 200.144 166.798 17.7462 149.051 30.5011 118.55 13.3756 106.49 23.1176 105.175 96.1795 95.9849
internal_count=1080 873 811 63 748 132 616 56 207 114 560 174 173
is_linear=0
shrinkage=0.03


Tree=2
num_leaves=15
num_cat=0
split_feature=65 81 85 34 80 60 0 33 6 65 89 1 73 89
split_gain=648.371 307.686 76.9778 40.5887 65.976 39.2547 32.3502 20.345 14.1849 13.2951 8.03287 8.00164 6.56034 1.65694
threshold=-0.52909427971877288 3.6171532045654087 0.14499999999999982 0.39919375111816996 0.57658073270013577 0.87066182379631252 23.026021957397464 0.92127111483219981 0.032167689850434951 -0.17236906386169412 0.061862984066137973 0.6651078120024011 45.585000000000008 0.016380904928337367
decision_type=2 2 2 2 2 2 2 2 2 2 2 2 2 2
left_child=8 13 3 10 7 -4 -7 -5 -1 -8 12 -10 -3 -2
right_child=1 2 5 4 -6 6 9 -9 11 -11 -12 -13 -14 -15
leaf_value=0.10105607694505561 0.062954272012259227 0 0.08064847157799454 -0.030443837982241692 0.063307821139286666 0.055215640198904944 -0.029523940570095504 0.033266806764322775 0.040941832094790083 0.02242280686066524 -0.0013264183280446071 0.085865886457623664 -0.036277735119218668 0.10132263753241469
leaf_weight=91.661743715405464 9.2018552273511904 4.762682616710662 8.5468846261501294 24.678464472293857 11.079561233520506 8.2083157449960726 12.733996346592905 4.5664195865392676 10.913432464003565 5.6203079819679251 7.4965199679136267 10.335846453905104 81.253198206424713 20.868371903896332
leaf_count=152 22 22 18 132 30 24 68 15 35 22 35 20 452 33
internal_value=0.0380028 0.00528949 -0.0105917 -0.0209689 0.00406918 0.0283678 0.00912131 -0.0196256 0.0950843 -0.0131255 -0.0317263 0.0658053 -0.0342956 0.0920821
internal_weight=311.928 199.017 168.946 133.837 40.3244 35.1095 26.5626 29.2449 112.911 18.3543 93.5124 21.2493 86.0159 30.0702
internal_count=1080 873 818 686 177 132 114 147 207 90 509 55 474 55
is_linear=0
shrinkage=0.03


Tree=3
num_leaves=20
num_cat=0
split_feature=75 31 49 76 78 38 45 44 76 74 57 71 89 90 49 61 49 25 28
split_gain=513.932 121.572 111.956 130.487 89.8638 35.4403 26.2185 19.46 24.509 18.6222 22.8779 15.4646 14.025 10.8118 8.90975 7.57478 2.01637 1.55302 0.552499
threshold=2.8071641791044781 0.41163480588025414 0.30708836276574342 0.20507462686567166 1.9410160427807488 -0.051561968263422013 -0.39375201249766212 -0.26193317022740958 0.20507462686567166 74.030637620719943 0.19264624104181435 23.820000000000004 0.050327435243922365 0.02282563980972243 0.47989614614069864 0.85025101979973317 0.43596164212427174 2.7891410807126458 -0.050439220636913397
decision_type=2 2 2 2 2 2 2 2 2 2 2 2 2 2 2 2 2 2 2
left_child=2 9 3 18 12 -5 -4 -8 -9 15 13 17 -3 -11 -10 -2 -6 -7 -1
right_child=1 4 6 5 16 11 7 8 14 10 -12 -13 -14 -15 -16 -17 -18 -19 -20
leaf_value=0.058533380722401343 0.0018798476485269171 -0.035674138972210209 0.094749447175059731 0.043819475265760639 0.051402756770924353 -0.036444914120359814 0.087387080156392863 0.087339869690176847 -4.6332280683280395e-06 0.014771221217246212 0.049239026192980345 0.014481109492646152 0.025150904697949231 -0.035446199276908556 0.040920813766699655 -0.038170574176460248 0.087689038989202522 -0.0097561758214906435 0.093885485703762012
leaf_weight=8.6367978155612963 4.2870197594165793 11.229089528322218 83.502733454108238 10.555091649293898 9.5523830801248568 16.044435322284706 15.857358098030089 6.5109181404113796 9.296308100223543 4.8334192484617295 4.6437657028436652 8.3407388329505903 3.8588041663169852 11.40540988743305 8.5613798350095731 66.339725658297539 11.546634584665297 3.6085712462663642 17.769025921821594
leaf_count=20 18 63 131 34 28 91 27 10 40 20 14 35 14 65 26 379 20 18 27
internal_value=0.0363666 -0.0100668 0.0676949 0.0349433 0.0358074 -0.000544711 0.0844466 0.0612073 0.0412799 -0.0284309 -0.00318355 -0.0183102 -0.019335 -0.0203354 0.0205864 -0.0357053 0.0744659 -0.0323994 0.0849897
internal_weight=316.38 127.696 188.683 64.9547 36.1869 38.5488 123.729 40.226 24.3686 91.5093 20.8826 27.9937 15.0879 16.2388 17.8577 70.6267 21.099 19.653 26.4058
internal_count=1080 621 459 225 125 178 234 103 76 496 99 144 77 85 66 397 48 109 47
is_linear=0
shrinkage=0.03


Tree=4
num_leaves=14
num_cat=0
split_feature=65 81 76 34 78 42 4 75 71 0 81 105 89
split_gain=518.114 257.34 102.112 46.2024 81.5441 37.2254 31.0927 17.9633 15.1206 11.0222 8.97345 7.28715 1.14876
threshold=-0.52909427971877288 3.6171532045654087 1.4752091813658981 0.39919375111816996 1.9410160427807488 -0.04694294563850409 -0.39301009887642246 2.4665441176470591 25.895000000000007 20.258494377136234 3.8002414398595263 0.066981392048783089 0.016380904928337367
decision_type=2 2 2 2 2 2 2 2 2 2 2 2 2
left_child=6 12 3 8 11 -4 -1 -8 10 -6 -3 -5 -2
right_child=1 2 5 4 9 -7 7 -9 -10 -11 -12 -13 -14
leaf_value=0.089890431371075857 0.056294100168706084 -0.0087074818290934462 0.074812720816518047 -0.03721215245767881 0.070595319443742532 -0.0038011303626216443 0.071306961237617691 0.0098956694175150028 0.020101567092031931 0.022921526037879458 -0.036919503503346204 0.0055736926782779927 0.089092366430797015
leaf_weight=103.95898276567459 9.7230167835950834 12.709120348095892 14.59003406763077 20.636195018887523 10.141429767012598 8.0604903399944288 8.3371419012546557 8.8609361201524717 4.3125529438257209 9.913543835282324 82.479410275816917 3.8652571439743033 22.490182518959045
leaf_count=157 22 63 32 116 22 38 16 34 17 37 477 16 33
internal_value=0.0348999 0.004994 -0.0101249 -0.019509 0.005744 0.0477323 0.0835334 0.0421134 -0.0307917 0.0493797 -0.0333136 -0.0303909 0.0812761
internal_weight=320.078 198.921 166.708 144.058 44.5564 22.6505 121.157 17.1981 99.5011 20.055 95.1885 24.5015 32.2132
internal_count=1080 873 818 748 191 70 207 50 557 59 540 132 55
is_linear=0
shrinkage=0.03


Tree=5
num_leaves=15
num_cat=0
split_feature=65 81 76 34 78 38 4 70 61 23 81 34 60 89
split_gain=466.852 236.791 95.7709 44.6331 76.4264 36.5709 26.9153 14.6427 12.6772 9.85399 8.83635 7.1871 1.25676 0.801647
threshold=-0.52909427971877288 3.6171532045654087 1.4752091813658981 0.39919375111816996 1.9410160427807488 -0.027271076785183892 -0.39301009887642246 25.87617976294996 0.93187243916902096 20.258494377136234 3.8002414398595263 0.76595946744584154 0.87066182379631252 0.016380904928337367
decision_type=2 2 2 2 2 2 2 2 2 2 2 2 2 2
left_child=6 13 3 7 11 12 -1 10 -8 -6 -3 -5 -4 -2
right_child=1 2 5 4 9 -7 8 -9 -10 -11 -12 -13 -14 -15
leaf_value=0.08463154657931006 0.053735551301768887 -0.0085026141104280403 0.083471585586243069 -0.03679389313626702 0.066861012384161811 -0.018561905010985421 0.055047145002312552 0.019447575437635253 -0.00098493666528623241 0.022073904497019171 -0.036580515115655951 0.0060512569302070014 0.048717241374258063 0.0840455995081653
leaf_weight=107.1173497736454 9.9248045235872251 12.649887457489966 6.6891305446624818 20.327877655625347 10.437737122178079 5.5733037441968909 12.703557878732683 4.3567921668291083 4.7565162181854239 10.022096082568167 80.781395733356476 3.7734057009220114 10.838270395994185 23.174461603164673
leaf_count=157 22 63 10 117 22 29 30 17 20 37 477 15 31 33
internal_value=0.0335513 0.00487622 -0.00988743 -0.0191511 0.00560102 0.0454982 0.0788264 -0.0304034 0.0403938 0.0471131 -0.032941 -0.0299925 0.0659322 0.0768875
internal_weight=323.127 198.549 165.45 142.349 44.5611 23.1007 124.577 97.7881 17.4601 20.4598 93.4313 24.1013 17.5274 33.0993
internal_count=1080 873 818 748 191 70 207 557 50 59 540 132 41 55
is_linear=0
shrinkage=0.03


Tree=6
num_leaves=15
num_cat=0
split_feature=65 76 76 76 94 38 4 59 50 94 34 4 59 2
split_gain=422.983 180.954 92.1116 33.6528 40.6073 33.5487 23.8051 22.7467 19.0789 16.0683 15.2062 9.69519 18.1397 1.70386
threshold=-0.52909427971877288 0.20507462686567166 1.4752091813658981 0.50189507010402545 0.26031250000000006 -0.027271076785183892 -0.39301009887642246 0.94320885288652967 53.578544264480506 0.69750000000000012 0.58956925239700475 -0.22741982862228505 0.99930658535392347 1.100449791771654
decision_type=2 2 2 2 2 2 2 2 2 2 2 2 2 2
left_child=6 11 3 4 -3 13 -1 -5 -8 -6 -9 12 -2 -4
right_child=1 2 5 7 9 -7 8 10 -10 -11 -12 -13 -14 -15
leaf_value=0.080087094298582642 0.0650558891192968 0.057899979813116828 0.043129490141994006 0.0195638188433775 -0.031250674640034344 -0.01824445404229421 0.058515091206124609 -0.036474947295219405 -0.0062140432781283561 0.015497748871977388 0.006264147696592377 0.075282864723377863 0.0077254884930335272 0.076710069630034849
leaf_weight=109.81299106776714 11.259311839938166 8.7421693950891477 9.2971541583538109 7.420210286974906 16.201233312487606 5.5184069722890845 12.133797988295557 83.207277536392212 5.5830076038837424 9.8731216937303525 7.7991706132888785 20.909183636307716 9.0786447674036008 8.6652568280696851
leaf_count=157 21 22 26 29 90 29 26 498 24 42 33 33 35 15
internal_value=0.032328 0.00477367 -0.0100046 -0.0197222 0.00544526 0.0435692 0.0747088 -0.0286201 0.0387148 -0.0135199 -0.0327514 0.0599044 0.0411662 0.0626784
internal_weight=325.501 197.971 156.724 133.243 34.8165 23.4808 127.53 98.4267 17.7168 26.0744 91.0064 41.2471 20.338 17.9624
internal_count=1080 873 784 714 154 70 207 560 50 132 531 89 56 41
is_linear=0
shrinkage=0.03


Tree=7
num_leaves=16
num_cat=0
split_feature=65 81 42 77 33 78 4 50 71 25 0 25 52 60 64
split_gain=385.474 204.512 68.2158 54.1777 32.6033 60.8664 21.3078 17.5401 15.3649 15.0846 14.4378 11.5517 5.82854 1.68482 1.39064
threshold=-0.52909427971877288 3.6171532045654087 -0.049799107956639548 1.3150000000000002 0.48690253695034713 1.9410160427807488 -0.39301009887642246 53.578544264480506 25.895000000000007 1.3184527916707174 18.465085029602054 1.2635633725265836 13.65326547274328 0.90203978731140566 -0.093103373799650682
decision_type=2 2 2 2 2 2 2 2 2 2 2 2 2 2 2
left_child=6 -2 3 10 8 -6 -1 -8 12 -7 11 -3 -4 -5 -12
right_child=1 2 4 13 5 9 7 -9 -10 -11 14 -13 -14 -15 -16
leaf_value=0.07612052893561648 0.06999600489758985 -0.0088976210235420326 -0.010491906657877637 0.07433309328536665 -0.035948051948434569 0.065979359400870158 0.055845572660759325 -0.0060706090026999057 0.021606048490376877 0.0082172548209621249 -0.034704633557135246 0.048727575886682112 -0.036043760271013185 0.041792529226390811 -0.0080247281327498234
leaf_weight=112.08468823134899 34.457595840096474 6.4178326129913348 10.530103102326391 8.7517716288566607 16.196127757430077 9.6219324469566363 12.376354932785036 5.5673415511846533 4.1682172417640677 7.3268967270851126 8.7674078941345197 4.5716677904129028 73.643400087952614 9.4973506480455381 3.4340912550687781
leaf_count=157 55 31 56 14 96 20 26 24 16 29 50 12 448 28 18
internal_value=0.0311985 0.0046766 -0.0094623 0.0233629 -0.0207831 0.00442482 0.0710931 0.0371703 -0.0302181 0.0430252 -0.00711272 0.0168892 -0.0330432 0.0606049 -0.0285995
internal_weight=327.413 197.384 162.927 41.4401 121.487 33.145 130.028 17.9437 88.3417 16.9488 23.191 10.9895 84.1735 18.2491 12.2015
internal_count=1080 873 818 153 665 145 207 50 520 49 111 43 504 42 68
is_linear=0
shrinkage=0.03


Tree=8
num_leaves=15
num_cat=0
split_feature=65 76 76 76 94 60 59 94 34 42 53 44 65 52
split_gain=353.095 156.262 82.626 32.2061 36.5637 28.0135 21.6448 15.3351 14.577 12.665 32.0052 6.93708 8.14426 12.4742
threshold=-0.52909427971877288 0.20507462686567166 1.4752091813658981 0.50189507010402545 0.26031250000000006 0.94623049976146556 0.94320885288652967 0.69750000000000012 0.58956925239700475 0.029096731815489333 -0.0026878528841067987 -0.016821460176365207 -0.70584083584415513 24.299921223011342
decision_type=2 2 2 2 2 2 2 2 2 2 2 2 2 2
left_child=11 9 3 4 -3 -4 -5 -6 -8 10 -2 -1 -13 -14
right_child=1 2 5 6 7 -7 8 -9 -10 -11 -12 12 13 -15
leaf_value=0.07175570130855112 0.068816946906051377 0.054434188537417369 0.062422406524242399 0.018748841836363384 -0.030621454053693167 -0.004483302842881569 -0.035929547271431016 0.015258818628062949 0.005956509161316112 0.068789348404441841 -0.0090898784594690314 0.069686444701048164 0.04959046624117476 -0.0058697840148952529
leaf_weight=107.9684191942215 8.911849796772005 8.9896121174097043 15.934179589152338 7.4959935843944541 15.716516837477686 8.1282880753278715 80.094316154718399 9.8974232971668226 7.8158976286649695 25.022742033004761 8.5957811474800092 9.6970371603965777 9.2081725746393186 5.2408103942871085
leaf_count=152 12 22 32 29 90 38 498 42 33 40 37 14 20 21
internal_value=0.0301578 0.00457184 -0.00953464 -0.0190421 0.00556614 0.0404249 -0.0279638 -0.012873 -0.0321467 0.0547886 0.0319803 0.06789 0.0483191 0.0302024
internal_weight=328.717 196.603 154.072 130.01 34.6036 24.0625 95.4062 25.6139 87.9102 42.5304 17.5076 132.114 24.146 14.449
internal_count=1080 873 784 714 154 70 560 132 531 89 49 207 55 41
is_linear=0
shrinkage=0.03


Tree=9
num_leaves=14
num_cat=0
split_feature=65 81 76 34 78 60 4 76 70 64 89 33 89
split_gain=324.914 178.005 76.3878 40.3253 64.8697 25.6808 18.531 18.8782 13.8061 10.8782 8.57441 7.07378 1.0676
threshold=-0.52909427971877288 3.6171532045654087 1.4752091813658981 0.39919375111816996 1.9410160427807488 0.94623049976146556 -0.39301009887642246 0.55151628222523763 25.87617976294996 -0.19975739900789274 0.061862984066137973 0.92127111483219981 0.016380904928337367
decision_type=2 2 2 2 2 2 2 2 2 2 2 2 2
left_child=6 12 3 8 11 -4 -1 -8 10 -6 -3 -5 -2
right_child=1 2 5 4 9 -7 7 -9 -10 -11 -12 -13 -14
leaf_value=0.069643053073962236 0.044647621412181294 -0.034604889506790137 0.059517462389638114 -0.035853866871701313 0.012504749625001328 -0.0043724890963565705 0.057043611069972848 -0.0031559887802345538 0.019038452193355333 0.058519099435771035 -0.00059990296443665286 0.0072842943946729959 0.070511524713535279
leaf_weight=115.43532584607601 10.605761736631392 79.936311855912209 16.254259377717975 19.22486570477486 8.1540840715169924 8.109883099794386 11.04819528758526 7.3624674230813971 4.3823140561580649 13.091707944869993 7.508331671357154 3.6209588050842276 24.887113928794861
leaf_count=157 22 502 32 118 29 38 20 30 17 30 38 14 33
internal_value=0.0291983 0.00447619 -0.00906919 -0.0178924 0.00555811 0.0387987 0.0650356 0.0338927 -0.0291233 0.0423497 -0.0317588 -0.0288721 0.0643005
internal_weight=329.622 195.776 160.283 135.919 44.0916 24.3641 133.846 18.4107 91.827 21.2458 87.4446 22.8458 35.4929
internal_count=1080 873 818 748 191 70 207 50 557 59 540 132 55
is_linear=0
shrinkage=0.03


Tree=10
num_leaves=14
num_cat=0
split_feature=65 76 76 76 99 60 33 59 4 31 63 4 59
split_gain=300.027 136.947 73.5276 30.718 29.7217 23.6283 21.5067 17.523 17.0281 10.3997 7.42879 7.24391 14.4478
threshold=-0.52909427971877288 0.20507462686567166 1.4752091813658981 0.50189507010402545 3.5000000000000004 0.94623049976146556 0.86606231146267587 0.94156142718004499 -0.39301009887642246 0.33076320623530292 -0.011432989680563594 -0.22741982862228505 0.99930658535392347
decision_type=2 2 2 2 2 2 2 2 2 2 2 2 2
left_child=8 11 3 4 -3 -4 7 -5 -1 -6 -10 12 -2
right_child=1 2 5 6 9 -7 -8 -9 10 -11 -12 -13 -14
leaf_value=0.06686439041124323 0.055433323008957029 0.043327458843786942 0.056882885296133008 0.014624609158862966 -0.034240074384899552 -0.0042642534390691577 0.030617486432634275 -0.034511554310958481 0.044971400347605141 0.0047610565865417401 0.0035643732613144193 0.063606234716600665 0.0053071740263433221
leaf_weight=116.64740115404129 11.93628826737404 11.372645512223242 16.53867277503014 6.4641698598861685 10.688231408596041 8.0919162183999997 4.6317336559295645 81.276978895068169 12.603066504001619 12.306769922375677 5.9537704139947882 22.185913726687431 9.249958932399748
leaf_count=157 21 33 32 26 66 38 14 520 27 55 23 33 35
internal_value=0.0283139 0.00438562 -0.0091278 -0.0183943 0.00563294 0.0372945 -0.0273304 -0.0307337 0.062472 -0.0139134 0.0327013 0.0507586 0.034909
internal_weight=329.948 194.743 151.371 126.741 34.3676 24.6306 92.3729 87.7411 135.204 22.995 18.5568 43.3722 21.1862
internal_count=1080 873 784 714 154 70 560 546 207 121 50 89 56
is_linear=0
shrinkage=0.03


Tree=11
num_leaves=16
num_cat=0
split_feature=65 81 60 77 33 77 70 107 33 99 67 62 66 51 89
split_gain=278.006 156.861 51.8926 49.076 29.8443 43.6275 16.0564 15.3359 12.693 9.30861 7.8646 3.07521 2.57064 2.40151 1.04242
threshold=-0.52909427971877288 3.6171532045654087 0.96875827271219028 1.0900000000000001 0.48690253695034713 0.40500000000000008 25.87617976294996 1.4796500771604941 0.7246096538441632 4.5000000000000009 0.061247193130756376 0.99592136241822604 0.037602389383341504 71.862560351096889 0.016380904928337367
decision_type=2 2 2 2 2 2 2 2 2 2 2 2 2 2 2
left_child=10 14 3 9 6 -6 13 12 -7 -3 -1 -12 -5 -4 -2
right_child=1 2 4 7 5 8 -8 -9 -10 -11 11 -13 -14 -15 -16
leaf_value=0.033221658104438861 0.041421187209696432 0.0049696129847567943 -0.036346574470749057 0.034917953266940596 0.05407350459518824 -0.034898717509186335 0.02285215193259869 0.00612289084179371 0.013133823241732486 -0.034882730087385475 0.065545892870736158 0.045467236903494607 0.065165247007214197 -0.017306375897306461 0.065583429588030498
leaf_weight=13.13167794048786 10.815941929817198 8.1659219413995761 61.382970705628395 10.160801544785505 9.6364054679870623 14.481124192476274 4.0432191491127005 9.3248028457164747 6.5306421816349021 12.325354203581808 103.15150819718838 19.984214976429939 11.10548461973667 10.405766189098356 25.366775989532471
leaf_count=31 22 37 404 30 19 92 15 37 25 76 135 41 20 63 33
internal_value=0.0274814 0.00429997 -0.00871111 0.0159077 -0.0205877 0.00422718 -0.0305804 0.0394981 -0.019915 -0.0193694 0.0601474 0.0627039 0.0530654 -0.0339036 0.0597496
internal_weight=330.013 193.745 157.562 51.0824 106.48 30.6482 75.832 30.5911 21.0118 20.4913 136.267 123.136 21.2663 71.7887 36.1827
internal_count=1080 873 818 200 618 136 482 87 117 113 207 176 50 467 55
is_linear=0
shrinkage=0.03


Tree=12
num_leaves=14
num_cat=0
split_feature=4 81 75 103 90 98 27 80 33 45 44 74 52
split_gain=256.864 166.495 28.8919 34.8349 34.6783 36.461 26.3579 16.0167 8.98664 6.61723 7.07936 6.05412 2.26124
threshold=-0.31903462336856064 3.6171532045654087 2.9364928698752233 0.021164466028737675 0.010706684513042823 9.5000000000000018 0.027532515213929607 2.205879060579456 0.75561898033335173 -0.40671137395581425 -0.26193317022740958 50.062313432835829 13.65326547274328
decision_type=2 2 2 2 2 2 2 2 2 2 2 2 2
left_child=6 -2 3 4 -3 -6 7 -1 -4 -8 -11 -12 -5
right_child=1 2 8 12 5 -7 9 -9 -10 10 11 -13 -14
leaf_value=0.038579254186573556 0.058714183499433831 0.047664048485580944 -0.035842875776366113 -0.005311751106508983 -0.024597337476579998 0.034633846265485123 0.06239024341091718 -0.01495907947780826 0.012554346069289011 0.057941936363735055 0.012314575868564768 0.044863024199871371 -0.03558214536795784
leaf_weight=12.469932496547701 33.609176561236382 14.578801721334456 47.891178205609322 3.1508284956216839 27.092261478304863 13.018711239099501 101.4516065120697 7.2363850176334372 3.1399538516998282 21.269422933459282 10.869451448321344 11.781002625823019 22.106895238161087
leaf_count=31 50 37 325 18 151 46 135 33 12 33 36 29 144
internal_value=0.0267091 0.000129588 -0.0152115 -0.00379462 0.00964407 -0.00492503 0.0530313 0.0190015 -0.0326233 0.0574625 0.0448776 0.0305517 -0.0322664
internal_weight=329.666 164.588 130.979 79.9475 54.6898 40.111 165.078 19.7063 51.0311 145.371 43.9199 22.6505 25.2577
internal_count=1080 783 733 396 234 197 297 64 337 233 98 65 162
is_linear=0
shrinkage=0.03


Tree=13
num_leaves=19
num_cat=0
split_feature=65 75 74 34 78 74 57 4 76 102 24 94 2 68 55 74 2 88
split_gain=242.36 120.928 62.1924 29.6576 31.6279 22.5442 18.4618 15.1556 16.2059 9.99665 9.42325 7.69782 6.33808 12.5526 6.00078 5.63679 13.4498 1.67974
threshold=-0.52909427971877288 2.8683582089552244 50.062313432835829 0.39919375111816996 1.9410160427807488 68.89174694708278 0.27056375528373844 -0.39301009887642246 0.55151628222523763 0.61818181818181828 18.562118459920416 0.61312500000000003 1.0742891588199146 4.5768538324420689 1.0357282928076945 74.845858208955249 1.1030079559371879 0.012820512820512822
decision_type=2 2 2 2 2 2 2 2 2 2 2 2 2 2 2 2 2 2
left_child=7 2 9 15 17 12 14 -1 -9 11 -6 -2 13 -4 -7 -3 -17 -5
right_child=1 3 5 4 10 6 -8 8 -10 -11 -12 -13 -14 -15 -16 16 -18 -19
leaf_value=0.060303822254332923 -0.01821033039305198 -0.035766673208867221 0.051084854392673518 -0.03344509327299499 0.055104256464742297 -0.032126094690216857 0.050839568540666825 0.049772666908094232 -0.0049352504645432593 -0.034597857392102326 0.0072556348210675399 0.029395560728308325 0.059809452542880025 0.014720828287707113 0.01312689550243077 -0.032121939200381866 0.033192909725350543 -0.0048405879473998568
leaf_weight=118.50673247873783 5.4303051382303256 53.220387950539589 22.473822623491287 10.12022438645363 7.6197376251220685 6.807848781347273 4.2489150315523139 11.490445286035539 7.565485253930091 11.833096161484717 7.3937475234270096 4.8161765038967133 25.283123806118965 15.58388891816139 3.1915299147367477 7.2598841488361341 3.3432987183332443 2.9788473695516577
leaf_count=157 30 367 36 67 14 44 9 20 30 75 29 17 40 55 14 48 12 16
internal_value=0.0259643 0.00406764 0.0268423 -0.0206134 0.00486763 0.0393859 0.00465879 0.0561921 0.0287401 -0.0169035 0.033652 0.00452335 0.0469572 0.0370294 -0.0175295 -0.0317853 -0.0101831 -0.0279576
internal_weight=329.167 191.605 99.6687 91.9361 28.1126 77.5891 14.2483 137.563 19.0559 22.0796 15.0135 10.2465 63.3408 38.0577 9.99938 63.8236 10.6032 13.0991
internal_count=1080 873 320 553 126 198 67 207 50 122 43 47 131 91 58 427 60 83
is_linear=0
shrinkage=0.03


Tree=14
num_leaves=18
num_cat=0
split_feature=65 77 85 69 33 38 24 73 33 50 4 50 59 98 70 24 28
split_gain=226.559 80.4536 72.7414 48.4394 21.7952 20.7325 19.1719 17.0726 25.265 15.3058 14.2825 13.0995 10.5687 8.49781 7.1123 3.6109 0.970731
threshold=-0.52909427971877288 0.40500000000000008 0.14499999999999982 4.035000000000001 0.86606231146267587 -0.027929157381100845 18.496667549258376 69.015000000000015 0.48690253695034713 50.551395009067583 -0.39301009887642246 53.578544264480506 0.94156142718004499 8.5000000000000018 25.87617976294996 28.050456463313498 -0.056590027455297696
decision_type=2 2 2 2 2 2 2 2 2 2 2 2 2 2 2 2 2
left_child=10 3 4 7 12 13 -5 16 9 -9 -1 -12 -3 -4 -14 -7 -2
right_child=1 2 5 6 -6 15 -8 8 -10 -11 11 -13 14 -15 -16 -17 -18
leaf_value=0.058419206553384805 0.038606864203619466 0.0076350219108275224 0.019802674813290053 0.026130731595280055 0.023924048572020105 0.0046744743218849489 -0.035051589489654998 0.030151762747170501 0.062897702698811717 -0.03253058417495211 0.043306314512024324 -0.0085015687242468718 -0.035720426999994247 0.059354580283307437 0.0029940630055919478 -0.029707722083009095 0.059895515026471932
leaf_weight=118.68877635896206 12.677441760897635 5.6262709498405448 11.024281531572344 6.2459565550088909 6.4728022366762152 5.9799716621637327 11.865182414650915 4.8886571377515811 6.0155276656150809 7.6802034229040146 13.340332478284838 5.7897216677665702 68.436910659074783 11.42149844765663 4.2413886189460746 3.6056041717529297 24.133518636226654
leaf_count=157 24 24 35 21 20 26 73 19 8 50 26 24 483 19 19 21 31
internal_value=0.0252804 0.00398404 -0.0114513 0.028377 -0.0259538 0.0264655 -0.0135315 0.0421288 0.0171791 -0.00750385 0.0544265 0.0278342 -0.0303643 0.0417297 -0.0334104 -0.00955964 0.0538581
internal_weight=328.134 190.315 116.809 73.5065 84.7774 32.0314 18.1111 55.3953 18.5844 12.5689 137.819 19.1301 78.3046 22.4458 72.6783 9.58558 36.811
internal_count=1080 873 647 226 546 101 94 132 77 69 207 50 526 54 502 47 55
is_linear=0
shrinkage=0.03


Tree=15
num_leaves=14
num_cat=0
split_feature=65 81 76 34 78 42 4 76 70 64 81 91 89
split_gain=212.032 122.511 56.5122 33.7574 52.0398 19.2789 13.5748 14.6509 12.2119 8.56709 8.45432 7.08372 1.617
threshold=-0.52909427971877288 3.6171532045654087 1.4752091813658981 0.39919375111816996 1.9410160427807488 -0.04694294563850409 -0.39301009887642246 0.55151628222523763 25.87617976294996 -0.19975739900789274 3.8002414398595263 0.59282407407407411 0.016380904928337367
decision_type=2 2 2 2 2 2 2 2 2 2 2 2 2
left_child=6 12 3 8 11 -4 -1 -8 10 -6 -3 -5 -2
right_child=1 2 5 4 9 -7 7 -9 -10 -11 -12 -13 -14
leaf_value=0.056694781384474258 0.034983707563310082 -0.0057802631139093775 0.049102564766750637 -0.035125523522349204 0.010334002176012528 -0.0053426752758643052 0.046766134942013274 -0.005075492645445644 0.017289874436732085 0.050539660741313538 -0.034221443730280326 0.0085634188856373999 0.05796913294444242
leaf_weight=118.66018323600292 11.157201558351515 11.749547868967054 17.248450249433521 17.72247771918774 8.2855475991964358 8.2118390351533872 11.634729132056238 7.5693494081497184 4.4967927634716025 13.73628295958042 66.990841150283813 3.5201148837804785 25.738521754741669
leaf_count=157 22 63 32 117 29 38 20 30 17 30 477 15 33
internal_value=0.0246521 0.00392155 -0.0080463 -0.0162948 0.00507844 0.0318904 0.0527961 0.0269443 -0.027368 0.0366488 -0.0301408 -0.0276914 0.0522041
internal_weight=326.722 188.858 151.962 126.502 43.2644 25.4603 137.864 19.2041 83.2372 22.0218 78.7404 21.2426 36.8957
internal_count=1080 873 818 748 191 70 207 50 557 59 540 132 55
is_linear=0
shrinkage=0.03


Tree=16
num_leaves=21
num_cat=0
split_feature=4 75 87 65 72 30 75 3 77 72 102 56 40 33 99 28 75 3 56 51
split_gain=199.976 95.72 53.2025 28.3206 25.2806 19.3136 17.5951 13.3973 9.14237 11.6487 8.51208 8.315 9.89831 7.61441 7.26096 7.05492 6.23005 5.4844 0.758502 0.736194
threshold=-0.31903462336856064 2.8683582089552244 0.51492537313432851 -0.52909427971877288 59.402761194029857 -0.63059844955416977 3.0632089552238813 0.029341983390485788 1.0900000000000001 55.837524143985966 0.76388888888888895 4.0855600856776171 -2.1200859081418089 0.52142036191793728 2.5000000000000004 -0.056590027455297696 1.9876560379918591 0.040348633929888099 3.0194360313287603 29.072481671239
decision_type=2 2 2 2 2 2 2 2 2 2 2 2 2 2 2 2 2 2 2 2
left_child=3 2 4 13 15 14 8 -6 9 10 -5 18 -13 -1 -3 -2 -4 -18 -7 -17
right_child=1 5 16 6 7 11 -8 -9 -10 -11 -12 12 -14 -15 -16 19 17 -19 -20 -21
leaf_value=-0.002491304740809898 0.022838980321217214 0.035087964102025575 0.0092245605981930712 0.018450045494859547 -0.030977279614074205 -0.035394127888106836 -0.021147747605734974 0.024781873858930381 0.050429131641089912 0.044759647269918747 -0.031977466858674822 -0.028316184577898525 0.034232779124101345 0.054324867736790287 -0.012663143088136861 0.027386801525866186 -0.034581330858517494 0.0052310229828236099 -0.016965700310248633 0.055282869910490473
leaf_weight=1.9684850275516499 12.157489687204359 5.2371229380369169 5.2492496669292477 5.575790226459505 6.0141158401966077 52.538926064968109 6.1865498423576346 7.6737733036279678 12.416076615452768 6.0740657895803443 4.5515745431184769 3.999010443687439 3.1815111190080634 129.03776034712791 4.4491375535726547 4.5205030590295783 13.210066169500353 3.5216589272022238 5.6812250018119803 31.79306635260582
leaf_count=6 32 15 21 19 41 381 33 27 24 10 26 29 11 179 28 11 88 13 37 49
internal_value=0.0240561 0 0.02186 0.0470109 0.0359135 -0.0244441 0.0219252 0 0.0317377 0.0151401 -0.00478116 -0.0302666 0 0.053436 0.0137415 0.0458973 -0.0175843 -0.0262101 -0.0339634 0.0527177
internal_weight=325.037 159.227 84.1399 165.81 62.1589 75.0869 34.8041 13.6879 28.6175 16.2014 10.1274 65.4007 7.18052 131.006 9.68626 48.4711 21.981 16.7317 58.2202 36.3136
internal_count=1080 783 282 297 160 501 112 68 79 55 45 458 40 185 43 92 122 101 418 60
is_linear=0
shrinkage=0.03


Tree=17
num_leaves=17
num_cat=0
split_feature=75 63 49 76 28 99 83 57 90 81 63 41 5 3 34 28
split_gain=186.063 64.2518 44.0539 50.1956 25.9267 21.789 14.9398 11.2797 14.6178 9.6463 8.41988 6.60991 4.90091 2.66822 2.04625 1.75071
threshold=2.8683582089552244 -0.16466051815211055 0.30708836276574342 0.20507462686567166 -0.069565436695574231 3.5000000000000004 1.4937478050921864 0.35041173819978133 0.14824370881102636 3.8002414398595263 0.001770882745826633 2.4891807409576439 0.47428559532228204 0.03757718920556375 0.52125867818822569 -0.050439220636913397
decision_type=2 2 2 2 2 2 2 2 2 2 2 2 2 2 2 2
left_child=2 14 3 15 6 -5 11 8 -7 -6 13 -3 -12 -4 -2 -1
right_child=1 4 10 5 9 7 -8 -9 -10 -11 12 -13 -14 -15 -16 -17
leaf_value=0.031392210345438452 0.025283283973115859 -0.032406598570682441 0.031480538769857756 0.03361904250591119 0.0031779571610805785 -0.032969148419715433 0.03045089241196311 0.026218763468208627 0.012384740692395299 -0.035149413812493285 0.0073066648051085372 0.015142159599671193 0.040264307080681266 0.053058513402567266 0.05098044015317902 0.055042083783308639
leaf_weight=10.203803449869158 11.442897796630861 7.2274855524301547 11.676128029823301 11.456784695386885 6.2668889909982672 20.571849927306179 10.724248111248015 4.7638694494962683 8.3528001308441144 55.392103120684624 8.1543557345867175 3.0580651164054871 9.045618921518324 116.12609197199345 7.9116635322570792 20.967559039592743
leaf_count=20 30 48 28 37 30 126 35 15 36 414 28 14 17 164 11 27
internal_value=0.0234692 -0.00996183 0.0388691 0.0199748 -0.021528 -0.000356847 0.0068986 -0.0126339 -0.0197955 -0.0312175 0.048588 -0.0179147 0.0260642 0.0513701 0.0379236 0.0486101
internal_weight=323.342 102.023 221.319 76.3167 82.6688 45.1453 21.0098 33.6885 28.9247 61.659 145.002 10.2856 17.2 127.802 19.3546 31.1714
internal_count=1080 582 498 261 541 214 97 177 162 444 237 62 45 192 41 47
is_linear=0
shrinkage=0.03


Tree=18
num_leaves=16
num_cat=0
split_feature=65 81 76 34 78 38 76 98 67 64 1 34 62 50 89
split_gain=177.111 104.358 48.6778 30.8781 46.849 12.8833 10.0059 17.8848 8.59926 7.77612 7.37387 6.91947 3.23159 3.81986 1.78316
threshold=-0.52909427971877288 3.6171532045654087 1.4752091813658981 0.39919375111816996 1.9410160427807488 -0.046151065925003891 0.55151628222523763 10.500000000000002 0.058840175769012258 -0.19975739900789274 0.39303510027668553 0.78780856559686696 0.99592136241822604 54.405617192661005 0.016380904928337367
decision_type=2 2 2 2 2 2 2 2 2 2 2 2 2 2 2
left_child=8 14 3 6 11 -4 7 -3 -1 -6 -7 -5 -10 -14 -2
right_child=1 2 5 4 9 10 -8 -9 12 -11 -12 -13 13 -15 -16
leaf_value=0.019854637700073622 0.031615620198305897 -0.024110520592008348 0.045147727280516151 -0.034529869765863488 0.0093120756154906892 -0.019939089376406895 -0.034634797624374235 0.029867222763169967 0.053581951776292769 0.047346225101942599 0.02717651563257046 0.0095732017894478421 0.050062962843634741 0.021126385050378914 0.053842289117433655
leaf_weight=10.762747272849081 11.255653396248816 22.808857217431072 15.761627808213236 17.181446261703972 8.3450395762920397 5.4819759428501111 50.248323768377304 6.232382968068122 104.63374628126621 13.957579866051672 4.5373089760541916 3.3093299120664588 9.6800877451896685 11.827796474099157 25.592269003391266
leaf_count=26 22 141 30 120 29 28 392 24 137 30 12 12 14 30 33
internal_value=0.0229164 0.00367181 -0.00764027 -0.0155858 0.0048331 0.0290501 -0.0265664 -0.0118182 0.0486445 0.0342539 0.00165529 -0.0271535 0.0509018 0.0359288 0.0481469
internal_weight=321.616 184.712 147.864 122.083 42.7934 25.7809 79.2896 29.0412 136.904 22.3026 10.0193 20.4908 126.142 21.5079 36.8479
internal_count=1080 873 818 748 191 70 557 165 207 59 40 132 181 44 55
is_linear=0
shrinkage=0.03


Tree=19
num_leaves=19
num_cat=0
split_feature=4 81 60 78 90 67 38 2 57 41 33 78 51 61 63 42 47 101
split_gain=168.737 114.226 37.8027 20.949 23.209 19.8227 16.7326 11.278 10.374 18.389 9.49265 9.68762 6.93873 4.13365 5.3317 1.72608 1.59493 0.20569
threshold=-0.31903462336856064 3.6171532045654087 0.95272709386849264 2.8340377657168703 0.015762552171755682 0.058335524228597453 -0.049918733320240528 1.1365431229715386 -0.30213658496563051 2.2269428364682167 0.7246096538441632 0.77709224598930493 42.88200195718693 0.93187243916902096 1.0000000180025095e-35 0.0073656084890778581 -0.0064437053040904144 0.64371419419821541
decision_type=2 2 2 2 2 2 2 2 2 2 2 2 2 2 2 2 2 2
left_child=5 15 6 10 -5 7 8 12 -3 -10 11 -4 -1 17 -15 -2 -6 -7
right_child=1 2 3 4 16 13 -8 -9 9 -11 -12 -13 -14 14 -16 -17 -18 -19
leaf_value=0.046565566895354668 0.031092898131915625 0.05383722952265383 0.01641083038725729 0.044655281346498911 -0.031084749633376686 0.052324076111984655 -0.021949914448182235 -0.014159612378307717 0.03861159096301342 -0.031593694510729686 0.0082594893563685701 -0.034168744136317888 0.0090935143970683405 0.047638734385799977 0.016513447781823822 0.053753381631620169 -0.0023096373655842198 0.038451700193475616
leaf_weight=9.3097990304231697 10.706301316618918 8.4842244833707863 2.9336035400629035 7.2720317244529751 6.0924469679594049 98.676910161972046 6.5918540358543387 6.5552132576704016 7.1834245026111585 4.717676617205143 5.1909349709749213 69.77519641071558 9.3012758791446668 10.880054831504824 12.02659636735916 23.196107089519501 2.8321475386619541 17.652844190597534
leaf_count=15 20 17 11 15 42 134 38 30 20 30 20 523 32 18 36 30 17 32
internal_value=0.0224108 -6.1792e-05 -0.0137642 -0.022709 0.00779642 0.0434853 0.0170245 0.0178389 0.0302047 0.0102575 -0.029108 -0.0318923 0.0294097 0.0479391 0.0327969 0.0477791 -0.0234083 0.0505902
internal_weight=319.379 154.976 121.074 94.0964 16.1966 164.403 26.9772 25.1663 20.3853 11.9011 77.8997 72.7088 18.6111 139.236 22.9067 33.9024 8.92459 116.33
internal_count=1080 783 733 628 74 297 105 77 67 50 554 534 47 220 54 50 59 166
is_linear=0
shrinkage=0.03


Tree=20
num_leaves=17
num_cat=0
split_feature=4 81 60 76 67 70 33 98 75 33 49 59 60 42 59 72
split_gain=158.898 108.346 36.2052 20.4868 18.879 18.1129 17.9066 15.1394 13.5132 11.2431 9.538 3.43121 2.17296 1.65773 0.759974 0.0224293
threshold=-0.31903462336856064 3.6171532045654087 0.95272709386849264 0.55151628222523763 0.058335524228597453 16.802279411764712 0.48690253695034713 10.500000000000002 2.8683582089552244 0.7246096538441632 0.36163910042309061 1.0725614847733556 0.9277131963181372 0.0073656084890778581 0.94425692612136947 57.370797682709458
decision_type=2 2 2 2 2 2 2 2 2 2 2 2 2 2 2 2
left_child=4 13 5 6 8 12 7 -4 14 -5 -7 15 -3 -2 -1 -6
right_child=1 2 3 9 11 10 -8 -9 -10 -11 -12 -13 -14 -15 -16 -17
leaf_value=0.02048998199088892 0.03026410371531452 0.046790542779824411 -0.028997547373737227 -0.034938125758525021 0.050145689217932568 -0.032640626884142633 0.039589890885955638 0.026168121614011917 -0.014920209374364902 0.0097060159724544504 0.022116770348012592 0.030544194775284673 0.019957350131197493 0.052440111758774409 0.039540446341811156 0.03557940350439788
leaf_weight=9.4791279584169441 10.697028517723082 8.1924000903964096 15.339346848428255 60.411870993673801 107.27206537127495 6.8959944099187833 6.4862264990806571 5.2373004704713813 7.4459390193223944 5.0055531263351432 3.5664023831486702 18.068449556827545 8.3453704267740232 23.090289890766144 8.2385923117399198 13.297349646687506
leaf_count=24 20 18 101 475 152 46 12 21 37 19 11 39 30 30 16 29
internal_value=0.0219265 -4.11082e-05 -0.0135262 -0.0224168 0.0423752 0.0165317 -0.000292331 -0.0142553 0.0173523 -0.0313822 -0.0134122 0.0467387 0.035331 0.0465772 0.0311478 0.0488698
internal_weight=317.069 153.268 119.48 92.4803 163.802 27.0002 27.0629 20.5766 25.1637 65.4174 10.4624 138.638 16.5378 33.7873 17.7177 120.569
internal_count=1080 783 733 628 297 105 134 122 77 494 57 220 48 50 40 181
is_linear=0
shrinkage=0.03


Tree=21
num_leaves=15
num_cat=0
split_feature=65 76 76 76 94 59 94 60 30 33 67 55 6 59
split_gain=150.64 73.5628 43.823 22.8795 21.3848 16.9801 13.832 13.6178 14.1855 12.2721 7.73321 5.50642 12.8442 3.41436
threshold=-0.52909427971877288 0.20507462686567166 1.4752091813658981 0.50189507010402545 0.26031250000000006 0.94156142718004499 0.69750000000000012 0.9277131963181372 0.42660764606767643 0.74995076210031064 0.058840175769012258 1.0054610197986282 0.04044130876115893 1.0725614847733556
decision_type=2 2 2 2 2 2 2 2 2 2 2 2 2 2
left_child=10 11 3 4 -3 -5 -6 -4 -9 -7 -1 12 -2 -12
right_child=1 2 7 5 6 9 -8 8 -10 -11 13 -13 -14 -15
leaf_value=0.018119679106611022 -0.0018647079333397633 0.040294414134399943 0.046084891709208674 0.016832788887369599 -0.028960487203530241 -0.033275096042754464 0.015980817451169044 -0.023699295293752747 0.037683601837355619 0.0069483357058340092 0.049880528762449604 0.049120492592043499 0.042042714678029558 0.031134516339426169
leaf_weight=10.748261794447897 9.4738523289561289 9.7041380256414396 13.960290491580965 7.3367750048637381 13.85524655133486 62.912104532122612 9.6006586998701078 6.919640049338339 4.9149971604347229 7.1594171375036231 106.27058735489845 19.70540776848793 14.410806715488432 17.692080721259117
leaf_count=26 35 22 23 27 90 505 42 36 11 28 144 28 26 37
internal_value=0.0214611 0.003426 -0.00744373 -0.0156868 0.00499147 -0.0245338 -0.0105417 0.0270444 0.0025095 -0.0290832 0.0453284 0.0369015 0.0251312 0.0474996
internal_weight=314.664 179.953 136.363 110.568 33.16 77.4083 23.4559 25.7949 11.8346 70.0715 134.711 43.5901 23.8847 123.963
internal_count=1080 873 784 714 154 560 132 70 47 533 207 89 61 181
is_linear=0
shrinkage=0.03


Tree=22
num_leaves=20
num_cat=0
split_feature=75 4 4 76 38 34 84 99 75 29 75 61 81 70 1 42 56 50 49
split_gain=142.286 51.9874 39.7613 46.428 24.4172 19.6741 17.3095 13.6211 9.467 9.40958 9.32186 9.03664 7.88005 6.65786 2.21762 1.648 1.42392 1.02721 0.778655
threshold=2.8683582089552244 -0.4831757764155219 -0.36639069893708714 0.20507462686567166 -0.050119819139032566 0.39919375111816996 -0.012239680731538692 3.5000000000000004 1.9876560379918591 0.13251810972905928 2.7537946630483949 0.8277814169709069 3.8002414398595263 15.292089552238808 0.27605414420267732 0.0056077675479189191 1.5629704189339362 38.959264019211595 0.30708836276574342
decision_type=2 2 2 2 2 2 2 2 2 2 2 2 2 2 2 2 2 2 2
left_child=2 -2 14 15 13 12 -7 10 -9 11 -6 -8 -3 -5 -1 -4 -16 -14 -18
right_child=1 5 3 4 7 6 9 8 -10 -11 -12 -13 17 -15 16 -17 18 -19 -20
leaf_value=-0.0092832813523704566 0.044840244352766054 0.00082036361260788679 0.028989788934328211 0.044776132782695086 -0.0071306037264802589 0.036456018642217536 0.015011481700664448 0.014115090864261394 -0.029387541605875669 0.02618692261101847 0.040549999598879206 -0.03378888334552841 -0.010259022465584735 0.0077146188960145502 -0.0047294413354205568 0.050258829304432921 0.020156083920103103 -0.034044714682112114 0.047163787658340985
leaf_weight=0.2498244047164907 12.748585671186445 6.9678680300712577 10.658350706100462 11.011248484253885 7.5582710504531843 8.1867008656263369 3.7845343351364198 4.807325646281245 22.907108053565025 3.5712729543447486 5.64406518638134 12.907473281025885 3.1856819540262213 7.970704734325408 0.20594845712184806 27.699007645249367 3.4552272260189048 44.488186895847321 114.10845886170864
leaf_count=1 19 36 20 21 34 20 10 19 148 11 13 94 16 31 1 37 9 376 164
internal_value=0.0210133 -0.00932488 0.0344522 0.0199904 0.00324824 -0.0181054 0.00202116 -0.00976242 -0.0215084 -0.0128102 0.0144618 -0.0223318 -0.0284865 0.0305287 0.0461979 0.0453118 0.046418 -0.0327604 0.046572
internal_weight=312.116 95.8403 216.276 98.2561 59.8987 83.0917 28.45 40.9168 27.7144 20.2633 13.2023 16.692 54.6417 18.982 118.019 38.3574 117.77 47.6739 117.564
internal_count=1080 582 498 323 266 563 135 214 167 115 47 104 428 52 175 57 174 392 173
is_linear=0
shrinkage=0.03


Tree=23
num_leaves=16
num_cat=0
split_feature=65 81 76 34 78 60 30 71 81 67 64 34 62 46 0
split_gain=136.017 81.0909 39.1806 26.0091 40.6091 12.4229 13.085 10.9579 7.88153 7.3308 6.65374 6.38423 3.3643 3.81317 1.89638
threshold=-0.52909427971877288 3.6171532045654087 1.4752091813658981 0.39919375111816996 1.9410160427807488 0.9277131963181372 0.42660764606767643 25.895000000000007 3.8002414398595263 0.058840175769012258 -0.19975739900789274 0.83090140440763227 0.99592136241822604 0.5678673796620608 26.869670867919925
decision_type=2 2 2 2 2 2 2 2 2 2 2 2 2 2 2
left_child=9 14 3 7 11 -4 -7 8 -3 -1 -6 -5 -11 -14 -2
right_child=1 2 5 4 10 6 -8 -9 -10 12 -12 -13 13 -15 -16
leaf_value=0.017001365127826039 0.029337021036307316 -0.0046313644878667737 0.043849739330244025 -0.034122597497812851 0.0080128327421584364 -0.023319180609031157 0.035636806617324421 0.016627966467447641 -0.032793896574911115 0.04826002794860719 0.043066323778634286 0.008762510591498433 0.046443714056539451 0.018094842366871023 0.04959951992026268
leaf_weight=10.715778708457945 14.075279444456099 11.299847848713396 13.968718335032465 16.239729240536693 8.3416377454996127 6.8059740364551526 4.9789832383394241 4.5277704745531073 57.116176515817642 100.58202882111073 14.105133339762686 3.2531415075063697 8.5641895085573214 12.800049915909765 21.991453945636749
leaf_count=26 26 63 23 121 29 36 11 17 477 137 30 11 12 32 29
internal_value=0.0205885 0.00327804 -0.00706106 -0.0145882 0.0041309 0.0256943 0.00219343 -0.0253017 -0.0283194 0.0434263 0.0310651 -0.0267408 0.0455667 0.0311616 0.0427777
internal_weight=309.366 176.704 140.637 114.883 41.9396 25.7537 11.785 72.9438 68.416 132.662 22.4468 19.4929 121.946 21.3642 36.0667
internal_count=1080 873 818 748 191 70 47 557 540 207 59 132 181 44 55
is_linear=0
shrinkage=0.03


Tree=24
num_leaves=20
num_cat=0
split_feature=75 31 44 83 36 29 81 27 77 75 3 74 81 0 57 64 0 48 99
split_gain=128.012 48.0959 30.8711 23.7952 18.6619 18.398 15.0385 11.9634 9.15943 7.97196 6.26757 21.4813 5.37264 11.3039 6.66184 4.22678 2.81969 2.01176 0.810979
threshold=2.8683582089552244 0.41163480588025414 -0.032853704610335314 1.3784328358208957 0.9317812404414717 0.19292919566282249 3.8002414398595263 0.045487982857831101 0.24500000000000002 1.9876560379918591 0.037795057307831066 61.568585481682504 3.6171532045654087 23.026021957397464 0.30376045332149543 -0.30159206605221006 12.788304328918459 0.17253166180962712 5.5000000000000009
decision_type=2 2 2 2 2 2 2 2 2 2 2 2 2 2 2 2 2 2 2
left_child=2 6 10 7 12 8 -2 -3 -6 -10 11 -1 -4 -14 -15 -8 -5 -12 -13
right_child=1 3 4 16 5 -7 15 -9 9 -11 17 18 13 14 -16 -17 -18 -19 -20
leaf_value=-0.015785946494496533 0.0104290189822596 -0.032480969291874877 0.0476598039238414 0.047168743485226927 0.023287387380809762 0.044134345466386934 -0.0022801144783895391 0.029032097678068507 0.017424033591368619 -0.023686584619171891 0.015574415823564294 0.049401634739423252 0.03699020851096569 -0.021923689024130513 0.022169487065675762 -0.033979875760636387 0.021303460834762276 0.046278058293090465 0.029836545256894425
leaf_weight=7.1670611947774878 8.5116126984357816 8.5056363269686681 12.806935012340544 11.917215064167978 5.7636535465717342 6.5294777601957312 4.5002146810293189 3.1253246515989295 4.4210939407348659 20.641130149364471 3.5706781148910514 11.937774561345579 16.452676065266136 5.8503997400403005 4.5949620679020882 46.286802031099796 10.344105452299116 100.47475330531597 12.995189033448694
leaf_count=37 38 65 17 18 11 10 20 8 16 119 10 18 36 36 13 403 30 146 29
internal_value=0.0201921 -0.00904728 0.0329691 0.0190579 0.0173985 0.00194678 -0.0252103 -0.0147246 -0.00800101 -0.0159291 0.0415692 0.0280299 0.0314572 0.0222033 -0.00202253 -0.0313272 0.0367115 0.0454112 0.0408636
internal_weight=306.397 93.1909 213.206 33.8923 77.0603 37.3554 59.2986 11.631 30.8259 25.0622 136.145 32.1 39.705 26.898 10.4454 50.787 22.2613 104.045 24.933
internal_count=1080 582 498 121 258 156 461 73 146 135 240 84 102 85 49 423 48 156 47
is_linear=0
shrinkage=0.03


Tree=25
num_leaves=20
num_cat=0
split_feature=4 81 60 67 70 74 95 70 75 33 49 63 1 51 57 6 56 101 61
split_gain=122.846 86.0522 31.1839 15.7702 15.0509 14.3556 19.88 11.6722 10.9634 10.242 8.43584 7.74252 8.37166 3.30485 2.06065 1.7356 1.40087 1.25767 0.522519
threshold=-0.31903462336856064 3.6171532045654087 0.95272709386849264 0.058335524228597453 16.802279411764712 74.030637620719943 0.36375000000000007 25.87617976294996 2.8683582089552244 0.7246096538441632 0.36163910042309061 1.0000000180025095e-35 0.75572839216854282 30.2449708262785 0.098174169206912312 0.024223624559107874 1.5629704189339362 0.64371419419821541 0.88379126223988502
decision_type=2 2 2 2 2 2 2 2 2 2 2 2 2 2 2 2 2 2 2
left_child=3 15 4 8 13 7 -7 9 18 -4 -6 16 -13 -3 -8 -2 -5 -18 -1
right_child=1 2 5 11 10 6 14 -9 -10 -11 -12 12 -14 -15 -16 -17 17 -19 -20
leaf_value=0.017895828684858884 0.02687898938446602 0.012899058237621093 -0.034542591595843476 -0.0049722279137356913 -0.031988167133661059 0.036075603436271947 -0.031331560803630566 0.015319477113390167 -0.014361410570008643 0.008126325059899582 0.02020365687598414 -0.002755423731066541 0.039928312423641657 0.042935964952908634 0 0.047926950203397746 0.046825568553678719 0.03232268634891191 0.034451279601505291
leaf_weight=9.1192522421479278 11.173577353358267 6.975008510053164 58.265670448541641 0.21023376286029716 6.4111805781722051 7.7602032199502018 7.5964766517281515 4.6171811521053305 7.2533983662724486 5.0417105406522742 3.5453371331095695 7.5337070748209936 7.5572789311408997 9.708756819367407 2.5600462481379509 21.64012485742569 99.948012262582779 18.236617833375931 8.48149576038122
leaf_count=23 21 22 497 1 46 20 59 17 37 19 11 27 13 26 16 29 143 36 17
internal_value=0.0197966 -0.000132152 -0.0126683 0.0379885 0.0152105 -0.0214304 0.00222018 -0.027654 0.0150541 -0.0310243 -0.012982 0.0420927 0.0195864 0.0319876 -0.0242935 0.0418554 0.0447482 0.0449028 0.0274581
internal_weight=303.635 145.295 112.482 158.34 26.6403 85.8413 17.9167 67.9246 24.8541 63.3074 9.95652 133.486 15.091 16.6838 10.1565 32.8137 118.395 118.185 17.6007
internal_count=1080 783 733 297 105 628 95 533 77 516 57 220 40 48 75 50 180 179 40
is_linear=0
shrinkage=0.03


Tree=26
num_leaves=19
num_cat=0
split_feature=65 75 72 31 83 4 76 109 74 72 3 105 42 61 3 95 40 59
split_gain=117.874 63.4832 34.857 17.024 17.01 12.6323 10.9707 10.6565 9.47104 9.20021 13.9671 8.52437 7.9907 5.11693 3.1542 1.77396 1.56784 0.93257
threshold=-0.52909427971877288 2.8683582089552244 45.735840649692726 0.45154391689650475 1.4937478050921864 -0.39301009887642246 0.55151628222523763 7.5000000000000009 74.845858208955249 59.402761194029857 0.029192440391570394 0.041437559510945528 -0.0099260379943245641 0.85508762571940167 0.030065558206251539 0.35312500000000008 -2.0233069860198145 1.0278725381178706
decision_type=2 2 2 2 2 2 2 2 2 2 2 2 2 2 2 2 2 2
left_child=5 2 11 8 16 -1 -7 9 13 14 -11 15 -10 -3 -4 -2 -5 -14
right_child=1 3 7 4 -6 6 -8 -9 12 10 -12 -13 17 -15 -16 -17 -18 -19
leaf_value=0.044969259579818573 -0.0030211423359717895 0 0.043342224604763988 -0.03018552503023977 0.034829992133769881 0.034725302391609716 -0.0092675416431930429 -0.0044768383311623366 0.02522565463109475 -0.029023297767703921 0.031695141896389334 0.010646968402640114 -0.028531301663742775 -0.033771522730055507 0.025402201912942828 -0.033725796841936752 -0.00069706119264057169 -0.0028014818975681246
leaf_weight=109.54402188956738 2.4831784740090397 4.2937724813818923 35.016835555434227 5.2979062199592599 9.1524687930941564 11.58440935611725 7.8520835340023032 7.5713737905025473 5.0564188584685326 4.7345984205603582 7.4249851629137993 6.7784597352147093 4.0992120727896673 42.948305137455463 21.178769052028656 10.707617297768591 2.5372179150581378 2.3733915239572525
leaf_count=157 13 20 60 40 22 20 30 29 20 36 22 32 31 389 51 77 16 15
internal_value=0.0194214 0.00306465 0.0192073 -0.0173137 0.00861923 0.0409757 0.0172222 0.0284253 -0.0248786 0.032125 0.0074162 -0.0153823 -0.000172441 -0.0307172 0.0371959 -0.0287772 -0.0221357 -0.0211356
internal_weight=300.635 171.655 95.8958 75.7587 16.9876 128.981 19.4365 75.9266 58.7711 68.3552 12.1596 19.9693 11.529 47.2421 56.1956 13.1908 7.83512 6.4726
internal_count=1080 873 320 553 78 207 50 198 475 169 58 122 66 409 111 90 56 46
is_linear=0
shrinkage=0.03


Tree=27
num_leaves=18
num_cat=0
split_feature=65 81 42 99 33 70 4 70 82 99 73 3 37 0 42 45 90
split_gain=112.464 67.6065 33.1754 21.2378 18.249 22.1007 12.2755 12.0595 11.9913 8.4128 8.20342 4.83454 3.34573 1.96492 1.90628 1.84954 1.60055
threshold=-0.52909427971877288 3.6171532045654087 -0.049799107956639548 7.5000000000000009 0.46413951908705192 16.802279411764712 -0.39301009887642246 25.87617976294996 2.52 4.5000000000000009 59.335000000000001 0.041487695635079584 1.1775611369972572 26.869670867919925 -0.079493656180504732 0.046641110629678358 1.0000000180025095e-35
decision_type=2 2 2 2 2 2 2 2 2 2 2 2 2 2 2 2 2
left_child=6 13 3 8 7 10 -1 12 9 -3 -6 -8 -4 -2 -10 -5 -7
right_child=1 2 4 15 5 16 11 -9 14 -11 -12 -13 -14 -15 -16 -17 -18
leaf_value=0.044192055106091477 0.026413601342779418 0.022172593195549133 -0.0069595030701242264 -0.03354252491017156 -0.0011014601699606773 -0.004774053718079165 0.027561095027010981 0.018653918173929591 0.025328575839232988 -0.02885811537234868 0.035873037679399838 -0.0023924841019568465 -0.032394484846112848 0.046305058831361871 0.048530775228977557 -0.0019283016228171081 -0.033405692560261047
leaf_weight=108.16487877070904 13.800138249993323 5.3133451193571073 6.1560028046369544 5.6012556850910169 9.0710511505603808 2.8325889334082595 12.22813640534878 4.2800654768943778 11.963948011398317 4.381830021739006 11.620562717318533 7.1462795287370673 50.236182570457458 21.265816330909729 10.77778412401676 2.6781358271837234 10.1344758272171
leaf_count=157 26 21 43 34 48 16 27 15 31 33 26 23 441 29 17 17 76
internal_value=0.0190344 0.00299429 -0.00668579 0.0156558 -0.0164237 0.00122316 0.0402158 -0.0261232 0.026546 -0.0011525 0.0202219 0.0167903 -0.0298398 0.0395094 0.0380319 -0.0249494 -0.0281557
internal_weight=297.652 170.113 135.047 40.7163 94.3309 33.6587 127.539 60.6723 32.4369 9.69518 20.6916 19.3744 56.3922 35.066 22.7417 8.27939 12.9671
internal_count=1080 873 818 153 665 166 207 499 102 54 74 50 484 55 48 51 92
is_linear=0
shrinkage=0.03


Tree=28
num_leaves=16
num_cat=0
split_feature=65 81 42 76 76 33 33 98 4 76 24 107 98 5 0
split_gain=107.142 64.3747 31.6302 21.0713 18.794 16.3517 15.5177 13.3877 12.0446 10.3389 8.47859 5.63495 4.37997 2.60923 1.93607
threshold=-0.52909427971877288 3.6171532045654087 -0.049799107956639548 1.3579411764705884 0.55151628222523763 0.48690253695034713 0.69873270161354195 10.500000000000002 -0.39301009887642246 0.55151628222523763 30.804318889975551 1.2192796824433658 8.5000000000000018 -0.085201825021796504 26.869670867919925
decision_type=2 2 2 2 2 2 2 2 2 2 2 2 2 2 2
left_child=8 14 3 10 5 7 13 -4 -1 -10 11 -3 -5 -6 -2
right_child=1 2 4 12 6 -7 -8 -9 9 -11 -12 -13 -14 -15 -16
leaf_value=0.04345768793790674 0.025782123233662177 0.021936231417532724 -0.028085223350426444 0.0176945790292482 -0.01182127334035959 0.030498529896488012 0.013127986273363847 0.023700038093050026 0.033390152569351843 -0.0093285733308631543 -0.031823889087226762 -0.016326714556956896 0.048071478706746953 -0.033804551365768452 0.045481355375831034
leaf_weight=106.73148827254772 13.739414557814596 7.9446106702089327 14.387693755328661 10.024859651923181 7.4768943637609473 11.12280713021755 7.5212107002735129 5.4150641039013854 11.521394342184069 7.8543906062841407 6.818318434059619 4.669709675014019 11.155603058636187 47.058041281998158 21.023198127746582
leaf_count=157 26 29 102 30 50 24 28 22 20 30 49 28 17 439 29
internal_value=0.0186785 0.00294399 -0.00656096 0.0152416 -0.0161768 0.00280647 -0.0255791 -0.0133218 0.0394726 0.016318 -0.00710461 0.00739246 0.0352751 -0.0311117 0.038718
internal_weight=294.465 168.357 133.595 40.6131 92.9817 30.9256 62.0561 19.8028 126.107 19.3758 19.4326 12.6143 21.1805 54.5349 34.7626
internal_count=1080 873 818 153 665 148 517 124 207 50 106 57 47 489 55
is_linear=0
shrinkage=0.03


Tree=29
num_leaves=17
num_cat=0
split_feature=65 81 42 77 34 78 4 0 78 54 50 84 68 89 28 30
split_gain=102.185 61.3077 30.1741 17.4742 17.105 33.1072 11.7382 9.60164 7.28037 5.24841 4.62284 4.5735 3.57212 2.59865 2.24536 0.661422
threshold=-0.52909427971877288 3.6171532045654087 -0.049799107956639548 1.3150000000000002 0.39919375111816996 1.9410160427807488 -0.39301009887642246 18.465085029602054 0.77709224598930493 0.44520192185691065 52.563188672053073 -1.0000000180025095e-35 3.990999780509219 0.016380904928337367 -0.046798994978379631 0.10668231783421235
decision_type=2 2 2 2 2 2 2 2 2 2 2 2 2 2 2 2
left_child=6 13 3 7 8 -6 -1 11 -4 -10 -8 -3 -7 -2 -9 -5
right_child=1 2 4 15 5 12 10 14 9 -11 -12 -13 -14 -15 -16 -17
leaf_value=0.042762581520814968 0.022006897465884665 0.031554503407899059 0.016931998186665895 0.040781324571137673 -0.033143943327413133 0.041693496161186699 0.027086463626649671 -0.032243946605715619 -0.029631320856095506 0.0033367436189228415 -0.0018694851927372625 -0.0049889791779483576 0.01238731849645003 0.044168044826451897 0 0.022107008336753716
leaf_weight=105.25106950104237 11.052948370575903 5.4044599682092667 2.8412766754627219 11.15124184638262 12.459455423057081 8.7530805766582507 11.639894247055055 7.3572714924812317 54.593282572925091 4.331706039607524 7.6657641083002082 5.2575672492384928 8.6363093405961973 23.390826821327209 2.4445439055562002 8.8744316846132261
leaf_count=157 22 16 10 21 101 17 23 52 481 29 27 27 27 33 16 21
internal_value=0.0183463 0.00290251 -0.00643277 0.0148551 -0.0159322 0.00259033 0.0387852 -0.00454284 -0.0248298 -0.0271425 0.0159152 0.0143946 0.028767 0.0379627 -0.0248456 0.0340935
internal_weight=291.105 166.548 132.105 40.4895 91.6151 29.8488 124.557 20.4638 61.7663 58.925 19.3057 10.662 17.3894 34.4438 9.80182 20.0257
internal_count=1080 873 818 153 665 145 207 111 520 510 50 43 44 55 68 42
is_linear=0
shrinkage=0.03


Tree=30
num_leaves=18
num_cat=0
split_feature=35 76 61 76 76 1 38 34 45 87 42 38 61 1 0 0 76
split_gain=85.7328 57.5233 27.7794 21.022 17.789 15.1502 12.3735 12.1799 10.2813 8.7631 6.27122 13.8136 5.63164 3.48404 5.41615 8.45868 0.911397
threshold=0.43963673461825165 0.20507462686567166 1.0017249867278568 1.4752091813658981 0.55151628222523763 0.77577272920018381 -0.05078846113630487 0.28287342271494659 -0.01947067504063171 0.091491841491841516 0.030097185408370922 -0.012996257681044428 0.88791532488368918 0.58191668190186385 19.484575271606449 33.866464614868171 0.55151628222523763
decision_type=2 2 2 2 2 2 2 2 2 2 2 2 2 2 2 2 2
left_child=1 10 13 4 7 9 -5 -3 -9 -4 11 -1 -6 14 16 -16 -2
right_child=2 3 5 6 12 -7 -8 8 -10 -11 -12 -13 -14 -15 15 -17 -18
leaf_value=0.039108548136990898 0.04252073293867472 -0.032074929714572556 0.0095388662109301449 0.032706735703462976 0.0026073061655727493 0.037574467155771542 -0.014859640164580122 -0.0047787430453290229 0.035179405339982088 -0.035110456644623686 0.040309789053997486 -0.012071748947209405 -0.033276354566321983 0.042836245715153765 -0.0086039352297534351 0.033742655960556416 0.024589009263913605
leaf_weight=8.9076099619269389 20.207909151911739 7.3188032954931286 6.3060737550258654 12.377342507243158 4.0030826330184928 5.9342892915010443 6.9448317885398856 15.030366495251659 8.1355787515640223 7.9859349355101585 23.592939123511314 8.2904148995876294 42.798148527741432 84.168604329228401 7.3225919231772405 7.9092372730374336 10.499981082975863
leaf_count=15 31 55 32 24 23 11 36 77 26 53 39 35 425 128 28 17 25
internal_value=0.018028 0.000843103 0.0336051 -0.0117508 -0.0187319 0.000694592 0.0155727 -0.000700206 0.010005 -0.0158781 0.0303093 0.0149643 -0.030154 0.038654 0.0301783 0.0139241 0.0374528
internal_weight=287.734 137.399 150.335 96.6082 77.286 20.2263 19.3222 30.4847 23.1659 14.292 40.791 17.198 46.8012 130.108 45.9397 15.2318 30.7079
internal_count=1080 755 325 666 606 96 60 158 103 85 89 50 448 229 101 45 56
is_linear=0
shrinkage=0.03


Tree=31
num_leaves=15
num_cat=0
split_feature=65 81 42 77 34 78 4 71 24 75 107 52 68 89
split_gain=93.5589 56.1062 28.0056 15.8874 15.8663 30.9098 11.5029 11.0374 9.20099 8.69137 7.04812 5.6067 3.48269 2.64712
threshold=-0.52909427971877288 3.6171532045654087 -0.049799107956639548 1.3150000000000002 0.39919375111816996 1.9410160427807488 -0.39301009887642246 25.895000000000007 30.804318889975551 2.4665441176470591 1.2192796824433658 13.65326547274328 3.990999780509219 0.013909127317810688
decision_type=2 2 2 2 2 2 2 2 2 2 2 2 2 2
left_child=6 13 3 8 7 -6 -1 11 10 -8 -3 -4 -7 -2
right_child=1 2 4 -5 5 12 9 -9 -10 -11 -12 -13 -14 -15
leaf_value=0.04155306629777504 0.019802270924105136 0.024691544222644687 -0.0039037218363494912 0.032633648845495411 -0.032889885403187401 0.040173903290652485 0.034297877505709694 0.018322121877298782 -0.031261384702367251 -0.004456133880833664 -0.016954581174348338 -0.031855876115338688 0.011430128793258791 0.042476575928355298
leaf_weight=102.25992970168591 9.9309162348508817 8.8194131627678889 8.0925700888037664 19.944138072431087 12.086457766592504 8.7276888042688388 9.2887883931398409 4.294714853167533 6.5213309824466696 9.8989993780851346 4.8733187243342391 47.336447261273861 8.6546946167945844 23.826583713293076
leaf_count=157 20 31 57 42 101 17 16 15 49 34 31 448 27 35
internal_value=0.017705 0.00278899 -0.00623939 0.014292 -0.0155727 0.00232177 0.0375269 -0.0243444 -0.00434855 0.0149257 0.00952014 -0.0279696 0.0274259 0.0366541
internal_weight=284.556 163.108 129.351 40.1582 89.1926 29.4688 121.448 59.7237 20.2141 19.1878 13.6927 55.429 17.3824 33.7575
internal_count=1080 873 818 153 665 145 207 520 111 50 62 505 44 55
is_linear=0
shrinkage=0.03


Tree=32
num_leaves=17
num_cat=0
split_feature=4 81 60 76 66 64 66 70 30 77 63 48 42 48 103 34
split_gain=89.4493 63.5252 24.5622 16.0467 12.4786 13.6478 12.159 12.0739 9.92751 7.10623 6.39566 5.11048 2.26061 2.11791 1.31875 1.22007
threshold=-0.31903462336856064 3.6171532045654087 0.95272709386849264 0.55151628222523763 0.028694881877344897 -0.16785871220576956 0.039915843040587547 16.802279411764712 2.1143469715758241 0.24500000000000002 0.012181457912143465 0.17253166180962712 0.0073656084890778581 0.13017202433813899 0.031513920836384497 0.59374579363973612
decision_type=2 2 2 2 2 2 2 2 2 2 2 2 2 2 2 2
left_child=6 12 7 4 -4 -6 9 13 15 -1 14 -9 -2 -3 -8 -5
right_child=1 2 3 8 5 -7 10 11 -10 -11 -12 -13 -14 -15 -16 -17
leaf_value=-0.012508401993507487 0.020977704396907378 0.013779111099838079 -0.030757399624252425 -0.033548644693546348 -0.0099269298050266418 0.040375463340351608 0.040692484480593497 -0.031020011659319162 0.024409763214413748 0.023668669609527026 0.0153894961515857 0.0096034292412657922 0.043050589638360601 0.038234400033925801 0.025605430008655575 -0.0087398369870013235
leaf_weight=7.0125757828354862 10.03134034574032 8.2114802673459106 7.3776120394468334 46.86890634894371 9.8437057435512578 7.9076432213187191 100.86123622953892 5.1088615357875806 2.1771709844470015 11.718456782400606 13.609367996454237 4.2978778555989265 20.703948855400085 8.5057712122797948 13.78373623639345 3.0724395886063567
leaf_count=33 20 29 60 470 55 19 165 39 7 30 38 18 30 19 31 17
internal_value=0.0174023 -0.000319075 -0.0116401 -0.0200983 -0.000216926 0.0132793 0.0334842 0.013079 -0.0294431 0.010025 0.036783 -0.0130319 0.036829 0.0278471 0.0391416 -0.0322828
internal_weight=281.092 134.107 103.371 77.2475 25.129 17.7513 146.985 26.124 52.1185 18.731 128.254 9.40674 30.7353 16.7173 114.645 49.9413
internal_count=1080 783 733 628 134 74 297 105 494 63 234 57 50 48 196 487
is_linear=0
shrinkage=0.03


Tree=33
num_leaves=18
num_cat=0
split_feature=65 75 87 34 78 4 109 76 105 78 34 30 0 54 41 94 38
split_gain=86.0511 47.2772 26.2997 18.1516 15.3334 11.2921 9.57644 8.89003 8.00826 7.21247 9.82098 4.61823 3.91585 3.60074 2.26472 1.51798 1.47347
threshold=-0.52909427971877288 2.8683582089552244 0.88636363636363646 0.39919375111816996 1.9410160427807488 -0.39301009887642246 7.5000000000000009 0.55151628222523763 0.041437559510945528 2.2079708077260758 0.30962353886232868 -0.75832712108829103 16.330698966979984 0.44520192185691065 2.719643367394518 0.26031250000000006 -0.012996257681044428
decision_type=2 2 2 2 2 2 2 2 2 2 2 2 2 2 2 2 2
left_child=5 2 6 11 14 -1 9 -7 15 16 -11 -3 -6 -13 -5 -4 -2
right_child=1 3 8 4 12 7 -8 -9 -10 10 -12 13 -14 -15 -16 -17 -18
leaf_value=0.040460817310440426 0.041133938928772949 0 -0.0034382480244446838 -0.030604850745625672 0.039733004266656685 0.030131718782720841 -0.0065084892008094785 -0.0096724839752794223 0.011130612286401826 -0.015218741889009964 0.026451803223494077 -0.032996746836736646 0.0083104010575221019 0.0040151475448971614 0.0018803797765267747 -0.032888955642847405 0.025288954812173546
leaf_weight=99.21111211180687 26.139162361621857 4.729405812919139 2.4173758849501636 7.6216225773096102 5.9730368107557288 11.224573105573656 7.3168331086635581 7.8007048666477194 6.5308512598276129 6.6781388595700291 14.562906272709368 36.676975443959236 9.4046624302864057 2.1537974402308455 2.1277877539396286 9.7339540868997556 17.587197437882423
leaf_count=157 43 30 13 69 10 20 29 30 32 42 43 380 33 17 14 77 41
internal_value=0.0170946 0.00265586 0.0167792 -0.0159778 0.00415448 0.0363802 0.0249314 0.0139934 -0.0142746 0.0285627 0.0131206 -0.0274907 0.0223796 -0.0308193 -0.0237206 -0.0279651 0.0355359
internal_weight=277.89 159.654 90.9664 68.6873 25.1271 118.236 72.2842 19.0253 18.6822 64.9674 21.241 43.5602 15.3777 38.8308 9.74941 12.1513 43.7264
internal_count=1080 873 320 553 126 207 198 50 122 169 85 427 43 397 83 90 84
is_linear=0
shrinkage=0.03


Tree=34
num_leaves=18
num_cat=0
split_feature=4 76 60 76 67 38 66 45 29 69 103 63 57 29 6 33 101
split_gain=81.8587 49.6237 22.3366 17.6988 13.4046 11.6371 11.3965 12.6752 10.5517 8.74259 11.4198 6.73238 6.60319 8.99453 4.66417 2.4427 1.82035
threshold=-0.31903462336856064 0.20507462686567166 0.95272709386849264 0.55151628222523763 0.058335524228597453 -0.049918733320240528 0.028694881877344897 -0.01947067504063171 0.16011276583747833 4.035000000000001 1.0000000180025095e-35 0.012181457912143465 -0.30213658496563051 0.032558040687305882 0.013747212600006444 0.80622152620693688 0.64371419419821541
decision_type=2 2 2 2 2 2 2 2 2 2 2 2 2 2 2 2 2
left_child=4 14 5 6 9 12 -4 -8 15 -1 -11 16 -3 -14 -2 -5 -6
right_child=1 2 3 8 11 -7 7 -9 -10 10 -12 -13 13 -15 -16 -17 -18
leaf_value=0.03145764526451484 0.011441550458389398 0.04204497127875801 -0.029771783283109685 -0.033404882838373444 0.041108478828045088 -0.021372936789347537 -0.0082067875788031531 0.041495222030717364 0.028744759752434002 0.021136312652847936 -0.02936703202903022 0.014628407467195494 0.035487473724682417 -0.014319924454904293 0.03875499862116117 0 0.026003355929120675
leaf_weight=9.7823581248521823 9.265189431607725 8.5512792840600049 6.0934225022792843 46.322807103395462 89.546160981059074 5.993013769388198 9.2136134803295171 7.6077892258763287 1.910716876387595 7.1019576340913755 7.0044757574796677 13.479197591543196 4.6588744148612022 6.7215078324079514 22.727766677737236 1.9351657181978215 16.706474505364895
leaf_count=21 25 17 51 482 145 38 50 17 4 17 39 38 10 40 41 8 37
internal_value=0.0167917 -0.000360967 -0.0109058 -0.0193435 0.0323523 0.0126044 0.00234906 0.0151706 -0.0291626 0.0110638 -0.00402624 0.0364481 0.023497 0.00704726 0.0315225 -0.0320533 0.039026
internal_weight=274.622 131.001 99.0082 73.0835 143.621 25.9247 22.9148 16.8214 50.1687 23.8888 14.1064 119.732 19.9317 11.3804 31.993 48.258 106.253
internal_count=1080 783 717 612 297 105 118 67 494 77 56 220 67 50 66 490 182
is_linear=0
shrinkage=0.03


Tree=35
num_leaves=12
num_cat=0
split_feature=65 81 99 83 5 73 4 76 76 63 89
split_gain=79.527 47.6132 24.128 30.3226 17.8902 17.4563 10.9264 9.58897 8.34272 3.37432 2.85146
threshold=-0.52909427971877288 3.6171532045654087 7.5000000000000009 1.461836040386304 -0.078206420799059304 59.335000000000001 -0.39301009887642246 1.1972727272727275 0.55151628222523763 0.1739156731245545 0.013909127317810688
decision_type=2 2 2 2 2 2 2 2 2 2 2
left_child=6 10 3 -3 7 -6 -1 -5 -8 -4 -2
right_child=1 2 9 4 5 -7 8 -9 -10 -11 -12
leaf_value=0.039460500409968062 0.017417437054921773 -0.032129795808508783 -0.03435863704869159 0.000571237196373611 -0.018810390852983517 0.015755258775108017 0.02905867631876884 0.038553292254963449 -0.0096320991518386492 0.0030923499965830369 0.040434939030590686
leaf_weight=96.066893815994263 9.7291914373636228 19.043809540569782 23.669300809502605 8.6286529079079646 25.502587050199509 25.074239060282707 11.077284902334215 20.031071618199348 7.7592303603887549 2.0418625697493544 22.662964060902596
leaf_count=157 20 205 216 46 198 99 20 40 30 14 35
internal_value=0.0165119 0.00251668 -0.00598121 0.000852094 0.00911803 -0.00164255 0.0353474 0.0276239 0.0132876 -0.0312677 0.03434
internal_weight=271.287 156.384 123.992 98.2804 79.2366 50.5768 114.903 28.6597 18.8365 25.7112 32.3922
internal_count=1080 873 818 588 383 297 207 86 50 230 55
is_linear=0
shrinkage=0.03


Tree=36
num_leaves=12
num_cat=0
split_feature=65 81 99 83 5 84 79 29 63 44 89
split_gain=76.2478 45.4865 23.2945 29.1752 16.8993 12.7667 9.26842 5.64455 4.13723 3.37823 2.84676
threshold=-0.52909427971877288 3.6171532045654087 7.5000000000000009 1.461836040386304 -0.078206420799059304 -0.02307354558041352 0.3081156716417911 0.062024222618830553 -0.0018035571782339633 0.44258092009965727 0.016380904928337367
decision_type=2 2 2 2 2 2 2 2 2 2 2
left_child=7 10 3 -3 6 -6 -5 -1 -9 -4 -2
right_child=1 2 9 4 5 -7 -8 8 -10 -11 -12
leaf_value=0.0064565972377971887 0.017984502567483632 -0.031971967454635555 -0.034160448240876551 0.036233127943378733 -0.026222306856154384 0.0072870717893656987 -0.002523187315372274 0.039016732873018163 0.019237382875448947 0.0034054606562135222 0.040415853765107389
leaf_weight=6.6987503021955481 10.722433745861052 18.575697004795074 23.137856595218185 21.61011024564505 12.933533750474451 37.436222299933434 7.0098334625363341 91.740780100226402 14.729508176445959 2.0195211619138709 21.281131327152252
leaf_count=17 22 205 216 46 115 182 40 154 36 14 33
internal_value=0.0162319 0.00247181 -0.00587125 0.000830609 0.00888543 -0.00160176 0.0268746 0.0348321 0.0365128 -0.0310152 0.033764
internal_weight=267.895 154.726 122.723 97.5654 78.9897 50.3698 28.6199 113.169 106.47 25.1574 32.0036
internal_count=1080 873 818 588 383 297 86 207 190 230 55
is_linear=0
shrinkage=0.03


Tree=37
num_leaves=20
num_cat=0
split_feature=4 76 60 80 67 80 29 51 94 43 36 63 57 23 76 42 101 95 40
split_gain=72.4388 43.3466 28.038 18.1358 12.5934 14.024 9.84745 9.05202 12.4959 14.6436 7.03539 6.46074 6.278 2.77447 2.88083 1.98609 1.89743 1.56541 1.4772
threshold=-0.31903462336856064 0.55151628222523763 0.94182269325729095 2.205879060579456 0.058335524228597453 2.205879060579456 0.16011276583747833 50.899385469864718 0.66562500000000013 -0.0059106802036153474 0.84090677704935168 0.012181457912143465 -2.0089557995182088 13.209854125976564 1.1600814111261875 0.040695099771904227 0.64371419419821541 0.62312500000000004 -2.5366198417188133
decision_type=2 2 2 2 2 2 2 2 2 2 2 2 2 2 2 2 2 2 2
left_child=4 3 10 7 5 15 13 8 9 -2 -3 16 -12 14 -4 -1 -6 -5 -9
right_child=1 2 6 17 11 -7 -8 18 -10 -11 12 -13 -14 -15 -16 -17 -18 -19 -20
leaf_value=0.012125344381545229 0.024573040497073265 0.038233779301013335 -0.026016578202461123 -0.030311437789814526 0.039718946018309727 -0.027489220402814075 0.02799406826752374 0.020312166320966989 0.029393974706419079 -0.038874145634592419 0.02371660748751047 0.013572274482588116 -0.021692679736394074 -0.033188804854703435 0.010599169270641794 0.034491788383483254 0.024457234374242246 -0.00066850171253988533 0.0409989654055073
leaf_weight=10.174536190927034 4.8001232743263236 6.667275443673133 2.9070721641182891 5.3691125884652129 85.327780961990356 5.695639804005622 1.9204427897930134 8.4828718304634112 12.893423914909361 6.6059923395514515 4.0907151401042929 13.299812495708464 4.9270941168069831 43.080915570259094 2.8795892745256424 7.5832995548844329 16.133268468081951 2.4861944764852524 19.399324409663677
leaf_count=31 13 11 27 44 145 31 4 28 38 38 12 38 31 471 14 15 37 16 36
internal_value=0.0159444 -0.000459906 -0.0170506 0.0178386 0.0308765 0.0101209 -0.0277818 0.0242602 0.0100885 -0.0121029 0.0170996 0.0349683 -0.000483146 -0.0305513 -0.00847666 0.0231662 0.0375839 -0.0224032 0.0357303
internal_weight=264.724 126.51 66.4731 60.037 138.214 23.4535 50.788 52.1817 24.2995 11.4061 15.6851 114.761 9.01781 48.8676 5.78666 17.7578 101.461 7.85531 27.8822
internal_count=1080 783 570 213 297 77 516 153 89 51 54 220 43 512 41 46 182 60 64
is_linear=0
shrinkage=0.03


Tree=38
num_leaves=12
num_cat=0
split_feature=65 81 99 83 5 84 4 76 76 62 89
split_gain=70.4907 42.0115 22.1447 27.3127 15.4312 11.7564 10.9665 8.77359 7.82014 3.52014 2.83789
threshold=-0.52909427971877288 3.6171532045654087 7.5000000000000009 1.461836040386304 -0.078206420799059304 -0.02307354558041352 -0.39301009887642246 1.1972727272727275 0.55151628222523763 1.2703003166386764 0.016380904928337367
decision_type=2 2 2 2 2 2 2 2 2 2 2
left_child=6 10 3 -3 7 -6 -1 -5 -8 -4 -2
right_child=1 2 9 4 5 -7 8 -9 -10 -11 -12
leaf_value=0.038134742600491468 0.017139271466379318 -0.031730977032373729 -0.033976905128540222 2.4291306745148628e-05 -0.025704445991017722 0.0068717213608065651 0.027350432782389241 0.036304991157157115 -0.010207190136883829 0.0046667994935482406 0.039525678526380108
leaf_weight=91.327156528830528 10.614386707544329 17.755770646035671 22.367014177143577 8.6649124398827571 12.46647436916828 37.308882862329483 10.842720106244089 19.801454551517963 7.7604053616523734 1.9384946599602688 20.625544965267181
leaf_count=157 22 205 215 46 115 182 20 40 30 15 33
internal_value=0.0156791 0.00234028 -0.00574457 0.000797878 0.00852494 -0.0015736 0.0338533 0.0257389 0.0118085 -0.0307137 0.03278
internal_weight=261.473 151.543 120.303 95.9975 78.2417 49.7754 109.93 28.4664 18.6031 24.3055 31.2399
internal_count=1080 873 818 588 383 297 207 86 50 230 55
is_linear=0
shrinkage=0.03


Tree=39
num_leaves=12
num_cat=0
split_feature=65 81 99 83 5 73 4 79 76 62 89
split_gain=67.6917 40.1838 21.3744 26.2803 14.6093 15.0669 10.7541 8.38667 7.44954 3.46451 2.82543
threshold=-0.52909427971877288 3.6171532045654087 7.5000000000000009 1.461836040386304 -0.078206420799059304 59.335000000000001 -0.39301009887642246 0.3081156716417911 0.55151628222523763 1.2703003166386764 0.016380904928337367
decision_type=2 2 2 2 2 2 2 2 2 2 2
left_child=6 10 3 -3 7 -6 -1 -5 -8 -4 -2
right_child=1 2 9 4 5 -7 8 -9 -10 -11 -12
leaf_value=0.037688350286220459 0.016726538855154651 -0.031580446247811138 -0.033779932469157066 0.034037450092814003 -0.017978561506388095 0.014427375169752859 0.026766245683033679 -0.0028285360321208403 -0.0099624630584909512 0.0045662830448259554 0.039063712569879186
leaf_weight=89.673489823937416 10.575283899903299 17.316598184406757 21.836370050907139 21.402230054140094 24.489087969064713 25.14362521469593 10.769920885562899 6.9974035844206801 7.7374254167079917 1.9436650425195683 20.260725438594818
leaf_count=157 22 205 215 46 198 99 20 40 30 15 33
internal_value=0.0154155 0.00229551 -0.00564056 0.000771926 0.00829813 -0.00154195 0.033388 0.0250647 0.0115336 -0.0304668 0.0322634
internal_weight=258.146 149.965 119.129 95.3489 78.0323 49.6327 108.181 28.3996 18.5073 23.78 30.836
internal_count=1080 873 818 588 383 297 207 86 50 230 55
is_linear=0
shrinkage=0.03


Tree=40
num_leaves=12
num_cat=0
split_feature=65 81 99 83 5 73 4 76 76 44 0
split_gain=65.0168 38.4444 20.6326 25.2965 13.7985 14.2896 10.5516 8.22632 7.09786 3.29196 2.59764
threshold=-0.52909427971877288 3.6171532045654087 7.5000000000000009 1.461836040386304 -0.078206420799059304 59.335000000000001 -0.39301009887642246 1.1972727272727275 0.55151628222523763 0.44258092009965727 26.869670867919925
decision_type=2 2 2 2 2 2 2 2 2 2 2
left_child=6 10 3 -3 7 -6 -1 -5 -8 -4 -2
right_child=1 2 9 4 5 -7 8 -9 -10 -11 -12
leaf_value=0.037259248083841089 0.018327861577484613 -0.03143250155047992 -0.033553693587664371 0 -0.01765272625788103 0.013970109886920995 0.026198876288389239 0.034705860197803175 -0.0097234021617400839 0.0037700162786016411 0.039420461196840999
leaf_weight=88.0215814858675 12.422324210405352 16.887355320155621 21.281293481588367 8.7104177102446574 24.215516850352287 25.219177916646004 10.695846587419512 19.635982729494572 7.7147629112005225 1.9836463183164585 18.00810569524765
leaf_count=157 26 205 216 46 198 99 20 40 30 14 29
internal_value=0.0151608 0.00225297 -0.00553922 0.000748132 0.00808337 -0.00150368 0.0329376 0.0243865 0.011266 -0.0302235 0.0317626
internal_weight=254.796 148.364 117.933 94.6685 77.7811 49.4347 106.432 28.3464 18.4106 23.2649 30.4304
internal_count=1080 873 818 588 383 297 207 86 50 230 55
is_linear=0
shrinkage=0.03


Tree=41
num_leaves=17
num_cat=0
split_feature=4 81 60 76 67 66 45 29 38 69 51 70 63 6 101 34
split_gain=61.934 44.0091 18.2144 13.2597 11.9845 10.9988 11.2608 10.6997 9.99518 7.7098 11.3687 6.23162 6.19445 2.51525 1.99433 1.23879
threshold=-0.31903462336856064 3.6171532045654087 0.95272709386849264 0.55151628222523763 0.058335524228597453 0.028694881877344897 -0.01947067504063171 0.1813203984691614 -0.049918733320240528 4.035000000000001 42.88200195718693 16.802279411764712 0.012181457912143465 0.024223624559107874 0.64371419419821541 0.59374579363973612
decision_type=2 2 2 2 2 2 2 2 2 2 2 2 2 2 2 2
left_child=4 13 8 5 9 -4 -7 15 11 -1 -11 -3 14 -2 -6 -5
right_child=1 2 3 7 12 6 -8 -9 -10 10 -12 -13 -14 -15 -16 -17
leaf_value=0.028240864595115687 0.016632611764267217 0.031882070800328323 -0.030186868082869141 -0.032728378643502289 0.038210024310741886 -0.0090434259311948494 0.037110502801361668 0.031591866323696469 -0.021212788313367113 0.016678260624376946 -0.035379152852694232 -0.0036743671067002047 0.012199272192918317 0.039054505002512348 0.02263550318414306 -0.0072708032758825036
leaf_weight=9.3956864848732966 9.7855845838785189 13.431541629135614 6.8689311072230366 39.42133816331625 79.655728131532669 9.6472175493836438 7.7110285386443111 1.7517783790826786 5.678616724908351 7.8503328189253789 5.5822964534163475 5.9237539917230597 12.898039408028124 17.741989374160767 15.309112310409544 2.8100551739335051
leaf_count=21 21 31 60 474 145 56 18 3 38 20 36 36 38 29 37 17
internal_value=0.014913 -0.000574039 -0.0104755 -0.0184546 0.0291431 -0.0004184 0.0122007 -0.0280926 0.0110239 0.00874234 -0.00570013 0.0212066 0.0333132 0.0320515 0.0359926 -0.0313112
internal_weight=251.463 120.772 93.2443 68.2103 130.691 24.2272 17.3582 43.9832 25.0339 22.8283 13.4326 19.3553 107.863 27.5276 94.9648 42.2314
internal_count=1080 783 733 628 297 134 74 494 105 77 56 67 220 50 182 491
is_linear=0
shrinkage=0.03


Tree=42
num_leaves=16
num_cat=0
split_feature=65 76 76 76 31 64 28 76 4 76 0 25 55 6 70
split_gain=60.3138 27.4058 18.1752 13.0716 12.4037 13.1821 11.5088 16.7374 10.3151 6.64316 5.72123 7.34348 4.96513 9.04311 2.34448
threshold=-0.52909427971877288 0.20507462686567166 1.4752091813658981 0.50189507010402545 0.2832896932954046 -0.16785871220576956 -0.068590100796125097 1.1972727272727275 -0.39301009887642246 0.55151628222523763 23.026021957397464 3.0140458211653862 1.0054610197986282 0.04044130876115893 25.87617976294996
decision_type=2 2 2 2 2 2 2 2 2 2 2 2 2 2 2
left_child=8 12 3 4 -3 -6 7 -5 -1 -10 -4 -12 13 -2 -8
right_child=1 2 10 6 5 -7 14 -9 9 -11 11 -13 -14 -15 -16
leaf_value=0.036503514004012909 -0.0091132962265068427 -0.03013582910652424 0.033964263451851003 -0.025847737882752613 -0.006040477479554154 0.037185674073165725 -0.032143899879008654 0.028144437066316193 0.025244836479288719 -0.0096590614553373894 -0.016137844302354563 0.024507584985900131 0.036760226306082749 0.029835824841516728 -0.0009631264495150102
leaf_weight=84.857594013214111 8.6499407887458819 6.4424503147602108 9.686914190649988 10.297580555081369 13.120719663798813 10.728077791631218 33.674587324261665 8.5167669653892499 10.514685079455377 7.669098585844039 7.0278815850615484 6.9559952318668365 15.978735290467737 11.39145305007696 2.5947683230042449
leaf_count=157 35 55 17 84 71 28 432 30 20 30 38 15 28 26 14
internal_value=0.0146792 0.00214038 -0.00536388 -0.0118284 0.00385207 0.0139975 -0.0204197 -0.00106856 0.0321128 0.0106314 0.0173648 0.00416645 0.0244707 0.0132485 -0.0300794
internal_weight=248.107 145.066 109.046 85.375 30.2912 23.8488 55.0837 18.8143 103.041 18.1838 23.6708 13.9839 36.0201 20.0414 36.2694
internal_count=1080 873 784 714 154 99 560 114 207 50 70 53 89 61 446
is_linear=0
shrinkage=0.03


Tree=43
num_leaves=17
num_cat=0
split_feature=4 81 60 3 94 78 70 38 34 75 4 70 49 52 59 6
split_gain=56.733 40.59 16.9578 11.2637 11.2015 13.9244 13.6844 9.34363 6.98464 6.95946 8.74138 5.72763 5.27853 3.79729 3.62461 2.49092
threshold=-0.31903462336856064 3.6171532045654087 0.95272709386849264 0.032027807956229656 0.26031250000000006 2.8340377657168703 25.87617976294996 -0.049918733320240528 0.5747460696256842 3.0947071460877438 -0.4831757764155219 16.802279411764712 0.29338001256907631 13.434103851881803 1.0725614847733556 0.024223624559107874
decision_type=2 2 2 2 2 2 2 2 2 2 2 2 2 2 2 2
left_child=3 15 7 -1 5 8 13 11 -4 12 -11 -3 -5 -6 -14 -2
right_child=1 2 4 9 6 -7 -8 -9 -10 10 -12 -13 14 -15 -16 -17
leaf_value=-0.004902614643738955 0.01587423123478432 0.030633750849414693 -0.030943518887830024 0.0032473893171163469 -0.0057679063246805834 0.034296147148078528 0.02390021703072202 -0.020861162161768608 0.02205999772251983 0.031228734592546256 -0.019432393143589712 -0.0035934162832398551 0.036653168697546777 -0.033152881200819405 0.017345142728247664 0.038258069399690509
leaf_weight=8.1929120421409589 9.6335246860981005 13.386020302772527 7.9326880797743815 5.6072338595986357 5.9756737053394309 6.5660268366336814 3.8970711678266516 5.5754195824265471 2.1209290027618408 5.0849822759628296 5.1753336712717992 5.8474885895848265 89.610864751040936 39.534477338194847 13.412270918488501 17.164426445960999
leaf_count=34 21 31 85 19 54 13 14 38 7 10 30 36 172 455 32 29
internal_value=0.0144521 -0.000560113 -0.0101941 0.0282672 -0.0180839 0.00294696 -0.0251359 0.0105747 -0.0185063 0.0305999 0.0059523 0.0204162 0.032825 -0.0298229 0.0343593 0.0311798
internal_weight=244.717 117.634 90.8358 127.084 66.0269 16.6196 49.4072 24.8089 10.0536 118.891 10.2603 19.2335 108.63 45.5102 103.023 26.798
internal_count=1080 783 733 297 628 105 523 105 92 263 40 67 223 509 204 50
is_linear=0
shrinkage=0.03


Tree=44
num_leaves=16
num_cat=0
split_feature=65 81 42 34 78 71 79 107 67 60 59 29 89 68 87
split_gain=55.9009 32.7683 17.1281 11.3553 22.7231 10.8105 10.397 8.65206 7.58746 5.58982 3.75613 3.5869 3.02628 2.72761 1.47584
threshold=-0.52909427971877288 3.6171532045654087 -0.049799107956639548 0.39919375111816996 1.9410160427807488 25.895000000000007 0.3081156716417911 1.4796500771604941 0.058840175769012258 1.0978285655819122 1.0725614847733556 0.087646175232551762 0.016380904928337367 3.990999780509219 0.51492537313432851
decision_type=2 2 2 2 2 2 2 2 2 2 2 2 2 2 2
left_child=8 12 6 5 -5 9 7 14 -1 -4 -10 -8 -2 -6 -3
right_child=1 2 3 4 13 -7 11 -9 10 -11 -12 -13 -14 -15 -16
leaf_value=0.0050251589589030785 0.014345833382526811 0.036056021549480066 -0.029434146113423782 -0.031625834943998947 0.035036203718743296 0.020351084888520103 -0.02952521736005289 -0.0069090337091619724 0.036867812834369393 0.006469062358985706 0.017809202976377211 0.0076730575913373329 0.037282939047854478 0.0090639047205227103 0.016009101728045021
leaf_weight=9.6066678911447507 10.266962453722956 12.525071039795881 41.004791676998138 9.933658931404354 8.2483778968453425 4.15968433022499 5.466853700578211 7.6714587584137908 75.333536759018898 3.7980788834393016 14.689066320657728 2.944510854780674 18.657316923141479 8.2000311464071256 8.8951234444975835
leaf_count=26 22 27 470 101 17 15 47 39 144 35 37 11 33 27 29
internal_value=0.0142296 0.00205438 -0.00528082 -0.0134875 0.00225075 -0.021903 0.0110509 0.0194792 0.0313324 -0.0262502 0.0340208 -0.016753 0.0299929 0.0235217 0.0289503
internal_weight=241.401 141.772 112.848 75.3446 26.3821 48.9626 37.503 29.0917 99.6293 44.8029 90.0226 8.41136 28.9243 16.4484 21.4202
internal_count=1080 873 818 665 145 520 153 95 207 505 181 58 55 44 56
is_linear=0
shrinkage=0.03


Tree=45
num_leaves=14
num_cat=0
split_feature=75 31 44 76 64 99 78 52 88 81 61 42 59
split_gain=51.5001 24.9227 17.9683 15.7467 16.0903 15.0501 11.7601 10.958 10.4726 9.69124 9.6333 2.92526 0.951958
threshold=2.8683582089552244 0.44664322728435496 -0.26193317022740958 0.20507462686567166 -0.52655666452324623 7.5000000000000009 1.9410160427807488 18.897260643636837 0.01484480431848853 3.8002414398595263 0.81324415099767866 0.0073656084890778581 1.0634788861522571
decision_type=2 2 2 2 2 2 2 2 2 2 2 2 2
left_child=2 9 -1 11 -5 7 8 -6 -3 -2 -11 -4 -7
right_child=1 6 3 4 5 12 -8 -9 -10 10 -12 -13 -14
leaf_value=0.036158187961023026 0.0083941087894274079 -0.030171077128951167 0.015109741394062697 0.032515905869688604 0.025850362310698854 -0.034418150732653301 0.031079184204368417 -0.0036674630780245414 0.03283138553590912 0.011662303102965269 -0.032365579233651895 0.037812880717371829 -0.0064413067174894931
leaf_weight=59.923677816987038 7.9700438380241385 6.3548240065574664 9.5013361126184446 16.629265025258064 16.984906204044819 8.8813694678246957 15.907989174127577 29.618097268044949 2.5293088927865028 4.5264180004596701 32.959197338670492 24.258563831448555 2.1430749036371699
leaf_count=118 38 61 21 32 45 76 34 152 7 14 428 42 12
internal_value=0.014011 -0.00745156 0.0229973 0.0154039 0.00743473 -0.000182822 0.0162629 0.00734461 -0.0104239 -0.020522 -0.0268063 0.0321282 -0.0302171
internal_weight=238.188 70.2478 167.94 108.017 74.2567 57.6274 24.7921 46.603 8.88413 45.4557 37.4856 33.7599 11.0244
internal_count=1080 582 498 380 317 285 102 197 68 480 442 63 88
is_linear=0
shrinkage=0.03


Tree=46
num_leaves=18
num_cat=0
split_feature=65 75 87 31 4 78 56 76 107 75 2 102 75 90 63 1 90
split_gain=51.6639 27.5683 16.4626 11.1784 10.2212 9.95241 7.74568 9.45106 7.58965 7.52542 8.89254 6.36853 6.0749 5.31867 2.36474 0.187664 0.0455219
threshold=-0.52909427971877288 2.8683582089552244 0.88636363636363646 0.45154391689650475 -0.39301009887642246 1.5766530981456357 2.8292386425438631 0.55151628222523763 2.0524896066145177 2.5507627304653209 1.3137495273628503 0.61818181818181828 2.4665441176470591 0.056923831253593619 -0.15162188691402964 0.53381886938135414 0.036771516705984907
decision_type=2 2 2 2 2 2 2 2 2 2 2 2 2 2 2 2 2
left_child=4 2 8 6 15 -5 14 -8 9 16 -11 13 -6 -4 -3 -1 -2
right_child=1 3 11 5 12 -7 7 -9 -10 10 -12 -13 -14 -15 -16 -17 -18
leaf_value=0.025361058761325855 0.024798410203190464 0 -0.01735880612395042 -0.027154284453675157 0.026710631090774775 0.023101746101052201 0.020029112339665558 -0.027690711309011039 -0.0085761374533241379 0.0036515069520356666 0.043137442312238136 -0.031209150333571259 -0.0067387540983617645 0.024194015742694024 -0.032181487432125545 0.03681311790660223 0.0389250410924111
leaf_weight=13.960705444216726 10.515533253550531 2.3644961640238753 4.374476261436941 4.1034555211663237 8.1666004210710543 10.691945739090441 7.1505503654479963 5.8841213658452034 6.8081800788640967 24.351714141666893 5.6588482856750479 7.6302630342543116 9.5743366181850416 4.7067076116800308 27.139758620411161 64.7084901034832 17.165177598595619
leaf_count=29 22 14 28 43 16 35 25 81 29 109 8 75 34 19 355 128 30
internal_value=0.013796 0.00198716 0.0131848 -0.0137763 0.0305404 0.00813678 -0.0214786 -0.00173698 0.0200231 0.0235378 0.0123448 -0.0126793 0.00910242 0.00414373 -0.0297591 0.0351623 0.0347149
internal_weight=234.955 138.545 81.2109 57.3343 96.4101 14.7954 42.5389 13.0347 64.4995 57.6913 30.0106 16.7114 17.7409 9.08118 29.5043 78.6692 27.6807
internal_count=1080 873 320 553 207 78 475 106 198 169 117 122 50 47 369 157 52
is_linear=0
shrinkage=0.03


Tree=47
num_leaves=14
num_cat=0
split_feature=65 81 99 76 34 78 88 4 76 62 52 0 1
split_gain=49.7301 28.509 18.0939 16.3933 12.9037 20.216 13.7479 10.0559 5.79111 3.74508 3.70113 2.96735 0.22429
threshold=-0.52909427971877288 3.6171532045654087 7.5000000000000009 1.4752091813658981 0.39919375111816996 1.9410160427807488 0.018556005398110663 -0.39301009887642246 0.55151628222523763 1.295284502552869 19.509379512953817 26.869670867919925 0.53381886938135414
decision_type=2 2 2 2 2 2 2 2 2 2 2 2 2
left_child=7 11 3 4 6 -6 -3 12 -9 -4 -5 -2 -1
right_child=1 2 9 10 5 -7 -8 8 -10 -11 -12 -13 -14
leaf_value=0.024952853732005044 0.01465144086907254 -0.025716645481172296 -0.033052357864728502 0.034172759523249913 -0.025202580529479941 0.026103194532932601 0.016538407567904118 0.023015668549458287 -0.0098724452255281869 0.009133653805173985 0.0066171704290405829 0.03701051838224946 0.036511368919958452
leaf_weight=13.782490521669386 11.59318381547928 31.661007005721331 19.20352150127292 12.098847210407259 9.4439223818480986 19.525014705955982 7.9601967111229888 10.040800720453264 7.6204987317323676 1.5519066490232933 7.9247480779886237 16.105902880430222 63.315316095948219
leaf_count=29 26 343 219 22 85 49 59 20 30 11 30 29 128
internal_value=0.0135798 0.00195289 -0.00496493 0.00100979 -0.00598058 0.00899447 -0.0169553 0.0301706 0.00889574 -0.0294853 0.0242433 0.0285935 0.0348295
internal_weight=231.827 137.068 109.369 88.6137 68.5901 28.9689 39.6212 94.7591 17.6613 20.7554 20.0236 27.6991 77.0978
internal_count=1080 873 818 588 536 134 402 207 50 230 52 55 157
is_linear=0
shrinkage=0.03


Tree=48
num_leaves=20
num_cat=0
split_feature=4 81 38 78 67 90 71 99 81 69 51 45 59 2 42 36 47 72 43
split_gain=47.1751 33.0136 15.2719 11.5336 10.6439 10.4553 9.55849 8.8719 9.32587 6.84694 9.75344 4.49745 5.49272 3.81152 3.14381 3.14133 1.7263 1.26406 0.855362
threshold=-0.31903462336856064 3.6171532045654087 -0.045417339427144467 2.8340377657168703 0.058335524228597453 0.015762552171755682 25.895000000000007 3.5000000000000004 5.0867756804214226 4.035000000000001 42.88200195718693 -0.4217085454279163 1.0720002532866999 1.0731901038360021 0.0073656084890778581 0.80114858058067795 -0.02565597913429828 42.247573529411774 -0.16574521211485585
decision_type=2 2 2 2 2 2 2 2 2 2 2 2 2 2 2 2 2 2 2
left_child=4 14 7 6 9 -5 15 -3 -9 -1 -11 -6 17 -10 -2 -4 -7 -13 -19
right_child=1 2 3 5 11 16 -8 8 13 10 -12 12 -14 -15 -16 -17 -18 18 -20
leaf_value=0.025770139951421519 0.011853379737552563 0.031859109739161576 -0.005170531151280639 0.03060587694259348 0.035991812457848979 -0.028517161878620467 0.011315481940385194 -0.029082197696837463 -0.002091168375003033 0.014277289366121564 -0.035038156873814813 0.013277914262134463 -0.0012992454781524754 0.030206767791638618 0.036659229534124128 -0.033113105069027773 0.0012414405624041221 0.018830186198263016 0.037490652669938833
leaf_weight=8.9564698711037654 8.6217554509639758 8.7589820660650748 4.7652042657136908 6.6229114159941656 60.747327715158463 4.3274630680680275 5.0785513371229163 6.7760964892804649 6.7521107308566553 7.5187167450785619 5.2694286108016968 7.7997165918350246 7.5312296301126471 4.9367681816220284 16.311844646930695 35.444408562034369 2.2179637774825096 8.2980928122997319 11.830779872834679
leaf_count=21 20 31 38 15 125 37 21 82 36 20 36 23 26 10 30 448 15 23 23
internal_value=0.0133816 -0.000688649 -0.00959331 -0.0181551 0.0264965 0.00602588 -0.0252292 0.00867653 -0.00323794 0.0069702 -0.00689324 0.0307619 0.0209786 0.0126189 0.0289851 -0.0300803 -0.0192076 0.026927 0.0311952
internal_weight=228.566 110.614 85.6805 58.4565 117.952 13.1683 45.2882 27.224 18.465 21.7446 12.7881 96.2071 35.4598 11.6889 24.9336 40.2096 6.54543 27.9286 20.1289
internal_count=1080 783 733 574 297 67 507 159 128 77 56 220 95 46 50 486 52 69 46
is_linear=0
shrinkage=0.03


Tree=49
num_leaves=13
num_cat=0
split_feature=65 81 99 83 38 34 4 56 76 62 28 1
split_gain=46.2754 26.1882 17.1423 20.1259 10.1451 14.5826 9.77072 5.9919 5.39567 3.64111 3.12197 0.320643
threshold=-0.52909427971877288 3.6171532045654087 7.5000000000000009 1.461836040386304 -0.045067762278242815 0.39919375111816996 -0.39301009887642246 2.7045658250083506 0.55151628222523763 1.295284502552869 -0.056590027455297696 0.53381886938135414
decision_type=2 2 2 2 2 2 2 2 2 2 2 2
left_child=6 10 3 -3 7 -6 11 -5 -8 -4 -2 -1
right_child=1 2 9 4 5 -7 8 -9 -10 -11 -12 -13
leaf_value=0.024105658898682381 0.012909511162546353 -0.030612852017300123 -0.032817957013006091 0.0050152336324795835 -0.014568402640265814 0.018240130097606309 0.022238115154262821 0.035032134623082765 -0.0096865183259785929 0.0089606984719989638 0.036002945920391001 0.035986545998929781
leaf_weight=13.391544252634047 10.665749266743662 14.031773950904606 18.423422507941726 11.070960991084577 27.826121270656586 20.120609544217587 9.8495998084545153 13.923117846250532 7.5554227381944647 1.5409356541931618 16.281686574220657 60.736509367823601
leaf_count=29 24 205 219 49 242 61 20 31 30 11 31 128
internal_value=0.0131862 0.00187254 -0.00481961 0.00100547 0.00746028 -0.000647804 0.029503 0.0225562 0.00844348 -0.0291766 0.0277589 0.0342296
internal_weight=225.417 133.884 106.937 86.9726 72.9408 47.9467 91.5331 24.9941 17.405 19.9644 26.9474 74.1281
internal_count=1080 873 818 588 383 303 207 80 50 230 55 157
is_linear=0
shrinkage=0.03


Tree=50
num_leaves=13
num_cat=0
split_feature=65 81 99 83 4 42 34 76 76 62 3 1
split_gain=44.555 25.0789 16.5527 19.3996 9.61072 9.143 12.8151 7.29977 5.14509 3.5779 3.38135 0.35621
threshold=-0.52909427971877288 3.6171532045654087 7.5000000000000009 1.461836040386304 -0.39301009887642246 -0.049799107956639548 0.39919375111816996 1.279024064171123 0.55151628222523763 1.295284502552869 0.026629235649394671 0.53381886938135414
decision_type=2 2 2 2 2 2 2 2 2 2 2 2
left_child=4 10 3 -3 11 7 -7 -5 -6 -4 -2 -1
right_child=1 2 9 5 8 6 -8 -9 -10 -11 -12 -13
