tree
version=v4
num_class=1
num_tree_per_iteration=1
label_index=0
max_feature_idx=119
objective=binary sigmoid:1
feature_names=Column_0 Column_1 Column_2 Column_3 Column_4 Column_5 Column_6 Column_7 Column_8 Column_9 Column_10 Column_11 Column_12 Column_13 Column_14 Column_15 Column_16 Column_17 Column_18 Column_19 Column_20 Column_21 Column_22 Column_23 Column_24 Column_25 Column_26 Column_27 Column_28 Column_29 Column_30 Column_31 Column_32 Column_33 Column_34 Column_35 Column_36 Column_37 Column_38 Column_39 Column_40 Column_41 Column_42 Column_43 Column_44 Column_45 Column_46 Column_47 Column_48 Column_49 Column_50 Column_51 Column_52 Column_53 Column_54 Column_55 Column_56 Column_57 Column_58 Column_59 Column_60 Column_61 Column_62 Column_63 Column_64 Column_65 Column_66 Column_67 Column_68 Column_69 Column_70 Column_71 Column_72 Column_73 Column_74 Column_75 Column_76 Column_77 Column_78 Column_79 Column_80 Column_81 Column_82 Column_83 Column_84 Column_85 Column_86 Column_87 Column_88 Column_89 Column_90 Column_91 Column_92 Column_93 Column_94 Column_95 Column_96 Column_97 Column_98 Column_99 Column_100 Column_101 Column_102 Column_103 Column_104 Column_105 Column_106 Column_107 Column_108 Column_109 Column_110 Column_111 Column_112 Column_113 Column_114 Column_115 Column_116 Column_117 Column_118 Column_119
feature_infos=[-0.69088224906549267:1.1504755510272435] [0.1255872944588326:1.1644372722359764] [-0.37366446119552088:0.33255200947911084] [0.45927240617948395:1.4984043377224401] [0.65491990936976685:1.2649107213424922] [-0.27749930943386769:0.11525880115346505] [-0.76098517497744989:2.3014743999776566] [0.64352919326486857:2.1036339887485114] [-0.27749930943386769:0.11525880115346505] [-0.3536957872533657:0.33054945054945062] [-2.3365429014366019:3.1736742885388738] [0:1.6262081324394391] [0:1] [-2.3365429014366019:1.784753023676056] [0:0.62910508423225442] [0.1384006955137414:1.6262081324394391] [-0.28019778630901737:0.28343891177621749] [0.230625:0.95374999999999999] [1.9959090909090909:3.7994029850746269] [-0.60014462039334249:0.93855510103868456] [-0.37593995381847167:0.3858267901603013] [0:0.99991855120157613] [-0.63191667492744996:0.53318180801423753] [-0.014946740966631554:0.01131736885581627] [-0.39330600328294474:0.68679296459595074] [-0.9921798927148906:0.85817695185895992] [1:9] [-2.4395210460224592:1.869925139017141] [0:1.5137070937782131] [0:1.4403779057306294] [-0.50810731792644226:0.58931085381372394] [-0.27749930943386769:0.11525880115346505] [0.79552189687022368:1.3930248767267139] [1.5615132302821617:8.1389005224473756] [0:13] [0:1] [-0.62636860904216185:0.92991688128981465] [0.012127409356980689:0.10561151205553634] [-6.17913656787655:3.2156715890149132] [0.8709581475352427:1.2312514788557509] [-7.385201059636521:10.350028729764116] [0:1.1644372722359764] [0:104.12300109863281] [-4.5799947367451468:-1.4632410180275495] [3.3528844938903557:98.225986056857636] [-0.56819576219901624:0.93855510103868456] [31.023470679323363:68.079131285418853] [0.16916413263649072:2.3190181526883387] [0.79997787924343799:2.3044491673381668] [0.020064282766152405:0.29354875605907366] [1.9052996576914178:43.448431821433388] [3.0951519012451172:104.12300109863281] [-0.85471783537695245:4.6184165579321892] [-0.78012245613060671:0.9159386457525287] [0.0092466164060876072:0.094543284063063698] [-0.84231673573212862:1.4093774227519376] [0:2.8025968497232867] [0.0088158274635734956:0.10088837131792464] [0.088263364207539205:0.92086517285811798] [0.24191977369199091:11.023636028228003] [0:1.4984043377224401] [0.14756739542006864:1.5137070937782131] [0.7816255763699067:1.2441920000459217] [0:2.6724242424242424] [0:101.22972869873047] [18.875658678512924:88.685033035774183] [0.13934359825892484:1.4757468597287537] [-0.56819576219901624:0.93855510103868456] [-0.56819576219901624:0.93855510103868456] [0:0.12741119629545811] [-0.82885558175978147:0] [0:1] [0.12558729445883496:1.1644372722359773] [-0.50380182330804757:0.89623899232087467] [-14.210832214355468:10.870852661132812] [1.5572609209128976:4.1765638220534784] [-30.119537353515625:75.732892990112305] [-1.3867678364299161:2.7345280886827421] [0:0.99925359436889405] [0.054812225426956705:0.58767186138720684] [0.013731877231771617:0.12834480972028961] [-1.0926047663882661:0.30474937839169669] [-0.44383421259767869:0] [-0.45258485522687752:-0.018763289599474861] [0:0.9992790370945438] [0:97.047447204589844] [-0.14759054037693117:0.073873911905510972] [0:1.1644372722359764] [0.011055274676511703:0.59554887179213789] [0:69.874411764705883] [-0.61111111412244556:1.0316520419626845] [-0.14497386729179634:0.25101612698401177] [0:7.5815151515151511] [0:1] [-0.32616041883323882:0.29122942409019359] [-0.98094708276797815:0.98127881315348353] [-32.646087646484375:21.746337890625] [-0.82885558175978147:0] [-0.69190179110201511:0.66714863762891297] [-0.44383421259767869:0] [-1.3867678364299161:2.7345280886827421] [-0.27749930943386769:0.11525880115346505] [-0.99913624472073481:1.0904666646503391] [-11.129914066033464:12.168267752148353] [0.66037617397120718:1.3372694170181922] [0.19484242408157393:0.80826750282688875] [-1.025039547271215:1.1431585299842646] [0:1.5137070937782131] [0.2373134328358209:1.5513636363636363] [-0.22672869045077421:0.23577610352442346] [0:0.49940298507462688] [-53:111] [0:33.271748991671465] [0.035434831814310591:3.0116105085783733] [-0.094512422278412:0.058095112221881129] [0:57.774242424242424] [-0.56298752732302115:0.81342760878923481] [0:1.6262081324394391] [-0.035447386466060382:0.022949864725394398] [0:7.5815151515151511]
tree_sizes=1157 1073 866 1175 1075 1073 969 1081 1182 1187 1290 981 1284 981 1294 1195 1181 1180 1078 1085 1076 1088 1185 1295 1077 1089 1190 1188 1185 1169 1186 1082 1078 1191 1191 1295 1079 1197 1273 1088 1166 1293 1296 1187 1384 1285 1187 1186 1184 1284 1289 1289 1179 1287 1295 1086 1293 1081 1706 1199 974 1283 1291 1288 1391 1186 1288 1403 1286 1497 1191 1403 1400 1279 1082 1294 1400 1290 1292 1300 1501 1397 1079 1298 1495 1084 1391 1478 1300 1088 1090 1502 1090 1084 1091 1294 985 1287 1294 1087 1083 1296 1293 1091 1187 1379 1507 1189 1395 1506 1300 1388 1188 1193 1300 1085 1297 1615 1294 1194 1511 1085 1511 1398 1200 1392 1297 1199 1902 1168 1603 1299 1408 1190 1092 1623 1284 1382 1507 1298 1404 1592 1512 1310 1202 1193 1609 1195 1623 1203 1495 1369 1408 1404 1399 1295 1624 1194 1605 1499 1062 1840 1524 1525 1938 1392 1592 1304 1522 1307 1392 1843 1628 1208 1393 1310 1306 1602 1301 1520 1298 1190 1726 1493 988 1416 1518 1431 1506 1513 1293 1516 1633 1425 1198 1420 1408 1532 1419 1289 1507 1314 1199 1213 1507 1428 1510 1400 1488 1620 1289 1628 1601 1520 1619 1380 1418 1492 1520 1214 1509 1468 1624 1370 1421 1509 1610 1625 1605 1410 1429 1612 1511 1399 1675 1589 1525 1510 1679 1669 1521 1293 1397 1646 1754 1693 1626 1952 1846 1607 1607 1493 1607 1511 1512 1530 1602 1725 1413 1600 1551 1478 1298 1400 1548 1453 1615 1409 1577 1320 1524 1435 1655 1594 1525 1595 1177 1482 1482 1405 1527 1780 1727 1277 1821 1612 1222 1768 1590 1174 1184 1466 1511 1411 1668 1795 1670 1156 1641 1614 1423 1404 1407 1411 1390 1383 1387 1177 1382 1360 1352 1292 1426 1495 1428 1399 1073 1359 1630 1483 1465 1093 1478 1471 1377 1386 1272 1494 1421 1310 1355 1309 1374 1411 1377 1389 1667 1544 1281 1262 1476 1377 1390 1549 1295 1498 1443 1141 1581 1511 1289 1272 1493 1291 1184 1395 1289 1366 1311 1408 1291 1365 1378 1517 1376 1253 1722 1604 1606 1365 1168 1493 1907 1274 1259 1580 1708 1235 1280 1575 1374 1479 1317 1271 1663 1263 1395 1280 1255 1393 1383 1387 1470 1344 1562 1283 1468 1783 1506 1642 1170 1362 1506 1266 1315 1499 1494 1333 1603 1353 1270 1425 1680 1279 1261 1291 1493 1465 1271 1469 1458 1565 1381 1274 1496 1584 1330 1667 1462 1541 1278 1495 1594 1361 1269 1643 1494 1363 1240 1505 1694 1277 1346 1379 1477 1359 1298 1353 1555 1289 1358 1439 1580 1072 1296 1262 1374 1362 1361 1290 1468 1475 1276 1559 1369 1340 1421 1352 1348 1531 1312 1507 1356 1493 1387 1384 1162 1551 1450 1457 1459 1562 1280 1469 1344 1296 1518 1349 1179 1331 1522 1431 1269 1089 1484 1487 1347 1280 1521 1252

Tree=0
num_leaves=10
num_cat=0
split_feature=47 9 52 30 79 41 103 15 57
split_gain=925.895 549.49 273.229 235.148 49.488 34.7029 28.5421 11.606 0.6753
threshold=0.48638290490404351 -0.021037182279137086 0.54972848987453926 -0.035421564133813137 0.13016676377319381 0.25093985340445096 -2.0722693351424755 0.43897004552459934 0.024416312690326542
decision_type=2 2 2 2 2 2 2 2 2
left_child=1 3 -3 -1 -2 6 -5 8 -6
right_child=4 2 -4 5 7 -7 -8 -9 -10
leaf_value=-1.8500010931532824 -1.8350239335717973 -1.85461873159785 -1.673752222460295 -1.6663883066455427 -1.6429983869939513 -1.6324550456061007 -1.772353309943457 -1.6172739168027577 -1.7078755445451839
leaf_weight=5.7565169334411612 0.83949205279350181 37.417360067367554 8.3455387949943525 5.0440069735050175 9.6083042025566119 31.526807248592377 6.0598628520965585 136.74549838900566 10.504232645034788
leaf_count=48 7 312 17 7 10 35 33 106 35
internal_value=-1.66861 -1.74427 -1.81926 -1.67487 -1.62422 -1.65102 -1.71519 -1.62299 -1.66979
internal_weight=251.848 94.1501 45.7629 48.3872 157.698 42.6307 11.1039 156.858 20.1125
internal_count=610 452 329 123 158 75 40 151 45
is_linear=0
shrinkage=1


Tree=1
num_leaves=9
num_cat=0
split_feature=47 4 101 108 28 57 0 53
split_gain=639.426 626.377 122.903 83.3829 147.715 21.6947 12.5726 10.4181
threshold=0.48638290490404351 0.96426324433407407 0.044586665567016494 1.4469293239683936 0.30999240321072108 0.020193987035777312 -0.26737159620994938 -0.11075552129127587
decision_type=2 2 2 2 2 2 2 2
left_child=1 3 -3 4 -1 -2 -7 -8
right_child=5 2 -4 -5 -6 6 7 -9
leaf_value=-0.029916316934275305 -0.0095512904578557815 -0.033828065807799651 0.08757542056575858 0.16771816535180356 0.14051367287082123 0.17759844919426457 0.099524222823184627 0.15480120415325899
leaf_weight=6.612377122044566 0.49188242852687736 37.84275558590889 8.3069615364074689 34.675493732094765 11.809123978018759 111.09866118431091 11.56009793281555 57.476668521761894
leaf_count=55 4 319 30 29 19 53 32 69
internal_value=0.132655 0.0703927 -0.0105179 0.139667 0.0807931 0.166272 0.166819 0.147141
internal_weight=279.874 99.2467 46.1497 53.097 18.4215 180.627 180.135 69.0368
internal_count=610 452 349 103 74 158 154 101
is_linear=0
shrinkage=0.03


Tree=2
num_leaves=7
num_cat=0
split_feature=47 108 52 67 1 37
split_gain=470.024 380.373 308.113 64.0028 15.6507 2.70691
threshold=0.48638290490404351 1.4469293239683936 0.54972848987453926 -0.17102661559579216 0.33142212031108015 0.045395843250400199
decision_type=2 2 2 2 2 2
left_child=1 2 3 -1 -2 -6
right_child=4 -3 -4 -5 5 -7
leaf_value=0.078459808735225386 0.066220556403096431 0.13466374256059882 0.12566391750732325 -0.033820026165322675 0.13053724303849859 0.15386453886084381
leaf_weight=4.1475627869367591 4.7370610907673827 41.373118557035923 16.36536717414856 41.991879791021347 68.941980481147766 127.29141028225422
leaf_count=13 15 52 27 360 88 55
internal_value=0.118031 0.0652302 0.0178268 -0.022213 0.14485 0.146388
internal_weight=304.848 103.878 62.5048 46.1394 200.97 196.233
internal_count=610 452 400 373 158 143
is_linear=0
shrinkage=0.03


Tree=3
num_leaves=10
num_cat=0
split_feature=26 82 15 47 29 117 11 36 73
split_gain=373.425 254.66 145.407 97.3585 225.345 70.784 67.221 65.8626 96.8711
threshold=7.5000000000000009 -0.29038132670563022 0.73561529332712527 0.48638290490404351 0.89378957318422081 0.54294711616808222 1.3583973153252549 -0.01419624830142424 -0.04006740532584941
decision_type=2 2 2 2 2 2 2 2 2
left_child=1 6 -2 4 7 -6 -1 -3 -9
right_child=2 3 -4 -5 5 -7 -8 8 -10
leaf_value=-0.032484235682817754 -0.033789814189076471 0.13687301805299548 0.12009257694624874 0.13471323280862516 -0.032233820067729603 0.10889938774248548 0.10592789340736271 0.11382232630086621 -0.029528743426785839
leaf_weight=12.705456458032129 22.28253643959761 46.981178604066372 6.2459387779235831 201.88180860877037 14.366768002510073 3.0382064953446379 3.1031227111816397 10.25644423812628 6.2151373252272597
leaf_count=103 178 29 2 105 124 2 1 13 53
internal_value=0.106642 0.11652 0.0027252 0.123049 0.0925989 -0.00285637 -0.00045073 0.118467 0.0609665
internal_weight=327.077 298.548 28.5285 282.74 80.8577 17.405 15.8086 63.4528 16.4716
internal_count=610 430 180 326 221 126 104 95 66
is_linear=0
shrinkage=0.03


Tree=4
num_leaves=9
num_cat=0
split_feature=74 26 15 47 47 9 28 28
split_gain=313.262 231.911 121.829 93.6116 171.558 64.7145 116.788 2.17524
threshold=1.6142945289611819 7.5000000000000009 0.73561529332712527 0.48638290490404351 0.46900628178413389 -0.021037182279137086 0.35374437000329356 0.28387480446599755
decision_type=2 2 2 2 2 2 2 2
left_child=1 3 -3 4 5 7 -7 -1
right_child=-2 2 -4 -5 -6 6 -8 -9
leaf_value=0.082646196336684422 -0.032765565028703619 -0.033217043544334524 0.11038295381619227 0.12130352880088359 -0.031152575357626715 -0.030984103613081571 0.11017660861553667 0.12020957117121651
leaf_weight=13.147852316498755 15.397573485970495 16.349381700158123 6.6724805831909171 220.84055755287409 10.130327582359312 9.0493807569146174 10.507209502160547 44.669377990067005
leaf_count=32 129 131 2 107 90 78 13 28
internal_value=0.0975151 0.103658 0.0111405 0.110498 0.0821304 0.0972087 0.0463819 0.113269
internal_weight=346.764 331.367 23.0219 308.345 87.5041 77.3738 19.5566 57.8172
internal_count=610 481 133 348 241 151 91 60
is_linear=0
shrinkage=0.03


Tree=5
num_leaves=9
num_cat=0
split_feature=74 26 15 95 21 20 0 0
split_gain=270.544 192.641 111.058 75.4119 174.099 16.1277 27.226 70.9006
threshold=1.6142945289611819 7.5000000000000009 0.73561529332712527 -0.097290592492085104 0.43668716070741481 0.025364699068790294 0.037847001112830576 -0.24904297714365201
decision_type=2 2 2 2 2 2 2 2
left_child=1 3 -3 4 -1 -5 7 -7
right_child=-2 2 -4 5 -6 6 -8 -9
leaf_value=-0.032221638122123746 -0.032562494561052924 -0.033003450303145374 0.1022823655709023 0.10980253498586949 0.10109407813641003 0.1005139297381448 0.10305109846099537 -0.030199808239186096
leaf_weight=12.268769048154352 15.040428049862383 15.973691105842592 7.0578367710113517 254.9649293422699 26.885714061558247 7.1454679965972883 18.725115485489368 6.1811542809009552
leaf_count=104 129 131 2 152 25 2 15 50
internal_value=0.0900041 0.0953696 0.0108601 0.101276 0.0594837 0.106741 0.0797101 0.0418007
internal_weight=364.243 349.203 23.0315 326.171 39.1545 287.017 32.0517 13.3266
internal_count=610 481 133 348 129 219 67 52
is_linear=0
shrinkage=0.03


Tree=6
num_leaves=8
num_cat=0
split_feature=74 15 89 18 5 4 41
split_gain=236.849 116.46 248.978 83.457 48.2948 19.5189 89.6788
threshold=1.6142945289611819 0.42321168955222915 48.447618525021959 3.0632089552238813 0.060243015674283619 0.95240915399168713 0.39090903410244965
decision_type=2 2 2 2 2 2 2
left_child=1 2 -1 5 -5 -4 -7
right_child=-2 -3 3 4 -6 6 -8
leaf_value=-0.033055699808233141 -0.032364203231404938 0.10116092137424348 0.10285497034241166 -0.030899840808880412 0.086295022306035821 0.0054047649518485525 0.10427407116356585
leaf_weight=19.42185316234827 14.690028116106985 236.7739166021347 61.103007547557354 8.6906103044748289 3.7011681869626036 13.07352029532194 22.281079813838005
leaf_count=168 129 111 33 76 3 79 11
internal_value=0.0837094 0.0884642 0.0644031 0.0819625 0.00770989 0.0912938 0.0689508
internal_weight=379.735 365.045 128.271 108.849 12.3918 96.4576 35.3546
internal_count=610 481 370 202 79 123 90
is_linear=0
shrinkage=0.03


Tree=7
num_leaves=9
num_cat=0
split_feature=82 47 4 101 11 28 73 28
split_gain=210.451 90.8172 206.469 100.231 55.2546 4.40652 4.29564 3.62978
threshold=-0.29038132670563022 0.48638290490404351 0.96426324433407407 0.044586665567016494 1.3583973153252549 0.30999240321072108 -0.030373216547356249 0.16747772190520471
decision_type=2 2 2 2 2 2 2 2
left_child=4 2 5 -4 -1 6 -2 -8
right_child=1 -3 3 -5 -6 -7 7 -9
leaf_value=-0.033169305997046504 0.086481958597442871 0.09333278467296105 -0.032978414378186161 0.080605420566213698 0.080084223478560174 0.094052613571256619 0.068662674402197921 0.027969814613152861
leaf_weight=18.34413351863623 7.9988946616649654 264.82949928939342 24.973385073244572 8.5666878595948202 3.8549325466155997 52.355820193886757 4.4275439232587797 7.8662954792380333
leaf_count=157 6 132 228 15 1 30 7 34
internal_value=0.078387 0.0837441 0.0591548 -0.00238662 -0.0107689 0.0872543 0.0659803 0.0469133
internal_weight=393.217 371.018 106.189 33.5401 22.1991 72.6486 20.2927 12.2938
internal_count=610 452 320 243 158 77 47 41
is_linear=0
shrinkage=0.03


Tree=8
num_leaves=10
num_cat=0
split_feature=82 26 15 11 95 21 36 47 51
split_gain=185.466 126.321 87.2844 52.1476 36.8827 119.44 9.66566 48.9749 75.101
threshold=-0.29038132670563022 7.5000000000000009 0.73561529332712527 1.3583973153252549 -0.097290592492085104 0.43668716070741481 -0.01419624830142424 0.48748787861854892 23.887056350708011
decision_type=2 2 2 2 2 2 2 2 2
left_child=3 4 -3 -1 5 -2 -6 8 -8
right_child=1 2 -4 -5 6 -7 7 -9 -10
leaf_value=-0.032970291139122462 -0.031957516101291952 -0.032979445008037879 0.083959968999433629 0.076211833648398619 0.090952485230796284 0.082873453653063284 0.07677739800410216 0.087313874545213818 -0.031213717087964207
leaf_weight=17.913760960102085 10.378657147288321 14.851513504981996 8.0157492160797101 3.9781320095062247 225.82480336725712 30.223317429423332 13.407034657895567 71.458803176879883 8.9179554879665357
leaf_count=157 90 124 2 1 81 25 18 35 77
internal_value=0.0738243 0.078668 0.0096864 -0.0105365 0.0829999 0.0533857 0.0865744 0.0751523 0.0340218
internal_weight=404.97 383.078 22.8673 21.8919 360.211 40.602 319.609 93.7838 22.325
internal_count=610 452 126 158 326 115 211 130 95
is_linear=0
shrinkage=0.03


Tree=9
num_leaves=10
num_cat=0
split_feature=82 26 49 11 95 21 46 11 80
split_gain=164.944 110.719 81.2563 49.323 31.7632 108.323 8.1459 34.0497 66.6149
threshold=-0.29038132670563022 7.5000000000000009 0.14386573943777953 1.3583973153252549 -0.097290592492085104 0.43668716070741481 50.691178876421041 0.38419105777155887 0.023528231107882911
decision_type=2 2 2 2 2 2 2 2 2
left_child=3 4 -3 -1 5 -2 -6 8 -8
right_child=1 2 -4 -5 6 -7 7 -9 -10
leaf_value=-0.032776166524109286 -0.03174220484529594 -0.032767003682385665 0.079584298874102274 0.072745351847074508 0.084931072393515314 0.078005647214124854 0.073512682425473638 0.081794704485987815 -0.031101207582962323
leaf_weight=17.491571158170704 10.145890615880488 14.511002093553545 8.2539377212524396 4.0885663032531729 251.36428105831146 31.192871317267418 13.516373559832575 56.388640023767948 8.0261775106191617
leaf_count=157 90 124 2 1 102 25 12 28 69
internal_value=0.0698756 0.0742971 0.00947695 -0.010315 0.0782342 0.0508855 0.0814939 0.0694339 0.0347526
internal_weight=414.979 393.399 22.7649 21.5801 370.634 41.3388 329.295 77.9312 21.5426
internal_count=610 452 126 158 326 115 211 109 81
is_linear=0
shrinkage=0.03


Tree=10
num_leaves=11
num_cat=0
split_feature=82 58 29 56 6 55 5 25 100 0
split_gain=147.762 59.3614 102.647 54.6678 49.5208 46.7425 38.4764 10.6158 28.0935 1.59352
threshold=-0.29038132670563022 0.28653334320465568 0.97689034036886435 1.3814046824433659 -0.33841544926395883 0.74175220602157677 0.065522715510059074 -0.037647224852486526 0.69199820614333307 -0.23350542749973371
decision_type=2 2 2 2 2 2 2 2 2 2
left_child=5 2 3 7 -4 -1 -5 -2 -9 -3
right_child=1 9 4 6 -6 -7 -8 8 -10 -11
leaf_value=-0.032586656174290685 0.080234652565496667 0.081115733975773041 0.07417829291490817 -0.032515368886170209 -0.032565739510663036 0.069626149569737589 0.069810576615115028 0.079009215509534783 0.011905852078718773 0.069468752512774748
leaf_weight=17.077572003006939 61.420582659542561 203.44065755605698 4.0429873466491726 8.1396179273724538 16.476093724370003 4.186819076538085 4.1810646057128897 12.697310902178289 10.416567400097845 81.4683528393507
leaf_count=157 38 62 1 64 153 1 1 4 53 76
internal_value=0.0664055 0.0704721 0.0515476 0.0643497 -0.00892425 -0.0101035 0.00461801 0.0728646 0.0506405 0.0780505
internal_weight=423.548 402.283 117.374 96.8551 20.5191 21.2644 12.3207 84.5345 23.1139 284.909
internal_count=610 452 314 160 154 158 65 95 57 138
is_linear=0
shrinkage=0.03


Tree=11
num_leaves=8
num_cat=0
split_feature=26 55 95 118 58 4 16
split_gain=133.424 80.8295 63.1961 147.558 13.2477 29.596 86.7563
threshold=7.5000000000000009 0.48441255434074237 -0.097290592492085104 0.0072552173076604618 0.28653334320465568 0.95485340012015618 0.025510879064805064
decision_type=2 2 2 2 2 2 2
left_child=2 -2 3 -1 5 -4 -7
right_child=1 -3 4 -5 -6 6 -8
leaf_value=-0.033307755584837735 -0.0330555566982981 0.072068602591397898 0.073511315668676455 0.072527214517792316 0.07630335689732276 -0.032789559838051457 0.067056056905750783
leaf_weight=17.695819482207298 19.69456205517054 8.6530437469482404 59.419388294219971 32.078287608921528 258.48424144089222 10.573276042938231 24.309538044035435
leaf_count=159 178 2 36 25 90 87 33
internal_value=0.0633229 0.000293418 0.0677422 0.0349265 0.0722518 0.0604308 0.036638
internal_weight=430.908 28.3476 402.561 49.7741 352.786 94.3022 34.8828
internal_count=610 180 430 184 246 156 120
is_linear=0
shrinkage=0.03


Tree=12
num_leaves=11
num_cat=0
split_feature=82 47 36 40 11 25 73 7 0 0
split_gain=124.666 49.5637 90.011 86.9969 42.297 9.69289 21.944 19.9847 0.913044 1.96734
threshold=-0.29038132670563022 0.48638290490404351 -0.01419624830142424 0.62014610917683333 1.3583973153252549 -0.015718155067344319 0.052397116504519455 1.2954444680009389 -0.26737159620994938 -0.1148376782455121
decision_type=2 2 2 2 2 2 2 2 2 2
left_child=4 2 5 -4 -1 -2 7 -7 -3 -10
right_child=1 8 3 -5 -6 6 -8 -9 9 -11
leaf_value=-0.03242283919367854 0.071998060272727607 0.073910851128177774 -0.032670879646362255 0.058800076217112612 0.063892115123752216 -0.029239492562577744 0.068209517278399592 0.046467590373563732 0.046851774422483013 0.067196062131165676
leaf_weight=16.595171287655834 55.028692238032818 192.30180951952934 20.662182629108429 15.47733587771654 4.3593225479125968 5.1315894052386302 13.81974110752344 5.4557988196611404 17.138614669442177 90.98298542201519
leaf_count=157 32 48 199 27 1 44 9 9 24 60
internal_value=0.0605736 0.0641644 0.0465763 0.00695071 -0.0102515 0.0642563 0.0445366 0.0101577 0.0707437 0.0644576
internal_weight=436.953 415.999 115.575 36.1395 20.9545 79.4358 24.4071 10.5874 300.423 108.122
internal_count=610 452 320 226 158 94 62 53 132 84
is_linear=0
shrinkage=0.03


Tree=13
num_leaves=8
num_cat=0
split_feature=82 26 15 11 47 4 67
split_gain=113.594 78.0124 64.5365 40.2895 20.2643 72.5044 75.3944
threshold=-0.29038132670563022 7.5000000000000009 0.73561529332712527 1.3583973153252549 0.49741274751147063 0.96517975331594308 -0.062200068865724094
decision_type=2 2 2 2 2 2 2
left_child=3 4 -3 -1 5 -2 -7
right_child=1 2 -4 -5 -6 6 -8
leaf_value=-0.032241207679354483 0.066865812239798081 -0.032589515370862902 0.066119412858615112 0.061587323962237775 0.069261903906272584 0.058299934765515475 -0.032132562155588011
leaf_weight=16.199615769088272 85.64738043397665 13.900265760719778 8.9385643005371076 4.4231977462768546 281.55545461177826 15.454303555190565 15.780220955610273
leaf_count=157 53 124 2 1 97 24 152
internal_value=0.058113 0.0614733 0.00706996 -0.0100605 0.0645587 0.0527124 0.0129393
internal_weight=441.899 421.276 22.8388 20.6228 398.437 116.882 31.2345
internal_count=610 452 126 158 326 229 176
is_linear=0
shrinkage=0.03


Tree=14
num_leaves=11
num_cat=0
split_feature=82 47 89 25 25 19 79 7 41 79
split_gain=103.967 40.5955 108.696 38.4257 25.0432 69.1166 1.47161 0.878952 4.94022 0.599382
threshold=-0.29038132670563022 0.48638290490404351 48.447618525021959 -0.48293753681998491 -0.018588362215106787 -0.18374533797979317 0.1906179449244203 1.0853928651757174 0.31601175586305613 0.14777165843287351
decision_type=2 2 2 2 2 2 2 2 2 2
left_child=3 2 -2 -1 7 -6 9 8 -4 -3
right_child=1 6 4 -5 5 -7 -8 -9 -10 -11
leaf_value=0.059476624104045972 -0.031609561786106515 0.062650230188662004 0.034110161066542785 -0.032063434764953755 0.06143157347815726 -0.031501058504506955 0.066804041192391472 0.070095314238549825 0.064261087460860788 0.046386579761317256
leaf_weight=4.4773893356323269 14.582810118794439 28.920325458049774 13.158133327960966 15.812153473496435 19.453800559043884 10.299269437789919 250.93184910714626 40.931570671498775 18.921012230217457 28.182279258966446
leaf_count=1 149 17 30 157 16 96 82 15 14 33
internal_value=0.0558964 0.0590564 0.0432061 -0.00987709 0.0540541 0.0291864 0.0649256 0.0636163 0.0533896 0.0556116
internal_weight=445.671 425.381 117.347 20.2895 102.764 29.7531 308.034 73.0107 32.0791 57.1026
internal_count=610 452 320 158 171 112 132 59 44 50
is_linear=0
shrinkage=0.03


Tree=15
num_leaves=10
num_cat=0
split_feature=26 15 58 99 73 23 45 9 9
split_gain=98.2311 65.7994 36.1873 62.2358 44.8051 49.7948 37.3856 0.126507 0.686565
threshold=7.5000000000000009 0.73561529332712527 0.28653334320465568 -0.29038132670563022 -0.024038650709952866 -0.0029089971908574665 -0.25377464948424605 -0.047800258258492927 0.042142952636371918
decision_type=2 2 2 2 2 2 2 2 2
left_child=2 -2 3 -1 7 -6 -7 -5 -9
right_child=1 -3 -4 4 5 6 -8 8 -10
leaf_value=-0.030579215389411593 -0.032831308240740112 0.061342939425350629 0.063261795849180416 0.067448040079308685 0.06039225483053122 0.057046846035354933 -0.033064288516473729 0.041546086438287499 0.060794366922302598
leaf_weight=8.9025048241019231 18.606066741049293 9.1249074935913068 298.79543514549732 41.07549874484539 14.280540749430655 4.5330209732055655 15.601783469319345 17.930873148143291 19.762268394231796
leaf_count=90 178 2 122 10 7 1 146 32 22
internal_value=0.0538805 -0.000682234 0.0574757 0.0428916 0.0489139 0.0194701 -0.010896 0.0613354 0.0530257
internal_weight=448.613 27.731 420.882 122.086 113.184 34.4153 20.1348 78.7686 37.6931
internal_count=610 180 430 308 218 154 147 64 54
is_linear=0
shrinkage=0.03


Tree=16
num_leaves=10
num_cat=0
split_feature=82 28 47 89 4 116 79 79 41
split_gain=89.215 35.0763 34.6021 95.998 32.4942 40.9647 1.41176 0.67883 0.563001
threshold=-0.29038132670563022 1.2495753215677479 0.48638290490404351 48.447618525021959 0.96426324433407407 0.14431975933176608 0.1906179449244203 0.14777165843287351 0.25093985340445096
decision_type=2 2 2 2 2 2 2 2 2
left_child=1 -1 3 -2 8 -6 7 -4 -5
right_child=2 -3 6 4 5 -7 -8 -9 -10
leaf_value=-0.031810856821077718 -0.031406442382962287 0.055575031131702313 0.058219439751522384 0.04405748005184066 -0.030676505054126883 0.052186628478610934 0.062033495391307758 0.042881962863735759 0.061128320996170077
leaf_weight=15.16869503259659 14.063252314925192 4.5622854232788077 29.445062875747681 17.284807734191418 9.026408366858961 10.637706145644186 254.49961647391319 28.592522919178009 67.345717661082745
leaf_count=157 149 1 17 29 88 19 82 33 35
internal_value=0.0520451 -0.00975428 0.0548979 0.0402999 0.0502039 0.014361 0.0602704 0.0515685 0.0582321
internal_weight=450.626 19.731 430.895 118.358 104.295 19.6641 312.537 58.0376 84.6305
internal_count=610 158 452 320 171 107 132 50 64
is_linear=0
shrinkage=0.03


Tree=17
num_leaves=10
num_cat=0
split_feature=95 111 56 56 80 5 61 11 25
split_gain=64.8762 135.082 21.408 65.4527 11.4546 3.13429 14.7959 18.7826 2.15482
threshold=-0.097290592492085104 20.000000000000004 1.4796500771604941 2.1570598399529963 0.021867537448574975 -0.010504734039465296 0.39958818341812458 0.37725053767596778 0.10849730099951292
decision_type=2 2 2 2 2 2 2 2 2
left_child=1 -1 4 -4 -2 -6 7 -7 -5
right_child=2 -3 3 8 5 6 -8 -9 -10
leaf_value=-0.033696567385328703 0.0192008365341758 0.057829368461360206 -0.033910997747724339 0.037953060391934745 0.060964614244316206 0.0011946421664464158 0.057768248040874555 0.056631211120181518 0.059113565274942687
leaf_weight=23.850113093852997 8.3386331051588041 34.082245387136936 9.3043539673089963 18.02910553663969 241.10838578641415 12.039238154888155 72.408029399812222 9.3784432560205442 23.418967023491859
leaf_count=241 35 24 72 38 94 63 33 3 7
internal_value=0.0503491 0.0201658 0.054717 0.0350954 0.057499 0.0583835 0.0511462 0.0270466 0.0510908
internal_weight=451.958 57.9324 394.025 50.7524 343.273 334.934 93.8257 21.4177 41.4481
internal_count=610 265 345 117 228 193 99 66 45
is_linear=0
shrinkage=0.03


Tree=18
num_leaves=9
num_cat=0
split_feature=82 11 0 119 47 11 8 87
split_gain=78.5861 32.2426 30.984 55.881 141.123 6.67615 17.0332 37.3858
threshold=-0.29038132670563022 1.3583973153252549 -0.24904297714365201 3.6708208955223887 0.69468552371236791 0.37725053767596778 -0.038573285724221022 0.3517387860425561
decision_type=2 2 2 2 2 2 2 2
left_child=1 -1 -2 5 -5 6 -4 -8
right_child=2 -3 3 4 -6 -7 7 -9
leaf_value=-0.031614636469009659 0.059199333229522304 0.05221735485372804 0.053536301831931435 -0.035293683674744634 0.053913396145237241 0.060070726669823916 -0.032735006976074982 0.051562516495124347
leaf_weight=14.694278478622438 229.99657289683819 4.61263084411621 45.514571145176888 25.440167859196663 39.459398448467255 75.390066541731358 7.1457915455102947 10.457129195332525
leaf_count=157 67 1 39 229 19 24 56 18
internal_value=0.0487734 -0.0098534 0.0514086 0.0423384 0.0188944 0.0530877 0.0438932 0.017261
internal_weight=452.711 19.3069 433.404 203.407 64.8996 138.508 63.1175 17.6029
internal_count=610 158 452 385 248 137 113 74
is_linear=0
shrinkage=0.03


Tree=19
num_leaves=9
num_cat=0
split_feature=26 15 95 21 58 14 79 28
split_gain=78.3751 55.3338 35.034 82.0532 7.08964 33.9145 40.9477 2.01095
threshold=7.5000000000000009 0.73561529332712527 -0.097290592492085104 0.43668716070741481 0.28653334320465568 0.049939818224454507 0.078785485765956412 0.30851382636095942
decision_type=2 2 2 2 2 2 2 2
left_child=2 -2 3 -1 5 7 -7 -4
right_child=1 -3 4 -5 -6 6 -8 -9
leaf_value=-0.032465792604567105 -0.032690645966128778 0.053948708581367404 0.038777153958296673 0.050101223261405439 0.056594972206631664 0.049128612620705087 -0.034407697951237846 0.057184178048331008
leaf_weight=14.491816721856592 17.751474730670456 9.2643680572509748 18.044696092605591 35.864833056926727 274.91075420379639 9.8174097985029238 9.3299673274159414 62.838939845561981
leaf_count=152 178 2 39 32 90 5 75 37
internal_value=0.0473645 -0.00200774 0.0505052 0.0261119 0.0536952 0.0452147 0.00858742 0.053638
internal_weight=452.314 27.0158 425.298 50.3566 374.942 100.031 19.1474 80.8836
internal_count=610 180 430 184 246 156 80 76
is_linear=0
shrinkage=0.03


Tree=20
num_leaves=9
num_cat=0
split_feature=26 15 95 52 58 14 7 28
split_gain=72.8401 52.842 32.573 93.4325 6.85549 31.2578 40.7923 1.9892
threshold=7.5000000000000009 0.73561529332712527 -0.097290592492085104 0.30370451323011421 0.28653334320465568 0.049939818224454507 1.3313596305293507 0.30851382636095942
decision_type=2 2 2 2 2 2 2 2
left_child=2 -2 3 -1 5 7 -7 -4
right_child=1 -3 4 -5 -6 6 -8 -9
leaf_value=-0.033442783222509917 -0.032509038878028904 0.052518703140352313 0.0373818486470959 0.052771226919226019 0.054962637227813652 -0.034354127721392409 0.049373648827512495 0.055323208907514076
leaf_weight=15.780706733465193 17.327124707400802 9.2584104537963849 18.191697157919407 34.344344884157181 274.61619675904512 9.3190547972917575 9.6447761058807355 63.03450134396553
leaf_count=160 178 2 39 24 90 76 4 37
internal_value=0.0460372 -0.00195895 0.0490446 0.0254468 0.0521164 0.0438194 0.00841869 0.051845
internal_weight=451.517 26.5855 424.931 50.1251 374.806 100.19 18.9638 81.2262
internal_count=610 180 430 184 246 156 80 76
is_linear=0
shrinkage=0.03


Tree=21
num_leaves=9
num_cat=0
split_feature=82 28 0 95 85 73 47 13
split_gain=66.5939 28.6591 26.5023 45.2872 48.7973 20.6475 71.2973 3.06161
threshold=-0.29038132670563022 1.2495753215677479 -0.24904297714365201 -0.097290592492085104 4.7697255611419687 -0.01626970103021352 0.49741274751147063 -1.0000000180025095e-35
decision_type=2 2 2 2 2 2 2 2
left_child=1 -1 -2 4 -4 -5 -7 -8
right_child=2 -3 3 5 -6 6 7 -9
leaf_value=-0.031418887497470856 0.054426296213897912 0.048009051894190316 0.049999088180286894 0.052438762592406714 -0.033366213975189928 -0.032254719426368102 0.052953193631059638 0.034727804479352559
leaf_weight=14.006395578384401 228.99255894124508 4.6310849189758292 9.5990266203880328 107.85220617055893 14.648776322603224 12.561380840837954 28.42370742559433 29.369789004325867
leaf_count=157 67 1 5 62 152 120 9 37
internal_value=0.0448113 -0.01009 0.0472077 0.0388008 0.000190165 0.0440073 0.0304862 0.0444906
internal_weight=450.085 18.6375 431.447 202.455 24.2478 178.207 70.3549 57.7935
internal_count=610 158 452 385 157 228 166 46
is_linear=0
shrinkage=0.03


Tree=22
num_leaves=10
num_cat=0
split_feature=82 11 15 29 3 70 38 13 28
split_gain=62.3375 27.5371 25.4986 58.6675 30.7743 17.9601 35.3448 8.79479 22.8668
threshold=-0.29038132670563022 1.3583973153252549 0.44330549531948021 0.99459085184592488 0.8139767944928864 -0.11897334206913042 -2.042728969090255 -0.058348097283402393 0.38419008319207265
decision_type=2 2 2 2 2 2 2 2 2
left_child=1 -1 3 5 -5 7 -7 -2 -9
right_child=2 -3 -4 4 -6 6 -8 8 -10
leaf_value=-0.031255480239610008 0.054756177610605222 0.046878032313479957 0.051804500111334431 0.048673402066743282 -0.0330264029726519 0.048228199501440937 -0.033830542962894436 0.0085040864713404763 0.049380475468553821
leaf_weight=13.667585209012033 66.258837625384331 4.6247444152832022 268.76250165700912 4.6323146820068386 14.912435896694658 9.8258686214685458 7.4203417897224417 18.715311661362648 39.261886641383171
leaf_count=157 29 1 92 1 158 7 58 83 24
internal_value=0.043675 -0.00993999 0.0459817 0.0359848 -0.01209 0.0426853 0.0128381 0.0466691 0.0366042
internal_weight=448.082 18.2923 429.789 161.027 19.5448 141.482 17.2462 124.236 57.9772
internal_count=610 158 452 360 159 201 65 136 107
is_linear=0
shrinkage=0.03


Tree=23
num_leaves=11
num_cat=0
split_feature=26 55 78 58 36 42 20 25 24 35
split_gain=63.4168 47.1941 21.9875 54.3788 9.3579 34.6489 32.3601 2.28791 7.34497 0.284128
threshold=7.5000000000000009 0.48441255434074237 0.97260055768714315 0.54142245302064229 -0.01419624830142424 27.921341896057132 -0.033693097705849301 -0.0053458559796073909 0.11014580285069801 0.18333333333333338
decision_type=2 2 2 2 2 2 2 2 2 2
left_child=2 -2 4 -4 9 7 -7 -6 -9 -1
right_child=1 -3 3 -5 5 6 -8 8 -10 -11
leaf_value=0.044422024706168066 -0.032437869756398112 0.048688976188991595 -0.032357217565136306 0.049792055741642055 0.050888326401830143 0.038720388563275983 -0.032691385956047474 0.018494301269752093 0.047755237124149162 0.052523181842012302
leaf_weight=61.355528876185417 16.669977813959125 9.1634106636047346 10.756595954298975 18.173524379730225 67.572680100798607 10.67502272129059 10.173467651009558 14.545154422521589 23.974736467003822 202.68417052179575
leaf_count=52 178 2 106 4 38 17 106 42 11 54
internal_value=0.0426028 -0.00280734 0.0454036 0.0190871 0.0472896 0.039569 0.00383483 0.0464619 0.0375297 0.0508267
internal_weight=445.744 25.8334 419.911 28.9301 390.981 126.941 20.8485 106.093 38.5199 264.04
internal_count=610 180 430 110 320 214 123 91 53 106
is_linear=0
shrinkage=0.03


Tree=24
num_leaves=9
num_cat=0
split_feature=74 42 15 89 18 67 4 74
split_gain=42.4976 42.6102 25.3618 85.8955 26.497 40.5907 3.44553 24.4002
threshold=1.1690378189086916 11.365885257720949 0.44330549531948021 48.447618525021959 2.9890728177295345 -0.10216259410591093 0.95240915399168713 0.51527414321899423
decision_type=2 2 2 2 2 2 2 2
left_child=2 -2 3 -1 6 -6 -5 -8
right_child=1 -3 -4 4 5 -7 7 -9
leaf_value=-0.033087804878158468 0.047721843012843414 -0.032089952317588613 0.049535154968996194 0.049974712787345901 0.0499171871452566 -0.033247672420016486 -7.4009515994678818e-06 0.052352871602167589
leaf_weight=14.903737053275107 9.3893493264913577 13.310411788523195 265.28876197338104 85.689798936247826 9.2989856824278849 9.8486168682575208 11.724726565182207 23.524298414587975
leaf_count=160 3 147 92 36 3 98 61 10
internal_value=0.0416023 0.00141683 0.0437571 0.0335938 0.0408936 0.00746516 0.0460569 0.035334
internal_weight=442.979 22.6998 420.279 154.99 140.086 19.1476 120.939 35.249
internal_count=610 150 460 368 208 101 107 71
is_linear=0
shrinkage=0.03


Tree=25
num_leaves=9
num_cat=0
split_feature=26 3 95 118 15 42 25 90
split_gain=57.4338 43.7623 24.6811 75.5942 5.82559 18.7649 9.20993 27.5388
threshold=7.5000000000000009 0.73136147574863941 -0.097290592492085104 0.0072552173076604618 0.43897004552459934 7.7956547737121591 -0.037647224852486526 -0.25158211735543284
decision_type=2 2 2 2 2 2 2 2
left_child=2 -2 3 -1 5 -4 -7 -8
right_child=1 -3 4 -5 -6 6 7 -9
leaf_value=-0.033252995978313826 0.04657490860706763 -0.032296846477535217 -0.026422108950336823 0.046607330549684481 0.0492525534792135 0.047149395732155312 0.046318975617520547 -0.0059180929339443513
leaf_weight=14.508033834397791 9.0483984947204608 16.105500161647797 3.0689024627208701 33.761201970279217 237.54500998556614 87.640218883752823 24.230862960219383 13.722808398306368
leaf_count=159 2 178 27 25 69 53 13 84
internal_value=0.0406742 -0.00311428 0.0433399 0.0223555 0.0460293 0.0397212 0.0415571 0.0276877
internal_weight=439.631 25.1539 414.477 48.2692 366.208 128.663 125.594 37.9537
internal_count=610 180 430 184 246 177 150 97
is_linear=0
shrinkage=0.03


Tree=26
num_leaves=10
num_cat=0
split_feature=82 11 0 95 85 56 62 25 15
split_gain=51.5571 23.805 22.1046 35.1729 40.4038 21.5517 35.0766 5.92266 22.3076
threshold=-0.29038132670563022 1.3583973153252549 -0.24904297714365201 -0.097290592492085104 4.7697255611419687 1.4796500771604941 1.0396485348113558 -0.037647224852486526 0.44330549531948021
decision_type=2 2 2 2 2 2 2 2 2
left_child=1 -1 -2 4 -4 7 -7 -5 -9
right_child=2 -3 3 5 -6 6 -8 8 -10
leaf_value=-0.031003495992336223 0.048590125153840522 0.042675435013647921 0.044276062711719487 0.047647224759185938 -0.033193703921693914 -0.033289435686198132 0.038402592854783861 -0.0021405534805874929 0.043866581926305402
leaf_weight=12.786968383938076 221.54548566788435 4.5442090034484854 9.4193452075123805 99.395969979465008 13.474712811410425 8.8882193528115767 15.298627115786074 12.20522929728031 38.478284239768982
leaf_count=157 67 1 5 50 152 77 13 69 19
internal_value=0.0397915 -0.0102472 0.0418894 0.0341375 -0.000675555 0.0387059 0.0116623 0.0429383 0.0329024
internal_weight=436.037 17.3312 418.706 197.16 22.8941 174.266 24.1868 150.079 50.6835
internal_count=610 158 452 385 157 228 90 138 88
is_linear=0
shrinkage=0.03


Tree=27
num_leaves=10
num_cat=0
split_feature=26 15 95 52 58 60 79 25 19
split_gain=52.111 40.5752 21.8273 69.4025 5.84387 14.1643 17.9709 8.81953 12.0132
threshold=7.5000000000000009 0.73561529332712527 -0.097290592492085104 0.30370451323011421 0.28653334320465568 0.9685910920774512 0.18711143064675784 -0.037647224852486526 -0.16273825646472709
decision_type=2 2 2 2 2 2 2 2 2
left_child=2 -2 3 -1 5 6 -4 -7 -9
right_child=1 -3 4 -5 -6 7 -8 8 -10
leaf_value=-0.032961342731001445 -0.032099695919326633 0.044692207127785648 -0.032233148098600978 0.044724522192925859 0.046699141613322601 0.045746132781926532 0.040939158662001693 0.043941046764090899 -0.00057361941543931569
leaf_weight=13.940343879163263 15.530340019613506 8.8982810974121076 5.3839382603764516 33.265227042138577 262.7763469144702 67.048423252999783 4.7282889187335968 9.6439706161618215 10.874646794050934
leaf_count=160 178 2 41 24 90 39 2 6 68
internal_value=0.0389654 -0.00335224 0.0415106 0.0215129 0.0440544 0.036508 0.00231609 0.0403519 0.021279
internal_weight=432.09 24.4286 407.661 47.2056 360.456 97.6793 10.1122 87.567 20.5186
internal_count=610 180 430 184 246 156 43 113 74
is_linear=0
shrinkage=0.03


Tree=28
num_leaves=10
num_cat=0
split_feature=26 3 95 52 15 42 29 11 9
split_gain=49.116 38.9777 20.5704 66.0705 5.98769 16.573 13.6032 34.698 2.12664
threshold=7.5000000000000009 0.73136147574863941 -0.097290592492085104 0.30370451323011421 0.43897004552459934 7.7956547737121591 0.89617615416478158 0.44172488222131112 -0.052185508010454455
decision_type=2 2 2 2 2 2 2 2 2
left_child=2 -2 3 -1 5 -4 8 -8 -7
right_child=1 -3 4 -5 -6 6 7 -9 -10
leaf_value=-0.032771474200610509 0.043859838287503346 -0.031927905088516749 -0.026019586565005168 0.043688331169398055 0.046389828719939623 0.047575571312058827 -0.032656108566608243 0.042712333650285865 0.034694064666849898
leaf_weight=13.611249145120381 8.8153634071350115 15.15651875734329 2.9679705724120131 33.059387728571892 230.78713789582253 63.993972063064575 7.6665115952491769 14.235247492790222 37.632544957101345
leaf_count=160 2 178 27 24 69 22 71 8 49
internal_value=0.0381798 -0.00329745 0.0406507 0.0211066 0.0431292 0.0368397 0.0385709 0.0159253 0.0432193
internal_weight=427.926 23.9719 403.954 46.6706 357.283 126.496 123.528 21.9018 101.627
internal_count=610 180 430 184 246 177 150 79 71
is_linear=0
shrinkage=0.03


Tree=29
num_leaves=10
num_cat=0
split_feature=82 11 0 103 24 14 103 119 47
split_gain=45.077 21.4266 20.1545 36.2288 47.3512 16.628 28.4976 5.52881 13.1327
threshold=-0.29038132670563022 1.3583973153252549 -0.24904297714365201 -1.0000000180025095e-35 0.1135808444500095 0.049939818224454507 8.3472842339106617 3.6708208955223887 0.86492314932401626
decision_type=2 2 2 2 2 2 2 2 2
left_child=1 -1 -2 4 -4 7 -7 -5 -9
right_child=2 -3 3 5 -6 6 -8 8 -10
leaf_value=-0.030769186705145311 0.045923679234853125 0.040127917205891685 -0.03738836950674463 0.044679408806643665 0.037382328030538356 -0.031666416679869087 0.033438024257217279 0 0.044467547724661105
leaf_weight=12.114396966993811 214.72201133519411 4.4399242401123038 13.97802120447159 112.25271756201982 14.520116116851566 7.499172147363427 20.406002350151539 10.044241815805437 13.376107797026632
leaf_count=157 67 1 132 74 13 79 25 58 4
internal_value=0.0374482 -0.0103807 0.0394226 0.0319392 0.000582216 0.0373472 0.015348 0.0417046 0.026078
internal_weight=423.353 16.5543 406.798 192.076 28.4981 163.578 27.9052 135.673 23.4203
internal_count=610 158 452 385 145 240 104 136 62
is_linear=0
shrinkage=0.03


Tree=30
num_leaves=10
num_cat=0
split_feature=26 15 95 114 15 39 29 11 36
split_gain=45.176 36.3145 18.6146 61.0178 5.96889 12.3683 11.6753 32.0248 4.97661
threshold=7.5000000000000009 0.73561529332712527 -0.097290592492085104 0.014968087884221911 0.43897004552459934 0.94460031301834879 0.89617615416478158 0.44172488222131112 -0.01419624830142424
decision_type=2 2 2 2 2 2 2 2 2
left_child=2 -2 3 -1 5 -4 8 -8 -7
right_child=1 -3 4 -5 -6 6 7 -9 -10
leaf_value=-0.032557128397400908 -0.031740383584818725 0.042280009470968161 -0.024884124687546152 0.04203920526044333 0.04477150656645662 0.045495742362165963 -0.032564868034257038 0.040947911272320746 0.028145530424792772
leaf_weight=13.103371933102606 14.672907035797836 8.6263933181762678 2.3023645132780066 32.439415730535984 225.49524874985218 71.972518526017666 7.331326238811017 14.0152323320508 28.850284717977047
leaf_count=159 178 2 18 25 69 25 69 8 57
internal_value=0.0367337 -0.00359928 0.0391203 0.0202738 0.0414996 0.0352386 0.0365888 0.0152388 0.0408856
internal_weight=418.809 23.2993 395.51 45.5428 349.967 124.472 122.169 21.3466 100.823
internal_count=610 180 430 184 246 177 159 77 82
is_linear=0
shrinkage=0.03


Tree=31
num_leaves=9
num_cat=0
split_feature=82 20 0 119 61 41 33 25
split_gain=41.0491 19.9812 19.0194 31.5943 84.8686 5.30567 14.188 17.2344
threshold=-0.29038132670563022 -0.19897158723049593 -0.24904297714365201 3.6708208955223887 0.52704196955137783 0.29546365155743176 2.4963551432187714 -0.14148956830404263
decision_type=2 2 2 2 2 2 2 2
left_child=1 -1 -2 5 -5 6 7 -4
right_child=2 -3 3 4 -6 -7 -8 -9
leaf_value=0.038662723612867107 0.044366121225965914 -0.03056981351307805 0.038141664791798216 -0.035226133121156168 0.038888556318039946 0.043547569227413208 0.037743436547556256 -0.034043936442747474
leaf_weight=4.3562726974487296 209.44510269910097 11.62343333289027 4.3218760490417463 20.978670723736286 36.947514578700066 86.054887570440769 34.367438122630119 5.7468666918575764
leaf_count=1 67 157 1 228 20 54 32 50
internal_value=0.0360729 -0.010354 0.0379663 0.0306398 0.0118538 0.0388027 0.0287917 -0.00214159
internal_weight=413.842 15.9797 397.862 188.417 57.9262 130.491 44.4362 10.0687
internal_count=610 158 452 385 248 137 83 51
is_linear=0
shrinkage=0.03


Tree=32
num_leaves=9
num_cat=0
split_feature=26 3 15 29 3 9 11 19
split_gain=41.0561 33.7193 17.4516 46.9979 22.6424 7.69372 42.1405 2.72593
threshold=7.5000000000000009 0.73136147574863941 0.43897004552459934 0.99459085184592488 0.8139767944928864 -0.047800258258492927 0.34260989077114262 0.058958301743896165
decision_type=2 2 2 2 2 2 2 2
left_child=2 -2 3 5 -5 -1 -7 -8
right_child=1 -3 -4 4 -6 6 7 -9
leaf_value=0.042262326312856494 0.040863464850615053 -0.03149108107055159 0.042767843247836557 0.03909362102606357 -0.032600920381516213 -0.033766389271958928 0.024861900801417793 0.043947440524850445
leaf_weight=71.844034444540739 8.4178614616394061 14.065674934536217 243.12597578763962 4.3828325271606472 14.38417289406061 8.1494235135614854 17.291354022920132 27.031143978238106
leaf_count=39 2 178 86 1 176 74 41 13
internal_value=0.0354469 -0.00368718 0.0377365 0.0289289 -0.014575 0.0355842 0.0257651 0.0372807
internal_weight=408.692 22.4835 386.209 143.083 18.767 124.316 52.4719 44.3225
internal_count=610 180 430 344 177 167 128 54
is_linear=0
shrinkage=0.03


Tree=33
num_leaves=10
num_cat=0
split_feature=82 11 0 103 24 56 8 11 9
split_gain=37.4979 18.6585 18.0191 31.5883 41.9189 18.4118 28.2882 4.76691 10.7442
threshold=-0.29038132670563022 1.3583973153252549 -0.24904297714365201 -1.0000000180025095e-35 0.1135808444500095 1.4796500771604941 -0.10103974902439893 0.37725053767596778 -0.060328129850772898
decision_type=2 2 2 2 2 2 2 2 2
left_child=1 -1 -2 4 -4 7 -7 8 -5
right_child=2 -3 3 5 -6 6 -8 -9 -10
leaf_value=-0.030368418365239389 0.042991661087464127 0.037340337678981948 -0.037452007271479765 0.04316921554433327 0.034618772147762447 0.040087746785552478 -0.033556166535821268 0.04296352869144187 0.015457842391648699
leaf_weight=11.141741640865801 203.80395950376987 4.2639207839965811 13.142816163599493 26.423651538789272 13.930019374936817 8.6667693033814448 8.1211845353245717 86.528997175395489 27.372175492346287
leaf_count=157 67 1 132 11 13 4 88 36 101
internal_value=0.0348503 -0.0103116 0.0366732 0.029471 -0.00034973 0.0345983 0.00441012 0.0381319 0.0296634
internal_weight=403.395 15.4057 387.99 184.186 27.0728 157.113 16.788 140.325 53.7958
internal_count=610 158 452 385 145 240 92 148 112
is_linear=0
shrinkage=0.03


Tree=34
num_leaves=10
num_cat=0
split_feature=26 15 15 29 3 16 73 101 8
split_gain=37.6625 31.4204 16.5117 44.9129 21.4604 7.11492 22.6534 18.4732 0.118854
threshold=7.5000000000000009 0.73561529332712527 0.44330549531948021 0.99459085184592488 0.8139767944928864 1.0000000180025095e-35 -0.024038650709952866 0.104449137777693 -0.020739885855998116
decision_type=2 2 2 2 2 2 2 2 2
left_child=2 -2 3 5 -5 6 -1 -8 -7
right_child=1 -3 -4 4 -6 8 7 -9 -10
leaf_value=0.036611075154082018 -0.031269690878514632 0.039584453713720436 0.041582324656992568 0.037736073519070767 -0.032706094876069916 0.043196515980721939 -0.034600972024887829 0.036168505173921686 0.033278963365546615
leaf_weight=32.565377980470657 13.530745550990106 8.1941933631896955 231.91513603180647 4.2933225631713894 14.081627350300549 50.602721385657787 8.3376701548695547 4.1675958633422843 30.431618545204401
leaf_count=31 178 2 83 1 177 19 73 1 45
internal_value=0.0342703 -0.00384709 0.0364827 0.0280467 -0.0149942 0.0344105 0.0237174 -0.00986195 0.0399597
internal_weight=398.12 21.7249 376.395 144.48 18.3749 126.105 45.0706 12.5053 81.0343
internal_count=610 180 430 347 178 169 105 74 64
is_linear=0
shrinkage=0.03


Tree=35
num_leaves=11
num_cat=0
split_feature=26 3 47 29 28 9 67 25 0 20
split_gain=35.7582 30.2724 14.3203 35.7293 32.0308 10.7576 20.3747 17.8286 0.989533 0.158921
threshold=7.5000000000000009 0.73136147574863941 0.49741274751147063 0.89378957318422081 0.40520008556379233 -0.047800258258492927 -0.075323744608302087 -0.17747905268351702 -0.24904297714365201 -0.030455081024529897
decision_type=2 2 2 2 2 2 2 2 2 2
left_child=2 -2 3 5 -5 -1 -7 -8 -4 -10
right_child=1 -3 8 4 -6 6 7 -9 9 -11
leaf_value=0.041702597489583063 0.039009714254361831 -0.031110187484818773 0.042235821780831934 -0.032612229969548247 0.036119070871167544 0.041964069869503302 0.035925207523671322 -0.033565040036664169 0.038487738053633321 0.030211390096418784
leaf_weight=63.868724051862955 8.0819048881530779 13.202209841459988 162.4719023257494 14.70185746997595 8.981593690812586 13.469793222844602 4.1458072662353507 8.429451607167719 56.943054780364037 38.29989343136549
leaf_count=30 2 178 46 188 12 6 1 80 29 38
internal_value=0.0337286 -0.00379422 0.0358919 0.0264598 -0.00601807 0.0350197 0.0175846 -0.00947575 0.0399195 0.0355392
internal_weight=392.596 21.2841 371.312 113.597 23.6835 89.9138 26.0451 12.5753 257.715 95.2429
internal_count=610 180 430 317 200 117 87 81 113 67
is_linear=0
shrinkage=0.03


Tree=36
num_leaves=9
num_cat=0
split_feature=26 15 15 29 3 42 9 20
split_gain=33.9922 29.1754 15.4846 41.0288 20.1491 8.11619 4.53172 15.5468
threshold=7.5000000000000009 0.73561529332712527 0.44330549531948021 0.99459085184592488 0.8139767944928864 12.75315570831299 -0.047800258258492927 -0.036517660807572717
decision_type=2 2 2 2 2 2 2 2
left_child=2 -2 3 5 -5 -1 -7 -8
right_child=1 -3 -4 4 -6 6 7 -9
leaf_value=0.0035732664626903976 -0.03095289565689046 0.038460431256442246 0.040356621391966878 0.03658098728532138 -0.032471344044259887 0.040261647726007647 0.040635049817863256 0.003845078470759922
leaf_weight=8.2554745152592641 12.881156440824272 7.9674232006072989 225.1565366089344 4.2031130790710476 13.500735748559235 71.799701325595379 25.502139233052731 17.637750942260027
leaf_count=38 178 2 83 1 177 35 12 84
internal_value=0.0332203 -0.00374262 0.0353382 0.0270697 -0.0148378 0.0331872 0.0352392 0.0260893
internal_weight=386.904 20.8486 366.055 140.899 17.7038 123.195 114.94 43.1399
internal_count=610 180 430 347 178 169 131 96
is_linear=0
shrinkage=0.03


Tree=37
num_leaves=10
num_cat=0
split_feature=82 26 3 3 15 29 109 16 96
split_gain=32.6115 23.5573 25.2056 16.4748 8.85656 18.5251 22.0917 7.10174 18.5078
threshold=-0.29038132670563022 7.5000000000000009 0.73136147574863941 0.75634856100047942 0.44330549531948021 0.97689034036886435 -0.043808221465625831 1.0000000180025095e-35 -1.7905368804931638
decision_type=2 2 2 2 2 2 2 2 2
left_child=3 4 -3 -1 5 7 -7 8 -2
right_child=1 2 -4 -5 -6 6 -8 -9 -10
leaf_value=0.034983063969367324 0.035491272930857715 0.03793476888743981 -0.030490796288587706 -0.030158028668397958 0.040120319623755132 0.031586714377040699 -0.031861834269270591 0.03921895858128694 -0.0088323850108479405
leaf_weight=4.0554332733154288 26.459363803267479 7.8511104583740261 9.7026378475129587 10.429206367582081 216.43843249976635 9.1757069677114504 8.5931401811540109 77.020965717732906 11.634716019034384
leaf_count=1 18 2 124 157 75 10 110 46 67
internal_value=0.0327098 0.0344539 0.000346716 -0.0106446 0.0361534 0.0294183 0.000679962 0.0337844 0.0219975
internal_weight=381.361 366.876 17.5537 14.4846 349.322 132.884 17.7688 115.115 38.0941
internal_count=610 452 126 158 326 251 120 131 85
is_linear=0
shrinkage=0.03


Tree=38
num_leaves=11
num_cat=0
split_feature=82 0 103 24 6 56 8 69 54 32
split_gain=31.0598 16.0458 27.8158 36.9803 15.9294 15.3147 24.8551 4.84628 6.06611 1.2526
threshold=-0.29038132670563022 -0.24904297714365201 -1.0000000180025095e-35 0.1135808444500095 -0.50323380807698115 1.4796500771604941 -0.10103974902439893 0.02644987535612536 0.032907604382893897 0.96576240353408627
decision_type=2 2 2 2 2 2 2 2 2 2
left_child=4 -2 3 -3 -1 7 -7 9 -9 -4
right_child=1 2 5 -5 -6 6 -8 8 -10 -11
leaf_value=0.0344932173258845 0.040149288972312021 -0.038049847408268681 0.041038617418871291 0.031826355447074635 -0.030005786370836573 0.0375874957251024 -0.033581797201735528 0.032221906018522775 0 0.030526753262523791
leaf_weight=4.0046052932739249 188.46390070766211 12.204206220805647 73.840159960091114 13.083127994090317 10.176552999764679 8.1893130987882596 7.4965856522321692 13.120229706168177 8.3140922300517541 36.781417425721884
leaf_count=1 67 132 33 13 157 4 88 16 47 52
internal_value=0.0322241 0.0339337 0.0269546 -0.00194784 -0.010522 0.0319015 0.00342041 0.0352108 0.0202515 0.0378751
internal_weight=375.674 361.493 173.029 25.2873 14.1812 147.742 15.6859 132.056 21.4343 110.622
internal_count=610 452 385 145 158 240 92 148 63 85
is_linear=0
shrinkage=0.03


Tree=39
num_leaves=9
num_cat=0
split_feature=26 55 95 52 36 47 25 41
split_gain=29.7758 26.2853 14.3867 47.5098 5.01211 13.6933 25.8919 0.312744
threshold=7.5000000000000009 0.48441255434074237 -0.097290592492085104 0.30370451323011421 -0.01419624830142424 0.48748787861854892 -0.080162277646831342 0.3009511288552556
decision_type=2 2 2 2 2 2 2 2
left_child=2 -2 3 -1 7 6 -6 -4
right_child=1 -3 4 -5 5 -7 -8 -9
leaf_value=-0.032990197181962153 -0.030587377916796093 0.036913174594753115 0.034146042419380962 0.036557662913343926 0.032839272869743322 0.035518013213086688 -0.030274805709624028 0.040738296521895298
leaf_weight=11.616492774337528 12.077831849455835 7.605564832687377 66.872365821152925 28.911329220980406 13.904996342957022 75.024168346077204 8.6413184218108636 145.41595263779163
leaf_count=160 178 2 51 24 12 42 98 43
internal_value=0.0317488 -0.00383679 0.0337616 0.0162365 0.0359846 0.0293983 0.00826372 0.0388456
internal_weight=370.07 19.6834 350.387 40.5278 309.859 97.5705 22.5463 212.288
internal_count=610 180 430 184 246 152 110 94
is_linear=0
shrinkage=0.03


Tree=40
num_leaves=10
num_cat=0
split_feature=82 26 15 3 15 29 109 13 36
split_gain=28.873 20.7541 22.7244 15.0092 8.66753 16.8249 20.133 6.94627 14.1022
threshold=-0.29038132670563022 7.5000000000000009 0.73561529332712527 0.75634856100047942 0.44330549531948021 0.97689034036886435 -0.043808221465625831 -0.058348097283402393 -0.025793416937251675
decision_type=2 2 2 2 2 2 2 2 2
left_child=3 4 -3 -1 5 7 -7 -2 -9
right_child=1 2 -4 -5 -6 6 -8 8 -10
leaf_value=0.033545023784335631 0.039755438783777658 -0.030086405637533883 0.036450230774476226 -0.029859905143988827 0.038618764887442612 0.029884430335723966 -0.031809386305407486 0.033244411498363935 0
leaf_weight=3.8986186981201163 56.533697992563248 9.1391315869987029 7.4856131076812735 9.8122516609728319 205.91045843064785 8.8603162840008753 8.2046580947935563 38.174649693071842 16.256932523101568
leaf_count=1 31 124 2 157 75 10 110 28 72
internal_value=0.0313022 0.0329739 7.10666e-05 -0.0105724 0.0345979 0.0278587 0 0.032088 0.0234967
internal_weight=364.276 350.565 16.6247 13.7109 333.941 128.03 17.065 110.965 54.4316
internal_count=610 452 126 158 326 251 120 131 100
is_linear=0
shrinkage=0.03


Tree=41
num_leaves=11
num_cat=0
split_feature=26 15 15 18 67 60 13 8 13 46
split_gain=27.0039 24.48 14.0126 21.7361 28.6807 12.5659 13.3455 7.95538 26.9834 0.453671
threshold=7.5000000000000009 0.73561529332712527 0.44330549531948021 2.9419293239683939 -0.10216259410591093 0.97101859178381722 1.2030428637115851 -0.021189289640730639 -1.0000000180025095e-35 48.657739994924661
decision_type=2 2 2 2 2 2 2 2 2 2
left_child=2 -2 3 5 -5 6 -1 -7 -9 -4
right_child=1 -3 9 4 -6 7 -8 8 -10 -11
leaf_value=-0.030783267259486942 -0.030288470701541705 0.03600492237057016 0.039615143091649208 0.035950597795819765 -0.034488750047476278 0.037359411879987425 0.034299731562355121 0.035045193286302546 -0.033084862695783659 0.032724881218153971
leaf_weight=5.5671995989978296 11.499154500663282 7.3650431632995597 147.1194117218256 8.0911852419376391 11.154242031276224 79.556137837469578 3.9837949275970459 17.698917131870989 6.3323406465351573 60.185004010796547
leaf_count=53 178 2 45 6 143 48 1 22 74 38
internal_value=0.0308643 -0.00374531 0.0328004 0.0247307 -0.0044134 0.0297098 -0.00267435 0.0327214 0.0163682 0.0377959
internal_weight=358.552 18.8642 339.688 132.384 19.2454 113.138 9.55099 103.587 24.0313 207.304
internal_count=610 180 430 347 149 198 54 144 96 83
is_linear=0
shrinkage=0.03


Tree=42
num_leaves=11
num_cat=0
split_feature=82 0 103 24 6 14 33 119 47 41
split_gain=26.597 14.988 25.3675 33.5545 14.1231 12.5381 20.5645 4.26512 9.63178 0.622015
threshold=-0.29038132670563022 -0.24904297714365201 -1.0000000180025095e-35 0.1135808444500095 -0.50323380807698115 0.049939818224454507 2.8740499936739696 3.6708208955223887 0.86492314932401626 0.29546365155743176
decision_type=2 2 2 2 2 2 2 2 2 2
left_child=4 -2 3 -3 -1 7 -7 9 -9 -4
right_child=1 2 5 -5 -6 6 -8 8 -10 -11
leaf_value=0.032684214594213751 0.038320975197371161 -0.038470531925657268 0.029790773897360848 0.029895537180185155 -0.029666378141340499 -0.0325320292544512 0.026404169115919102 -0.0038690298013269822 0.036730554613318749 0.039724729749447581
leaf_weight=3.7936625480651847 175.71095959097147 11.50936943665147 30.987055543810129 12.355343990027903 9.3946488872170431 6.5119153410196331 17.443850688636303 8.7077622413635272 11.22781255841255 64.944526053965092
leaf_count=1 67 132 46 13 157 78 26 58 4 28
internal_value=0.0304615 0.0320874 0.0251856 -0.00317626 -0.0104801 0.0300359 0.00960166 0.0341167 0.0195158 0.0368873
internal_weight=352.587 339.399 163.688 23.8647 13.1883 139.823 23.9558 115.867 19.9356 95.9316
internal_count=610 452 385 145 158 240 104 136 62 74
is_linear=0
shrinkage=0.03


Tree=43
num_leaves=10
num_cat=0
split_feature=26 15 15 29 81 25 39 46 13
split_gain=25.2609 22.9904 13.4368 31.5472 16.446 7.42622 32.737 0.548201 0.114971
threshold=7.5000000000000009 0.73561529332712527 0.44330549531948021 0.99459085184592488 -0.28767419474809025 -0.038220070658174225 1.0386003106182711 48.657739994924661 -1.0000000180025095e-35
decision_type=2 2 2 2 2 2 2 2 2
left_child=2 -2 3 5 -5 8 -7 -4 -1
right_child=1 -3 7 4 -6 6 -8 -9 -10
leaf_value=0.03926648837453002 -0.03011948868584283 0.035131106372471362 0.038804323714697588 0.033082871880551049 -0.032014067806404652 -0.032753777617714724 0.032538701114573444 0.031781756638697367 0.030433888900186414
leaf_weight=34.382895417511463 11.106583431363108 7.1135900020599356 141.66572818160057 3.8433029651641837 11.916150592267511 8.1226622164249402 28.297782003879547 58.521870508790016 41.929168190807104
leaf_count=16 178 2 45 1 177 84 25 38 44
internal_value=0.0300496 -0.00398564 0.0319518 0.0239405 -0.014933 0.0294847 0.0174105 0.0369345 0.0349087
internal_weight=346.9 18.2202 328.68 128.492 15.7595 112.733 36.4204 200.188 76.3121
internal_count=610 180 430 347 178 169 109 83 60
is_linear=0
shrinkage=0.03


Tree=44
num_leaves=12
num_cat=0
split_feature=82 26 3 3 36 47 40 35 11 61 24
split_gain=24.6461 17.7541 19.904 13.3185 7.32628 18.4736 24.8282 2.48958 4.69417 3.59822 1.70615
threshold=-0.29038132670563022 7.5000000000000009 0.73136147574863941 0.75634856100047942 -0.01419624830142424 0.48748787861854892 0.62014610917683333 0.18333333333333338 0.39920333238870287 0.24207094509003466 0.10483050008528814
decision_type=2 2 2 2 2 2 2 2 2 2 2
left_child=3 4 -3 -1 7 6 -6 8 9 -2 -7
right_child=1 2 -4 -5 5 10 -8 -9 -10 -11 -12
leaf_value=0.031878196973935152 0.029661818430303827 0.034733080421735694 -0.029569308337439013 -0.029492138990672365 -0.031157391417697793 0.024959116672640617 0.027782297677319174 0.038180019167223515 0.036096670835049145 0.0039314118856790849 0.037264952387418775
leaf_weight=3.6879053115844718 8.3276785425841826 6.9925479888916007 8.4602681584656221 9.0218272395431978 10.318923261016609 30.184730812907219 13.886544920504091 165.48868894949555 29.227787081152201 11.71373066306114 43.74442632496357
leaf_count=1 8 2 124 157 143 28 23 62 13 33 16
internal_value=0.0296669 0.0312555 0 -0.0104395 0.032801 0.0253156 0.00229769 0.0360743 0.0283231 0.0156671 0.0326808
internal_weight=341.055 328.345 15.4528 12.7097 312.893 98.1346 24.2055 214.758 49.2692 20.0414 73.9292
internal_count=610 452 126 158 326 210 166 116 54 41 44
is_linear=0
shrinkage=0.03


Tree=45
num_leaves=11
num_cat=0
split_feature=82 26 45 6 0 14 14 103 25 61
split_gain=23.5559 16.9324 19.2158 12.8939 8.06152 18.161 19.6801 9.04485 5.00636 5.44952
threshold=-0.29038132670563022 7.5000000000000009 -0.19305825116514561 -0.50323380807698115 -0.24904297714365201 0.049939818224454507 0.14824370881102636 8.3472842339106617 -0.012151095668965257 0.4297096117590789
decision_type=2 2 2 2 2 2 2 2 2 2
left_child=3 4 -3 -1 -2 8 -7 -8 -6 -10
right_child=1 2 -4 -5 5 6 7 -9 9 -11
leaf_value=0.031490233366705464 0.037343377649157516 0.034348439381822415 -0.02940327289187996 -0.029342195893371711 0.036421914541101476 -0.035209518566687026 -0.0052108306311245689 0.032384039980394567 0.0055038082660068665 0.030213273315758047
leaf_weight=3.6344702243804923 158.46559277176857 6.8717546463012686 8.2614554762840253 8.8042929135262948 82.703570425510406 6.9679295346140888 8.4193886779248732 15.000623997300861 13.431687545031307 22.749242752790451
leaf_count=1 58 2 124 157 52 73 51 10 69 13
internal_value=0.0292928 0.0308555 0 -0.0103238 0.0323742 0.0268655 0.00581545 0.0190861 0.0321277 0.0215156
internal_weight=335.31 322.871 15.1332 12.4388 307.738 149.272 30.3879 23.42 118.885 36.1809
internal_count=610 452 126 158 326 268 134 61 134 82
is_linear=0
shrinkage=0.03


Tree=46
num_leaves=10
num_cat=0
split_feature=82 26 3 3 15 29 118 16 66
split_gain=22.5076 16.1408 18.5553 12.4848 8.25358 14.0724 18.1187 6.49703 15.5098
threshold=-0.29038132670563022 7.5000000000000009 0.73136147574863941 0.75634856100047942 0.44330549531948021 0.97689034036886435 0.0043952686966034224 1.0000000180025095e-35 0.29018428764515974
decision_type=2 2 2 2 2 2 2 2 2
left_child=3 4 -3 -1 5 7 -7 8 -2
right_child=1 2 -4 -5 -6 6 -8 -9 -10
leaf_value=0.031113484761262827 0.030166933652058487 0.033976323684134606 -0.029238705913240626 -0.02919302875355733 0.036092057611810398 -0.031846085244426739 0.028826946916690466 0.034697323022177082 -0.012853484889662892
leaf_weight=3.5810434818267813 24.251636408269405 6.7513804435729972 8.0672818198800069 8.5921208485960943 184.74512401223183 7.7478123828768712 7.9680850245058537 67.982750497758389 9.9715337082743627
leaf_count=1 27 2 124 157 75 110 10 46 58
internal_value=0.0289177 0.0304547 0 -0.0102095 0.0319466 0.0251779 -0.00102065 0.0292063 0.0175379
internal_weight=329.659 317.486 14.8187 12.1732 302.667 117.922 15.7159 102.206 34.2232
internal_count=610 452 126 158 326 251 120 131 85
is_linear=0
shrinkage=0.03


Tree=47
num_leaves=10
num_cat=0
split_feature=26 15 15 89 18 70 14 4 46
split_gain=20.9734 20.0335 12.578 42.8312 15.5015 22.3032 3.07026 5.44533 0.840191
threshold=7.5000000000000009 0.73561529332712527 0.44330549531948021 48.447618525021959 2.9890728177295345 -0.26777239531552338 0.049939818224454507 0.86692214254927535 48.657739994924661
decision_type=2 2 2 2 2 2 2 2 2
left_child=2 -2 3 -1 6 -6 -5 -8 -4
right_child=1 -3 8 4 5 -7 7 -9 -10
leaf_value=-0.033119785791898559 -0.029545299653118591 0.033615949732395387 0.037381784410260813 0.035523167792835736 0.035249816451145354 -0.033692212665859742 0.035264984713246697 0.0054347215788082834 0.029882198015027752
leaf_weight=10.513787783682345 10.070847261697056 6.6315793991088858 130.86849318444729 73.594892993569374 7.1472637653350795 7.7663016095757502 10.613779321312906 11.831663489341734 54.97652705013752
leaf_count=142 178 2 45 52 2 102 4 45 38
internal_value=0.0285534 -0.00381579 0.030329 0.0223948 0.0279309 -0.000324663 0.0323076 0.020571 0.0353511
internal_weight=324.015 16.7024 307.313 121.468 110.954 14.9136 96.0403 22.4454 185.845
internal_count=610 180 430 347 205 104 101 49 83
is_linear=0
shrinkage=0.03


Tree=48
num_leaves=10
num_cat=0
split_feature=26 3 15 89 18 3 9 2 46
split_gain=20.0374 19.3618 12.2426 41.1127 14.7482 21.516 3.25568 13.9827 0.917767
threshold=7.5000000000000009 0.73136147574863941 0.44330549531948021 48.447618525021959 2.9890728177295345 0.82761134609886944 -0.047800258258492927 -0.084053244422002599 48.657739994924661
decision_type=2 2 2 2 2 2 2 2 2
left_child=2 -2 3 -1 6 -6 -5 -8 -4
right_child=1 -3 8 4 5 -7 7 -9 -10
leaf_value=-0.032908664966756325 0.033266590283785175 -0.029402918557060384 0.037047322020915187 0.036549536418494732 0.034847737591232601 -0.033447274044993397 -0.0088849311420723318 0.033514519968464065 0.029417953061861974
leaf_weight=10.273847494274376 6.5124926567077663 9.8245925493538362 128.13880522549152 59.051288545131683 7.0262095928192121 7.598347183316946 8.7267067767679674 26.923395611345768 54.196444503962994
leaf_count=142 2 178 45 30 2 102 46 25 38
internal_value=0.0282142 -0.00376993 0.0299615 0.022076 0.0275218 -0.000313355 0.03181 0.0230946 0.0349688
internal_weight=318.272 16.3371 301.935 119.6 109.326 14.6246 94.7014 35.6501 182.335
internal_count=610 180 430 347 205 104 101 71 83
is_linear=0
shrinkage=0.03


Tree=49
num_leaves=11
num_cat=0
split_feature=82 26 3 3 0 103 24 25 15 2
split_gain=20.3898 14.0612 16.7182 11.5145 8.05272 15.4142 28.2967 5.576 14.5364 0.186769
threshold=-0.29038132670563022 7.5000000000000009 0.73136147574863941 0.75634856100047942 -0.24904297714365201 -1.0000000180025095e-35 0.1135808444500095 -0.014019995818507503 0.44330549531948021 -0.13889371636084352
decision_type=2 2 2 2 2 2 2 2 2 2
left_child=3 4 -3 -1 -2 6 -6 9 -9 -7
right_child=1 2 -4 -5 5 7 -8 8 -10 -11
leaf_value=0.030065077743882316 0.035982196740488158 0.032927557103429435 -0.028747459920728129 -0.029015724739108149 -0.041281379589975402 0.036904161731217938 0.030407242608595429 -0.0097028810101934346 0.031368885182016942 0.028967259022073543
leaf_weight=3.4247376918792716 146.2853530049324 6.3942480087280256 7.5058737564831972 8.129743739962576 7.7119919843971756 40.880903922021389 10.489564292132853 11.166767738759516 21.26424640417099 49.225975688546896
leaf_count=1 58 2 124 157 85 17 7 97 12 50
internal_value=0.0278911 0.0293953 0 -0.0102653 0.0308175 0.0252122 -0.000378984 0.02901 0.0172699 0.0329666
internal_weight=312.479 300.925 13.9001 11.5545 287.025 140.739 18.2016 122.538 32.431 90.1069
internal_count=610 452 126 158 326 268 92 176 109 67
is_linear=0
shrinkage=0.03


Tree=50
num_leaves=11
num_cat=0
split_feature=82 15 89 60 18 70 10 28 46 1
split_gain=19.5164 12.2425 41.4772 11.1553 10.7373 18.5716 3.25574 10.2075 0.873034 3.93314
threshold=-0.29038132670563022 0.44330549531948021 48.447618525021959 0.55342687346366903 2.9890728177295345 -0.26777239531552338 -1.0000000180025095e-35 0.38419008319207265 48.342829431922631 0.70410114109414834
decision_type=2 2 2 2 2 2 2 2 2 2
left_child=3 2 -2 -1 6 -6 -4 -8 -3 -10
right_child=1 8 4 -5 5 -7 7 -9 9 -11
leaf_value=0.029726596052270089 -0.032518556063511402 0.036199936609482515 0.036405129316562042 -0.028865890978790561 0.032979388308717481 -0.033581818145477567 0.0049796456097116731 0.034573753637728542 0.019231300609885326 0.036946091047656705
leaf_weight=3.3720068931579572 10.863183993846176 123.27608025074005 47.691832643002272 7.9349224213510752 6.9086878150701523 6.2092749141156656 17.696403495967388 27.280678242444992 27.384598515927792 28.283169031143188
leaf_count=1 167 49 30 157 4 81 66 12 34 9
internal_value=0.0275643 0.0290465 0.0210748 -0.0101528 0.0268594 0.0011137 0.030421 0.0233567 0.0340804 0.0287778
internal_weight=306.901 295.594 116.65 11.3069 105.787 13.118 92.6689 44.9771 178.944 55.6678
internal_count=610 452 360 158 193 85 108 78 92 43
is_linear=0
shrinkage=0.03


Tree=51
num_leaves=11
num_cat=0
split_feature=82 26 3 3 15 29 3 10 28 46
split_gain=18.6879 13.2556 15.8631 10.8087 7.60858 16.8272 11.8628 6.62502 15.6637 0.0850603
threshold=-0.29038132670563022 7.5000000000000009 0.73136147574863941 0.75634856100047942 0.44330549531948021 0.99459085184592488 0.8139767944928864 -1.0000000180025095e-35 0.38419008319207265 47.96950730625607
decision_type=2 2 2 2 2 2 2 2 2 2
left_child=3 4 -3 -1 5 7 -7 -2 -9 -6
right_child=1 2 -4 -5 9 6 -8 8 -10 -11
leaf_value=0.029396534988732015 0.035647826270202236 0.032324090440166327 -0.02860770183807167 -0.02871657577679226 0.036188165296734832 0.02975834835819563 -0.031235129244595389 -0.0012693550478575083 0.032145408698846932 0.030003257670743369
leaf_weight=3.3195939064025861 46.957864839583635 6.17681837081909 7.282496502622962 7.7449688203632832 111.14187709987164 3.3769979476928693 7.4509362746030092 20.383071482181549 31.174074701964855 56.365333884954453
leaf_count=1 29 2 124 157 41 1 115 84 22 34
internal_value=0.0272485 0.0287096 -0.000135488 -0.0100413 0.0301182 0.0234087 -0.0110513 0.0272994 0.019105 0.0343152
internal_weight=301.374 290.309 13.4593 11.0646 276.85 109.343 10.8279 98.515 51.5571 167.507
internal_count=610 452 126 158 326 251 116 135 106 75
is_linear=0
shrinkage=0.03


Tree=52
num_leaves=10
num_cat=0
split_feature=82 37 89 9 18 81 3 47 16
split_gain=17.8951 10.5177 15.9226 26.5451 10.7744 16.6058 10.4742 3.35968 1.07949
threshold=-0.29038132670563022 0.045395843250400199 48.190149253731349 -0.034451981338641462 3.0632089552238813 -0.24165637227685824 0.75634856100047942 0.29993861783820536 0.0083684356092756044
decision_type=2 2 2 2 2 2 2 2 2
left_child=6 2 3 -2 7 -6 -1 -4 -9
right_child=1 -3 4 -5 5 -7 -8 8 -10
leaf_value=0.029074432488976724 0.023062419817396054 0.034954433250690496 0.011605453193934429 -0.03549213281678508 0.030299254990709533 -0.036008596347901947 -0.028567722311750476 0.0243713511823009 0.034151158040488384
leaf_weight=3.2675466537475568 18.670080479234461 127.75824618339539 10.289682969450949 9.784369667991994 6.3982502669095993 5.2881204690784198 7.5597769916057587 30.71538570150733 76.209910370409489
leaf_count=1 32 54 34 138 5 63 157 68 58
internal_value=0.0269366 0.028377 0.0228308 0.00230455 0.0272862 0 -0.00993097 0.0300028 0.0316215
internal_weight=295.941 285.114 157.356 28.4545 128.901 11.6864 10.8273 117.215 106.925
internal_count=610 452 398 170 228 68 158 160 126
is_linear=0
shrinkage=0.03


Tree=53
num_leaves=11
num_cat=0
split_feature=15 89 29 3 10 28 42 46 3 24
split_gain=17.3002 41.9983 15.4854 10.8738 3.86651 12.2518 19.8753 1.30977 3.0354 1.91659
threshold=0.44330549531948021 48.447618525021959 0.99459085184592488 0.82761134609886944 -1.0000000180025095e-35 0.38419008319207265 27.921341896057132 48.342829431922631 0.76157650888908324 0.13832473076086246
decision_type=2 2 2 2 2 2 2 2 2 2
left_child=1 -1 4 -4 -3 6 -6 -2 -9 -10
right_child=7 2 3 -5 5 -7 -8 8 9 -11
leaf_value=-0.032117269883031097 0.035117765872439047 0.034144222908696814 0.02909516695462374 -0.030310942058541686 0.024360769983172891 0.032317017123862354 -0.035882841714250678 0.035922324875749354 0.011406632996274013 0.027284552722581821
leaf_weight=12.763449631631373 115.96558528766036 45.898056723177433 3.2709231376647931 6.9972859714180231 11.972689282149078 29.855757661163807 6.9439296536147586 23.700229644775391 16.574353791773319 16.850923240184784
leaf_count=231 53 44 1 116 26 19 69 8 28 15
internal_value=0.0266066 0.0174323 0.0237335 -0.0102183 0.0275157 0.0206568 0.00140455 0.032692 0.0271965 0.0200585
internal_weight=290.793 117.702 104.939 10.2682 94.6704 48.7724 18.9166 173.091 57.1255 33.4253
internal_count=610 506 275 117 158 114 95 104 51 43
is_linear=0
shrinkage=0.03


Tree=54
num_leaves=11
num_cat=0
split_feature=0 78 103 24 56 16 63 66 21 16
split_gain=17.6302 26.1113 22.5019 25.4421 6.45592 14.6841 2.73332 12.6454 0.685077 0.0851701
threshold=-0.24904297714365201 0.97182943535464605 -1.0000000180025095e-35 0.1135808444500095 1.4796500771604941 -0.13496368288974944 1.3784328358208957 0.55388267014353521 0.00064246861314858539 -0.051224271386815623
decision_type=2 2 2 2 2 2 2 2 2 2
left_child=9 2 3 -2 6 -6 8 -8 -4 -1
right_child=1 -3 4 -5 5 -7 7 -9 -10 -11
leaf_value=0.026967892243663895 -0.039463704151844491 -0.030498020166340709 0.027845800931960374 0.024950620229981558 0.032123997873205343 -0.032184261344287403 -0.010367379004379817 0.033757843281934069 0.037309565102547147 0.035274147450049274
leaf_weight=24.264661058783531 9.8976689074188489 8.2061218991875631 51.696866594254971 10.186775073409079 6.3396460860967636 4.6541700754314643 8.3226870037615317 15.509314134716986 31.786649942398071 114.5634499154985
leaf_count=24 140 150 70 12 4 75 67 7 10 51
internal_value=0.0263142 0.01879 0.0219319 -0.0070168 0.026889 0.00423581 0.0291215 0.0184305 0.0318836 0.0340471
internal_weight=285.428 146.6 138.394 20.0844 118.309 10.9938 107.316 23.832 83.4835 138.828
internal_count=610 535 385 152 233 79 154 74 80 75
is_linear=0
shrinkage=0.03


Tree=55
num_leaves=9
num_cat=0
split_feature=0 78 31 2 92 1 11 8
split_gain=17.1878 25.1151 19.456 12.0711 11.3068 19.1284 6.11213 9.97197
threshold=-0.24904297714365201 0.97182943535464605 0.0015044800395857929 -0.24466970701864302 4.6167989597467214 0.80216672879394813 0.37725053767596778 -0.038573285724221022
decision_type=2 2 2 2 2 2 2 2
left_child=-1 2 4 -4 6 -6 7 -2
right_child=1 -3 3 -5 5 -7 -8 -9
leaf_value=0.033741866795892118 0.027632197430678615 -0.030329582970931197 0.026616164045388663 -0.037525976195148102 -0.03802404369065198 0.032101156683303322 0.033605534334435881 -0.0020042747066393576
leaf_weight=135.96176249161363 31.686303935945027 8.0126258507370931 3.0435288995504379 6.9722215384244901 5.9053832497447711 6.0934209823608398 68.112929807975888 14.413367938250309
leaf_count=75 49 150 3 82 102 2 47 100
internal_value=0.0260186 0.0185357 0.0216318 -0.0171157 0.0248407 -0.00245127 0.0277303 0.0184566
internal_weight=280.202 144.24 136.227 10.0158 126.211 11.9988 114.213 46.0997
internal_count=610 535 385 85 300 104 196 149
is_linear=0
shrinkage=0.03


Tree=56
num_leaves=11
num_cat=0
split_feature=0 31 91 55 95 7 15 14 79 103
split_gain=16.7896 23.8166 15.2557 12.1804 11.6795 10.6016 8.59292 6.48579 13.1499 2.27315
threshold=-0.24904297714365201 0.0015044800395857929 0.022584209341292693 -0.4034144751984845 -0.097290592492085104 1.3313596305293507 0.71669493064118639 0.049939818224454507 0.18858201682594675 1.0000000180025095e-35
decision_type=2 2 2 2 2 2 2 2 2 2
left_child=-1 2 4 -3 6 -4 -2 9 -9 -6
right_child=1 3 5 -5 7 -7 -8 8 -10 -11
leaf_value=0.03343815563616459 -0.029377684247999511 0.026110138025757235 -0.034262544156510144 -0.03611225165061055 0.019191134013685138 0.027131010987497994 0.027108675769309337 -0.013740335057046868 0.031264753510390153 0.033713629736297074
leaf_weight=133.13272440433502 5.3486900310963374 3.011891219764947 6.2890066411346179 9.4487055912613851 18.039413217455149 2.9377968311309814 2.9338819980621338 9.4803898837417382 12.37375485152006 72.11873340792954
leaf_count=75 115 3 90 140 48 1 1 73 8 56
internal_value=0.0257154 0.0182698 0.0221024 -0.020027 0.0249618 -0.0136801 -0.00828084 0.027498 0.0118632 0.0310832
internal_weight=275.115 141.982 129.522 12.4606 120.295 9.2268 8.28257 112.012 21.8541 90.1581
internal_count=610 535 392 143 301 91 116 185 81 104
is_linear=0
shrinkage=0.03


Tree=57
num_leaves=9
num_cat=0
split_feature=0 78 63 47 41 19 48 66
split_gain=16.3618 23.3547 18.1227 44.8608 3.07824 8.25919 16.0558 0.302693
threshold=-0.24904297714365201 0.97182943535464605 1.3784328358208957 0.69468552371236791 0.29546365155743176 -0.070734310206553505 1.6764813143449853 0.41218247675046521
decision_type=2 2 2 2 2 2 2 2
left_child=7 2 4 -4 5 -2 -7 -1
right_child=1 -3 3 -5 -6 6 -8 -9
leaf_value=0.026414327064489946 0.031280820304182555 -0.030043208886820175 -0.03499127896218171 0.027207998495481344 0.033144471384102522 -0.034959147174315357 0.030108979549639543 0.034693718222440877
leaf_weight=28.192148242145777 19.212748613208536 7.6663724649697533 15.28641629219055 28.04178024828434 57.787257473915815 5.412630267441271 6.295014139264822 102.15718777477741
leaf_count=29 14 150 244 21 47 55 4 46
internal_value=0.0254274 0.0180248 0.0210432 0.00490176 0.0287513 0.0196657 -0.000120766 0.0331406
internal_weight=270.052 139.702 132.036 43.3282 88.7077 30.9204 11.7076 130.349
internal_count=610 535 385 265 120 73 59 75
is_linear=0
shrinkage=0.03


Tree=58
num_leaves=15
num_cat=0
split_feature=15 89 18 3 8 65 4 72 81 58 49 10 79 107
split_gain=15.6419 35.9981 13.4357 10.2307 4.53567 15.6265 2.92856 1.62841 2.47309 2.78412 4.59194 0.704965 0.752253 0.0713707
threshold=0.44330549531948021 48.447618525021959 3.0632089552238813 0.75634856100047942 -0.021444960712342202 56.899908152688745 1.0903483199492821 0.58191668190186396 -0.35010041795564145 0.48180780629909215 0.063784411739457897 -1.0000000180025095e-35 0.13275300163685522 0.35919534092394168
decision_type=2 2 2 2 2 2 2 2 2 2 2 2 2 2
left_child=1 -1 4 -4 11 -6 -7 8 -2 10 -10 -3 -13 -12
right_child=7 2 3 -5 5 6 -8 -9 9 -11 13 12 -14 -15
leaf_value=-0.031703042844744685 0.034291996000726889 0.034484130912749884 0.027513283508368496 -0.032899459329602636 -0.030704291348867725 0.010195937478939735 0.034340851698185237 0.034501138130005105 0.02990194835059547 0.031165685134175124 0.0010451894738090022 0.015514450607539159 0.029285002048063506 0.0055585824012222354
leaf_weight=11.672033382579682 25.036463975906372 33.996909080073237 3.0044460296630842 5.9354702457785606 4.6973524168133762 9.213770644739272 12.43803611397743 91.523313663899899 8.8128076270222682 14.19009233266115 8.6029120683670062 12.18372178450227 15.030092813074587 8.4184316918253881
leaf_count=231 10 19 1 101 60 40 5 40 6 8 21 34 15 19
internal_value=0.0251734 0.0161008 0.0221795 -0.0115693 0.0257509 0.0142849 0.0251023 0.03128 0.0262496 0.0204323 0.0134833 0.0303295 0.0239946 0.00362847
internal_weight=264.756 108.172 96.4998 8.93992 87.5599 26.3492 21.6518 156.584 65.0607 40.0242 25.8342 61.2107 27.2138 17.0213
internal_count=610 506 275 102 173 105 45 104 64 54 46 68 49 40
is_linear=0
shrinkage=0.03


Tree=59
num_leaves=10
num_cat=0
split_feature=0 78 103 24 95 11 53 11 16
split_gain=15.6115 21.9887 19.9475 22.3297 5.25065 12.0335 3.48701 3.31599 0.380151
threshold=-0.24904297714365201 0.97182943535464605 -1.0000000180025095e-35 0.1135808444500095 -0.097290592492085104 0.71669493064118639 -0.19981720616082072 0.37725053767596778 -0.051224271386815623
decision_type=2 2 2 2 2 2 2 2 2
left_child=8 2 3 -2 5 -4 -6 -8 -1
right_child=1 -3 4 -5 6 -7 7 -9 -10
leaf_value=0.024841010668296741 -0.03900572763996956 -0.029832438719691108 -0.030145808958706017 0.023477791849357433 0.00015099512266173706 0.030722356739803783 0.020974895770317872 0.033896315037384182 0.034019621153208168
leaf_weight=22.115699796006083 9.2042134590446967 7.389727806672453 4.2587304357439262 9.3998440876603109 4.2540120407938948 5.5701777935028076 40.711361961439252 54.226006651297212 102.69622675329447
leaf_count=24 140 150 76 12 14 2 104 37 51
internal_value=0.0249122 0.0175704 0.0205491 -0.00769521 0.0254223 0.00372361 0.0274838 0.028663 0.0326275
internal_weight=259.826 135.014 127.624 18.6041 109.02 9.82891 99.1914 94.9374 124.812
internal_count=610 535 385 152 233 78 155 141 75
is_linear=0
shrinkage=0.03


Tree=60
num_leaves=8
num_cat=0
split_feature=0 63 47 11 13 46 16
split_gain=15.2885 21.2074 47.0808 4.35694 10.3703 21.1963 0.622596
threshold=-0.24904297714365201 1.3784328358208957 0.69468552371236791 0.37725053767596778 -1.0000000180025095e-35 46.179580755567805 -0.056636394995028885
decision_type=2 2 2 2 2 2 2
left_child=6 3 -3 4 -2 -6 -1
right_child=1 2 -4 -5 5 -7 -8
leaf_value=0.023493569771015247 0.029896552159331794 -0.034292203612129264 0.026042075839481399 0.032692952120691711 0.026803456586753548 -0.037351977123973652 0.033750038408733044
leaf_weight=19.366688618436456 25.353211082518101 19.058458410203457 26.729441002011299 44.76766411960125 10.041511770337822 6.9876652415841809 102.80583527311683
leaf_count=22 36 357 22 25 16 79 53
internal_value=0.024626 0.0173142 0.000668623 0.0259188 0.0181056 0 0.0323525
internal_weight=255.11 132.938 45.7879 87.1501 42.3824 17.0292 122.173
internal_count=610 535 379 156 131 95 75
is_linear=0
shrinkage=0.03


Tree=61
num_leaves=11
num_cat=0
split_feature=74 26 41 1 0 25 57 54 9 9
split_gain=17.3 10.6796 11.9793 8.7402 5.94466 10.9737 19.8139 10.6753 0.405144 1.22548
threshold=1.4151884078979495 7.5000000000000009 0.64767474600966313 0.8600052460153208 -0.24904297714365201 -0.038220070658174225 0.027931106365554407 0.065680957985488023 -0.01388141526517561 0.056280836931606244
decision_type=2 2 2 2 2 2 2 2 2 2
left_child=1 4 -3 -2 -1 8 7 -7 -6 -10
right_child=3 2 -4 -5 5 6 -8 -9 9 -11
leaf_value=0.032485039890598484 -0.030621210098025136 -0.027883587800649871 0.02928589307205021 0.025666383034670455 0.031414625830747556 -0.032203490732447604 0.0241862244257725 0.023172004082914054 0.012630257417593249 0.029044148353094018
leaf_weight=113.61479317396879 6.9366363398730737 6.3186439797282201 4.9973065853118896 2.6775867938995361 50.864741157740355 10.961269831284879 26.8350540548563 3.3726467415690413 10.925015157088639 12.611953876912592
leaf_count=62 137 126 2 1 35 176 21 7 29 14
internal_value=0.0243825 0.0259686 -0.00206509 -0.0137211 0.0273688 0.0220778 0.00923317 -0.018317 0.0289287 0.0223729
internal_weight=250.116 240.501 11.316 9.61422 229.185 115.571 41.169 14.3339 74.4017 23.537
internal_count=610 472 128 138 344 282 204 183 78 43
is_linear=0
shrinkage=0.03


Tree=62
num_leaves=11
num_cat=0
split_feature=74 26 41 1 0 92 11 39 14 16
split_gain=16.6163 10.2359 11.5966 8.47964 5.86951 11.3629 14.9449 7.38907 5.49653 0.4638
threshold=1.4151884078979495 7.5000000000000009 0.64767474600966313 0.8600052460153208 -0.24904297714365201 4.6167989597467214 0.65853439367600741 0.94276673561218682 0.049939818224454507 -0.056636394995028885
decision_type=2 2 2 2 2 2 2 2 2 2
left_child=1 4 -3 -2 9 7 -7 -6 -9 -1
right_child=3 2 -4 -5 5 6 -8 8 -10 -11
leaf_value=0.023557493173776457 -0.030432475293159986 -0.027723326819666515 0.029039874488768651 0.025418151921978584 -0.024176554466546478 -0.038469434206373887 0.025251465422484531 0.029563003287516407 0.010764055275037054 0.033651320323257072
leaf_weight=18.415286868810654 6.7788563035428506 6.1725076474249345 4.8984227180480957 2.6330645084381104 1.895215157419442 5.4801393952220661 5.7770237475633621 81.143098995089531 19.407208662480116 92.707575634121895
leaf_count=17 137 126 2 1 18 105 4 90 65 45
internal_value=0.0241353 0.0257037 -0.00203434 -0.0135791 0.0270858 0.0217947 -0.00613172 0.024922 0.0261059 0.0322304
internal_weight=245.308 235.896 11.0709 9.41192 224.826 113.703 11.2572 102.446 100.55 111.123
internal_count=610 472 128 138 344 282 109 173 155 62
is_linear=0
shrinkage=0.03


Tree=63
num_leaves=11
num_cat=0
split_feature=74 15 89 116 3 1 10 28 0 6
split_gain=15.9351 9.95841 27.6295 10.0453 8.53145 8.22764 2.49294 8.99248 1.28031 2.94792
threshold=1.4151884078979495 0.44330549531948021 48.447618525021959 -1.0000000180025095e-35 0.75634856100047942 0.8600052460153208 -1.0000000180025095e-35 0.38419008319207265 -0.3259767078467366 0.043805154014220811
decision_type=2 2 2 2 2 2 2 2 2 2
left_child=1 2 -1 4 -4 -2 -5 -8 -3 -10
right_child=5 8 3 6 -6 -7 7 -9 9 -11
leaf_value=-0.031232990213601198 -0.030244595579521305 0.033744680189929099 0.026187849847788627 0.031879633065018051 -0.032312423334419083 0.025173875449132493 0.0012671431186270518 0.030404894104049739 0.016311362849174636 0.031860545773070896
leaf_weight=8.567529443651436 6.62488069757819 81.65013562142849 2.7708673477172843 37.733186531811953 4.5897213593125343 2.5892245769500732 15.614089395850895 24.794206246733665 24.35482407361269 31.522474870085716
leaf_count=167 137 39 1 41 61 1 92 16 38 17
internal_value=0.0238613 0.0254096 0.0174865 0.0227076 -0.00943313 -0.013438 0.025854 0.0195208 0.030642 0.0255419
internal_weight=240.811 231.597 94.0696 85.5021 7.36059 9.21411 78.1415 40.4083 137.527 55.8773
internal_count=610 472 378 211 62 138 149 108 94 55
is_linear=0
shrinkage=0.03


Tree=64
num_leaves=12
num_cat=0
split_feature=15 29 30 3 48 70 7 13 38 72 63
split_gain=13.9673 19.2101 10.8412 9.85596 7.30261 6.40206 11.2745 2.95753 8.94382 1.91984 2.88711
threshold=0.44330549531948021 0.99459085184592488 -0.035421564133813137 0.8139767944928864 1.2468500766122614 -0.11897334206913042 1.3313596305293507 -0.058348097283402393 -0.24782109984724035 0.58191668190186396 1.8575915875169609
decision_type=2 2 2 2 2 2 2 2 2 2 2
left_child=1 2 4 -3 -1 7 -7 -4 -9 10 -2
right_child=9 3 5 -5 -6 6 -8 8 -10 -11 -12
leaf_value=0.020612249954371352 0.029128567453193439 0.025930960470332876 0.032708762397844711 -0.030860304653742072 -0.03276341695401979 -0.030786051505730053 0.02624388496787303 0.030332979916762228 -0.003359823182534145 0.033339669769910873 0.013376463547095419
leaf_weight=2.8786357175558797 39.133271344006062 2.7249703407287589 37.002513172104955 10.473162330687044 4.8474699072539806 4.5163360238075239 6.1709621697664261 18.468460204079747 10.629213375970723 80.324687235057354 19.105094760656357
leaf_count=7 26 1 26 253 71 58 5 17 68 40 38
internal_value=0.0236099 0.0146258 0.019894 -0.017923 -0.0124495 0.0233051 0.00131491 0.0267433 0.0182228 0.0297736 0.0243248
internal_weight=236.275 97.7117 84.5136 13.1981 7.72611 76.7875 10.6873 66.1002 29.0977 138.563 58.2384
internal_count=610 506 252 254 78 174 63 111 85 104 64
is_linear=0
shrinkage=0.03


Tree=65
num_leaves=10
num_cat=0
split_feature=37 82 89 39 18 20 14 39 42
split_gain=13.6287 15.4275 11.923 27.7554 9.22355 12.3024 3.78204 8.39923 0.813527
threshold=0.045395843250400199 -0.29038132670563022 48.190149253731349 0.95298592286697326 3.0632089552238813 -0.15025643507300465 0.049939818224454507 1.0352666229861149 27.921341896057132
decision_type=2 2 2 2 2 2 2 2 2
left_child=1 -1 3 -3 6 -6 8 -8 -4
right_child=-2 2 4 -5 5 -7 7 -9 -10
leaf_value=-0.027371481140794171 0.031841060234314489 0.026117090373977723 0.0327488692774714 -0.037618625282628708 0.025732829102463595 -0.036063247729092467 -0.011732618753703824 0.026717435953058793 0.022619252285895772
leaf_weight=5.8712193574756375 99.248662255704403 13.842647632583978 47.166961491107941 9.4980039000511152 5.048797719180584 4.5607903506606799 6.9910262245684889 13.730219287797807 25.851093353703618
leaf_count=156 56 29 37 141 4 64 53 16 54
internal_value=0.023364 0.0168038 0.0190728 -0.000175579 0.0234087 -0.00394808 0.0262569 0.013664 0.0295572
internal_weight=231.809 132.561 126.69 23.3407 103.349 9.60959 93.7393 20.7212 73.0181
internal_count=610 554 398 170 228 68 160 69 91
is_linear=0
shrinkage=0.03


Tree=66
num_leaves=11
num_cat=0
split_feature=0 31 26 41 92 1 14 33 41 16
split_gain=13.8606 18.4526 16.1676 9.91151 9.31305 15.4372 5.86644 14.9253 1.26205 0.790322
threshold=-0.24904297714365201 0.0015044800395857929 7.5000000000000009 0.8600052460153208 4.6167989597467214 0.80216672879394813 0.049939818224454507 2.8740499936739696 0.29546365155743176 -0.056636394995028885
decision_type=2 2 2 2 2 2 2 2 2 2
left_child=9 2 4 -3 6 -6 8 -8 -2 -1
right_child=1 3 -4 -5 5 -7 7 -9 -10 -11
leaf_value=0.021545571770273296 0.020497019296657485 -0.03563408892845292 -0.026999097172472904 0.02464622460681537 -0.038999607823232973 0.02929760250215839 -0.032276795476513208 0.024584528256121667 0.031946781925854206 0.032556123141130544
leaf_weight=17.33045868575573 22.268869558349252 8.1479915101081115 5.4816465601325026 2.494602918624877 4.9090147409588081 5.0005261898040771 4.7288209646940258 14.240636609494684 53.019045725464821 89.78398260474205
leaf_count=22 45 142 125 1 100 2 60 16 44 53
internal_value=0.0231144 0.015854 0.0195466 -0.0203435 0.022258 -0.00473423 0.0251472 0.00935308 0.0289125 0.0310182
internal_weight=227.406 120.291 109.649 10.6426 104.167 9.90954 94.2574 18.9695 75.2879 107.114
internal_count=610 535 392 143 267 102 165 76 89 75
is_linear=0
shrinkage=0.03


Tree=67
num_leaves=12
num_cat=0
split_feature=74 26 3 37 0 95 41 73 61 16 22
split_gain=14.252 9.05433 10.2386 7.31011 5.78648 11.6757 7.85454 6.12743 15.0472 0.575438 0.338829
threshold=1.4151884078979495 7.5000000000000009 0.73136147574863941 0.051512101833484876 -0.24904297714365201 -0.097290592492085104 0.8600052460153208 -0.01626970103021352 0.42849704699049224 -0.056636394995028885 -0.095908560684700217
decision_type=2 2 2 2 2 2 2 2 2 2 2
left_child=1 4 -3 -2 9 6 -6 10 -9 -1 -7
right_child=3 2 -4 -5 5 7 -8 8 -10 -11 -12
leaf_value=0.022068536957948512 -0.029783463511169835 0.027901516093119954 -0.027370876505208103 0.024042246914739614 -0.032112213366067295 0.032967983061789274 0.024413574190800751 -0.017024741399830449 0.024575668463867797 0.032719051301349444 0.023808435153340218
leaf_weight=16.816264480352402 6.1920006796717626 4.4419786930084211 5.7521573286503553 2.3867843151092529 5.3717112187296143 31.785975396633148 2.4529845714569092 10.078508550301192 26.224041730165482 82.627092339098454 28.851087816059589
leaf_count=17 137 2 126 1 116 16 1 96 20 45 33
internal_value=0.0228786 0.0244062 -0.00267756 -0.0135484 0.0257793 0.0203729 -0.0132934 0.023229 0.0127991 0.0311855 0.0291155
internal_weight=222.981 214.402 10.1941 8.57878 204.208 104.764 7.8247 96.9396 36.3026 99.4434 60.6371
internal_count=610 472 128 138 344 282 117 165 116 62 49
is_linear=0
shrinkage=0.03


Tree=68
num_leaves=11
num_cat=0
split_feature=74 15 89 116 3 1 9 74 0 3
split_gain=13.6959 9.17458 23.7429 8.86337 7.59584 7.09671 3.01334 13.4843 1.54453 2.57935
threshold=1.4151884078979495 0.44330549531948021 48.447618525021959 -1.0000000180025095e-35 0.75634856100047942 0.8600052460153208 -0.047800258258492927 0.47687406539916999 -0.3259767078467366 0.99558574449070858
decision_type=2 2 2 2 2 2 2 2 2 2
left_child=1 2 -1 4 -4 -2 -5 -8 -3 -10
right_child=5 8 3 6 -6 -7 7 -9 9 -11
leaf_value=-0.030702027175060702 -0.029595998384033165 0.032914931416895638 0.025011084619500256 0.029874697565237411 -0.031736811382935361 0.023818048818328545 -0.0084037827680646261 0.031628403396312822 0.014052898298099846 0.029524984955872306
leaf_weight=7.8435622416436663 6.0527278333902341 72.685245677828789 2.5600116252899161 41.731103954836726 4.318637927994132 2.3469898700714111 11.783487275242807 18.172190582379699 19.731201853603125 31.437422506511211
leaf_count=167 137 39 1 39 61 1 92 18 34 21
internal_value=0.0226513 0.0241626 0.0162599 0.021313 -0.00974239 -0.0134061 0.0244272 0.0160215 0.0294776 0.024
internal_weight=218.663 210.263 86.409 78.5654 6.87865 8.39972 71.6868 29.9557 123.854 51.1686
internal_count=610 472 378 211 62 138 149 110 94 55
is_linear=0
shrinkage=0.03


Tree=69
num_leaves=13
num_cat=0
split_feature=74 15 95 29 42 74 70 39 13 72 81 3
split_gain=13.1573 8.93982 16.8594 8.77539 6.89017 6.80142 6.20775 9.59572 1.95694 1.12873 1.84885 3.50058
threshold=1.4151884078979495 0.44330549531948021 1.0000000180025095e-35 0.99459085184592488 7.1061851978302011 -4.7322539329528803 -0.11897334206913042 1.0622300060145091 -0.058348097283402393 0.58191668190186396 -0.35010041795564145 0.99558574449070858
decision_type=2 2 2 2 2 2 2 2 2 2 2 2
left_child=1 2 3 6 -2 -5 8 -8 -1 10 -3 -12
right_child=4 9 -4 5 -6 -7 7 -9 -10 -11 11 -13
leaf_value=0.031634084350211152 0.023596852335320179 0.032266919506703212 -0.033806862404029844 0.024773060234123373 -0.029409255925893725 -0.027360105766192484 -0.030513999694287468 0.023798061865986653 0.018912676288013588 0.03248248078902808 0.0052894897473192357 0.0261894233541673
leaf_weight=33.430647319182754 2.3078875541686994 19.458506345748901 4.7923416085541239 2.5173258781433105 5.9168338719755411 5.342007251456379 4.1138448696583492 5.843774639070034 28.907017797231674 69.420120030641556 12.597857777029274 19.816452570259571
leaf_count=33 1 10 71 1 137 141 51 8 73 38 30 16
internal_value=0.02242 0.0239147 0.0160497 0.0194474 -0.0132647 -0.00941189 0.0227113 0.000349046 0.0261741 0.029222 0.0242701 0.0185578
internal_weight=214.465 206.24 84.947 80.1546 8.22472 7.85933 72.2953 9.95762 62.3377 121.293 51.8728 32.4143
internal_count=610 472 378 307 138 142 165 59 106 94 56 46
is_linear=0
shrinkage=0.03


Tree=70
num_leaves=10
num_cat=0
split_feature=0 31 26 41 92 1 11 13 16
split_gain=12.9282 16.5498 14.4738 8.9612 8.54103 14.3379 5.70935 9.72632 0.867595
threshold=-0.24904297714365201 0.0015044800395857929 7.5000000000000009 0.8600052460153208 4.6167989597467214 0.80216672879394813 0.37725053767596778 -1.0000000180025095e-35 -0.056636394995028885
decision_type=2 2 2 2 2 2 2 2 2
left_child=8 2 4 -3 6 -6 7 -2 -1
right_child=1 3 -4 -5 5 -7 -8 -9 -10
leaf_value=0.020391135956735265 0.026945434614781341 -0.035285921799437188 -0.026622789925277779 0.023664731330442505 -0.03924733852595113 0.028461249322840085 0.030664801208509711 -0.0037176475398944175 0.031828428666145311
leaf_weight=16.195064885541797 21.385518031194806 7.6315000019967538 5.1442421432584515 2.3198690414428711 4.5915000550448877 4.6646249294281006 51.354775331914425 15.30377186462283 81.84091280028224
leaf_count=22 40 142 125 1 100 2 35 90 53
internal_value=0.0221846 0.0149671 0.0185918 -0.0203634 0.0212593 -0.005385 0.0241232 0.0143164 0.0301943
internal_weight=210.432 112.396 102.444 9.95137 97.3002 9.25612 88.0441 36.6893 98.036
internal_count=610 535 392 143 267 102 165 130 75
is_linear=0
shrinkage=0.03


Tree=71
num_leaves=12
num_cat=0
split_feature=0 103 24 31 41 11 13 46 66 33 16
split_gain=12.6207 16.3535 17.4428 8.77717 6.62044 4.67529 10.2311 18.0267 1.04011 0.202534 0.113971
threshold=-0.24904297714365201 -1.0000000180025095e-35 0.1135808444500095 0.0021736454256557837 0.8600052460153208 0.37725053767596778 -1.0000000180025095e-35 46.179580755567805 0.41218247675046521 2.4963551432187714 -0.0090937256043700562
decision_type=2 2 2 2 2 2 2 2 2 2 2
left_child=8 2 -2 5 -5 6 9 -8 -1 -3 -7
right_child=1 3 -4 4 -6 10 7 -9 -10 -11 -12
leaf_value=0.021417444169424614 -0.038304376499475205 0.017945704640973933 0.019852415127045987 -0.03053430149808661 0.023445549925616888 0.022243070061639308 0.023049512880206905 -0.036948592937942309 0.032114805736548457 0.03137641905336333 0.031442669201977101
leaf_weight=21.812989359721541 9.0779843647032994 9.0855634696781653 7.6712423488497725 4.560591557994484 2.2812438011169434 19.965905325487256 8.9166381601244229 7.2548360200598827 74.094887938350439 11.922007255256174 29.793075174093246
leaf_count=29 181 35 14 80 1 36 28 129 46 9 22
internal_value=0.0219492 0.0147659 -0.0118814 0.0196319 -0.0114588 0.0222153 0.0134369 -0.00427633 0.0299589 0.0267835 0.0283213
internal_weight=206.437 110.529 16.7492 93.7799 6.84184 86.938 37.179 16.1715 95.9079 21.0076 49.759
internal_count=610 535 195 340 81 259 201 157 75 44 58
is_linear=0
shrinkage=0.03


Tree=72
num_leaves=12
num_cat=0
split_feature=37 78 115 6 16 4 21 37 28 104 103
split_gain=12.345 20.0094 9.24115 14.5245 4.73148 11.3989 13.2359 1.9129 3.26885 0.698855 0.127995
threshold=0.045395843250400199 0.97260055768714315 48.447618525021959 -0.44768142216556284 0.0083684356092756044 0.95485340012015618 0.96487334823250792 0.025352595334900859 0.38419008319207265 0.81945413129961808 1.0000000180025095e-35
decision_type=2 2 2 2 2 2 2 2 2 2 2
left_child=1 2 4 -4 5 9 -7 8 -6 -1 -9
right_child=-2 -3 3 -5 7 6 -8 10 -10 -11 -12
leaf_value=0.031273217032358219 0.030501688633874209 -0.03202372877280036 0.024965401544805504 -0.034008413910916135 -0.0055977661490880046 -0.03327912006407148 0.027209075350723606 0.022579029709146214 0.02661162777794597 0.017300491805916099 0.032243518329018943
leaf_weight=9.3297929614782351 84.890421949326992 6.6588479522615662 6.4422874301671982 6.5870927097275835 4.5115259317681176 7.6594025585800392 4.2530842870473862 18.186141652986407 5.12344173155725 17.196919776499271 31.642697555944324
leaf_count=5 56 156 6 108 43 134 3 33 8 36 22
internal_value=0.0217305 0.0151693 0.0182897 -0.00493431 0.0214295 0.0125666 -0.0110161 0.0268065 0.0121394 0.0232814 0.0292889
internal_weight=202.482 117.591 110.932 13.0294 97.903 38.4392 11.9125 59.4638 9.63497 26.5267 49.8288
internal_count=610 554 398 114 284 178 137 106 51 41 55
is_linear=0
shrinkage=0.03


Tree=73
num_leaves=11
num_cat=0
split_feature=0 63 11 1 14 39 41 33 50 108
split_gain=12.1219 15.5553 31.4739 8.83605 6.23095 8.56442 1.42687 4.10101 1.57366 0.977126
threshold=-0.24904297714365201 1.3784328358208957 0.63808837659618167 0.68831874836739526 0.049939818224454507 1.0268418251164715 0.29546365155743176 2.9292302803208612 13.785155425593425 0.97410447761194041
decision_type=2 2 2 2 2 2 2 2 2 2
left_child=9 4 3 -3 6 -6 7 8 -2 -1
right_child=1 2 -4 -5 5 -7 -8 -9 -10 -11
leaf_value=0.021529705364747846 0.015130295491634586 -0.036465255938062817 0.024897055229098429 0.021712771697328367 -0.031452418553164503 0.018958193793653294 0.030540620026646897 0.027746408581753545 -0.0096387478341315672 0.031873504135817701
leaf_weight=23.155486552044749 2.8533316515386131 15.949809084646404 19.000801732763648 1.9842706918716437 3.5477163661271325 8.0786689389497024 37.495592365041375 13.018992073833941 4.7495709750801325 68.668282095342875
leaf_count=30 8 358 20 1 45 15 36 15 37 45
internal_value=0.0215232 0.0143696 -0.00130016 -0.0290631 0.0226114 0.0020654 0.0265664 0.0181233 0 0.0295574
internal_weight=198.503 106.679 36.9349 17.9341 69.7439 11.6264 58.1175 20.6219 7.6029 91.8238
internal_count=610 535 379 359 156 60 96 60 45 75
is_linear=0
shrinkage=0.03


Tree=74
num_leaves=9
num_cat=0
split_feature=37 78 89 39 28 44 77 87
split_gain=11.9044 18.9136 13.4311 23.8303 3.80537 11.8476 16.3068 0.741256
threshold=0.045395843250400199 0.97260055768714315 48.190149253731349 0.95220579418316176 0.38419008319207265 28.108051020001614 0.9345645685876055 0.28828461522348975
decision_type=2 2 2 2 2 2 2 2
left_child=1 2 3 -1 5 7 -7 -4
right_child=-2 -3 4 -5 -6 6 -8 -9
leaf_value=0.024187532733942491 0.030135284350859111 -0.031901145585535196 0.016513292707937752 -0.036842715239321012 0.030289060728215775 0.026628166674687526 -0.034605296054903277 0.030053622846860407
leaf_weight=11.809365664608778 81.180913262069225 6.401252817362546 11.51435045711696 9.4523501694202405 38.845680069178343 6.3125412948429567 7.4241465954110026 21.701230835169554
leaf_count=33 56 156 29 161 27 10 111 27
internal_value=0.0213153 0.0147703 0.017858 -0.0032462 0.0230996 0.0165812 -0.0063651 0.0260673
internal_weight=194.642 113.461 107.06 21.2617 85.7979 46.9523 13.7367 33.2156
internal_count=610 554 398 194 204 177 121 56
is_linear=0
shrinkage=0.03


Tree=75
num_leaves=11
num_cat=0
split_feature=37 78 115 6 16 8 21 37 8 33
split_gain=11.585 18.2574 8.49438 13.3808 4.43471 10.6179 13.0537 1.85761 2.86327 1.26678
threshold=0.045395843250400199 0.97260055768714315 48.447618525021959 -0.44768142216556284 0.0083684356092756044 -0.046084154672602261 0.96487334823250792 0.025352595334900859 -0.078323900773992636 2.8224881034271183
decision_type=2 2 2 2 2 2 2 2 2 2
left_child=1 2 4 -4 5 9 -7 8 -6 -1
right_child=-2 -3 3 -5 7 6 -8 -9 -10 -11
leaf_value=0.011097293264978566 0.029932133984538242 -0.031711477736687671 0.024284329485566542 -0.033620190159752608 0.027004008329065878 -0.035937596310191777 0.026514494805320768 0.028656395818241483 -0.0036765864991730834 0.027411101121603644
leaf_weight=9.4995611002668721 79.314977236092091 6.2545552710071197 6.1006501968950033 6.2623412292450649 4.2625693939626217 6.729786707088353 3.9829167947173119 46.89854690246284 4.9707530392333847 16.377119285985827
leaf_count=41 56 156 6 108 3 117 3 55 48 17
internal_value=0.0211222 0.0146089 0.0176671 -0.00514307 0.020763 0.011976 -0.0121808 0.0261283 0.0114487 0.0221695
internal_weight=190.654 111.339 105.084 12.363 92.7213 36.5894 10.7127 56.1319 9.23332 25.8767
internal_count=610 554 398 114 284 178 120 106 51 58
is_linear=0
shrinkage=0.03


Tree=76
num_leaves=12
num_cat=0
split_feature=0 103 1 56 104 95 11 37 2 66 33
split_gain=11.4267 15.0797 11.4361 8.11902 10.7404 5.47787 8.78203 3.6103 2.00085 1.23731 0.488353
threshold=-0.24904297714365201 -1.0000000180025095e-35 0.55990770118732225 1.4796500771604941 0.7868604835535552 -0.097290592492085104 0.71669493064118639 0.020800652502156857 -0.13009088517432035 0.41218247675046521 2.4963551432187714
decision_type=2 2 2 2 2 2 2 2 2 2 2
left_child=9 2 -2 5 -5 6 -3 8 -7 -1 -9
right_child=1 3 -4 4 -6 7 -8 10 -10 -11 -12
